<?xml version="1.0"?>
<opencv_storage>
<my_svm type_id="opencv-ml-svm">
  <svm_type>C_SVC</svm_type>
  <kernel><type>RBF</type>
    <gamma>5.0625000000000009e-001</gamma></kernel>
  <C>3.1250000000000000e+002</C>
  <term_criteria><epsilon>1.1920928955078125e-007</epsilon>
    <iterations>1000</iterations></term_criteria>
  <var_all>150</var_all>
  <var_count>150</var_count>
  <class_count>2</class_count>
  <class_labels type_id="opencv-matrix">
    <rows>1</rows>
    <cols>2</cols>
    <dt>i</dt>
    <data>
      0 1</data></class_labels>
  <sv_total>135</sv_total>
  <support_vectors>
    <_>
      8.24742299e-003 6.18556701e-003 4.12371149e-003 2.06185575e-003
      8.24742299e-003 6.18556701e-003 0. 2.68041249e-002 2.06185575e-003
      1.23711340e-002 1.23711340e-002 8.24742299e-003 2.06185575e-003
      2.06185579e-002 0. 6.18556701e-003 2.06185575e-003 1.85567010e-002
      6.18556701e-003 1.23711340e-002 1.03092790e-002 4.12371149e-003
      8.24742299e-003 0. 8.24742299e-003 0. 4.12371149e-003
      8.24742299e-003 0. 6.18556701e-003 4.12371149e-003 2.06185575e-003
      4.12371149e-003 1.03092790e-002 8.24742299e-003 4.12371149e-003
      2.06185575e-003 8.24742299e-003 8.24742299e-003 6.18556701e-003
      1.64948460e-002 8.24742299e-003 1.23711340e-002 2.06185575e-003
      6.18556701e-003 4.12371149e-003 1.03092790e-002 2.06185575e-003
      1.03092790e-002 4.12371149e-003 8.24742299e-003 0. 1.23711340e-002
      1.03092790e-002 2.06185575e-003 8.24742299e-003 6.18556701e-003
      4.12371149e-003 0. 0. 1.44329900e-002 6.18556701e-003
      8.24742299e-003 4.12371149e-003 2.06185575e-003 1.03092790e-002
      2.06185575e-003 1.03092790e-002 1.03092790e-002 1.64948460e-002
      4.12371149e-003 4.12371149e-003 4.12371149e-003 0. 6.18556701e-003
      1.03092790e-002 0. 6.18556701e-003 8.24742299e-003 4.12371149e-003
      4.12371149e-003 6.18556701e-003 6.18556701e-003 0. 4.12371149e-003
      8.24742299e-003 4.12371149e-003 0. 2.06185575e-003 1.03092790e-002
      2.06185575e-003 8.24742299e-003 4.12371149e-003 1.64948460e-002
      6.18556701e-003 6.18556701e-003 1.03092790e-002 0. 8.24742299e-003
      2.47422680e-002 4.12371149e-003 8.24742299e-003 8.24742299e-003
      1.03092790e-002 0. 2.06185575e-003 8.24742299e-003 1.44329900e-002
      1.03092790e-002 0. 4.12371149e-003 8.24742299e-003 8.24742299e-003
      2.06185575e-003 1.85567010e-002 8.24742299e-003 4.12371149e-003
      1.85567010e-002 2.06185575e-003 6.18556701e-003 6.18556701e-003
      2.06185575e-003 2.06185575e-003 2.06185575e-003 8.24742299e-003
      2.06185575e-003 2.06185575e-003 8.24742299e-003 4.12371149e-003
      2.06185575e-003 6.18556701e-003 1.23711340e-002 1.44329900e-002
      4.12371149e-003 6.18556701e-003 1.23711340e-002 2.06185575e-003
      2.06185575e-003 2.06185575e-003 2.06185575e-003 6.18556701e-003
      1.44329900e-002 1.23711340e-002 6.18556701e-003 0. 1.23711340e-002
      2.47422680e-002 0. 2.06185575e-003 8.24742299e-003</_>
    <_>
      7.19424477e-003 3.59712238e-003 7.19424477e-003 1.43884895e-002
      7.19424477e-003 3.59712238e-003 0. 2.51798574e-002 0. 0. 0. 0. 0.
      7.19424477e-003 0. 0. 0. 3.23741026e-002 3.59712238e-003 0. 0. 0.
      0. 0. 2.51798574e-002 0. 0. 3.59712238e-003 0. 3.59712238e-003 0.
      7.19424477e-003 1.79856122e-002 0. 0. 0. 1.43884895e-002
      2.15827338e-002 0. 0. 3.59712243e-002 5.03597148e-002
      7.19424477e-003 0. 3.59712238e-003 0. 3.59712238e-003 0.
      7.19424477e-003 0. 0. 7.19424477e-003 0. 0. 1.07913669e-002
      2.15827338e-002 3.59712238e-003 0. 0. 1.43884895e-002
      5.39568365e-002 7.19424477e-003 3.59712238e-003 0. 1.07913669e-002
      1.43884895e-002 0. 0. 0. 0. 0. 3.59712238e-003 3.59712238e-003 0.
      0. 7.19424477e-003 3.59712238e-003 0. 7.19424477e-003
      1.79856122e-002 1.79856122e-002 0. 7.19424477e-003 0.
      3.59712238e-003 0. 3.59712238e-003 3.59712238e-003 3.59712238e-003
      7.19424477e-003 0. 1.79856122e-002 1.07913669e-002 0.
      1.07913669e-002 3.59712238e-003 3.59712238e-003 7.19424477e-003
      3.59712238e-003 0. 0. 1.43884895e-002 3.59712238e-003
      7.19424477e-003 0. 1.43884895e-002 2.15827338e-002 0. 0.
      2.15827338e-002 0. 0. 1.07913669e-002 3.59712238e-003
      1.79856122e-002 0. 1.07913669e-002 1.79856122e-002 0.
      4.31654677e-002 3.59712238e-003 1.43884895e-002 0. 3.59712238e-003
      0. 0. 1.79856122e-002 1.07913669e-002 0. 7.19424477e-003
      2.51798574e-002 3.59712238e-003 0. 0. 0. 7.19424477e-003 0.
      7.19424477e-003 1.79856122e-002 3.23741026e-002 1.07913669e-002
      1.43884895e-002 0. 0. 0. 0. 0. 7.19424477e-003 2.15827338e-002 0.</_>
    <_>
      1.22699384e-002 1.53374225e-002 0. 1.84049085e-002 0.
      1.53374225e-002 6.13496918e-003 3.06748459e-003 0. 6.13496918e-003
      9.20245424e-003 0. 3.06748459e-003 0. 0. 3.06748459e-003
      1.22699384e-002 6.13496918e-003 9.20245424e-003 9.20245424e-003
      2.14723926e-002 0. 3.06748459e-003 9.20245424e-003 0.
      1.22699384e-002 9.20245424e-003 1.53374225e-002 1.53374225e-002
      1.84049085e-002 1.53374225e-002 6.13496918e-003 1.53374225e-002
      3.06748459e-003 6.13496918e-003 0. 6.13496918e-003 6.13496918e-003
      0. 0. 2.45398767e-002 3.06748459e-003 0. 2.14723926e-002
      9.20245424e-003 6.13496918e-003 1.84049085e-002 9.20245424e-003
      3.06748459e-003 3.06748459e-003 1.84049085e-002 3.06748459e-003
      3.06748459e-003 1.22699384e-002 9.20245424e-003 3.06748459e-003
      3.06748459e-003 6.13496918e-003 9.20245424e-003 9.20245424e-003 0.
      0. 0. 9.20245424e-003 0. 0. 1.22699384e-002 9.20245424e-003
      3.06748450e-002 1.22699384e-002 3.06748459e-003 1.53374225e-002
      1.22699384e-002 3.06748459e-003 3.06748459e-003 9.20245424e-003 0.
      3.06748459e-003 1.22699384e-002 6.13496918e-003 6.13496918e-003
      1.22699384e-002 3.06748459e-003 6.13496918e-003 9.20245424e-003
      6.13496918e-003 1.22699384e-002 1.53374225e-002 6.13496918e-003
      1.84049085e-002 0. 0. 0. 9.20245424e-003 0. 2.14723926e-002 0.
      3.06748459e-003 1.22699384e-002 1.22699384e-002 0. 0.
      6.13496918e-003 0. 3.06748459e-003 6.13496918e-003 1.22699384e-002
      0. 9.20245424e-003 0. 0. 1.22699384e-002 0. 0. 3.06748450e-002
      3.06748459e-003 3.06748459e-003 9.20245424e-003 1.22699384e-002
      3.06748459e-003 0. 6.13496918e-003 0. 3.06748459e-003
      3.06748459e-003 1.84049085e-002 9.20245424e-003 0. 3.06748459e-003
      9.20245424e-003 3.06748459e-003 6.13496918e-003 3.06748459e-003
      3.06748459e-003 0. 3.06748459e-003 9.20245424e-003 3.06748459e-003
      0. 1.22699384e-002 3.06748459e-003 1.22699384e-002 0. 0.
      3.06748459e-003 0. 9.20245424e-003 3.06748459e-003 3.06748459e-003
      0.</_>
    <_>
      4.79999976e-003 3.19999992e-003 7.99999945e-003 1.91999990e-002
      7.99999945e-003 1.27999997e-002 6.39999984e-003 1.59999989e-002
      1.59999996e-003 4.79999976e-003 7.99999945e-003 6.39999984e-003
      9.59999952e-003 1.59999996e-003 4.79999976e-003 1.59999989e-002
      1.59999996e-003 1.11999996e-002 4.79999976e-003 4.79999976e-003
      1.43999998e-002 9.59999952e-003 6.39999984e-003 3.19999992e-003
      7.99999945e-003 1.59999996e-003 0. 1.11999996e-002 3.19999992e-003
      9.59999952e-003 9.59999952e-003 1.59999996e-003 4.79999976e-003
      3.19999992e-003 6.39999984e-003 0. 6.39999984e-003 2.08000001e-002
      4.79999976e-003 4.79999976e-003 6.39999984e-003 4.79999976e-003
      3.19999992e-003 1.11999996e-002 6.39999984e-003 3.19999992e-003
      6.39999984e-003 3.19999992e-003 0. 1.75999999e-002 1.43999998e-002
      1.59999996e-003 0. 1.27999997e-002 0. 1.59999996e-003
      3.19999992e-003 3.19999992e-003 3.19999992e-003 3.19999992e-003
      4.79999976e-003 4.79999976e-003 4.79999976e-003 1.43999998e-002
      3.19999992e-003 4.79999976e-003 3.19999992e-003 3.19999992e-003
      1.27999997e-002 3.83999981e-002 3.19999992e-003 1.27999997e-002
      1.59999996e-003 3.19999992e-003 1.11999996e-002 1.59999996e-003
      4.79999976e-003 1.27999997e-002 1.11999996e-002 6.39999984e-003
      4.79999976e-003 9.59999952e-003 4.79999976e-003 3.19999992e-003
      1.27999997e-002 4.79999976e-003 4.79999976e-003 3.19999992e-003
      7.99999945e-003 9.59999952e-003 1.27999997e-002 1.43999998e-002
      3.19999992e-003 1.59999996e-003 4.79999976e-003 4.79999976e-003
      1.59999996e-003 6.39999984e-003 1.59999996e-003 9.59999952e-003
      4.79999976e-003 1.43999998e-002 3.19999992e-003 3.19999992e-003
      4.79999976e-003 7.99999945e-003 1.11999996e-002 1.59999996e-003
      1.43999998e-002 1.11999996e-002 1.59999996e-003 1.43999998e-002
      1.59999996e-003 9.59999952e-003 7.99999945e-003 1.11999996e-002
      4.79999976e-003 1.43999998e-002 3.19999992e-003 6.39999984e-003
      7.99999945e-003 1.75999999e-002 4.79999976e-003 7.99999945e-003
      9.59999952e-003 4.79999976e-003 0. 3.19999992e-003 9.59999952e-003
      1.59999996e-003 3.19999992e-003 7.99999945e-003 7.99999945e-003 0.
      4.79999976e-003 6.39999984e-003 4.79999976e-003 4.79999976e-003
      4.79999976e-003 4.79999976e-003 3.19999992e-003 1.27999997e-002
      3.19999992e-003 9.59999952e-003 7.99999945e-003 7.99999945e-003
      4.79999976e-003 1.59999996e-003 0. 1.59999996e-003</_>
    <_>
      5.12820529e-003 2.56410264e-003 5.12820529e-003 1.28205130e-002
      1.02564106e-002 2.56410264e-003 2.56410264e-003 5.12820529e-003 0.
      5.12820529e-003 7.69230817e-003 5.12820529e-003 2.56410264e-003
      7.69230817e-003 2.56410264e-003 7.69230817e-003 5.12820529e-003 0.
      1.28205130e-002 7.69230817e-003 2.82051284e-002 7.69230817e-003
      2.56410264e-003 7.69230817e-003 5.12820529e-003 0. 3.07692327e-002
      1.28205130e-002 0. 8.46153870e-002 1.28205130e-002 7.69230817e-003
      7.69230817e-003 2.56410264e-003 7.69230817e-003 2.56410264e-003
      7.69230817e-003 7.69230817e-003 2.56410264e-003 0. 5.12820529e-003
      2.56410264e-003 1.79487187e-002 5.12820529e-003 5.12820529e-003
      2.56410264e-003 2.56410264e-003 7.69230817e-003 0. 5.12820529e-003
      0. 1.02564106e-002 1.02564106e-002 7.69230817e-003 1.02564106e-002
      2.56410264e-003 1.53846163e-002 1.53846163e-002 2.56410264e-003 0.
      5.12820529e-003 1.02564106e-002 7.69230817e-003 0. 0.
      1.53846163e-002 5.12820529e-003 2.56410264e-003 2.56410264e-003
      2.30769236e-002 5.12820529e-003 2.56410264e-003 1.02564106e-002
      5.12820529e-003 0. 7.69230817e-003 2.56410264e-003 7.69230817e-003
      5.12820529e-003 2.56410264e-003 0. 1.02564106e-002 1.02564106e-002
      1.02564106e-002 5.12820529e-003 7.69230817e-003 2.56410264e-003
      5.12820529e-003 7.69230817e-003 1.02564106e-002 5.12820529e-003
      2.56410264e-003 5.12820529e-003 0. 7.69230817e-003 0.
      7.69230817e-003 3.33333351e-002 2.56410264e-003 0. 5.12820529e-003
      1.53846163e-002 5.12820529e-003 2.56410264e-003 2.56410264e-003
      2.56410264e-003 2.56410264e-003 0. 5.12820529e-003 1.28205130e-002
      7.69230817e-003 0. 2.56410264e-003 5.12820529e-003 0. 0.
      2.56410264e-003 5.12820529e-003 2.56410264e-003 5.12820529e-003
      7.69230817e-003 1.28205130e-002 1.02564106e-002 1.02564106e-002 0.
      7.69230817e-003 7.69230817e-003 0. 0. 0. 2.56410264e-003
      1.02564106e-002 5.12820529e-003 2.56410264e-003 7.69230817e-003
      5.12820529e-003 7.69230817e-003 7.69230817e-003 0. 2.56410264e-003
      5.12820529e-003 0. 1.02564106e-002 5.12820529e-003 7.69230817e-003
      2.82051284e-002 5.12820529e-003 1.02564106e-002 0. 5.12820529e-003</_>
    <_>
      0. 0. 8.54700804e-003 5.69800567e-003 1.70940161e-002
      1.42450146e-002 2.84900283e-003 5.69800586e-002 0. 0.
      2.84900283e-003 0. 2.84900283e-003 1.70940161e-002 0.
      5.69800567e-003 2.84900283e-003 1.70940161e-002 0. 2.84900283e-003
      2.84900283e-003 0. 2.84900283e-003 0. 5.69800567e-003
      2.84900283e-003 0. 1.70940161e-002 2.84900283e-003 0.
      2.84900283e-003 1.99430194e-002 2.84900283e-003 0. 8.54700804e-003
      0. 1.99430194e-002 1.42450146e-002 2.84900283e-003 0.
      3.98860388e-002 2.27920227e-002 0. 5.69800567e-003 2.84900283e-003
      0. 2.56410260e-002 5.69800567e-003 2.84900283e-003 1.13960113e-002
      1.13960113e-002 0. 2.84900283e-003 5.69800567e-003 0.
      2.84900283e-003 0. 0. 0. 0. 5.69800567e-003 2.84900283e-003
      2.84900283e-003 8.54700804e-003 2.84900283e-003 4.27350439e-002 0.
      5.69800567e-003 2.84900283e-003 0. 0. 8.54700804e-003 0. 0.
      2.84900283e-003 3.13390307e-002 8.54700804e-003 5.69800567e-003
      1.13960113e-002 0. 0. 0. 0. 0. 1.13960113e-002 8.54700804e-003
      2.84900283e-003 0. 2.84900283e-003 2.84900283e-003 1.70940161e-002
      8.54700804e-003 2.27920227e-002 2.84900283e-003 0. 1.13960113e-002
      8.54700804e-003 2.84900283e-003 3.41880322e-002 2.84900283e-003
      2.84900283e-003 5.69800567e-003 0. 0. 5.69800567e-003 0.
      4.27350439e-002 5.69800567e-003 0. 0. 2.84900283e-003
      8.54700804e-003 1.70940161e-002 0. 1.99430194e-002 5.69800567e-003
      0. 3.13390307e-002 0. 5.69800567e-003 8.54700804e-003 0.
      2.84900283e-003 0. 1.13960113e-002 2.84900283e-003 2.84900283e-003
      2.27920227e-002 5.69800567e-003 2.84900283e-003 0. 5.69800567e-003
      2.84900283e-003 0. 2.84900283e-003 2.84900283e-003 5.69800567e-003
      0. 1.13960113e-002 1.70940161e-002 2.27920227e-002 5.69800567e-003
      8.54700804e-003 5.69800567e-003 0. 0. 0. 0. 1.13960113e-002 0.</_>
    <_>
      2.13333331e-002 2.66666664e-003 1.59999989e-002 0. 2.66666673e-002
      2.66666664e-003 0. 1.59999989e-002 7.99999945e-003 5.33333328e-003
      5.33333328e-003 1.33333337e-002 5.33333328e-003 7.99999945e-003
      5.33333328e-003 0. 5.33333328e-003 7.99999945e-003 2.66666664e-003
      5.33333328e-003 5.33333328e-003 5.33333328e-003 0. 2.66666664e-003
      1.86666660e-002 2.66666664e-003 5.33333328e-003 0. 2.66666664e-003
      0. 5.33333328e-003 7.99999945e-003 7.99999945e-003 1.06666666e-002
      5.33333328e-003 1.33333337e-002 2.66666664e-003 5.33333328e-003
      7.99999945e-003 2.66666664e-003 0. 5.33333328e-003 1.33333337e-002
      2.66666664e-003 0. 1.06666666e-002 5.33333328e-003 1.59999989e-002
      0. 2.66666664e-003 5.33333328e-003 7.99999945e-003 5.33333328e-003
      2.66666664e-003 2.40000002e-002 0. 2.13333331e-002 2.66666664e-003
      2.66666664e-003 2.13333331e-002 1.06666666e-002 7.99999945e-003
      2.66666664e-003 2.66666664e-003 2.66666664e-003 1.33333337e-002
      2.66666664e-003 1.86666660e-002 5.33333328e-003 1.33333337e-002
      2.66666664e-003 0. 1.06666666e-002 2.66666664e-003 0.
      7.99999945e-003 5.33333328e-003 0. 1.33333337e-002 1.59999989e-002
      5.33333328e-003 5.33333328e-003 7.99999945e-003 2.66666664e-003
      5.33333328e-003 7.99999945e-003 5.33333328e-003 2.66666664e-003
      2.66666664e-003 7.99999945e-003 0. 2.66666664e-003 1.86666660e-002
      0. 0. 2.66666664e-003 5.33333328e-003 5.33333328e-003
      5.33333328e-003 5.33333328e-003 1.06666666e-002 0. 1.33333337e-002
      5.33333328e-003 0. 1.86666660e-002 2.66666664e-003 1.33333337e-002
      7.99999945e-003 1.06666666e-002 2.66666664e-003 0. 2.66666664e-003
      2.66666664e-003 0. 0. 2.66666664e-003 7.99999945e-003
      2.66666673e-002 2.66666664e-003 1.06666666e-002 5.33333328e-003
      1.59999989e-002 5.33333328e-003 0. 2.66666664e-003 2.66666664e-003
      1.06666666e-002 7.99999945e-003 1.06666666e-002 1.86666660e-002
      7.99999945e-003 7.99999945e-003 1.06666666e-002 2.66666664e-003
      2.66666664e-003 1.33333337e-002 5.33333328e-003 1.33333337e-002
      1.06666666e-002 5.33333328e-003 7.99999945e-003 7.99999945e-003
      7.99999945e-003 2.66666664e-003 5.33333328e-003 2.66666664e-003
      2.66666664e-003 2.66666664e-003 2.66666664e-003</_>
    <_>
      8.99550226e-003 8.99550226e-003 7.49625219e-003 1.94902550e-002
      1.04947528e-002 1.49925044e-002 2.99850083e-003 5.99700166e-003
      1.49925041e-003 1.49925041e-003 4.49775113e-003 0. 4.49775113e-003
      1.19940033e-002 0. 1.04947528e-002 7.49625219e-003 1.04947528e-002
      1.49925041e-003 1.49925041e-003 2.99850083e-003 7.49625219e-003
      1.49925041e-003 2.99850083e-003 8.99550226e-003 4.49775113e-003
      5.99700166e-003 7.49625219e-003 5.99700166e-003 1.49925041e-003
      5.99700166e-003 1.49925044e-002 0. 2.99850083e-003 2.99850083e-003
      4.49775113e-003 1.04947528e-002 8.99550226e-003 1.04947528e-002
      1.64917540e-002 1.04947528e-002 8.99550226e-003 7.49625219e-003
      4.49775113e-003 1.49925044e-002 1.49925041e-003 1.04947528e-002
      8.99550226e-003 1.49925041e-003 1.04947528e-002 1.49925041e-003
      2.99850083e-003 1.04947528e-002 8.99550226e-003 5.99700166e-003
      4.49775113e-003 0. 4.49775113e-003 5.99700166e-003 2.99850083e-003
      1.04947528e-002 4.49775113e-003 1.49925041e-003 1.49925041e-003
      1.04947528e-002 3.14842574e-002 4.49775113e-003 1.34932538e-002 0.
      2.54872572e-002 2.99850083e-003 1.04947528e-002 0. 8.99550226e-003
      7.49625219e-003 8.99550226e-003 1.19940033e-002 1.19940033e-002
      4.49775113e-003 4.49775113e-003 4.49775113e-003 1.04947528e-002
      4.49775113e-003 5.99700166e-003 2.99850083e-003 7.49625219e-003
      1.94902550e-002 1.49925041e-003 8.99550226e-003 2.99850083e-003
      8.99550226e-003 5.99700166e-003 7.49625219e-003 1.49925041e-003
      5.99700166e-003 7.49625219e-003 1.04947528e-002 5.99700166e-003
      8.99550226e-003 2.99850083e-003 2.99850083e-003 2.24887561e-002
      2.99850083e-003 0. 7.49625219e-003 2.99850083e-003 1.19940033e-002
      0. 5.99700166e-003 2.99850083e-003 2.99850083e-003 4.49775113e-003
      8.99550226e-003 2.99850083e-003 5.99700166e-003 1.49925044e-002
      7.49625219e-003 2.99850083e-003 1.49925041e-003 1.04947528e-002
      5.99700166e-003 5.99700166e-003 1.49925041e-003 1.04947528e-002
      7.49625219e-003 4.49775113e-003 0. 5.99700166e-003 7.49625219e-003
      5.99700166e-003 2.99850083e-003 8.99550226e-003 4.49775113e-003
      4.49775113e-003 1.49925041e-003 8.99550226e-003 4.49775113e-003
      1.49925041e-003 1.19940033e-002 1.49925041e-003 2.24887561e-002
      2.99850083e-003 4.49775113e-003 1.34932538e-002 2.99850083e-003
      2.99850083e-003 0. 2.99850083e-003 1.34932538e-002 4.49775113e-003</_>
    <_>
      6.98080286e-003 1.74520072e-003 3.49040143e-003 0. 1.74520072e-003
      6.98080286e-003 1.04712043e-002 2.44328100e-002 0. 1.04712043e-002
      5.23560215e-003 5.23560215e-003 1.74520072e-003 1.74520072e-003
      1.74520072e-003 8.72600358e-003 3.49040143e-003 1.57068074e-002
      5.23560215e-003 3.49040143e-003 1.74520072e-002 1.74520072e-003 0.
      5.23560215e-003 6.98080286e-003 8.72600358e-003 6.98080286e-003
      3.49040143e-003 1.74520072e-003 8.72600358e-003 6.98080286e-003
      1.74520072e-003 5.23560215e-003 5.23560215e-003 1.04712043e-002
      3.49040143e-003 1.74520072e-003 1.57068074e-002 1.74520072e-003
      6.98080286e-003 6.98080286e-003 1.74520072e-003 1.39616057e-002
      8.72600358e-003 3.49040143e-003 5.23560215e-003 1.04712043e-002
      1.74520072e-003 3.49040143e-003 1.04712043e-002 1.57068074e-002
      8.72600358e-003 1.04712043e-002 1.22164050e-002 6.98080286e-003 0.
      8.72600358e-003 8.72600358e-003 5.23560215e-003 1.39616057e-002
      1.74520072e-003 6.98080286e-003 5.23560215e-003 5.23560215e-003
      5.23560215e-003 1.74520072e-003 3.49040143e-003 1.22164050e-002
      8.72600358e-003 1.57068074e-002 3.49040143e-003 1.57068074e-002
      6.98080286e-003 6.98080286e-003 8.72600358e-003 1.04712043e-002
      1.39616057e-002 1.74520072e-003 8.72600358e-003 1.74520072e-003
      8.72600358e-003 1.22164050e-002 5.23560215e-003 3.49040143e-003
      1.04712043e-002 5.23560215e-003 5.23560215e-003 1.74520072e-003
      5.23560215e-003 1.22164050e-002 6.98080286e-003 0. 6.98080286e-003
      1.74520072e-003 8.72600358e-003 6.98080286e-003 6.98080286e-003
      8.72600358e-003 1.39616057e-002 6.98080286e-003 6.98080286e-003 0.
      6.98080286e-003 6.98080286e-003 3.49040143e-003 6.98080286e-003
      1.04712043e-002 0. 1.74520072e-003 1.22164050e-002 5.23560215e-003
      2.79232115e-002 3.49040143e-003 8.72600358e-003 1.04712043e-002
      1.74520072e-003 6.98080286e-003 1.39616057e-002 8.72600358e-003
      1.74520072e-003 3.49040143e-003 3.49040143e-003 5.23560215e-003
      3.49040143e-003 1.04712043e-002 3.49040143e-003 3.49040143e-003
      6.98080286e-003 3.49040143e-003 1.74520072e-003 3.49040143e-003
      1.04712043e-002 1.57068074e-002 1.74520072e-003 6.98080286e-003
      1.04712043e-002 1.74520072e-003 5.23560215e-003 6.98080286e-003
      1.74520072e-003 8.72600358e-003 1.39616057e-002 3.49040143e-003
      8.72600358e-003 8.72600358e-003 3.49040143e-003 3.49040143e-003
      5.23560215e-003 5.23560215e-003 5.23560215e-003</_>
    <_>
      3.15855956e-003 6.31711911e-003 5.68540720e-003 2.52684765e-003
      1.26342382e-003 6.94883103e-003 3.15855956e-003 6.31711911e-004
      1.38976621e-002 8.21225531e-003 1.45293735e-002 1.26342382e-002
      8.21225531e-003 1.07391030e-002 1.45293735e-002 4.42198338e-003
      6.94883103e-003 6.31711911e-004 3.79027147e-003 5.05369529e-003
      4.42198338e-003 4.42198338e-003 6.31711911e-003 4.42198338e-003
      8.84396676e-003 2.52684765e-003 1.01073906e-002 3.79027147e-003
      9.47567821e-003 5.68540720e-003 8.21225531e-003 2.52684765e-003
      6.31711911e-004 6.94883103e-003 6.94883103e-003 8.84396676e-003
      4.42198338e-003 6.31711911e-003 6.94883103e-003 8.21225531e-003
      2.52684765e-003 1.20025259e-002 1.89513573e-003 2.52684765e-003
      5.05369529e-003 8.84396676e-003 5.68540720e-003 6.31711911e-003
      4.42198338e-003 8.84396676e-003 7.58054294e-003 1.38976621e-002
      1.07391030e-002 5.05369529e-003 2.52684765e-003 3.79027147e-003
      1.51610859e-002 4.42198338e-003 8.84396676e-003 5.68540720e-003
      1.32659506e-002 5.68540720e-003 1.45293735e-002 9.47567821e-003
      1.26342382e-002 4.42198338e-003 5.05369529e-003 5.68540720e-003
      1.26342382e-003 1.26342382e-003 5.05369529e-003 7.58054294e-003
      5.68540720e-003 1.51610859e-002 6.31711911e-003 4.42198338e-003
      1.13708144e-002 5.68540720e-003 1.26342382e-003 3.15855956e-003
      2.52684765e-003 4.42198338e-003 6.31711911e-003 8.84396676e-003
      1.01073906e-002 5.05369529e-003 6.31711911e-003 5.05369529e-003
      5.05369529e-003 3.15855956e-003 4.42198338e-003 1.20025259e-002
      6.94883103e-003 8.21225531e-003 3.15855956e-003 5.05369529e-003
      2.02147812e-002 5.05369529e-003 1.89513573e-003 1.51610859e-002
      6.31711911e-003 6.31711911e-003 6.94883103e-003 6.31711911e-003
      6.94883103e-003 3.15855956e-003 4.42198338e-003 6.31711911e-003
      6.94883103e-003 7.58054294e-003 1.01073906e-002 5.68540720e-003
      6.94883103e-003 5.05369529e-003 4.42198338e-003 3.15855956e-003
      3.79027147e-003 6.31711911e-004 6.31711911e-004 8.21225531e-003
      5.68540720e-003 1.13708144e-002 3.79027147e-003 6.94883103e-003
      3.79027147e-003 4.42198338e-003 6.31711911e-004 1.07391030e-002
      1.01073906e-002 9.47567821e-003 2.52684765e-003 8.84396676e-003
      2.27416288e-002 3.79027147e-003 6.31711911e-003 1.07391030e-002
      5.68540720e-003 5.68540720e-003 7.58054294e-003 3.79027147e-003
      7.58054294e-003 1.51610859e-002 3.79027147e-003 6.94883103e-003
      7.58054294e-003 3.79027147e-003 1.51610859e-002 5.05369529e-003
      4.42198338e-003 8.84396676e-003</_>
    <_>
      2.22717156e-003 2.22717156e-003 2.00445447e-002 2.22717156e-003
      1.33630298e-002 6.68151490e-003 4.45434311e-003 1.78173725e-002
      4.45434311e-003 2.22717156e-003 2.22717156e-003 2.22717156e-003
      1.11358576e-002 4.45434311e-003 4.45434311e-003 8.90868623e-003
      2.22717156e-003 2.00445447e-002 8.90868623e-003 4.45434311e-003 0.
      4.45434311e-003 2.22717156e-003 2.22717156e-003 6.68151490e-003
      2.22717156e-003 4.45434311e-003 8.90868623e-003 0. 6.68151490e-003
      6.68151490e-003 1.78173725e-002 0. 0. 1.55902011e-002
      4.45434311e-003 2.22717151e-002 1.33630298e-002 6.68151490e-003
      8.90868623e-003 1.78173725e-002 8.90868623e-003 0. 0.
      1.11358576e-002 2.22717156e-003 1.78173725e-002 2.22717156e-003
      2.22717156e-003 1.33630298e-002 2.22717156e-003 2.22717156e-003 0.
      4.45434311e-003 2.22717156e-003 1.11358576e-002 2.22717156e-003 0.
      4.45434311e-003 2.22717156e-003 2.00445447e-002 8.90868623e-003
      8.90868623e-003 6.68151490e-003 8.90868623e-003 4.67706025e-002
      4.45434311e-003 2.22717156e-003 6.68151490e-003 0. 8.90868623e-003
      2.22717156e-003 4.45434311e-003 2.22717156e-003 1.33630298e-002
      1.55902011e-002 6.68151490e-003 4.45434311e-003 0. 4.45434311e-003
      6.68151490e-003 2.22717156e-003 2.22717156e-003 4.45434311e-003
      4.45434311e-003 4.45434311e-003 4.45434311e-003 4.45434311e-003
      6.68151490e-003 4.45434311e-003 1.33630298e-002 1.55902011e-002
      1.78173725e-002 0. 8.90868623e-003 1.33630298e-002 2.22717156e-003
      6.68151490e-003 1.55902011e-002 6.68151490e-003 0. 6.68151490e-003
      4.45434311e-003 0. 2.22717156e-003 2.22717156e-003 1.11358576e-002
      0. 0. 0. 0. 2.22717156e-003 1.55902011e-002 2.22717156e-003
      4.45434311e-003 1.33630298e-002 0. 6.68151490e-003 0.
      8.90868623e-003 1.78173725e-002 6.68151490e-003 8.90868623e-003
      4.45434311e-003 6.68151490e-003 6.68151490e-003 0. 2.00445447e-002
      1.11358576e-002 2.22717156e-003 0. 2.22717156e-003 2.22717156e-003
      2.22717156e-003 6.68151490e-003 0. 4.45434311e-003 8.90868623e-003
      1.78173725e-002 1.55902011e-002 2.22717151e-002 0. 1.11358576e-002
      1.33630298e-002 6.68151490e-003 0. 0. 0. 1.33630298e-002
      2.22717156e-003</_>
    <_>
      9.14634112e-003 1.52439019e-002 1.52439019e-002 0. 3.96341458e-002
      0. 3.04878037e-003 1.21951215e-002 3.04878037e-003 3.04878037e-003
      3.04878037e-003 9.14634112e-003 3.04878037e-003 9.14634112e-003
      9.14634112e-003 0. 0. 3.04878037e-003 2.43902430e-002
      6.09756075e-003 1.21951215e-002 3.04878037e-003 6.09756075e-003
      6.09756075e-003 6.09756075e-003 0. 0. 0. 0. 3.04878037e-003
      9.14634112e-003 9.14634112e-003 6.09756075e-003 1.21951215e-002
      2.13414617e-002 1.21951215e-002 3.04878037e-003 3.04878037e-003 0.
      3.04878037e-003 1.21951215e-002 1.21951215e-002 0. 6.09756075e-003
      0. 1.52439019e-002 3.04878037e-003 0. 0. 3.04878037e-003 0. 0.
      3.04878037e-003 1.21951215e-002 0. 6.09756075e-003 9.14634112e-003
      9.14634112e-003 0. 9.14634112e-003 1.82926822e-002 1.52439019e-002
      0. 6.09756075e-003 6.09756075e-003 1.21951215e-002 1.21951215e-002
      9.14634112e-003 3.04878037e-003 9.14634112e-003 0. 3.04878037e-003
      9.14634112e-003 0. 0. 1.21951215e-002 3.04878037e-003
      3.04878037e-003 6.09756075e-003 1.52439019e-002 9.14634112e-003
      9.14634112e-003 6.09756075e-003 6.09756075e-003 3.04878037e-003
      9.14634112e-003 1.52439019e-002 6.09756075e-003 6.09756075e-003
      6.09756075e-003 3.04878037e-003 1.21951215e-002 2.13414617e-002
      6.09756075e-003 6.09756075e-003 6.09756075e-003 9.14634112e-003
      3.04878037e-003 0. 1.52439019e-002 9.14634112e-003 0.
      6.09756075e-003 6.09756075e-003 0. 6.09756075e-003 1.21951215e-002
      1.21951215e-002 3.04878037e-003 1.82926822e-002 6.09756075e-003 0.
      1.21951215e-002 0. 3.04878037e-003 0. 1.21951215e-002 0.
      6.09756075e-003 1.82926822e-002 1.21951215e-002 6.09756075e-003
      6.09756075e-003 0. 0. 3.04878037e-003 3.04878037e-003 0.
      3.04878037e-003 9.14634112e-003 6.09756075e-003 9.14634112e-003
      3.04878037e-003 0. 0. 9.14634112e-003 9.14634112e-003 0. 0.
      2.43902430e-002 9.14634112e-003 9.14634112e-003 1.52439019e-002
      6.09756075e-003 0. 6.09756075e-003 6.09756075e-003 6.09756075e-003
      1.52439019e-002 6.09756075e-003</_>
    <_>
      3.11769289e-003 1.24707716e-002 1.16913486e-002 3.11769289e-003
      1.48090413e-002 3.89711605e-003 7.01480918e-003 1.63678881e-002
      3.89711605e-003 6.23538578e-003 1.55884644e-003 3.89711605e-003
      7.79423211e-003 1.48090413e-002 4.67653945e-003 2.33826973e-003
      3.89711605e-003 5.45596238e-003 3.89711605e-003 6.23538578e-003
      1.01325018e-002 2.33826973e-003 7.79423211e-003 3.89711605e-003
      6.23538578e-003 2.33826973e-003 4.67653945e-003 8.57365504e-003
      2.33826973e-003 6.23538578e-003 1.32501945e-002 1.94855798e-002
      3.89711605e-003 4.67653945e-003 6.23538578e-003 4.67653945e-003
      1.63678881e-002 5.45596238e-003 3.89711605e-003 6.23538578e-003
      1.09119248e-002 7.79423211e-003 4.67653945e-003 3.89711605e-003
      6.23538578e-003 1.01325018e-002 8.57365504e-003 7.01480918e-003
      7.79423211e-003 3.89711605e-003 6.23538578e-003 9.35307890e-003
      3.89711605e-003 2.33826973e-003 3.89711605e-003 6.23538578e-003
      2.33826973e-003 7.79423222e-004 2.33826973e-003 5.45596238e-003
      1.09119248e-002 1.01325018e-002 7.79423211e-003 1.01325018e-002
      9.35307890e-003 3.74123156e-002 7.01480918e-003 7.79423211e-003
      8.57365504e-003 4.67653945e-003 4.67653945e-003 3.89711605e-003
      2.33826973e-003 3.11769289e-003 4.67653945e-003 8.57365504e-003
      5.45596238e-003 2.33826973e-003 7.79423211e-003 2.33826973e-003
      5.45596238e-003 5.45596238e-003 6.23538578e-003 2.33826973e-003
      6.23538578e-003 9.35307890e-003 4.67653945e-003 6.23538578e-003
      6.23538578e-003 6.23538578e-003 8.57365504e-003 1.16913486e-002
      1.32501945e-002 7.01480918e-003 9.35307890e-003 7.01480918e-003
      8.57365504e-003 3.89711605e-003 6.23538578e-003 5.45596238e-003
      3.89711605e-003 1.55884644e-003 3.89711605e-003 2.33826973e-003
      1.55884644e-003 5.45596238e-003 1.16913486e-002 1.48090413e-002
      4.67653945e-003 5.45596238e-003 7.79423211e-003 8.57365504e-003
      1.40296184e-002 3.89711605e-003 1.09119248e-002 3.11769289e-003
      3.11769289e-003 1.24707716e-002 7.01480918e-003 8.57365504e-003
      7.01480918e-003 2.33826973e-003 2.33826973e-003 4.67653945e-003
      2.33826973e-003 5.45596238e-003 2.33826973e-003 7.01480918e-003
      6.23538578e-003 3.11769289e-003 4.67653945e-003 3.11769289e-003
      1.16913486e-002 7.01480918e-003 8.57365504e-003 3.89711605e-003
      5.45596238e-003 3.11769289e-003 1.09119248e-002 7.79423211e-003
      1.40296184e-002 1.09119248e-002 3.89711605e-003 3.89711605e-003
      7.01480918e-003 0. 1.01325018e-002 3.11769289e-003 1.09119248e-002
      3.89711605e-003</_>
    <_>
      3.74531839e-003 3.74531839e-003 1.12359552e-002 3.74531839e-003 0.
      3.74531839e-003 7.49063678e-003 2.99625471e-002 0. 2.99625471e-002
      0. 0. 3.74531839e-003 1.49812736e-002 3.74531839e-003
      1.49812736e-002 0. 1.12359552e-002 7.49063678e-003 1.12359552e-002
      1.12359552e-002 0. 3.74531839e-003 0. 3.74531839e-003
      1.12359552e-002 7.49063678e-003 1.87265910e-002 3.74531839e-003
      3.74531839e-003 2.24719103e-002 1.12359552e-002 0. 7.49063678e-003
      1.49812736e-002 1.49812736e-002 7.49063678e-003 0. 3.74531839e-003
      7.49063678e-003 1.12359552e-002 3.74531839e-003 0. 7.49063678e-003
      3.74531839e-003 3.74531839e-003 7.49063678e-003 1.12359552e-002
      3.74531839e-003 2.24719103e-002 7.49063678e-003 7.49063678e-003 0.
      3.74531839e-003 0. 3.74531839e-003 3.74531839e-003 0.
      3.74531839e-003 3.74531839e-003 7.49063678e-003 0. 3.74531839e-003
      3.74531839e-003 7.49063678e-003 2.99625471e-002 0. 3.74531839e-003
      1.49812736e-002 7.49063678e-003 0. 0. 3.74531839e-003
      3.74531839e-003 0. 2.24719103e-002 0. 3.74531839e-003
      7.49063678e-003 1.12359552e-002 0. 7.49063678e-003 3.74531839e-003
      0. 1.12359552e-002 3.74531839e-003 3.74531839e-003 3.74531839e-003
      7.49063678e-003 2.24719103e-002 7.49063678e-003 3.74531839e-003
      7.49063678e-003 7.49063678e-003 3.74531839e-003 0. 7.49063678e-003
      3.74531839e-003 1.12359552e-002 1.12359552e-002 1.12359552e-002 0.
      3.74531839e-003 3.74531839e-003 7.49063678e-003 1.49812736e-002
      1.12359552e-002 0. 3.74531839e-003 7.49063678e-003 1.49812736e-002
      1.12359552e-002 3.74531839e-003 3.74531839e-003 2.99625471e-002
      7.49063678e-003 7.49063678e-003 2.62172297e-002 0. 7.49063678e-003
      0. 0. 3.74531839e-003 3.74531839e-003 3.74531839e-003
      3.74531839e-003 3.74531839e-003 3.74531839e-003 3.74531839e-003
      7.49063678e-003 1.12359552e-002 1.12359552e-002 7.49063678e-003 0.
      7.49063678e-003 3.74531839e-003 7.49063678e-003 3.74531839e-003
      7.49063678e-003 7.49063678e-003 3.74531839e-003 1.49812736e-002 0.
      3.74531839e-003 3.74531839e-003 0. 0. 7.49063678e-003
      3.74531839e-003 3.74531839e-003</_>
    <_>
      1.08024692e-002 3.08641978e-003 1.08024692e-002 7.71604944e-003
      7.71604944e-003 3.08641978e-003 1.54320989e-003 6.17283955e-003
      3.08641978e-002 4.62962966e-003 1.69753097e-002 7.71604944e-003
      3.08641978e-003 3.08641978e-003 2.46913582e-002 3.08641978e-003
      1.54320989e-003 6.17283955e-003 1.08024692e-002 1.54320989e-003
      1.54320989e-003 1.54320989e-003 3.08641978e-003 1.08024692e-002
      4.62962966e-003 6.17283955e-003 1.54320989e-003 4.62962966e-003
      1.38888890e-002 0. 6.17283955e-003 2.31481493e-002 0.
      1.08024692e-002 3.08641978e-003 6.17283955e-003 1.08024692e-002
      9.25925933e-003 6.17283955e-003 1.08024692e-002 4.62962966e-003
      4.62962966e-003 4.62962966e-003 3.08641978e-003 4.62962966e-003
      7.71604944e-003 9.25925933e-003 1.54320989e-003 4.62962966e-003
      4.62962966e-003 3.08641978e-003 1.08024692e-002 6.17283955e-003
      1.54320989e-003 1.54320989e-003 6.17283955e-003 1.38888890e-002
      6.17283955e-003 1.85185187e-002 1.54320989e-003 7.71604944e-003
      6.17283955e-003 6.17283955e-003 4.62962966e-003 1.08024692e-002
      3.08641978e-003 1.54320989e-003 1.54320989e-003 9.25925933e-003
      1.54320989e-003 0. 1.23456791e-002 6.17283955e-003 1.08024692e-002
      7.71604944e-003 6.17283955e-003 3.08641978e-003 1.69753097e-002
      1.54320989e-003 1.54320989e-003 1.08024692e-002 4.62962966e-003 0.
      2.93209888e-002 9.25925933e-003 3.08641978e-003 4.62962966e-003
      1.54320989e-003 6.17283955e-003 3.08641978e-003 1.08024692e-002
      7.71604944e-003 6.17283955e-003 1.54320989e-003 9.25925933e-003
      3.08641978e-003 1.38888890e-002 3.08641978e-003 1.54320989e-003 0.
      1.54320989e-003 7.71604944e-003 4.62962966e-003 1.38888890e-002
      7.71604944e-003 7.71604944e-003 4.62962966e-003 1.54320989e-003
      9.25925933e-003 1.08024692e-002 6.17283955e-003 3.08641978e-003
      1.54320989e-003 1.38888890e-002 6.17283955e-003 1.85185187e-002 0.
      1.85185187e-002 3.08641978e-003 7.71604944e-003 1.08024692e-002
      9.25925933e-003 4.62962966e-003 1.69753097e-002 4.62962966e-003
      1.54320989e-003 0. 4.62962966e-003 7.71604944e-003 3.08641978e-003
      3.08641978e-003 0. 3.08641978e-003 3.08641978e-003 9.25925933e-003
      1.54320989e-003 7.71604944e-003 1.08024692e-002 3.08641978e-003
      4.62962966e-003 7.71604944e-003 6.17283955e-003 9.25925933e-003
      1.85185187e-002 4.62962966e-003 4.62962966e-003 6.17283955e-003 0.
      7.71604944e-003 1.08024692e-002</_>
    <_>
      7.32600736e-003 3.66300368e-003 7.32600736e-003 0. 1.83150191e-002
      3.66300368e-003 0. 5.12820520e-002 0. 2.19780225e-002 0.
      7.32600736e-003 7.32600736e-003 2.56410260e-002 7.32600736e-003
      3.66300368e-003 3.66300368e-003 0. 3.66300368e-003 7.32600736e-003
      7.32600736e-003 0. 1.46520147e-002 7.32600736e-003 3.66300368e-003
      3.66300368e-003 0. 7.32600736e-003 0. 3.66300368e-003
      1.09890113e-002 1.09890113e-002 7.32600736e-003 3.66300368e-003
      2.93040294e-002 7.32600736e-003 3.66300368e-003 7.32600736e-003 0.
      3.66300368e-003 1.83150191e-002 3.66300368e-003 3.66300368e-003
      3.66300368e-003 3.66300368e-003 2.19780225e-002 7.32600736e-003
      1.09890113e-002 0. 0. 1.09890113e-002 7.32600736e-003
      3.66300368e-003 3.66300368e-003 0. 1.09890113e-002 0. 0. 0.
      1.09890113e-002 3.66300368e-003 3.29670347e-002 1.09890113e-002
      7.32600736e-003 3.66300368e-003 6.22710623e-002 7.32600736e-003
      1.46520147e-002 1.09890113e-002 0. 3.66300368e-003 3.66300368e-003
      3.66300368e-003 0. 0. 1.83150191e-002 0. 7.32600736e-003
      1.46520147e-002 0. 3.66300368e-003 1.09890113e-002 1.09890113e-002
      1.46520147e-002 2.19780225e-002 3.66300368e-003 7.32600736e-003
      3.66300368e-003 1.46520147e-002 7.32600736e-003 0. 7.32600736e-003
      3.66300368e-003 0. 0. 1.46520147e-002 7.32600736e-003 0. 0.
      3.66300368e-003 3.66300368e-003 0. 3.66300368e-003 0. 0.
      3.66300368e-003 3.66300368e-003 3.66300368e-003 3.66300368e-003 0.
      3.66300368e-003 0. 7.32600736e-003 0. 7.32600736e-003 0.
      3.66300368e-003 4.39560451e-002 1.09890113e-002 3.66300368e-003
      7.32600736e-003 0. 0. 0. 7.32600736e-003 0. 3.66300368e-003 0.
      7.32600736e-003 3.66300368e-003 3.66300368e-003 7.32600736e-003 0.
      7.32600736e-003 7.32600736e-003 0. 0. 3.66300368e-003
      7.32600736e-003 1.46520147e-002 1.09890113e-002 0. 1.09890113e-002
      1.09890113e-002 0. 0. 3.66300368e-003 3.66300368e-003 0.
      3.66300368e-003</_>
    <_>
      1.23762377e-002 0. 2.47524749e-003 1.23762377e-002 1.23762377e-002
      4.95049497e-003 0. 2.47524749e-003 0. 2.47524749e-003 0. 0.
      4.95049497e-003 0. 4.95049497e-003 2.47524749e-003 4.95049497e-003
      4.95049497e-003 2.47524749e-003 4.95049497e-003 4.95049497e-003
      1.23762377e-002 7.42574222e-003 4.95049497e-003 7.42574222e-003
      1.48514844e-002 2.47524749e-003 4.95049497e-003 9.90098994e-003
      7.42574222e-003 1.23762377e-002 2.47524749e-003 2.47524749e-003
      2.47524749e-003 4.95049497e-003 0. 1.48514844e-002 1.98019799e-002
      1.48514844e-002 4.95049497e-003 2.72277221e-002 1.48514844e-002
      4.95049497e-003 0. 0. 2.47524749e-003 1.48514844e-002
      9.90098994e-003 2.47524749e-003 1.23762377e-002 2.47524749e-003
      7.42574222e-003 0. 7.42574222e-003 4.95049497e-003 9.90098994e-003
      9.90098994e-003 1.48514844e-002 9.90098994e-003 7.42574222e-003
      9.90098994e-003 4.95049497e-003 2.47524749e-003 0. 4.95049497e-003
      9.90098994e-003 7.42574222e-003 2.47524749e-003 7.42574222e-003
      1.98019799e-002 7.42574222e-003 0. 7.42574222e-003 4.95049497e-003
      4.95049497e-003 2.47524749e-003 7.42574222e-003 2.47524749e-003
      2.47524749e-003 4.95049497e-003 2.47524749e-003 7.42574222e-003
      1.23762377e-002 4.95049497e-003 1.23762377e-002 7.42574222e-003
      1.23762377e-002 1.48514844e-002 4.95049497e-003 7.42574222e-003
      4.95049497e-003 9.90098994e-003 1.23762377e-002 4.95049497e-003
      1.73267331e-002 1.98019799e-002 4.95049497e-003 1.23762377e-002
      7.42574222e-003 7.42574222e-003 7.42574222e-003 0. 7.42574222e-003
      0. 4.95049497e-003 0. 7.42574222e-003 0. 9.90098994e-003
      2.47524749e-003 4.95049497e-003 7.42574222e-003 9.90098994e-003 0.
      2.47524749e-003 0. 4.95049497e-003 4.95049497e-003 4.95049497e-003
      7.42574222e-003 7.42574222e-003 4.95049497e-003 7.42574222e-003
      4.95049497e-003 7.42574222e-003 7.42574222e-003 2.47524749e-003
      1.98019799e-002 7.42574222e-003 2.47524749e-003 2.47524749e-003
      1.23762377e-002 2.47524749e-003 4.95049497e-003 7.42574222e-003
      9.90098994e-003 4.95049497e-003 2.47524749e-003 7.42574222e-003
      2.47524753e-002 4.95049497e-003 1.23762377e-002 9.90098994e-003
      7.42574222e-003 2.47524749e-003 2.47524749e-003 4.95049497e-003
      4.95049497e-003 4.95049497e-003 7.42574222e-003</_>
    <_>
      7.19424477e-003 4.79616318e-003 1.19904079e-003 2.39808159e-003
      2.39808159e-003 1.43884895e-002 4.79616318e-003 7.19424477e-003
      3.59712238e-003 5.99520374e-003 4.79616318e-003 1.19904079e-003
      5.99520374e-003 4.79616318e-003 8.39328580e-003 9.59232636e-003
      5.99520374e-003 8.39328580e-003 2.39808159e-003 2.03836933e-002
      8.39328580e-003 5.99520374e-003 4.79616318e-003 9.59232636e-003
      1.19904075e-002 4.79616318e-003 3.59712238e-003 8.39328580e-003
      3.59712238e-003 1.07913669e-002 8.39328580e-003 7.19424477e-003 0.
      5.99520374e-003 3.59712238e-003 5.99520374e-003 9.59232636e-003
      5.99520374e-003 5.99520374e-003 5.99520374e-003 1.43884895e-002
      8.39328580e-003 7.19424477e-003 5.99520374e-003 3.59712238e-003
      4.79616318e-003 9.59232636e-003 7.19424477e-003 7.19424477e-003
      4.79616318e-003 1.19904075e-002 4.79616318e-003 4.79616318e-003
      1.19904079e-003 5.99520374e-003 3.59712238e-003 2.39808159e-003
      7.19424477e-003 5.99520374e-003 4.79616318e-003 5.99520374e-003
      4.79616318e-003 9.59232636e-003 0. 8.39328580e-003 3.59712238e-003
      7.19424477e-003 1.55875301e-002 4.79616318e-003 1.91846527e-002
      8.39328580e-003 1.31894490e-002 4.79616318e-003 3.59712238e-003
      1.31894490e-002 5.99520374e-003 7.19424477e-003 4.79616318e-003
      4.79616318e-003 1.19904079e-003 4.79616318e-003 2.39808159e-003
      4.79616318e-003 5.99520374e-003 1.19904075e-002 1.07913669e-002
      1.67865716e-002 2.39808159e-003 1.07913669e-002 4.79616318e-003
      3.59712238e-003 8.39328580e-003 7.19424477e-003 3.59712238e-003
      1.07913669e-002 7.19424477e-003 8.39328580e-003 7.19424477e-003
      1.67865716e-002 4.79616318e-003 1.19904075e-002 1.19904075e-002
      1.19904079e-003 3.59712238e-003 4.79616318e-003 7.19424477e-003
      1.91846527e-002 5.99520374e-003 3.59712238e-003 2.39808159e-003
      2.39808159e-003 8.39328580e-003 5.99520374e-003 5.99520374e-003
      2.39808159e-003 1.19904075e-002 4.79616318e-003 1.43884895e-002
      1.19904079e-003 4.79616318e-003 1.19904079e-003 7.19424477e-003
      4.79616318e-003 7.19424477e-003 0. 1.43884895e-002 1.19904079e-003
      9.59232636e-003 7.19424477e-003 8.39328580e-003 2.39808159e-003
      2.39808159e-003 1.07913669e-002 0. 2.39808159e-003 3.59712238e-003
      5.99520374e-003 1.19904075e-002 8.39328580e-003 1.07913669e-002
      2.39808159e-003 1.07913669e-002 2.39808159e-003 1.31894490e-002
      2.39808159e-003 3.59712238e-003 5.99520374e-003 7.19424477e-003
      8.39328580e-003 7.19424477e-003</_>
    <_>
      1.28205132e-003 6.41025649e-003 1.28205130e-002 1.41025642e-002
      3.58974375e-002 1.28205130e-002 5.12820529e-003 3.84615408e-003
      1.28205132e-003 2.56410264e-003 6.41025649e-003 8.97435937e-003
      2.56410264e-003 1.02564106e-002 8.97435937e-003 1.41025642e-002
      1.28205132e-003 1.15384618e-002 2.56410264e-003 1.28205132e-003
      5.12820529e-003 0. 1.28205132e-003 0. 5.12820529e-003
      2.56410264e-003 1.28205132e-003 1.02564106e-002 2.56410264e-003
      2.56410264e-003 1.02564106e-002 1.28205130e-002 1.28205132e-003
      7.69230817e-003 1.41025642e-002 6.41025649e-003 1.53846163e-002
      8.97435937e-003 2.56410264e-003 6.41025649e-003 1.79487187e-002
      1.41025642e-002 2.56410264e-003 1.28205132e-003 5.12820529e-003
      2.56410264e-003 2.17948724e-002 1.02564106e-002 2.56410264e-003
      1.15384618e-002 5.12820529e-003 6.41025649e-003 6.41025649e-003
      3.84615408e-003 3.84615408e-003 1.28205132e-003 2.56410264e-003
      1.28205132e-003 7.69230817e-003 2.56410264e-003 1.66666675e-002
      1.53846163e-002 3.84615408e-003 5.12820529e-003 5.12820529e-003
      2.56410260e-002 2.56410264e-003 8.97435937e-003 7.69230817e-003
      6.41025649e-003 2.56410264e-003 7.69230817e-003 3.84615408e-003
      2.56410264e-003 1.28205132e-003 1.28205130e-002 8.97435937e-003
      1.28205132e-003 8.97435937e-003 2.56410264e-003 1.28205132e-003
      5.12820529e-003 0. 2.56410264e-003 1.02564106e-002 5.12820529e-003
      6.41025649e-003 3.84615408e-003 8.97435937e-003 1.28205132e-003
      5.12820529e-003 1.15384618e-002 1.15384618e-002 2.56410264e-003
      5.12820529e-003 1.53846163e-002 8.97435937e-003 0. 8.97435937e-003
      1.28205132e-003 2.56410264e-003 7.69230817e-003 5.12820529e-003 0.
      1.15384618e-002 2.56410264e-003 1.41025642e-002 1.79487187e-002
      1.28205132e-003 3.84615408e-003 2.56410264e-003 0. 7.69230817e-003
      5.12820529e-003 8.97435937e-003 5.12820529e-003 5.12820529e-003
      6.41025649e-003 2.56410264e-003 5.12820529e-003 1.41025642e-002
      2.56410264e-003 3.84615408e-003 3.84615408e-003 8.97435937e-003
      5.12820529e-003 1.28205132e-003 1.02564106e-002 1.28205132e-003 0.
      3.84615408e-003 1.28205132e-003 7.69230817e-003 5.12820529e-003
      6.41025649e-003 1.66666675e-002 3.84615408e-003 0. 2.56410264e-003
      1.02564106e-002 2.43589748e-002 2.56410260e-002 2.56410260e-002
      2.56410264e-003 2.56410264e-003 0. 5.12820529e-003 1.28205132e-003
      1.02564106e-002 1.28205132e-003</_>
    <_>
      5.27240802e-003 8.78734607e-003 0. 5.27240802e-003 1.40597541e-002
      1.05448160e-002 7.02987704e-003 2.10896321e-002 2.28471011e-002
      3.51493852e-003 1.23022851e-002 3.51493852e-003 8.78734607e-003
      1.75746926e-003 1.75746921e-002 1.05448160e-002 7.02987704e-003
      7.02987704e-003 1.75746926e-003 3.51493852e-003 3.51493852e-003
      1.75746926e-003 0. 5.27240802e-003 3.51493852e-003 5.27240802e-003
      1.05448160e-002 7.02987704e-003 1.23022851e-002 8.78734607e-003
      1.05448160e-002 1.75746926e-003 0. 1.23022851e-002 7.02987704e-003
      1.58172231e-002 3.51493852e-003 5.27240802e-003 7.02987704e-003
      8.78734607e-003 5.27240802e-003 7.02987704e-003 3.51493852e-003
      7.02987704e-003 7.02987704e-003 5.27240802e-003 7.02987704e-003
      1.75746926e-003 1.75746926e-003 3.51493852e-003 3.51493852e-003
      5.27240802e-003 1.23022851e-002 8.78734607e-003 0. 7.02987704e-003
      2.10896321e-002 1.40597541e-002 7.02987704e-003 7.02987704e-003
      3.51493852e-003 5.27240802e-003 3.51493852e-003 5.27240802e-003
      1.75746926e-003 3.51493852e-003 3.51493852e-003 3.51493852e-003
      1.05448160e-002 1.75746926e-003 1.75746926e-003 1.05448160e-002
      1.75746926e-003 7.02987704e-003 5.27240802e-003 7.02987704e-003
      7.02987704e-003 5.27240802e-003 1.40597541e-002 7.02987704e-003
      7.02987704e-003 1.75746926e-003 3.51493852e-003 2.10896321e-002
      1.23022851e-002 0. 7.02987704e-003 3.51493852e-003 1.05448160e-002
      3.51493852e-003 3.51493852e-003 3.51493852e-003 5.27240802e-003
      7.02987704e-003 7.02987704e-003 1.75746926e-003 5.27240802e-003
      7.02987704e-003 5.27240802e-003 7.02987704e-003 5.27240802e-003
      1.23022851e-002 8.78734607e-003 5.27240802e-003 7.02987704e-003
      5.27240802e-003 3.51493852e-003 3.51493852e-003 1.05448160e-002
      1.23022851e-002 7.02987704e-003 1.58172231e-002 0. 5.27240802e-003
      8.78734607e-003 7.02987704e-003 8.78734607e-003 1.93321612e-002 0.
      3.51493852e-003 3.51493852e-003 3.51493852e-003 8.78734607e-003
      8.78734607e-003 1.23022851e-002 3.51493852e-003 0. 0.
      1.05448160e-002 7.02987704e-003 5.27240802e-003 1.05448160e-002
      3.51493852e-003 1.40597541e-002 5.27240802e-003 7.02987704e-003
      5.27240802e-003 7.02987704e-003 8.78734607e-003 5.27240802e-003
      3.51493852e-003 0. 1.05448160e-002 1.05448160e-002 5.27240802e-003
      5.27240802e-003 5.27240802e-003 5.27240802e-003 3.51493852e-003
      1.75746926e-003</_>
    <_>
      0. 6.35930058e-003 6.35930058e-003 2.38473769e-002 9.53895040e-003
      2.38473769e-002 4.76947520e-003 9.53895040e-003 0. 1.58982514e-003
      6.35930058e-003 0. 7.94912595e-003 7.94912595e-003 3.17965029e-003
      1.74880773e-002 9.53895040e-003 6.35930058e-003 3.17965029e-003
      4.76947520e-003 1.11287758e-002 1.58982514e-003 0. 4.76947520e-003
      3.17965029e-003 0. 1.27186012e-002 1.43084265e-002 1.58982519e-002
      4.76947520e-003 1.11287758e-002 6.35930058e-003 1.58982514e-003
      1.58982514e-003 3.17965029e-003 3.17965029e-003 1.11287758e-002
      9.53895040e-003 1.43084265e-002 4.76947520e-003 1.11287758e-002
      7.94912595e-003 4.76947520e-003 1.43084265e-002 9.53895040e-003
      1.11287758e-002 2.54372023e-002 6.35930058e-003 1.58982514e-003
      7.94912595e-003 3.17965029e-003 1.58982514e-003 7.94912595e-003
      1.58982519e-002 1.58982514e-003 1.58982514e-003 3.17965029e-003
      4.76947520e-003 3.17965029e-003 3.17965029e-003 3.17965029e-003 0.
      6.35930058e-003 1.11287758e-002 6.35930058e-003 4.76947520e-003 0.
      1.58982514e-003 6.35930058e-003 9.53895040e-003 3.17965029e-003
      6.35930058e-003 1.58982514e-003 4.76947520e-003 1.74880773e-002
      7.94912595e-003 3.17965029e-003 6.35930058e-003 7.94912595e-003
      1.58982514e-003 0. 3.17965029e-003 4.76947520e-003 7.94912595e-003
      4.76947520e-003 3.17965029e-003 3.17965029e-003 9.53895040e-003
      9.53895040e-003 1.58982514e-003 7.94912595e-003 1.27186012e-002
      4.76947520e-003 1.11287758e-002 7.94912595e-003 7.94912595e-003
      1.27186012e-002 6.35930058e-003 6.35930058e-003 7.94912595e-003
      6.35930058e-003 1.43084265e-002 4.76947520e-003 0. 4.76947520e-003
      3.17965029e-003 1.90779008e-002 0. 9.53895040e-003 0.
      6.35930058e-003 1.74880773e-002 7.94912595e-003 3.17965029e-003
      7.94912595e-003 2.06677262e-002 1.58982514e-003 4.76947520e-003
      1.58982514e-003 3.17965029e-003 1.11287758e-002 3.17965029e-003
      9.53895040e-003 4.76947520e-003 2.54372023e-002 0. 0.
      7.94912595e-003 3.17965029e-003 3.17965029e-003 1.58982514e-003
      1.58982519e-002 6.35930058e-003 6.35930058e-003 3.17965029e-003
      6.35930058e-003 7.94912595e-003 1.58982514e-003 6.35930058e-003
      3.17965029e-003 6.35930058e-003 6.35930058e-003 1.11287758e-002
      6.35930058e-003 9.53895040e-003 1.58982514e-003 4.76947520e-003
      1.58982514e-003 6.35930058e-003 4.76947520e-003</_>
    <_>
      6.08828012e-003 1.06544904e-002 1.52207003e-003 1.06544904e-002 0.
      7.61034992e-003 6.08828012e-003 4.56621032e-003 7.61034992e-003
      1.52207003e-003 9.13242064e-003 1.52207003e-003 4.56621032e-003
      6.08828012e-003 9.13242064e-003 1.06544904e-002 7.61034992e-003
      1.36986300e-002 7.61034992e-003 6.08828012e-003 6.08828012e-003
      9.13242064e-003 3.04414006e-003 1.52207003e-003 7.61034992e-003
      7.61034992e-003 4.56621032e-003 6.08828012e-003 4.56621032e-003
      9.13242064e-003 6.08828012e-003 3.04414006e-003 4.56621032e-003
      1.06544904e-002 1.52207003e-003 1.06544904e-002 7.61034992e-003
      1.52206998e-002 1.36986300e-002 4.56621032e-003 7.61034992e-003
      1.06544904e-002 6.08828012e-003 9.13242064e-003 7.61034992e-003
      1.52206998e-002 7.61034992e-003 3.04414006e-003 4.56621032e-003
      1.52206998e-002 4.56621032e-003 6.08828012e-003 9.13242064e-003
      1.06544904e-002 1.52207003e-003 4.56621032e-003 9.13242064e-003
      1.52207003e-003 6.08828012e-003 1.52207003e-003 9.13242064e-003
      3.04414006e-003 9.13242064e-003 6.08828012e-003 6.08828012e-003
      9.13242064e-003 6.08828012e-003 9.13242064e-003 7.61034992e-003
      1.06544904e-002 1.06544904e-002 1.52206998e-002 1.52207003e-003
      7.61034992e-003 1.82648413e-002 4.56621032e-003 9.13242064e-003
      3.04414006e-003 1.52207003e-003 7.61034992e-003 6.08828012e-003
      6.08828012e-003 0. 9.13242064e-003 1.36986300e-002 4.56621032e-003
      3.04414006e-003 3.04414006e-003 6.08828012e-003 4.56621032e-003
      1.52207003e-003 6.08828012e-003 4.56621032e-003 0. 1.21765602e-002
      1.21765602e-002 1.36986300e-002 9.13242064e-003 1.52207003e-003
      1.52207003e-003 6.08828012e-003 1.36986300e-002 6.08828012e-003
      9.13242064e-003 1.06544904e-002 7.61034992e-003 3.04414006e-003 0.
      1.67427696e-002 6.08828012e-003 4.56621032e-003 6.08828012e-003
      6.08828012e-003 3.04414006e-003 7.61034992e-003 7.61034992e-003
      1.52207003e-003 9.13242064e-003 6.08828012e-003 6.08828012e-003
      4.56621032e-003 1.21765602e-002 4.56621032e-003 1.06544904e-002
      4.56621032e-003 1.52207003e-003 4.56621032e-003 4.56621032e-003
      6.08828012e-003 7.61034992e-003 3.04414006e-003 4.56621032e-003
      3.04414006e-003 3.04414006e-003 3.04414006e-003 6.08828012e-003
      1.06544904e-002 6.08828012e-003 6.08828012e-003 4.56621032e-003
      4.56621032e-003 4.56621032e-003 1.06544904e-002 1.21765602e-002
      7.61034992e-003 4.56621032e-003 1.36986300e-002 1.52207003e-003
      6.08828012e-003 1.52207003e-003</_>
    <_>
      9.36768111e-003 2.34192028e-003 4.68384055e-003 2.34192028e-003
      2.34192028e-003 7.02576060e-003 1.17096016e-002 2.81030424e-002
      4.68384055e-003 7.02576060e-003 4.68384055e-003 0. 2.34192028e-003
      2.34192028e-003 4.68384055e-003 2.34192028e-003 7.02576060e-003
      4.68384055e-003 7.02576060e-003 4.68384055e-003 2.34192028e-003
      9.36768111e-003 2.34192028e-003 9.36768111e-003 4.68384055e-003
      1.17096016e-002 1.40515212e-002 2.34192028e-003 1.17096016e-002
      9.36768111e-003 7.02576060e-003 0. 2.34192028e-003 4.68384055e-003
      4.68384055e-003 4.68384055e-003 2.34192028e-003 7.02576060e-003
      4.68384055e-003 7.02576060e-003 7.02576060e-003 2.34192028e-003
      2.34192032e-002 2.34192028e-003 7.02576060e-003 1.40515212e-002
      7.02576060e-003 4.68384055e-003 7.02576060e-003 4.68384055e-003
      7.02576060e-003 7.02576060e-003 9.36768111e-003 2.34192028e-003
      1.63934417e-002 9.36768111e-003 1.40515212e-002 9.36768111e-003
      4.68384055e-003 9.36768111e-003 1.87353622e-002 9.36768111e-003 0.
      4.68384055e-003 2.34192028e-003 1.17096016e-002 7.02576060e-003
      2.34192028e-003 1.40515212e-002 2.57611237e-002 2.34192028e-003
      4.68384055e-003 9.36768111e-003 7.02576060e-003 7.02576060e-003
      9.36768111e-003 2.34192028e-003 4.68384055e-003 1.17096016e-002
      4.68384055e-003 9.36768111e-003 1.40515212e-002 4.68384055e-003
      9.36768111e-003 4.68384055e-003 4.68384055e-003 4.68384055e-003
      7.02576060e-003 0. 7.02576060e-003 1.17096016e-002 2.34192028e-003
      7.02576060e-003 0. 4.68384055e-003 7.02576060e-003 7.02576060e-003
      4.68384055e-003 0. 1.17096016e-002 1.63934417e-002 4.68384055e-003
      4.68384055e-003 4.68384055e-003 7.02576060e-003 2.34192028e-003
      9.36768111e-003 1.17096016e-002 2.34192028e-003 1.87353622e-002
      9.36768111e-003 4.68384055e-003 0. 2.34192028e-003 1.17096016e-002
      0. 7.02576060e-003 2.81030424e-002 1.17096016e-002 0.
      2.34192028e-003 0. 9.36768111e-003 2.34192028e-003 2.34192028e-003
      9.36768111e-003 0. 2.34192028e-003 4.68384055e-003 4.68384055e-003
      4.68384055e-003 2.34192028e-003 1.17096016e-002 4.68384055e-003
      7.02576060e-003 4.68384055e-003 0. 4.68384055e-003 7.02576060e-003
      0. 7.02576060e-003 9.36768111e-003 7.02576060e-003 0.
      2.34192028e-003 1.63934417e-002 7.02576060e-003 7.02576060e-003
      9.36768111e-003 2.34192028e-003</_>
    <_>
      5.24246413e-003 1.04849283e-002 2.09698565e-002 2.62123207e-003
      3.93184833e-003 1.31061603e-003 1.04849283e-002 2.62123207e-003
      1.57273933e-002 6.55307993e-003 6.55307993e-003 9.17431246e-003
      5.24246413e-003 3.93184833e-003 3.93184833e-003 1.31061603e-003
      3.93184833e-003 2.62123207e-003 3.93184833e-003 1.31061603e-003
      2.62123207e-003 0. 2.62123207e-003 2.62123207e-003 3.93184833e-003
      2.22804733e-002 1.31061603e-003 1.31061603e-003 2.62123207e-003 0.
      1.04849283e-002 1.31061603e-003 1.31061603e-003 1.44167766e-002
      2.22804733e-002 1.96592398e-002 9.17431246e-003 1.31061603e-003
      3.93184833e-003 5.24246413e-003 6.55307993e-003 5.24246413e-003
      3.93184833e-003 0. 2.62123207e-003 1.31061603e-003 0.
      1.44167766e-002 6.55307993e-003 6.55307993e-003 3.93184833e-003
      7.86369666e-003 3.93184833e-003 1.31061603e-003 3.93184833e-003
      1.31061599e-002 1.70380082e-002 3.93184833e-003 6.55307993e-003
      6.55307993e-003 1.04849283e-002 1.83486249e-002 5.24246413e-003
      1.04849283e-002 1.31061599e-002 6.55307993e-003 6.55307993e-003
      3.93184833e-003 0. 1.31061603e-003 1.31061603e-003 9.17431246e-003
      1.83486249e-002 9.17431246e-003 3.93184833e-003 6.55307993e-003
      1.04849283e-002 2.62123207e-003 7.86369666e-003 1.31061599e-002
      1.04849283e-002 9.17431246e-003 3.93184833e-003 6.55307993e-003
      2.62123207e-003 3.93184833e-003 6.55307993e-003 1.31061603e-003
      3.93184833e-003 1.04849283e-002 9.17431246e-003 1.96592398e-002
      7.86369666e-003 0. 3.93184833e-003 1.31061603e-003 3.93184833e-003
      1.31061603e-003 1.31061603e-003 1.31061603e-003 2.62123207e-003 0.
      1.31061599e-002 2.62123207e-003 9.17431246e-003 6.55307993e-003
      7.86369666e-003 1.04849283e-002 3.93184833e-003 1.44167766e-002
      6.55307993e-003 2.62123207e-003 2.62123207e-003 6.55307993e-003
      1.31061603e-003 5.24246413e-003 1.44167766e-002 9.17431246e-003
      1.44167766e-002 3.93184833e-003 1.04849283e-002 1.31061603e-003
      3.93184833e-003 1.04849283e-002 0. 9.17431246e-003 2.62123207e-003
      5.24246413e-003 3.93184833e-003 1.31061603e-003 2.22804733e-002
      3.93184833e-003 9.17431246e-003 1.04849283e-002 1.83486249e-002
      1.31061603e-003 9.17431246e-003 1.31061603e-003 6.55307993e-003
      2.62123207e-003 1.70380082e-002 5.24246413e-003 1.17955441e-002
      9.17431246e-003 1.70380082e-002 6.55307993e-003 3.93184833e-003
      5.24246413e-003 1.17955441e-002 7.86369666e-003</_>
    <_>
      0. 4.13223123e-003 8.26446246e-003 0. 4.13223132e-002 0. 0.
      6.19834699e-002 0. 0. 4.13223123e-003 4.13223123e-003 0.
      1.65289249e-002 4.13223123e-003 8.26446246e-003 4.13223123e-003
      1.23966932e-002 4.13223123e-003 8.26446246e-003 0. 4.13223123e-003
      0. 0. 0. 0. 0. 1.65289249e-002 0. 3.30578499e-002 1.23966932e-002
      4.13223123e-003 0. 4.13223123e-003 8.26446246e-003 0.
      4.13223123e-003 0. 0. 0. 8.26446246e-003 0. 4.13223123e-003
      8.26446246e-003 0. 8.26446246e-003 0. 0. 0. 0. 2.47933865e-002 0.
      0. 8.26446246e-003 8.26446246e-003 0. 4.13223123e-003
      4.13223123e-003 4.13223123e-003 2.89256182e-002 8.26446246e-003
      4.13223123e-003 0. 3.71900797e-002 8.26446246e-003 2.89256182e-002
      8.26446246e-003 8.26446246e-003 0. 2.47933865e-002 8.26446246e-003
      0. 8.26446246e-003 0. 0. 4.13223123e-003 0. 0. 4.13223123e-003
      1.65289249e-002 4.13223123e-003 4.13223123e-003 4.13223123e-003
      4.13223123e-003 0. 4.13223123e-003 8.26446246e-003 0.
      4.13223123e-003 0. 0. 0. 8.26446246e-003 4.13223123e-003
      1.23966932e-002 4.13223123e-003 0. 4.13223123e-003 4.13223123e-003
      1.23966932e-002 0. 0. 1.65289249e-002 4.13223123e-003 0.
      2.06611566e-002 1.23966932e-002 4.13223123e-003 4.13223123e-003
      1.65289249e-002 0. 4.13223123e-003 0. 0. 2.47933865e-002 0.
      1.23966932e-002 4.54545431e-002 8.26446246e-003 0. 1.23966932e-002
      4.13223123e-003 4.13223123e-003 0. 0. 0. 4.13223123e-003
      1.65289249e-002 4.13223123e-003 0. 4.54545431e-002 4.13223123e-003
      8.26446246e-003 0. 0. 4.13223123e-003 4.13223123e-003 0.
      4.13223123e-003 0. 1.23966932e-002 8.26446246e-003 1.23966932e-002
      0. 0. 4.13223123e-003 4.13223123e-003 4.13223123e-003
      2.06611566e-002 1.23966932e-002</_>
    <_>
      1.22249397e-002 0. 0. 2.44498788e-003 7.82396123e-002 0.
      2.44498788e-003 0. 4.88997577e-003 1.95599031e-002 7.33496342e-003
      9.77995154e-003 0. 0. 0. 0. 4.88997577e-003 0. 4.88997577e-003 0.
      2.44498788e-003 7.33496342e-003 0. 0. 7.33496342e-003 0.
      3.17848437e-002 2.44498788e-003 0. 1.71149150e-002 0.
      2.44498788e-003 4.88997577e-003 1.95599031e-002 0. 1.95599031e-002
      2.44498788e-003 0. 7.33496342e-003 2.44498788e-003 0.
      9.77995154e-003 1.22249397e-002 9.77995154e-003 0. 0. 0.
      2.44498788e-003 0. 0. 4.88997577e-003 7.33496342e-003 0.
      1.46699268e-002 2.44498793e-002 4.88997577e-003 2.20048912e-002
      1.95599031e-002 0. 1.95599031e-002 4.88997577e-003 2.44498788e-003
      2.44498788e-003 7.33496342e-003 2.44498788e-003 4.88997577e-003
      2.44498788e-003 0. 0. 9.77995154e-003 0. 0. 2.44498788e-003
      2.44498788e-003 2.44498788e-003 0. 2.44498788e-003 0. 0.
      2.44498788e-003 7.33496342e-003 9.77995154e-003 2.44498788e-003
      2.44498788e-003 2.44498788e-003 0. 0. 4.88997577e-003
      2.44498788e-003 4.88997577e-003 0. 2.44498788e-003 2.44498788e-003
      2.68948674e-002 2.44498788e-003 0. 4.88997577e-003 1.46699268e-002
      0. 3.42298299e-002 9.77995154e-003 2.44498788e-003 4.88997577e-003
      7.33496342e-003 0. 1.46699268e-002 2.44498788e-003 1.71149150e-002
      9.77995154e-003 1.22249397e-002 9.77995154e-003 7.33496342e-003
      4.88997577e-003 4.88997577e-003 1.46699268e-002 9.77995154e-003
      9.77995154e-003 0. 7.33496342e-003 1.95599031e-002 9.77995154e-003
      0. 0. 0. 0. 2.44498788e-003 7.33496342e-003 2.44498788e-003
      2.44498788e-003 7.33496342e-003 2.44498788e-003 2.44498788e-003
      1.71149150e-002 1.46699268e-002 0. 4.15647924e-002 0. 0.
      9.77995154e-003 0. 4.88997577e-003 5.37897348e-002 7.33496342e-003
      0. 0. 3.66748199e-002 0. 2.44498788e-003 4.88997577e-003
      2.44498788e-003</_>
    <_>
      6.75675645e-003 3.86100379e-003 5.79150580e-003 2.89575290e-003
      7.72200758e-003 9.65250935e-003 4.82625468e-003 1.06177600e-002
      1.64092667e-002 4.82625468e-003 8.68725870e-003 5.79150580e-003
      1.06177600e-002 2.89575290e-003 6.75675645e-003 6.75675645e-003
      5.79150580e-003 6.75675645e-003 0. 4.82625468e-003 2.89575290e-003
      4.82625468e-003 7.72200758e-003 4.82625468e-003 1.15830116e-002
      9.65250935e-003 5.79150580e-003 2.89575290e-003 1.25482623e-002
      5.79150580e-003 3.86100379e-003 5.79150580e-003 3.86100379e-003
      5.79150580e-003 6.75675645e-003 1.93050189e-003 4.82625468e-003
      9.65250935e-003 1.06177600e-002 7.72200758e-003 1.15830116e-002
      3.86100379e-003 7.72200758e-003 4.82625468e-003 4.82625468e-003
      3.86100379e-003 9.65250935e-003 1.06177600e-002 3.86100379e-003
      6.75675645e-003 4.82625468e-003 7.72200758e-003 3.86100379e-003
      1.93050189e-003 7.72200758e-003 1.25482623e-002 9.65250935e-003
      1.06177600e-002 4.82625468e-003 9.65250935e-003 2.89575290e-003
      5.79150580e-003 1.93050189e-003 7.72200758e-003 1.06177600e-002
      1.83397681e-002 1.15830116e-002 1.64092667e-002 2.89575290e-003
      1.93050189e-003 5.79150580e-003 1.44787645e-002 7.72200758e-003
      9.65250935e-003 1.25482623e-002 3.86100379e-003 7.72200758e-003
      8.68725870e-003 4.82625468e-003 2.89575290e-003 4.82625468e-003
      1.06177600e-002 8.68725870e-003 8.68725870e-003 4.82625468e-003
      9.65250935e-003 1.15830116e-002 6.75675645e-003 5.79150580e-003
      5.79150580e-003 4.82625468e-003 7.72200758e-003 6.75675645e-003 0.
      6.75675645e-003 3.86100379e-003 1.44787645e-002 5.79150580e-003
      4.82625468e-003 2.89575290e-003 2.89575290e-003 6.75675645e-003
      1.06177600e-002 8.68725870e-003 5.79150580e-003 9.65250947e-004
      2.89575290e-003 2.89575290e-003 6.75675645e-003 2.60617752e-002
      4.82625468e-003 2.89575290e-003 3.86100379e-003 5.79150580e-003
      1.93050189e-003 6.75675645e-003 1.06177600e-002 1.25482623e-002
      6.75675645e-003 2.89575290e-003 1.93050189e-003 6.75675645e-003
      9.65250935e-003 7.72200758e-003 2.89575290e-003 7.72200758e-003 0.
      8.68725870e-003 8.68725870e-003 5.79150580e-003 2.89575290e-003
      8.68725870e-003 7.72200758e-003 1.54440152e-002 9.65250935e-003
      3.86100379e-003 7.72200758e-003 1.93050189e-003 3.86100379e-003
      9.65250947e-004 4.82625468e-003 3.86100379e-003 9.65250947e-004
      7.72200758e-003 3.86100379e-003 3.86100379e-003 6.75675645e-003
      5.79150580e-003 4.82625468e-003 5.79150580e-003</_>
    <_>
      1.28676472e-002 3.67647060e-003 1.28676472e-002 5.51470602e-003 0.
      2.57352944e-002 1.83823530e-003 1.28676472e-002 3.67647060e-003
      3.67647060e-003 1.83823530e-003 3.67647060e-003 1.10294120e-002
      7.35294120e-003 0. 3.67647060e-003 5.51470602e-003 1.28676472e-002
      9.19117685e-003 1.10294120e-002 1.10294120e-002 9.19117685e-003
      5.51470602e-003 1.83823530e-003 3.67647060e-003 9.19117685e-003
      3.67647060e-003 9.19117685e-003 5.51470602e-003 9.19117685e-003
      1.65441185e-002 9.19117685e-003 0. 1.83823530e-003 7.35294120e-003
      0. 3.67647060e-003 1.83823537e-002 1.28676472e-002 5.51470602e-003
      2.02205889e-002 7.35294120e-003 9.19117685e-003 1.10294120e-002
      5.51470602e-003 7.35294120e-003 2.02205889e-002 1.10294120e-002
      5.51470602e-003 1.83823530e-003 2.57352944e-002 1.83823530e-003 0.
      7.35294120e-003 3.67647060e-003 9.19117685e-003 3.67647060e-003
      9.19117685e-003 1.83823530e-003 7.35294120e-003 1.65441185e-002 0.
      1.10294120e-002 1.47058824e-002 3.67647060e-003 9.19117685e-003
      9.19117685e-003 1.10294120e-002 5.51470602e-003 1.83823530e-003
      3.67647060e-003 3.67647060e-003 7.35294120e-003 9.19117685e-003
      5.51470602e-003 1.47058824e-002 3.67647060e-003 3.67647060e-003
      1.10294120e-002 5.51470602e-003 0. 9.19117685e-003 5.51470602e-003
      5.51470602e-003 5.51470602e-003 3.67647060e-003 5.51470602e-003
      7.35294120e-003 3.67647060e-003 0. 1.47058824e-002 1.10294120e-002
      9.19117685e-003 5.51470602e-003 7.35294120e-003 9.19117685e-003
      1.83823530e-003 7.35294120e-003 1.83823537e-002 7.35294120e-003
      5.51470602e-003 1.83823530e-003 3.67647060e-003 5.51470602e-003 0.
      9.19117685e-003 9.19117685e-003 3.67647060e-003 0. 0.
      3.67647060e-003 1.28676472e-002 9.19117685e-003 1.83823530e-003
      5.51470602e-003 0. 5.51470602e-003 1.10294120e-002 5.51470602e-003
      3.67647060e-003 5.51470602e-003 7.35294120e-003 9.19117685e-003
      5.51470602e-003 9.19117685e-003 9.19117685e-003 1.83823530e-003
      3.67647060e-003 1.83823530e-003 1.83823530e-003 1.83823530e-003
      9.19117685e-003 7.35294120e-003 5.51470602e-003 1.83823530e-003
      1.83823530e-003 9.19117685e-003 1.83823530e-003 3.67647060e-003
      1.28676472e-002 1.83823530e-003 1.47058824e-002 3.67647060e-003
      1.83823530e-003 7.35294120e-003 7.35294120e-003 0. 0.
      1.83823530e-003 3.67647060e-003</_>
    <_>
      5.26315812e-003 2.10526325e-002 7.89473765e-003 0. 1.31578948e-002
      0. 1.05263162e-002 5.26315812e-003 1.57894753e-002 0.
      1.05263162e-002 2.36842111e-002 2.63157906e-003 0. 1.31578948e-002
      2.63157906e-003 2.63157906e-003 1.05263162e-002 2.63157906e-003
      5.26315812e-003 2.63157906e-003 5.26315812e-003 1.05263162e-002
      1.05263162e-002 2.63157906e-003 5.26315812e-003 1.57894753e-002 0.
      5.26315812e-003 5.26315812e-003 5.26315812e-003 2.63157906e-003 0.
      1.31578948e-002 5.26315812e-003 5.26315812e-003 0. 2.63157906e-003
      1.05263162e-002 5.26315812e-003 0. 1.31578948e-002 7.89473765e-003
      2.63157906e-003 5.26315812e-003 1.05263162e-002 5.26315812e-003
      2.63157906e-003 0. 7.89473765e-003 5.26315812e-003 7.89473765e-003
      0. 1.31578948e-002 2.63157906e-003 1.84210539e-002 1.57894753e-002
      1.57894753e-002 2.63157906e-003 2.63157906e-003 7.89473765e-003
      1.05263162e-002 2.63157906e-003 2.63157906e-003 5.26315812e-003
      2.63157906e-003 1.05263162e-002 0. 2.63157906e-003 1.57894753e-002
      1.31578948e-002 2.63157906e-003 7.89473765e-003 0. 7.89473765e-003
      2.63157906e-003 2.63157906e-003 2.63157906e-003 7.89473765e-003
      7.89473765e-003 1.05263162e-002 0. 2.63157906e-003 5.26315812e-003
      7.89473765e-003 0. 2.63157906e-003 2.63157906e-003 2.63157906e-003
      2.63157906e-003 2.63157906e-003 1.84210539e-002 5.26315812e-003 0.
      2.63157906e-003 7.89473765e-003 1.31578948e-002 1.05263162e-002
      2.63157906e-003 5.26315812e-003 2.10526325e-002 0. 1.31578948e-002
      7.89473765e-003 5.26315812e-003 7.89473765e-003 0. 1.31578948e-002
      1.57894753e-002 3.68421078e-002 7.89473765e-003 2.63157906e-003
      5.26315812e-003 5.26315812e-003 0. 0. 7.89473765e-003
      5.26315812e-003 2.63157906e-003 0. 2.63157906e-003 7.89473765e-003
      1.57894753e-002 5.26315812e-003 2.63157906e-003 5.26315812e-003 0.
      0. 5.26315812e-003 2.63157906e-003 1.05263162e-002 1.57894753e-002
      1.05263162e-002 1.31578948e-002 2.63157906e-003 2.63157906e-003
      1.31578948e-002 2.63157906e-003 5.26315812e-003 0. 1.05263162e-002
      1.05263162e-002 1.31578948e-002 7.89473765e-003 5.26315812e-003
      2.36842111e-002 5.26315812e-003 5.26315812e-003 5.26315812e-003
      5.26315812e-003</_>
    <_>
      3.99999972e-003 2.66666664e-003 1.33333332e-003 7.99999945e-003
      1.33333332e-003 9.33333300e-003 2.66666664e-003 1.99999996e-002
      9.33333300e-003 5.33333328e-003 5.33333328e-003 6.66666683e-003
      1.06666666e-002 1.59999989e-002 9.33333300e-003 9.33333300e-003
      2.66666664e-003 9.33333300e-003 3.99999972e-003 6.66666683e-003
      1.06666666e-002 3.99999972e-003 2.66666664e-003 7.99999945e-003
      1.20000001e-002 6.66666683e-003 9.33333300e-003 1.33333332e-003
      1.33333332e-003 1.59999989e-002 1.33333332e-003 6.66666683e-003
      2.66666664e-003 1.06666666e-002 6.66666683e-003 5.33333328e-003
      9.33333300e-003 7.99999945e-003 1.73333324e-002 3.99999972e-003
      1.06666666e-002 5.33333328e-003 2.66666664e-003 5.33333328e-003
      1.33333332e-003 5.33333328e-003 9.33333300e-003 5.33333328e-003
      9.33333300e-003 7.99999945e-003 2.66666664e-003 5.33333328e-003
      9.33333300e-003 1.06666666e-002 9.33333300e-003 2.66666664e-003
      9.33333300e-003 6.66666683e-003 0. 5.33333328e-003 1.59999989e-002
      2.66666664e-003 9.33333300e-003 5.33333328e-003 9.33333300e-003
      9.33333300e-003 3.99999972e-003 6.66666683e-003 2.66666664e-003
      1.59999989e-002 2.66666664e-003 7.99999945e-003 3.99999972e-003
      6.66666683e-003 7.99999945e-003 6.66666683e-003 7.99999945e-003
      9.33333300e-003 2.66666664e-003 5.33333328e-003 3.99999972e-003
      5.33333328e-003 5.33333328e-003 5.33333328e-003 5.33333328e-003
      5.33333328e-003 1.33333332e-003 7.99999945e-003 5.33333328e-003
      2.66666664e-003 2.66666664e-003 5.33333328e-003 6.66666683e-003
      3.99999972e-003 9.33333300e-003 3.99999972e-003 1.46666663e-002
      7.99999945e-003 6.66666683e-003 9.33333300e-003 1.33333332e-003
      7.99999945e-003 1.06666666e-002 3.99999972e-003 3.99999972e-003
      1.33333332e-003 7.99999945e-003 5.33333328e-003 2.66666664e-003
      5.33333328e-003 7.99999945e-003 1.33333337e-002 3.99999972e-003
      1.06666666e-002 7.99999945e-003 7.99999945e-003 7.99999945e-003
      2.79999990e-002 2.66666664e-003 9.33333300e-003 3.99999972e-003
      6.66666683e-003 6.66666683e-003 3.99999972e-003 6.66666683e-003
      3.99999972e-003 2.66666664e-003 1.33333332e-003 7.99999945e-003
      6.66666683e-003 3.99999972e-003 9.33333300e-003 1.06666666e-002
      3.99999972e-003 3.99999972e-003 1.06666666e-002 2.66666664e-003
      5.33333328e-003 6.66666683e-003 2.66666664e-003 1.46666663e-002
      6.66666683e-003 2.66666664e-003 7.99999945e-003 6.66666683e-003
      5.33333328e-003 5.33333328e-003 3.99999972e-003 5.33333328e-003
      6.66666683e-003</_>
    <_>
      9.21658985e-003 2.30414746e-003 1.38248848e-002 2.30414746e-003
      4.60829493e-003 6.91244239e-003 2.30414746e-003 1.38248848e-002 0.
      6.91244239e-003 0. 4.60829493e-003 4.60829493e-003 2.30414746e-003
      2.30414746e-003 6.91244239e-003 4.60829493e-003 2.30414746e-003
      1.38248848e-002 6.91244239e-003 6.91244239e-003 2.30414746e-003
      2.30414746e-003 2.30414746e-003 2.30414746e-003 4.60829493e-003
      4.60829493e-003 9.21658985e-003 0. 2.30414756e-002 1.38248848e-002
      1.15207378e-002 2.30414746e-003 2.30414746e-003 6.91244239e-003
      4.60829493e-003 6.91244239e-003 1.15207378e-002 6.91244239e-003
      4.60829493e-003 6.91244239e-003 1.15207378e-002 1.38248848e-002
      6.91244239e-003 2.30414746e-003 6.91244239e-003 4.60829493e-003
      2.30414746e-003 2.30414746e-003 4.60829493e-003 9.21658985e-003 0.
      2.30414746e-003 9.21658985e-003 1.15207378e-002 2.30414746e-003
      4.60829493e-003 2.30414746e-003 4.60829493e-003 9.21658985e-003
      1.38248848e-002 6.91244239e-003 1.61290318e-002 1.61290318e-002
      6.91244239e-003 9.21658985e-003 4.60829493e-003 4.60829493e-003
      4.60829493e-003 3.22580636e-002 4.60829493e-003 4.60829493e-003
      2.30414746e-003 2.30414746e-003 1.15207378e-002 1.15207378e-002
      6.91244239e-003 2.30414746e-003 9.21658985e-003 9.21658985e-003
      4.60829493e-003 2.30414746e-003 2.30414746e-003 2.30414746e-003
      2.30414746e-003 2.30414746e-003 0. 9.21658985e-003 6.91244239e-003
      2.30414746e-003 1.84331797e-002 6.91244239e-003 0. 9.21658985e-003
      4.60829493e-003 4.60829493e-003 6.91244239e-003 1.15207378e-002 0.
      2.53456216e-002 1.61290318e-002 4.60829493e-003 6.91244239e-003
      4.60829493e-003 6.91244239e-003 9.21658985e-003 0. 2.30414746e-003
      1.15207378e-002 2.30414746e-003 0. 2.07373276e-002 0. 0.
      9.21658985e-003 4.60829493e-003 1.15207378e-002 1.84331797e-002
      6.91244239e-003 6.91244239e-003 9.21658985e-003 2.30414746e-003
      2.30414746e-003 2.30414746e-003 4.60829493e-003 0. 6.91244239e-003
      9.21658985e-003 1.15207378e-002 2.30414746e-003 2.30414746e-003
      2.30414756e-002 2.07373276e-002 4.60829493e-003 2.30414746e-003
      1.61290318e-002 4.60829493e-003 4.60829493e-003 6.91244239e-003
      1.38248848e-002 9.21658985e-003 6.91244239e-003 2.30414746e-003
      2.30414746e-003 2.30414746e-003 4.60829493e-003 6.91244239e-003
      4.60829493e-003 6.91244239e-003 2.30414746e-003</_>
    <_>
      6.38297852e-003 2.12765951e-003 4.25531901e-003 2.12765951e-003
      8.51063803e-003 2.12765951e-003 4.25531901e-003 3.61702107e-002 0.
      1.06382975e-002 4.25531901e-003 8.51063803e-003 0. 6.38297852e-003
      4.25531901e-003 2.12765951e-003 6.38297852e-003 0. 1.27659570e-002
      2.12765951e-003 1.91489346e-002 4.25531901e-003 0. 8.51063803e-003
      1.06382975e-002 6.38297852e-003 1.06382975e-002 6.38297852e-003
      4.25531901e-003 2.12765951e-002 1.27659570e-002 1.06382975e-002 0.
      4.25531901e-003 8.51063803e-003 2.12765951e-003 1.27659570e-002
      2.12765951e-003 6.38297852e-003 8.51063803e-003 2.12765951e-003
      1.06382975e-002 6.38297852e-003 6.38297852e-003 0. 4.25531901e-003
      8.51063803e-003 2.12765951e-003 1.06382975e-002 6.38297852e-003
      8.51063803e-003 0. 4.25531901e-003 8.51063803e-003 6.38297852e-003
      6.38297852e-003 4.25531901e-003 0. 2.12765951e-003 0.
      1.06382975e-002 4.25531901e-003 2.12765951e-003 1.91489346e-002 0.
      2.34042555e-002 4.25531901e-003 4.25531901e-003 8.51063803e-003
      1.91489346e-002 2.12765951e-003 2.12765951e-003 4.25531901e-003
      2.12765951e-003 1.06382975e-002 4.25531901e-003 6.38297852e-003 0.
      4.25531901e-003 0. 6.38297852e-003 8.51063803e-003 4.25531901e-003
      2.12765951e-003 1.48936165e-002 4.25531901e-003 4.25531901e-003
      8.51063803e-003 6.38297852e-003 8.51063803e-003 1.91489346e-002
      4.25531901e-003 4.25531901e-003 1.27659570e-002 2.12765951e-003
      8.51063803e-003 8.51063803e-003 0. 1.48936165e-002 1.91489346e-002
      6.38297852e-003 2.12765951e-003 2.12765951e-003 6.38297852e-003
      4.25531901e-003 4.25531901e-003 8.51063803e-003 4.04255316e-002 0.
      1.27659570e-002 0. 1.06382975e-002 1.48936165e-002 2.12765951e-003
      4.25531901e-003 8.51063803e-003 6.38297852e-003 1.06382975e-002
      2.12765951e-003 2.12765951e-003 8.51063803e-003 6.38297852e-003
      4.25531901e-003 2.12765951e-003 0. 6.38297852e-003 2.12765951e-003
      6.38297852e-003 8.51063803e-003 2.12765951e-003 6.38297852e-003
      8.51063803e-003 1.70212761e-002 2.12765951e-003 4.25531901e-003
      1.48936165e-002 2.12765951e-003 2.12765951e-003 8.51063803e-003
      2.12765951e-003 8.51063803e-003 1.91489346e-002 1.27659570e-002
      4.25531901e-003 6.38297852e-003 0. 2.12765951e-003 2.12765951e-003
      2.12765951e-003 4.25531901e-003</_>
    <_>
      6.35930058e-003 0. 9.53895040e-003 0. 2.54372023e-002
      4.76947520e-003 1.11287758e-002 1.11287758e-002 0. 6.35930058e-003
      4.76947520e-003 4.76947520e-003 6.35930058e-003 1.58982514e-003
      3.17965029e-003 1.58982514e-003 3.17965029e-003 7.94912595e-003
      7.94912595e-003 1.58982514e-003 7.94912595e-003 3.17965029e-003 0.
      3.17965029e-003 6.35930058e-003 6.35930058e-003 1.11287758e-002
      1.11287758e-002 0. 3.17965029e-003 6.35930058e-003 1.11287758e-002
      4.76947520e-003 0. 1.58982519e-002 1.58982514e-003 6.35930058e-003
      3.17965029e-003 0. 1.58982514e-003 7.94912595e-003 1.27186012e-002
      7.94912595e-003 1.58982514e-003 1.58982514e-003 7.94912595e-003
      4.76947520e-003 1.11287758e-002 0. 3.17965029e-003 1.58982514e-003
      6.35930058e-003 4.76947520e-003 3.17965029e-003 1.11287758e-002
      9.53895040e-003 1.58982519e-002 4.76947520e-003 4.76947520e-003
      1.58982514e-003 1.27186012e-002 9.53895040e-003 1.11287758e-002
      6.35930058e-003 1.27186012e-002 2.86168531e-002 4.76947520e-003 0.
      1.43084265e-002 1.27186012e-002 0. 1.58982514e-003 9.53895040e-003
      1.58982514e-003 1.58982514e-003 9.53895040e-003 6.35930058e-003 0.
      1.58982514e-003 4.76947520e-003 9.53895040e-003 3.17965029e-003
      3.17965029e-003 3.17965029e-003 1.58982514e-003 1.58982514e-003
      3.17965029e-003 9.53895040e-003 6.35930058e-003 4.76947520e-003
      4.76947520e-003 6.35930058e-003 1.74880773e-002 2.22575516e-002
      4.76947520e-003 1.58982514e-003 6.35930058e-003 1.11287758e-002
      3.17965029e-003 1.11287758e-002 7.94912595e-003 0. 4.76947520e-003
      6.35930058e-003 1.58982514e-003 1.11287758e-002 4.76947520e-003
      2.86168531e-002 6.35930058e-003 6.35930058e-003 3.17965029e-003
      4.76947520e-003 3.17965029e-003 0. 1.27186012e-002 4.76947520e-003
      1.58982514e-003 0. 4.76947520e-003 6.35930058e-003 2.38473769e-002
      1.58982514e-003 7.94912595e-003 3.17965029e-003 3.17965029e-003
      9.53895040e-003 3.17965029e-003 1.27186012e-002 7.94912595e-003
      4.76947520e-003 1.43084265e-002 4.76947520e-003 2.54372023e-002
      3.17965029e-003 0. 2.86168531e-002 3.17965029e-003 3.17965029e-003
      7.94912595e-003 4.76947520e-003 9.53895040e-003 1.58982519e-002
      1.43084265e-002 1.58982514e-003 3.17965029e-003 1.58982519e-002
      4.76947520e-003 1.58982514e-003 6.35930058e-003 6.35930058e-003</_>
    <_>
      5.59701491e-003 1.30597008e-002 5.59701491e-003 1.86567160e-003
      3.73134320e-003 7.46268639e-003 7.46268639e-003 0. 1.11940298e-002
      1.86567160e-003 1.30597008e-002 0. 5.59701491e-003 0.
      2.05223877e-002 1.49253728e-002 7.46268639e-003 5.59701491e-003
      3.73134320e-003 1.86567160e-003 7.46268639e-003 1.11940298e-002
      5.59701491e-003 3.73134320e-003 2.05223877e-002 1.86567160e-003
      1.11940298e-002 1.86567160e-003 1.49253728e-002 1.86567160e-003 0.
      7.46268639e-003 1.86567160e-003 5.59701491e-003 3.73134320e-003
      1.11940298e-002 1.49253728e-002 1.11940298e-002 7.46268639e-003
      9.32835788e-003 1.86567160e-003 5.59701491e-003 1.67910438e-002 0.
      5.59701491e-003 3.73134320e-003 5.59701491e-003 1.86567160e-003
      3.73134320e-003 5.59701491e-003 3.73134320e-003 9.32835788e-003
      5.59701491e-003 1.11940298e-002 5.59701491e-003 0. 7.46268639e-003
      1.86567158e-002 5.59701491e-003 0. 1.11940298e-002 5.59701491e-003
      7.46268639e-003 0. 1.30597008e-002 3.73134320e-003 0.
      5.59701491e-003 3.73134320e-003 0. 1.86567160e-003 2.23880596e-002
      1.86567160e-003 9.32835788e-003 5.59701491e-003 0. 1.67910438e-002
      1.30597008e-002 3.73134320e-003 5.59701491e-003 5.59701491e-003
      1.86567160e-003 5.59701491e-003 1.11940298e-002 1.86567160e-003
      7.46268639e-003 3.73134320e-003 1.86567160e-003 3.73134320e-003 0.
      3.73134320e-003 5.59701491e-003 5.59701491e-003 7.46268639e-003
      9.32835788e-003 0. 1.67910438e-002 1.30597008e-002 3.73134320e-003
      9.32835788e-003 3.73134320e-003 5.59701491e-003 1.86567160e-003
      5.59701491e-003 9.32835788e-003 1.86567160e-003 3.73134320e-003 0.
      9.32835788e-003 1.86567160e-003 3.73134320e-003 3.73134320e-003
      1.11940298e-002 5.59701491e-003 1.86567160e-003 1.11940298e-002
      5.59701491e-003 7.46268639e-003 0. 3.73134320e-003 5.59701491e-003
      1.67910438e-002 5.59701491e-003 1.86567158e-002 5.59701491e-003
      5.59701491e-003 1.86567160e-003 5.59701491e-003 9.32835788e-003
      9.32835788e-003 7.46268639e-003 1.67910438e-002 9.32835788e-003
      1.11940298e-002 1.86567160e-003 5.59701491e-003 1.30597008e-002
      3.73134320e-003 5.59701491e-003 1.86567160e-003 3.73134320e-003
      9.32835788e-003 7.46268639e-003 1.49253728e-002 1.86567160e-003
      1.67910438e-002 1.30597008e-002 1.11940298e-002 9.32835788e-003
      5.59701491e-003</_>
    <_>
      1.13207549e-002 1.50943398e-002 3.77358496e-003 3.77358496e-003 0.
      1.13207549e-002 3.77358496e-003 1.50943398e-002 0. 1.50943398e-002
      7.54716992e-003 0. 3.77358496e-003 3.77358496e-003 0.
      1.13207549e-002 3.77358496e-003 1.50943398e-002 0. 7.54716992e-003
      1.50943398e-002 7.54716992e-003 1.50943398e-002 3.77358496e-003 0.
      3.77358496e-003 0. 1.50943398e-002 7.54716992e-003 1.13207549e-002
      7.54716992e-003 7.54716992e-003 0. 0. 3.77358496e-003 0.
      3.77358496e-003 1.13207549e-002 3.77358496e-003 0. 1.13207549e-002
      3.77358496e-003 3.77358496e-003 1.13207549e-002 7.54716992e-003 0.
      7.54716992e-003 7.54716992e-003 0. 1.13207549e-002 1.13207549e-002
      3.77358496e-003 7.54716992e-003 1.88679248e-002 7.54716992e-003
      3.77358496e-003 3.77358496e-003 0. 2.26415098e-002 1.13207549e-002
      3.77358496e-003 0. 7.54716992e-003 3.77358496e-003 3.77358496e-003
      0. 1.50943398e-002 7.54716992e-003 3.77358496e-003 1.50943398e-002
      0. 0. 7.54716992e-003 0. 1.13207549e-002 1.50943398e-002 0. 0.
      1.50943398e-002 7.54716992e-003 0. 2.26415098e-002 7.54716992e-003
      0. 7.54716992e-003 3.77358496e-003 1.13207549e-002 7.54716992e-003
      7.54716992e-003 1.88679248e-002 1.50943398e-002 7.54716992e-003
      3.77358496e-003 1.13207549e-002 0. 7.54716992e-003 3.77358496e-003
      7.54716992e-003 7.54716992e-003 1.13207549e-002 0. 1.13207549e-002
      7.54716992e-003 3.77358496e-003 2.26415098e-002 1.13207549e-002
      2.26415098e-002 0. 7.54716992e-003 0. 3.77358496e-003
      1.88679248e-002 1.13207549e-002 7.54716992e-003 7.54716992e-003 0.
      3.77358496e-003 7.54716992e-003 1.13207549e-002 0. 0.
      3.77358496e-003 1.13207549e-002 3.77358496e-003 7.54716992e-003
      1.13207549e-002 3.77358496e-003 0. 0. 1.50943398e-002
      3.77358496e-003 0. 3.77358496e-003 7.54716992e-003 1.50943398e-002
      3.77358496e-003 1.13207549e-002 7.54716992e-003 7.54716992e-003
      3.77358496e-003 7.54716992e-003 3.77358496e-003 0. 0.
      1.13207549e-002 0. 0. 1.13207549e-002 0. 3.77358496e-003</_>
    <_>
      4.92610829e-003 4.92610829e-003 7.38916267e-003 0. 1.47783253e-002
      0. 9.85221658e-003 4.43349741e-002 4.92610829e-003 7.38916267e-003
      7.38916267e-003 2.46305414e-003 0. 1.23152705e-002 0. 0.
      9.85221658e-003 9.85221658e-003 2.70935949e-002 9.85221658e-003
      2.46305414e-003 2.46305414e-003 4.92610829e-003 7.38916267e-003
      4.92610829e-003 2.46305414e-003 4.92610829e-003 4.92610829e-003
      7.38916267e-003 0. 9.85221658e-003 1.97044332e-002 0.
      7.38916267e-003 4.92610829e-003 4.92610829e-003 1.23152705e-002
      9.85221658e-003 4.92610829e-003 0. 4.92610829e-003 1.23152705e-002
      7.38916267e-003 0. 0. 2.21674871e-002 7.38916267e-003
      9.85221658e-003 1.23152705e-002 4.92610829e-003 2.46305414e-003
      7.38916267e-003 1.47783253e-002 2.46305414e-003 9.85221658e-003
      4.92610829e-003 9.85221658e-003 7.38916267e-003 2.46305414e-003
      1.23152705e-002 4.92610829e-003 9.85221658e-003 0. 7.38916267e-003
      1.47783253e-002 9.85221658e-003 9.85221658e-003 0. 4.92610829e-003
      2.46305414e-003 4.92610829e-003 9.85221658e-003 0. 4.92610829e-003
      2.46305414e-003 1.23152705e-002 2.46305414e-003 7.38916267e-003
      7.38916267e-003 9.85221658e-003 0. 4.92610829e-003 7.38916267e-003
      7.38916267e-003 2.46305414e-003 2.46305414e-003 7.38916267e-003
      7.38916267e-003 2.46305414e-003 2.46305414e-003 2.46305414e-003
      1.23152705e-002 1.47783253e-002 2.46305414e-003 4.92610829e-003
      4.92610829e-003 7.38916267e-003 0. 2.46305414e-003 7.38916267e-003
      7.38916267e-003 2.46305414e-003 1.23152705e-002 4.92610829e-003
      9.85221658e-003 9.85221658e-003 2.46305414e-003 9.85221658e-003
      9.85221658e-003 1.97044332e-002 4.92610829e-003 0. 4.92610829e-003
      2.46305414e-003 4.92610829e-003 0. 9.85221658e-003 2.70935949e-002
      2.46305414e-003 7.38916267e-003 7.38916267e-003 0. 7.38916267e-003
      4.92610829e-003 2.46305414e-003 9.85221658e-003 0. 2.46305414e-003
      4.92610829e-003 0. 7.38916267e-003 9.85221658e-003 1.23152705e-002
      7.38916267e-003 4.92610829e-003 1.23152705e-002 4.92610829e-003 0.
      1.23152705e-002 7.38916267e-003 9.85221658e-003 7.38916267e-003
      2.46305414e-003 7.38916267e-003 0. 0. 7.38916267e-003
      7.38916267e-003 7.38916267e-003 2.46305414e-003</_>
    <_>
      5.98802418e-003 2.99401209e-003 8.98203626e-003 2.99401209e-003 0.
      8.98203626e-003 0. 2.09580846e-002 0. 1.19760484e-002
      2.99401209e-003 2.99401209e-003 8.98203626e-003 5.98802418e-003 0.
      2.09580846e-002 5.98802418e-003 8.98203626e-003 5.98802418e-003
      5.08982055e-002 8.98203626e-003 2.99401209e-003 2.99401209e-003
      2.99401209e-003 0. 5.98802418e-003 0. 2.99401209e-003 0.
      2.99401209e-003 1.19760484e-002 2.99401209e-003 2.99401209e-003
      5.98802418e-003 2.09580846e-002 2.99401209e-003 2.99401209e-003 0.
      0. 0. 1.19760484e-002 5.98802418e-003 2.99401209e-003
      8.98203626e-003 0. 1.49700604e-002 1.19760484e-002 1.79640725e-002
      5.98802418e-003 1.19760484e-002 1.49700604e-002 2.99401209e-003
      1.19760484e-002 0. 2.99401209e-003 8.98203626e-003 2.99401209e-003
      2.99401209e-003 0. 1.19760484e-002 1.19760484e-002 5.98802418e-003
      1.19760484e-002 1.49700604e-002 2.99401209e-003 1.49700604e-002
      1.19760484e-002 1.19760484e-002 5.98802418e-003 2.99401209e-003
      5.98802418e-003 8.98203626e-003 1.19760484e-002 1.19760484e-002
      2.99401209e-003 8.98203626e-003 2.99401209e-003 0. 8.98203626e-003
      0. 8.98203626e-003 0. 5.98802418e-003 2.99401209e-003
      8.98203626e-003 5.98802418e-003 1.79640725e-002 5.98802418e-003
      8.98203626e-003 1.19760484e-002 5.98802418e-003 0. 8.98203626e-003
      0. 2.99401209e-003 1.49700604e-002 1.49700604e-002 8.98203626e-003
      0. 1.19760484e-002 0. 1.19760484e-002 5.98802418e-003
      8.98203626e-003 2.99401209e-003 2.99401209e-003 0. 0.
      5.98802418e-003 5.98802418e-003 0. 5.98802418e-003 5.98802418e-003
      5.98802418e-003 0. 5.98802418e-003 5.98802418e-003 2.99401209e-002
      1.79640725e-002 5.98802418e-003 5.98802418e-003 2.99401209e-003
      1.49700604e-002 0. 2.99401209e-003 5.98802418e-003 1.19760484e-002
      2.99401209e-003 5.98802418e-003 1.49700604e-002 5.98802418e-003
      5.98802418e-003 5.98802418e-003 2.99401209e-003 0. 8.98203626e-003
      5.98802418e-003 0. 0. 8.98203626e-003 0. 5.98802418e-003
      5.98802418e-003 5.98802418e-003 2.99401209e-003 5.98802418e-003
      2.99401209e-003 2.99401209e-003 0. 8.98203626e-003</_>
    <_>
      0. 0. 0. 1.97044332e-002 0. 1.47783253e-002 4.92610829e-003 0. 0.
      0. 9.85221658e-003 0. 9.85221658e-003 9.85221658e-003
      1.97044332e-002 2.95566507e-002 0. 4.92610829e-003 9.85221658e-003
      0. 0. 0. 4.92610829e-003 0. 0. 0. 9.85221658e-003 0.
      2.95566507e-002 3.94088663e-002 0. 0. 1.97044332e-002
      9.85221658e-003 1.97044332e-002 4.92610829e-003 4.92610829e-003 0.
      2.46305410e-002 0. 0. 0. 4.92610829e-003 4.92610829e-003
      3.44827585e-002 9.85221658e-003 0. 0. 4.92610829e-003 0.
      4.92610829e-003 4.92610829e-003 9.85221658e-003 9.85221658e-003
      9.85221658e-003 9.85221658e-003 0. 4.92610829e-003 0.
      4.92610829e-003 9.85221658e-003 9.85221658e-003 9.85221658e-003 0.
      0. 4.92610829e-003 0. 1.97044332e-002 0. 9.85221658e-003 0.
      4.92610829e-003 0. 0. 4.92610829e-003 0. 4.92610829e-003 0. 0. 0.
      0. 0. 0. 1.47783253e-002 0. 9.85221658e-003 4.92610829e-003 0.
      4.92610829e-003 9.85221658e-003 0. 0. 4.92610829e-003
      1.47783253e-002 4.92610829e-003 0. 2.95566507e-002 4.92610829e-003
      4.92610829e-003 2.46305410e-002 0. 1.47783253e-002 9.85221658e-003
      0. 0. 0. 0. 0. 3.94088663e-002 0. 1.47783253e-002 1.47783253e-002
      0. 4.92610829e-003 0. 1.47783253e-002 0. 1.47783253e-002
      4.92610829e-003 0. 4.92610829e-003 0. 9.85221658e-003 0.
      2.95566507e-002 4.92610829e-003 1.97044332e-002 0. 4.92610829e-003
      0. 0. 1.47783253e-002 9.85221658e-003 4.92610829e-003 0.
      9.85221658e-003 0. 0. 9.85221658e-003 0. 4.92610829e-003
      2.95566507e-002 0. 9.85221658e-003 0. 1.97044332e-002
      9.85221658e-003 1.47783253e-002 9.85221658e-003 1.47783253e-002</_>
    <_>
      0. 0. 1.69491526e-002 1.12994350e-002 0. 2.25988701e-002
      5.64971752e-003 1.63841814e-001 0. 5.64971752e-003 1.12994350e-002
      0. 0. 0. 0. 2.82485876e-002 2.25988701e-002 0. 0. 0. 0.
      5.64971752e-003 0. 0. 0. 0. 0. 5.64971752e-003 0. 1.12994350e-002
      0. 0. 0. 0. 0. 0. 0. 0. 3.38983051e-002 0. 1.69491526e-002 0. 0.
      2.82485876e-002 2.25988701e-002 5.64971752e-003 1.69491526e-002 0.
      0. 5.64971752e-003 5.64971752e-003 5.64971752e-003 0.
      3.38983051e-002 0. 5.64971752e-003 0. 5.64971752e-003 0. 0. 0. 0.
      5.64971752e-003 0. 0. 5.64971752e-003 0. 0. 0. 3.38983051e-002
      5.64971752e-003 5.64971752e-003 5.64971752e-003 5.64971752e-003
      1.12994350e-002 1.69491526e-002 5.64971752e-003 0. 5.64971752e-003
      0. 0. 0. 5.64971752e-003 0. 0. 0. 0. 5.64971752e-003
      5.64971752e-003 0. 0. 5.64971752e-003 0. 5.64971752e-003 0. 0.
      1.12994350e-002 5.64971752e-003 0. 5.64971752e-003 0.
      5.64971752e-003 0. 5.64971752e-003 0. 0. 1.69491526e-002 0.
      4.51977402e-002 0. 0. 2.82485876e-002 0. 0. 1.12994350e-002
      5.64971752e-003 0. 1.12994350e-001 0. 0. 0. 0. 5.64971752e-003
      1.12994350e-002 1.12994350e-002 0. 0. 0. 0. 5.64971752e-003 0.
      2.82485876e-002 5.64971752e-003 0. 0. 1.69491526e-002
      5.64971752e-003 0. 0. 0. 0. 5.64971752e-003 5.64971752e-003
      5.64971752e-003 0. 5.64971752e-003 0. 0. 0. 0.</_>
    <_>
      3.81679391e-003 0. 7.63358781e-003 7.63358781e-003 3.81679391e-003
      7.63358781e-003 0. 1.14503819e-002 0. 1.14503819e-002 0.
      7.63358781e-003 1.14503819e-002 3.81679391e-003 0. 3.81679391e-003
      1.14503819e-002 7.63358781e-003 1.14503819e-002 3.81679391e-003
      3.81679391e-003 2.29007639e-002 0. 7.63358781e-003 3.81679391e-003
      0. 7.63358781e-003 3.81679391e-003 0. 1.52671756e-002
      3.81679391e-003 0. 1.52671756e-002 3.81679391e-003 0.
      3.81679391e-003 0. 7.63358781e-003 1.14503819e-002 3.81679391e-003
      1.52671756e-002 1.52671756e-002 2.29007639e-002 0. 3.81679391e-003
      1.14503819e-002 1.14503819e-002 0. 3.81679391e-003 7.63358781e-003
      2.29007639e-002 0. 1.14503819e-002 1.14503819e-002 1.52671756e-002
      1.52671756e-002 0. 3.81679391e-003 0. 0. 0. 7.63358781e-003
      7.63358781e-003 0. 3.81679391e-003 2.67175566e-002 7.63358781e-003
      3.81679391e-003 0. 2.67175566e-002 3.81679391e-003 0. 0.
      3.81679391e-003 1.14503819e-002 3.81679391e-003 1.14503819e-002 0.
      0. 1.14503819e-002 1.14503819e-002 7.63358781e-003 7.63358781e-003
      1.14503819e-002 7.63358781e-003 1.14503819e-002 3.81679391e-003 0.
      3.81679391e-003 7.63358781e-003 0. 0. 1.14503819e-002
      7.63358781e-003 3.81679391e-003 1.14503819e-002 0. 2.29007639e-002
      7.63358781e-003 1.90839693e-002 0. 3.81679391e-003 1.14503819e-002
      0. 3.81679391e-003 3.81679391e-003 0. 0. 1.14503819e-002 0.
      1.14503819e-002 1.90839693e-002 3.81679391e-003 3.81679391e-003
      3.81679391e-003 3.81679391e-003 0. 1.14503819e-002 0. 0.
      7.63358781e-003 0. 3.81679391e-003 0. 1.14503819e-002
      3.81679391e-003 1.14503819e-002 3.81679391e-003 7.63358781e-003
      1.14503819e-002 3.81679391e-003 3.81679391e-003 3.43511440e-002
      7.63358781e-003 0. 1.14503819e-002 7.63358781e-003 0.
      1.52671756e-002 7.63358781e-003 7.63358781e-003 1.90839693e-002 0.
      3.81679391e-003 7.63358781e-003 7.63358781e-003 0. 1.52671756e-002
      7.63358781e-003 0.</_>
    <_>
      1.19047621e-002 0. 2.38095243e-002 0. 0. 0. 0. 8.33333358e-002 0.
      1.19047621e-002 0. 0. 0. 0. 0. 0. 0. 0. 0. 3.57142873e-002 0. 0.
      0. 0. 0. 0. 0. 0. 0. 0. 0. 2.38095243e-002 2.38095243e-002 0. 0.
      0. 2.38095243e-002 1.19047621e-002 0. 0. 1.19047621e-002 0. 0. 0.
      0. 2.38095243e-002 0. 1.19047621e-002 0. 0. 0. 0. 0. 0.
      1.19047621e-002 1.19047621e-002 0. 0. 0. 1.19047621e-002 0. 0. 0.
      2.38095243e-002 0. 7.14285746e-002 0. 0. 0. 1.19047621e-002 0. 0.
      0. 1.19047621e-002 0. 1.19047621e-002 0. 0. 0. 3.57142873e-002
      2.38095243e-002 0. 0. 0. 0. 0. 1.19047621e-002 0. 0.
      1.19047621e-002 3.57142873e-002 0. 2.38095243e-002 0. 0. 0. 0. 0.
      0. 0. 0. 0. 0. 0. 0. 0. 3.57142873e-002 1.19047621e-002 0.
      2.38095243e-002 0. 0. 0. 0. 2.38095243e-002 0. 2.38095243e-002 0.
      3.57142873e-002 1.19047621e-002 0. 0. 0. 0. 1.19047621e-002 0.
      1.19047621e-002 0. 0. 1.19047621e-002 3.57142873e-002 0.
      1.19047621e-002 0. 0. 0. 0. 1.19047621e-002 1.19047621e-002
      2.38095243e-002 2.38095243e-002 0. 1.19047621e-002 0. 0.
      1.19047621e-002 0. 0. 4.76190485e-002 0.</_>
    <_>
      4.48430516e-003 8.96861032e-003 0. 8.96861032e-003 0.
      1.34529155e-002 0. 0. 1.79372206e-002 0. 1.34529155e-002 0.
      2.69058309e-002 0. 0. 0. 4.48430516e-003 4.48430516e-003
      1.34529155e-002 4.48430516e-003 4.48430516e-003 4.48430516e-003
      8.96861032e-003 0. 4.48430516e-003 0. 8.96861032e-003 0.
      1.34529155e-002 4.48430516e-003 2.69058309e-002 4.48430516e-003
      4.48430516e-003 8.96861032e-003 4.48430516e-003 4.48430516e-003
      8.96861032e-003 0. 2.24215258e-002 0. 4.48430516e-003 0.
      1.34529155e-002 8.96861032e-003 4.48430516e-003 1.34529155e-002
      8.96861032e-003 8.96861032e-003 4.48430516e-003 8.96861032e-003 0.
      8.96861032e-003 8.96861032e-003 4.48430516e-003 0. 0.
      1.34529155e-002 1.79372206e-002 1.79372206e-002 0. 4.48430516e-003
      1.34529155e-002 8.96861032e-003 8.96861032e-003 1.79372206e-002
      1.79372206e-002 1.79372206e-002 2.24215258e-002 0. 8.96861032e-003
      1.34529155e-002 8.96861032e-003 0. 8.96861032e-003 8.96861032e-003
      0. 8.96861032e-003 8.96861032e-003 4.48430516e-003 8.96861032e-003
      0. 4.48430516e-003 0. 4.48430516e-003 1.34529155e-002
      1.34529155e-002 4.48430516e-003 0. 1.79372206e-002 4.48430516e-003
      4.48430516e-003 0. 4.48430516e-003 8.96861032e-003 1.34529155e-002
      4.48430516e-003 8.96861032e-003 0. 8.96861032e-003 0.
      8.96861032e-003 4.48430516e-003 0. 8.96861032e-003 8.96861032e-003
      0. 4.48430516e-003 1.34529155e-002 1.34529155e-002 0.
      4.48430516e-003 1.34529155e-002 8.96861032e-003 0. 0. 0. 0. 0.
      4.48430516e-003 8.96861032e-003 0. 1.79372206e-002 8.96861032e-003
      1.34529155e-002 4.48430516e-003 1.79372206e-002 0. 4.48430516e-003
      4.48430516e-003 1.34529155e-002 0. 1.79372206e-002 0.
      4.48430516e-003 1.79372206e-002 4.48430516e-003 0. 0. 0.
      8.96861032e-003 0. 4.48430516e-003 4.48430516e-003 1.79372206e-002
      8.96861032e-003 0. 4.48430516e-003 0. 4.48430516e-003 0.</_>
    <_>
      9.77198686e-003 3.25732888e-003 6.51465775e-003 0. 1.30293155e-002
      0. 6.51465775e-003 2.93159597e-002 3.25732888e-003 3.25732888e-003
      0. 6.51465775e-003 3.25732888e-003 1.95439737e-002 0. 0.
      6.51465775e-003 6.51465775e-003 9.77198686e-003 1.62866451e-002
      1.30293155e-002 6.51465775e-003 9.77198686e-003 6.51465775e-003
      1.30293155e-002 3.25732888e-003 9.77198686e-003 3.25732888e-003
      3.25732888e-003 2.28013024e-002 1.62866451e-002 0. 0.
      3.25732888e-003 3.25732888e-003 0. 6.51465775e-003 0.
      3.25732888e-003 3.25732888e-003 2.28013024e-002 1.30293155e-002 0.
      6.51465775e-003 3.25732888e-003 9.77198686e-003 6.51465775e-003
      1.30293155e-002 6.51465775e-003 0. 6.51465775e-003 6.51465775e-003
      3.25732888e-003 9.77198686e-003 0. 3.25732888e-003 1.30293155e-002
      9.77198686e-003 0. 0. 1.95439737e-002 3.25732888e-003
      6.51465775e-003 3.25732888e-003 1.62866451e-002 6.51465775e-003
      3.25732888e-003 3.25732888e-003 1.62866451e-002 0. 6.51465775e-003
      9.77198686e-003 0. 0. 0. 9.77198686e-003 0. 3.25732888e-003
      3.25732888e-003 3.25732888e-003 0. 3.25732888e-003 0.
      6.51465775e-003 6.51465775e-003 3.25732888e-003 6.51465775e-003
      6.51465775e-003 1.30293155e-002 9.77198686e-003 0. 9.77198686e-003
      9.77198686e-003 9.77198686e-003 9.77198686e-003 6.51465775e-003
      1.62866451e-002 6.51465775e-003 3.25732888e-003 9.77198686e-003
      3.25732888e-003 6.51465775e-003 6.51465775e-003 3.25732888e-003
      3.25732888e-003 6.51465775e-003 2.28013024e-002 2.93159597e-002 0.
      0. 0. 2.28013024e-002 3.25732888e-003 0. 1.30293155e-002 0.
      9.77198686e-003 3.90879475e-002 3.25732888e-003 3.25732888e-003
      1.30293155e-002 3.25732888e-003 0. 0. 6.51465775e-003
      1.30293155e-002 0. 9.77198686e-003 3.25732888e-003 0. 0.
      6.51465775e-003 1.62866451e-002 0. 3.25732888e-003 1.62866451e-002
      3.25732888e-003 6.51465775e-003 1.62866451e-002 3.25732888e-003 0.
      9.77198686e-003 2.28013024e-002 3.25732888e-003 0. 3.25732888e-003
      9.77198686e-003 0. 0. 0.</_>
    <_>
      0. 1.36986300e-002 1.36986300e-002 2.05479451e-002 0.
      4.79452051e-002 6.84931502e-003 0. 0. 0. 2.05479451e-002 0. 0.
      6.84931502e-003 6.84931502e-003 1.36986300e-002 0. 6.84931502e-003
      0. 6.84931502e-003 0. 0. 6.84931502e-003 0. 6.84931502e-003
      6.84931502e-003 6.84931502e-003 1.36986300e-002 1.36986300e-002
      1.36986300e-002 2.73972601e-002 0. 1.36986300e-002 0.
      6.84931502e-003 0. 6.84931502e-003 0. 0. 6.84931502e-003
      6.84931502e-003 6.84931502e-003 1.36986300e-002 1.36986300e-002
      6.84931502e-003 6.84931502e-003 1.36986300e-002 0. 2.05479451e-002
      6.84931502e-003 2.73972601e-002 0. 1.36986300e-002 0.
      6.84931502e-003 6.84931502e-003 0. 6.84931502e-003 0.
      6.84931502e-003 0. 6.84931502e-003 0. 1.36986300e-002
      1.36986300e-002 1.36986300e-002 0. 0. 1.36986300e-002
      2.05479451e-002 6.84931502e-003 0. 1.36986300e-002 0.
      1.36986300e-002 0. 1.36986300e-002 0. 2.73972601e-002 0.
      1.36986300e-002 6.84931502e-003 6.84931502e-003 6.84931502e-003
      6.84931502e-003 0. 0. 0. 6.84931502e-003 1.36986300e-002
      6.84931502e-003 0. 6.84931502e-003 0. 0. 6.84931502e-003 0. 0.
      1.36986300e-002 0. 0. 6.84931502e-003 0. 6.84931502e-003
      6.84931502e-003 1.36986300e-002 2.05479451e-002 0. 6.84931502e-003
      0. 2.73972601e-002 1.36986300e-002 0. 0. 0. 0. 0. 6.84931502e-003
      6.84931502e-003 1.36986300e-002 6.84931502e-003 0. 6.84931502e-003
      6.84931502e-003 6.84931502e-003 0. 6.84931502e-003 6.84931502e-003
      0. 6.84931502e-003 1.36986300e-002 0. 1.36986300e-002 0. 0. 0. 0.
      0. 0. 6.84931502e-003 6.84931502e-003 6.84931502e-003
      1.36986300e-002 1.36986300e-002 6.84931502e-003 0. 6.84931502e-003
      6.84931502e-003 6.84931502e-003 6.84931502e-003</_>
    <_>
      0. 0. 0. 1.44927539e-002 2.89855078e-002 1.44927539e-002
      1.44927539e-002 4.34782617e-002 0. 0. 1.44927539e-002 0. 0. 0. 0.
      0. 0. 2.89855078e-002 0. 1.44927539e-002 4.34782617e-002 0. 0. 0.
      0. 0. 0. 0. 0. 0. 2.89855078e-002 0. 0. 0. 0. 0. 0.
      2.89855078e-002 0. 0. 0. 0. 0. 2.89855078e-002 0. 0.
      1.44927539e-002 0. 0. 0. 0. 0. 1.44927539e-002 1.44927539e-002 0.
      0. 0. 0. 0. 0. 0. 0. 0. 4.34782617e-002 1.44927539e-002 0. 0.
      2.89855078e-002 0. 1.88405797e-001 0. 0. 0. 0. 0. 0.
      2.89855078e-002 0. 0. 0. 0. 2.89855078e-002 0. 0. 4.34782617e-002
