<?xml version="1.0"?>
<opencv_storage>
<my_svm type_id="opencv-ml-svm">
  <svm_type>C_SVC</svm_type>
  <kernel><type>RBF</type>
    <gamma>1.0000000000000001e-005</gamma></kernel>
  <C>1.0000000000000001e-001</C>
  <term_criteria><epsilon>1.1920928955078125e-007</epsilon>
    <iterations>1000</iterations></term_criteria>
  <var_all>150</var_all>
  <var_count>150</var_count>
  <class_count>2</class_count>
  <class_labels type_id="opencv-matrix">
    <rows>1</rows>
    <cols>2</cols>
    <dt>i</dt>
    <data>
      0 1</data></class_labels>
  <sv_total>118</sv_total>
  <support_vectors>
    <_>
      4.40528616e-003 6.60792924e-003 2.20264308e-003 6.60792924e-003
      4.40528616e-003 6.60792924e-003 1.10132154e-002 1.98237877e-002
      2.20264308e-003 2.20264308e-003 8.81057233e-003 2.20264308e-003
      6.60792924e-003 0. 4.40528616e-003 1.10132154e-002 1.32158585e-002
      2.20264308e-003 4.40528616e-003 1.32158585e-002 1.54185016e-002
      8.81057233e-003 4.40528616e-003 2.20264308e-003 8.81057233e-003
      6.60792924e-003 1.32158585e-002 6.60792924e-003 0. 1.54185016e-002
      8.81057233e-003 4.40528616e-003 0. 0. 0. 6.60792924e-003
      2.20264308e-003 1.32158585e-002 6.60792924e-003 8.81057233e-003
      4.40528616e-003 6.60792924e-003 2.20264308e-003 1.32158585e-002
      6.60792924e-003 6.60792924e-003 1.76211447e-002 4.40528616e-003
      4.40528616e-003 8.81057233e-003 1.10132154e-002 6.60792924e-003
      6.60792924e-003 1.32158585e-002 1.10132154e-002 6.60792924e-003
      4.40528616e-003 6.60792924e-003 1.10132154e-002 2.20264308e-003
      6.60792924e-003 0. 4.40528616e-003 1.32158585e-002 2.20264308e-003
      8.81057233e-003 2.20264308e-003 4.40528616e-003 4.40528616e-003
      3.96475755e-002 0. 1.32158585e-002 8.81057233e-003 1.10132154e-002
      6.60792924e-003 1.10132154e-002 0. 2.20264308e-003 6.60792924e-003
      4.40528616e-003 0. 6.60792924e-003 1.10132154e-002 0.
      1.32158585e-002 4.40528616e-003 4.40528616e-003 2.20264308e-003
      2.20264308e-003 2.20264308e-003 8.81057233e-003 4.40528616e-003 0.
      4.40528616e-003 6.60792924e-003 6.60792924e-003 4.40528616e-003
      2.20264308e-003 6.60792924e-003 6.60792924e-003 2.20264308e-003
      8.81057233e-003 2.20264308e-003 6.60792924e-003 4.40528616e-003
      1.32158585e-002 4.40528616e-003 6.60792924e-003 1.54185016e-002
      2.20264308e-003 6.60792924e-003 3.30396444e-002 4.40528616e-003
      2.20264308e-003 2.42290739e-002 4.40528616e-003 2.20264308e-003
      8.81057233e-003 1.10132154e-002 2.20264308e-003 6.60792924e-003
      2.20264308e-003 8.81057233e-003 8.81057233e-003 1.76211447e-002
      2.20264308e-003 2.20264308e-003 4.40528616e-003 1.54185016e-002
      2.20264308e-003 0. 1.76211447e-002 6.60792924e-003 2.20264308e-003
      2.20264308e-003 8.81057233e-003 2.20264308e-003 4.40528616e-003
      2.20264308e-003 8.81057233e-003 2.20264308e-003 2.20264308e-003
      4.40528616e-003 8.81057233e-003 4.40528616e-003 1.10132154e-002
      6.60792924e-003 0. 0. 4.40528616e-003</_>
    <_>
      0. 0. 6.57894742e-003 1.31578948e-002 0. 0. 0. 7.23684207e-002 0.
      0. 1.31578948e-002 0. 6.57894742e-003 6.57894742e-003 0. 0.
      1.97368413e-002 0. 0. 0. 6.57894742e-003 0. 6.57894742e-003 0. 0.
      6.57894742e-003 0. 6.57894760e-002 0. 0. 1.31578948e-002 0. 0. 0.
      1.31578948e-002 0. 6.57894742e-003 0. 1.97368413e-002 0.
      2.63157897e-002 0. 0. 0. 6.57894742e-003 1.31578948e-002
      6.57894742e-003 6.57894742e-003 0. 0. 6.57894742e-003
      6.57894742e-003 0. 0. 0. 6.57894742e-003 0. 6.57894742e-003
      6.57894742e-003 0. 0. 2.63157897e-002 0. 1.31578948e-002
      6.57894742e-003 6.57894742e-003 6.57894742e-003 1.31578948e-002
      1.97368413e-002 0. 0. 0. 1.97368413e-002 6.57894742e-003 0.
      4.60526310e-002 0. 6.57894742e-003 2.63157897e-002 1.97368413e-002
      0. 2.63157897e-002 1.97368413e-002 0. 1.31578948e-002
      6.57894742e-003 0. 0. 0. 1.31578948e-002 1.31578948e-002 0. 0.
      1.31578948e-002 1.31578948e-002 1.31578948e-002 0. 0. 0.
      6.57894742e-003 0. 6.57894742e-003 0. 0. 6.57894742e-003
      1.31578948e-002 0. 0. 0. 1.97368413e-002 0. 6.57894742e-003 0. 0.
      6.57894742e-003 0. 1.31578948e-002 4.60526310e-002 0.
      6.57894742e-003 6.57894742e-003 6.57894742e-003 6.57894742e-003 0.
      0. 0. 6.57894742e-003 0. 6.57894742e-003 0. 0. 1.31578948e-002
      6.57894742e-003 6.57894742e-003 0. 0. 1.31578948e-002 0.
      1.31578948e-002 6.57894742e-003 6.57894742e-003 6.57894742e-003
      6.57894742e-003 0. 1.97368413e-002 6.57894742e-003 0.
      6.57894742e-003 6.57894742e-003 0.</_>
    <_>
      1.39275761e-002 1.11420611e-002 2.78551527e-003 2.78551527e-003 0.
      2.78551527e-003 5.57103055e-003 0. 5.57103055e-003 2.78551527e-003
      2.78551527e-003 1.67130921e-002 5.57103055e-003 2.78551527e-003
      1.11420611e-002 1.11420611e-002 5.57103055e-003 2.78551527e-003
      1.94986071e-002 1.11420611e-002 8.35654605e-003 2.78551527e-003
      2.78551527e-003 0. 5.57103055e-003 1.39275761e-002 1.11420611e-002
      1.11420611e-002 0. 2.78551527e-003 2.78551527e-003 2.78551527e-003
      5.57103055e-003 3.06406673e-002 8.35654605e-003 1.39275761e-002
      2.78551527e-003 1.11420611e-002 5.57103055e-003 0. 2.78551527e-003
      2.78551527e-003 5.57103055e-003 0. 0. 5.57103055e-003
      5.57103055e-003 5.57103055e-003 8.35654605e-003 8.35654605e-003
      5.57103055e-003 2.78551523e-002 1.39275761e-002 1.11420611e-002
      5.57103055e-003 2.78551527e-003 2.78551527e-003 2.78551527e-003
      2.78551527e-003 8.35654605e-003 5.57103055e-003 5.57103055e-003
      8.35654605e-003 5.57103055e-003 1.11420611e-002 2.78551527e-003
      5.57103055e-003 0. 2.78551527e-003 2.78551527e-003 8.35654605e-003
      8.35654605e-003 5.57103055e-003 5.57103055e-003 2.78551527e-003
      2.78551527e-003 5.57103055e-003 5.57103055e-003 8.35654605e-003
      1.39275761e-002 1.11420611e-002 1.11420611e-002 2.78551527e-003
      8.35654605e-003 8.35654605e-003 5.57103055e-003 0. 8.35654605e-003
      5.57103055e-003 8.35654605e-003 5.57103055e-003 2.78551527e-003
      1.11420611e-002 5.57103055e-003 2.78551527e-003 5.57103055e-003
      1.39275761e-002 1.67130921e-002 2.78551527e-003 1.67130921e-002
      8.35654605e-003 8.35654605e-003 5.57103055e-003 2.78551527e-003 0.
      5.57103055e-003 2.78551527e-003 1.11420611e-002 1.94986071e-002
      1.94986071e-002 2.78551527e-003 2.78551527e-003 2.78551527e-003
      2.78551527e-003 5.57103055e-003 2.78551527e-003 0. 5.57103055e-003
      5.57103055e-003 8.35654605e-003 5.57103055e-003 5.57103055e-003
      5.57103055e-003 5.57103055e-003 5.57103055e-003 5.57103055e-003 0.
      5.57103055e-003 5.57103055e-003 5.57103055e-003 1.11420611e-002 0.
      1.67130921e-002 8.35654605e-003 5.57103055e-003 5.57103055e-003
      1.39275761e-002 2.78551527e-003 2.78551527e-003 2.78551527e-003
      2.78551527e-003 8.35654605e-003 1.11420611e-002 8.35654605e-003 0.
      1.67130921e-002 1.11420611e-002 2.78551527e-003 5.57103055e-003
      1.39275761e-002</_>
    <_>
      2.68199220e-002 1.91570874e-002 1.14942528e-002 0. 7.66283507e-003
      0. 3.83141753e-003 7.66283507e-003 3.83141753e-003 0. 0.
      3.83141753e-003 3.83141753e-003 7.66283507e-003 1.14942528e-002
      3.83141753e-003 3.83141753e-003 1.53256701e-002 1.14942528e-002
      7.66283507e-003 0. 3.83141753e-003 0. 0. 1.53256701e-002
      1.53256701e-002 1.14942528e-002 0. 1.53256701e-002 0.
      7.66283507e-003 7.66283507e-003 7.66283507e-003 0. 1.14942528e-002
      1.14942528e-002 0. 7.66283507e-003 3.83141753e-003 3.83141753e-003
      7.66283507e-003 1.14942528e-002 7.66283507e-003 3.83141753e-003 0.
      0. 0. 3.83141753e-003 7.66283507e-003 3.83141753e-003 0.
      1.53256701e-002 1.14942528e-002 1.91570874e-002 3.83141753e-003
      3.83141753e-003 1.91570874e-002 0. 3.83141753e-003 7.66283507e-003
      0. 2.68199220e-002 3.83141753e-003 0. 1.14942528e-002
      2.29885057e-002 7.66283507e-003 3.83141753e-003 1.14942528e-002 0.
      7.66283507e-003 3.83141753e-003 3.83141753e-003 0. 3.83141753e-003
      0. 0. 7.66283507e-003 1.53256701e-002 1.14942528e-002
      1.14942528e-002 1.14942528e-002 3.83141753e-003 1.14942528e-002
      3.83141753e-003 0. 3.83141753e-003 1.14942528e-002 7.66283507e-003
      3.83141753e-003 1.14942528e-002 7.66283507e-003 7.66283507e-003 0.
      7.66283507e-003 3.83141753e-003 7.66283507e-003 1.14942528e-002 0.
      7.66283507e-003 7.66283507e-003 0. 7.66283507e-003 3.83141753e-003
      0. 1.91570874e-002 7.66283507e-003 3.83141753e-003 3.83141753e-003
      7.66283507e-003 7.66283507e-003 0. 0. 0. 1.14942528e-002 0.
      3.83141753e-003 3.83141753e-003 3.83141753e-003 1.14942528e-002
      7.66283507e-003 3.83141753e-003 1.53256701e-002 3.83141753e-003
      3.83141753e-003 7.66283507e-003 7.66283507e-003 0. 7.66283507e-003
      1.91570874e-002 1.91570874e-002 0. 0. 0. 7.66283507e-003 0.
      7.66283507e-003 0. 7.66283507e-003 1.14942528e-002 1.91570874e-002
      1.14942528e-002 1.14942528e-002 7.66283507e-003 7.66283507e-003
      1.14942528e-002 3.83141753e-003 7.66283507e-003 7.66283507e-003 0.</_>
    <_>
      2.82485876e-003 2.82485876e-003 8.47457629e-003 1.41242938e-002
      2.82485876e-003 1.12994350e-002 5.64971752e-003 6.77966103e-002 0.
      2.82485876e-003 8.47457629e-003 2.82485876e-003 8.47457629e-003 0.
      2.82485876e-003 8.47457629e-003 0. 8.47457629e-003 0.
      1.41242938e-002 0. 2.82485876e-003 0. 0. 2.82485876e-003 0. 0.
      3.95480245e-002 0. 0. 1.69491526e-002 2.82485876e-003 0.
      2.82485876e-003 2.82485876e-003 2.82485876e-003 0. 2.82485876e-003
      1.12994350e-002 2.82485876e-003 2.25988701e-002 2.82485876e-003 0.
      0. 8.47457629e-003 0. 2.25988701e-002 5.64971752e-003 0.
      1.69491526e-002 2.82485876e-002 0. 0. 2.82485876e-003
      2.82485876e-003 0. 5.64971752e-003 0. 2.82485876e-003
      5.64971752e-003 2.82485876e-003 0. 2.82485876e-003 8.47457629e-003
      0. 5.64971752e-003 5.64971752e-003 0. 4.80225980e-002 0.
      2.82485876e-003 2.82485876e-003 0. 5.64971752e-003 5.64971752e-003
      1.97740123e-002 2.82485876e-003 0. 3.38983051e-002 1.12994350e-002
      0. 5.64971752e-003 8.47457629e-003 5.64971752e-003 3.95480245e-002
      0. 2.82485876e-003 2.82485876e-003 1.41242938e-002 2.82485876e-003
      5.64971752e-003 5.64971752e-003 2.82485876e-003 0. 2.82485876e-003
      2.25988701e-002 2.82485876e-003 0. 1.41242938e-002 0. 0.
      1.69491526e-002 0. 0. 2.82485876e-003 2.82485876e-003
      1.41242938e-002 0. 1.12994350e-002 5.64971752e-003 2.82485876e-003
      8.47457629e-003 0. 2.82485876e-003 9.03954804e-002 0.
      5.64971752e-003 5.36723174e-002 2.82485876e-003 0. 5.64971752e-003
      5.64971752e-003 2.82485876e-003 8.47457629e-003 5.64971752e-003
      5.64971752e-003 5.64971752e-003 5.64971752e-003 2.82485876e-003 0.
      5.64971752e-003 2.82485876e-003 0. 0. 5.64971752e-003 0. 0. 0. 0.
      1.12994350e-002 2.82485876e-003 0. 2.82485876e-003 8.47457629e-003
      0. 0. 2.82485876e-003 0. 2.82485876e-003 0.</_>
    <_>
      1.42653361e-002 9.98573471e-003 8.55920091e-003 1.42653356e-003
      1.56918690e-002 2.85306713e-003 4.27960046e-003 4.27960046e-003
      1.28388023e-002 5.70613425e-003 2.85306713e-003 2.85306713e-003
      1.42653356e-003 0. 7.13266805e-003 5.70613425e-003 4.27960046e-003
      7.13266805e-003 9.98573471e-003 7.13266805e-003 4.27960046e-003
      4.27960046e-003 8.55920091e-003 2.85306713e-003 9.98573471e-003
      7.13266805e-003 5.70613425e-003 4.27960046e-003 2.85306713e-003
      5.70613425e-003 1.42653356e-003 1.42653356e-003 0. 1.85449366e-002
      4.27960046e-003 1.85449366e-002 5.70613425e-003 7.13266805e-003
      1.42653356e-003 2.85306713e-003 4.27960046e-003 1.14122685e-002
      5.70613425e-003 4.27960046e-003 7.13266805e-003 2.85306713e-003
      4.27960046e-003 1.71184018e-002 9.98573471e-003 7.13266805e-003
      4.27960046e-003 8.55920091e-003 7.13266805e-003 8.55920091e-003
      1.42653356e-003 5.70613425e-003 1.28388023e-002 4.27960046e-003
      7.13266805e-003 1.42653356e-003 5.70613425e-003 9.98573471e-003
      4.27960046e-003 2.85306713e-003 1.14122685e-002 9.98573471e-003
      9.98573471e-003 1.56918690e-002 2.85306713e-003 5.70613425e-003
      1.42653361e-002 1.42653361e-002 7.13266805e-003 7.13266805e-003
      1.42653356e-003 2.85306713e-003 1.14122685e-002 4.27960046e-003
      1.14122685e-002 9.98573471e-003 7.13266805e-003 9.98573471e-003
      4.27960046e-003 1.85449366e-002 1.14122685e-002 1.42653361e-002
      9.98573471e-003 1.42653356e-003 7.13266805e-003 5.70613425e-003
      5.70613425e-003 7.13266805e-003 2.85306713e-003 4.27960046e-003
      9.98573471e-003 4.27960046e-003 1.14122685e-002 4.27960046e-003
      1.42653356e-003 9.98573471e-003 2.85306713e-003 2.85306713e-003
      8.55920091e-003 1.42653356e-003 8.55920091e-003 4.27960046e-003
      1.42653356e-003 7.13266805e-003 8.55920091e-003 1.14122685e-002
      2.85306713e-003 5.70613425e-003 5.70613425e-003 5.70613425e-003
      4.27960046e-003 4.27960046e-003 9.98573471e-003 4.27960046e-003
      4.27960046e-003 4.27960046e-003 7.13266805e-003 4.27960046e-003
      5.70613425e-003 4.27960046e-003 5.70613425e-003 8.55920091e-003 0.
      5.70613425e-003 7.13266805e-003 5.70613425e-003 9.98573471e-003
      7.13266805e-003 7.13266805e-003 5.70613425e-003 1.14122685e-002
      5.70613425e-003 7.13266805e-003 5.70613425e-003 8.55920091e-003
      1.42653356e-003 4.27960046e-003 7.13266805e-003 1.85449366e-002
      1.28388023e-002 9.98573471e-003 2.85306713e-003 7.13266805e-003 0.
      4.27960046e-003 5.70613425e-003</_>
    <_>
      9.73236002e-003 0. 0. 7.29927002e-003 0. 3.89294401e-002 0.
      2.18978096e-002 2.43309001e-003 0. 7.29927002e-003 1.70316305e-002
      4.86618001e-003 1.70316305e-002 0. 4.86618001e-003 2.18978096e-002
      9.73236002e-003 4.86618001e-003 7.29927002e-003 0. 2.43309001e-003
      4.86618001e-003 2.43309001e-003 2.43309001e-003 4.86618001e-003 0.
      7.29927002e-003 4.86618001e-003 4.86618001e-003 4.86618001e-003 0.
      9.73236002e-003 4.86618001e-003 0. 0. 0. 4.86618001e-003
      1.94647200e-002 7.29927002e-003 9.73236002e-003 4.86618001e-003
      2.43309001e-003 7.29927002e-003 1.45985400e-002 4.86618001e-003
      1.45985400e-002 4.86618001e-003 2.43309001e-003 9.73236002e-003
      4.13625315e-002 0. 2.43309001e-003 7.29927002e-003 4.86618001e-003
      1.21654496e-002 0. 4.86618001e-003 2.43309001e-003 7.29927002e-003
      2.43309001e-003 0. 2.43309001e-003 2.91970801e-002 2.43309001e-003
      1.45985400e-002 7.29927002e-003 4.86618001e-003 2.43308991e-002
      2.43309001e-003 2.43309001e-003 0. 1.70316305e-002 2.43309001e-003
      1.45985400e-002 4.86618001e-003 2.43309001e-003 2.43309001e-003
      4.86618001e-003 0. 2.43309001e-003 1.70316305e-002 7.29927002e-003
      0. 9.73236002e-003 2.43309001e-003 4.86618001e-003 1.94647200e-002
      7.29927002e-003 4.86618001e-003 9.73236002e-003 4.86618001e-003
      7.29927002e-003 7.29927002e-003 9.73236002e-003 1.70316305e-002
      2.43309001e-003 2.43309001e-003 1.21654496e-002 1.21654496e-002 0.
      2.43309001e-003 1.21654496e-002 4.86618001e-003 2.43309001e-003
      9.73236002e-003 7.29927002e-003 1.70316305e-002 4.86618001e-003 0.
      2.43309001e-003 2.43309001e-003 4.86618001e-003 0. 1.21654496e-002
      4.86618001e-003 4.86618001e-003 2.18978096e-002 1.45985400e-002 0.
      0. 1.45985400e-002 2.43309001e-003 2.43309001e-003 1.70316305e-002
      7.29927002e-003 4.86618001e-003 9.73236002e-003 0. 2.43309001e-003
      0. 0. 9.73236002e-003 2.43309001e-003 2.43309001e-003 0.
      2.43309001e-003 4.86618001e-003 7.29927002e-003 1.21654496e-002
      1.21654496e-002 7.29927002e-003 0. 4.86618001e-003 4.86618001e-003
      0. 1.21654496e-002 0. 2.43309001e-003 4.86618001e-003</_>
    <_>
      2.84810141e-002 6.32911408e-003 1.89873427e-002 0. 3.16455704e-003
      6.32911408e-003 3.16455704e-003 9.49367136e-003 0. 1.26582282e-002
      6.32911408e-003 1.58227850e-002 6.32911408e-003 6.32911408e-003
      6.32911408e-003 6.32911408e-003 9.49367136e-003 9.49367136e-003
      9.49367136e-003 3.16455704e-003 0. 0. 0. 9.49367136e-003
      9.49367136e-003 9.49367136e-003 3.16455704e-003 9.49367136e-003 0.
      3.16455704e-003 3.16455704e-003 6.32911408e-003 3.16455704e-003
      1.58227850e-002 1.58227850e-002 1.58227850e-002 6.32911408e-003
      3.16455704e-003 6.32911408e-003 3.16455704e-003 6.32911408e-003
      3.16455704e-003 6.32911408e-003 3.16455704e-003 3.16455704e-003
      9.49367136e-003 3.16455704e-003 9.49367136e-003 0. 9.49367136e-003
      0. 1.89873427e-002 3.16455704e-003 3.16455704e-003 3.16455704e-003
      6.32911408e-003 9.49367136e-003 3.16455704e-003 1.26582282e-002
      6.32911408e-003 1.26582282e-002 0. 6.32911408e-003 0.
      6.32911408e-003 2.21518986e-002 9.49367136e-003 9.49367136e-003
      6.32911408e-003 0. 3.16455704e-003 0. 3.16455700e-002
      3.16455704e-003 0. 1.26582282e-002 0. 0. 9.49367136e-003
      2.21518986e-002 6.32911408e-003 0. 1.26582282e-002 6.32911408e-003
      9.49367136e-003 9.49367136e-003 0. 6.32911408e-003 3.16455704e-003
      9.49367136e-003 1.26582282e-002 6.32911408e-003 9.49367136e-003 0.
      6.32911408e-003 0. 1.26582282e-002 0. 3.16455704e-003 0. 0.
      1.26582282e-002 1.26582282e-002 6.32911408e-003 9.49367136e-003
      9.49367136e-003 6.32911408e-003 6.32911408e-003 1.26582282e-002
      3.48101258e-002 0. 0. 9.49367136e-003 6.32911408e-003
      6.32911408e-003 0. 6.32911408e-003 3.16455704e-003 3.16455704e-003
      9.49367136e-003 1.58227850e-002 3.16455704e-003 0. 3.16455704e-003
      3.16455704e-003 1.26582282e-002 6.32911408e-003 3.16455704e-003
      9.49367136e-003 9.49367136e-003 2.21518986e-002 0. 0.
      3.16455704e-003 0. 3.16455704e-003 3.16455704e-003 3.16455704e-003
      3.16455704e-003 9.49367136e-003 3.16455704e-003 0. 1.58227850e-002
      6.32911408e-003 9.49367136e-003 0. 6.32911408e-003 3.16455704e-003
      3.16455704e-003 3.16455704e-003</_>
    <_>
      7.59493653e-003 7.59493653e-003 1.26582282e-002 0. 2.53164559e-003
      2.53164559e-003 2.53164559e-003 1.01265823e-002 1.77215189e-002
      7.59493653e-003 5.06329117e-003 2.53164559e-003 1.26582282e-002
      7.59493653e-003 2.53164559e-003 2.53164559e-003 2.53164559e-003 0.
      1.01265823e-002 5.06329117e-003 5.06329117e-003 2.53164559e-003
      7.59493653e-003 1.01265823e-002 1.77215189e-002 1.01265823e-002
      2.53164559e-003 1.51898731e-002 2.53164559e-003 0. 2.27848105e-002
      7.59493653e-003 2.53164559e-003 7.59493653e-003 2.02531647e-002
      5.06329117e-003 1.26582282e-002 5.06329117e-003 5.06329117e-003 0.
      5.06329117e-003 5.06329117e-003 0. 7.59493653e-003 0.
      5.06329117e-003 2.53164559e-003 7.59493653e-003 5.06329117e-003
      2.53164559e-003 7.59493653e-003 5.06329117e-003 1.77215189e-002
      1.01265823e-002 2.53164559e-003 5.06329117e-003 2.78481022e-002 0.
      7.59493653e-003 7.59493653e-003 7.59493653e-003 5.06329117e-003
      5.06329117e-003 1.26582282e-002 0. 7.59493653e-003 1.01265823e-002
      7.59493653e-003 2.53164559e-003 2.53164559e-003 1.01265823e-002 0.
      1.26582282e-002 5.06329117e-003 2.53164559e-003 3.03797461e-002
      2.53164559e-003 7.59493653e-003 1.01265823e-002 5.06329117e-003
      5.06329117e-003 5.06329117e-003 7.59493653e-003 7.59493653e-003
      1.01265823e-002 7.59493653e-003 1.01265823e-002 5.06329117e-003
      5.06329117e-003 0. 1.26582282e-002 2.27848105e-002 2.53164559e-003
      2.53164559e-003 7.59493653e-003 7.59493653e-003 2.53164559e-003 0.
      1.01265823e-002 2.27848105e-002 5.06329117e-003 5.06329117e-003
      2.53164559e-003 5.06329117e-003 7.59493653e-003 1.01265823e-002
      1.26582282e-002 2.53164559e-003 7.59493653e-003 7.59493653e-003 0.
      7.59493653e-003 0. 2.53164559e-003 1.01265823e-002 2.53164559e-003
      1.01265823e-002 5.06329117e-003 2.53164559e-003 0. 1.01265823e-002
      0. 5.06329117e-003 5.06329117e-003 0. 5.06329117e-003
      2.53164559e-003 5.06329117e-003 7.59493653e-003 2.53164559e-003
      7.59493653e-003 2.53164559e-003 1.51898731e-002 0. 1.77215189e-002
      5.06329117e-003 1.01265823e-002 2.53164559e-003 2.53164559e-003
      5.06329117e-003 5.06329117e-003 5.06329117e-003 2.02531647e-002
      5.06329117e-003 7.59493653e-003 1.01265823e-002 1.01265823e-002
      2.53164559e-003 0. 0.</_>
    <_>
      1.44230779e-002 0. 2.40384620e-002 0. 2.40384620e-002
      4.80769249e-003 0. 6.25000000e-002 0. 1.92307699e-002 0.
      4.80769249e-003 4.80769249e-003 1.44230779e-002 0. 4.80769249e-003
      4.80769249e-003 9.61538497e-003 9.61538497e-003 4.80769249e-003 0.
      4.80769249e-003 4.80769249e-003 4.80769249e-003 0. 0.
      1.44230779e-002 2.40384620e-002 0. 0. 0. 0. 9.61538497e-003
      4.80769249e-003 1.44230779e-002 0. 0. 4.80769249e-003 0. 0.
      9.61538497e-003 9.61538497e-003 0. 9.61538497e-003 0.
      4.80769249e-003 9.61538497e-003 0. 0. 4.80769249e-003
      4.80769249e-003 4.80769249e-003 4.80769249e-003 9.61538497e-003
      1.44230779e-002 0. 4.80769249e-003 4.80769249e-003 4.80769249e-003
      4.80769249e-003 1.44230779e-002 4.80769249e-003 9.61538497e-003
      9.61538497e-003 0. 9.61538497e-003 0. 4.80769249e-003
      2.40384620e-002 4.80769249e-003 0. 0. 2.40384620e-002 0.
      1.44230779e-002 2.40384620e-002 0. 0. 1.44230779e-002
      9.61538497e-003 0. 1.44230779e-002 9.61538497e-003 0.
      9.61538497e-003 4.80769249e-003 4.80769249e-003 9.61538497e-003
      4.80769249e-003 2.40384620e-002 0. 0. 4.80769249e-003 0. 0. 0.
      4.80769249e-003 0. 4.80769249e-003 0. 0. 0. 0. 9.61538497e-003 0.
      4.80769249e-003 4.80769249e-003 0. 4.80769249e-003 1.92307699e-002
      4.80769249e-003 4.80769249e-003 9.61538497e-003 0. 3.36538479e-002
      0. 0. 5.28846160e-002 3.36538479e-002 1.44230779e-002
      1.92307699e-002 0. 9.61538497e-003 0. 4.80769249e-003
      4.80769249e-003 4.80769249e-003 4.80769249e-003 0. 1.44230779e-002
      4.80769249e-003 4.80769249e-003 0. 4.80769249e-003 0. 0.
      9.61538497e-003 0. 4.80769249e-003 9.61538497e-003 0. 0.
      4.80769249e-003 0. 4.80769249e-003 0. 9.61538497e-003
      1.92307699e-002 0. 0.</_>
    <_>
      1.18343197e-002 1.77514795e-002 5.91715984e-003 0. 0. 0. 0.
      3.55029590e-002 0. 0. 1.18343197e-002 1.18343197e-002 0. 0. 0. 0.
      0. 0. 0. 0. 1.18343197e-002 2.95857992e-002 5.91715984e-003 0.
      5.91715984e-003 1.77514795e-002 5.91715984e-003 2.95857992e-002 0.
      5.91715984e-003 2.36686394e-002 1.18343197e-002 1.77514795e-002
      5.91715984e-003 0. 5.91715984e-003 5.91715984e-003 1.77514795e-002
      0. 0. 0. 1.18343197e-002 0. 1.77514795e-002 5.91715984e-003 0.
      1.18343197e-002 0. 0. 0. 0. 1.77514795e-002 5.91715984e-003
      1.18343197e-002 5.91715984e-003 5.91715984e-003 2.36686394e-002
      5.91715984e-003 5.91715984e-003 1.18343197e-002 0. 0. 0.
      5.91715984e-003 0. 0. 1.18343197e-002 1.18343197e-002
      1.77514795e-002 0. 0. 0. 5.91715984e-003 0. 1.18343197e-002
      1.18343197e-002 2.36686394e-002 0. 5.91715984e-003 0. 0.
      2.36686394e-002 1.77514795e-002 5.91715984e-003 5.91715984e-003
      1.18343197e-002 5.91715984e-003 0. 0. 1.77514795e-002 0. 0. 0. 0.
      5.91715984e-003 1.18343197e-002 5.91715984e-003 5.91715984e-003
      2.36686394e-002 0. 1.77514795e-002 5.91715984e-003 0. 0.
      5.91715984e-003 0. 2.36686394e-002 0. 1.77514795e-002
      1.77514795e-002 5.91715984e-003 0. 0. 0. 1.77514795e-002 0. 0.
      2.36686394e-002 2.36686394e-002 5.91715984e-003 0. 0. 0.
      5.91715984e-003 1.77514795e-002 1.18343197e-002 1.18343197e-002 0.
      1.18343197e-002 1.77514795e-002 0. 4.14201170e-002 0. 0. 0. 0.
      5.91715984e-003 0. 5.91715984e-003 5.91715984e-003 0. 0. 0. 0. 0.
      0. 0. 1.18343197e-002 0. 0.</_>
    <_>
      1.15321251e-002 1.64744642e-003 3.29489284e-003 6.58978568e-003 0.
      4.94233938e-003 1.64744642e-003 1.48270177e-002 3.29489284e-003
      6.58978568e-003 1.15321251e-002 3.29489284e-003 1.15321251e-002
      1.64744642e-003 3.29489284e-003 3.29489284e-003 4.94233938e-003
      4.94233938e-003 1.64744642e-003 4.94233938e-003 0. 4.94233938e-003
      8.23723245e-003 3.29489284e-003 1.64744642e-003 1.64744649e-002
      4.94233938e-003 6.58978568e-003 9.88467876e-003 0. 6.58978568e-003
      4.94233938e-003 8.23723245e-003 0. 0. 4.94233938e-003
      9.88467876e-003 9.88467876e-003 1.31795714e-002 6.58978568e-003
      1.64744649e-002 0. 4.94233938e-003 0. 4.94233938e-003
      4.94233938e-003 9.88467876e-003 1.64744649e-002 1.64744642e-003
      6.58978568e-003 1.64744642e-003 4.94233938e-003 3.29489284e-003
      3.29489284e-003 8.23723245e-003 4.94233938e-003 3.29489284e-003
      4.94233938e-003 3.29489284e-003 8.23723245e-003 3.29489284e-003
      3.29489284e-003 0. 9.88467876e-003 8.23723245e-003 4.94233938e-003
      2.14168038e-002 2.14168038e-002 6.58978568e-003 0. 8.23723245e-003
      8.23723245e-003 1.97693575e-002 6.58978568e-003 4.94233938e-003
      1.48270177e-002 6.58978568e-003 0. 1.48270177e-002 1.64744642e-003
      1.15321251e-002 1.48270177e-002 9.88467876e-003 9.88467876e-003
      1.15321251e-002 1.64744649e-002 1.81219112e-002 9.88467876e-003
      1.97693575e-002 8.23723245e-003 9.88467876e-003 3.29489284e-003 0.
      0. 9.88467876e-003 1.64744649e-002 0. 1.64744642e-003
      1.31795714e-002 0. 4.94233938e-003 1.64744642e-003 1.64744642e-003
      1.15321251e-002 1.64744642e-003 6.58978568e-003 9.88467876e-003
      4.94233938e-003 0. 1.48270177e-002 8.23723245e-003 0.
      6.58978568e-003 6.58978568e-003 1.15321251e-002 3.29489284e-003
      1.64744642e-003 1.81219112e-002 1.64744649e-002 0. 1.64744642e-003
      4.94233938e-003 3.29489284e-003 8.23723245e-003 0. 1.31795714e-002
      1.48270177e-002 3.29489284e-003 8.23723245e-003 1.31795714e-002
      4.94233938e-003 0. 1.64744642e-003 9.88467876e-003 8.23723245e-003
      1.64744642e-003 6.58978568e-003 1.64744642e-003 4.94233938e-003
      1.81219112e-002 3.29489284e-003 0. 4.94233938e-003 1.15321251e-002
      4.94233938e-003 0. 1.15321251e-002 6.58978568e-003 1.64744642e-003
      9.88467876e-003</_>
    <_>
      1.11524165e-002 5.57620823e-003 1.85873602e-002 0. 9.29368008e-003
      1.85873604e-003 5.57620823e-003 1.11524165e-002 1.85873604e-003
      7.43494416e-003 0. 5.57620823e-003 1.85873602e-002 1.11524165e-002
      1.85873604e-003 1.30111519e-002 0. 9.29368008e-003 1.85873604e-003
      1.11524165e-002 5.57620823e-003 3.71747208e-003 1.11524165e-002
      5.57620823e-003 7.43494416e-003 7.43494416e-003 9.29368008e-003
      7.43494416e-003 1.85873604e-003 1.85873604e-003 1.48698883e-002
      1.11524165e-002 5.57620823e-003 1.85873604e-003 1.85873602e-002
      3.71747208e-003 1.11524165e-002 5.57620823e-003 3.71747208e-003
      3.71747208e-003 1.11524165e-002 1.85873604e-003 5.57620823e-003
      5.57620823e-003 1.85873604e-003 7.43494416e-003 7.43494416e-003
      3.71747208e-003 0. 9.29368008e-003 5.57620823e-003 9.29368008e-003
      3.71747208e-003 1.11524165e-002 3.71747208e-003 7.43494416e-003
      1.11524165e-002 1.11524165e-002 7.43494416e-003 1.85873604e-003
      1.85873604e-003 1.30111519e-002 1.85873604e-003 3.71747208e-003
      3.71747208e-003 1.11524165e-002 3.71747208e-003 7.43494416e-003
      1.48698883e-002 1.85873604e-003 3.71747208e-003 1.85873604e-003
      2.23048329e-002 1.85873604e-003 0. 1.11524165e-002 1.85873604e-003
      9.29368008e-003 7.43494416e-003 1.48698883e-002 7.43494416e-003
      2.04460956e-002 0. 1.85873604e-003 1.11524165e-002 1.11524165e-002
      1.30111519e-002 1.85873604e-003 7.43494416e-003 5.57620823e-003
      1.85873602e-002 5.57620823e-003 7.43494416e-003 1.11524165e-002
      5.57620823e-003 1.85873604e-003 1.85873604e-003 1.85873604e-003
      3.71747208e-003 3.71747208e-003 5.57620823e-003 9.29368008e-003
      7.43494416e-003 1.85873604e-003 3.71747208e-003 7.43494416e-003
      5.57620823e-003 3.71747208e-003 5.57620823e-003 1.30111519e-002
      3.71747208e-003 1.85873604e-003 7.43494416e-003 0. 7.43494416e-003
      1.85873604e-003 7.43494416e-003 9.29368008e-003 1.67286247e-002
      3.71747208e-003 1.85873604e-003 3.71747208e-003 0. 0.
      7.43494416e-003 3.71747208e-003 5.57620823e-003 9.29368008e-003
      3.71747208e-003 1.11524165e-002 1.11524165e-002 5.57620823e-003
      3.71747208e-003 5.57620823e-003 9.29368008e-003 7.43494416e-003
      1.11524165e-002 9.29368008e-003 7.43494416e-003 1.30111519e-002
      3.71747208e-003 1.11524165e-002 1.85873604e-003 3.71747208e-003
      1.30111519e-002 9.29368008e-003 1.85873604e-003 0. 7.43494416e-003
      3.71747208e-003</_>
    <_>
      7.13012461e-003 8.91265552e-003 1.24777183e-002 1.78253115e-003
      8.91265552e-003 1.78253115e-003 8.91265552e-003 8.91265552e-003
      2.85204984e-002 2.13903747e-002 8.91265552e-003 5.34759369e-003
      5.34759369e-003 1.78253115e-003 1.96078420e-002 3.56506230e-003
      1.24777183e-002 3.56506230e-003 7.13012461e-003 1.06951874e-002
      5.34759369e-003 3.56506230e-003 3.56506230e-003 5.34759369e-003
      3.56506230e-003 8.91265552e-003 5.34759369e-003 7.13012461e-003
      8.91265552e-003 8.91265552e-003 7.13012461e-003 0. 3.56506230e-003
      1.06951874e-002 1.78253110e-002 1.78253110e-002 0. 1.78253115e-003
      5.34759369e-003 8.91265552e-003 3.56506230e-003 3.56506230e-003
      5.34759369e-003 7.13012461e-003 5.34759369e-003 3.56506230e-003
      1.78253115e-003 8.91265552e-003 1.06951874e-002 5.34759369e-003
      1.78253115e-003 8.91265552e-003 1.78253115e-003 3.56506230e-003
      8.91265552e-003 1.06951874e-002 1.60427801e-002 3.56506230e-003
      1.24777183e-002 7.13012461e-003 7.13012461e-003 3.56506230e-003
      1.78253115e-003 0. 1.60427801e-002 7.13012461e-003 3.56506230e-003
      1.06951874e-002 5.34759369e-003 0. 8.91265552e-003 1.06951874e-002
      1.78253115e-003 7.13012461e-003 1.78253115e-003 1.78253115e-003
      1.78253115e-003 7.13012461e-003 1.42602492e-002 1.24777183e-002
      1.24777183e-002 7.13012461e-003 5.34759369e-003 1.06951874e-002
      5.34759369e-003 1.24777183e-002 1.24777183e-002 7.13012461e-003
      1.06951874e-002 5.34759369e-003 8.91265552e-003 3.56506230e-003
      1.78253115e-003 0. 7.13012461e-003 7.13012461e-003 8.91265552e-003
      3.56506230e-003 0. 0. 5.34759369e-003 0. 1.06951874e-002
      1.24777183e-002 1.06951874e-002 3.56506230e-003 0. 0.
      5.34759369e-003 2.49554366e-002 3.56506230e-003 7.13012461e-003
      3.56506230e-003 1.78253115e-003 3.56506230e-003 1.78253115e-003
      1.24777183e-002 8.91265552e-003 3.56506230e-003 3.56506230e-003
      1.06951874e-002 8.91265552e-003 3.56506230e-003 8.91265552e-003
      8.91265552e-003 5.34759369e-003 3.56506230e-003 3.56506230e-003
      7.13012461e-003 3.56506230e-003 1.42602492e-002 1.78253115e-003 0.
      3.56506230e-003 1.78253115e-003 0. 1.78253115e-003 1.06951874e-002
      5.34759369e-003 1.78253115e-003 7.13012461e-003 1.78253115e-003
      8.91265552e-003 8.91265552e-003 8.91265552e-003 1.06951874e-002
      5.34759369e-003 3.56506230e-003 1.78253115e-003 1.06951874e-002</_>
    <_>
      1.06100794e-002 2.65251985e-003 5.30503970e-003 5.30503970e-003 0.
      2.65251985e-003 2.65251985e-003 7.95755908e-003 1.06100794e-002
      5.30503970e-003 7.95755908e-003 7.95755908e-003 5.30503970e-003
      5.30503970e-003 1.06100794e-002 0. 7.95755908e-003 2.65251985e-003
      2.65251985e-003 5.30503970e-003 0. 7.95755908e-003 5.30503970e-003
      5.30503970e-003 5.30503970e-003 7.95755908e-003 7.95755908e-003
      7.95755908e-003 5.30503970e-003 7.95755908e-003 7.95755908e-003
      1.06100794e-002 0. 1.32625997e-002 7.95755908e-003 1.59151182e-002
      7.95755908e-003 5.30503970e-003 2.65251985e-003 5.30503970e-003
      7.95755908e-003 2.65251985e-003 2.65251985e-003 7.95755908e-003
      7.95755908e-003 0. 7.95755908e-003 1.32625997e-002 2.65251985e-003
      1.32625997e-002 0. 7.95755908e-003 1.06100794e-002 0. 0.
      5.30503970e-003 5.30503970e-003 1.06100794e-002 1.32625997e-002
      2.65251985e-003 2.65251985e-003 2.65251985e-003 2.65251985e-003
      5.30503970e-003 7.95755908e-003 0. 2.65251985e-003 7.95755908e-003
      7.95755908e-003 7.95755908e-003 1.85676385e-002 1.06100794e-002
      2.65251985e-003 5.30503970e-003 0. 1.06100794e-002 0.
      5.30503970e-003 1.32625997e-002 7.95755908e-003 5.30503970e-003
      1.32625997e-002 7.95755908e-003 2.38726791e-002 1.59151182e-002
      1.32625997e-002 2.12201588e-002 5.30503970e-003 7.95755908e-003
      7.95755908e-003 7.95755908e-003 2.65251985e-003 7.95755908e-003 0.
      1.06100794e-002 1.32625997e-002 7.95755908e-003 7.95755908e-003 0.
      2.65251985e-003 5.30503970e-003 5.30503970e-003 7.95755908e-003
      1.32625997e-002 5.30503970e-003 1.06100794e-002 1.06100794e-002 0.
      0. 1.32625997e-002 0. 2.65251985e-003 0. 7.95755908e-003
      2.38726791e-002 5.30503970e-003 2.65251985e-003 7.95755908e-003
      2.65251985e-003 5.30503970e-003 7.95755908e-003 7.95755908e-003
      7.95755908e-003 1.06100794e-002 0. 1.06100794e-002 0.
      1.06100794e-002 1.32625997e-002 2.65251985e-003 1.32625997e-002
      2.65251985e-003 0. 7.95755908e-003 2.38726791e-002 0.
      5.30503970e-003 7.95755908e-003 5.30503970e-003 1.06100794e-002
      2.65251985e-003 2.65251985e-003 2.65251985e-003 7.95755908e-003
      1.32625997e-002 2.65251985e-003 2.65251985e-003 2.65251985e-003
      7.95755908e-003 2.65251985e-003</_>
    <_>
      5.26315812e-003 5.26315812e-003 1.05263162e-002 0. 2.63157906e-003
      0. 5.26315812e-003 8.15789476e-002 0. 2.63157897e-002
      2.63157906e-003 0. 1.05263162e-002 7.89473765e-003 7.89473765e-003
      2.63157906e-003 0. 7.89473765e-003 2.63157906e-003 1.57894753e-002
      7.89473765e-003 2.63157906e-003 0. 2.63157906e-003 5.26315812e-003
      1.31578948e-002 2.63157906e-003 1.84210539e-002 2.63157906e-003
      7.89473765e-003 1.05263162e-002 5.26315812e-003 0. 2.63157906e-003
      2.63157906e-003 5.26315812e-003 7.89473765e-003 2.63157906e-003 0.
      5.26315812e-003 1.57894753e-002 2.63157906e-003 2.63157906e-003
      7.89473765e-003 0. 2.63157906e-003 2.63157906e-003 7.89473765e-003
      2.63157906e-003 5.26315812e-003 5.26315812e-003 0. 0.
      2.63157906e-003 2.63157906e-003 1.05263162e-002 0. 2.63157906e-003
      0. 2.63157906e-003 1.05263162e-002 2.63157906e-003 7.89473765e-003
      1.05263162e-002 5.26315812e-003 2.36842111e-002 0. 0.
      3.68421078e-002 7.89473765e-003 5.26315812e-003 0. 2.63157906e-003
      0. 0. 4.21052650e-002 2.63157906e-003 0. 1.57894753e-002
      2.63157906e-003 7.89473765e-003 5.26315812e-003 0. 2.63157906e-003
      2.10526325e-002 7.89473765e-003 0. 5.26315812e-003 1.05263162e-002
      5.26315812e-003 1.31578948e-002 7.89473765e-003 2.63157906e-003
      2.63157906e-003 2.63157906e-003 1.05263162e-002 0. 0.
      7.89473765e-003 7.89473765e-003 0. 2.63157906e-003 7.89473765e-003
      1.05263162e-002 0. 5.26315812e-003 7.89473765e-003 7.89473765e-003
      7.89473765e-003 2.89473701e-002 0. 2.63157906e-003 2.63157906e-003
      0. 3.42105292e-002 2.63157906e-003 7.89473765e-003 3.42105292e-002
      1.05263162e-002 0. 1.31578948e-002 2.63157906e-003 7.89473765e-003
      5.26315812e-003 2.63157906e-003 0. 5.26315812e-003 5.26315812e-003
      2.63157906e-003 2.63157906e-003 7.89473765e-003 7.89473765e-003
      1.57894753e-002 0. 0. 7.89473765e-003 2.63157906e-003
      2.63157906e-003 0. 2.36842111e-002 7.89473765e-003 2.63157906e-003
      5.26315812e-003 0. 2.63157906e-003 2.63157906e-003 1.05263162e-002
      2.63157906e-003 0. 2.63157906e-003</_>
    <_>
      1.02301789e-002 1.02301789e-002 7.67263398e-003 7.67263398e-003
      2.55754474e-003 2.55754474e-003 1.02301789e-002 1.53452680e-002
      2.55754474e-003 2.55754474e-003 5.11508947e-003 0. 5.11508947e-003
      0. 1.02301789e-002 0. 1.02301789e-002 5.11508947e-003
      2.55754474e-003 7.67263398e-003 5.11508947e-003 1.79028139e-002
      2.55754474e-003 0. 5.11508947e-003 1.02301789e-002 1.02301789e-002
      1.02301789e-002 2.55754474e-003 5.11508947e-003 1.02301789e-002
      1.27877239e-002 7.67263398e-003 7.67263398e-003 7.67263398e-003
      1.02301789e-002 7.67263398e-003 1.27877239e-002 1.02301789e-002
      5.11508947e-003 7.67263398e-003 0. 5.11508947e-003 7.67263398e-003
      2.55754474e-003 5.11508947e-003 7.67263398e-003 2.55754474e-003 0.
      7.67263398e-003 7.67263398e-003 7.67263398e-003 2.55754474e-003
      2.55754478e-002 5.11508947e-003 5.11508947e-003 5.11508947e-003
      7.67263398e-003 1.02301789e-002 5.11508947e-003 2.55754474e-003
      2.55754474e-003 2.55754474e-003 1.27877239e-002 5.11508947e-003
      1.02301789e-002 2.55754474e-003 5.11508947e-003 5.11508947e-003
      2.04603579e-002 2.55754474e-003 5.11508947e-003 1.53452680e-002
      7.67263398e-003 0. 1.79028139e-002 5.11508947e-003 0.
      1.02301789e-002 7.67263398e-003 7.67263398e-003 5.11508947e-003
      5.11508947e-003 2.55754474e-003 1.02301789e-002 1.27877239e-002
      5.11508947e-003 2.55754474e-003 5.11508947e-003 7.67263398e-003
      2.81329919e-002 2.55754474e-003 5.11508947e-003 1.27877239e-002 0.
      2.55754474e-003 0. 2.55754474e-003 5.11508947e-003 1.02301789e-002
      1.53452680e-002 2.55754474e-003 0. 0. 5.11508947e-003
      7.67263398e-003 1.02301789e-002 0. 7.67263398e-003 5.11508947e-003
      7.67263398e-003 7.67263398e-003 1.27877239e-002 5.11508947e-003
      5.11508947e-003 2.55754474e-003 5.11508947e-003 7.67263398e-003
      1.79028139e-002 0. 7.67263398e-003 2.55754474e-003 7.67263398e-003
      1.02301789e-002 2.55754474e-003 2.55754474e-003 5.11508947e-003
      2.55754474e-003 1.53452680e-002 7.67263398e-003 1.27877239e-002
      2.30179019e-002 5.11508947e-003 5.11508947e-003 5.11508947e-003
      5.11508947e-003 1.02301789e-002 0. 2.55754474e-003 7.67263398e-003
      2.55754474e-003 1.27877239e-002 5.11508947e-003 2.55754474e-003
      1.27877239e-002 7.67263398e-003 0. 5.11508947e-003 5.11508947e-003
      0.</_>
    <_>
      3.30033014e-003 3.30033014e-003 1.32013205e-002 3.30033014e-003
      1.98019817e-002 0. 0. 2.31023114e-002 0. 1.98019817e-002 0. 0. 0.
      6.60066027e-003 6.60066027e-003 9.90099087e-003 3.30033014e-003
      3.30033014e-003 1.98019817e-002 9.90099087e-003 1.65016502e-002
      3.30033014e-003 9.90099087e-003 6.60066027e-003 3.30033014e-003
      3.30033014e-003 3.30033014e-003 1.65016502e-002 0. 3.30033014e-003
      1.65016502e-002 6.60066027e-003 3.30033014e-003 0. 3.30033014e-003
      6.60066027e-003 0. 9.90099087e-003 0. 3.30033014e-003
      1.32013205e-002 9.90099087e-003 0. 3.30033014e-003 0.
      6.60066027e-003 0. 9.90099087e-003 3.30033014e-003 3.30033014e-003
      3.30033014e-003 0. 9.90099087e-003 6.60066027e-003 3.30033014e-003
      3.30033014e-003 0. 6.60066027e-003 0. 3.30033014e-003
      9.90099087e-003 0. 6.60066027e-003 1.98019817e-002 1.65016502e-002
      6.60066027e-003 9.90099087e-003 3.30033014e-003 9.90099087e-003
      1.32013205e-002 3.30033014e-003 0. 3.30033014e-003 3.30033014e-003
      0. 3.63036320e-002 0. 3.30033014e-003 9.90099087e-003
      6.60066027e-003 6.60066027e-003 0. 9.90099087e-003 6.60066027e-003
      1.65016502e-002 3.30033014e-003 3.30033014e-003 6.60066027e-003
      3.30033014e-003 9.90099087e-003 6.60066027e-003 6.60066027e-003
      3.30033014e-003 0. 3.30033014e-003 6.60066027e-003 6.60066027e-003
      9.90099087e-003 3.30033014e-003 9.90099087e-003 3.30033014e-003
      9.90099087e-003 6.60066027e-003 6.60066027e-003 6.60066027e-003
      6.60066027e-003 0. 6.60066027e-003 1.98019817e-002 6.60066027e-003
      3.30033014e-003 2.31023114e-002 3.30033014e-003 0. 2.97029708e-002
      0. 6.60066027e-003 1.32013205e-002 6.60066027e-003 6.60066027e-003
      1.32013205e-002 0. 6.60066027e-003 3.30033014e-003 1.32013205e-002
      3.30033014e-003 3.30033014e-003 6.60066027e-003 9.90099087e-003 0.
      9.90099087e-003 3.30033014e-003 6.60066027e-003 0. 6.60066027e-003
      6.60066027e-003 0. 0. 1.65016502e-002 0. 0. 1.65016502e-002
      2.31023114e-002 9.90099087e-003 1.98019817e-002 0. 3.30033014e-003
      3.30033014e-003 6.60066027e-003 1.32013205e-002</_>
    <_>
      6.00240100e-003 6.00240100e-003 4.80192062e-003 2.40096031e-003
      4.80192062e-003 1.44057618e-002 7.20288092e-003 7.20288092e-003
      8.40336084e-003 6.00240100e-003 8.40336084e-003 4.80192062e-003
      9.60384123e-003 7.20288092e-003 3.60144046e-003 4.80192062e-003
      7.20288092e-003 1.20048015e-003 3.60144046e-003 7.20288092e-003
      8.40336084e-003 6.00240100e-003 6.00240100e-003 6.00240100e-003
      6.00240100e-003 8.40336084e-003 3.60144046e-003 4.80192062e-003
      3.60144046e-003 6.00240100e-003 1.08043216e-002 3.60144046e-003
      1.20048015e-003 3.60144046e-003 2.40096031e-003 4.80192062e-003
      1.44057618e-002 1.32052815e-002 3.60144046e-003 8.40336084e-003
      1.20048020e-002 7.20288092e-003 6.00240100e-003 6.00240100e-003
      6.00240100e-003 1.20048015e-003 1.32052815e-002 1.44057618e-002
      4.80192062e-003 2.40096031e-003 4.80192062e-003 6.00240100e-003
      6.00240100e-003 4.80192062e-003 3.60144046e-003 4.80192062e-003
      6.00240100e-003 7.20288092e-003 7.20288092e-003 8.40336084e-003
      2.40096031e-003 3.60144046e-003 4.80192062e-003 7.20288092e-003
      7.20288092e-003 8.40336084e-003 1.20048020e-002 8.40336084e-003
      1.08043216e-002 6.00240100e-003 6.00240100e-003 9.60384123e-003
      4.80192062e-003 1.20048015e-003 9.60384123e-003 3.60144046e-003
      7.20288092e-003 1.20048015e-003 1.20048020e-002 3.60144046e-003
      8.40336084e-003 8.40336084e-003 1.32052815e-002 2.40096031e-003
      1.08043216e-002 1.32052815e-002 7.20288092e-003 1.20048020e-002
      7.20288092e-003 6.00240100e-003 9.60384123e-003 7.20288092e-003
      8.40336084e-003 2.40096031e-003 6.00240100e-003 8.40336084e-003
      3.60144046e-003 1.44057618e-002 9.60384123e-003 3.60144046e-003
      4.80192062e-003 4.80192062e-003 1.08043216e-002 4.80192062e-003
      4.80192062e-003 7.20288092e-003 1.68067217e-002 2.40096031e-003
      2.40096031e-003 4.80192062e-003 7.20288092e-003 1.44057618e-002
      3.60144046e-003 6.00240100e-003 1.08043216e-002 6.00240100e-003
      4.80192062e-003 6.00240100e-003 7.20288092e-003 4.80192062e-003
      3.60144046e-003 6.00240100e-003 1.20048015e-003 4.80192062e-003
      7.20288092e-003 8.40336084e-003 2.40096031e-003 6.00240100e-003
      8.40336084e-003 1.08043216e-002 7.20288092e-003 8.40336084e-003
      1.20048015e-003 7.20288092e-003 1.08043216e-002 0. 7.20288092e-003
      9.60384123e-003 6.00240100e-003 9.60384123e-003 3.60144046e-003
      2.40096031e-003 7.20288092e-003 9.60384123e-003 6.00240100e-003
      2.40096031e-003 7.20288092e-003 6.00240100e-003 7.20288092e-003
      1.44057618e-002</_>
    <_>
      3.04414006e-003 1.52207003e-003 3.04414006e-003 1.21765602e-002 0.
      1.21765602e-002 7.61034992e-003 2.73972601e-002 0. 1.52207003e-003
      0. 3.04414006e-003 1.06544904e-002 4.56621032e-003 0.
      1.21765602e-002 1.06544904e-002 1.21765602e-002 0. 6.08828012e-003
      1.36986300e-002 3.04414006e-003 6.08828012e-003 4.56621032e-003
      9.13242064e-003 6.08828012e-003 7.61034992e-003 6.08828012e-003 0.
      2.58751903e-002 7.61034992e-003 9.13242064e-003 0. 3.04414006e-003
      7.61034992e-003 4.56621032e-003 6.08828012e-003 9.13242064e-003
      6.08828012e-003 6.08828012e-003 1.36986300e-002 7.61034992e-003
      1.52207003e-003 2.73972601e-002 1.36986300e-002 4.56621032e-003
      1.67427696e-002 6.08828012e-003 3.04414006e-003 2.43531205e-002
      4.56621032e-003 6.08828012e-003 4.56621032e-003 1.06544904e-002
      9.13242064e-003 7.61034992e-003 4.56621032e-003 6.08828012e-003
      1.52207003e-003 7.61034992e-003 4.56621032e-003 4.56621032e-003 0.
      9.13242064e-003 1.52207003e-003 9.13242064e-003 7.61034992e-003
      7.61034992e-003 1.67427696e-002 3.04413997e-002 3.04414006e-003
      7.61034992e-003 1.52207003e-003 1.52207003e-003 7.61034992e-003
      9.13242064e-003 4.56621032e-003 3.04414006e-003 4.56621032e-003 0.
      0. 3.04414006e-003 3.04414006e-003 0. 6.08828012e-003
      1.21765602e-002 6.08828012e-003 9.13242064e-003 4.56621032e-003 0.
      9.13242064e-003 6.08828012e-003 1.52207003e-003 9.13242064e-003
      1.52207003e-003 9.13242064e-003 4.56621032e-003 1.52207003e-003
      1.36986300e-002 2.58751903e-002 4.56621032e-003 9.13242064e-003
      1.52207003e-003 6.08828012e-003 4.56621032e-003 0. 1.36986300e-002
      6.08828012e-003 7.61034992e-003 1.52207003e-003 6.08828012e-003
      1.67427696e-002 7.61034992e-003 3.04414006e-003 1.06544904e-002
      3.04414006e-003 4.56621032e-003 1.82648413e-002 3.04414006e-003
      3.04414006e-003 6.08828012e-003 1.52207003e-003 7.61034992e-003
      3.04414006e-003 1.06544904e-002 4.56621032e-003 0. 1.52207003e-003
      9.13242064e-003 1.52207003e-003 3.04414006e-003 9.13242064e-003
      1.82648413e-002 3.04414006e-003 7.61034992e-003 6.08828012e-003
      1.52207003e-003 3.04414006e-003 4.56621032e-003 6.08828012e-003
      3.04414006e-003 1.06544904e-002 3.04414006e-003 4.56621032e-003
      6.08828012e-003 4.56621032e-003 3.04414006e-003 4.56621032e-003
      4.56621032e-003 6.08828012e-003</_>
    <_>
      6.67779613e-003 1.66944903e-003 1.00166947e-002 5.00834733e-003
      3.33889807e-003 1.66944903e-003 6.67779613e-003 2.00333893e-002
      1.66944903e-003 8.34724493e-003 5.00834733e-003 3.33889807e-003
      8.34724493e-003 1.66944903e-003 1.66944903e-003 6.67779613e-003 0.
      8.34724493e-003 5.00834733e-003 1.00166947e-002 6.67779613e-003
      5.00834733e-003 1.00166947e-002 1.66944903e-003 5.00834733e-003
      1.00166947e-002 3.33889807e-003 2.67111845e-002 1.66944903e-003
      3.33889807e-003 1.33555923e-002 6.67779613e-003 3.33889807e-003
      5.00834733e-003 6.67779613e-003 1.16861435e-002 5.00834733e-003
      1.00166947e-002 3.33889807e-003 1.66944903e-003 3.33889807e-003
      3.33889807e-003 3.33889807e-003 1.83639396e-002 1.16861435e-002
      3.33889807e-003 6.67779613e-003 8.34724493e-003 8.34724493e-003
      8.34724493e-003 3.33889807e-003 3.33889807e-003 5.00834733e-003
      3.33889807e-003 1.00166947e-002 1.16861435e-002 6.67779613e-003
      3.33889807e-003 5.00834733e-003 1.16861435e-002 6.67779613e-003
      5.00834733e-003 1.66944903e-003 5.00834733e-003 0. 3.33889807e-003
      3.33889807e-003 8.34724493e-003 1.50250411e-002 6.67779613e-003
      3.33889807e-003 6.67779613e-003 6.67779613e-003 1.66944903e-003
      6.67779613e-003 1.16861435e-002 6.67779613e-003 1.66944903e-003
      2.17028372e-002 6.67779613e-003 1.66944903e-003 1.00166947e-002
      1.33555923e-002 5.00834733e-003 1.33555923e-002 6.67779613e-003
      6.67779613e-003 6.67779613e-003 1.16861435e-002 1.33555923e-002
      1.66944899e-002 5.00834733e-003 0. 1.66944903e-003 1.66944903e-003
      2.00333893e-002 5.00834733e-003 1.66944903e-003 1.00166947e-002
      1.66944903e-003 6.67779613e-003 1.00166947e-002 1.00166947e-002
      6.67779613e-003 3.33889807e-003 8.34724493e-003 1.16861435e-002
      1.66944903e-003 3.33889807e-003 0. 1.66944903e-003 6.67779613e-003
      8.34724493e-003 6.67779613e-003 1.50250411e-002 3.33889807e-003
      6.67779613e-003 4.00667787e-002 3.33889807e-003 0. 6.67779613e-003
      6.67779613e-003 5.00834733e-003 5.00834733e-003 5.00834733e-003
      1.50250411e-002 0. 1.16861435e-002 6.67779613e-003 3.33889807e-003
      3.33889807e-003 0. 3.33889807e-003 1.33555923e-002 1.16861435e-002
      0. 1.33555923e-002 5.00834733e-003 5.00834733e-003 1.33555923e-002
      6.67779613e-003 0. 5.00834733e-003 5.00834733e-003 1.00166947e-002
      1.66944903e-003 1.66944903e-003 0. 6.67779613e-003 1.66944903e-003</_>
    <_>
      1.08514186e-002 1.66944903e-003 3.33889807e-003 1.66944903e-003
      4.17362247e-003 7.51252053e-003 5.00834733e-003 5.00834733e-003
      5.00834733e-003 8.34724493e-003 2.50417367e-003 5.00834733e-003
      1.08514186e-002 1.50250411e-002 7.51252053e-003 5.00834733e-003
      6.67779613e-003 1.08514186e-002 8.34724493e-003 5.00834733e-003
      1.25208674e-002 8.34724493e-003 9.18196980e-003 4.17362247e-003
      3.33889807e-003 1.16861435e-002 5.00834733e-003 9.18196980e-003
      3.33889807e-003 2.50417367e-003 9.18196980e-003 9.18196980e-003
      5.00834733e-003 8.34724493e-003 8.34724493e-003 1.00166947e-002
      1.25208674e-002 1.00166947e-002 4.17362247e-003 5.00834733e-003
      8.34724493e-003 6.67779613e-003 4.17362247e-003 5.84307173e-003
      5.00834733e-003 2.50417367e-003 9.18196980e-003 1.25208674e-002
      4.17362247e-003 9.18196980e-003 9.18196980e-003 6.67779613e-003
      5.00834733e-003 1.00166947e-002 5.84307173e-003 5.84307173e-003
      6.67779613e-003 5.00834733e-003 6.67779613e-003 6.67779613e-003
      5.00834733e-003 7.51252053e-003 6.67779613e-003 7.51252053e-003
      9.18196980e-003 3.33889807e-003 7.51252053e-003 1.41903171e-002
      5.84307173e-003 5.84307173e-003 9.18196980e-003 9.18196980e-003
      1.00166947e-002 2.50417367e-003 5.00834733e-003 6.67779613e-003
      2.50417367e-003 8.34724517e-004 1.00166947e-002 8.34724493e-003
      6.67779613e-003 5.00834733e-003 1.41903171e-002 5.00834733e-003
      1.16861435e-002 8.34724493e-003 7.51252053e-003 5.84307173e-003
      1.00166947e-002 8.34724493e-003 8.34724493e-003 5.00834733e-003
      9.18196980e-003 2.50417367e-003 1.08514186e-002 5.00834733e-003
      8.34724493e-003 4.17362247e-003 1.08514186e-002 1.00166947e-002
      5.00834733e-003 3.33889807e-003 1.00166947e-002 7.51252053e-003
      4.17362247e-003 1.66944903e-003 5.00834733e-003 2.50417367e-003
      1.66944903e-003 3.33889807e-003 5.00834733e-003 1.08514186e-002
      4.17362247e-003 5.84307173e-003 4.17362247e-003 8.34724517e-004
      8.34724493e-003 1.08514186e-002 7.51252053e-003 8.34724517e-004
      5.00834733e-003 5.00834733e-003 5.00834733e-003 6.67779613e-003
      5.84307173e-003 8.34724493e-003 1.66944903e-003 5.00834733e-003
      1.00166947e-002 7.51252053e-003 7.51252053e-003 2.50417367e-003
      4.17362247e-003 6.67779613e-003 8.34724493e-003 1.00166947e-002
      1.00166947e-002 4.17362247e-003 3.33889807e-003 1.08514186e-002
      7.51252053e-003 7.51252053e-003 3.33889807e-003 3.33889807e-003
      5.00834733e-003 8.34724493e-003 9.18196980e-003 1.08514186e-002
      3.33889807e-003 1.66944903e-003</_>
    <_>
      0. 0. 1.74418613e-002 0. 0. 5.81395347e-003 0. 1.16279069e-002 0.
      2.32558139e-002 0. 5.81395347e-003 1.74418613e-002 1.16279069e-002
      0. 0. 1.74418613e-002 5.81395347e-003 0. 5.81395347e-003 0.
      5.81395347e-003 1.16279069e-002 0. 1.16279069e-002 2.32558139e-002
      5.81395347e-003 1.16279069e-002 0. 0. 5.81395347e-003
      1.16279069e-002 5.81395347e-003 0. 0. 0. 5.81395347e-003
      5.81395347e-003 1.16279069e-002 5.81395347e-003 1.16279069e-002 0.
      0. 1.16279069e-002 1.74418613e-002 0. 1.74418613e-002
      5.81395347e-003 1.16279069e-002 0. 1.74418613e-002 0.
      5.81395347e-003 5.81395347e-003 0. 1.16279069e-002 0. 0.
      5.81395347e-003 1.16279069e-002 5.81395347e-003 5.81395347e-003 0.
      3.48837227e-002 0. 5.81395347e-003 0. 0. 0. 0. 1.74418613e-002 0.
      2.90697664e-002 0. 1.16279069e-002 1.16279069e-002 5.81395347e-003
      5.81395347e-003 1.74418613e-002 2.32558139e-002 5.81395347e-003
      5.81395347e-003 5.81395347e-003 0. 1.16279069e-002 1.16279069e-002
      0. 1.16279069e-002 0. 1.16279069e-002 0. 1.16279069e-002
      5.81395347e-003 5.81395347e-003 0. 1.16279069e-002 0. 0.
      1.16279069e-002 1.74418613e-002 5.81395347e-003 1.16279069e-002
      5.81395347e-003 1.16279069e-002 0. 2.32558139e-002 0. 0. 0. 0.
      5.81395347e-003 0. 1.74418613e-002 5.81395347e-003 1.74418613e-002
      0. 1.16279069e-002 2.32558139e-002 5.81395347e-003 5.81395347e-003
      0. 0. 5.81395347e-003 5.81395347e-003 5.81395347e-003
      1.74418613e-002 5.81395347e-003 0. 0. 0. 1.74418613e-002 0. 0. 0.
      1.16279069e-002 0. 5.81395347e-003 0. 1.16279069e-002
      2.32558139e-002 0. 0. 5.81395347e-003 5.81395347e-003
      5.81395347e-003 0. 5.81395347e-003 0. 1.74418613e-002
      1.74418613e-002</_>
    <_>
      1.03950109e-002 1.03950109e-002 4.15800419e-003 2.07900209e-003 0.
      2.07900209e-003 1.03950109e-002 6.23700628e-003 4.15800419e-003
      8.31600837e-003 8.31600837e-003 4.15800419e-003 6.23700628e-003 0.
      8.31600837e-003 8.31600837e-003 6.23700628e-003 8.31600837e-003
      6.23700628e-003 2.07900209e-003 1.45530142e-002 6.23700628e-003
      6.23700628e-003 2.07900209e-003 8.31600837e-003 8.31600837e-003
      2.07900209e-003 2.07900209e-003 1.03950109e-002 6.23700628e-003
      1.87110193e-002 0. 2.07900209e-003 1.24740126e-002 6.23700628e-003
      1.87110193e-002 2.07900209e-003 2.07900209e-003 6.23700628e-003
      6.23700628e-003 2.07900209e-003 4.15800419e-003 2.07900209e-003
      6.23700628e-003 0. 4.15800419e-003 4.15800419e-003 8.31600837e-003
      6.23700628e-003 4.15800419e-003 6.23700628e-003 1.24740126e-002
      1.24740126e-002 1.24740126e-002 0. 6.23700628e-003 1.03950109e-002
      1.24740126e-002 8.31600837e-003 0. 8.31600837e-003 6.23700628e-003
      6.23700628e-003 4.15800419e-003 1.45530142e-002 0. 1.45530142e-002
      6.23700628e-003 1.45530142e-002 6.23700628e-003 6.23700628e-003
      1.24740126e-002 1.03950109e-002 6.23700628e-003 2.07900209e-003
      6.23700628e-003 8.31600837e-003 2.07900209e-003 6.23700628e-003
      6.23700628e-003 4.15800419e-003 4.15800419e-003 2.07900209e-003
      6.23700628e-003 1.03950109e-002 2.07900209e-003 1.24740126e-002
      4.15800419e-003 1.03950109e-002 2.07900209e-003 8.31600837e-003
      6.23700628e-003 0. 1.24740126e-002 4.15800419e-003 6.23700628e-003
      2.07900219e-002 4.15800419e-003 2.07900209e-003 2.07900219e-002
      8.31600837e-003 6.23700628e-003 6.23700628e-003 6.23700628e-003
      1.24740126e-002 8.31600837e-003 0. 2.07900209e-003 8.31600837e-003
      4.15800419e-003 8.31600837e-003 1.03950109e-002 6.23700628e-003
      2.07900209e-003 8.31600837e-003 2.07900209e-003 2.07900209e-003
      2.07900209e-003 0. 6.23700628e-003 0. 4.15800419e-003
      8.31600837e-003 1.45530142e-002 8.31600837e-003 8.31600837e-003
      2.07900209e-003 2.07900209e-003 1.03950109e-002 8.31600837e-003
      1.03950109e-002 8.31600837e-003 1.03950109e-002 8.31600837e-003
      1.03950109e-002 4.15800419e-003 1.87110193e-002 4.15800419e-003
      4.15800419e-003 1.03950109e-002 8.31600837e-003 4.15800419e-003
      2.07900209e-003 1.66320167e-002 4.15800419e-003 4.15800419e-003
      4.15800419e-003 4.15800419e-003 1.03950109e-002 4.15800419e-003</_>
    <_>
      7.67263444e-003 9.37766396e-003 5.96760446e-003 3.41005973e-003
      3.41005973e-003 1.10826939e-002 6.82011945e-003 8.52514897e-003
      1.19352089e-002 4.26257448e-003 9.37766396e-003 5.11508947e-003
      8.52514897e-003 8.52514897e-003 4.26257448e-003 4.26257448e-003
      8.52514897e-003 1.10826939e-002 3.41005973e-003 5.11508947e-003
      9.37766396e-003 3.41005973e-003 5.96760446e-003 5.96760446e-003
      4.26257448e-003 9.37766396e-003 5.96760446e-003 5.96760446e-003
      8.52514931e-004 3.41005973e-003 1.02301789e-002 5.96760446e-003
      2.55754474e-003 9.37766396e-003 5.11508947e-003 9.37766396e-003
      6.82011945e-003 1.19352089e-002 8.52514897e-003 9.37766396e-003
      5.11508947e-003 1.19352089e-002 1.02301789e-002 5.96760446e-003
      7.67263444e-003 1.70502986e-003 5.96760446e-003 3.41005973e-003
      5.96760446e-003 6.82011945e-003 2.55754474e-003 1.02301789e-002
      3.41005973e-003 1.02301789e-002 3.41005973e-003 2.55754474e-003
      5.96760446e-003 8.52514897e-003 1.10826939e-002 3.41005973e-003
      8.52514897e-003 3.41005973e-003 5.11508947e-003 4.26257448e-003
      6.82011945e-003 8.52514931e-004 2.55754474e-003 6.82011945e-003
      9.37766396e-003 5.96760446e-003 4.26257448e-003 9.37766396e-003
      8.52514897e-003 9.37766396e-003 4.26257448e-003 1.79028139e-002
      2.55754474e-003 9.37766396e-003 9.37766396e-003 9.37766396e-003
      8.52514897e-003 5.96760446e-003 6.82011945e-003 7.67263444e-003
      1.10826939e-002 8.52514897e-003 5.11508947e-003 7.67263444e-003
      1.70502986e-003 5.96760446e-003 9.37766396e-003 8.52514897e-003
      3.41005973e-003 3.41005973e-003 7.67263444e-003 6.82011945e-003
      6.82011945e-003 4.26257448e-003 3.41005973e-003 4.26257448e-003
      9.37766396e-003 5.11508947e-003 6.82011945e-003 5.96760446e-003
      7.67263444e-003 5.11508947e-003 1.19352089e-002 3.41005973e-003
      3.41005973e-003 9.37766396e-003 5.11508947e-003 6.82011945e-003
      5.96760446e-003 8.52514897e-003 6.82011945e-003 3.41005973e-003
      5.11508947e-003 1.19352089e-002 3.41005973e-003 7.67263444e-003
      8.52514897e-003 7.67263444e-003 5.11508947e-003 1.02301789e-002
      5.96760446e-003 5.96760446e-003 8.52514931e-004 3.41005973e-003
      8.52514897e-003 9.37766396e-003 3.41005973e-003 4.26257448e-003
      8.52514897e-003 4.26257448e-003 9.37766396e-003 9.37766396e-003
      9.37766396e-003 4.26257448e-003 8.52514897e-003 7.67263444e-003
      3.41005973e-003 4.26257448e-003 7.67263444e-003 9.37766396e-003
      9.37766396e-003 5.96760446e-003 7.67263444e-003 5.11508947e-003
      5.96760446e-003 7.67263444e-003</_>
    <_>
      2.46913582e-002 1.05820103e-002 3.52733675e-003 1.76366838e-003 0.
      3.52733675e-003 3.52733675e-003 1.76366838e-003 1.05820103e-002
      7.05467351e-003 1.58730149e-002 3.52733675e-003 1.41093470e-002
      3.52733675e-003 1.23456791e-002 5.29100513e-003 3.52733675e-003
      3.52733675e-003 1.76366838e-003 0. 0. 7.05467351e-003
      5.29100513e-003 8.81834142e-003 1.05820103e-002 1.76366838e-003
      1.05820103e-002 5.29100513e-003 1.41093470e-002 0. 0.
      5.29100513e-003 1.76366838e-003 1.23456791e-002 1.23456791e-002
      1.58730149e-002 1.05820103e-002 5.29100513e-003 1.76366838e-003
      8.81834142e-003 3.52733675e-003 5.29100513e-003 5.29100513e-003 0.
      0. 1.76366838e-003 0. 1.23456791e-002 7.05467351e-003
      5.29100513e-003 1.76366838e-003 7.05467351e-003 8.81834142e-003
      5.29100513e-003 5.29100513e-003 7.05467351e-003 5.29100513e-003
      7.05467351e-003 1.23456791e-002 7.05467351e-003 5.29100513e-003
      1.41093470e-002 1.05820103e-002 1.76366838e-003 8.81834142e-003 0.
      1.58730149e-002 5.29100513e-003 1.76366838e-003 1.76366838e-003
      1.23456791e-002 1.58730149e-002 1.76366838e-003 2.11640205e-002 0.
      1.76366838e-003 1.05820103e-002 1.41093470e-002 5.29100513e-003
      7.05467351e-003 1.76366828e-002 1.05820103e-002 5.29100513e-003
      8.81834142e-003 3.52733675e-003 1.05820103e-002 1.05820103e-002
      3.52733675e-003 7.05467351e-003 3.52733675e-003 3.52733675e-003
      8.81834142e-003 0. 1.76366838e-003 1.23456791e-002 1.76366838e-003
      1.23456791e-002 0. 1.76366838e-003 3.52733675e-003 1.05820103e-002
      3.52733675e-003 5.29100513e-003 8.81834142e-003 1.05820103e-002
      1.05820103e-002 5.29100513e-003 0. 5.29100513e-003 5.29100513e-003
      1.23456791e-002 1.76366838e-003 7.05467351e-003 3.52733675e-003
      1.76366838e-003 8.81834142e-003 5.29100513e-003 3.52733675e-003
      5.29100513e-003 1.23456791e-002 1.05820103e-002 1.05820103e-002 0.
      1.41093470e-002 1.76366838e-003 5.29100513e-003 1.76366838e-003
      5.29100513e-003 1.05820103e-002 1.05820103e-002 8.81834142e-003
      3.52733675e-003 3.52733675e-003 1.23456791e-002 1.41093470e-002 0.
      1.23456791e-002 8.81834142e-003 1.76366838e-003 1.76366838e-003
      1.76366838e-003 0. 5.29100513e-003 1.94003526e-002 1.41093470e-002
      1.41093470e-002 3.52733675e-003 7.05467351e-003 5.29100513e-003
      7.05467351e-003</_>
    <_>
      4.25531901e-003 2.12765951e-003 1.27659570e-002 1.48936165e-002
      1.48936165e-002 2.12765951e-003 1.06382975e-002 2.12765951e-003
      4.25531901e-003 1.06382975e-002 8.51063803e-003 6.38297852e-003
      8.51063803e-003 4.25531901e-003 4.25531901e-003 8.51063803e-003
      6.38297852e-003 0. 4.25531901e-003 4.25531901e-003 1.06382975e-002
      0. 6.38297852e-003 2.12765951e-003 2.12765951e-003 2.12765951e-003
      2.12765951e-003 4.25531901e-003 2.12765951e-003 1.91489346e-002
      1.06382975e-002 8.51063803e-003 0. 1.06382975e-002 6.38297852e-003
      6.38297852e-003 6.38297852e-003 8.51063803e-003 6.38297852e-003
      4.25531901e-003 6.38297852e-003 2.12765951e-003 1.48936165e-002
      2.12765951e-003 1.06382975e-002 8.51063803e-003 8.51063803e-003
      6.38297852e-003 6.38297852e-003 1.06382975e-002 4.25531901e-003
      8.51063803e-003 8.51063803e-003 1.48936165e-002 2.12765951e-003
      2.12765951e-003 6.38297852e-003 1.48936165e-002 8.51063803e-003
      2.12765951e-003 8.51063803e-003 2.12765951e-003 1.48936165e-002 0.
      8.51063803e-003 8.51063803e-003 0. 6.38297852e-003 0.
      3.40425521e-002 2.12765951e-003 1.27659570e-002 1.06382975e-002
      4.25531901e-003 1.06382975e-002 2.12765951e-003 1.70212761e-002
      2.12765951e-003 1.70212761e-002 6.38297852e-003 1.06382975e-002
      4.25531901e-003 6.38297852e-003 4.25531901e-003 2.12765951e-003
      6.38297852e-003 8.51063803e-003 8.51063803e-003 8.51063803e-003
      8.51063803e-003 6.38297852e-003 1.27659570e-002 4.25531901e-003
      1.06382975e-002 4.25531901e-003 6.38297852e-003 6.38297852e-003
      6.38297852e-003 6.38297852e-003 6.38297852e-003 1.06382975e-002
      1.27659570e-002 2.12765951e-003 8.51063803e-003 4.25531901e-003
      8.51063803e-003 2.12765951e-003 4.25531901e-003 1.27659570e-002
      1.27659570e-002 2.12765951e-003 0. 6.38297852e-003 6.38297852e-003
      2.12765951e-003 4.25531901e-003 8.51063803e-003 0. 4.25531901e-003
      6.38297852e-003 6.38297852e-003 6.38297852e-003 1.06382975e-002
      1.06382975e-002 8.51063803e-003 4.25531901e-003 0. 0.
      8.51063803e-003 8.51063803e-003 6.38297852e-003 2.12765951e-003
      8.51063803e-003 2.12765951e-003 8.51063803e-003 4.25531901e-003
      8.51063803e-003 4.25531901e-003 1.06382975e-002 4.25531901e-003 0.
      1.27659570e-002 0. 0. 4.25531901e-003 8.51063803e-003
      4.25531901e-003 4.25531901e-003 6.38297852e-003 8.51063803e-003</_>
    <_>
      6.43086806e-003 3.21543403e-003 9.64630209e-003 0. 0.
      3.21543403e-003 3.21543403e-003 3.21543403e-002 0. 1.28617361e-002
      0. 3.21543403e-003 1.28617361e-002 9.64630209e-003 0.
      3.21543403e-003 3.21543403e-003 6.43086806e-003 0. 6.43086806e-003
      9.64630209e-003 3.21543403e-003 1.28617361e-002 3.21543403e-003
      9.64630209e-003 9.64630209e-003 0. 2.25080382e-002 3.21543403e-003
      0. 9.64630209e-003 0. 9.64630209e-003 0. 3.21543403e-003 0.
      9.64630209e-003 3.21543403e-003 3.21543403e-003 3.21543403e-003
      9.64630209e-003 6.43086806e-003 3.21543403e-003 0. 3.21543403e-003
      3.21543403e-003 6.43086806e-003 1.92926042e-002 0. 6.43086806e-003
      9.64630209e-003 6.43086806e-003 6.43086806e-003 0. 0.
      3.21543403e-003 0. 0. 0. 9.64630209e-003 3.21543403e-003
      6.43086806e-003 0. 2.25080382e-002 6.43086806e-003 1.28617361e-002
      1.28617361e-002 6.43086806e-003 2.57234722e-002 3.21543403e-003
      6.43086806e-003 3.21543403e-003 6.43086806e-003 3.21543403e-003
      3.21543403e-003 3.53697762e-002 3.21543403e-003 3.21543403e-003
      9.64630209e-003 9.64630209e-003 3.21543403e-003 1.92926042e-002
      9.64630209e-003 3.21543403e-003 2.89389063e-002 9.64630209e-003
      1.60771701e-002 9.64630209e-003 3.21543403e-002 1.92926042e-002
      1.28617361e-002 3.21543403e-003 3.21543403e-003 3.21543403e-003
      3.21543403e-003 3.21543403e-003 0. 3.21543403e-003 6.43086806e-003
      6.43086806e-003 9.64630209e-003 3.21543403e-003 1.28617361e-002
      3.21543403e-003 3.21543403e-003 6.43086806e-003 9.64630209e-003 0.
      0. 0. 3.21543403e-003 3.21543403e-003 6.43086806e-003 0.
      2.89389063e-002 0. 3.21543403e-003 5.78778125e-002 9.64630209e-003
      3.21543403e-003 3.21543403e-003 0. 6.43086806e-003 0. 0.
      1.28617361e-002 0. 3.21543403e-003 3.21543403e-003 6.43086806e-003
      1.60771701e-002 6.43086806e-003 6.43086806e-003 0. 1.60771701e-002
      0. 6.43086806e-003 0. 3.21543403e-003 9.64630209e-003
      3.21543403e-003 3.21543403e-003 6.43086806e-003 3.21543403e-003
      3.21543403e-003 0. 6.43086806e-003 0. 0. 6.43086806e-003</_>
    <_>
      2.32018549e-002 4.64037107e-003 2.32018554e-003 4.64037107e-003
      2.32018554e-003 6.96055684e-003 2.32018554e-003 4.64037107e-003
      9.28074215e-003 1.16009274e-002 4.64037107e-003 4.64037107e-003
      4.64037107e-003 4.64037107e-003 1.85614843e-002 6.96055684e-003 0.
      2.32018554e-003 0. 4.64037107e-003 2.32018554e-003 2.32018554e-003
      9.28074215e-003 4.64037107e-003 2.32018554e-003 4.64037107e-003
      6.96055684e-003 1.16009274e-002 9.28074215e-003 4.64037107e-003
      4.64037107e-003 4.64037107e-003 0. 2.08816696e-002 2.32018554e-003
      2.08816696e-002 4.64037107e-003 9.28074215e-003 0. 2.32018554e-003
      1.39211137e-002 9.28074215e-003 0. 0. 4.64037107e-003
      4.64037107e-003 2.32018554e-003 6.96055684e-003 4.64037107e-003
      2.78422274e-002 4.64037107e-003 1.39211137e-002 2.32018554e-003
      9.28074215e-003 0. 4.64037107e-003 9.28074215e-003 6.96055684e-003
      6.96055684e-003 0. 0. 1.16009274e-002 6.96055684e-003 0.
      6.96055684e-003 2.32018554e-003 4.64037107e-003 4.64037107e-003
      4.64037107e-003 9.28074215e-003 4.64037107e-003 2.32018554e-003
      1.39211137e-002 9.28074215e-003 0. 9.28074215e-003 6.96055684e-003
      9.28074215e-003 9.28074215e-003 1.85614843e-002 3.48027833e-002
      1.85614843e-002 9.28074215e-003 9.28074215e-003 4.64037107e-003
      1.16009274e-002 2.32018554e-003 0. 9.28074215e-003 1.85614843e-002
      1.16009274e-002 9.28074215e-003 1.16009274e-002 0. 1.16009274e-002
      4.64037107e-003 2.32018549e-002 6.96055684e-003 0. 2.32018554e-003
      2.32018554e-003 0. 4.64037107e-003 2.32018554e-003 1.62412990e-002
      1.16009274e-002 6.96055684e-003 0. 4.64037107e-003 3.24825980e-002
      9.28074215e-003 0. 2.32018554e-003 6.96055684e-003 2.32018554e-003
      2.32018554e-003 6.96055684e-003 4.64037107e-003 4.64037107e-003
      2.32018554e-003 2.32018554e-003 2.32018554e-003 2.32018554e-003
      4.64037107e-003 4.64037107e-003 2.32018554e-003 4.64037107e-003
      2.32018554e-003 2.32018549e-002 2.32018554e-003 2.32018549e-002
      4.64037107e-003 2.32018554e-003 6.96055684e-003 1.16009274e-002
      2.32018554e-003 2.32018554e-003 4.64037107e-003 2.32018554e-003
      2.32018554e-003 4.64037107e-003 4.64037107e-003 2.32018554e-003 0.
      9.28074215e-003 0. 1.16009274e-002 2.32018554e-003 4.64037107e-003
      6.96055684e-003</_>
    <_>
      4.56621032e-003 7.61034992e-003 1.21765602e-002 6.08828012e-003
      1.52207003e-003 3.04414006e-003 6.08828012e-003 3.50076109e-002 0.
      3.04414006e-003 0. 1.52207003e-003 4.56621032e-003 6.08828012e-003
      1.52207003e-003 4.56621032e-003 3.04414006e-003 1.06544904e-002
      4.56621032e-003 4.56621032e-003 7.61034992e-003 4.56621032e-003
      9.13242064e-003 4.56621032e-003 1.52207003e-003 9.13242064e-003
      6.08828012e-003 9.13242064e-003 6.08828012e-003 7.61034992e-003
      1.21765602e-002 1.21765602e-002 6.08828012e-003 4.56621032e-003
      7.61034992e-003 3.04414006e-003 9.13242064e-003 7.61034992e-003
      6.08828012e-003 4.56621032e-003 1.06544904e-002 3.04414006e-003
      6.08828012e-003 1.06544904e-002 1.52207003e-003 1.52207003e-003
      1.36986300e-002 1.06544904e-002 1.52207003e-003 7.61034992e-003
      4.56621032e-003 9.13242064e-003 9.13242064e-003 3.04414006e-003
      1.52207003e-003 6.08828012e-003 4.56621032e-003 3.04414006e-003
      7.61034992e-003 6.08828012e-003 1.52207003e-003 9.13242064e-003
      7.61034992e-003 4.56621032e-003 4.56621032e-003 2.28310507e-002
      1.36986300e-002 1.21765602e-002 1.06544904e-002 7.61034992e-003
      3.04414006e-003 6.08828012e-003 3.04414006e-003 6.08828012e-003
      1.52207003e-003 2.13089809e-002 7.61034992e-003 3.04414006e-003
      1.97869111e-002 4.56621032e-003 3.04414006e-003 1.97869111e-002
      7.61034992e-003 1.52207003e-003 1.36986300e-002 4.56621032e-003
      1.97869111e-002 1.52207003e-003 9.13242064e-003 7.61034992e-003
      6.08828012e-003 9.13242064e-003 4.56621032e-003 0. 3.04414006e-003
      3.04414006e-003 6.08828012e-003 6.08828012e-003 1.82648413e-002
      6.08828012e-003 1.06544904e-002 7.61034992e-003 1.52207003e-003
      3.04414006e-003 7.61034992e-003 1.52207003e-003 1.36986300e-002 0.
      3.04414006e-003 1.52207003e-003 6.08828012e-003 1.06544904e-002
      4.56621032e-003 1.52207003e-003 6.08828012e-003 6.08828012e-003
      1.52207003e-003 3.50076109e-002 9.13242064e-003 4.56621032e-003
      9.13242064e-003 3.04414006e-003 4.56621032e-003 4.56621032e-003
      6.08828012e-003 1.36986300e-002 1.52207003e-003 6.08828012e-003
      4.56621032e-003 6.08828012e-003 1.52207003e-003 4.56621032e-003
      1.52207003e-003 0. 3.04414006e-003 6.08828012e-003 1.36986300e-002
      3.04414006e-003 7.61034992e-003 1.06544904e-002 9.13242064e-003
      3.04414006e-003 3.04414006e-003 3.04414006e-003 9.13242064e-003
      1.52207003e-003 1.52207003e-003 1.36986300e-002 6.08828012e-003
      1.52207003e-003</_>
    <_>
      5.06756781e-003 8.44594650e-003 3.37837846e-003 5.06756781e-003
      1.68918923e-003 5.06756781e-003 5.06756781e-003 2.70270277e-002
      3.37837846e-003 6.75675692e-003 3.37837846e-003 5.06756781e-003
      5.06756781e-003 1.68918923e-003 1.68918923e-003 3.37837846e-003
      8.44594650e-003 1.18243247e-002 8.44594650e-003 5.06756781e-003
      1.35135138e-002 6.75675692e-003 3.37837846e-003 1.68918923e-003
      6.75675692e-003 5.06756781e-003 6.75675692e-003 1.68918930e-002
      1.68918923e-003 1.52027030e-002 1.35135138e-002 0. 1.68918923e-003
      5.06756781e-003 3.37837846e-003 3.37837846e-003 6.75675692e-003
      1.35135138e-002 3.37837846e-003 1.68918923e-003 3.37837846e-003
      1.68918923e-003 1.68918923e-003 1.18243247e-002 3.37837846e-003
      1.68918923e-003 6.75675692e-003 6.75675692e-003 1.68918923e-003
      6.75675692e-003 6.75675692e-003 5.06756781e-003 1.18243247e-002
      1.18243247e-002 1.68918923e-003 1.68918923e-003 1.68918923e-003
      3.37837846e-003 1.68918930e-002 1.68918923e-003 5.06756781e-003
      3.37837846e-003 8.44594650e-003 0. 5.06756781e-003 5.06756781e-003
      8.44594650e-003 6.75675692e-003 3.37837846e-003 2.02702712e-002
      5.06756781e-003 1.68918923e-003 5.06756781e-003 3.37837846e-003
      5.06756781e-003 1.52027030e-002 1.01351356e-002 3.37837846e-003
      1.85810812e-002 5.06756781e-003 5.06756781e-003 5.06756781e-003
      1.18243247e-002 1.01351356e-002 1.35135138e-002 1.52027030e-002
      5.06756781e-003 6.75675692e-003 1.18243247e-002 5.06756781e-003
      1.18243247e-002 1.01351356e-002 1.68918923e-003 8.44594650e-003
      8.44594650e-003 1.01351356e-002 3.37837846e-003 5.06756781e-003
      8.44594650e-003 1.85810812e-002 8.44594650e-003 1.68918923e-003
      5.06756781e-003 6.75675692e-003 1.68918923e-003 3.37837846e-003
      1.18243247e-002 0. 1.52027030e-002 3.37837846e-003 0.
      1.01351356e-002 5.06756781e-003 3.37837846e-003 2.70270277e-002
      1.68918923e-003 1.68918923e-003 2.02702712e-002 5.06756781e-003 0.
      5.06756781e-003 6.75675692e-003 1.01351356e-002 6.75675692e-003
      1.01351356e-002 6.75675692e-003 1.68918923e-003 6.75675692e-003
      5.06756781e-003 6.75675692e-003 5.06756781e-003 3.37837846e-003
      1.68918930e-002 6.75675692e-003 8.44594650e-003 0. 6.75675692e-003
      3.37837846e-003 1.68918923e-003 8.44594650e-003 6.75675692e-003
      8.44594650e-003 3.37837846e-003 1.18243247e-002 5.06756781e-003
      5.06756781e-003 6.75675692e-003 6.75675692e-003 1.68918923e-003
      8.44594650e-003</_>
    <_>
      6.42054575e-003 3.21027287e-003 1.60513651e-002 0. 0.
      6.42054575e-003 1.60513644e-003 2.08667740e-002 1.60513644e-003
      9.63081885e-003 3.21027287e-003 6.42054575e-003 1.28410915e-002
      1.12359552e-002 3.21027287e-003 1.60513644e-003 4.81540943e-003 0.
      4.81540943e-003 8.02568253e-003 8.02568253e-003 8.02568253e-003
      1.60513651e-002 1.60513644e-003 1.60513644e-003 1.12359552e-002
      3.21027287e-003 2.08667740e-002 3.21027287e-003 8.02568253e-003
      1.44462278e-002 1.60513644e-003 0. 3.21027287e-003 4.81540943e-003
      4.81540943e-003 8.02568253e-003 9.63081885e-003 1.44462278e-002
      8.02568253e-003 1.28410915e-002 3.21027287e-003 0. 8.02568253e-003
      6.42054575e-003 3.21027287e-003 1.60513651e-002 4.81540943e-003
      4.81540943e-003 1.60513644e-003 8.02568253e-003 8.02568253e-003
      3.21027287e-003 6.42054575e-003 1.60513644e-003 4.81540943e-003
      6.42054575e-003 4.81540943e-003 1.60513644e-003 1.28410915e-002 0.
      4.81540943e-003 4.81540943e-003 3.21027287e-003 6.42054575e-003
      8.02568253e-003 0. 4.81540943e-003 6.42054575e-003 1.28410915e-002
      1.12359552e-002 3.21027287e-003 4.81540943e-003 3.21027287e-003
      8.02568253e-003 2.56821830e-002 4.81540943e-003 1.60513644e-003
      6.42054575e-003 2.08667740e-002 3.21027287e-003 1.12359552e-002
      1.92616377e-002 8.02568253e-003 2.56821830e-002 8.02568253e-003
      4.81540943e-003 8.02568253e-003 1.12359552e-002 4.81540943e-003
      1.76565014e-002 8.02568253e-003 6.42054575e-003 3.21027287e-003
      4.81540943e-003 1.28410915e-002 4.81540943e-003 6.42054575e-003
      1.76565014e-002 1.60513644e-003 6.42054575e-003 9.63081885e-003
      4.81540943e-003 3.21027287e-003 4.81540943e-003 1.60513644e-003
      6.42054575e-003 0. 6.42054575e-003 3.21027287e-003 3.21027287e-003
      4.81540943e-003 1.60513644e-003 1.60513644e-003 1.44462278e-002
      3.21027287e-003 1.28410915e-002 2.40770467e-002 1.60513644e-003
      4.81540943e-003 8.02568253e-003 6.42054575e-003 4.81540943e-003
      8.02568253e-003 4.81540943e-003 8.02568253e-003 0. 6.42054575e-003
      1.28410915e-002 1.60513644e-003 1.28410915e-002 8.02568253e-003 0.
      0. 4.81540943e-003 4.81540943e-003 8.02568253e-003 1.60513644e-003
      3.21027287e-003 1.12359552e-002 0. 3.21027287e-003 4.81540943e-003
      4.81540943e-003 6.42054575e-003 8.02568253e-003 3.21027287e-003
      3.21027287e-003 6.42054575e-003 4.81540943e-003</_>
    <_>
      2.15982720e-002 0. 1.29589625e-002 0. 2.80777533e-002
      2.15982716e-003 0. 8.63930862e-003 2.15982716e-003 8.63930862e-003
      4.31965431e-003 1.07991360e-002 6.47948124e-003 1.29589625e-002 0.
      2.15982716e-003 2.15982716e-003 6.47948124e-003 6.47948124e-003
      1.07991360e-002 4.31965431e-003 0. 4.31965431e-003 6.47948124e-003
      6.47948124e-003 1.51187899e-002 0. 1.51187899e-002 0.
      2.15982716e-003 6.47948124e-003 1.72786172e-002 6.47948124e-003
      8.63930862e-003 1.29589625e-002 2.15982716e-003 2.15982716e-003
      2.15982716e-003 2.15982716e-003 0. 4.31965431e-003 2.15982716e-003
      2.15982716e-003 4.31965431e-003 4.31965431e-003 1.94384437e-002
      4.31965431e-003 6.47948124e-003 4.31965431e-003 6.47948124e-003 0.
      2.15982716e-003 0. 2.15982716e-003 4.31965431e-003 2.15982716e-003
      6.47948124e-003 0. 1.07991360e-002 1.51187899e-002 2.15982716e-003
      6.47948124e-003 4.31965431e-003 1.72786172e-002 8.63930862e-003
      3.67170610e-002 8.63930862e-003 6.47948124e-003 1.29589625e-002
      1.51187899e-002 4.31965431e-003 4.31965431e-003 8.63930862e-003
      2.15982716e-003 6.47948124e-003 1.94384437e-002 0. 0.
      6.47948124e-003 8.63930862e-003 8.63930862e-003 1.29589625e-002
      4.31965431e-003 0. 1.51187899e-002 8.63930862e-003 1.07991360e-002
      1.07991360e-002 4.31965431e-003 6.47948124e-003 3.02375797e-002
      4.31965431e-003 2.15982716e-003 2.15982716e-003 2.15982716e-003
      6.47948124e-003 6.47948124e-003 0. 6.47948124e-003 1.07991360e-002
      4.31965431e-003 4.31965431e-003 4.31965431e-003 6.47948124e-003
      6.47948124e-003 1.29589625e-002 2.15982716e-003 1.51187899e-002 0.
      8.63930862e-003 4.31965431e-003 2.15982716e-003 4.31965431e-003 0.
      0. 0. 4.31965431e-003 1.51187899e-002 4.31965431e-003
      4.31965431e-003 8.63930862e-003 6.47948124e-003 6.47948124e-003
      2.15982716e-003 6.47948124e-003 1.07991360e-002 2.15982716e-003
      8.63930862e-003 6.47948124e-003 6.47948124e-003 1.51187899e-002 0.
      4.31965431e-003 2.15982716e-003 6.47948124e-003 1.94384437e-002
      2.15982716e-003 2.15982716e-003 2.15982716e-003 6.47948124e-003
      1.07991360e-002 2.15982720e-002 8.63930862e-003 8.63930862e-003
      4.31965431e-003 2.15982716e-003 8.63930862e-003 2.15982716e-003
      4.31965431e-003 4.31965431e-003</_>
    <_>
      9.68523044e-003 2.42130761e-003 7.26392306e-003 0. 2.42130761e-003
      2.42130761e-003 7.26392306e-003 8.47457647e-002 4.84261522e-003
      7.26392306e-003 4.84261522e-003 7.26392306e-003 7.26392306e-003
      7.26392306e-003 2.42130761e-003 2.42130761e-003 0. 7.26392306e-003
      1.21065378e-002 2.42130761e-003 0. 2.42130761e-003 0. 0. 0.
      9.68523044e-003 9.68523044e-003 1.93704609e-002 2.42130761e-003
      2.42130761e-003 2.42130756e-002 2.42130761e-003 2.42130761e-003
      2.42130761e-003 0. 2.17917692e-002 4.84261522e-003 7.26392306e-003
      2.42130761e-003 4.84261522e-003 9.68523044e-003 4.84261522e-003
      4.84261522e-003 0. 4.84261522e-003 7.26392306e-003 9.68523044e-003
      0. 2.42130761e-003 7.26392306e-003 4.84261522e-003 7.26392306e-003
      7.26392306e-003 2.42130761e-003 0. 0. 1.69491526e-002
      4.84261522e-003 2.42130761e-003 0. 7.26392306e-003 4.84261522e-003
      4.84261522e-003 1.21065378e-002 4.84261522e-003 2.42130756e-002
      2.42130761e-003 0. 1.93704609e-002 9.68523044e-003 2.42130761e-003
      2.42130761e-003 1.21065378e-002 4.84261522e-003 0. 2.90556923e-002
      4.84261522e-003 0. 2.90556923e-002 1.93704609e-002 4.84261522e-003
      2.42130761e-003 0. 7.26392306e-003 9.68523044e-003 4.84261522e-003
      0. 0. 0. 1.21065378e-002 2.90556923e-002 4.84261522e-003 0.
      7.26392306e-003 0. 9.68523044e-003 9.68523044e-003 0.
      2.42130761e-003 4.84261522e-003 9.68523044e-003 0. 2.42130761e-003
      0. 4.84261522e-003 2.42130761e-003 7.26392306e-003 7.26392306e-003
      9.68523044e-003 3.38983051e-002 2.42130761e-003 2.42130761e-003
      2.42130761e-003 0. 1.45278461e-002 0. 2.42130761e-003
      3.38983051e-002 1.21065378e-002 2.42130761e-003 1.69491526e-002
      2.42130761e-003 0. 0. 2.42130761e-003 0. 2.42130761e-003
      4.84261522e-003 9.68523044e-003 0. 1.45278461e-002 2.42130761e-003
      9.68523044e-003 4.84261522e-003 9.68523044e-003 9.68523044e-003
      2.42130761e-003 0. 0. 9.68523044e-003 0. 9.68523044e-003
      1.21065378e-002 4.84261522e-003 7.26392306e-003 7.26392306e-003
      7.26392306e-003 0. 0. 0.</_>
    <_>
      6.34058006e-003 7.24637695e-003 6.34058006e-003 6.34058006e-003
      2.71739135e-003 1.81159424e-003 1.08695654e-002 0. 2.44565215e-002
      3.62318847e-003 2.53623202e-002 9.96376853e-003 6.34058006e-003
      2.71739135e-003 2.35507246e-002 9.05797118e-004 6.34058006e-003
      3.62318847e-003 5.43478271e-003 3.62318847e-003 2.71739135e-003
      1.26811601e-002 4.52898536e-003 9.96376853e-003 9.05797072e-003
      5.43478271e-003 6.34058006e-003 9.05797118e-004 1.72101445e-002
      9.05797118e-004 3.62318847e-003 1.81159424e-003 0. 1.99275371e-002
      6.34058006e-003 9.96376853e-003 5.43478271e-003 7.24637695e-003
      5.43478271e-003 4.52898536e-003 9.05797118e-004 6.34058006e-003
      3.62318847e-003 9.05797118e-004 2.71739135e-003 5.43478271e-003
      1.81159424e-003 1.08695654e-002 7.24637695e-003 6.34058006e-003 0.
      1.17753623e-002 9.05797072e-003 7.24637695e-003 1.81159424e-003
      9.96376853e-003 1.81159414e-002 1.26811601e-002 7.24637695e-003
      2.71739135e-003 1.08695654e-002 1.17753623e-002 8.15217383e-003
      1.81159424e-003 5.43478271e-003 0. 8.15217383e-003 9.96376853e-003
      0. 1.81159424e-003 6.34058006e-003 1.08695654e-002 1.81159424e-003
      1.72101445e-002 1.81159424e-003 3.62318847e-003 9.05797072e-003
      1.08695654e-002 3.62318847e-003 9.05797072e-003 7.24637695e-003
      3.62318847e-003 5.43478271e-003 1.72101445e-002 1.81159424e-003
      9.96376853e-003 3.62318847e-003 3.62318847e-003 6.34058006e-003
      9.05797118e-004 3.62318847e-003 1.08695654e-002 3.62318847e-003 0.
      8.15217383e-003 1.81159424e-003 8.15217383e-003 1.81159424e-003
      1.81159424e-003 9.05797118e-004 6.34058006e-003 4.52898536e-003
      6.34058006e-003 1.35869570e-002 8.15217383e-003 3.62318847e-003
      2.71739135e-003 9.05797118e-004 1.08695654e-002 2.08333340e-002
      1.17753623e-002 9.05797118e-004 8.15217383e-003 1.35869570e-002
      2.71739135e-003 8.15217383e-003 9.05797072e-003 9.05797118e-004
      1.81159424e-003 3.62318847e-003 1.53985508e-002 1.26811601e-002
      7.24637695e-003 9.96376853e-003 9.05797118e-004 7.24637695e-003
      9.05797118e-004 6.34058006e-003 1.44927539e-002 5.43478271e-003
      6.34058006e-003 9.05797118e-004 8.15217383e-003 1.35869570e-002
      1.17753623e-002 4.52898536e-003 1.44927539e-002 4.52898536e-003
      3.62318847e-003 0. 1.81159424e-003 2.71739135e-003 6.34058006e-003
      1.63043477e-002 9.05797072e-003 6.34058006e-003 8.15217383e-003
      3.62318847e-003 1.81159424e-003 5.43478271e-003</_>
    <_>
      3.70370364e-003 5.55555522e-003 7.40740728e-003 3.51851843e-002
      3.70370364e-003 7.40740728e-003 7.40740728e-003 1.29629625e-002
      1.85185182e-003 0. 1.66666657e-002 1.85185182e-003 1.85185182e-003
      1.29629625e-002 5.55555522e-003 1.11111104e-002 1.66666657e-002
      1.11111104e-002 0. 5.55555522e-003 1.66666657e-002 7.40740728e-003
      1.85185182e-003 5.55555522e-003 5.55555522e-003 5.55555522e-003
      1.85185182e-003 1.48148146e-002 9.25925933e-003 1.29629625e-002
      1.11111104e-002 3.70370364e-003 3.70370364e-003 0. 7.40740728e-003
      7.40740728e-003 1.11111104e-002 7.40740728e-003 1.48148146e-002 0.
      1.29629625e-002 3.70370364e-003 1.85185182e-003 7.40740728e-003
      1.11111104e-002 3.70370364e-003 9.25925933e-003 7.40740728e-003 0.
      9.25925933e-003 7.40740728e-003 5.55555522e-003 9.25925933e-003
      5.55555522e-003 3.70370364e-003 1.85185182e-003 3.70370364e-003 0.
      9.25925933e-003 3.70370364e-003 5.55555522e-003 7.40740728e-003
      5.55555522e-003 0. 3.70370364e-003 0. 5.55555522e-003
      1.29629625e-002 0. 1.11111104e-002 1.85185182e-003 7.40740728e-003
      3.70370364e-003 1.11111104e-002 5.55555522e-003 9.25925933e-003
      3.70370364e-003 1.85185182e-003 1.66666657e-002 0. 1.85185182e-003
      3.70370364e-003 9.25925933e-003 5.55555522e-003 1.85185187e-002
      9.25925933e-003 1.85185182e-003 1.11111104e-002 3.70370364e-003
      1.85185182e-003 1.85185182e-003 1.11111104e-002 7.40740728e-003
      1.11111104e-002 1.85185182e-003 9.25925933e-003 7.40740728e-003
      5.55555522e-003 2.03703698e-002 9.25925933e-003 1.85185182e-003
      1.66666657e-002 7.40740728e-003 3.70370364e-003 3.70370364e-003
      1.85185182e-003 5.55555522e-003 0. 1.11111104e-002 0.
      1.85185182e-003 1.85185187e-002 1.85185182e-003 3.70370364e-003
      1.11111104e-002 7.40740728e-003 7.40740728e-003 1.11111104e-002
      1.85185182e-003 1.85185182e-003 5.55555522e-003 1.48148146e-002
      5.55555522e-003 3.70370364e-003 1.85185182e-003 5.55555522e-003
      3.70370364e-003 5.55555522e-003 7.40740728e-003 0. 1.85185182e-003
      7.40740728e-003 5.55555522e-003 1.85185182e-003 1.85185182e-003
      3.70370364e-003 9.25925933e-003 1.85185182e-003 1.85185182e-003
      1.11111104e-002 5.55555522e-003 1.11111104e-002 7.40740728e-003
      1.29629625e-002 1.29629625e-002 9.25925933e-003 3.70370364e-003
      1.11111104e-002 5.55555522e-003 3.70370364e-003</_>
    <_>
      5.06329117e-003 0. 2.53164559e-003 5.06329117e-003 3.54430377e-002
      7.59493653e-003 2.53164559e-003 5.06329117e-003 5.06329117e-003
      1.01265823e-002 0. 0. 2.53164559e-003 2.53164559e-003
      2.53164559e-003 7.59493653e-003 1.77215189e-002 2.53164559e-003
      2.53164559e-003 7.59493653e-003 5.06329117e-003 5.06329117e-003
      7.59493653e-003 2.53164559e-003 5.06329117e-003 1.26582282e-002
      7.59493653e-003 1.01265823e-002 2.53164559e-003 2.02531647e-002
      2.53164559e-003 1.77215189e-002 5.06329117e-003 2.53164559e-003
      1.01265823e-002 5.06329117e-003 1.26582282e-002 7.59493653e-003
      5.06329117e-003 0. 1.26582282e-002 0. 5.06329117e-003
      5.06329117e-003 7.59493653e-003 5.06329117e-003 1.51898731e-002
      1.26582282e-002 0. 5.06329117e-003 7.59493653e-003 2.53164559e-003
      7.59493653e-003 1.51898731e-002 5.06329117e-003 2.53164559e-003
      2.53164559e-003 1.01265823e-002 0. 0. 2.53164559e-003
      5.06329117e-003 0. 0. 5.06329117e-003 2.27848105e-002
      5.06329117e-003 7.59493653e-003 1.26582282e-002 1.77215189e-002
      1.26582282e-002 1.51898731e-002 5.06329117e-003 1.26582282e-002
      7.59493653e-003 5.06329117e-003 7.59493653e-003 5.06329117e-003
      5.06329117e-003 7.59493653e-003 2.53164559e-003 1.51898731e-002
      5.06329117e-003 5.06329117e-003 1.77215189e-002 5.06329117e-003
      1.01265823e-002 7.59493653e-003 1.51898731e-002 7.59493653e-003
      2.53164559e-003 1.01265823e-002 7.59493653e-003 7.59493653e-003 0.
      5.06329117e-003 7.59493653e-003 7.59493653e-003 1.01265823e-002
      1.01265823e-002 5.06329117e-003 1.51898731e-002 1.26582282e-002
      1.01265823e-002 0. 0. 5.06329117e-003 0. 1.77215189e-002 0.
      2.53164559e-003 0. 5.06329117e-003 2.53164559e-003 1.01265823e-002
      5.06329117e-003 0. 7.59493653e-003 5.06329117e-003 7.59493653e-003
      1.01265823e-002 5.06329117e-003 0. 0. 1.01265823e-002
      1.26582282e-002 5.06329117e-003 5.06329117e-003 0. 5.06329117e-003
      2.53164559e-003 1.01265823e-002 5.06329117e-003 2.53164559e-003
      2.53164559e-003 5.06329117e-003 7.59493653e-003 2.53164559e-003
      7.59493653e-003 2.53164559e-003 1.26582282e-002 5.06329117e-003
      1.26582282e-002 2.53164559e-003 5.06329117e-003 0. 1.77215189e-002
      5.06329117e-003 1.01265823e-002 2.53164559e-003</_>
    <_>
      4.37317789e-003 7.28863012e-003 4.37317789e-003 2.91545200e-003 0.
      7.28863012e-003 1.02040824e-002 0. 1.31195337e-002 8.74635577e-003
      2.33236160e-002 4.37317789e-003 7.28863012e-003 1.45772600e-003
      1.31195337e-002 1.16618080e-002 7.28863012e-003 5.83090400e-003
      2.91545200e-003 4.37317789e-003 2.91545200e-003 5.83090400e-003
      4.37317789e-003 2.91545200e-003 7.28863012e-003 1.45772600e-003
      1.02040824e-002 1.89504381e-002 1.16618080e-002 5.83090400e-003
      8.74635577e-003 4.37317789e-003 1.45772600e-003 4.37317789e-003
      1.45772600e-003 7.28863012e-003 7.28863012e-003 7.28863012e-003
      7.28863012e-003 8.74635577e-003 7.28863012e-003 4.37317789e-003
      4.37317789e-003 7.28863012e-003 1.02040824e-002 2.91545200e-003
      4.37317789e-003 1.16618080e-002 1.45772600e-003 7.28863012e-003 0.
      1.16618080e-002 2.91545205e-002 7.28863012e-003 7.28863012e-003
      4.37317789e-003 1.16618080e-002 1.45772602e-002 1.31195337e-002
      7.28863012e-003 1.45772600e-003 2.91545200e-003 2.91545200e-003 0.
      5.83090400e-003 1.45772600e-003 8.74635577e-003 1.02040824e-002
      5.83090400e-003 1.16618080e-002 7.28863012e-003 1.45772602e-002
      2.91545200e-003 1.16618080e-002 2.91545200e-003 1.45772602e-002
      7.28863012e-003 1.02040824e-002 1.45772600e-003 5.83090400e-003
      7.28863012e-003 5.83090400e-003 5.83090400e-003 8.74635577e-003
      5.83090400e-003 4.37317789e-003 1.16618080e-002 4.37317789e-003
      7.28863012e-003 8.74635577e-003 2.91545200e-003 4.37317789e-003
      1.45772600e-003 1.02040824e-002 8.74635577e-003 7.28863012e-003
      1.16618080e-002 2.91545200e-003 8.74635577e-003 5.83090400e-003
      7.28863012e-003 2.91545200e-003 4.37317789e-003 4.37317789e-003
      1.31195337e-002 4.37317789e-003 7.28863012e-003 0. 5.83090400e-003
      8.74635577e-003 5.83090400e-003 1.02040824e-002 4.37317789e-003
      8.74635577e-003 4.37317789e-003 1.31195337e-002 5.83090400e-003
      4.37317789e-003 0. 4.37317789e-003 1.45772600e-003 1.02040824e-002
      0. 1.89504381e-002 4.37317789e-003 2.91545200e-003 1.45772600e-003
      2.91545200e-003 5.83090400e-003 1.60349868e-002 7.28863012e-003
      8.74635577e-003 1.16618080e-002 5.83090400e-003 4.37317789e-003
      1.45772600e-003 1.02040824e-002 5.83090400e-003 1.45772600e-003
      5.83090400e-003 1.45772600e-003 0. 0. 1.16618080e-002
      1.31195337e-002 4.37317789e-003 4.37317789e-003 7.28863012e-003
      2.91545200e-003 7.28863012e-003</_>
    <_>
      0. 4.83091781e-003 9.66183562e-003 2.89855078e-002 0.
      9.66183562e-003 0. 0. 0. 0. 9.66183562e-003 4.83091781e-003
      9.66183562e-003 0. 0. 3.86473425e-002 0. 9.66183562e-003
      4.83091781e-003 4.83091781e-003 4.83091781e-003 9.66183562e-003 0.
      9.66183562e-003 1.44927539e-002 4.83091781e-003 0. 0. 0.
      3.38164233e-002 4.83091781e-003 4.83091781e-003 4.83091781e-003 0.
      4.83091781e-003 4.83091781e-003 0. 2.41545886e-002 4.83091781e-003
      0. 2.41545886e-002 4.83091781e-003 9.66183562e-003 0.
      4.83091781e-003 0. 2.41545886e-002 0. 0. 4.83091781e-003 0.
      9.66183562e-003 0. 4.83091781e-003 0. 0. 9.66183562e-003 0.
      9.66183562e-003 0. 4.83091781e-003 0. 0. 4.83091781e-003
      9.66183562e-003 0. 1.44927539e-002 3.86473425e-002 4.83091781e-003
      9.66183562e-003 4.83091781e-003 1.93236712e-002 4.83091781e-003
      4.83091781e-003 9.66183562e-003 0. 0. 4.83091781e-003
      4.83091781e-003 9.66183562e-003 0. 4.83091781e-003 0. 0.
      2.41545886e-002 1.93236712e-002 2.89855078e-002 4.83091781e-003
      1.93236712e-002 9.66183562e-003 0. 0. 0. 0. 4.83091781e-003
      9.66183562e-003 0. 4.83091781e-003 4.83091781e-003 0.
      4.83091781e-003 2.41545886e-002 4.83091781e-003 4.83091781e-003
      4.83091781e-003 9.66183562e-003 0. 4.83091781e-003 1.44927539e-002
      0. 0. 0. 1.93236712e-002 0. 4.83091781e-003 0. 4.83091781e-003
      4.83091781e-003 0. 0. 1.44927539e-002 0. 4.83091781e-003
      1.44927539e-002 2.41545886e-002 1.93236712e-002 0. 1.44927539e-002
      1.93236712e-002 4.83091781e-003 9.66183562e-003 4.83091781e-003 0.
      4.83091781e-003 4.83091781e-003 0. 4.83091781e-003 0.
      4.83091781e-003 9.66183562e-003 1.93236712e-002 1.93236712e-002
      4.83091781e-003 9.66183562e-003 4.83091781e-003 4.83091781e-003 0.
      0. 4.83091781e-003 9.66183562e-003</_>
    <_>
      1.34770889e-002 5.39083546e-003 2.69541773e-003 2.69541773e-003
      2.69541773e-003 0. 5.39083546e-003 7.54716992e-002 0.
      5.39083546e-003 2.69541773e-003 0. 1.07816709e-002 0.
      8.08625296e-003 5.39083546e-003 1.07816709e-002 2.15633418e-002
      8.08625296e-003 2.69541773e-003 2.42587589e-002 5.39083546e-003
      8.08625296e-003 5.39083546e-003 8.08625296e-003 1.07816709e-002
      2.69541773e-003 8.08625296e-003 5.39083546e-003 0. 1.61725059e-002
      8.08625296e-003 2.69541773e-003 5.39083546e-003 5.39083546e-003
      2.69541773e-003 8.08625296e-003 1.34770889e-002 5.39083546e-003
      1.07816709e-002 1.07816709e-002 5.39083546e-003 5.39083546e-003
      5.39083546e-003 2.69541773e-003 0. 8.08625296e-003 2.69541773e-003
      2.69541773e-003 5.39083546e-003 2.69541773e-003 0. 5.39083546e-003
      5.39083546e-003 5.39083546e-003 2.69541773e-003 2.69541773e-003 0.
      1.34770889e-002 5.39083546e-003 2.69541773e-003 0. 2.69541773e-003
      2.69541773e-003 2.69541773e-003 0. 8.08625296e-003 8.08625296e-003
      2.42587589e-002 0. 2.69541773e-003 8.08625296e-003 5.39083546e-003
      1.07816709e-002 2.69541773e-003 1.34770889e-002 2.69541773e-003
      2.69541773e-003 2.15633418e-002 8.08625296e-003 1.34770889e-002
      2.69541773e-003 1.07816709e-002 8.08625296e-003 2.69541773e-003
      2.69541773e-003 5.39083546e-003 5.39083546e-003 2.69541773e-003 0.
      2.69541778e-002 0. 2.69541773e-003 8.08625296e-003 2.69541773e-003
      2.69541773e-003 5.39083546e-003 8.08625296e-003 2.69541773e-003
      5.39083546e-003 2.69541773e-003 0. 0. 8.08625296e-003
      1.61725059e-002 5.39083546e-003 8.08625296e-003 0. 0.
      1.07816709e-002 8.08625296e-003 5.39083546e-003 8.08625296e-003 0.
      1.88679248e-002 2.69541773e-003 8.08625296e-003 3.50404307e-002
      5.39083546e-003 0. 0. 2.69541773e-003 2.15633418e-002
      2.69541773e-003 2.69541773e-003 1.61725059e-002 0. 0. 0.
      5.39083546e-003 5.39083546e-003 5.39083546e-003 1.07816709e-002
      5.39083546e-003 1.07816709e-002 2.69541773e-003 5.39083546e-003
      1.34770889e-002 5.39083546e-003 5.39083546e-003 0. 1.34770889e-002
      5.39083546e-003 2.69541773e-003 2.15633418e-002 2.69541773e-003 0.
      2.69541773e-003 0. 8.08625296e-003</_>
    <_>
      9.70873795e-003 0. 1.35922330e-002 0. 7.76699046e-003
      1.94174761e-003 9.70873795e-003 1.94174759e-002 0. 9.70873795e-003
      5.82524296e-003 1.94174761e-003 3.88349523e-003 1.16504859e-002
      5.82524296e-003 0. 3.88349523e-003 5.82524296e-003 5.82524296e-003
      5.82524296e-003 1.94174761e-003 1.94174761e-003 7.76699046e-003
      1.55339809e-002 1.16504859e-002 7.76699046e-003 0. 5.82524296e-003
      3.88349523e-003 0. 5.82524296e-003 9.70873795e-003 1.94174761e-003
      1.94174759e-002 1.16504859e-002 7.76699046e-003 1.16504859e-002
      5.82524296e-003 3.88349523e-003 3.88349523e-003 9.70873795e-003
      5.82524296e-003 1.94174761e-003 1.94174761e-003 3.88349523e-003
      2.13592239e-002 9.70873795e-003 9.70873795e-003 0. 7.76699046e-003
      1.94174761e-003 3.88349523e-003 0. 7.76699046e-003 5.82524296e-003
      5.82524296e-003 3.88349523e-003 1.94174761e-003 3.88349523e-003
      7.76699046e-003 7.76699046e-003 5.82524296e-003 1.94174761e-003
      5.82524296e-003 1.55339809e-002 2.52427198e-002 7.76699046e-003
      1.16504859e-002 9.70873795e-003 5.82524296e-003 3.88349523e-003
      5.82524296e-003 7.76699046e-003 5.82524296e-003 3.88349523e-003
      1.55339809e-002 3.88349523e-003 3.88349523e-003 5.82524296e-003
      1.55339809e-002 7.76699046e-003 5.82524296e-003 5.82524296e-003
      3.88349523e-003 7.76699046e-003 7.76699046e-003 9.70873795e-003
      3.88349523e-003 5.82524296e-003 1.94174761e-003 1.74757279e-002
      1.16504859e-002 7.76699046e-003 5.82524296e-003 7.76699046e-003
      9.70873795e-003 5.82524296e-003 0. 7.76699046e-003 3.88349523e-003
      9.70873795e-003 0. 7.76699046e-003 1.55339809e-002 3.88349523e-003
      3.88349523e-003 5.82524296e-003 0. 3.88349523e-003 5.82524296e-003
      3.88349523e-003 0. 5.82524296e-003 3.88349523e-003 3.88349523e-003
      3.88349523e-003 7.76699046e-003 3.88349523e-003 1.16504859e-002
      7.76699046e-003 7.76699046e-003 1.94174761e-003 3.88349523e-003
      7.76699046e-003 1.94174761e-003 9.70873795e-003 1.94174761e-003
      5.82524296e-003 9.70873795e-003 1.94174761e-003 1.55339809e-002
      5.82524296e-003 7.76699046e-003 1.35922330e-002 9.70873795e-003
      3.88349523e-003 5.82524296e-003 5.82524296e-003 1.94174761e-003
      5.82524296e-003 1.35922330e-002 1.16504859e-002 1.16504859e-002
      1.55339809e-002 1.16504859e-002 0. 3.88349523e-003 3.88349523e-003
      5.82524296e-003 3.88349523e-003</_>
    <_>
      6.54450245e-003 2.61780107e-003 1.30890054e-003 9.16230399e-003
      2.61780107e-003 1.17801046e-002 7.85340369e-003 6.54450245e-003
      3.92670184e-003 1.04712043e-002 7.85340369e-003 5.23560215e-003
      6.54450245e-003 3.92670184e-003 1.30890054e-003 9.16230399e-003
      1.17801046e-002 1.30890049e-002 6.54450245e-003 7.85340369e-003
      1.17801046e-002 3.92670184e-003 3.92670184e-003 1.30890054e-003
      7.85340369e-003 9.16230399e-003 5.23560215e-003 1.04712043e-002
      6.54450245e-003 1.30890054e-003 1.17801046e-002 9.16230399e-003
      3.92670184e-003 9.16230399e-003 6.54450245e-003 2.61780107e-003
      5.23560215e-003 9.16230399e-003 2.61780107e-003 6.54450245e-003
      3.92670184e-003 5.23560215e-003 2.61780107e-003 1.30890054e-003
      3.92670184e-003 1.30890054e-003 3.92670184e-003 6.54450245e-003
      6.54450245e-003 1.83246080e-002 5.23560215e-003 3.92670184e-003
      6.54450245e-003 2.61780107e-003 3.92670184e-003 6.54450245e-003
      3.92670184e-003 1.04712043e-002 9.16230399e-003 3.92670184e-003
      7.85340369e-003 5.23560215e-003 6.54450245e-003 3.92670184e-003
      3.92670184e-003 2.61780107e-003 1.17801046e-002 1.83246080e-002
      9.16230399e-003 6.54450245e-003 3.92670184e-003 1.70157067e-002
      2.61780107e-003 7.85340369e-003 0. 1.30890049e-002 7.85340369e-003
      3.92670184e-003 3.92670184e-003 1.30890054e-003 1.04712043e-002
      6.54450245e-003 3.92670184e-003 6.54450245e-003 1.70157067e-002
      1.83246080e-002 9.16230399e-003 1.17801046e-002 1.43979061e-002
      6.54450245e-003 5.23560215e-003 7.85340369e-003 2.61780107e-003
      1.17801046e-002 2.61780107e-003 6.54450245e-003 6.54450245e-003
      3.92670184e-003 5.23560215e-003 3.92670184e-003 6.54450245e-003
      1.30890054e-003 5.23560215e-003 5.23560215e-003 2.61780107e-003
      9.16230399e-003 1.04712043e-002 0. 3.92670184e-003 1.17801046e-002
      5.23560215e-003 7.85340369e-003 9.16230399e-003 6.54450245e-003
      1.17801046e-002 5.23560215e-003 9.16230399e-003 1.17801046e-002
      3.92670184e-003 3.92670184e-003 7.85340369e-003 5.23560215e-003
      3.92670184e-003 9.16230399e-003 6.54450245e-003 7.85340369e-003
      1.30890054e-003 1.04712043e-002 6.54450245e-003 1.17801046e-002
      5.23560215e-003 6.54450245e-003 1.30890054e-003 9.16230399e-003
      1.57068074e-002 6.54450245e-003 1.17801046e-002 2.61780107e-003
      1.17801046e-002 5.23560215e-003 5.23560215e-003 5.23560215e-003
      5.23560215e-003 2.61780107e-003 7.85340369e-003 6.54450245e-003
      5.23560215e-003 3.92670184e-003 6.54450245e-003 1.30890054e-003</_>
    <_>
      5.83090400e-003 5.83090400e-003 5.83090400e-003 2.91545200e-003
      2.91545200e-003 5.83090400e-003 1.74927115e-002 5.83090400e-003
      2.91545200e-003 8.74635577e-003 1.45772602e-002 2.91545200e-003 0.
      2.91545200e-003 8.74635577e-003 2.04081647e-002 8.74635577e-003
      5.83090400e-003 2.91545200e-003 8.74635577e-003 2.04081647e-002
      1.16618080e-002 0. 2.91545200e-003 2.91545200e-003 2.91545200e-003
      1.16618080e-002 8.74635577e-003 8.74635577e-003 0. 0.
      5.83090400e-003 0. 8.74635577e-003 0. 5.83090400e-003
      8.74635577e-003 5.83090400e-003 5.83090400e-003 8.74635577e-003
      1.16618080e-002 1.45772602e-002 1.16618080e-002 0. 5.83090400e-003
      0. 5.83090400e-003 8.74635577e-003 5.83090400e-003 2.91545200e-003
      2.91545200e-003 5.83090400e-003 8.74635577e-003 1.16618080e-002
      5.83090400e-003 0. 2.91545200e-003 5.83090400e-003 1.16618080e-002
      2.91545200e-003 0. 8.74635577e-003 2.91545200e-003 1.45772602e-002
      5.83090400e-003 0. 2.91545200e-003 5.83090400e-003 2.91545200e-003
      1.16618080e-002 1.45772602e-002 5.83090400e-003 0. 2.91545200e-003
      2.91545200e-003 2.04081647e-002 5.83090400e-003 0. 8.74635577e-003
      0. 5.83090400e-003 2.91545200e-003 0. 2.91545200e-003
      1.16618080e-002 5.83090400e-003 5.83090400e-003 5.83090400e-003
      2.91545200e-003 5.83090400e-003 5.83090400e-003 2.91545200e-003
      2.91545200e-003 5.83090400e-003 1.16618080e-002 8.74635577e-003
      5.83090400e-003 8.74635577e-003 2.91545200e-003 1.16618080e-002
      8.74635577e-003 1.45772602e-002 0. 0. 1.74927115e-002 0.
      8.74635577e-003 5.83090400e-003 2.91545200e-003 0. 8.74635577e-003
      2.91545200e-003 2.91545200e-003 0. 2.91545200e-003 2.91545200e-003
      0. 1.45772602e-002 5.83090400e-003 8.74635577e-003 0.
      2.91545200e-003 2.33236160e-002 8.74635577e-003 2.91545200e-003
      8.74635577e-003 0. 1.45772602e-002 2.91545200e-003 1.45772602e-002
      0. 1.16618080e-002 5.83090400e-003 2.91545200e-003 1.74927115e-002
      3.49854231e-002 8.74635577e-003 2.91545200e-003 2.91545200e-003
      5.83090400e-003 5.83090400e-003 1.74927115e-002 5.83090400e-003
