<?xml version="1.0"?>
<opencv_storage>
<my_svm type_id="opencv-ml-svm">
  <svm_type>C_SVC</svm_type>
  <kernel><type>RBF</type>
    <gamma>5.0625000000000009e-001</gamma></kernel>
  <C>6.2500000000000000e+001</C>
  <term_criteria><epsilon>1.1920928955078125e-007</epsilon>
    <iterations>1000</iterations></term_criteria>
  <var_all>150</var_all>
  <var_count>150</var_count>
  <class_count>2</class_count>
  <class_labels type_id="opencv-matrix">
    <rows>1</rows>
    <cols>2</cols>
    <dt>i</dt>
    <data>
      0 1</data></class_labels>
  <sv_total>146</sv_total>
  <support_vectors>
    <_>
      0. 0. 0. 0. 3.55329961e-002 5.07614203e-003 0. 5.07614203e-002 0.
      0. 5.07614203e-003 0. 1.01522841e-002 5.58375642e-002 0. 0. 0. 0.
      0. 1.01522841e-002 5.07614203e-003 5.07614203e-003 0. 0. 0.
      1.52284261e-002 0. 1.52284261e-002 0. 2.03045681e-002
      1.52284261e-002 1.01522841e-002 0. 5.07614203e-003 0. 0.
      3.04568522e-002 0. 0. 0. 2.03045681e-002 5.07614203e-003 0. 0.
      5.07614203e-003 1.01522841e-002 1.52284261e-002 5.07614203e-003 0.
      5.07614203e-003 0. 0. 0. 0. 5.07614203e-003 5.07614203e-003
      5.07614203e-003 0. 0. 1.52284261e-002 5.07614203e-003 0.
      5.07614203e-003 2.03045681e-002 5.07614203e-003 3.04568522e-002 0.
      5.07614203e-003 1.52284261e-002 3.04568522e-002 1.01522841e-002 0.
      5.07614203e-003 0. 5.07614203e-003 1.52284261e-002 0.
      5.07614203e-003 2.03045681e-002 5.07614203e-003 3.04568522e-002
      5.07614203e-003 5.07614203e-003 0. 1.52284261e-002 0.
      5.07614203e-003 0. 1.01522841e-002 1.52284261e-002 1.01522841e-002
      0. 2.03045681e-002 0. 1.01522841e-002 1.52284261e-002 0. 0.
      2.03045681e-002 5.07614203e-003 0. 0. 1.01522841e-002 0. 0. 0.
      2.03045681e-002 0. 5.07614203e-003 1.52284261e-002 0. 0.
      1.01522841e-002 0. 4.56852764e-002 0. 0. 1.52284261e-002
      5.07614203e-003 5.07614203e-003 1.01522841e-002 5.07614203e-003 0.
      0. 0. 5.07614203e-003 1.01522841e-002 5.07614203e-003 0. 0. 0. 0.
      5.07614203e-003 5.07614203e-003 0. 5.07614203e-003 5.07614203e-003
      0. 5.07614203e-003 0. 1.52284261e-002 5.07614203e-003
      1.01522841e-002 0. 0. 0. 0. 0. 2.03045681e-002 1.52284261e-002</_>
    <_>
      1.25000002e-002 0. 0. 6.25000009e-003 0. 6.25000009e-003
      6.25000009e-003 3.75000015e-002 0. 2.50000004e-002 6.25000009e-003
      0. 6.25000009e-003 0. 6.25000009e-003 1.25000002e-002
      1.87500007e-002 1.87500007e-002 0. 0. 1.87500007e-002 0. 0. 0. 0.
      0. 1.25000002e-002 0. 0. 2.50000004e-002 0. 0. 6.25000009e-003 0.
      1.25000002e-002 6.25000009e-003 0. 3.12500000e-002 0.
      6.25000009e-003 1.25000002e-002 0. 1.25000002e-002 1.25000002e-002
      0. 0. 0. 0. 0. 6.25000009e-003 6.25000009e-003 1.25000002e-002
      1.25000002e-002 1.25000002e-002 6.25000009e-003 0. 6.25000009e-003
      6.25000009e-003 0. 1.87500007e-002 0. 6.25000009e-003
      6.25000009e-003 1.25000002e-002 0. 6.25000009e-003 0. 0.
      6.25000009e-003 6.25000009e-003 6.25000009e-003 6.25000009e-003 0.
      6.25000009e-003 0. 1.25000002e-002 1.25000002e-002 0. 0. 0. 0.
      2.50000004e-002 6.25000009e-003 6.25000009e-003 0. 6.25000009e-003
      0. 0. 6.25000009e-003 1.25000002e-002 1.25000002e-002 0. 0.
      3.75000015e-002 6.25000009e-003 6.25000009e-003 6.25000009e-003
      1.25000002e-002 1.25000002e-002 5.00000007e-002 6.25000009e-003 0.
      0. 6.25000009e-003 6.25000009e-003 0. 0. 1.25000002e-002 0.
      1.25000002e-002 6.25000009e-003 3.12500000e-002 0. 0.
      4.37499993e-002 0. 0. 1.25000002e-002 0. 0. 0. 0. 1.87500007e-002
      1.25000002e-002 1.25000002e-002 0. 1.87500007e-002 0.
      6.25000009e-003 0. 1.25000002e-002 6.25000009e-003 2.50000004e-002
      6.25000009e-003 0. 6.25000009e-003 0. 0. 6.25000009e-003
      6.25000009e-003 0. 0. 0. 0. 6.25000009e-003 6.25000009e-003 0.
      1.25000002e-002 0. 0.</_>
    <_>
      5.81395347e-003 0. 5.81395347e-003 0. 1.45348832e-002
      8.72093067e-003 0. 5.81395328e-002 2.03488376e-002 1.45348832e-002
      0. 2.90697673e-003 5.81395347e-003 4.06976752e-002 2.90697673e-003
      5.81395347e-003 8.72093067e-003 5.81395347e-003 5.81395347e-003
      2.90697673e-003 5.81395347e-003 0. 8.72093067e-003 5.81395347e-003
      3.19767445e-002 5.81395347e-003 0. 5.81395347e-003 0.
      2.90697673e-003 0. 1.16279069e-002 5.81395347e-003 2.90697673e-003
      0. 1.16279069e-002 1.16279069e-002 0. 0. 5.81395347e-003
      1.16279069e-002 2.61627901e-002 2.90697673e-003 0. 0.
      8.72093067e-003 5.81395347e-003 0. 0. 0. 0. 0. 0. 0.
      5.81395347e-003 0. 0. 0. 0. 1.16279069e-002 2.90697673e-003
      8.72093067e-003 5.81395347e-003 0. 5.81395347e-003 2.32558139e-002
      0. 0. 1.16279069e-002 0. 0. 2.90697673e-003 0. 0. 0.
      1.16279069e-002 2.90697673e-003 2.90697673e-003 2.90697673e-003
      1.45348832e-002 1.16279069e-002 1.45348832e-002 0. 2.90697673e-003
      2.90697673e-003 1.45348832e-002 0. 8.72093067e-003 5.81395347e-003
      2.90697673e-003 2.90697673e-003 8.72093067e-003 4.36046496e-002
      2.90697673e-003 8.72093067e-003 0. 0. 5.81395347e-003 0.
      2.32558139e-002 0. 1.45348832e-002 5.81395347e-003 2.90697673e-003
      2.90697673e-003 0. 1.74418613e-002 3.48837227e-002 0.
      1.45348832e-002 2.90697673e-003 5.81395347e-003 0. 0.
      8.72093067e-003 1.45348832e-002 5.81395347e-003 2.61627901e-002
      8.72093067e-003 8.72093067e-003 2.90697673e-003 2.90697673e-003
      2.90697673e-003 2.90697673e-003 0. 2.90697673e-003 5.81395347e-003
      8.72093067e-003 2.90697673e-003 0. 1.16279069e-002 0.
      1.45348832e-002 0. 0. 1.45348832e-002 0. 0. 1.45348832e-002
      5.81395347e-003 3.77906971e-002 1.16279069e-002 5.81395347e-003
      5.81395347e-003 2.90697673e-003 0. 0. 0. 1.16279069e-002
      2.90697673e-003</_>
    <_>
      1.07142860e-002 1.07142860e-002 3.57142859e-003 0. 4.28571440e-002
      3.57142859e-003 3.57142859e-003 2.50000004e-002 1.07142860e-002
      1.42857144e-002 3.57142859e-003 3.57142859e-003 1.07142860e-002 0.
      0. 3.57142859e-003 0. 7.14285718e-003 0. 1.78571437e-002
      1.07142860e-002 7.14285718e-003 0. 3.57142859e-003 1.07142860e-002
      1.42857144e-002 1.07142860e-002 3.57142859e-003 0. 1.42857144e-002
      1.42857144e-002 3.57142859e-003 1.78571437e-002 7.14285718e-003
      1.07142860e-002 0. 7.14285718e-003 1.42857144e-002 0. 0. 0.
      3.57142859e-003 1.42857144e-002 0. 0. 3.57142859e-003 0.
      3.57142859e-003 3.57142859e-003 3.57142859e-003 3.57142859e-003
      3.57142859e-003 7.14285718e-003 3.57142859e-003 7.14285718e-003 0.
      2.14285720e-002 0. 0. 3.57142859e-003 3.57142859e-003
      3.57142859e-003 7.14285718e-003 3.57142859e-003 7.14285718e-003
      1.42857144e-002 7.14285718e-003 7.14285718e-003 3.57142859e-003
      3.57142859e-003 3.57142859e-003 3.57142859e-003 3.21428590e-002
      7.14285718e-003 0. 1.07142860e-002 3.57142859e-003 0.
      2.50000004e-002 3.57142859e-003 3.57142859e-003 1.42857144e-002
      3.57142859e-003 0. 1.07142860e-002 0. 3.57142859e-003 0.
      3.57142859e-003 1.42857144e-002 0. 3.57142859e-003 7.14285718e-003
      1.42857144e-002 0. 3.57142859e-003 0. 1.07142860e-002
      3.57142859e-003 1.07142860e-002 7.14285718e-003 1.78571437e-002
      3.57142859e-003 7.14285718e-003 7.14285718e-003 3.57142859e-003
      3.57142859e-003 7.14285718e-003 0. 2.14285720e-002 0. 0.
      3.57142859e-003 1.07142860e-002 1.78571437e-002 0. 3.57142859e-003
      4.28571440e-002 2.50000004e-002 3.57142859e-003 3.57142859e-003 0.
      7.14285718e-003 3.57142859e-003 1.42857144e-002 3.57142859e-003
      1.78571437e-002 0. 1.07142860e-002 0. 7.14285718e-003
      3.57142859e-003 0. 1.07142860e-002 0. 1.42857144e-002
      7.14285718e-003 3.57142859e-003 7.14285718e-003 3.57142859e-003
      3.57142859e-003 1.07142860e-002 0. 0. 7.14285718e-003 0. 0.
      1.42857144e-002 0. 0.</_>
    <_>
      0. 0. 0. 8.46023671e-003 0. 5.07614203e-003 3.38409469e-003
      1.86125208e-002 1.69204734e-003 3.38409469e-003 1.69204734e-003 0.
      1.69204734e-003 0. 5.07614203e-003 5.07614203e-003 1.01522841e-002
      1.18443314e-002 1.69204734e-003 8.46023671e-003 5.07614203e-003
      1.01522841e-002 1.69204734e-003 1.69204734e-003 1.01522841e-002
      1.69204734e-003 0. 5.07614203e-003 0. 4.06091362e-002
      5.07614203e-003 1.69204734e-003 3.38409469e-003 3.38409469e-003
      5.07614203e-003 3.38409469e-003 6.76818937e-003 6.76818937e-003
      5.07614203e-003 3.38409469e-003 6.76818937e-003 1.69204734e-003
      5.07614203e-003 1.01522841e-002 1.69204734e-003 1.69204734e-003
      1.86125208e-002 5.07614203e-003 1.69204734e-003 5.07614203e-003
      1.18443314e-002 0. 8.46023671e-003 0. 6.76818937e-003 0.
      1.69204734e-003 1.69204734e-003 1.69204734e-003 8.46023671e-003
      5.07614203e-003 0. 5.07614203e-003 1.69204734e-003 1.69204734e-003
      3.38409469e-003 1.01522841e-002 5.07614203e-003 0. 1.35363787e-002
      3.38409469e-003 5.07614203e-003 3.38409469e-003 5.07614203e-003
      1.69204734e-003 1.69204734e-003 5.07614203e-003 3.38409469e-003
      1.69204734e-003 0. 1.69204734e-003 6.76818937e-003 3.38409469e-003
      0. 5.07614203e-003 5.07614203e-003 1.69204734e-003 6.76818937e-003
      6.76818937e-003 0. 1.01522841e-002 1.69204734e-003 1.69204734e-003
      3.72250415e-002 0. 6.76818937e-003 1.69204734e-003 1.35363787e-002
      1.69204734e-002 2.03045681e-002 1.69204734e-002 1.18443314e-002
      1.69204734e-003 1.69204734e-003 0. 1.69204734e-003 1.01522841e-002
      2.50423014e-001 6.76818937e-003 0. 1.69204734e-003 1.35363787e-002
      1.18443314e-002 5.07614203e-003 8.46023671e-003 3.38409469e-003 0.
      2.36886628e-002 0. 1.69204734e-003 0. 3.38409469e-003
      5.07614203e-003 5.07614203e-003 1.69204734e-003 5.07614203e-003
      3.38409469e-003 1.69204734e-003 6.76818937e-003 1.69204734e-003
      5.07614203e-003 5.07614203e-003 8.46023671e-003 0. 1.69204734e-003
      3.38409469e-003 1.01522841e-002 0. 0. 3.38409469e-003
      1.69204734e-003 3.38409469e-003 1.69204734e-003 3.38409469e-003
      3.38409469e-003 0. 1.69204734e-003 6.76818937e-003 1.69204734e-003
      6.76818937e-003</_>
    <_>
      0. 0. 5.58659201e-003 0. 1.50837988e-001 0. 0. 2.79329605e-002 0.
      5.58659201e-003 5.58659201e-003 1.11731840e-002 1.67597756e-002 0.
      0. 1.11731840e-002 0. 1.67597756e-002 0. 0. 1.11731840e-002 0. 0.
      0. 1.11731840e-002 5.58659201e-003 0. 5.58659201e-003 0. 0.
      5.58659201e-003 2.23463681e-002 1.67597756e-002 5.58659201e-003 0.
      0. 1.11731840e-002 1.11731840e-002 0. 0. 2.23463681e-002
      1.67597756e-002 0. 1.11731840e-002 1.11731840e-002 5.58659201e-003
      1.11731840e-002 0. 1.67597756e-002 0. 0. 0. 0. 0. 2.23463681e-002
      0. 5.58659201e-003 0. 0. 0. 2.23463681e-002 0. 5.58659201e-003
      5.58659201e-003 1.11731840e-002 1.67597756e-002 0. 0. 0.
      5.58659201e-003 0. 0. 5.58659201e-003 5.58659201e-003 0.
      2.23463681e-002 5.58659201e-003 5.58659201e-003 5.58659201e-003
      1.67597756e-002 5.58659201e-003 5.58659201e-003 1.11731840e-002 0.
      0. 5.58659201e-003 0. 0. 0. 5.58659201e-003 5.58659201e-003 0.
      1.67597756e-002 0. 0. 5.58659201e-003 0. 0. 2.79329605e-002
      5.58659201e-003 0. 0. 5.58659201e-003 0. 0. 1.11731840e-002
      3.91061455e-002 0. 5.58659201e-003 0. 0. 5.58659201e-003
      1.11731840e-002 0. 1.11731840e-002 0. 0. 1.67597756e-002
      5.58659201e-003 5.58659201e-003 5.58659201e-003 0. 5.58659201e-003
      0. 5.58659201e-003 0. 5.58659201e-003 5.58659201e-003 0. 0.
      2.23463681e-002 0. 0. 0. 0. 0. 0. 0. 5.58659201e-003
      1.67597756e-002 3.91061455e-002 5.58659201e-003 1.11731840e-002 0.
      0. 0. 5.58659201e-003 0. 3.35195512e-002 5.58659201e-003</_>
    <_>
      7.57575780e-003 7.57575780e-003 3.78787890e-003 0. 1.62878796e-001
      0. 1.13636367e-002 3.78787890e-002 0. 0. 0. 0. 1.51515156e-002
      3.78787890e-003 0. 0. 3.78787890e-003 3.78787890e-003 0. 0.
      7.57575780e-003 3.78787890e-003 0. 0. 7.57575780e-003 0. 0.
      3.78787890e-003 0. 3.78787890e-002 0. 1.13636367e-002
      1.51515156e-002 0. 3.78787890e-003 0. 0. 0. 3.78787890e-003 0.
      3.78787890e-003 3.78787890e-003 1.89393945e-002 0. 0. 0. 0.
      7.57575780e-003 0. 7.57575780e-003 3.78787890e-003 1.51515156e-002
      7.57575780e-003 0. 7.57575780e-003 3.78787890e-003 3.78787890e-003
      3.78787890e-003 1.13636367e-002 3.78787890e-003 3.78787890e-003 0.
      0. 1.13636367e-002 0. 1.02272734e-001 3.78787890e-003 0. 0.
      3.78787890e-003 0. 0. 7.57575780e-003 0. 0. 1.89393945e-002
      1.89393945e-002 0. 1.51515156e-002 1.13636367e-002 3.78787890e-003
      7.57575780e-003 0. 3.78787890e-003 0. 0. 0. 0. 0. 7.57575780e-003
      1.13636367e-002 3.78787890e-003 0. 2.27272734e-002 0. 0.
      1.13636367e-002 3.78787890e-003 0. 0. 3.78787890e-003 0. 0. 0.
      7.57575780e-003 7.57575780e-003 7.57575780e-003 1.51515156e-002 0.
      1.89393945e-002 3.78787890e-003 0. 0. 0. 0. 0. 0. 1.51515156e-002
      1.51515156e-002 0. 1.13636367e-002 0. 0. 0. 1.13636367e-002
      1.51515156e-002 1.13636367e-002 3.78787890e-003 1.51515156e-002
      3.78787890e-003 0. 0. 1.89393945e-002 1.13636367e-002
      3.78787890e-003 2.65151523e-002 3.78787890e-003 0. 0.
      1.51515156e-002 0. 1.89393945e-002 3.78787890e-003 0. 0. 0. 0.
      3.78787890e-003 0. 0.</_>
    <_>
      8.03212821e-003 8.03212821e-003 4.01606411e-003 6.69344049e-003
      4.01606411e-003 1.33868807e-003 4.01606411e-003 1.47255687e-002
      1.33868807e-003 9.37081687e-003 2.67737615e-003 1.33868807e-003
      4.01606411e-003 5.35475230e-003 4.01606411e-003 8.03212821e-003
      1.07095046e-002 1.60642564e-002 6.69344049e-003 6.69344049e-003
      8.03212821e-003 1.07095046e-002 8.03212821e-003 2.67737615e-003
      4.01606411e-003 6.69344049e-003 2.67737615e-003 1.33868807e-003
      1.33868807e-003 1.07095046e-002 1.07095046e-002 4.01606411e-003
      5.35475230e-003 6.69344049e-003 9.37081687e-003 4.01606411e-003
      6.69344049e-003 8.03212821e-003 5.35475230e-003 4.01606411e-003
      4.01606411e-003 4.01606411e-003 5.35475230e-003 1.33868810e-002
      8.03212821e-003 5.35475230e-003 5.35475230e-003 1.60642564e-002
      4.01606411e-003 6.69344049e-003 1.07095046e-002 5.35475230e-003
      5.35475230e-003 1.33868810e-002 5.35475230e-003 2.67737615e-003
      1.33868807e-003 6.69344049e-003 1.20481923e-002 2.67737615e-003
      1.33868807e-003 1.60642564e-002 1.33868807e-003 1.20481923e-002
      8.03212821e-003 1.20481923e-002 9.37081687e-003 9.37081687e-003
      4.01606411e-003 2.81124488e-002 6.69344049e-003 4.01606411e-003
      1.60642564e-002 1.33868807e-003 4.01606411e-003 1.33868807e-003
      4.01606411e-003 1.33868807e-003 1.20481923e-002 2.67737615e-003
      9.37081687e-003 9.37081687e-003 1.20481923e-002 2.67737615e-003
      1.20481923e-002 4.01606411e-003 4.01606411e-003 1.33868807e-003
      1.07095046e-002 4.01606411e-003 1.33868810e-002 6.69344049e-003
      6.69344049e-003 5.35475230e-003 9.37081687e-003 8.03212821e-003
      9.37081687e-003 1.20481923e-002 2.67737615e-003 4.01606411e-003
      8.03212821e-003 5.35475230e-003 9.37081687e-003 8.03212821e-003
      5.35475230e-003 2.67737615e-003 9.37081687e-003 2.67737615e-003
      8.03212821e-003 1.33868810e-002 4.01606411e-003 1.47255687e-002
      4.01606411e-003 4.01606411e-003 1.07095046e-002 0. 1.20481923e-002
      1.33868810e-002 5.35475230e-003 4.01606411e-003 5.35475230e-003 0.
      4.01606411e-003 2.67737615e-003 5.35475230e-003 4.01606411e-003
      8.03212821e-003 5.35475230e-003 9.37081687e-003 6.69344049e-003
      1.07095046e-002 5.35475230e-003 1.07095046e-002 8.03212821e-003
      1.07095046e-002 5.35475230e-003 2.67737615e-003 5.35475230e-003
      2.67737615e-003 6.69344049e-003 5.35475230e-003 2.67737615e-003
      2.67737615e-003 2.67737615e-003 6.69344049e-003 6.69344049e-003
      5.35475230e-003 9.37081687e-003 4.01606411e-003 2.67737615e-003</_>
    <_>
      1.09890113e-002 0. 1.09890113e-002 0. 3.29670347e-002 0. 0. 0. 0.
      3.29670347e-002 0. 0. 1.09890113e-002 1.09890113e-002 0. 0. 0.
      1.09890113e-002 1.09890113e-002 0. 2.19780225e-002 1.09890113e-002
      0. 1.09890113e-002 0. 0. 3.29670347e-002 0. 0. 0. 0.
      2.19780225e-002 1.09890113e-002 1.09890113e-002 0. 2.19780225e-002
      0. 0. 0. 0. 1.09890113e-002 0. 0. 0. 0. 1.09890113e-002 0.
      2.19780225e-002 1.09890113e-002 1.09890113e-002 1.09890113e-002 0.
      0. 2.19780225e-002 0. 0. 1.09890113e-002 0. 0. 1.09890113e-002 0.
      1.09890113e-002 0. 0. 0. 1.09890113e-002 0. 1.09890113e-002
      2.19780225e-002 3.29670347e-002 0. 0. 0. 0. 0. 1.09890113e-002 0.
      1.09890113e-002 1.09890113e-002 3.29670347e-002 2.19780225e-002 0.
      0. 0. 0. 0. 1.09890113e-002 0. 0. 1.09890113e-002 1.09890113e-002
      0. 0. 0. 0. 0. 0. 0. 0. 4.39560451e-002 2.19780225e-002 0. 0. 0.
      0. 2.19780225e-002 0. 0. 3.29670347e-002 0. 1.09890113e-002
      1.09890113e-002 1.09890113e-002 3.29670347e-002 1.09890113e-002 0.
      0. 0. 1.09890113e-002 0. 1.09890113e-002 0. 0. 0. 0. 0. 0.
      2.19780225e-002 0. 0. 4.39560451e-002 1.09890113e-002
      1.09890113e-002 0. 0. 1.09890113e-002 0. 0. 1.09890113e-002
      1.09890113e-002 0. 1.09890113e-002 1.09890113e-002 1.09890113e-002
      0. 1.09890113e-002 1.09890113e-002 0. 0. 0.</_>
    <_>
      7.98403192e-003 3.99201596e-003 1.99600793e-002 3.99201596e-003
      1.19760484e-002 1.99600798e-003 9.98003967e-003 7.98403192e-003
      1.39720561e-002 0. 1.99600798e-003 2.19560880e-002 3.99201596e-003
      7.98403192e-003 7.98403192e-003 1.99600798e-003 1.99600798e-003
      1.19760484e-002 3.99201596e-003 1.99600798e-003 7.98403192e-003
      3.99201596e-003 3.99201596e-003 3.99201596e-003 1.99600798e-003
      5.98802418e-003 7.98403192e-003 0. 1.99600798e-003 9.98003967e-003
      0. 7.98403192e-003 0. 7.98403192e-003 1.39720561e-002
      3.99201596e-003 7.98403192e-003 9.98003967e-003 5.98802418e-003 0.
      1.99600798e-003 1.79640725e-002 1.99600798e-003 9.98003967e-003
      1.99600798e-003 9.98003967e-003 0. 1.99600798e-003 5.98802418e-003
      5.98802418e-003 3.99201596e-003 7.98403192e-003 5.98802418e-003
      5.98802418e-003 7.98403192e-003 5.98802418e-003 1.59680638e-002
      1.99600798e-003 9.98003967e-003 5.98802418e-003 7.98403192e-003
      1.39720561e-002 0. 3.99201596e-003 1.39720561e-002 3.19361277e-002
      1.99600798e-003 1.99600798e-003 3.99201596e-003 1.79640725e-002
      1.99600798e-003 1.39720561e-002 1.19760484e-002 3.99201596e-003
      3.99201596e-003 9.98003967e-003 5.98802418e-003 3.99201596e-003
      1.99600798e-003 7.98403192e-003 5.98802418e-003 3.99201596e-003
      5.98802418e-003 5.98802418e-003 1.99600798e-003 9.98003967e-003
      1.99600798e-003 1.99600798e-003 0. 3.99201596e-003 5.98802418e-003
      7.98403192e-003 7.98403192e-003 1.19760484e-002 3.99201596e-003 0.
      7.98403192e-003 1.99600798e-003 1.99600798e-003 9.98003967e-003
      1.39720561e-002 5.98802418e-003 1.99600798e-003 1.99600798e-003
      9.98003967e-003 1.99600798e-003 5.98802418e-003 1.59680638e-002
      1.99600798e-003 1.99600798e-003 0. 3.99201596e-003 5.98802418e-003
      3.99201596e-003 0. 3.99201596e-003 5.98802418e-003 9.98003967e-003
      1.99600798e-003 3.99201596e-003 1.59680638e-002 3.99201596e-003
      5.98802418e-003 9.98003967e-003 1.99600798e-003 5.98802418e-003 0.
      0. 1.19760484e-002 9.98003967e-003 1.99600793e-002 3.99201596e-003
      1.59680638e-002 5.98802418e-003 1.19760484e-002 9.98003967e-003
      1.39720561e-002 0. 1.99600798e-003 1.99600798e-003 2.79441122e-002
      1.79640725e-002 5.98802418e-003 1.39720561e-002 7.98403192e-003
      5.98802418e-003 3.99201596e-003 0. 9.98003967e-003 3.99201596e-003</_>
    <_>
      9.78792831e-003 6.52528554e-003 9.78792831e-003 1.63132139e-003
      1.95758566e-002 0. 4.89396416e-003 8.15660693e-003 9.78792831e-003
      8.15660693e-003 3.26264277e-003 1.63132139e-003 6.52528554e-003
      4.89396416e-003 8.15660693e-003 4.89396416e-003 3.26264277e-003
      1.63132139e-003 4.89396416e-003 6.52528554e-003 6.52528554e-003
      1.63132139e-002 0. 6.52528554e-003 9.78792831e-003 8.15660693e-003
      9.78792831e-003 1.63132139e-003 1.63132139e-003 4.73083183e-002
      4.89396416e-003 1.79445352e-002 1.63132139e-003 9.78792831e-003
      9.78792831e-003 6.52528554e-003 8.15660693e-003 0. 0.
      1.63132139e-003 0. 8.15660693e-003 6.52528554e-003 4.89396416e-003
      1.63132139e-003 1.63132139e-003 1.63132139e-003 1.63132139e-003
      3.26264277e-003 1.63132139e-003 3.26264277e-003 4.89396416e-003
      3.26264277e-003 9.78792831e-003 1.14192497e-002 3.26264277e-003
      9.78792831e-003 2.44698208e-002 9.78792831e-003 3.26264277e-003
      4.89396416e-003 9.78792831e-003 4.89396416e-003 1.63132139e-003
      3.26264277e-003 1.79445352e-002 1.63132139e-003 4.89396416e-003
      4.89396416e-003 8.15660655e-002 0. 9.78792831e-003 8.15660693e-003
      3.26264277e-003 0. 6.52528554e-003 8.15660693e-003 1.63132139e-003
      9.78792831e-003 9.78792831e-003 3.26264277e-003 1.63132139e-003
      4.89396416e-003 6.52528554e-003 3.26264277e-003 1.63132139e-003
      6.52528554e-003 0. 8.15660693e-003 0. 6.52528554e-003
      3.26264277e-003 6.52528554e-003 4.89396416e-003 1.63132139e-003
      1.63132139e-003 1.46818925e-002 1.14192497e-002 1.63132139e-003
      8.15660693e-003 8.15660693e-003 4.89396416e-003 4.89396416e-003
      4.89396416e-003 8.15660693e-003 4.89396416e-003 0. 8.15660693e-003
      8.15660693e-003 1.30505711e-002 3.26264277e-003 6.52528554e-003
      1.63132139e-003 8.15660693e-003 1.30505711e-002 3.26264277e-003
      3.26264277e-003 0. 3.26264277e-003 3.26264277e-003 4.89396416e-003
      1.63132139e-003 1.14192497e-002 1.63132139e-003 1.63132139e-003
      3.26264277e-003 0. 1.63132139e-003 1.30505711e-002 3.26264277e-003
      9.78792831e-003 6.52528554e-003 9.78792831e-003 3.26264277e-003
      4.89396416e-003 2.28384994e-002 0. 6.52528554e-003 6.52528554e-003
      1.63132139e-003 1.30505711e-002 3.26264277e-003 1.30505711e-002
      4.89396416e-003 1.30505711e-002 6.52528554e-003 6.52528554e-003
      3.26264277e-003 1.30505711e-002 3.26264277e-003</_>
    <_>
      0. 2.12765951e-003 4.25531901e-003 4.25531901e-003 0.
      1.06382975e-002 2.12765951e-003 1.48936165e-002 6.38297852e-003
      8.51063803e-003 0. 2.12765951e-003 2.12765951e-003 0.
      3.61702107e-002 1.06382975e-002 4.25531901e-003 0. 0.
      2.55319141e-002 4.25531901e-003 0. 8.51063803e-003 1.70212761e-002
      0. 0. 4.25531901e-003 8.51063803e-003 8.51063803e-003
      6.38297852e-003 6.38297852e-003 1.06382975e-002 6.38297852e-003
      6.38297852e-003 4.25531901e-003 6.38297852e-003 2.12765951e-003
      4.25531901e-003 6.38297852e-003 1.48936165e-002 8.51063803e-003
      4.25531901e-003 2.12765951e-003 4.25531901e-003 6.38297852e-003
      4.25531901e-003 2.12765951e-003 4.25531901e-003 1.06382975e-002
      2.12765951e-003 4.25531901e-003 6.38297852e-003 0. 0.
      2.76595727e-002 1.06382975e-002 4.25531901e-003 0. 4.25531901e-003
      1.06382975e-002 4.25531901e-003 4.25531901e-003 2.12765951e-003
      8.51063803e-003 1.70212761e-002 4.25531901e-003 0. 1.48936165e-002
      8.51063803e-003 0. 8.51063803e-003 0. 0. 1.06382975e-002
      1.06382975e-002 6.38297852e-003 2.12765951e-003 1.91489346e-002
      8.51063803e-003 6.38297852e-003 6.38297852e-003 6.38297852e-003
      8.51063803e-003 2.76595727e-002 2.12765951e-003 6.38297852e-003
      8.51063803e-003 6.38297852e-003 4.25531901e-003 1.27659570e-002 0.
      1.70212761e-002 1.06382975e-002 0. 8.51063803e-003 6.38297852e-003
      1.06382975e-002 0. 6.38297852e-003 2.12765951e-003 2.12765951e-003
      1.48936165e-002 2.34042555e-002 1.27659570e-002 2.12765951e-003 0.
      8.51063803e-003 0. 2.12765951e-003 2.12765951e-003 6.38297852e-003
      2.12765951e-003 8.51063803e-003 8.51063803e-003 1.70212761e-002
      1.91489346e-002 2.12765951e-002 2.97872331e-002 2.12765951e-003
      4.25531901e-003 0. 4.25531901e-003 0. 6.38297852e-003 0.
      4.25531901e-003 1.06382975e-002 4.25531901e-003 2.12765951e-003
      4.25531901e-003 6.38297852e-003 0. 0. 2.12765951e-003 0. 0.
      4.25531901e-003 6.38297852e-003 4.25531901e-003 8.51063803e-003
      1.06382975e-002 0. 4.25531901e-003 2.97872331e-002 0.
      4.25531901e-003 6.38297852e-003 4.25531901e-003 8.51063803e-003
      1.27659570e-002</_>
    <_>
      1.13636367e-002 5.68181835e-003 5.68181835e-003 0. 0.
      5.68181835e-003 1.13636367e-002 3.97727266e-002 0. 1.13636367e-002
      0. 5.68181835e-003 1.13636367e-002 0. 0. 1.13636367e-002 0.
      1.13636367e-002 0. 0. 1.13636367e-002 0. 0. 0. 5.68181835e-003
      1.70454551e-002 2.27272734e-002 5.68181835e-003 0. 1.13636367e-002
      5.68181835e-003 5.68181835e-003 1.70454551e-002 0. 5.68181835e-003
      0. 0. 5.68181835e-003 0. 5.68181835e-003 1.13636367e-002 0. 0. 0.
      5.68181835e-003 0. 1.13636367e-002 0. 0. 0. 0. 1.13636367e-002
      5.68181835e-003 1.13636367e-002 1.13636367e-002 0. 1.13636367e-002
      0. 1.70454551e-002 1.13636367e-002 0. 1.13636367e-002 0. 0. 0.
      3.40909101e-002 0. 0. 1.13636367e-002 1.13636367e-002 0. 0.
      5.68181835e-003 0. 0. 1.70454551e-002 1.13636367e-002 0.
      1.70454551e-002 5.11363670e-002 5.68181835e-003 0. 0.
      5.68181835e-003 1.13636367e-002 0. 0. 0. 0. 0. 5.68181835e-003 0.
      0. 1.13636367e-002 0. 0. 0. 0. 2.27272734e-002 0. 0.
      1.13636367e-002 0. 0. 2.27272734e-002 5.68181835e-003
      1.70454551e-002 2.27272734e-002 0. 4.54545468e-002 1.70454551e-002
      1.13636367e-002 0. 0. 1.13636367e-002 0. 0. 8.52272734e-002 0.
      5.68181835e-003 0. 0. 5.68181835e-003 0. 0. 0. 5.68181835e-003 0.
      1.70454551e-002 0. 3.97727266e-002 5.68181835e-003 1.13636367e-002
      5.68181835e-003 5.68181835e-003 5.68181835e-003 0. 0.
      1.13636367e-002 0. 0. 0. 0. 0. 1.13636367e-002 1.13636367e-002 0.
      1.13636367e-002 5.68181835e-003 0.</_>
    <_>
      3.92156886e-003 6.53594779e-003 1.30718958e-003 1.17647061e-002
      5.22875832e-003 1.17647061e-002 1.04575166e-002 2.48366017e-002
      1.56862754e-002 9.15032718e-003 1.43790850e-002 0. 3.92156886e-003
      0. 1.69934649e-002 7.84313772e-003 1.30718958e-003 2.61437916e-003
      1.30718958e-003 2.09150333e-002 3.92156886e-003 3.92156886e-003
      5.22875832e-003 5.22875832e-003 2.61437916e-003 6.53594779e-003
      9.15032718e-003 9.15032718e-003 2.09150333e-002 6.53594779e-003
      6.53594779e-003 3.92156886e-003 6.53594779e-003 1.43790850e-002
      1.30718958e-003 1.69934649e-002 3.92156886e-003 5.22875832e-003
      2.61437916e-003 3.92156886e-003 0. 2.61437916e-003 5.22875832e-003
      3.92156886e-003 1.30718958e-003 2.61437916e-003 2.61437916e-003
      2.61437916e-003 1.17647061e-002 1.30718958e-003 3.92156886e-003
      1.30718956e-002 5.22875832e-003 2.61437916e-003 7.84313772e-003
      2.61437916e-003 7.84313772e-003 5.22875832e-003 5.22875832e-003
      5.22875832e-003 3.92156886e-003 2.61437916e-003 1.30718958e-003
      2.61437916e-003 5.22875832e-003 5.22875832e-003 2.61437916e-003
      9.15032718e-003 2.61437916e-003 6.53594779e-003 5.22875832e-003
      2.61437916e-003 3.92156886e-003 1.43790850e-002 6.53594779e-003
      6.53594779e-003 7.84313772e-003 6.53594779e-003 7.84313772e-003
      5.22875832e-003 1.43790850e-002 1.04575166e-002 2.61437916e-003
      2.09150333e-002 2.61437916e-003 1.17647061e-002 6.53594779e-003
      3.92156886e-003 5.22875832e-003 7.84313772e-003 1.30718958e-003
      6.53594779e-003 0. 1.30718958e-003 1.17647061e-002 2.61437916e-003
      1.30718956e-002 1.96078438e-002 2.61437916e-003 3.92156886e-003
      1.30718958e-003 6.53594779e-003 3.92156886e-003 9.15032718e-003
      6.53594779e-003 6.53594779e-003 0. 6.53594779e-003 6.53594779e-003
      2.61437916e-003 1.04575166e-002 3.92156886e-003 1.30718958e-003
      1.69934649e-002 1.69934649e-002 1.30718956e-002 1.17647061e-002
      3.26797403e-002 1.30718958e-003 5.22875832e-003 1.30718958e-003
      6.53594779e-003 9.15032718e-003 1.04575166e-002 3.92156886e-003
      6.53594779e-003 3.92156886e-003 9.15032718e-003 1.17647061e-002
      5.22875832e-003 3.92156886e-003 1.30718958e-003 6.53594779e-003
      9.15032718e-003 3.92156886e-003 2.61437916e-003 3.92156886e-003
      1.43790850e-002 1.30718958e-003 6.53594779e-003 1.30718958e-003
      2.61437916e-003 3.92156886e-003 7.84313772e-003 3.92156886e-003
      5.22875832e-003 7.84313772e-003 9.15032718e-003 3.92156886e-003
      1.04575166e-002</_>
    <_>
      1.06100794e-002 5.30503970e-003 2.65251985e-003 2.65251985e-003
      1.06100794e-002 7.95755908e-003 7.95755908e-003 1.85676385e-002
      5.30503970e-003 1.06100794e-002 5.30503970e-003 2.65251985e-003
      7.95755908e-003 1.32625997e-002 5.30503970e-003 7.95755908e-003
      1.85676385e-002 1.06100794e-002 0. 0. 1.32625997e-002
      5.30503970e-003 1.06100794e-002 0. 1.06100794e-002 0. 0.
      1.32625997e-002 5.30503970e-003 3.97877991e-002 1.32625997e-002
      2.65251985e-003 1.59151182e-002 0. 5.30503970e-003 0.
      5.30503970e-003 2.12201588e-002 7.95755908e-003 2.65251985e-003
      1.06100794e-002 2.65251985e-003 7.95755908e-003 1.59151182e-002
      2.65251985e-003 0. 1.32625997e-002 5.30503970e-003 2.65251985e-003
      1.32625997e-002 1.06100794e-002 2.65251985e-003 5.30503970e-003 0.
      5.30503970e-003 7.95755908e-003 2.65251985e-003 5.30503970e-003
      7.95755908e-003 0. 1.32625997e-002 2.65251985e-003 0.
      1.06100794e-002 2.65251985e-003 1.59151182e-002 2.65251985e-003
      1.32625997e-002 1.06100794e-002 2.65251985e-003 2.65251985e-003
      2.65251985e-003 2.65251985e-003 2.65251985e-003 2.65251985e-003
      7.95755908e-003 2.65251985e-003 5.30503970e-003 5.30503970e-003
      2.65251985e-003 2.65251985e-003 1.32625997e-002 2.65251985e-003 0.
      1.59151182e-002 5.30503970e-003 1.06100794e-002 5.30503970e-003
      7.95755908e-003 0. 0. 0. 1.59151182e-002 1.06100794e-002
      2.65251985e-003 1.32625997e-002 5.30503970e-003 1.85676385e-002
      1.06100794e-002 1.32625997e-002 5.30503970e-003 5.30503970e-003 0.
      2.65251985e-003 5.30503970e-003 7.95755908e-003 1.59151182e-002
      5.30503970e-003 2.65251985e-003 0. 0. 1.06100794e-002
      5.30503970e-003 2.65251985e-003 2.38726791e-002 0. 7.95755908e-003
      1.32625997e-002 2.65251985e-003 1.06100794e-002 7.95755908e-003
      5.30503970e-003 5.30503970e-003 0. 1.59151182e-002 2.65251985e-003
      0. 5.30503970e-003 0. 1.32625997e-002 5.30503970e-003
      2.65251985e-003 2.65251985e-003 0. 2.65251985e-003 2.65251985e-003
      0. 2.65251985e-003 5.30503970e-003 1.59151182e-002 7.95755908e-003
      7.95755908e-003 1.06100794e-002 2.65251985e-003 1.06100794e-002 0.
      0. 1.85676385e-002 2.65251985e-003 2.65251985e-003</_>
    <_>
      0. 3.41296918e-003 1.02389073e-002 0. 3.75426598e-002
      3.41296918e-003 0. 1.02389073e-002 3.07167228e-002 6.82593836e-003
      1.70648452e-002 1.02389073e-002 0. 3.41296918e-003 1.70648452e-002
      0. 0. 3.41296918e-003 1.36518767e-002 6.82593836e-003
      3.41296918e-003 6.82593836e-003 0. 0. 6.82593836e-003
      3.41296918e-003 3.41296918e-003 0. 3.41296918e-003 0. 0. 0. 0.
      1.02389073e-002 3.41296918e-003 2.38907840e-002 6.82593836e-003 0.
      0. 3.41296918e-003 3.41296918e-003 1.36518767e-002 6.82593836e-003
      0. 0. 1.70648452e-002 3.41296918e-003 3.41296918e-003
      6.82593836e-003 0. 6.82593836e-003 1.02389073e-002 3.41296918e-003
      3.41296918e-003 3.41296918e-003 1.70648452e-002 1.70648452e-002
      3.41296918e-003 1.70648452e-002 6.82593836e-003 0. 6.82593836e-003
      3.41296918e-003 0. 6.82593836e-003 6.82593836e-003 3.41296918e-003
      0. 6.82593836e-003 0. 0. 3.41296904e-002 3.41296918e-003 0. 0.
      1.36518767e-002 0. 1.36518767e-002 3.41296918e-003 1.02389073e-002
      1.02389073e-002 0. 1.36518767e-002 1.02389073e-002 6.82593836e-003
      3.41296918e-003 3.41296918e-003 3.41296918e-003 3.41296918e-003
      6.82593836e-003 6.82593836e-003 6.82593836e-003 1.36518767e-002
      3.41296918e-003 3.41296918e-003 0. 1.36518767e-002 0. 0.
      6.82593836e-003 1.02389073e-002 6.82593836e-003 1.70648452e-002
      1.36518767e-002 0. 1.02389073e-002 3.41296918e-003 1.02389073e-002
      0. 3.41296918e-003 6.82593836e-003 0. 0. 1.36518767e-002 0. 0.
      2.04778146e-002 0. 3.41296918e-003 1.02389073e-002 2.73037534e-002
      3.41296918e-003 0. 1.36518767e-002 0. 0. 0. 3.41296918e-003 0.
      3.41296918e-003 2.38907840e-002 0. 2.38907840e-002 1.70648452e-002
      0. 3.07167228e-002 3.41296918e-003 6.82593836e-003 1.02389073e-002
      3.41296918e-003 1.02389073e-002 1.70648452e-002 1.70648452e-002
      6.82593836e-003 3.41296918e-003 3.41296918e-003 6.82593836e-003 0.
      3.41296918e-003 1.02389073e-002</_>
    <_>
      0. 4.65116277e-003 9.30232555e-003 1.39534883e-002 0.
      4.65116277e-003 4.65116277e-003 4.65116277e-002 0. 1.39534883e-002
      9.30232555e-003 0. 0. 0. 0. 4.65116277e-003 9.30232555e-003
      1.39534883e-002 4.65116277e-003 4.65116277e-003 1.39534883e-002
      2.32558139e-002 0. 4.65116277e-003 0. 4.65116277e-003 0.
      1.39534883e-002 1.39534883e-002 9.30232555e-003 0. 4.65116277e-003
      0. 0. 4.65116277e-003 4.65116277e-003 4.65116277e-003
      1.86046511e-002 4.65116277e-003 4.65116277e-003 1.39534883e-002
      4.65116277e-003 1.86046511e-002 2.32558139e-002 4.65116277e-003 0.
      1.39534883e-002 9.30232555e-003 0. 1.39534883e-002 0. 0.
      9.30232555e-003 1.39534883e-002 1.86046511e-002 4.65116277e-003 0.
      1.39534883e-002 9.30232555e-003 4.65116277e-003 0. 9.30232555e-003
      0. 4.65116277e-003 9.30232555e-003 4.65116277e-003 9.30232555e-003
      4.65116277e-002 1.39534883e-002 1.39534883e-002 4.65116277e-003 0.
      0. 4.65116277e-003 0. 1.39534883e-002 9.30232555e-003 0.
      4.65116277e-003 1.39534883e-002 0. 9.30232555e-003 9.30232555e-003
      0. 1.39534883e-002 1.39534883e-002 1.86046511e-002 4.65116277e-003
      2.32558139e-002 4.65116277e-003 4.65116277e-003 9.30232555e-003 0.
      0. 1.39534883e-002 1.39534883e-002 9.30232555e-003 1.86046511e-002
      4.65116277e-003 0. 9.30232555e-003 1.86046511e-002 4.65116277e-003
      0. 0. 0. 1.39534883e-002 0. 9.30232555e-003 0. 0. 4.65116277e-003
      0. 0. 4.65116277e-003 0. 1.39534883e-002 9.30232555e-003
      4.65116277e-003 0. 4.65116277e-003 0. 4.65116277e-003
      9.30232555e-003 1.39534883e-002 0. 0. 0. 0. 4.65116277e-003
      9.30232555e-003 9.30232555e-003 4.65116277e-003 9.30232555e-003
      4.65116277e-003 0. 9.30232555e-003 0. 0. 9.30232555e-003
      4.65116277e-003 0. 4.65116277e-003 9.30232555e-003 0. 0. 0. 0.
      9.30232555e-003 0.</_>
    <_>
      1.19047621e-002 0. 2.38095243e-002 0. 0. 0. 0. 8.33333358e-002 0.
      1.19047621e-002 0. 0. 0. 0. 0. 0. 0. 0. 0. 3.57142873e-002 0. 0.
      0. 0. 0. 0. 0. 0. 0. 0. 0. 2.38095243e-002 2.38095243e-002 0. 0.
      0. 2.38095243e-002 1.19047621e-002 0. 0. 1.19047621e-002 0. 0. 0.
      0. 2.38095243e-002 0. 1.19047621e-002 0. 0. 0. 0. 0. 0.
      1.19047621e-002 1.19047621e-002 0. 0. 0. 1.19047621e-002 0. 0. 0.
      2.38095243e-002 0. 7.14285746e-002 0. 0. 0. 1.19047621e-002 0. 0.
      0. 1.19047621e-002 0. 1.19047621e-002 0. 0. 0. 3.57142873e-002
      2.38095243e-002 0. 0. 0. 0. 0. 1.19047621e-002 0. 0.
      1.19047621e-002 3.57142873e-002 0. 2.38095243e-002 0. 0. 0. 0. 0.
      0. 0. 0. 0. 0. 0. 0. 0. 3.57142873e-002 1.19047621e-002 0.
      2.38095243e-002 0. 0. 0. 0. 2.38095243e-002 0. 2.38095243e-002 0.
      3.57142873e-002 1.19047621e-002 0. 0. 0. 0. 1.19047621e-002 0.
      1.19047621e-002 0. 0. 1.19047621e-002 3.57142873e-002 0.
      1.19047621e-002 0. 0. 0. 0. 1.19047621e-002 1.19047621e-002
      2.38095243e-002 2.38095243e-002 0. 1.19047621e-002 0. 0.
      1.19047621e-002 0. 0. 4.76190485e-002 0.</_>
    <_>
      4.97512426e-003 0. 1.49253728e-002 4.97512426e-003 1.99004970e-002
      0. 4.97512426e-003 2.48756222e-002 4.97512426e-003 0. 0. 0.
      4.97512426e-003 2.48756222e-002 1.49253728e-002 1.49253728e-002 0.
      9.95024852e-003 0. 0. 4.97512426e-003 0. 0. 0. 4.97512426e-003
      9.95024852e-003 4.97512426e-003 0. 9.95024852e-003 2.98507456e-002
      4.97512426e-003 0. 0. 4.97512426e-003 0. 9.95024852e-003 0.
      9.95024852e-003 4.97512426e-003 0. 9.95024852e-003 4.97512426e-003
      0. 4.97512426e-003 2.48756222e-002 9.95024852e-003 4.97512426e-003
      4.97512426e-003 4.97512426e-003 1.49253728e-002 4.97512426e-003
      4.97512426e-003 4.97512426e-003 9.95024852e-003 0. 4.97512426e-003
      0. 4.97512426e-003 9.95024852e-003 4.97512426e-003 4.97512426e-003
      0. 9.95024852e-003 4.97512426e-003 0. 2.48756222e-002 0. 0.
      4.97512426e-003 3.98009941e-002 0. 1.99004970e-002 1.49253728e-002
      4.97512426e-003 4.97512426e-003 4.97512426e-003 0. 4.97512426e-003
      4.97512426e-003 0. 4.97512426e-003 0. 0. 9.95024852e-003
      9.95024852e-003 0. 4.97512426e-003 0. 1.49253728e-002 0.
      4.97512426e-003 4.97512426e-003 4.97512426e-003 5.97014911e-002
      9.95024852e-003 1.49253728e-002 9.95024852e-003 0. 2.48756222e-002
      1.99004970e-002 0. 2.98507456e-002 0. 0. 9.95024852e-003 0.
      9.95024852e-003 0. 4.97512426e-003 9.95024852e-003 4.97512426e-003
      4.97512426e-003 0. 9.95024852e-003 9.95024852e-003 0. 0.
      4.97512426e-003 0. 0. 0. 4.97512426e-003 9.95024852e-003
      4.97512426e-003 9.95024852e-003 0. 0. 9.95024852e-003 0. 0.
      9.95024852e-003 4.97512426e-003 9.95024852e-003 4.97512426e-003
      4.97512426e-003 2.48756222e-002 0. 0. 1.49253728e-002
      4.97512426e-003 1.99004970e-002 4.97512426e-003 0. 0.
      4.97512426e-003 4.97512426e-003 0. 9.95024852e-003 4.97512426e-003
      0.</_>
    <_>
      4.20168089e-003 0. 1.26050431e-002 4.20168089e-003 3.78151275e-002
      2.10084044e-003 2.10084044e-003 1.47058833e-002 4.20168089e-003
      4.20168089e-003 0. 1.05042020e-002 2.10084044e-003 4.20168089e-003
      8.40336177e-003 6.30252156e-003 4.20168089e-003 8.40336177e-003
      2.10084044e-003 0. 4.20168089e-003 2.10084044e-003 2.10084044e-003
      2.10084044e-003 8.40336177e-003 1.26050431e-002 0. 6.30252156e-003
      0. 2.10084044e-003 1.05042020e-002 8.40336177e-003 4.20168089e-003
      0. 1.05042020e-002 8.40336177e-003 6.30252156e-003 2.10084044e-003
      2.10084044e-003 2.10084044e-003 2.10084044e-003 1.47058833e-002 0.
      2.10084044e-003 0. 6.30252156e-003 4.20168089e-003 1.05042020e-002
      4.20168089e-003 1.05042020e-002 0. 8.40336177e-003 2.10084044e-003
      0. 2.10084044e-003 2.10084044e-003 6.30252156e-003 0.
      2.10084044e-003 0. 1.26050431e-002 6.30252156e-003 1.05042020e-002
      0. 0. 4.62184884e-002 1.05042020e-002 8.40336177e-003
      1.05042020e-002 4.20168089e-003 2.10084044e-003 2.10084044e-003
      2.10084040e-002 0. 1.05042020e-002 8.40336177e-003 8.40336177e-003
      0. 8.40336177e-003 3.15126069e-002 1.47058833e-002 4.20168089e-003
      0. 8.40336177e-003 8.40336177e-003 4.20168089e-003 8.40336177e-003
      0. 6.30252156e-003 8.40336177e-003 4.20168089e-003 2.10084044e-003
      6.30252156e-003 0. 6.30252156e-003 8.40336177e-003 2.10084044e-003
      2.10084044e-003 6.30252156e-003 6.30252156e-003 8.40336177e-003
      1.68067235e-002 2.10084044e-003 2.10084044e-003 0. 1.89075638e-002
      1.26050431e-002 1.05042020e-002 0. 3.15126069e-002 0.
      2.10084044e-003 1.05042020e-002 4.20168089e-003 2.10084044e-003
      1.89075638e-002 0. 1.47058833e-002 1.26050431e-002 2.10084044e-003
      1.26050431e-002 1.05042020e-002 4.20168089e-003 0. 4.20168089e-003
      8.40336177e-003 6.30252156e-003 8.40336177e-003 6.30252156e-003
      8.40336177e-003 2.94117667e-002 2.10084044e-003 1.05042020e-002
      6.30252156e-003 0. 8.40336177e-003 8.40336177e-003 0.
      8.40336177e-003 1.05042020e-002 1.47058833e-002 8.40336177e-003
      4.20168089e-003 1.05042020e-002 2.10084044e-003 0. 4.20168089e-003
      4.20168089e-003 1.26050431e-002 2.10084044e-003</_>
    <_>
      6.46551698e-003 2.15517241e-003 1.07758623e-002 4.31034481e-003
      2.15517245e-002 0. 2.15517241e-003 3.23275849e-002 0.
      4.31034481e-003 8.62068962e-003 4.31034481e-003 4.31034481e-003
      8.62068962e-003 2.15517241e-003 6.46551698e-003 1.07758623e-002
      4.31034481e-003 1.72413792e-002 0. 1.07758623e-002 8.62068962e-003
      4.31034481e-003 2.15517241e-003 1.07758623e-002 2.15517241e-003
      4.31034481e-003 6.46551698e-003 0. 6.46551698e-003 6.46551698e-003
      6.46551698e-003 6.46551698e-003 0. 8.62068962e-003 0.
      8.62068962e-003 1.50862066e-002 2.15517241e-003 4.31034481e-003
      4.31034481e-003 1.29310340e-002 6.46551698e-003 6.46551698e-003
      6.46551698e-003 8.62068962e-003 1.72413792e-002 4.31034481e-003
      4.31034481e-003 6.46551698e-003 4.31034481e-003 6.46551698e-003
      8.62068962e-003 1.07758623e-002 4.31034481e-003 0. 4.31034481e-003
      2.15517241e-003 2.15517241e-003 6.46551698e-003 2.15517241e-003
      2.15517241e-003 2.15517241e-003 6.46551698e-003 0. 6.89655170e-002
      0. 2.15517241e-003 4.31034481e-003 1.29310340e-002 4.31034481e-003
      2.15517241e-003 0. 4.31034481e-003 2.15517241e-003 1.29310340e-002
      0. 2.15517241e-003 8.62068962e-003 6.46551698e-003 2.15517241e-003
      2.15517241e-003 1.07758623e-002 0. 1.29310340e-002 2.15517241e-003
      2.15517241e-003 2.15517241e-003 4.31034481e-003 0. 2.15517241e-003
      6.46551698e-003 8.62068962e-003 1.72413792e-002 0. 8.62068962e-003
      8.62068962e-003 1.07758623e-002 4.31034481e-003 6.46551698e-003
      2.15517241e-003 1.93965510e-002 4.31034481e-003 4.31034481e-003
      8.62068962e-003 8.62068962e-003 0. 6.46551698e-003 8.62068962e-003
      6.46551698e-003 1.07758623e-002 1.50862066e-002 0. 6.46551698e-003
      4.31034481e-003 4.31034481e-003 1.07758623e-002 3.87931019e-002
      4.31034481e-003 4.31034481e-003 6.46551698e-003 6.46551698e-003 0.
      0. 1.50862066e-002 4.31034481e-003 2.15517241e-003 6.46551698e-003
      0. 2.15517241e-003 2.15517241e-003 8.62068962e-003 2.15517245e-002
      2.15517241e-003 0. 2.15517245e-002 0. 2.15517241e-003 0.
      1.07758623e-002 1.07758623e-002 1.29310340e-002 1.29310340e-002
      2.15517241e-003 2.15517241e-003 6.46551698e-003 1.07758623e-002
      6.46551698e-003 6.46551698e-003 0.</_>
    <_>
      9.45626479e-003 0. 7.09219836e-003 0. 3.30969281e-002
      4.72813239e-003 2.36406620e-003 6.38297871e-002 2.36406620e-003
      2.36406620e-003 0. 7.09219836e-003 2.36406620e-003 4.96453904e-002
      9.45626479e-003 0. 4.72813239e-003 1.18203312e-002 1.65484641e-002
      1.18203312e-002 2.36406620e-003 0. 4.72813239e-003 4.72813239e-003
      7.09219836e-003 0. 4.72813239e-003 1.18203312e-002 2.36406620e-003
      0. 9.45626479e-003 4.72813239e-003 9.45626479e-003 0.
      2.36406620e-003 7.09219836e-003 2.36406620e-003 2.36406620e-003
      2.36406620e-003 4.72813239e-003 1.18203312e-002 1.65484641e-002 0.
      2.36406620e-003 0. 1.65484641e-002 7.09219836e-003 2.36406620e-003
      7.09219836e-003 4.72813239e-003 2.36406620e-003 2.36406620e-003
      2.36406620e-003 4.72813239e-003 2.36406620e-003 4.72813239e-003
      7.09219836e-003 4.72813239e-003 0. 2.36406620e-003 9.45626479e-003
      0. 4.72813239e-003 2.12765951e-002 4.72813239e-003 2.60047279e-002
      7.09219836e-003 0. 7.09219836e-003 2.36406620e-003 1.41843967e-002
      0. 0. 0. 9.45626479e-003 7.09219836e-003 4.72813239e-003
      7.09219836e-003 7.09219836e-003 0. 0. 0. 7.09219836e-003
      2.36406620e-003 1.89125296e-002 2.36406620e-003 0. 0. 0.
      2.36406620e-003 1.65484641e-002 9.45626479e-003 1.65484641e-002 0.
      4.72813239e-003 9.45626479e-003 2.36406620e-003 4.72813239e-003
      4.72813239e-003 1.89125296e-002 0. 2.36406620e-003 9.45626479e-003
      2.36406620e-003 2.36406620e-003 7.09219836e-003 1.65484641e-002
      1.41843967e-002 0. 0. 2.36406620e-003 0. 7.09219836e-003
      4.72813239e-003 7.09219836e-003 0. 4.72813239e-003 8.51063803e-002
      0. 7.09219836e-003 1.18203312e-002 2.36406620e-003 0.
      2.36406620e-003 0. 2.36406620e-003 9.45626479e-003 2.36406620e-003
      4.72813239e-003 0. 7.09219836e-003 2.36406620e-003 2.36406620e-003
      0. 0. 1.18203312e-002 2.36406620e-003 4.72813239e-003
      7.09219836e-003 4.72813239e-003 2.36406624e-002 7.09219836e-003
      9.45626479e-003 0. 0. 4.72813239e-003 2.36406620e-003
      7.09219836e-003 1.41843967e-002 4.72813239e-003</_>
    <_>
      1.47058824e-002 2.94117648e-002 7.35294120e-003 0. 7.35294120e-003
      0. 7.35294120e-003 2.20588241e-002 0. 2.20588241e-002 0.
      7.35294120e-003 7.35294120e-003 0. 0. 2.20588241e-002 0.
      7.35294120e-003 0. 1.47058824e-002 1.47058824e-002 7.35294120e-003
      7.35294120e-003 7.35294120e-003 1.47058824e-002 0. 0.
      7.35294120e-003 0. 2.20588241e-002 7.35294120e-003 7.35294120e-003
      7.35294120e-003 0. 0. 7.35294120e-003 0. 7.35294120e-003
      7.35294120e-003 0. 7.35294120e-003 7.35294120e-003 0.
      7.35294120e-003 0. 0. 7.35294120e-003 7.35294120e-003 0.
      1.47058824e-002 7.35294120e-003 7.35294120e-003 0. 0. 0.
      7.35294120e-003 0. 7.35294120e-003 7.35294120e-003 0. 0.
      7.35294120e-003 7.35294120e-003 0. 0. 0. 7.35294120e-003
      7.35294120e-003 7.35294120e-003 1.47058824e-002 0. 0.
      7.35294120e-003 0. 0. 2.94117648e-002 0. 0. 1.47058824e-002
      7.35294120e-003 0. 7.35294120e-003 0. 0. 0. 0. 7.35294120e-003 0.
      7.35294120e-003 7.35294120e-003 0. 7.35294120e-003 0. 0. 0.
      7.35294120e-003 7.35294120e-003 1.47058824e-002 7.35294120e-003 0.
      0. 2.94117648e-002 0. 7.35294120e-003 2.94117648e-002
      2.94117648e-002 0. 1.47058824e-002 0. 0. 7.35294120e-003
      2.94117648e-002 0. 0. 0. 2.20588241e-002 7.35294120e-003
      2.94117648e-002 1.47058824e-002 0. 1.47058824e-002 0. 0.
      7.35294120e-003 1.47058824e-002 0. 7.35294120e-003 1.47058824e-002
      7.35294120e-003 7.35294120e-003 0. 7.35294120e-003 7.35294120e-003
      0. 1.47058824e-002 7.35294120e-003 7.35294120e-003 7.35294120e-003
      0. 2.20588241e-002 7.35294120e-003 7.35294120e-003 7.35294120e-003
      7.35294120e-003 7.35294120e-003 0. 7.35294120e-003 7.35294120e-003
      7.35294120e-003 7.35294120e-003</_>
    <_>
      0. 4.14078683e-003 0. 4.14078683e-003 6.21118024e-003
      8.28157365e-003 2.07039341e-003 1.03519671e-002 0. 4.14078683e-003
      1.03519671e-002 2.07039341e-003 0. 2.07039341e-002 0.
      1.03519671e-002 2.07039341e-003 0. 0. 2.27743275e-002
      6.21118024e-003 1.44927539e-002 2.07039341e-003 6.21118024e-003 0.
      2.07039341e-003 0. 8.28157365e-003 8.28157365e-003 5.38302287e-002
      4.14078683e-003 0. 6.21118024e-003 0. 0. 0. 2.07039341e-003
      8.28157365e-003 4.14078683e-003 2.07039341e-003 4.14078683e-003 0.
      1.86335407e-002 1.86335407e-002 6.21118024e-003 0. 6.21118024e-003
      4.14078683e-003 2.07039341e-003 4.14078683e-003 1.03519671e-002 0.
      6.21118024e-003 2.27743275e-002 2.89855078e-002 2.07039341e-003
      4.14078683e-003 1.44927539e-002 2.07039341e-003 1.44927539e-002 0.
      2.07039341e-003 2.07039341e-003 4.14078683e-003 0. 6.21118024e-003
      6.21118024e-003 4.14078683e-003 4.14078683e-003 1.36645973e-001 0.
      4.14078683e-003 8.28157365e-003 2.07039341e-003 2.07039341e-003 0.
      0. 0. 2.07039341e-003 2.07039341e-003 0. 1.03519671e-002
      6.21118024e-003 0. 0. 0. 0. 6.21118024e-003 6.21118024e-003
      6.21118024e-003 2.07039341e-003 4.14078683e-003 0. 6.21118024e-003
      2.07039341e-003 1.03519671e-002 6.21118024e-003 2.69151144e-002
      6.21118024e-003 1.03519671e-002 1.03519671e-002 1.44927539e-002
      6.21118024e-003 2.07039341e-003 2.07039341e-003 2.07039341e-003
      2.07039341e-003 2.07039341e-003 1.24223605e-002 0. 6.21118024e-003
      3.72670814e-002 2.07039341e-003 6.21118024e-003 6.21118024e-003
      4.14078683e-003 0. 1.86335407e-002 6.21118024e-003 2.07039341e-003
      2.07039341e-003 0. 4.14078683e-003 8.28157365e-003 8.28157365e-003
      0. 2.07039341e-003 2.07039341e-003 2.07039341e-003 0.
      2.07039341e-003 2.69151144e-002 6.21118024e-003 0. 2.07039341e-003
      1.65631473e-002 8.28157365e-003 0. 6.21118024e-003 6.21118024e-003
      0. 2.48447210e-002 4.14078683e-003 0. 2.07039341e-003
      6.21118024e-003 4.14078683e-003 1.03519671e-002 0. 0.</_>
    <_>
      2.15053763e-002 0. 3.22580636e-002 0. 2.09677413e-001 0. 0. 0. 0.
      5.37634408e-003 0. 1.07526882e-002 0. 1.07526882e-002 0. 0. 0. 0.
      2.68817209e-002 5.37634408e-003 5.37634408e-003 0. 5.37634408e-003
      0. 1.07526882e-002 5.37634408e-003 0. 0. 0. 0. 0. 1.07526882e-002
      0. 0. 1.07526882e-002 0. 1.07526882e-002 0. 0. 0. 5.37634408e-003
      1.07526882e-002 0. 0. 0. 1.07526882e-002 0. 0. 0. 0.
      5.37634408e-003 0. 0. 0. 0. 0. 0. 1.07526882e-002 0.
      5.37634408e-003 0. 0. 0. 5.37634408e-003 5.37634408e-003
      1.72043011e-001 0. 5.37634408e-003 0. 0. 0. 0. 5.37634408e-003 0.
      0. 0. 0. 5.37634408e-003 0. 2.68817209e-002 1.61290318e-002 0. 0.
      0. 0. 5.37634408e-003 0. 1.07526882e-002 0. 0. 5.37634408e-003
      5.37634408e-003 5.37634408e-003 5.37634408e-003 0. 0.
      1.07526882e-002 0. 0. 5.37634408e-003 0. 0. 0. 0. 0.
      1.61290318e-002 5.37634408e-003 5.37634408e-003 0. 0. 0. 0.
      5.37634408e-003 0. 0. 0. 0. 0. 5.37634408e-003 5.37634408e-003
      5.37634417e-002 0. 0. 5.37634408e-003 0. 0. 0. 0. 5.37634408e-003
      0. 1.61290318e-002 0. 1.07526882e-002 0. 0. 0. 0. 0. 0. 0.
      4.30107526e-002 3.76344100e-002 3.22580636e-002 0. 0. 0.
      5.37634408e-003 0. 1.61290318e-002 5.37634408e-003</_>
    <_>
      5.95238106e-003 0. 2.97619053e-003 0. 2.73809522e-001 0. 0.
      2.67857146e-002 0. 2.97619053e-003 0. 5.95238106e-003 0. 0. 0. 0.
      0. 0. 2.97619053e-003 8.92857183e-003 0. 0. 0. 0. 1.19047621e-002
      8.92857183e-003 0. 5.95238106e-003 0. 0. 5.95238106e-003
      2.67857146e-002 1.78571437e-002 2.97619053e-003 5.95238106e-003 0.
      2.08333340e-002 0. 2.97619053e-003 0. 5.95238106e-003
      1.19047621e-002 0. 2.97619053e-003 0. 0. 2.97619053e-003
      2.97619053e-003 0. 0. 2.97619053e-003 8.92857183e-003 0. 0.
      5.95238106e-003 2.97619053e-003 0. 0. 0. 2.97619053e-003
      5.95238106e-003 0. 2.97619053e-003 0. 1.19047621e-002
      8.92857183e-003 0. 2.97619053e-003 1.48809524e-002 2.97619053e-003
      2.97619053e-003 2.97619053e-003 2.97619053e-003 0. 0.
      2.97619053e-003 5.95238106e-003 2.97619053e-003 0. 2.97619053e-003
      5.95238106e-003 8.92857183e-003 2.97619053e-003 0. 5.95238106e-003
      0. 5.95238106e-003 2.97619053e-003 0. 5.95238106e-003 0. 0.
      1.19047621e-002 2.97619053e-003 8.92857183e-003 8.92857183e-003
      8.92857183e-003 2.97619053e-003 2.97619053e-003 8.92857183e-003
      2.97619053e-003 0. 1.48809524e-002 8.92857183e-003 0. 0.
      8.92857183e-003 1.78571437e-002 0. 1.48809524e-002 0. 0. 0.
      2.97619053e-003 1.48809524e-002 2.97619053e-003 0. 3.86904776e-002
      8.92857183e-003 0. 2.97619053e-003 2.97619053e-003 2.97619053e-003
      0. 5.95238106e-003 8.92857183e-003 1.48809524e-002 1.19047621e-002
      5.95238106e-003 0. 8.92857183e-003 0. 2.97619053e-003
      2.97619053e-003 2.97619053e-003 1.48809524e-002 0. 0.
      8.92857183e-003 1.19047621e-002 2.08333340e-002 2.08333340e-002
      1.48809524e-002 0. 2.97619053e-003 2.97619053e-003 0.
      2.97619053e-003 2.38095243e-002 2.97619053e-003</_>
    <_>
      6.17283955e-003 3.08641978e-003 1.08024692e-002 9.25925933e-003
      2.93209888e-002 9.25925933e-003 4.62962966e-003 2.62345672e-002
      1.54320989e-003 6.17283955e-003 6.17283955e-003 3.08641978e-003
      3.08641978e-003 1.85185187e-002 7.71604944e-003 4.62962966e-003
      3.08641978e-003 1.38888890e-002 3.08641978e-003 9.25925933e-003
      3.85802463e-002 3.08641978e-003 3.08641978e-003 0. 1.54320989e-003
      1.38888890e-002 6.17283955e-003 3.08641978e-003 3.08641978e-003
      1.08024692e-002 1.38888890e-002 1.85185187e-002 6.17283955e-003
      6.17283955e-003 1.08024692e-002 6.17283955e-003 9.25925933e-003
      3.08641978e-003 1.54320989e-003 1.54320989e-003 9.25925933e-003
      4.62962966e-003 0. 3.08641978e-003 4.62962966e-003 1.54320989e-003
      9.25925933e-003 6.17283955e-003 1.54320989e-003 6.17283955e-003
      3.08641978e-003 7.71604944e-003 3.08641978e-003 3.08641978e-003
      1.54320989e-003 3.08641978e-003 1.54320989e-003 1.54320989e-003
      3.08641978e-003 0. 7.71604944e-003 4.62962966e-003 3.08641978e-003
      0. 0. 4.01234552e-002 1.54320989e-003 6.17283955e-003
      4.62962966e-003 1.23456791e-002 1.54320989e-003 1.54320989e-003
      7.71604944e-003 1.54320989e-003 6.17283955e-003 1.08024692e-002
      4.62962966e-003 7.71604944e-003 6.17283955e-003 6.17283955e-003
      4.62962966e-003 1.23456791e-002 1.54320989e-003 4.62962966e-003
      9.25925933e-003 7.71604944e-003 6.17283955e-003 0. 3.08641978e-003
      3.08641978e-003 1.38888890e-002 3.08641978e-003 1.08024692e-002
      1.08024692e-002 4.62962966e-003 6.17283955e-003 6.17283955e-003
      1.54320989e-003 3.08641978e-003 6.17283955e-003 1.08024692e-002
      6.17283955e-003 3.08641978e-003 4.62962966e-003 6.17283955e-003 0.
      1.08024692e-002 1.08024692e-002 4.62962966e-003 9.25925933e-003
      4.62962966e-003 1.23456791e-002 1.54320989e-003 1.54320989e-003
      1.85185187e-002 4.62962966e-003 6.17283955e-003 1.54320989e-002
      6.17283955e-003 4.62962966e-003 1.23456791e-002 1.54320989e-003
      4.62962966e-003 1.54320989e-003 1.54320989e-003 9.25925933e-003
      6.17283955e-003 3.08641978e-003 9.25925933e-003 0. 4.62962966e-003
      1.54320989e-003 9.25925933e-003 3.08641978e-003 9.25925933e-003
      1.23456791e-002 4.62962966e-003 1.54320989e-003 3.08641978e-003
      1.08024692e-002 1.23456791e-002 1.08024692e-002 9.25925933e-003
      9.25925933e-003 1.08024692e-002 6.17283955e-003 3.08641978e-003
      6.17283955e-003 1.08024692e-002 3.08641978e-003</_>
    <_>
      0. 0. 2.80000009e-002 0. 1.64000005e-001 0. 0. 3.60000022e-002
      8.00000038e-003 0. 0. 8.00000038e-003 0. 8.00000038e-003
      4.00000019e-003 0. 0. 0. 0. 0. 0. 0. 0. 4.00000019e-003 0. 0.
      4.00000019e-003 4.00000019e-003 0. 0. 4.00000019e-003
      1.60000008e-002 0. 8.00000038e-003 1.20000001e-002 0.
      1.60000008e-002 4.00000019e-003 0. 0. 4.00000019e-003
      4.80000004e-002 0. 0. 0. 8.00000038e-003 4.00000019e-003 0. 0. 0.
      0. 0. 0. 0. 1.20000001e-002 8.00000038e-003 0. 0. 0.
      1.60000008e-002 8.00000038e-003 4.00000019e-003 8.00000038e-003 0.
      8.00000038e-003 9.60000008e-002 0. 0. 0. 0. 0. 0. 4.00000019e-003
      4.00000019e-003 8.00000038e-003 8.00000038e-003 0. 4.00000019e-003
      4.00000019e-003 8.00000038e-003 0. 0. 4.00000019e-003 0.
      4.00000019e-003 0. 4.00000019e-003 4.00000019e-003 0. 0.
      8.00000038e-003 0. 3.60000022e-002 1.20000001e-002 1.20000001e-002
      4.00000019e-003 0. 0. 8.00000038e-003 0. 0. 0. 1.60000008e-002 0.
      0. 1.20000001e-002 1.20000001e-002 0. 0. 0. 0. 0. 4.00000019e-003
      0. 4.00000019e-003 4.00000019e-003 4.00000019e-003 6.00000024e-002
      4.00000019e-003 0. 0. 0. 0. 0. 0. 0. 0. 0. 0. 0. 1.20000001e-002
      0. 0. 0. 0. 0. 0. 0. 0. 8.00000038e-003 8.80000070e-002
      8.00000038e-003 2.80000009e-002 0. 0. 0. 0. 0. 4.40000035e-002
      4.00000019e-003</_>
    <_>
      5.10204071e-003 5.10204071e-003 1.02040814e-002 0. 0.
      1.02040814e-002 5.10204071e-003 0. 0. 5.10204071e-003 0. 0. 0.
      2.04081628e-002 0. 1.53061226e-002 5.10204071e-003 1.02040814e-002
      0. 1.02040814e-002 1.02040814e-002 1.53061226e-002 5.10204071e-003
      5.10204071e-003 0. 0. 5.10204071e-003 0. 0. 8.67346898e-002
      5.10204071e-003 1.02040814e-002 0. 0. 5.10204071e-003 0. 0.
      5.10204071e-003 1.02040814e-002 0. 0. 5.10204071e-003
      1.53061226e-002 2.04081628e-002 5.10204071e-003 0. 5.10204071e-003
      0. 0. 1.02040814e-002 0. 5.10204071e-003 5.10204071e-003
      2.55102031e-002 0. 0. 0. 0. 5.10204071e-003 1.02040814e-002
      1.53061226e-002 0. 0. 5.10204071e-003 1.53061226e-002
      1.53061226e-002 5.10204071e-003 5.10204071e-003 0. 6.12244904e-002
      0. 1.02040814e-002 0. 0. 1.02040814e-002 0. 0. 0. 1.02040814e-002
      0. 0. 5.10204071e-003 0. 1.02040814e-002 0. 5.10204071e-003
      1.02040814e-002 0. 1.02040814e-002 0. 0. 0. 5.10204071e-003
      3.06122452e-002 1.53061226e-002 1.02040814e-002 0. 1.02040814e-002
      5.10204071e-003 4.59183678e-002 0. 1.53061226e-002 0.
      5.10204071e-003 0. 0. 5.10204071e-003 2.04081628e-002
      1.02040814e-002 0. 0. 5.10204071e-003 5.10204071e-003 0.
      5.10204071e-003 0. 0. 1.53061226e-002 5.10204071e-003
      1.02040814e-002 1.02040814e-002 0. 0. 5.10204071e-003
      3.06122452e-002 0. 0. 5.10204071e-003 0. 0. 0. 2.04081628e-002
      3.57142836e-002 0. 0. 2.55102031e-002 1.53061226e-002 0.
      1.02040814e-002 0. 5.10204071e-003 5.10204071e-003 5.10204071e-003
      1.02040814e-002 0. 5.10204071e-003 5.10204071e-003 1.02040814e-002
      0. 0.</_>
    <_>
      1.02040814e-002 3.40136047e-003 0. 1.36054419e-002 3.74149643e-002
      6.80272095e-003 0. 3.06122452e-002 0. 1.70068033e-002
      6.80272095e-003 3.40136047e-003 1.02040814e-002 1.02040814e-002
      3.40136047e-003 6.80272095e-003 3.40136047e-003 1.70068033e-002
      3.40136047e-003 6.80272095e-003 0. 0. 6.80272095e-003
      3.40136047e-003 3.40136047e-003 6.80272095e-003 0. 0. 0.
      3.40136047e-003 0. 6.80272095e-003 0. 0. 0. 1.02040814e-002 0.
      6.80272095e-003 3.40136047e-003 3.40136047e-003 3.40136047e-003
      1.02040814e-002 0. 3.40136047e-003 1.36054419e-002 0.
      6.80272095e-003 6.80272095e-003 0. 6.80272095e-003 2.72108838e-002
      3.40136047e-003 3.40136047e-003 6.80272095e-003 0. 1.36054419e-002
      6.80272095e-003 6.80272095e-003 3.40136047e-003 3.40136047e-003
      1.02040814e-002 1.36054419e-002 6.80272095e-003 1.36054419e-002
      6.80272095e-003 5.44217676e-002 6.80272095e-003 6.80272095e-003
      6.80272095e-003 6.80272095e-003 0. 0. 1.36054419e-002
      3.40136047e-003 3.40136047e-003 3.40136047e-003 6.80272095e-003
      1.02040814e-002 1.02040814e-002 3.40136047e-003 3.40136047e-003
      1.02040814e-002 1.02040814e-002 6.80272095e-003 1.70068033e-002
      6.80272095e-003 0. 3.40136047e-003 0. 1.36054419e-002
      1.36054419e-002 6.80272095e-003 3.40136047e-003 0. 6.80272095e-003
      1.36054419e-002 6.80272095e-003 0. 1.02040814e-002 1.02040814e-002
      3.40136047e-003 1.02040814e-002 6.80272095e-003 6.80272095e-003
      6.80272095e-003 6.80272095e-003 3.40136047e-003 2.04081628e-002
      3.40136047e-003 3.40136047e-003 3.40136047e-003 3.40136047e-003
      3.40136047e-003 0. 1.02040814e-002 0. 0. 2.72108838e-002
      1.02040814e-002 1.36054419e-002 6.80272095e-003 0. 0.
      1.02040814e-002 6.80272095e-003 6.80272095e-003 0. 3.40136047e-003
      6.80272095e-003 3.40136047e-003 6.80272095e-003 1.02040814e-002
      1.36054419e-002 3.40136047e-003 0. 3.40136047e-003 6.80272095e-003
      3.40136047e-003 0. 3.40136047e-003 1.02040814e-002 2.38095224e-002
      6.80272095e-003 6.80272095e-003 0. 0. 3.40136047e-003 0.
      1.02040814e-002 0.</_>
    <_>
      3.53982300e-003 0. 1.94690265e-002 3.53982300e-003 1.76991150e-003
      5.30973449e-003 3.53982300e-003 2.83185840e-002 3.53982300e-003
      5.30973449e-003 0. 1.06194690e-002 3.53982300e-003 1.41592920e-002
      8.84955749e-003 1.76991150e-003 1.76991150e-003 0. 1.06194690e-002
      0. 0. 1.76991150e-003 3.53982300e-003 1.76991150e-003
      1.59292035e-002 5.30973449e-003 7.07964599e-003 1.76991150e-003
      5.30973449e-003 8.84955749e-003 1.06194690e-002 3.53982300e-003
      1.76991150e-003 7.07964599e-003 1.06194690e-002 8.84955749e-003
      5.30973449e-003 5.30973449e-003 0. 1.76991150e-003 8.84955749e-003
      7.07964599e-003 5.30973449e-003 3.53982300e-003 1.76991150e-003
      7.07964599e-003 3.53982300e-003 7.07964599e-003 3.53982300e-003 0.
      5.30973449e-003 5.30973449e-003 8.84955749e-003 0. 8.84955749e-003
      1.76991150e-003 3.53982300e-003 5.30973449e-003 1.76991150e-003
      1.23893805e-002 3.53982300e-003 3.53982300e-003 5.30973449e-003
      5.30973449e-003 1.06194690e-002 5.30973449e-003 3.53982300e-003
      3.53982300e-003 8.84955749e-003 0. 1.76991150e-003 5.30973449e-003
      3.53982300e-003 0. 7.07964599e-003 8.84955749e-003 0.
      3.53982300e-003 1.23893805e-002 1.41592920e-002 3.53982300e-003
      3.53982300e-003 3.53982300e-003 1.76991150e-003 7.07964599e-003 0.
      5.30973449e-003 1.76991150e-003 5.30973449e-003 7.07964599e-003
      1.76991150e-003 3.53982300e-003 7.07964599e-003 6.01769909e-002
      1.06194690e-002 1.59292035e-002 7.07964599e-003 0. 8.84955749e-003
      1.76991150e-002 3.53982300e-003 7.07964599e-003 1.41592920e-002
      5.30973449e-003 0. 5.30973449e-003 1.41592920e-002 7.43362829e-002
      3.53982300e-003 1.76991150e-003 3.53982300e-003 1.76991150e-003
      1.76991150e-003 5.30973449e-003 1.06194690e-002 1.76991150e-003
      1.41592920e-002 2.30088495e-002 8.84955749e-003 3.53982300e-003
      3.53982300e-003 3.53982300e-003 3.53982300e-003 3.53982300e-003
      5.30973449e-003 8.84955749e-003 3.53982300e-003 1.06194690e-002
      3.53982300e-003 0. 1.76991150e-002 0. 1.59292035e-002
      1.94690265e-002 0. 1.23893805e-002 5.30973449e-003 5.30973449e-003
      1.76991150e-003 1.76991150e-003 7.07964599e-003 1.23893805e-002
      8.84955749e-003 1.76991150e-003 0. 5.30973449e-003 5.30973449e-003
      3.53982300e-003 8.84955749e-003 7.07964599e-003</_>
    <_>
      5.26315812e-003 5.26315812e-003 1.75438598e-002 7.01754401e-003
      2.63157897e-002 1.75438600e-003 5.26315812e-003 2.28070188e-002 0.
      5.26315812e-003 5.26315812e-003 1.75438600e-003 1.75438600e-003
      8.77192989e-003 1.75438600e-003 1.05263162e-002 3.50877200e-003
      1.05263162e-002 8.77192989e-003 3.50877200e-003 1.22807017e-002
      8.77192989e-003 0. 0. 1.75438600e-003 1.75438600e-003
      7.01754401e-003 7.01754401e-003 5.26315812e-003 3.15789469e-002
      7.01754401e-003 7.01754401e-003 7.01754401e-003 3.50877200e-003
      1.92982461e-002 7.01754401e-003 8.77192989e-003 5.26315812e-003
      7.01754401e-003 3.50877200e-003 7.01754401e-003 3.50877200e-003
      2.10526325e-002 5.26315812e-003 7.01754401e-003 1.05263162e-002 0.
      5.26315812e-003 1.75438600e-003 5.26315812e-003 0. 1.75438600e-003
      3.50877200e-003 1.75438598e-002 1.05263162e-002 0. 3.50877200e-003
      1.75438598e-002 5.26315812e-003 1.75438600e-003 5.26315812e-003
      5.26315812e-003 1.75438600e-003 0. 3.50877200e-003 2.45614033e-002
      0. 1.75438600e-003 0. 7.71929845e-002 3.50877200e-003
      7.01754401e-003 8.77192989e-003 8.77192989e-003 5.26315812e-003
      8.77192989e-003 1.22807017e-002 0. 1.05263162e-002 2.10526325e-002
      7.01754401e-003 3.50877200e-003 5.26315812e-003 1.75438600e-003
      7.01754401e-003 1.75438600e-003 1.75438600e-003 8.77192989e-003
      1.75438600e-003 1.75438600e-003 7.01754401e-003 5.26315812e-003
      1.05263162e-002 0. 5.26315812e-003 0. 5.26315812e-003
      2.10526325e-002 1.75438600e-003 1.75438600e-003 1.22807017e-002
      1.75438600e-003 1.75438600e-003 0. 1.75438600e-003 1.75438600e-003
      7.01754401e-003 5.26315812e-003 8.77192989e-003 7.01754401e-003
      3.50877200e-003 7.01754401e-003 0. 5.26315812e-003 1.75438600e-003
      0. 0. 2.10526325e-002 3.50877200e-003 0. 7.01754401e-003
      5.26315812e-003 0. 3.50877200e-003 3.50877200e-003 3.50877200e-003
      5.26315812e-003 7.01754401e-003 7.01754401e-003 0. 1.40350880e-002
      8.77192989e-003 1.40350880e-002 5.26315812e-003 7.01754401e-003
      3.50877200e-003 5.26315812e-003 0. 1.05263162e-002 5.26315812e-003
      7.01754401e-003 3.50877200e-003 1.22807017e-002 5.26315812e-003
      8.77192989e-003 1.05263162e-002 1.75438600e-003 3.50877200e-003
      5.26315812e-003 1.75438600e-003</_>
    <_>
      0. 0. 5.71428565e-003 0. 2.57142857e-002 0. 5.71428565e-003
      4.85714264e-002 2.85714283e-003 8.57142825e-003 5.71428565e-003
      8.57142825e-003 0. 2.28571426e-002 0. 0. 2.85714283e-003
      8.57142825e-003 1.42857144e-002 4.85714264e-002 2.85714283e-003
      8.57142825e-003 1.42857144e-002 1.14285713e-002 8.57142825e-003 0.
      5.71428565e-003 1.14285713e-002 2.85714283e-003 0. 2.85714283e-003
      8.57142825e-003 8.57142825e-003 0. 2.85714283e-003 5.71428565e-003
      1.42857144e-002 5.71428565e-003 5.71428565e-003 0. 8.57142825e-003
      8.57142825e-003 0. 0. 0. 2.85714283e-003 5.71428565e-003 0.
      2.85714283e-003 0. 5.14285713e-002 0. 0. 0. 5.71428565e-003
      1.42857144e-002 0. 0. 0. 1.42857144e-002 1.14285713e-002
      5.71428565e-003 0. 0. 2.85714283e-003 1.71428565e-002
      2.85714283e-003 0. 0. 0. 2.85714283e-003 2.85714283e-003
      5.71428565e-003 0. 8.57142825e-003 0. 2.85714283e-003 0.
      2.85714283e-003 1.14285713e-002 2.85714283e-003 5.71428565e-003
      5.71428565e-003 0. 1.42857144e-002 0. 2.85714283e-003
      5.71428565e-003 0. 1.14285713e-002 2.85714283e-003 1.71428565e-002
      1.71428565e-002 0. 5.71428565e-003 1.42857144e-002 2.85714283e-003
      2.85714283e-003 5.71428565e-003 0. 2.85714283e-003 2.85714283e-003
      1.14285713e-002 1.42857144e-002 0. 5.71428565e-003 8.57142825e-003
      1.99999996e-002 0. 2.85714283e-003 5.71428565e-003 0.
      8.57142825e-003 0. 1.14285713e-002 0. 1.71428565e-002
      7.42857158e-002 8.57142825e-003 2.85714283e-003 0. 8.57142825e-003
      8.57142825e-003 5.71428565e-003 0. 2.85714283e-003 1.99999996e-002
      5.71428565e-003 0. 0. 1.42857144e-002 0. 8.57142825e-003 0. 0.
      5.71428565e-003 0. 2.85714283e-003 5.71428565e-003 2.85714283e-003
      2.57142857e-002 1.14285713e-002 5.71428565e-003 2.85714283e-003 0.
      0. 5.71428565e-003 2.85714283e-003 1.71428565e-002 2.85714283e-003</_>
    <_>
      0. 0. 0. 0. 1.52380958e-001 0. 0. 7.61904791e-002 0.
      9.52380989e-003 0. 0. 9.52380989e-003 1.04761906e-001 0. 0. 0.
      1.90476198e-002 2.85714306e-002 0. 0. 0. 0. 0. 0. 0. 0. 0. 0. 0.
      0. 0. 9.52380989e-003 0. 0. 0. 0. 9.52380989e-003 0. 0. 0. 0. 0.
      0. 0. 6.66666701e-002 0. 0. 0. 0. 0. 0. 0. 0. 0. 0.
      9.52380989e-003 0. 0. 0. 0. 0. 0. 9.52380989e-003 9.52380989e-003
      2.85714306e-002 0. 0. 0. 0. 0. 0. 2.85714306e-002 0. 0. 0. 0. 0.
      9.52380989e-003 2.85714306e-002 0. 9.52380989e-003 0. 0.
      9.52380989e-003 0. 9.52380989e-003 0. 0. 0. 0. 0. 0.
      9.52380989e-003 0. 9.52380989e-003 0. 0. 9.52380989e-003 0. 0. 0.
      0. 0. 0. 9.52380989e-003 1.90476198e-002 8.57142881e-002 0.
      9.52380989e-003 0. 0. 0. 0. 0. 0. 0. 9.52380989e-003 0.
      9.52380989e-003 0. 0. 0. 0. 0. 0. 9.52380989e-003 0. 0. 0.
      6.66666701e-002 0. 0. 0. 0. 2.85714306e-002 0. 0. 0. 0.
      1.90476198e-002 3.80952395e-002 0. 0. 0. 0. 9.52380989e-003 0.
      9.52380989e-003 9.52380989e-003</_>
    <_>
      0. 0. 9.17431153e-003 0. 4.12844010e-002 4.58715577e-003
      9.17431153e-003 1.37614673e-002 4.58715577e-003 1.37614673e-002 0.
      2.29357779e-002 0. 2.29357779e-002 0. 0. 0. 4.58715577e-003 0.
      4.58715577e-003 0. 0. 0. 0. 4.58715577e-003 0. 0. 9.17431153e-003
      0. 0. 0. 9.17431153e-003 4.58715577e-003 4.58715577e-003
      9.17431153e-003 4.58715577e-003 1.83486231e-002 4.58715577e-003 0.
      0. 1.83486231e-002 2.29357779e-002 0. 0. 0. 3.66972461e-002 0.
      4.58715577e-003 9.17431153e-003 0. 0. 4.58715577e-003
      4.58715577e-003 0. 1.83486231e-002 0. 0. 4.58715577e-003 0.
      3.21100913e-002 1.37614673e-002 0. 1.37614673e-002 0.
      4.58715577e-003 2.75229346e-002 0. 0. 0. 0. 0. 0. 0. 0. 0.
      3.21100913e-002 0. 2.29357779e-002 4.58715577e-003 2.29357779e-002
      9.17431153e-003 4.58715577e-003 4.58715577e-003 4.58715577e-003
      4.58715577e-003 0. 4.58715577e-003 4.58715577e-003 0.
      9.17431153e-003 0. 0. 4.58715558e-002 0. 0. 4.58715577e-003
      9.17431153e-003 0. 9.17431153e-003 0. 0. 0. 4.58715577e-003
      4.58715577e-003 0. 9.17431153e-003 2.75229346e-002 2.29357779e-002
      0. 0. 0. 0. 4.58715577e-003 0. 0. 0. 9.17431153e-003
      2.75229346e-002 4.58715577e-003 9.17431153e-003 1.83486231e-002 0.
      0. 0. 0. 4.58715577e-003 4.58715577e-003 1.37614673e-002
      4.58715577e-003 0. 1.37614673e-002 0. 0. 0. 0. 9.17431153e-003 0.
      9.17431153e-003 9.17431153e-003 9.17431153e-003 5.04587144e-002
      9.17431153e-003 2.75229346e-002 0. 4.58715577e-003 0.
      9.17431153e-003 0. 4.58715558e-002 0.</_>
    <_>
      1.04895104e-002 0. 1.04895104e-002 3.49650346e-003 1.74825173e-002
      1.39860138e-002 0. 1.39860138e-002 0. 1.04895104e-002 0.
      1.39860138e-002 0. 6.99300691e-003 0. 3.49650346e-003
      3.49650346e-003 3.49650346e-003 3.49650346e-003 2.44755242e-002 0.
      6.99300691e-003 3.49650346e-003 3.49650346e-003 6.99300691e-003
      1.39860138e-002 3.49650346e-003 3.49650346e-003 0. 1.74825173e-002
      6.99300691e-003 1.74825173e-002 6.99300691e-003 6.99300691e-003
      6.99300691e-003 0. 1.39860138e-002 3.49650346e-003 1.04895104e-002
      3.49650346e-003 6.99300691e-003 3.49650346e-003 0. 6.99300691e-003
      3.49650346e-003 1.04895104e-002 6.99300691e-003 1.39860138e-002
      3.49650346e-003 1.39860138e-002 6.99300691e-003 6.99300691e-003
      6.99300691e-003 1.04895104e-002 0. 3.49650346e-003 3.49650346e-003
      3.49650346e-003 6.99300691e-003 3.49650346e-003 6.99300691e-003 0.
      0. 2.09790207e-002 1.04895104e-002 4.89510484e-002 6.99300691e-003
      1.39860138e-002 2.09790207e-002 6.99300691e-003 1.04895104e-002 0.
      6.99300691e-003 0. 3.49650346e-003 1.04895104e-002 3.49650346e-003
      0. 6.99300691e-003 3.49650346e-003 3.49650346e-003 1.39860138e-002
      0. 0. 2.09790207e-002 6.99300691e-003 6.99300691e-003
      3.49650346e-003 1.39860138e-002 1.04895104e-002 1.04895104e-002
      6.99300691e-003 1.74825173e-002 0. 0. 6.99300691e-003 0.
      1.74825173e-002 3.49650346e-003 0. 3.49650346e-003 6.99300691e-003
      0. 0. 0. 1.04895104e-002 2.09790207e-002 3.49650346e-003 0. 0.
      1.04895104e-002 1.74825173e-002 6.99300691e-003 0. 2.09790207e-002
      3.49650346e-003 6.99300691e-003 2.09790207e-002 3.49650346e-003
      3.49650346e-003 0. 0. 3.49650346e-003 0. 6.99300691e-003
      3.49650346e-003 3.49650346e-003 6.99300691e-003 3.49650346e-003
      1.04895104e-002 3.49650346e-003 3.49650346e-003 6.99300691e-003
      3.49650346e-003 3.49650346e-003 1.04895104e-002 6.99300691e-003
      6.99300691e-003 3.49650346e-003 0. 1.04895104e-002 1.04895104e-002
      1.04895104e-002 0. 0. 0. 6.99300691e-003 0. 1.04895104e-002 0.</_>
    <_>
      0. 1.62162166e-002 5.40540554e-003 0. 5.40540554e-003
      5.40540554e-003 5.40540554e-003 5.94594628e-002 0. 1.62162166e-002
      0. 5.40540554e-003 0. 5.40540554e-003 5.40540554e-003 0.
      5.40540554e-003 1.08108111e-002 0. 0. 0. 5.40540554e-003
      1.08108111e-002 0. 1.08108111e-002 0. 0. 5.40540554e-003
      1.08108111e-002 0. 1.08108111e-002 5.40540554e-003 1.08108111e-002
      1.08108111e-002 5.40540554e-003 1.08108111e-002 0. 5.40540554e-003
      5.40540554e-003 1.08108111e-002 1.62162166e-002 5.40540554e-003
      5.40540554e-003 0. 5.40540554e-003 0. 2.70270277e-002
      1.08108111e-002 1.08108111e-002 5.40540554e-003 5.40540554e-003
      1.62162166e-002 5.40540554e-003 5.40540554e-003 5.40540554e-003
      1.62162166e-002 0. 0. 0. 5.40540554e-003 0. 0. 5.40540554e-003
      1.08108111e-002 1.62162166e-002 1.62162166e-002 5.40540554e-003 0.
      0. 0. 0. 0. 0. 3.24324332e-002 5.40540554e-003 3.24324332e-002 0.
      5.40540554e-003 0. 2.16216221e-002 1.08108111e-002 0.
      5.40540554e-003 0. 3.78378406e-002 0. 0. 0. 0. 0. 5.40540554e-003
      5.40540554e-003 1.08108111e-002 5.40540554e-003 5.40540554e-003
      1.62162166e-002 0. 0. 0. 0. 1.08108111e-002 5.40540554e-003
      5.40540554e-003 5.40540554e-003 1.08108111e-002 0. 2.70270277e-002
      0. 5.40540554e-003 1.08108111e-002 0. 5.40540554e-003 0. 0.
      1.08108111e-002 0. 1.62162166e-002 5.94594628e-002 0. 0. 0.
      5.40540554e-003 0. 1.08108111e-002 5.40540554e-003 0.
      1.62162166e-002 5.40540554e-003 5.40540554e-003 5.40540554e-003
      2.16216221e-002 0. 0. 0. 1.08108111e-002 0. 5.40540554e-003 0. 0.
      5.40540554e-003 1.62162166e-002 5.40540554e-003 5.40540554e-003
      1.08108111e-002 0. 5.40540554e-003 0. 1.08108111e-002
      5.40540554e-003 5.40540554e-003</_>
    <_>
      6.89655170e-003 1.72413792e-003 1.20689655e-002 5.17241377e-003
      1.37931034e-002 6.89655170e-003 1.72413792e-003 1.72413792e-003
      3.44827585e-003 5.17241377e-003 5.17241377e-003 3.44827585e-003
      8.62068962e-003 1.72413792e-002 3.44827585e-003 8.62068962e-003
      1.72413792e-003 5.17241377e-003 6.89655170e-003 5.17241377e-003
      1.72413792e-002 6.89655170e-003 0. 0. 1.72413792e-002
      1.72413792e-003 6.89655170e-003 3.44827585e-003 5.17241377e-003
      1.72413792e-002 0. 1.20689655e-002 6.89655170e-003 1.20689655e-002
      5.17241377e-003 5.17241377e-003 3.44827585e-003 1.72413792e-003 0.
      5.17241377e-003 1.03448275e-002 6.89655170e-003 6.89655170e-003
      1.72413792e-003 0. 1.03448275e-002 3.44827585e-003 6.89655170e-003
      5.17241377e-003 6.89655170e-003 5.17241377e-003 5.17241377e-003
      6.89655170e-003 5.17241377e-003 3.44827585e-003 5.17241377e-003
      1.03448275e-002 8.62068962e-003 1.72413792e-003 1.72413792e-003
      8.62068962e-003 6.89655170e-003 5.17241377e-003 5.17241377e-003
      5.17241377e-003 1.03448275e-002 3.44827585e-003 5.17241377e-003
      3.44827585e-003 3.44827585e-003 3.44827585e-003 8.62068962e-003
      5.17241377e-003 3.44827585e-003 5.17241377e-003 3.44827585e-003
      3.44827585e-003 1.72413792e-003 3.44827585e-003 6.89655170e-003
      5.17241377e-003 5.17241377e-003 3.44827585e-003 3.44827585e-003
      3.44827585e-003 1.72413792e-003 1.72413792e-003 1.72413792e-003
      3.44827585e-003 0. 1.55172413e-002 3.44827585e-003 6.89655170e-003
      2.41379309e-002 5.17241377e-003 3.44827585e-003 5.17241377e-003
      5.17241377e-003 6.89655170e-003 3.44827585e-002 5.17241377e-003
      1.72413792e-002 6.89655170e-003 1.03448275e-002 3.44827585e-003
      8.62068962e-003 8.62068962e-003 5.51724136e-002 1.72413792e-003
      8.62068962e-003 1.72413792e-003 1.72413792e-003 1.03448275e-002
      1.72413792e-003 5.17241377e-003 3.44827585e-003 6.89655170e-003 0.
      0. 1.72413792e-003 6.89655170e-003 1.72413792e-003 6.89655170e-003
      5.17241377e-003 1.72413792e-003 1.72413792e-003 3.44827585e-003
      8.62068962e-003 3.44827585e-003 1.55172413e-002 6.89655170e-003
      1.03448275e-002 2.93103456e-002 8.62068962e-003 3.44827585e-003
      3.44827585e-002 3.44827585e-003 0. 1.72413792e-003 3.44827585e-003
      6.89655170e-003 2.41379309e-002 8.62068962e-003 3.44827585e-003
      3.44827585e-003 8.62068962e-003 3.44827585e-003 3.44827585e-003
      8.62068962e-003 8.62068962e-003</_>
    <_>
      3.05810408e-003 0. 1.83486249e-002 0. 1.83486249e-002
      3.05810408e-003 6.11620815e-003 3.36391442e-002 3.05810408e-003
      9.17431246e-003 9.17431246e-003 3.05810408e-003 6.11620815e-003
      4.28134575e-002 0. 0. 6.11620815e-003 1.22324163e-002 0.
      9.17431246e-003 0. 9.17431246e-003 3.05810408e-003 9.17431246e-003
      6.11620815e-003 3.05810408e-003 3.05810408e-003 6.11620815e-003
      6.11620815e-003 0. 1.52905202e-002 1.83486249e-002 3.05810408e-003
      3.05810408e-003 0. 3.05810408e-003 6.11620815e-003 1.52905202e-002
      3.05810408e-003 9.17431246e-003 2.14067288e-002 6.11620815e-003 0.
      0. 0. 1.83486249e-002 6.11620815e-003 6.11620815e-003
      1.52905202e-002 3.05810408e-003 0. 3.05810408e-003 3.05810408e-003
      6.11620815e-003 6.11620815e-003 9.17431246e-003 6.11620815e-003
      1.22324163e-002 3.05810408e-003 0. 0. 3.05810408e-003 0.
      2.14067288e-002 9.17431246e-003 1.52905202e-002 1.22324163e-002 0.
      1.52905202e-002 3.05810408e-003 3.05810408e-003 6.11620815e-003
      9.17431246e-003 0. 0. 1.83486249e-002 3.05810408e-003
      3.05810408e-003 6.11620815e-003 1.22324163e-002 3.05810408e-003
      1.52905202e-002 3.05810408e-003 0. 1.83486249e-002 0. 0.
      1.22324163e-002 6.11620815e-003 1.22324163e-002 0. 6.11620815e-003
      2.44648326e-002 0. 6.11620815e-003 1.52905202e-002 6.11620815e-003
      6.11620815e-003 6.11620815e-003 3.05810408e-003 6.11620815e-003 0.
      1.22324163e-002 0. 0. 6.11620815e-003 1.83486249e-002
      1.52905202e-002 6.11620815e-003 3.05810408e-003 3.05810408e-003 0.
      0. 0. 9.17431246e-003 6.11620815e-003 9.17431246e-003
      2.75229365e-002 6.11620815e-003 1.52905202e-002 3.05810408e-003
      3.05810408e-003 3.05810408e-003 0. 9.17431246e-003 0.
      3.05810408e-003 3.05810408e-003 3.05810408e-003 6.11620815e-003
      1.52905202e-002 6.11620815e-003 3.05810408e-003 0. 6.11620815e-003
      0. 0. 3.05810408e-003 9.17431246e-003 1.52905202e-002
      6.11620815e-003 3.05810408e-003 3.05810408e-003 6.11620815e-003 0.
      0. 2.14067288e-002 0. 6.11620815e-003 3.05810408e-003</_>
    <_>
      5.98802418e-003 0. 0. 0. 2.39520967e-002 0. 0. 1.19760484e-002 0.
      1.19760484e-002 5.98802418e-003 0. 0. 0. 5.98802418e-003
      1.19760484e-002 5.98802418e-003 0. 0. 1.79640725e-002
      1.79640725e-002 0. 0. 0. 0. 0. 5.98802418e-003 5.98802418e-003 0.
      7.78443143e-002 1.79640725e-002 5.98802418e-003 0. 0. 0.
      5.98802418e-003 5.98802418e-003 5.98802418e-003 5.98802418e-003 0.
      0. 0. 0. 0. 0. 0. 5.98802418e-003 5.98802418e-003 0. 0. 0. 0. 0.
      3.59281451e-002 0. 0. 1.79640725e-002 0. 0. 5.98802418e-003 0. 0.
      0. 0. 0. 1.19760484e-002 1.19760484e-002 0. 0. 2.75449097e-001
      5.98802418e-003 5.98802418e-003 0. 0. 0. 0. 0. 1.79640725e-002
      5.98802418e-003 1.79640725e-002 1.79640725e-002 1.19760484e-002 0.
      5.98802418e-003 0. 5.98802418e-003 0. 0. 1.19760484e-002 0.
      1.19760484e-002 0. 0. 0. 0. 0. 0. 1.79640725e-002 5.98802418e-003
      0. 2.39520967e-002 1.19760484e-002 5.98802418e-003 5.98802418e-003
      0. 0. 1.19760484e-002 0. 5.98802418e-003 0. 0. 0. 0. 0. 0.
      5.98802418e-003 0. 1.19760484e-002 0. 0. 0. 5.98802418e-003
      5.98802418e-003 0. 0. 0. 0. 5.98802418e-003 0. 0. 1.19760484e-002
      3.59281451e-002 1.19760484e-002 0. 0. 1.19760484e-002
      5.98802418e-003 0. 0. 0. 5.98802418e-003 0. 0. 0. 0.
      1.79640725e-002 0. 1.79640725e-002 5.98802418e-003 0.</_>
    <_>
      2.00000009e-003 4.00000019e-003 1.20000001e-002 1.40000004e-002
      2.60000005e-002 4.00000019e-003 8.00000038e-003 4.00000019e-003
      1.60000008e-002 2.00000009e-003 6.00000005e-003 2.00000009e-003
      1.20000001e-002 1.20000001e-002 2.20000017e-002 6.00000005e-003 0.
      8.00000038e-003 2.20000017e-002 4.00000019e-003 8.00000038e-003
      2.00000009e-003 2.00000009e-003 0. 4.00000019e-003 8.00000038e-003
      1.00000007e-002 8.00000038e-003 4.00000019e-003 2.00000009e-003
      4.00000019e-003 1.60000008e-002 0. 1.20000001e-002 6.00000005e-003
      6.00000005e-003 1.20000001e-002 8.00000038e-003 6.00000005e-003
      1.40000004e-002 6.00000005e-003 8.00000038e-003 2.00000009e-003
      4.00000019e-003 4.00000019e-003 2.00000014e-002 6.00000005e-003
      4.00000019e-003 2.00000009e-003 6.00000005e-003 1.00000007e-002
      6.00000005e-003 6.00000005e-003 6.00000005e-003 0. 2.00000009e-003
      0. 2.00000009e-003 8.00000038e-003 6.00000005e-003 1.00000007e-002
      8.00000038e-003 1.40000004e-002 6.00000005e-003 1.20000001e-002
      4.00000028e-002 6.00000005e-003 2.00000009e-003 0. 8.00000038e-003
      2.00000009e-003 4.00000019e-003 4.00000019e-003 2.00000009e-003
      2.00000009e-003 6.00000005e-003 6.00000005e-003 1.20000001e-002
      8.00000038e-003 6.00000005e-003 4.00000019e-003 4.00000019e-003
      4.00000019e-003 4.00000019e-003 2.00000009e-003 6.00000005e-003
      4.00000019e-003 0. 4.00000019e-003 4.00000019e-003 1.60000008e-002
      6.00000005e-003 1.60000008e-002 1.00000007e-002 1.00000007e-002
      1.80000011e-002 1.40000004e-002 0. 6.00000005e-003 1.20000001e-002
      2.00000009e-003 0. 4.00000019e-003 2.00000009e-003 8.00000038e-003
      8.00000038e-003 1.40000004e-002 6.00000005e-003 4.00000019e-003
      6.00000005e-003 2.00000009e-003 4.00000019e-003 4.00000019e-003
      8.00000038e-003 2.00000009e-003 6.00000005e-003 6.00000005e-003
      8.00000038e-003 0. 6.00000005e-003 1.80000011e-002 2.00000009e-003
      4.00000019e-003 6.00000005e-003 2.00000009e-003 2.00000009e-003 0.
      4.00000019e-003 8.00000038e-003 6.00000005e-003 1.00000007e-002
      4.00000019e-003 6.00000005e-003 4.00000019e-003 4.00000019e-003
      1.00000007e-002 2.00000009e-003 4.00000019e-003 2.00000009e-003
      6.00000005e-003 1.20000001e-002 1.80000011e-002 1.00000007e-002
      6.00000005e-003 2.00000009e-003 6.00000005e-003 4.00000019e-003 0.
      1.00000007e-002 0.</_>
    <_>
      4.95867757e-003 6.61157025e-003 8.26446246e-003 8.26446246e-003
      4.13223123e-003 1.40495868e-002 6.61157025e-003 4.95867757e-003
      9.09090880e-003 5.78512391e-003 6.61157025e-003 6.61157025e-003
      6.61157025e-003 4.95867757e-003 4.13223123e-003 1.65289249e-002
      6.61157025e-003 9.91735514e-003 6.61157025e-003 7.43801659e-003
      4.95867757e-003 6.61157025e-003 5.78512391e-003 5.78512391e-003
      8.26446246e-003 1.65289256e-003 9.09090880e-003 1.65289256e-003
      8.26446246e-003 1.65289249e-002 4.95867757e-003 8.26446246e-003
      8.26446281e-004 9.09090880e-003 9.09090880e-003 3.30578513e-003
      4.13223123e-003 7.43801659e-003 6.61157025e-003 9.91735514e-003
      6.61157025e-003 7.43801659e-003 1.23966942e-002 8.26446246e-003
      6.61157025e-003 5.78512391e-003 5.78512391e-003 4.95867757e-003
      9.09090880e-003 5.78512391e-003 2.47933879e-003 6.61157025e-003
      5.78512391e-003 9.91735514e-003 1.07438015e-002 4.95867757e-003
      9.91735514e-003 1.07438015e-002 8.26446246e-003 5.78512391e-003
      9.91735514e-003 4.13223123e-003 8.26446246e-003 2.47933879e-003
      9.91735514e-003 1.07438015e-002 8.26446246e-003 5.78512391e-003
      8.26446281e-004 1.23966942e-002 5.78512391e-003 6.61157025e-003
      1.65289256e-003 6.61157025e-003 4.95867757e-003 4.95867757e-003
      4.95867757e-003 1.90082639e-002 8.26446281e-004 3.30578513e-003
      9.09090880e-003 4.13223123e-003 8.26446246e-003 7.43801659e-003 0.
      6.61157025e-003 6.61157025e-003 4.13223123e-003 2.47933879e-003
      1.65289256e-003 4.95867757e-003 9.91735514e-003 4.13223123e-003
      6.61157025e-003 9.09090880e-003 3.30578513e-003 9.09090880e-003
      7.43801659e-003 3.30578513e-003 8.26446246e-003 6.61157025e-003
      1.40495868e-002 4.95867757e-003 1.15702478e-002 3.30578513e-003
      4.95867757e-003 4.13223123e-003 4.13223123e-003 7.43801659e-003
      8.26446281e-004 3.30578513e-003 1.15702478e-002 1.15702478e-002
      4.95867757e-003 0. 1.15702478e-002 6.61157025e-003 4.95867757e-003
      1.65289256e-003 1.23966942e-002 6.61157025e-003 1.07438015e-002
      7.43801659e-003 9.09090880e-003 7.43801659e-003 3.30578513e-003
      8.26446281e-004 6.61157025e-003 9.91735514e-003 8.26446246e-003
      5.78512391e-003 1.32231405e-002 8.26446246e-003 8.26446246e-003
      4.95867757e-003 3.30578513e-003 8.26446246e-003 5.78512391e-003
      3.30578513e-003 2.47933879e-003 3.30578513e-003 8.26446246e-003
      7.43801659e-003 5.78512391e-003 3.30578513e-003 9.09090880e-003
      6.61157025e-003 4.13223123e-003 3.30578513e-003 7.43801659e-003</_>
    <_>
      9.14634112e-003 3.04878037e-003 1.82926822e-002 0. 6.09756075e-003
      9.14634112e-003 9.14634112e-003 3.96341458e-002 1.52439019e-002
      3.04878037e-003 0. 3.04878037e-003 3.04878037e-003 9.14634112e-003
      3.04878037e-003 6.09756075e-003 0. 3.04878037e-003 0.
      3.04878037e-003 9.14634112e-003 0. 3.04878037e-003 0.
      9.14634112e-003 0. 1.21951215e-002 1.21951215e-002 3.04878037e-003
      3.04878037e-003 6.09756075e-003 3.04878037e-003 0. 3.04878037e-003
      9.14634112e-003 6.09756075e-003 6.09756075e-003 1.82926822e-002
      3.04878037e-003 1.21951215e-002 3.35365832e-002 1.52439019e-002 0.
      9.14634112e-003 0. 3.04878037e-003 6.09756075e-003 6.09756075e-003
      3.04878037e-003 9.14634112e-003 6.09756075e-003 6.09756075e-003
      3.04878037e-003 6.09756075e-003 6.09756075e-003 6.09756075e-003
      6.09756075e-003 6.09756075e-003 3.04878037e-003 9.14634112e-003
      3.04878037e-003 6.09756075e-003 0. 0. 0. 3.04878037e-003 0.
      6.09756075e-003 3.04878037e-002 0. 3.04878037e-003 3.04878037e-003
      3.04878037e-003 0. 9.14634112e-003 2.13414617e-002 6.09756075e-003
      0. 9.14634112e-003 6.09756075e-003 3.04878037e-003 3.04878037e-002
      0. 3.04878037e-003 9.14634112e-003 3.04878037e-003 3.04878037e-003
      3.04878037e-003 3.04878037e-003 2.74390243e-002 9.14634112e-003
      3.04878037e-003 9.14634112e-003 0. 6.09756075e-003 3.04878037e-003
      0. 0. 2.13414617e-002 1.21951215e-002 9.14634112e-003
      3.04878037e-003 6.09756075e-003 0. 0. 3.04878037e-003
      2.13414617e-002 3.04878037e-003 3.04878037e-003 6.09756075e-003
      3.04878037e-003 1.21951215e-002 9.14634112e-003 3.04878037e-003
      3.35365832e-002 3.04878037e-003 0. 4.26829234e-002 0.
      3.04878037e-003 9.14634112e-003 6.09756075e-003 6.09756075e-003 0.
      6.09756075e-003 3.04878037e-003 6.09756075e-003 1.21951215e-002
      6.09756075e-003 0. 3.04878037e-003 0. 1.21951215e-002 0. 0.
      3.04878037e-003 6.09756075e-003 3.04878037e-003 2.13414617e-002
      2.43902430e-002 1.52439019e-002 3.04878037e-003 6.09756075e-003 0.
      0. 3.04878037e-003 6.09756075e-003 0. 3.04878037e-003
      6.09756075e-003</_>
    <_>
      7.81250000e-003 0. 0. 0. 0. 7.81250000e-003 0. 4.68750000e-002 0.
      0. 0. 0. 0. 0. 0. 3.12500000e-002 0. 7.81250000e-003
      7.81250000e-003 0. 5.46875000e-002 2.34375000e-002 7.81250000e-003
      0. 0. 0. 0. 1.56250000e-002 7.81250000e-003 5.46875000e-002 0. 0.
      2.34375000e-002 0. 0. 0. 0. 7.81250000e-003 0. 1.56250000e-002
      2.34375000e-002 0. 1.56250000e-002 7.81250000e-003 1.56250000e-002
      0. 7.81250000e-003 0. 0. 0. 1.56250000e-002 0. 7.81250000e-003 0.
      2.34375000e-002 0. 0. 2.34375000e-002 7.81250000e-003
      2.34375000e-002 0. 0. 0. 1.56250000e-002 0. 0. 0. 7.81250000e-003
      0. 3.12500000e-002 0. 0. 7.81250000e-003 0. 0. 2.34375000e-002
      7.81250000e-003 0. 0. 0. 0. 0. 7.81250000e-003 7.81250000e-003
      1.56250000e-002 0. 0. 0. 0. 7.81250000e-003 0. 0. 0. 0.
      7.81250000e-003 7.81250000e-003 0. 2.34375000e-002 1.56250000e-002
      7.81250000e-003 0. 4.68750000e-002 0. 0. 0. 0. 0. 0.
      2.34375000e-002 0. 0. 7.03125000e-002 0. 0. 0. 7.81250000e-003
      7.81250000e-003 4.68750000e-002 1.56250000e-002 0. 0. 0. 0. 0.
      1.56250000e-002 0. 7.81250000e-003 0. 7.81250000e-003
      7.81250000e-003 0. 0. 0. 7.81250000e-003 0. 0. 0. 0. 0.
      2.34375000e-002 0. 0. 7.81250000e-003 0. 0. 7.81250000e-003 0.
      7.81250000e-003 0. 0.</_>
    <_>
      6.93240901e-003 1.73310225e-003 6.93240901e-003 1.21317161e-002
      1.73310225e-003 5.19930664e-003 5.19930664e-003 3.46620455e-002
      1.73310225e-003 2.25303285e-002 8.66551138e-003 1.73310225e-003
      5.19930664e-003 2.25303285e-002 1.73310225e-003 5.19930664e-003
      5.19930664e-003 8.66551138e-003 1.03986133e-002 2.77296361e-002
      6.93240901e-003 0. 8.66551138e-003 3.46620451e-003 3.46620451e-003
      3.46620451e-003 3.46620451e-003 1.38648180e-002 3.46620451e-003
      5.19930664e-003 1.38648180e-002 1.03986133e-002 1.03986133e-002
      3.46620451e-003 3.46620451e-003 3.46620451e-003 3.46620451e-003
      3.46620451e-003 0. 1.21317161e-002 1.03986133e-002 1.03986133e-002
      5.19930664e-003 6.93240901e-003 1.21317161e-002 3.46620451e-003
      5.19930664e-003 8.66551138e-003 1.73310225e-003 1.73310225e-003
      1.38648180e-002 1.73310225e-003 3.46620451e-003 3.46620451e-003
      6.93240901e-003 1.21317161e-002 3.46620451e-003 1.73310225e-003
      1.73310225e-003 5.19930664e-003 1.03986133e-002 5.19930664e-003
      5.19930664e-003 5.19930664e-003 6.93240901e-003 0. 3.46620451e-003
      1.73310225e-003 8.66551138e-003 3.46620451e-003 5.19930664e-003
      8.66551138e-003 1.73310225e-003 1.03986133e-002 6.93240901e-003
      1.55979199e-002 1.73310225e-003 1.73310225e-003 1.03986133e-002
      3.46620451e-003 3.46620451e-003 8.66551138e-003 5.19930664e-003 0.
      1.90641247e-002 8.66551138e-003 1.73310225e-003 6.93240901e-003
      1.38648180e-002 1.73310225e-003 5.19930664e-003 5.19930664e-003
      1.03986133e-002 1.73310225e-003 8.66551138e-003 2.07972266e-002
      1.73310225e-003 0. 6.93240901e-003 5.19930664e-003 3.46620451e-003
      8.66551138e-003 8.66551138e-003 6.93240901e-003 3.46620451e-003
      3.46620451e-003 6.93240901e-003 6.93240901e-003 1.55979199e-002 0.
      3.46620451e-003 3.46620451e-003 3.46620451e-003 1.21317161e-002
      1.38648180e-002 1.73310225e-003 6.93240901e-003 3.63951474e-002
      6.93240901e-003 1.55979199e-002 1.73310225e-003 1.21317161e-002
      5.19930664e-003 5.19930664e-003 8.66551138e-003 1.21317161e-002
      6.93240901e-003 0. 3.46620451e-003 3.46620451e-003 0.
      3.46620451e-003 8.66551138e-003 1.73310225e-003 5.19930664e-003 0.
      5.19930664e-003 5.19930664e-003 3.46620451e-003 6.93240901e-003
      8.66551138e-003 3.46620451e-003 0. 6.93240901e-003 5.19930664e-003
      3.46620451e-003 8.66551138e-003 0. 6.93240901e-003 6.93240901e-003</_>
    <_>
      6.13496918e-003 0. 1.22699384e-002 0. 0. 0. 0. 6.74846619e-002 0.
      0. 0. 0. 6.13496918e-003 1.84049085e-002 0. 0. 0. 6.13496918e-003
      0. 0. 0. 0. 1.22699384e-002 6.13496918e-003 0. 1.22699384e-002 0.
      1.84049085e-002 0. 0. 1.84049085e-002 6.13496918e-003 0.
      6.13496918e-003 6.13496918e-003 1.22699384e-002 6.13496918e-003 0.
      0. 0. 4.90797535e-002 6.13496918e-003 0. 0. 0. 1.22699384e-002
      6.13496918e-003 1.84049085e-002 0. 0. 6.13496918e-003 0. 0. 0.
      6.13496918e-003 6.13496918e-003 0. 6.13496918e-003 0.
      6.13496918e-003 0. 6.13496918e-003 0. 1.22699384e-002 0.
      1.22699384e-002 6.13496918e-003 1.84049085e-002 4.29447852e-002 0.
      0. 0. 2.45398767e-002 0. 0. 1.84049085e-002 0. 0. 0.
      2.45398767e-002 1.84049085e-002 3.68098170e-002 0. 0. 0.
      6.13496918e-003 1.84049085e-002 0. 6.13496918e-003 6.13496918e-003
      0. 0. 0. 0. 1.22699384e-002 6.13496918e-003 0. 0. 1.22699384e-002
      6.13496918e-003 0. 0. 1.22699384e-002 0. 0. 1.22699384e-002
      2.45398767e-002 0. 0. 6.13496918e-003 0. 0. 0. 0. 4.90797535e-002
      0. 1.84049085e-002 1.04294479e-001 2.45398767e-002 6.13496918e-003
      0. 0. 6.13496918e-003 0. 0. 1.84049085e-002 6.13496918e-003
      6.13496918e-003 0. 0. 1.22699384e-002 1.22699384e-002 0.
      6.13496918e-003 0. 0. 0. 0. 0. 1.84049085e-002 6.13496918e-003 0.
      0. 0. 0. 0. 6.13496918e-003 0. 6.13496918e-003 0.</_>
    <_>
      4.88997577e-003 3.66748171e-003 3.66748171e-003 4.88997577e-003
      3.66748171e-003 6.11246983e-003 1.22249394e-003 6.11246983e-003
      1.10024456e-002 6.11246983e-003 1.83374099e-002 7.33496342e-003
      3.66748171e-003 0. 2.56723724e-002 9.77995154e-003 4.88997577e-003
      4.88997577e-003 3.66748171e-003 2.81173605e-002 1.34474337e-002
      4.88997577e-003 4.88997577e-003 1.58924218e-002 0. 6.11246983e-003
      9.77995154e-003 7.33496342e-003 1.95599031e-002 6.11246983e-003
      4.88997577e-003 3.66748171e-003 7.33496342e-003 1.58924218e-002
      2.44498788e-003 1.22249397e-002 3.66748171e-003 3.66748171e-003
      6.11246983e-003 1.10024456e-002 7.33496342e-003 4.88997577e-003
      6.11246983e-003 1.22249394e-003 2.44498788e-003 0. 2.44498788e-003
      3.66748171e-003 9.77995154e-003 6.11246983e-003 1.10024456e-002
      1.10024456e-002 1.22249394e-003 0. 1.10024456e-002 4.88997577e-003
      1.22249397e-002 6.11246983e-003 4.88997577e-003 9.77995154e-003
      1.22249394e-003 2.44498788e-003 0. 9.77995154e-003 9.77995154e-003
      7.33496342e-003 1.34474337e-002 4.88997577e-003 6.11246983e-003
      1.22249394e-003 1.58924218e-002 7.33496342e-003 1.22249394e-003
      6.11246983e-003 9.77995154e-003 8.55745748e-003 1.22249397e-002
      8.55745748e-003 6.11246983e-003 7.33496342e-003 9.77995154e-003
      3.66748171e-003 7.33496342e-003 7.33496342e-003 6.11246983e-003
      4.88997577e-003 7.33496342e-003 4.88997577e-003 4.88997577e-003
      7.33496342e-003 4.88997577e-003 8.55745748e-003 2.44498788e-003 0.
      9.77995154e-003 3.66748171e-003 7.33496342e-003 8.55745748e-003
      1.22249394e-003 1.22249394e-003 6.11246983e-003 4.88997577e-003
      7.33496342e-003 1.83374099e-002 2.44498788e-003 3.66748171e-003
      1.22249394e-003 1.22249394e-003 3.66748171e-003 4.88997577e-003
      3.66748171e-003 4.88997577e-003 4.88997577e-003 1.34474337e-002
      8.55745748e-003 1.10024456e-002 1.10024456e-002 2.07823962e-002
      2.44498788e-003 1.22249394e-003 4.88997577e-003 9.77995154e-003
      7.33496342e-003 1.58924218e-002 2.44498788e-003 1.22249394e-003
      3.66748171e-003 6.11246983e-003 6.11246983e-003 1.46699268e-002
      1.10024456e-002 2.44498788e-003 3.66748171e-003 3.66748171e-003
      8.55745748e-003 0. 9.77995154e-003 1.83374099e-002 3.66748171e-003
      3.66748171e-003 0. 0. 2.44498788e-003 1.10024456e-002
      2.44498788e-003 1.22249394e-003 7.33496342e-003 1.22249397e-002 0.
      7.33496342e-003</_>
    <_>
      4.08163248e-003 0. 8.16326495e-003 4.08163248e-003 4.08163248e-003
      4.08163248e-003 0. 6.12244867e-002 0. 4.08163248e-003
      4.08163248e-003 8.16326495e-003 0. 2.44897939e-002 0.
      4.08163248e-003 0. 8.16326495e-003 0. 1.22448970e-002 0.
      8.16326495e-003 0. 4.08163248e-003 4.08163248e-003 1.63265299e-002
      0. 2.44897939e-002 0. 1.22448970e-002 8.16326495e-003 0.
      1.22448970e-002 0. 4.08163248e-003 0. 1.22448970e-002
      4.08163248e-003 4.08163248e-003 8.16326495e-003 1.63265299e-002 0.
      0. 4.08163248e-003 4.08163248e-003 4.08163248e-003 1.22448970e-002
      1.63265299e-002 0. 8.16326495e-003 4.08163248e-003 0. 0. 0.
      4.08163248e-003 4.08163248e-003 4.08163248e-003 0. 0.
      1.63265299e-002 1.22448970e-002 1.22448970e-002 4.08163248e-003
      4.08163248e-003 8.16326495e-003 2.04081628e-002 4.08163248e-003
      4.08163248e-003 2.44897939e-002 0. 4.08163248e-003 4.08163248e-003
      1.63265299e-002 0. 4.08163248e-003 2.04081628e-002 4.08163248e-003
      4.08163248e-003 8.16326495e-003 1.63265299e-002 0. 4.08163248e-003
      8.16326495e-003 0. 1.22448970e-002 0. 8.16326495e-003 0.
      8.16326495e-003 4.08163248e-003 0. 4.08163248e-003 1.63265299e-002
      0. 1.63265299e-002 1.63265299e-002 4.08163248e-003 1.63265299e-002
      2.04081628e-002 0. 0. 8.16326495e-003 4.08163248e-003
      4.08163248e-003 0. 1.22448970e-002 2.04081628e-002 8.16326495e-003
      8.16326495e-003 0. 4.08163248e-003 8.16326495e-003 4.08163248e-003
      0. 1.22448970e-002 4.08163248e-003 8.16326495e-003 8.16326514e-002
      8.16326495e-003 4.08163248e-003 4.08163248e-003 4.08163248e-003 0.
      0. 8.16326495e-003 4.08163248e-003 0. 1.63265299e-002 0.
      8.16326495e-003 1.63265299e-002 0. 4.08163248e-003 0. 0. 0. 0.
      4.08163248e-003 0. 4.08163248e-003 2.85714269e-002 4.08163248e-003
      0. 4.08163248e-003 0. 0. 0. 4.08163248e-003 0. 0.</_>
    <_>
      1.53374230e-003 6.13496918e-003 1.53374230e-003 0. 7.66871125e-003
      1.07361963e-002 3.06748459e-003 1.84049085e-002 3.06748459e-003
      7.66871125e-003 6.13496918e-003 7.66871125e-003 1.53374230e-003
      3.06748459e-003 3.06748459e-003 1.07361963e-002 1.07361963e-002
      6.13496918e-003 3.06748459e-003 7.66871125e-003 4.60122712e-003
      3.06748459e-003 3.06748459e-003 7.66871125e-003 1.07361963e-002
      3.06748459e-003 7.66871125e-003 1.38036804e-002 0. 2.91411038e-002
      3.06748459e-003 6.13496918e-003 4.60122712e-003 6.13496918e-003
      7.66871125e-003 6.13496918e-003 9.20245424e-003 4.60122712e-003
      7.66871125e-003 7.66871125e-003 7.66871125e-003 4.60122712e-003
      1.53374225e-002 3.06748459e-003 9.20245424e-003 1.53374230e-003
      1.07361963e-002 7.66871125e-003 4.60122712e-003 4.60122712e-003
      1.53374230e-003 0. 3.06748459e-003 1.53374230e-003 1.07361963e-002
      7.66871125e-003 7.66871125e-003 7.66871125e-003 9.20245424e-003
      9.20245424e-003 1.53374230e-003 0. 3.06748459e-003 6.13496918e-003
      1.53374230e-003 2.14723926e-002 6.13496918e-003 3.06748459e-003
      1.53374225e-002 1.99386496e-002 4.60122712e-003 6.13496918e-003
      4.60122712e-003 4.60122712e-003 4.60122712e-003 1.38036804e-002
      3.06748459e-003 1.53374230e-003 4.60122712e-003 6.13496918e-003
      4.60122712e-003 1.07361963e-002 4.60122712e-003 4.60122712e-003
      1.22699384e-002 4.60122712e-003 4.60122712e-003 6.13496918e-003
      6.13496918e-003 4.60122712e-003 0. 6.13496918e-003 1.07361963e-002
      2.14723926e-002 7.66871125e-003 1.53374225e-002 4.60122712e-003
      1.84049085e-002 1.53374225e-002 4.60122712e-003 1.53374230e-003
      6.13496918e-003 6.13496918e-003 1.22699384e-002 1.22699384e-002
      3.06748459e-003 7.66871125e-003 1.22699384e-002 6.13496918e-003
      3.06748459e-003 0. 9.20245424e-003 0. 4.60122712e-003
      4.60122712e-003 1.22699384e-002 6.13496918e-003 6.13496918e-003
      1.53374230e-003 1.53374230e-003 0. 1.53374230e-003 7.66871125e-003
      4.60122712e-003 3.06748459e-003 7.66871125e-003 1.53374230e-003
      1.53374230e-003 0. 1.53374230e-003 7.66871125e-003 4.60122712e-003
      2.30061337e-002 7.66871125e-003 1.53374230e-003 1.99386496e-002
      3.06748459e-003 7.66871125e-003 6.13496918e-003 4.60122712e-003
      9.20245424e-003 1.53374225e-002 1.53374230e-003 3.06748459e-003 0.
      6.13496918e-003 1.07361963e-002 1.07361963e-002 1.38036804e-002
      6.13496918e-003</_>
    <_>
      1.32743362e-002 1.32743362e-002 1.76991150e-002 8.84955749e-003
      8.84955749e-003 0. 8.84955749e-003 1.76991150e-002 4.42477874e-003
      8.84955749e-003 0. 0. 8.84955749e-003 3.09734512e-002 0. 0. 0.
      4.42477874e-003 1.76991150e-002 1.76991150e-002 8.84955749e-003
      4.42477874e-003 0. 4.42477874e-003 1.76991150e-002 0. 0.
      1.32743362e-002 0. 0. 8.84955749e-003 4.42477874e-003
      1.76991150e-002 4.42477874e-003 4.42477874e-003 4.42477874e-003
      4.42477874e-003 0. 4.42477874e-003 0. 4.42477874e-003
      4.42477874e-003 0. 8.84955749e-003 4.42477874e-003 1.32743362e-002
      0. 8.84955749e-003 4.42477874e-003 4.42477874e-003 4.42477874e-003
      0. 4.42477874e-003 4.42477874e-003 0. 1.76991150e-002
      4.42477874e-003 8.84955749e-003 4.42477874e-003 0. 1.32743362e-002
      0. 4.42477874e-003 1.32743362e-002 8.84955749e-003 1.32743362e-002
      8.84955749e-003 1.76991150e-002 8.84955749e-003 4.42477874e-003 0.
      0. 2.21238937e-002 0. 4.42477874e-003 1.76991150e-002
      4.42477874e-003 0. 0. 1.32743362e-002 1.76991150e-002
      4.42477874e-003 0. 4.42477874e-003 1.32743362e-002 4.42477874e-003
      0. 4.42477874e-003 8.84955749e-003 4.42477874e-003 0.
      8.84955749e-003 4.42477874e-003 8.84955749e-003 0. 0.
      2.21238937e-002 8.84955749e-003 0. 1.32743362e-002 8.84955749e-003
      0. 0. 1.76991150e-002 8.84955749e-003 8.84955749e-003
      4.42477874e-003 4.42477874e-003 0. 0. 4.42477874e-003 0.
      8.84955749e-003 0. 0. 0. 4.42477874e-003 4.42477874e-003
      4.42477874e-003 8.84955749e-003 1.76991150e-002 0. 4.42477874e-003
      4.42477874e-003 4.42477874e-003 8.84955749e-003 2.21238937e-002
      1.76991150e-002 0. 4.42477874e-003 1.32743362e-002 4.42477874e-003
      8.84955749e-003 4.42477874e-003 1.32743362e-002 1.32743362e-002 0.
      0. 4.42477874e-003 4.42477874e-003 8.84955749e-003 3.09734512e-002
      1.76991150e-002 4.42477874e-003 8.84955749e-003 4.42477874e-003
      8.84955749e-003 4.42477874e-003 4.42477874e-003 0.</_>
    <_>
      7.81250000e-003 0. 2.34375000e-002 0. 7.81250000e-003
      3.90625000e-003 0. 7.42187500e-002 0. 3.90625000e-003 0.
      1.56250000e-002 3.90625000e-003 2.34375000e-002 3.90625000e-003 0.
      0. 7.81250000e-003 7.81250000e-003 7.81250000e-003 0. 0.
