<?xml version="1.0"?>
<opencv_storage>
<my_svm type_id="opencv-ml-svm">
  <svm_type>C_SVC</svm_type>
  <kernel><type>RBF</type>
    <gamma>1.0000000000000001e-005</gamma></kernel>
  <C>1.0000000000000001e-001</C>
  <term_criteria><epsilon>1.1920928955078125e-007</epsilon>
    <iterations>1000</iterations></term_criteria>
  <var_all>150</var_all>
  <var_count>150</var_count>
  <class_count>2</class_count>
  <class_labels type_id="opencv-matrix">
    <rows>1</rows>
    <cols>2</cols>
    <dt>i</dt>
    <data>
      0 1</data></class_labels>
  <sv_total>121</sv_total>
  <support_vectors>
    <_>
      7.43494416e-003 7.43494416e-003 3.71747208e-003 3.71747208e-003 0.
      0. 3.71747208e-003 5.57620823e-002 0. 0. 0. 0. 3.71747208e-003
      1.11524165e-002 0. 3.71747208e-003 7.43494416e-003 3.71747208e-003
      3.71747208e-003 1.48698883e-002 0. 2.23048329e-002 7.43494416e-003
      0. 7.43494416e-003 0. 3.71747208e-003 3.71747203e-002
      3.71747208e-003 5.20446077e-002 7.43494416e-003 0. 0. 0.
      1.85873602e-002 3.71747208e-003 0. 7.43494416e-003 1.11524165e-002
      0. 1.11524165e-002 7.43494416e-003 1.48698883e-002 1.11524165e-002
      3.71747208e-003 3.71747208e-003 3.71747208e-003 3.71747208e-003
      1.11524165e-002 0. 3.71747203e-002 3.71747208e-003 7.43494416e-003
      1.11524165e-002 0. 3.71747208e-003 3.71747208e-003 3.71747208e-003
      0. 3.71747208e-003 3.71747208e-003 3.71747208e-003 7.43494416e-003
      1.85873602e-002 0. 1.11524165e-002 0. 0. 1.85873602e-002
      5.57620823e-002 3.71747208e-003 0. 7.43494416e-003 0. 0.
      7.43494416e-003 3.71747208e-003 0. 1.85873602e-002 0.
      3.71747208e-003 3.71747208e-003 0. 0. 7.43494416e-003 0. 0.
      3.71747208e-003 1.48698883e-002 7.43494416e-003 1.48698883e-002
      1.11524165e-002 0. 7.43494416e-003 0. 1.11524165e-002
      1.11524165e-002 7.43494416e-003 3.71747208e-003 1.48698883e-002
      3.71747208e-003 0. 0. 0. 0. 0. 0. 3.71747208e-003 7.43494416e-003
      0. 3.71747208e-003 0. 0. 0. 1.11524165e-002 0. 0. 5.94795533e-002
      0. 3.71747208e-003 3.71747208e-003 3.71747208e-003 3.71747208e-003
      7.43494416e-003 3.71747208e-003 3.71747208e-003 0. 7.43494416e-003
      7.43494416e-003 3.71747208e-003 3.71747208e-003 1.85873602e-002
      1.11524165e-002 0. 1.11524165e-002 7.43494416e-003 3.71747208e-003
      0. 1.11524165e-002 7.43494416e-003 0. 1.48698883e-002
      7.43494416e-003 0. 0. 7.43494416e-003 1.11524165e-002
      7.43494416e-003 0. 0.</_>
    <_>
      4.08830727e-003 7.35895336e-003 0. 8.17661453e-003 0.
      1.39002446e-002 4.90596890e-003 4.08830727e-003 1.71708912e-002 0.
      1.96238756e-002 8.99427570e-003 4.90596890e-003 8.17661465e-004
      8.99427570e-003 8.17661453e-003 8.99427570e-003 3.27064586e-003
      8.17661465e-004 4.08830727e-003 4.08830727e-003 8.17661453e-003
      8.99427570e-003 4.08830727e-003 1.06295990e-002 8.17661465e-004
      8.99427570e-003 7.35895336e-003 1.14472602e-002 1.14472602e-002
      2.45298445e-003 6.54129172e-003 1.63532293e-003 1.06295990e-002
      4.08830727e-003 1.30825834e-002 4.90596890e-003 8.17661453e-003
      1.06295990e-002 6.54129172e-003 2.45298445e-003 4.90596890e-003
      1.14472602e-002 9.81193781e-003 1.06295990e-002 0. 8.99427570e-003
      7.35895336e-003 4.08830727e-003 6.54129172e-003 3.27064586e-003
      9.81193781e-003 7.35895336e-003 5.72363008e-003 7.35895336e-003
      4.90596890e-003 9.81193781e-003 9.81193781e-003 4.08830727e-003
      6.54129172e-003 5.72363008e-003 4.90596890e-003 4.90596890e-003
      8.17661465e-004 1.39002446e-002 0. 1.30825834e-002 1.06295990e-002
      8.17661465e-004 7.35895336e-003 6.54129172e-003 2.04415359e-002
      3.27064586e-003 1.22649223e-002 1.47179067e-002 1.63532293e-003
      1.30825834e-002 1.63532291e-002 3.27064586e-003 8.17661465e-004
      7.35895336e-003 4.08830727e-003 1.06295990e-002 6.54129172e-003
      3.27064586e-003 1.30825834e-002 5.72363008e-003 1.14472602e-002
      2.45298445e-003 1.63532293e-003 0. 6.54129172e-003 2.45298445e-003
      8.17661453e-003 1.14472602e-002 6.54129172e-003 4.90596890e-003
      5.72363008e-003 2.45298445e-003 4.08830727e-003 5.72363008e-003
      1.39002446e-002 9.81193781e-003 1.39002446e-002 3.27064586e-003
      4.90596890e-003 8.17661465e-004 8.17661465e-004 3.27064586e-003
      8.17661465e-004 8.17661453e-003 4.08830727e-003 4.08830727e-003
      1.88062135e-002 8.17661465e-004 1.30825834e-002 1.22649223e-002
      4.08830727e-003 1.63532293e-003 4.90596890e-003 8.17661465e-004
      2.12591980e-002 1.14472602e-002 1.88062135e-002 9.81193781e-003
      3.27064586e-003 0. 2.45298445e-003 8.99427570e-003 6.54129172e-003
      2.45298445e-003 2.45298445e-003 6.54129172e-003 9.81193781e-003
      1.63532293e-003 2.45298445e-003 8.99427570e-003 5.72363008e-003
      4.90596890e-003 8.17661465e-004 8.17661465e-004 1.63532293e-003
      8.17661465e-004 1.79885514e-002 8.17661465e-004 6.54129172e-003
      8.99427570e-003 1.14472602e-002 3.27064586e-003 8.17661453e-003</_>
    <_>
      4.49775113e-003 3.74812610e-003 2.99850083e-003 1.42428791e-002
      3.74812610e-003 2.99850083e-003 4.49775113e-003 6.74662692e-003
      1.87406298e-002 9.74512752e-003 7.49625219e-003 2.99850083e-003
      5.24737639e-003 1.49925041e-003 8.99550226e-003 8.24587699e-003
      5.24737639e-003 5.24737639e-003 5.99700166e-003 6.74662692e-003
      8.99550226e-003 7.49625219e-003 6.74662692e-003 3.74812610e-003
      6.74662692e-003 3.74812610e-003 1.27436286e-002 1.34932538e-002
      9.74512752e-003 2.32383814e-002 4.49775113e-003 2.99850083e-003
      3.74812610e-003 1.34932538e-002 8.24587699e-003 1.49925044e-002
      2.99850083e-003 4.49775113e-003 8.24587699e-003 8.99550226e-003
      1.49925041e-003 5.99700166e-003 1.04947528e-002 8.99550226e-003
      7.49625219e-003 3.74812610e-003 4.49775113e-003 6.74662692e-003
      7.49625219e-003 3.74812610e-003 1.49925041e-003 7.49625219e-003
      1.04947528e-002 9.74512752e-003 1.19940033e-002 5.99700166e-003
      1.57421287e-002 1.04947528e-002 4.49775113e-003 8.24587699e-003
      7.49625219e-003 4.49775113e-003 9.74512752e-003 7.49625207e-004
      8.24587699e-003 3.74812610e-003 4.49775113e-003 4.49775113e-003
      1.49925041e-003 2.02398803e-002 1.04947528e-002 4.49775113e-003
      5.24737639e-003 4.49775113e-003 4.49775113e-003 1.04947528e-002
      5.99700166e-003 9.74512752e-003 6.74662692e-003 3.74812610e-003
      7.49625219e-003 2.24887556e-003 1.04947528e-002 1.27436286e-002
      8.24587699e-003 2.24887556e-003 4.49775113e-003 6.74662692e-003
      8.24587699e-003 3.74812610e-003 5.24737639e-003 6.74662692e-003
      2.24887556e-003 8.24587699e-003 4.49775113e-003 4.49775113e-003
      1.49925044e-002 5.24737639e-003 7.49625207e-004 5.24737639e-003
      8.99550226e-003 5.24737639e-003 5.24737639e-003 1.04947528e-002
      1.49925041e-003 4.49775113e-003 2.99850083e-003 2.99850083e-003
      7.49625219e-003 7.49625219e-003 5.24737639e-003 4.49775113e-003
      5.24737639e-003 9.74512752e-003 3.74812610e-003 1.12443781e-002
      5.99700166e-003 8.24587699e-003 4.49775113e-003 3.74812610e-003
      3.74812610e-003 1.57421287e-002 3.74812610e-003 1.19940033e-002
      2.99850083e-003 3.74812610e-003 2.99850083e-003 3.74812610e-003
      8.99550226e-003 5.99700166e-003 5.24737639e-003 2.24887556e-003
      1.19940033e-002 8.24587699e-003 2.99850083e-003 1.27436286e-002
      5.24737639e-003 7.49625219e-003 2.99850083e-003 1.49925041e-003
      3.74812610e-003 5.99700166e-003 6.74662692e-003 5.24737639e-003
      6.74662692e-003 5.24737639e-003 5.99700166e-003 3.74812610e-003
      1.49925041e-003 9.74512752e-003</_>
    <_>
      6.50054170e-003 5.41711785e-003 6.50054170e-003 1.08342357e-002
      2.16684723e-003 8.66738893e-003 3.25027085e-003 4.33369447e-003
      1.62513535e-002 6.50054170e-003 2.49187425e-002 5.41711785e-003
      6.50054170e-003 0. 2.49187425e-002 6.50054170e-003 9.75081231e-003
      3.25027085e-003 2.16684723e-003 1.08342362e-003 6.50054170e-003
      2.16684723e-003 3.25027085e-003 4.33369447e-003 7.58396555e-003
      3.25027085e-003 1.51679311e-002 1.40845068e-002 8.66738893e-003
      2.05850489e-002 1.08342362e-003 4.33369447e-003 0. 8.66738893e-003
      9.75081231e-003 1.84182022e-002 2.16684723e-003 5.41711785e-003
      7.58396555e-003 9.75081231e-003 3.25027085e-003 6.50054170e-003
      9.75081231e-003 8.66738893e-003 7.58396555e-003 1.08342362e-003
      2.16684723e-003 5.41711785e-003 0. 0. 3.25027085e-003
      6.50054170e-003 8.66738893e-003 6.50054170e-003 5.41711785e-003
      1.08342357e-002 1.62513535e-002 1.08342357e-002 4.33369447e-003
      5.41711785e-003 8.66738893e-003 6.50054170e-003 1.08342357e-002 0.
      8.66738893e-003 1.08342362e-003 1.08342362e-003 6.50054170e-003
      2.16684723e-003 1.08342357e-002 5.41711785e-003 1.62513535e-002 0.
      1.62513535e-002 5.41711785e-003 2.16684723e-003 5.41711785e-003
      9.75081231e-003 2.16684723e-003 4.33369447e-003 2.16684723e-003 0.
      4.33369447e-003 1.40845068e-002 3.25027085e-003 8.66738893e-003
      1.08342362e-003 0. 2.16684723e-003 1.08342362e-003 0.
      1.51679311e-002 1.08342362e-003 9.75081231e-003 9.75081231e-003
      9.75081231e-003 1.08342357e-002 4.33369447e-003 2.16684723e-003
      2.16684723e-003 6.50054170e-003 3.25027085e-003 9.75081231e-003
      5.41711785e-003 5.41711785e-003 5.41711785e-003 1.08342362e-003
      4.33369447e-003 7.58396555e-003 1.73347779e-002 7.58396555e-003
      1.73347779e-002 6.50054170e-003 1.19176600e-002 3.25027085e-003
      1.08342357e-002 7.58396555e-003 7.58396555e-003 1.08342362e-003
      3.25027085e-003 3.25027085e-003 1.73347779e-002 8.66738893e-003
      1.40845068e-002 5.41711785e-003 3.25027085e-003 0. 7.58396555e-003
      6.50054170e-003 8.66738893e-003 5.41711785e-003 3.25027085e-003
      4.33369447e-003 1.73347779e-002 5.41711785e-003 3.25027085e-003
      7.58396555e-003 5.41711785e-003 3.25027085e-003 1.08342362e-003
      4.33369447e-003 7.58396555e-003 5.41711785e-003 1.51679311e-002
      3.25027085e-003 1.40845068e-002 6.50054170e-003 2.16684723e-003
      3.25027085e-003 8.66738893e-003</_>
    <_>
      1.47601478e-002 1.10701108e-002 1.10701108e-002 1.10701108e-002
      3.69003695e-003 3.69003695e-003 7.38007389e-003 3.32103334e-002
      3.69003695e-003 0. 0. 3.69003695e-003 2.58302577e-002 0.
      3.69003695e-003 7.38007389e-003 0. 3.69003695e-003 3.69003695e-003
      3.69003695e-003 7.38007389e-003 7.38007389e-003 1.10701108e-002 0.
      7.38007389e-003 3.69003695e-003 0. 2.21402217e-002 0. 0.
      1.84501857e-002 3.69003695e-003 3.69003695e-003 3.69003695e-003
      1.10701108e-002 3.69003695e-003 7.38007389e-003 1.10701108e-002
      1.10701108e-002 7.38007389e-003 1.10701108e-002 7.38007389e-003 0.
      7.38007389e-003 7.38007389e-003 3.69003695e-003 3.69003695e-003
      1.10701108e-002 3.69003695e-003 3.69003695e-003 1.84501857e-002
      7.38007389e-003 1.47601478e-002 1.10701108e-002 3.69003695e-003
      7.38007389e-003 3.69003695e-003 3.69003695e-003 3.69003695e-003
      3.69003695e-003 3.69003695e-003 0. 3.69003695e-003 7.38007389e-003
      0. 0. 3.69003695e-003 7.38007389e-003 7.38007389e-003
      1.10701108e-002 3.69003695e-003 7.38007389e-003 0. 0.
      3.69003695e-003 3.69003713e-002 7.38007389e-003 0. 1.47601478e-002
      0. 0. 3.69003695e-003 3.69003695e-003 0. 1.47601478e-002
      7.38007389e-003 1.10701108e-002 3.69003695e-003 1.10701108e-002
      3.69003695e-003 1.84501857e-002 1.10701108e-002 0. 7.38007389e-003
      7.38007389e-003 1.47601478e-002 1.10701108e-002 0. 1.47601478e-002
      1.10701108e-002 3.69003695e-003 0. 3.69003695e-003 1.10701108e-002
      3.69003695e-003 3.69003695e-003 1.10701108e-002 3.69003695e-003
      3.69003695e-003 0. 1.10701108e-002 0. 3.69003695e-003
      3.69003695e-003 3.69003695e-003 3.69003695e-003 0. 1.47601478e-002
      3.69003695e-003 3.69003695e-003 7.38007389e-003 3.69003695e-003
      3.69003695e-003 7.38007389e-003 3.69003695e-003 7.38007389e-003 0.
      1.10701108e-002 7.38007389e-003 1.10701108e-002 7.38007389e-003
      1.47601478e-002 1.84501857e-002 3.69003695e-003 1.10701108e-002
      1.10701108e-002 7.38007389e-003 3.69003695e-003 0. 1.10701108e-002
      7.38007389e-003 3.69003695e-003 1.47601478e-002 7.38007389e-003
      1.10701108e-002 3.69003695e-003 0. 0. 7.38007389e-003 0.</_>
    <_>
      5.49450563e-003 9.61538497e-003 1.37362641e-003 4.67032976e-002 0.
      2.60989014e-002 5.49450563e-003 9.61538497e-003 1.37362641e-003
      4.12087934e-003 8.24175868e-003 2.74725282e-003 4.12087934e-003 0.
      0. 2.33516488e-002 1.78571437e-002 8.24175868e-003 2.74725282e-003
      1.37362641e-003 1.09890113e-002 8.24175868e-003 8.24175868e-003
      4.12087934e-003 9.61538497e-003 4.12087934e-003 2.74725282e-003
      5.49450563e-003 4.12087934e-003 8.24175868e-003 4.12087934e-003
      2.74725282e-003 1.37362641e-003 0. 1.37362641e-003 1.37362641e-003
      1.37362641e-003 9.61538497e-003 2.47252751e-002 8.24175868e-003
      6.86813192e-003 1.37362641e-003 2.74725282e-003 1.09890113e-002
      1.64835174e-002 0. 1.23626376e-002 8.24175868e-003 5.49450563e-003
      5.49450563e-003 6.86813192e-003 2.74725282e-003 9.61538497e-003
      1.51098901e-002 6.86813192e-003 0. 8.24175868e-003 1.37362638e-002
      5.49450563e-003 2.74725282e-003 5.49450563e-003 2.74725282e-003
      1.37362641e-003 9.61538497e-003 2.74725282e-003 1.37362641e-003
      1.37362638e-002 1.09890113e-002 4.12087934e-003 9.61538497e-003
      5.49450563e-003 5.49450563e-003 2.74725282e-003 1.51098901e-002
      2.06043962e-002 2.74725282e-003 5.49450563e-003 4.12087934e-003 0.
      0. 4.12087934e-003 4.12087934e-003 8.24175868e-003 5.49450563e-003
      5.49450563e-003 9.61538497e-003 6.86813192e-003 8.24175868e-003
      5.49450563e-003 6.86813192e-003 2.74725282e-003 9.61538497e-003
      1.37362641e-003 9.61538497e-003 1.37362641e-003 5.49450563e-003
      2.74725282e-003 1.78571437e-002 5.49450563e-003 9.61538497e-003
      6.86813192e-003 1.09890113e-002 6.86813192e-003 6.86813192e-003
      2.74725282e-003 4.12087934e-003 8.24175868e-003 1.37362641e-003
      1.64835174e-002 0. 4.12087934e-003 2.19780225e-002 8.24175868e-003
      8.24175868e-003 8.24175868e-003 1.37362638e-002 5.49450563e-003
      8.24175868e-003 8.24175868e-003 2.74725282e-003 1.37362641e-003
      1.37362638e-002 8.24175868e-003 6.86813192e-003 2.47252751e-002
      2.74725282e-003 4.12087934e-003 0. 2.74725282e-003 5.49450563e-003
      1.37362641e-003 6.86813192e-003 4.12087934e-003 5.49450563e-003 0.
      2.74725282e-003 1.51098901e-002 6.86813192e-003 1.37362641e-003
      6.86813192e-003 1.37362641e-003 5.49450563e-003 2.74725282e-003
      5.49450563e-003 0. 4.12087934e-003 0. 5.49450563e-003
      4.12087934e-003 1.37362641e-003</_>
    <_>
      1.90476198e-002 0. 9.52380989e-003 2.85714306e-002 9.52380989e-003
      0. 0. 4.76190485e-002 0. 0. 0. 0. 1.90476198e-002 9.52380989e-003
      0. 0. 0. 0. 9.52380989e-003 9.52380989e-003 9.52380989e-003 0. 0.
      0. 0. 9.52380989e-003 1.90476198e-002 2.85714306e-002
      9.52380989e-003 0. 3.80952395e-002 0. 9.52380989e-003
      9.52380989e-003 4.76190485e-002 0. 9.52380989e-003 1.90476198e-002
      0. 0. 9.52380989e-003 0. 0. 0. 0. 1.90476198e-002 0. 0. 0. 0. 0.
      9.52380989e-003 0. 0. 0. 1.90476198e-002 0. 0. 9.52380989e-003 0.
      0. 9.52380989e-003 1.90476198e-002 0. 0. 9.52380989e-003 0. 0.
      2.85714306e-002 0. 9.52380989e-003 0. 9.52380989e-003 0. 0.
      3.80952395e-002 0. 0. 3.80952395e-002 5.71428612e-002 0.
      2.85714306e-002 0. 0. 1.90476198e-002 0. 9.52380989e-003
      9.52380989e-003 0. 9.52380989e-003 9.52380989e-003 0.
      1.90476198e-002 0. 0. 9.52380989e-003 0. 0. 0. 0. 0. 0. 0. 0.
      9.52380989e-003 9.52380989e-003 9.52380989e-003 0. 0.
      3.80952395e-002 0. 0. 0. 0. 9.52380989e-003 0. 0. 1.90476198e-002
      2.85714306e-002 0. 9.52380989e-003 0. 0. 0. 0. 0. 9.52380989e-003
      9.52380989e-003 0. 0. 4.76190485e-002 0. 0. 0. 9.52380989e-003 0.
      0. 0. 0. 9.52380989e-003 0. 0. 9.52380989e-003 0. 0. 0. 0. 0. 0.
      0.</_>
    <_>
      4.40852297e-003 9.55179986e-003 3.67376930e-003 5.14327688e-003
      4.40852297e-003 2.93901539e-003 7.34753860e-003 2.93901539e-003
      5.87803079e-003 4.40852297e-003 9.55179986e-003 1.17560616e-002
      2.93901539e-003 7.34753860e-003 2.93901539e-003 1.10213077e-002
      7.34753860e-003 2.20426149e-003 7.34753860e-003 5.87803079e-003
      8.81704595e-003 1.02865538e-002 4.40852297e-003 5.87803079e-003
      1.10213077e-002 3.67376930e-003 1.02865538e-002 2.93901539e-003
      8.81704595e-003 2.27773692e-002 3.67376930e-003 2.20426149e-003 0.
      7.34753860e-003 5.87803079e-003 1.46950770e-003 2.93901539e-003
      7.34753860e-003 8.81704595e-003 3.67376930e-003 7.34753849e-004
      8.08229204e-003 1.02865538e-002 1.68993380e-002 8.08229204e-003
      1.02865538e-002 6.61278469e-003 6.61278469e-003 2.20426149e-003
      3.67376930e-003 4.40852297e-003 5.14327688e-003 8.81704595e-003
      1.39603233e-002 8.08229204e-003 7.34753860e-003 4.40852297e-003
      1.02865538e-002 2.93901539e-003 5.87803079e-003 1.10213077e-002
      7.34753849e-004 1.10213077e-002 3.67376930e-003 4.40852297e-003
      5.14327688e-003 7.34753849e-004 3.67376930e-003 0. 2.42468771e-002
      4.40852297e-003 5.14327688e-003 7.34753849e-004 1.02865538e-002
      8.08229204e-003 2.93901539e-003 5.87803079e-003 5.14327688e-003
      2.93901539e-003 5.87803079e-003 2.93901539e-003 4.40852297e-003
      5.87803079e-003 4.40852297e-003 3.67376930e-003 2.93901539e-003
      5.14327688e-003 3.67376930e-003 4.40852297e-003 4.40852297e-003
      3.67376930e-003 1.02865538e-002 2.20426149e-003 3.96767072e-002
      2.20426149e-003 5.87803079e-003 5.87803079e-003 5.14327688e-003
      2.20426149e-003 2.05731075e-002 7.34753860e-003 1.32255694e-002
      6.61278469e-003 7.34753860e-003 4.40852297e-003 2.20426149e-003 0.
      1.83688458e-002 1.68993380e-002 1.46950770e-003 3.67376930e-003
      5.14327688e-003 3.67376930e-003 5.14327688e-003 3.67376930e-003
      1.54298311e-002 9.55179986e-003 3.67376930e-003 7.34753849e-004
      7.34753849e-004 7.34753860e-003 6.61278469e-003 4.40852297e-003
      1.02865538e-002 1.39603233e-002 4.40852297e-003 0. 7.34753860e-003
      7.34753860e-003 4.40852297e-003 7.34753860e-003 1.17560616e-002
      2.79206466e-002 4.40852297e-003 4.40852297e-003 2.35121232e-002
      4.40852297e-003 4.40852297e-003 3.67376930e-003 4.40852297e-003
      3.67376930e-003 1.39603233e-002 4.40852297e-003 5.14327688e-003
      2.20426149e-003 1.39603233e-002 5.87803079e-003 5.14327688e-003 0.
      2.20426149e-003</_>
    <_>
      3.02114803e-003 0. 3.02114803e-003 1.51057402e-003 1.51057402e-003
      1.05740186e-002 7.55287008e-003 0. 4.53172205e-003 6.04229607e-003
      1.66163146e-002 6.04229607e-003 1.51057402e-003 1.51057402e-003
      7.55287008e-003 6.04229607e-003 3.02114803e-003 6.04229607e-003
      1.51057402e-003 1.05740186e-002 9.06344410e-003 6.04229607e-003
      4.53172205e-003 9.06344410e-003 1.35951657e-002 0. 2.71903314e-002
      0. 3.02114803e-003 1.51057402e-002 0. 1.51057402e-003 0.
      7.55287008e-003 0. 7.55287008e-003 3.02114803e-003 3.02114803e-003
      9.06344410e-003 7.55287008e-003 4.53172205e-003 4.53172205e-003
      2.11480372e-002 1.20845921e-002 1.35951657e-002 9.06344410e-003
      1.05740186e-002 1.51057402e-003 1.35951657e-002 6.04229607e-003
      3.02114803e-003 7.55287008e-003 6.04229607e-003 1.66163146e-002
      6.04229607e-003 4.53172205e-003 1.20845921e-002 6.04229607e-003
      1.51057402e-003 3.02114803e-003 6.04229607e-003 7.55287008e-003
      9.06344410e-003 0. 1.05740186e-002 1.51057402e-003 6.04229607e-003
      1.05740186e-002 0. 1.35951657e-002 1.35951657e-002 0.
      3.02114803e-003 6.04229607e-003 1.20845921e-002 3.02114803e-003
      4.53172205e-003 4.53172205e-003 0. 1.51057402e-003 4.53172205e-003
      4.53172205e-003 0. 1.05740186e-002 7.55287008e-003 1.05740186e-002
      7.55287008e-003 4.53172205e-003 1.05740186e-002 1.51057402e-003
      3.02114803e-003 7.55287008e-003 1.51057402e-003 2.11480372e-002
      1.35951657e-002 6.04229607e-003 1.05740186e-002 1.35951657e-002
      1.51057402e-003 1.66163146e-002 1.05740186e-002 7.55287008e-003
      6.04229607e-003 7.55287008e-003 3.02114803e-003 6.04229607e-003
      3.02114803e-003 0. 2.56797578e-002 0. 1.20845921e-002
      1.35951657e-002 7.55287008e-003 7.55287008e-003 0. 4.53172205e-003
      7.55287008e-003 0. 0. 3.02114803e-003 6.04229607e-003
      9.06344410e-003 1.35951657e-002 6.04229607e-003 1.51057402e-002
      1.51057402e-003 0. 7.55287008e-003 1.35951657e-002 9.06344410e-003
      1.51057402e-003 9.06344410e-003 1.51057402e-002 7.55287008e-003
      3.02114803e-003 4.53172205e-003 1.35951657e-002 1.05740186e-002
      3.02114803e-003 1.51057402e-003 1.51057402e-003 9.06344410e-003
      3.02114803e-003 9.06344410e-003 1.51057402e-003 1.51057402e-002
      7.55287008e-003 6.04229607e-003 1.51057402e-003 1.05740186e-002</_>
    <_>
      9.17431153e-003 4.58715577e-003 2.29357788e-003 1.37614673e-002
      2.29357788e-003 1.83486231e-002 1.14678890e-002 1.60550456e-002 0.
      1.60550456e-002 0. 4.58715577e-003 4.58715577e-003 2.29357788e-003
      2.29357788e-003 9.17431153e-003 1.83486231e-002 4.58715577e-003
      9.17431153e-003 1.14678890e-002 0. 1.37614673e-002 1.60550456e-002
      0. 4.58715577e-003 6.88073365e-003 9.17431153e-003 2.52293572e-002
      4.58715577e-003 1.14678890e-002 1.37614673e-002 4.58715577e-003 0.
      6.88073365e-003 4.58715577e-003 6.88073365e-003 2.29357788e-003
      2.29357788e-003 9.17431153e-003 6.88073365e-003 0. 9.17431153e-003
      1.37614673e-002 2.06422005e-002 6.88073365e-003 6.88073365e-003
      2.29357788e-003 9.17431153e-003 0. 2.29357788e-003 9.17431153e-003
      6.88073365e-003 2.29357788e-003 1.37614673e-002 1.14678890e-002 0.
      9.17431153e-003 9.17431153e-003 4.58715577e-003 1.60550456e-002 0.
      2.29357788e-003 6.88073365e-003 4.58715577e-003 6.88073365e-003 0.
      1.37614673e-002 0. 9.17431153e-003 2.29357779e-002 4.58715577e-003
      9.17431153e-003 6.88073365e-003 4.58715577e-003 1.14678890e-002
      9.17431153e-003 6.88073365e-003 4.58715577e-003 4.58715577e-003
      6.88073365e-003 2.29357788e-003 1.14678890e-002 1.83486231e-002 0.
      1.60550456e-002 9.17431153e-003 9.17431153e-003 9.17431153e-003
      6.88073365e-003 6.88073365e-003 4.58715577e-003 6.88073365e-003 0.
      2.29357788e-003 9.17431153e-003 2.52293572e-002 9.17431153e-003
      2.06422005e-002 1.14678890e-002 4.58715577e-003 4.58715577e-003
      9.17431153e-003 9.17431153e-003 4.58715577e-003 2.29357788e-003 0.
      0. 0. 1.14678890e-002 0. 2.29357788e-003 2.29357788e-003 0.
      2.29357788e-003 1.14678890e-002 0. 1.37614673e-002 1.14678890e-002
      9.17431153e-003 0. 9.17431153e-003 9.17431153e-003 0.
      2.29357788e-003 0. 1.14678890e-002 0. 2.29357788e-003
      6.88073365e-003 4.58715577e-003 2.29357788e-003 1.60550456e-002
      2.29357788e-003 0. 2.29357788e-003 0. 4.58715577e-003 0.
      2.29357788e-003 1.14678890e-002 4.58715577e-003 2.29357788e-003
      4.58715577e-003 6.88073365e-003 4.58715577e-003 2.29357788e-003
      6.88073365e-003 4.58715577e-003 0. 0.</_>
    <_>
      9.20598395e-003 8.05523619e-003 6.90448796e-003 1.38089759e-002
      2.30149599e-003 6.90448796e-003 2.30149599e-003 4.60299198e-003
      1.15074799e-003 6.90448796e-003 1.15074799e-003 3.45224398e-003
      8.05523619e-003 1.15074795e-002 3.45224398e-003 4.60299198e-003
      1.03567317e-002 9.20598395e-003 8.05523619e-003 1.38089759e-002
      8.05523619e-003 5.75373974e-003 1.38089759e-002 9.20598395e-003
      8.05523619e-003 4.60299198e-003 2.30149599e-003 5.75373974e-003
      9.20598395e-003 1.38089759e-002 1.38089759e-002 3.45224398e-003
      3.45224398e-003 1.15074799e-003 1.15074795e-002 3.45224398e-003
      9.20598395e-003 9.20598395e-003 6.90448796e-003 1.15074799e-003
      4.60299198e-003 3.45224398e-003 3.45224398e-003 5.75373974e-003
      6.90448796e-003 2.30149599e-003 1.03567317e-002 4.60299198e-003
      5.75373974e-003 5.75373974e-003 1.38089759e-002 5.75373974e-003
      1.03567317e-002 1.03567317e-002 9.20598395e-003 5.75373974e-003
      3.45224398e-003 9.20598395e-003 1.15074799e-003 5.75373974e-003
      4.60299198e-003 5.75373974e-003 4.60299198e-003 1.26582282e-002
      4.60299198e-003 1.15074795e-002 6.90448796e-003 1.15074795e-002
      8.05523619e-003 6.90448796e-003 6.90448796e-003 8.05523619e-003
      2.30149599e-003 6.90448796e-003 6.90448796e-003 1.84119679e-002
      3.45224398e-003 3.45224398e-003 6.90448796e-003 4.60299198e-003
      2.30149599e-003 1.03567317e-002 6.90448796e-003 2.30149599e-003
      1.72612201e-002 6.90448796e-003 1.03567317e-002 8.05523619e-003
      5.75373974e-003 3.45224398e-003 1.03567317e-002 6.90448796e-003
      8.05523619e-003 3.45224398e-003 6.90448796e-003 1.49597237e-002
      5.75373974e-003 5.75373974e-003 5.75373974e-003 9.20598395e-003
      8.05523619e-003 4.60299198e-003 3.45224398e-003 6.90448796e-003
      8.05523619e-003 4.60299198e-003 6.90448796e-003 3.45224398e-003
      5.75373974e-003 2.30149599e-003 0. 1.26582282e-002 8.05523619e-003
      2.30149599e-003 1.03567317e-002 5.75373974e-003 4.60299198e-003
      1.38089759e-002 1.03567317e-002 1.15074799e-003 4.60299198e-003
      4.60299198e-003 5.75373974e-003 8.05523619e-003 4.60299198e-003
      4.60299198e-003 3.45224398e-003 9.20598395e-003 1.15074795e-002
      2.30149599e-003 2.30149599e-003 6.90448796e-003 5.75373974e-003
      4.60299198e-003 8.05523619e-003 5.75373974e-003 5.75373974e-003
      3.45224398e-003 3.45224398e-003 6.90448796e-003 5.75373974e-003
      1.03567317e-002 3.45224398e-003 3.45224398e-003 1.49597237e-002
      1.03567317e-002 5.75373974e-003 4.60299198e-003 3.45224398e-003 0.</_>
    <_>
      1.74418613e-002 5.81395347e-003 0. 2.32558139e-002 2.32558139e-002
      0. 0. 1.16279069e-002 5.81395347e-003 0. 0. 1.74418613e-002
      5.81395347e-003 0. 1.16279069e-002 0. 1.74418613e-002 0.
      1.74418613e-002 5.81395347e-003 1.74418613e-002 5.81395347e-003
      5.81395347e-003 0. 0. 0. 5.81395347e-003 5.81395347e-003
      5.81395347e-003 2.32558139e-002 5.81395347e-003 0. 5.81395347e-003
      1.16279069e-002 1.74418613e-002 5.81395347e-003 0. 1.74418613e-002
      1.16279069e-002 0. 5.81395347e-003 5.81395347e-003 0.
      2.32558139e-002 5.81395347e-003 0. 1.16279069e-002 0.
      5.81395347e-003 0. 0. 0. 5.81395347e-003 0. 0. 5.81395347e-003
      5.81395347e-003 0. 0. 0. 0. 0. 5.81395347e-003 0. 1.16279069e-002
      0. 0. 0. 0. 2.32558139e-002 1.74418613e-002 5.81395347e-003
      1.16279069e-002 0. 1.16279069e-002 2.32558139e-002 5.81395347e-003
      0. 1.16279069e-002 5.81395347e-003 5.81395347e-003 1.16279069e-002
      1.16279069e-002 1.16279069e-002 1.74418613e-002 0. 5.81395347e-003
      0. 1.74418613e-002 1.16279069e-002 0. 5.81395347e-003 0. 0.
      1.74418613e-002 1.16279069e-002 1.16279069e-002 5.81395347e-003 0.
      0. 0. 1.16279069e-002 5.81395347e-003 5.81395347e-003 0.
      5.81395347e-003 5.81395347e-003 2.32558139e-002 5.81395347e-003
      1.74418613e-002 5.81395347e-003 2.32558139e-002 5.81395347e-003 0.
      5.81395347e-003 0. 5.81395347e-003 5.81395347e-003 5.81395347e-003
      0. 1.16279069e-002 5.81395347e-003 0. 0. 5.81395347e-003
      5.81395347e-003 0. 0. 5.81395347e-003 0. 3.48837227e-002 0.
      5.81395347e-003 0. 1.74418613e-002 5.81395347e-003 0.
      5.81395347e-003 1.74418613e-002 1.16279069e-002 5.81395347e-003
      1.16279069e-002 2.32558139e-002 1.16279069e-002 0. 5.81395347e-003
      5.81395347e-003 0. 0. 0.</_>
    <_>
      2.05761306e-002 0. 2.88065840e-002 0. 4.11522612e-002 0. 0.
      8.23045243e-003 0. 1.64609049e-002 0. 4.11522621e-003
      4.11522621e-003 8.23045243e-003 4.11522621e-003 0. 0. 0.
      1.64609049e-002 4.11522621e-003 4.11522621e-003 8.23045243e-003
      1.64609049e-002 1.23456791e-002 1.64609049e-002 8.23045243e-003 0.
      4.11522621e-003 0. 0. 1.23456791e-002 4.11522621e-003
      4.11522621e-003 8.23045243e-003 8.23045243e-003 8.23045243e-003
      4.11522621e-003 8.23045243e-003 0. 4.11522621e-003 8.23045243e-003
      1.64609049e-002 4.11522621e-003 1.23456791e-002 8.23045243e-003
      1.23456791e-002 4.11522621e-003 4.11522621e-003 0. 0.
      1.64609049e-002 8.23045243e-003 0. 0. 0. 8.23045243e-003
      4.11522621e-003 0. 0. 0. 4.11522621e-003 8.23045243e-003
      4.11522621e-003 2.05761306e-002 1.23456791e-002 8.23045224e-002 0.
      0. 8.23045243e-003 1.23456791e-002 0. 0. 4.11522621e-003 0.
      4.11522621e-003 2.05761306e-002 0. 0. 4.11522621e-003
      1.23456791e-002 0. 4.11522621e-003 8.23045243e-003 8.23045243e-003
      0. 0. 4.11522621e-003 0. 0. 4.11522621e-003 4.11522621e-003
      8.23045243e-003 1.64609049e-002 0. 1.23456791e-002 2.46913582e-002
      4.11522621e-003 0. 8.23045243e-003 4.11522621e-003 0. 0.
      2.05761306e-002 4.11522621e-003 4.11522621e-003 8.23045243e-003
      4.11522621e-003 4.11522612e-002 0. 4.11522621e-003 8.23045243e-003
      0. 4.11522621e-003 4.11522621e-003 0. 0. 4.11522621e-003 0.
      8.23045243e-003 8.23045243e-003 1.23456791e-002 0. 0. 0. 0.
      4.11522621e-003 4.11522621e-003 4.11522621e-003 0. 0.
      2.46913582e-002 0. 4.11522621e-003 0. 0. 2.88065840e-002 0.
      8.23045243e-003 4.11522621e-003 1.23456791e-002 0. 4.52674888e-002
      8.23045243e-003 4.11522621e-003 4.11522621e-003 0. 0. 0. 0.
      4.11522621e-003</_>
    <_>
      6.80272095e-003 0. 6.80272095e-003 0. 0. 0. 6.80272095e-003
      1.36054419e-002 0. 6.80272095e-003 1.36054419e-002 0. 0. 0. 0.
      6.80272095e-003 2.72108838e-002 1.36054419e-002 6.80272095e-003
      6.80272095e-003 2.72108838e-002 1.36054419e-002 0. 6.80272095e-003
      6.80272095e-003 6.80272095e-003 1.36054419e-002 2.04081628e-002
      1.36054419e-002 4.08163257e-002 1.36054419e-002 0. 0. 0. 0. 0.
      1.36054419e-002 6.80272095e-003 6.80272095e-003 0. 0.
      1.36054419e-002 1.36054419e-002 1.36054419e-002 2.72108838e-002 0.
      0. 0. 0. 0. 0. 6.80272095e-003 1.36054419e-002 6.80272095e-003
      2.04081628e-002 6.80272095e-003 1.36054419e-002 0. 0.
      6.80272095e-003 0. 0. 6.80272095e-003 0. 6.80272095e-003 0.
      6.80272095e-003 0. 0. 6.80272132e-002 6.80272095e-003
      6.80272095e-003 6.80272095e-003 0. 0. 6.80272095e-003 0. 0.
      6.80272095e-003 0. 0. 1.36054419e-002 0. 0. 6.80272095e-003 0.
      1.36054419e-002 6.80272095e-003 6.80272095e-003 1.36054419e-002 0.
      6.80272095e-003 0. 1.36054419e-002 0. 6.80272095e-003
      1.36054419e-002 6.80272095e-003 0. 6.80272095e-003 1.36054419e-002
      1.36054419e-002 0. 0. 0. 0. 6.80272095e-003 0. 4.08163257e-002 0.
      0. 4.08163257e-002 0. 0. 2.04081628e-002 0. 0. 2.04081628e-002
      6.80272095e-003 0. 0. 0. 0. 1.36054419e-002 6.80272095e-003 0.
      1.36054419e-002 6.80272095e-003 2.04081628e-002 0. 0.
      3.40136066e-002 1.36054419e-002 6.80272095e-003 0. 0. 0. 0. 0.
      6.80272095e-003 0. 0. 0. 1.36054419e-002 0. 6.80272095e-003
      6.80272095e-003 0. 0. 0.</_>
    <_>
      0. 0. 0. 1.44927539e-002 2.89855078e-002 1.44927539e-002
      1.44927539e-002 4.34782617e-002 0. 0. 1.44927539e-002 0. 0. 0. 0.
      0. 0. 2.89855078e-002 0. 1.44927539e-002 4.34782617e-002 0. 0. 0.
      0. 0. 0. 0. 0. 0. 2.89855078e-002 0. 0. 0. 0. 0. 0.
      2.89855078e-002 0. 0. 0. 0. 0. 2.89855078e-002 0. 0.
      1.44927539e-002 0. 0. 0. 0. 0. 1.44927539e-002 1.44927539e-002 0.
      0. 0. 0. 0. 0. 0. 0. 0. 4.34782617e-002 1.44927539e-002 0. 0.
      2.89855078e-002 0. 1.88405797e-001 0. 0. 0. 0. 0. 0.
      2.89855078e-002 0. 0. 0. 0. 2.89855078e-002 0. 0. 4.34782617e-002
      0. 0. 0. 0. 0. 0. 0. 0. 2.89855078e-002 0. 0. 0. 1.44927539e-002
      2.89855078e-002 4.34782617e-002 0. 0. 0. 0. 0. 0. 0. 0. 0. 0. 0.
      1.44927539e-002 0. 0. 0. 0. 0. 2.89855078e-002 0. 0. 0. 0.
      1.44927539e-002 1.44927539e-002 0. 0. 0. 0. 0. 0. 0.
      1.44927539e-002 2.89855078e-002 0. 0. 1.44927539e-002 0. 0. 0. 0.
      0. 1.44927539e-002 0. 0. 0. 0. 0. 1.44927539e-002 0. 0.</_>
    <_>
      1.32275131e-002 0. 5.29100513e-003 1.85185187e-002 5.29100513e-003
      2.64550257e-003 2.64550257e-003 0. 7.93650746e-003 2.64550257e-003
      7.93650746e-003 5.29100513e-003 1.58730149e-002 1.05820103e-002
      7.93650746e-003 7.93650746e-003 5.29100513e-003 0. 0. 0. 0.
      7.93650746e-003 1.58730149e-002 2.64550257e-003 7.93650746e-003
      5.29100513e-003 1.32275131e-002 1.05820103e-002 7.93650746e-003
      2.64550257e-003 5.29100513e-003 5.29100513e-003 0. 1.05820103e-002
      2.64550257e-003 5.29100513e-003 5.29100513e-003 7.93650746e-003
      2.64550257e-003 7.93650746e-003 2.64550257e-003 5.29100513e-003
      5.29100513e-003 0. 1.05820103e-002 2.64550257e-003 5.29100513e-003
      1.85185187e-002 2.64550257e-003 7.93650746e-003 5.29100513e-003
      7.93650746e-003 5.29100513e-003 5.29100513e-003 1.05820103e-002
      1.58730149e-002 5.29100513e-003 5.29100513e-003 7.93650746e-003
      2.64550257e-003 1.32275131e-002 1.32275131e-002 1.05820103e-002
      5.29100513e-003 7.93650746e-003 1.05820103e-002 1.32275131e-002
      2.64550257e-003 2.64550257e-003 0. 1.05820103e-002 7.93650746e-003
      5.29100513e-003 1.05820103e-002 0. 7.93650746e-003 2.64550257e-003
      2.64550257e-003 7.93650746e-003 5.29100513e-003 5.29100513e-003
      5.29100513e-003 1.32275131e-002 2.64550257e-003 5.29100513e-003
      5.29100513e-003 1.05820103e-002 2.64550257e-003 2.64550257e-003
      5.29100513e-003 7.93650746e-003 7.93650746e-003 1.05820103e-002
      1.58730149e-002 2.64550257e-003 1.32275131e-002 5.29100513e-003 0.
      5.29100513e-003 2.64550261e-002 2.64550257e-003 5.29100513e-003
      5.29100513e-003 2.64550257e-003 2.64550257e-003 1.32275131e-002
      5.29100513e-003 0. 5.29100513e-003 2.64550261e-002 1.05820103e-002
      2.64550257e-003 0. 7.93650746e-003 5.29100513e-003 0.
      5.29100513e-003 1.05820103e-002 2.64550257e-003 5.29100513e-003
      2.64550257e-003 1.58730149e-002 5.29100513e-003 2.64550257e-003
      7.93650746e-003 1.32275131e-002 0. 5.29100513e-003 1.05820103e-002
      5.29100513e-003 1.05820103e-002 5.29100513e-003 7.93650746e-003
      1.05820103e-002 2.64550257e-003 1.58730149e-002 1.32275131e-002 0.
      7.93650746e-003 2.64550257e-003 7.93650746e-003 2.64550261e-002
      7.93650746e-003 7.93650746e-003 0. 0. 7.93650746e-003 0.
      2.64550257e-003 2.64550257e-003</_>
    <_>
      8.79765395e-003 8.79765395e-003 8.79765395e-003 5.86510263e-003
      7.33137829e-003 5.86510263e-003 7.33137829e-003 7.33137829e-003
      1.46627566e-003 1.02639291e-002 1.46627566e-003 4.39882698e-003
      5.86510263e-003 2.93255132e-003 1.46627566e-003 8.79765395e-003
      5.86510263e-003 1.31964814e-002 2.93255132e-003 1.61290318e-002
      2.34604105e-002 7.33137829e-003 8.79765395e-003 5.86510263e-003
      1.46627566e-003 1.46627566e-003 2.93255132e-003 1.46627566e-002
      7.33137829e-003 1.90615840e-002 8.79765395e-003 8.79765395e-003
      1.46627566e-003 4.39882698e-003 8.79765395e-003 0. 8.79765395e-003
      5.86510263e-003 2.93255132e-003 2.93255132e-003 7.33137829e-003
      7.33137829e-003 5.86510263e-003 7.33137829e-003 1.46627566e-003
      2.93255132e-003 8.79765395e-003 7.33137829e-003 2.93255132e-003
      7.33137829e-003 8.79765395e-003 7.33137829e-003 8.79765395e-003
      1.02639291e-002 8.79765395e-003 1.46627566e-003 5.86510263e-003
      7.33137829e-003 1.46627566e-003 7.33137829e-003 1.46627566e-003
      7.33137829e-003 4.39882698e-003 1.75953079e-002 7.33137829e-003
      1.02639291e-002 5.86510263e-003 5.86510263e-003 4.39882698e-003
      8.79765395e-003 4.39882698e-003 8.79765395e-003 5.86510263e-003
      4.39882698e-003 7.33137829e-003 2.49266867e-002 7.33137829e-003
      1.02639291e-002 8.79765395e-003 5.86510263e-003 2.93255132e-003
      1.02639291e-002 8.79765395e-003 1.02639291e-002 1.46627566e-002
      1.17302053e-002 1.17302053e-002 7.33137829e-003 7.33137829e-003
      7.33137829e-003 7.33137829e-003 4.39882698e-003 7.33137829e-003
      4.39882698e-003 7.33137829e-003 1.31964814e-002 5.86510263e-003
      5.86510263e-003 1.02639291e-002 1.02639291e-002 1.02639291e-002
      4.39882698e-003 0. 4.39882698e-003 4.39882698e-003 5.86510263e-003
      2.93255132e-003 0. 5.86510263e-003 1.46627566e-003 5.86510263e-003
      1.17302053e-002 5.86510263e-003 1.46627566e-003 5.86510263e-003
      4.39882698e-003 1.46627566e-003 1.61290318e-002 2.93255132e-003
      5.86510263e-003 4.39882698e-003 2.93255132e-003 1.02639291e-002
      1.17302053e-002 5.86510263e-003 5.86510263e-003 2.93255132e-003
      2.93255132e-003 5.86510263e-003 4.39882698e-003 5.86510263e-003
      5.86510263e-003 5.86510263e-003 0. 7.33137829e-003 1.02639291e-002
      2.93255132e-003 2.93255132e-003 4.39882698e-003 5.86510263e-003
      4.39882698e-003 5.86510263e-003 5.86510263e-003 7.33137829e-003
      1.17302053e-002 4.39882698e-003 1.46627566e-003 7.33137829e-003
      5.86510263e-003 0.</_>
    <_>
      1.02040814e-002 0. 1.02040814e-002 0. 0. 0. 0. 3.06122452e-002 0.
      0. 0. 0. 0. 1.02040814e-002 0. 0. 0. 1.02040814e-002 0.
      1.02040814e-002 0. 0. 0. 0. 1.02040814e-002 0. 1.02040814e-002
      1.02040814e-002 0. 0. 0. 0. 1.02040814e-002 0. 5.10204062e-002 0.
      0. 0. 0. 0. 2.04081628e-002 2.04081628e-002 0. 0. 0. 0. 0. 0. 0.
      0. 1.02040814e-002 1.02040814e-002 0. 0. 0. 0. 0. 0. 0. 0. 0. 0.
      0. 2.04081628e-002 0. 5.10204062e-002 2.04081628e-002
      2.04081628e-002 1.02040814e-002 0. 1.02040814e-002 0. 0. 0. 0.
      1.02040814e-002 0. 0. 0. 1.02040814e-002 0. 1.02040814e-002 0. 0.
      1.02040814e-002 0. 1.02040814e-002 0. 0. 0. 2.04081628e-002 0. 0.
      4.08163257e-002 0. 1.02040814e-002 0. 0. 0. 3.06122452e-002 0. 0.
      0. 0. 0. 3.06122452e-002 1.02040814e-002 5.10204062e-002 0.
      2.04081628e-002 0. 0. 0. 0. 4.08163257e-002 0. 1.02040814e-002
      8.16326514e-002 0. 1.02040814e-002 1.02040814e-002 0. 0. 0. 0. 0.
      0. 1.02040814e-002 0. 2.04081628e-002 3.06122452e-002 0. 0.
      1.02040814e-002 0. 1.02040814e-002 0. 0. 2.04081628e-002
      3.06122452e-002 1.02040814e-002 7.14285672e-002 0. 0. 0. 0. 0. 0.
      0. 0.</_>
    <_>
      8.75656679e-003 7.00525381e-003 1.92644484e-002 0. 5.07880896e-002
      1.75131345e-003 7.00525381e-003 1.57618206e-002 3.50262690e-003
      3.50262690e-003 7.00525381e-003 1.75131345e-003 5.25394036e-003
      1.57618206e-002 5.25394036e-003 3.50262690e-003 1.75131345e-003 0.
      8.75656679e-003 1.75131345e-003 3.50262690e-003 3.50262690e-003
      3.50262690e-003 1.05078807e-002 7.00525381e-003 7.00525381e-003
      7.00525381e-003 7.00525381e-003 3.50262690e-003 0. 8.75656679e-003
      7.00525381e-003 3.50262690e-003 1.05078807e-002 7.00525381e-003
      3.50262690e-003 1.40105076e-002 8.75656679e-003 3.50262690e-003
      1.75131345e-003 5.25394036e-003 8.75656679e-003 3.50262690e-003 0.
      1.75131345e-003 1.22591946e-002 1.75131345e-003 1.05078807e-002
      7.00525381e-003 1.22591946e-002 7.00525381e-003 7.00525381e-003
      7.00525381e-003 7.00525381e-003 1.75131345e-003 1.40105076e-002
      1.75131345e-003 1.05078807e-002 8.75656679e-003 8.75656679e-003
      1.40105076e-002 8.75656679e-003 1.05078807e-002 0. 1.75131345e-003
      2.45183893e-002 1.05078807e-002 8.75656679e-003 5.25394036e-003
      3.50262690e-003 3.50262690e-003 7.00525381e-003 8.75656679e-003
      1.75131345e-003 3.50262690e-003 7.00525381e-003 8.75656679e-003
      1.75131345e-003 1.05078807e-002 1.05078807e-002 3.50262690e-003
      7.00525381e-003 1.75131345e-003 5.25394036e-003 1.75131336e-002 0.
      7.00525381e-003 3.50262690e-003 1.40105076e-002 3.50262690e-003
      1.40105076e-002 8.75656679e-003 1.22591946e-002 3.50262690e-003
      7.00525381e-003 8.75656679e-003 7.00525381e-003 3.50262690e-003
      1.75131345e-003 8.75656679e-003 3.50262690e-003 5.25394036e-003
      3.50262690e-003 0. 0. 5.25394036e-003 7.00525381e-003
      8.75656679e-003 8.75656679e-003 5.25394036e-003 5.25394036e-003
      5.25394036e-003 8.75656679e-003 3.50262690e-003 5.25394036e-003 0.
      1.75131345e-003 0. 8.75656679e-003 1.75131345e-003 1.57618206e-002
      1.75131345e-003 5.25394036e-003 7.00525381e-003 3.50262690e-003
      8.75656679e-003 0. 3.50262690e-003 5.25394036e-003 5.25394036e-003
      3.50262690e-003 7.00525381e-003 1.05078807e-002 7.00525381e-003
      1.40105076e-002 3.50262690e-003 5.25394036e-003 0. 7.00525381e-003
      8.75656679e-003 8.75656679e-003 5.25394036e-003 1.92644484e-002 0.
      1.22591946e-002 5.25394036e-003 8.75656679e-003 5.25394036e-003
      5.25394036e-003 5.25394036e-003</_>
    <_>
      4.71698120e-003 0. 0. 4.71698120e-003 0. 4.71698120e-003
      4.71698120e-003 2.83018872e-002 0. 0. 4.71698120e-003 0.
      9.43396240e-003 0. 0. 4.71698120e-003 1.88679248e-002
      4.71698120e-003 0. 9.43396240e-003 0. 1.41509436e-002 0.
      4.71698120e-003 2.35849060e-002 0. 9.43396240e-003 2.35849060e-002
      4.71698120e-003 1.32075474e-001 1.41509436e-002 0. 0. 0.
      4.71698120e-003 0. 0. 4.71698120e-003 4.71698120e-003
      4.71698120e-003 0. 4.71698120e-003 9.43396240e-003 1.41509436e-002
      9.43396240e-003 9.43396240e-003 9.43396240e-003 0. 0. 0.
      1.41509436e-002 9.43396240e-003 4.71698120e-003 4.71698120e-003
      1.88679248e-002 0. 4.71698120e-003 0. 0. 1.41509436e-002
      4.71698120e-003 0. 4.71698120e-003 1.88679248e-002 0.
      4.71698120e-003 4.71698120e-003 0. 0. 3.77358496e-002
      4.71698120e-003 0. 0. 0. 0. 1.41509436e-002 0. 0. 0. 0. 0.
      4.71698120e-003 0. 0. 0. 0. 9.43396240e-003 4.71698120e-003 0. 0.
      9.43396240e-003 4.71698120e-003 0. 6.13207556e-002 0.
      9.43396240e-003 9.43396240e-003 1.41509436e-002 1.88679248e-002
      3.30188684e-002 9.43396240e-003 0. 4.71698120e-003 4.71698120e-003
      4.71698120e-003 4.71698120e-003 0. 1.88679248e-002 4.71698120e-003
      0. 0. 1.88679248e-002 1.41509436e-002 0. 0. 9.43396240e-003 0. 0.
      0. 0. 0. 4.71698120e-003 0. 0. 9.43396240e-003 4.71698120e-003 0.
      0. 9.43396240e-003 4.71698120e-003 4.71698120e-003 9.43396240e-003
      2.83018872e-002 4.71698120e-003 1.41509436e-002 4.71698120e-003 0.
      1.41509436e-002 4.71698120e-003 4.71698120e-003 0. 4.71698120e-003
      4.71698120e-003 0. 9.43396240e-003 0. 9.43396240e-003
      4.71698120e-003 4.71698120e-003 0.</_>
    <_>
      0. 2.32558139e-002 0. 2.32558139e-002 1.55038759e-002 0.
      7.75193796e-003 0. 0. 7.75193796e-003 7.75193796e-003 0. 0. 0. 0.
      3.87596898e-002 0. 7.75193796e-003 7.75193796e-003 0.
      7.75193796e-003 7.75193796e-003 0. 0. 1.55038759e-002
      7.75193796e-003 0. 7.75193796e-003 0. 0. 7.75193796e-003 0. 0.
      1.55038759e-002 0. 7.75193796e-003 0. 0. 0. 0. 0. 7.75193796e-003
      0. 7.75193796e-003 7.75193796e-003 2.32558139e-002 7.75193796e-003
      0. 0. 0. 0. 7.75193796e-003 4.65116277e-002 3.10077518e-002
      7.75193796e-003 0. 0. 0. 0. 0. 0. 0. 7.75193796e-003 0. 0.
      3.10077518e-002 0. 0. 0. 2.32558139e-002 0. 2.32558139e-002
      7.75193796e-003 7.75193796e-003 0. 0. 0. 0. 0. 1.55038759e-002 0.
      7.75193796e-003 7.75193796e-003 0. 0. 0. 0. 0. 0. 0.
      1.55038759e-002 0. 0. 1.55038759e-002 7.75193796e-003 0.
      7.75193796e-003 0. 7.75193796e-003 2.32558139e-002 7.75193796e-003
      2.32558139e-002 0. 0. 7.75193796e-003 0. 0. 3.87596898e-002
      1.55038759e-002 7.75193796e-003 0. 0. 1.55038759e-002 0. 0. 0. 0.
      0. 0. 0. 1.55038759e-002 7.75193796e-003 0. 3.10077518e-002 0. 0.
      0. 0. 7.75193796e-003 0. 1.55038759e-002 8.52713138e-002
      6.20155036e-002 0. 0. 3.10077518e-002 0. 0. 0. 7.75193796e-003 0.
      7.75193796e-003 7.75193796e-003 1.55038759e-002 7.75193796e-003
      7.75193796e-003 0. 0. 0. 0.</_>
    <_>
      6.26959233e-003 0. 3.13479616e-003 0. 0. 6.26959233e-003
      3.13479616e-003 9.40438826e-003 0. 6.26959233e-003 9.40438826e-003
      6.26959233e-003 1.25391847e-002 0. 9.40438826e-003 1.88087765e-002
      9.40438826e-003 1.88087765e-002 9.40438826e-003 3.13479616e-003 0.
      1.56739801e-002 1.25391847e-002 6.26959233e-003 9.40438826e-003
      1.56739801e-002 1.88087765e-002 0. 3.13479616e-003 0.
      9.40438826e-003 6.26959233e-003 0. 3.13479616e-003 0.
      9.40438826e-003 6.26959233e-003 9.40438826e-003 3.13479616e-003
      3.13479616e-003 9.40438826e-003 9.40438826e-003 6.26959233e-003
      3.13479616e-003 9.40438826e-003 3.13479616e-003 9.40438826e-003
      1.88087765e-002 0. 1.25391847e-002 1.56739801e-002 3.13479616e-003
      3.13479616e-003 1.88087765e-002 6.26959233e-003 3.13479616e-003 0.
      9.40438826e-003 9.40438826e-003 9.40438826e-003 3.13479616e-003
      6.26959233e-003 3.13479616e-003 9.40438826e-003 6.26959233e-003 0.
      9.40438826e-003 9.40438826e-003 6.26959233e-003 3.13479616e-003
      3.13479616e-003 6.26959233e-003 3.13479616e-003 1.25391847e-002
      3.13479616e-003 1.25391847e-002 0. 3.13479616e-003 3.13479616e-003
      0. 3.13479616e-003 6.26959233e-003 2.82131657e-002 1.88087765e-002
      1.56739801e-002 9.40438826e-003 1.56739801e-002 6.26959233e-003
      3.13479616e-003 1.56739801e-002 1.56739801e-002 3.13479616e-003
      3.13479616e-003 6.26959233e-003 3.13479616e-003 1.25391847e-002 0.
      1.25391847e-002 3.13479616e-003 1.25391847e-002 6.26959233e-003
      1.25391847e-002 6.26959233e-003 3.13479616e-003 1.25391847e-002
      3.13479616e-003 0. 3.13479616e-003 9.40438826e-003 3.13479616e-003
      0. 3.13479616e-003 0. 3.13479616e-003 0. 3.13479616e-003
      3.13479616e-003 3.13479616e-003 3.13479616e-003 3.13479616e-003
      3.13479616e-003 6.26959233e-003 9.40438826e-003 6.26959233e-003
      3.13479616e-003 1.56739801e-002 1.56739801e-002 0. 3.13479616e-003
      6.26959233e-003 0. 3.13479616e-003 0. 1.25391847e-002 0.
      3.13479616e-003 2.19435729e-002 6.26959233e-003 0. 1.25391847e-002
      0. 1.25391847e-002 0. 9.40438826e-003 9.40438826e-003
      1.25391847e-002 6.26959233e-003 9.40438826e-003 3.13479616e-003
      6.26959233e-003</_>
    <_>
      0. 0. 4.65116277e-002 0. 5.81395328e-002 0. 0. 5.81395328e-002 0.
      0. 0. 1.16279069e-002 0. 2.32558139e-002 0. 0. 0. 0. 0. 0. 0. 0.
      0. 0. 2.32558139e-002 0. 0. 0. 0. 0. 2.32558139e-002 0. 0.
      1.16279069e-002 4.65116277e-002 0. 0. 0. 0. 0. 0. 2.32558139e-002
      0. 0. 0. 1.16279069e-002 0. 1.16279069e-002 1.16279069e-002 0.
      2.32558139e-002 0. 0. 0. 0. 0. 0. 0. 0. 0. 0. 2.32558139e-002 0.
      1.16279069e-002 1.16279069e-002 9.30232555e-002 0. 0.
      1.16279069e-002 0. 1.16279069e-002 0. 1.16279069e-002 0. 0. 0. 0.
      0. 0. 1.16279069e-002 0. 2.32558139e-002 0. 0. 0. 0.
      1.16279069e-002 1.16279069e-002 2.32558139e-002 2.32558139e-002 0.
      0. 1.16279069e-002 0. 0. 3.48837227e-002 0. 0. 0. 0. 0. 0.
      4.65116277e-002 0. 0. 1.16279069e-002 2.32558139e-002 0. 0.
      1.16279069e-002 0. 0. 0. 0. 2.32558139e-002 0. 0. 4.65116277e-002
      2.32558139e-002 0. 1.16279069e-002 0. 0. 0. 0. 1.16279069e-002 0.
      1.16279069e-002 0. 0. 4.65116277e-002 0. 0. 0. 0. 0. 0. 0. 0. 0.
      0. 0. 0. 0. 0. 0. 0. 0. 1.16279069e-002 1.16279069e-002</_>
    <_>
      9.11161769e-003 9.11161769e-003 1.36674270e-002 2.27790442e-003
      2.05011405e-002 0. 1.13895219e-002 6.83371350e-003 1.36674270e-002
      2.27790442e-003 1.13895219e-002 1.36674270e-002 6.83371350e-003
      9.11161769e-003 2.27790442e-003 0. 2.27790442e-003 1.13895219e-002
      2.27790442e-003 0. 2.27790442e-003 9.11161769e-003 6.83371350e-003
      6.83371350e-003 9.11161769e-003 9.11161769e-003 6.83371350e-003
      2.27790442e-003 2.27790442e-003 0. 2.27790442e-003 1.36674270e-002
      0. 2.27790442e-003 1.59453303e-002 9.11161769e-003 4.55580885e-003
      6.83371350e-003 1.13895219e-002 6.83371350e-003 6.83371350e-003
      9.11161769e-003 9.11161769e-003 0. 2.27790442e-003 4.55580885e-003
      0. 4.55580885e-003 4.55580885e-003 6.83371350e-003 0.
      1.59453303e-002 4.55580885e-003 2.27790442e-003 9.11161769e-003
      6.83371350e-003 1.13895219e-002 4.55580885e-003 4.55580885e-003
      2.27790442e-003 1.13895219e-002 1.36674270e-002 1.36674270e-002
      4.55580885e-003 2.05011405e-002 2.27790438e-002 1.13895219e-002
      1.59453303e-002 4.55580885e-003 0. 6.83371350e-003 9.11161769e-003
      1.13895219e-002 1.13895219e-002 6.83371350e-003 2.27790442e-003
      2.27790442e-003 4.55580885e-003 0. 6.83371350e-003 4.55580885e-003
      6.83371350e-003 2.27790442e-003 9.11161769e-003 2.27790442e-003
      2.27790442e-003 4.55580885e-003 4.55580885e-003 2.27790442e-003
      6.83371350e-003 9.11161769e-003 6.83371350e-003 2.27790442e-003
      2.27790442e-003 6.83371350e-003 2.27790442e-003 1.13895219e-002
      2.27790442e-003 6.83371350e-003 6.83371350e-003 6.83371350e-003
      2.27790442e-003 4.55580885e-003 9.11161769e-003 2.27790442e-003
      1.36674270e-002 6.83371350e-003 6.83371350e-003 9.11161769e-003
      4.55580885e-003 2.27790442e-003 0. 1.13895219e-002 9.11161769e-003
      0. 4.55580885e-003 4.55580885e-003 6.83371350e-003 9.11161769e-003
      9.11161769e-003 1.13895219e-002 2.27790442e-003 9.11161769e-003
      1.36674270e-002 6.83371350e-003 1.59453303e-002 4.55580885e-003
      2.27790442e-003 4.55580885e-003 4.55580885e-003 6.83371350e-003
      2.27790442e-003 1.13895219e-002 4.55580885e-003 4.55580885e-003
      9.11161769e-003 6.83371350e-003 2.27790442e-003 0. 4.55580885e-003
      1.36674270e-002 6.83371350e-003 1.59453303e-002 4.55580885e-003
      1.13895219e-002 1.13895219e-002 0. 1.13895219e-002 0.
      6.83371350e-003</_>
    <_>
      0. 0. 4.18410031e-003 2.09205020e-002 0. 2.09205020e-002
      4.18410031e-003 4.18410031e-003 1.25523005e-002 0. 4.18410031e-003
      4.18410031e-003 4.18410031e-003 0. 8.36820062e-003 0.
      1.25523005e-002 1.25523005e-002 1.25523005e-002 1.67364012e-002 0.
      1.67364012e-002 0. 8.36820062e-003 8.36820062e-003 0.
      4.18410031e-003 2.92887017e-002 4.18410031e-003 8.36820062e-003
      8.36820062e-003 0. 4.18410031e-003 0. 1.25523005e-002
      4.18410031e-003 0. 0. 1.25523005e-002 8.36820062e-003 0.
      4.18410031e-003 8.36820062e-003 1.25523005e-002 4.18410031e-003
      4.18410031e-003 1.25523005e-002 0. 0. 8.36820062e-003
      4.18410031e-003 1.25523005e-002 4.18410031e-003 1.25523005e-002
      1.25523005e-002 1.25523005e-002 8.36820062e-003 1.25523005e-002
      1.25523005e-002 1.25523005e-002 1.67364012e-002 4.18410031e-003
      8.36820062e-003 8.36820062e-003 4.18410031e-003 0. 4.18410031e-003
      8.36820062e-003 0. 0. 0. 1.25523005e-002 4.18410031e-003
      8.36820062e-003 0. 1.25523005e-002 8.36820062e-003 0.
      4.18410031e-003 0. 0. 4.18410031e-003 1.25523005e-002
      1.25523005e-002 4.18410031e-003 4.18410031e-003 2.09205020e-002
      4.18410031e-003 8.36820062e-003 0. 4.18410031e-003 2.92887017e-002
      0. 0. 0. 3.34728025e-002 4.18410031e-003 1.67364012e-002
      4.18410031e-003 8.36820062e-003 0. 4.18410031e-003 8.36820062e-003
      1.25523005e-002 4.18410031e-003 0. 0. 0. 1.67364012e-002 0.
      4.18410031e-003 8.36820062e-003 1.25523005e-002 1.25523005e-002 0.
      8.36820062e-003 8.36820062e-003 0. 0. 2.09205020e-002 0.
      1.67364012e-002 4.18410031e-003 1.25523005e-002 8.36820062e-003
      4.18410031e-003 4.18410031e-003 4.18410031e-003 1.67364012e-002
      8.36820062e-003 4.18410031e-003 8.36820062e-003 4.18410031e-003
      4.18410031e-003 8.36820062e-003 4.18410031e-003 8.36820062e-003
      4.18410031e-003 4.18410031e-003 0. 0. 0. 0. 8.36820062e-003
      4.18410031e-003 4.18410031e-003 4.18410031e-003 0. 0.
      2.09205020e-002</_>
    <_>
      9.58466437e-003 1.43769961e-002 7.98721984e-003 0. 0.
      1.59744406e-003 7.98721984e-003 1.59744406e-003 4.79233218e-003
      1.11821089e-002 4.79233218e-003 1.11821089e-002 9.58466437e-003
      3.19488812e-003 7.98721984e-003 0. 4.79233218e-003 7.98721984e-003
      3.19488812e-003 9.58466437e-003 6.38977624e-003 3.19488812e-003
      1.11821089e-002 7.98721984e-003 4.79233218e-003 1.11821089e-002
      6.38977624e-003 6.38977624e-003 6.38977624e-003 0. 4.79233218e-003
      4.79233218e-003 9.58466437e-003 4.79233218e-003 1.11821089e-002
      6.38977624e-003 7.98721984e-003 9.58466437e-003 4.79233218e-003
      4.79233218e-003 0. 6.38977624e-003 9.58466437e-003 4.79233218e-003
      3.19488812e-003 3.19488812e-003 6.38977624e-003 3.03514376e-002
      7.98721984e-003 0. 7.98721984e-003 6.38977624e-003 1.59744406e-003
      4.79233218e-003 1.11821089e-002 7.98721984e-003 4.79233218e-003
      1.11821089e-002 4.79233218e-003 1.75718851e-002 3.19488812e-003
      9.58466437e-003 6.38977624e-003 1.59744406e-003 3.19488812e-003
      3.19488812e-003 2.23642178e-002 1.59744397e-002 3.19488812e-003
      1.59744406e-003 1.11821089e-002 6.38977624e-003 4.79233218e-003
      3.19488812e-003 1.11821089e-002 3.19488812e-003 1.59744406e-003 0.
      6.38977624e-003 4.79233218e-003 0. 9.58466437e-003 9.58466437e-003
      1.43769961e-002 3.19488812e-003 1.43769961e-002 1.59744397e-002
      1.27795525e-002 4.79233218e-003 1.59744406e-003 4.79233218e-003
      6.38977624e-003 0. 6.38977624e-003 7.98721984e-003 9.58466437e-003
      6.38977624e-003 1.27795525e-002 4.79233218e-003 1.59744406e-003
      6.38977624e-003 0. 7.98721984e-003 6.38977624e-003 7.98721984e-003
      6.38977624e-003 1.59744406e-003 0. 3.19488812e-003 0.
      9.58466437e-003 1.59744406e-003 6.38977624e-003 1.59744406e-003
      6.38977624e-003 4.79233218e-003 9.58466437e-003 1.75718851e-002
      1.27795525e-002 3.19488812e-003 9.58466437e-003 4.79233218e-003
      6.38977624e-003 6.38977624e-003 6.38977624e-003 1.43769961e-002
      1.59744406e-003 9.58466437e-003 1.11821089e-002 9.58466437e-003
      4.79233218e-003 3.19488812e-003 1.59744406e-003 9.58466437e-003
      7.98721984e-003 4.79233218e-003 1.43769961e-002 3.19488812e-003
      1.11821089e-002 4.79233218e-003 4.79233218e-003 1.59744406e-003
      6.38977624e-003 3.19488812e-003 1.11821089e-002 7.98721984e-003
      1.11821089e-002 9.58466437e-003 1.59744406e-003 9.58466437e-003</_>
    <_>
      6.57894742e-003 0. 1.31578948e-002 3.61842103e-002 1.31578948e-002
      6.57894742e-003 0. 1.64473690e-002 3.28947371e-003 1.31578948e-002
      1.64473690e-002 0. 3.28947371e-003 6.57894742e-003 3.28947371e-003
      1.31578948e-002 3.28947371e-003 0. 0. 3.28947371e-003 0.
      3.28947371e-003 6.57894742e-003 0. 9.86842066e-003 1.97368413e-002
      3.28947371e-003 0. 6.57894742e-003 0. 1.31578948e-002
      3.28947371e-003 0. 6.57894742e-003 6.57894742e-003 9.86842066e-003
      0. 3.28947371e-003 6.57894742e-003 6.57894742e-003 0.
      3.28947371e-003 0. 3.28947371e-003 6.57894742e-003 1.97368413e-002
      3.28947371e-003 9.86842066e-003 0. 9.86842066e-003 0.
      6.57894742e-003 9.86842066e-003 3.28947371e-003 3.28947371e-003
      1.31578948e-002 6.57894742e-003 6.57894742e-003 6.57894742e-003 0.
      3.28947371e-003 9.86842066e-003 9.86842066e-003 3.28947371e-003
      9.86842066e-003 2.30263155e-002 3.28947371e-003 6.57894742e-003 0.
      3.28947371e-003 0. 1.97368413e-002 2.30263155e-002 1.64473690e-002
      1.64473690e-002 1.31578948e-002 3.28947371e-003 2.63157897e-002
      1.64473690e-002 1.31578948e-002 3.28947371e-003 0. 0.
      1.64473690e-002 6.57894742e-003 1.31578948e-002 6.57894742e-003
      3.28947371e-003 3.28947371e-003 3.28947371e-003 1.31578948e-002
      6.57894742e-003 1.31578948e-002 3.28947371e-003 9.86842066e-003 0.
      6.57894742e-003 3.28947371e-003 0. 0. 0. 0. 0. 3.28947371e-003
      3.28947371e-003 6.57894742e-003 0. 0. 1.31578948e-002
      4.93421070e-002 6.57894742e-003 0. 6.57894742e-003 3.28947371e-003
      3.28947371e-003 1.31578948e-002 6.57894742e-003 1.31578948e-002
      3.28947371e-003 6.57894742e-003 9.86842066e-003 3.28947371e-003 0.
      6.57894742e-003 3.28947371e-003 1.31578948e-002 0. 6.57894742e-003
      0. 3.28947371e-003 1.97368413e-002 6.57894742e-003 0.
      6.57894742e-003 1.31578948e-002 3.28947371e-003 3.28947371e-003
      3.28947371e-003 0. 3.28947371e-003 3.28947371e-003 0.
      1.64473690e-002 6.57894742e-003 0. 3.28947371e-003 3.28947371e-003
      0. 3.28947371e-003 1.31578948e-002</_>
    <_>
      2.58397940e-003 1.29198972e-002 2.58397940e-003 2.58397940e-003 0.
      7.75193796e-003 7.75193796e-003 1.03359176e-002 0. 1.80878565e-002
      5.16795879e-003 2.58397940e-003 1.29198972e-002 2.58397940e-003 0.
      5.16795879e-003 2.58397940e-003 2.58397940e-003 2.58397944e-002
      1.03359176e-002 1.55038759e-002 2.58397940e-003 7.75193796e-003
      7.75193796e-003 2.06718352e-002 5.16795879e-003 7.75193796e-003
      1.29198972e-002 0. 1.29198972e-002 7.75193796e-003 2.58397940e-003
      0. 7.75193796e-003 0. 5.16795879e-003 2.58397940e-003
      1.80878565e-002 0. 0. 5.16795879e-003 1.55038759e-002
      2.58397940e-003 1.55038759e-002 5.16795879e-003 2.58397940e-003
      2.58397940e-003 7.75193796e-003 2.58397940e-003 7.75193796e-003
      1.55038759e-002 7.75193796e-003 7.75193796e-003 2.58397940e-003
      2.58397940e-003 5.16795879e-003 5.16795879e-003 2.58397940e-003
      2.58397940e-003 0. 1.29198972e-002 2.58397940e-003 5.16795879e-003
      1.55038759e-002 2.58397940e-003 2.58397940e-003 2.58397940e-003
      2.58397940e-003 0. 1.55038759e-002 7.75193796e-003 7.75193796e-003
      2.58397940e-003 0. 0. 5.16795879e-003 0. 2.58397940e-003
      7.75193796e-003 1.03359176e-002 2.58397940e-003 2.32558139e-002
      7.75193796e-003 2.58397940e-003 1.29198972e-002 7.75193796e-003 0.
      1.55038759e-002 1.03359176e-002 1.03359176e-002 1.55038759e-002
      1.03359176e-002 7.75193796e-003 7.75193796e-003 5.16795879e-003
      2.32558139e-002 7.75193796e-003 5.16795879e-003 1.03359176e-002
      1.55038759e-002 1.80878565e-002 1.03359176e-002 5.16795879e-003
      1.03359176e-002 2.58397940e-003 7.75193796e-003 2.58397940e-003
      2.58397940e-003 1.03359176e-002 0. 0. 7.75193796e-003
      1.55038759e-002 0. 1.29198972e-002 0. 5.16795879e-003
      1.03359176e-002 0. 7.75193796e-003 7.75193796e-003 5.16795879e-003
      5.16795879e-003 0. 5.16795879e-003 7.75193796e-003 2.58397940e-003
      5.16795879e-003 5.16795879e-003 2.58397940e-003 7.75193796e-003
      1.29198972e-002 1.55038759e-002 5.16795879e-003 2.58397940e-003
      2.58397940e-003 1.29198972e-002 2.58397940e-003 1.03359176e-002
      5.16795879e-003 2.58397940e-003 1.03359176e-002 1.03359176e-002 0.
      1.03359176e-002 5.16795879e-003 5.16795879e-003 2.58397940e-003 0.
      2.58397940e-003</_>
    <_>
      0. 0. 0. 2.04081628e-002 6.12244904e-002 0. 1.02040814e-002
      4.08163257e-002 0. 1.02040814e-002 2.04081628e-002 0.
      1.02040814e-002 0. 0. 0. 4.08163257e-002 0. 0. 1.02040814e-002 0.
      3.06122452e-002 0. 0. 0. 0. 5.10204062e-002 2.04081628e-002 0.
      7.14285672e-002 1.02040814e-002 0. 1.02040814e-002 0. 0. 0. 0. 0.
      0. 0. 0. 0. 0. 1.02040814e-002 1.02040814e-002 2.04081628e-002
      2.04081628e-002 0. 0. 0. 1.02040814e-002 1.02040814e-002
      1.02040814e-002 1.02040814e-002 0. 0. 0. 1.02040814e-002 0. 0. 0.
      0. 0. 2.04081628e-002 0. 0. 0. 0. 0. 3.06122452e-002 0.
      1.02040814e-002 0. 0. 1.02040814e-002 1.02040814e-002 0. 0. 0. 0.
      0. 1.02040814e-002 0. 1.02040814e-002 0. 0. 1.02040814e-002 0. 0.
      0. 1.02040814e-002 0. 0. 0. 0. 2.04081628e-002 0. 1.02040814e-002
      0. 0. 1.02040814e-002 1.02040814e-002 0. 0. 0. 0. 0. 0. 0. 0.
      1.02040814e-002 6.12244904e-002 0. 0. 0. 0. 0. 6.12244904e-002
      2.04081628e-002 0. 0. 0. 2.04081628e-002 0. 1.02040814e-002 0.
      1.02040814e-002 1.02040814e-002 0. 0. 0. 1.02040814e-002 0. 0. 0.
      0. 0. 0. 0. 1.02040814e-002 0. 0. 2.04081628e-002 0. 0.
      5.10204062e-002 0. 0. 0. 0.</_>
    <_>
      9.00900923e-003 4.50450461e-003 4.50450461e-003 1.80180185e-002
      9.00900923e-003 0. 4.50450461e-003 2.25225240e-002 0.
      1.80180185e-002 0. 0. 0. 1.80180185e-002 0. 0. 0. 1.35135138e-002
      4.50450461e-003 1.35135138e-002 0. 9.00900923e-003 4.50450461e-003
      4.50450461e-003 0. 0. 9.00900923e-003 2.25225240e-002 0.
      4.50450480e-002 9.00900923e-003 4.50450461e-003 4.50450461e-003
      4.50450461e-003 2.70270277e-002 0. 0. 1.80180185e-002
      4.50450461e-003 4.50450461e-003 9.00900923e-003 0. 9.00900923e-003
      1.35135138e-002 0. 1.80180185e-002 9.00900923e-003 9.00900923e-003
      0. 4.50450461e-003 3.60360369e-002 0. 0. 9.00900923e-003 0.
      4.50450461e-003 4.50450461e-003 0. 4.50450461e-003 4.50450461e-003
      9.00900923e-003 9.00900923e-003 4.50450461e-003 1.35135138e-002 0.
      0. 9.00900923e-003 4.50450461e-003 1.80180185e-002 4.05405425e-002
      0. 0. 9.00900923e-003 0. 4.50450461e-003 2.70270277e-002 0. 0. 0.
      1.35135138e-002 0. 9.00900923e-003 0. 0. 2.25225240e-002 0. 0. 0.
      4.50450461e-003 1.35135138e-002 1.35135138e-002 0. 0.
      4.50450461e-003 0. 1.80180185e-002 4.50450461e-003 9.00900923e-003
      9.00900923e-003 2.70270277e-002 4.50450461e-003 4.50450461e-003 0.
      0. 4.50450461e-003 9.00900923e-003 9.00900923e-003 4.50450461e-003
      4.50450461e-003 4.50450461e-003 0. 2.25225240e-002 0. 0. 0.
      4.50450461e-003 9.00900923e-003 2.70270277e-002 0. 0.
      4.50450461e-003 0. 4.50450461e-003 4.50450461e-003 4.50450461e-003
      4.50450461e-003 0. 4.50450461e-003 0. 4.50450461e-003 0.
      2.25225240e-002 4.50450461e-003 0. 4.50450461e-003 1.35135138e-002
      0. 0. 9.00900923e-003 1.35135138e-002 0. 0. 1.35135138e-002 0. 0.
      1.35135138e-002 4.50450461e-003 4.50450461e-003 0. 1.35135138e-002</_>
    <_>
      8.14663991e-003 6.10997993e-003 6.10997993e-003 6.10997993e-003
      6.10997993e-003 2.03665998e-003 1.83299407e-002 2.03665998e-003
      4.07331996e-003 8.14663991e-003 8.14663991e-003 6.10997993e-003 0.
      8.14663991e-003 4.07331996e-003 6.10997993e-003 4.07331996e-003
      4.07331996e-003 3.05498987e-002 1.01832999e-002 4.07331996e-003
      1.01832999e-002 8.14663991e-003 1.62932798e-002 8.14663991e-003 0.
      6.10997993e-003 1.01832999e-002 4.07331996e-003 6.10997993e-003
      4.07331996e-003 1.22199599e-002 0. 6.10997993e-003 4.07331996e-003
      6.10997993e-003 2.03665998e-003 6.10997993e-003 8.14663991e-003
      6.10997993e-003 0. 4.07331996e-003 4.07331996e-003 1.01832999e-002
      6.10997993e-003 4.07331996e-003 0. 4.07331996e-003 4.07331996e-003
      2.03665998e-003 1.01832999e-002 1.22199599e-002 8.14663991e-003
      2.03665998e-002 6.10997993e-003 0. 1.42566198e-002 4.07331996e-003
      2.03665998e-003 0. 1.01832999e-002 2.03665998e-003 1.42566198e-002
      1.22199599e-002 6.10997993e-003 2.03665998e-003 6.10997993e-003
      4.07331996e-003 0. 1.22199599e-002 8.14663991e-003 1.01832999e-002
      0. 4.07331996e-003 6.10997993e-003 1.01832999e-002 4.07331996e-003
      6.10997993e-003 2.03665998e-003 2.03665998e-003 6.10997993e-003
      8.14663991e-003 6.10997993e-003 4.07331996e-003 2.03665998e-003
      8.14663991e-003 1.01832999e-002 4.07331996e-003 1.42566198e-002
      4.07331996e-003 4.07331996e-003 6.10997993e-003 4.07331996e-003
      8.14663991e-003 6.10997993e-003 8.14663991e-003 8.14663991e-003
      1.01832999e-002 0. 8.14663991e-003 8.14663991e-003 8.14663991e-003
      4.07331996e-003 2.03665998e-003 2.03665998e-003 2.03665998e-003
      4.07331996e-003 4.07331996e-003 1.42566198e-002 6.10997993e-003
      4.07331996e-003 1.01832999e-002 4.07331996e-003 8.14663991e-003
      2.03665998e-003 6.10997993e-003 1.01832999e-002 8.14663991e-003 0.
      6.10997993e-003 6.10997993e-003 2.03665998e-003 2.03665998e-003
      8.14663991e-003 8.14663991e-003 2.03665998e-003 0. 1.22199599e-002
      2.03665998e-003 8.14663991e-003 1.22199599e-002 1.22199599e-002
      1.01832999e-002 6.10997993e-003 6.10997993e-003 1.62932798e-002
      8.14663991e-003 6.10997993e-003 6.10997993e-003 0. 1.01832999e-002
      2.64765806e-002 1.01832999e-002 4.07331996e-003 8.14663991e-003
      8.14663991e-003 2.24032588e-002 4.07331996e-003 2.03665998e-003
      1.01832999e-002</_>
    <_>
      4.85436898e-003 9.70873795e-003 2.91262139e-002 4.85436898e-003 0.
      9.70873795e-003 0. 3.88349518e-002 0. 9.70873795e-003
      9.70873795e-003 1.45631069e-002 4.85436898e-003 0. 0.
      1.94174759e-002 9.70873795e-003 4.85436898e-003 0. 0.
      1.45631069e-002 2.91262139e-002 9.70873795e-003 0. 3.88349518e-002
      0. 9.70873795e-003 4.85436898e-003 0. 3.88349518e-002
      9.70873795e-003 4.85436898e-003 4.85436898e-003 0. 9.70873795e-003
      0. 0. 1.45631069e-002 0. 4.85436898e-003 9.70873795e-003
      4.85436898e-003 9.70873795e-003 9.70873795e-003 4.85436898e-003
      4.85436898e-003 9.70873795e-003 0. 0. 4.85436898e-003
      4.85436898e-003 9.70873795e-003 4.85436898e-003 9.70873795e-003 0.
      0. 4.85436898e-003 9.70873795e-003 4.85436898e-003 0. 0.
      4.85436898e-003 4.85436898e-003 9.70873795e-003 0. 1.94174759e-002
      4.85436898e-003 0. 0. 2.91262139e-002 0. 0. 4.85436898e-003 0.
      9.70873795e-003 1.45631069e-002 0. 0. 0. 4.85436898e-003 0.
      9.70873795e-003 4.85436898e-003 0. 9.70873795e-003 0. 0. 0. 0.
      9.70873795e-003 4.85436898e-003 4.85436898e-003 0. 0.
      4.85436898e-003 0. 4.85436898e-003 1.45631069e-002 9.70873795e-003
      4.85436898e-003 9.70873795e-003 4.85436898e-003 0. 4.85436898e-003
      4.85436898e-003 0. 4.85436898e-003 9.70873795e-003 9.70873795e-003
      0. 0. 1.94174759e-002 0. 0. 4.85436898e-003 9.70873795e-003
      4.85436898e-003 3.88349518e-002 0. 9.70873795e-003 9.70873795e-003
      4.85436898e-003 4.85436898e-003 9.70873795e-003 1.45631069e-002
      9.70873795e-003 0. 4.85436898e-003 4.85436898e-003 0.
      9.70873795e-003 1.45631069e-002 2.42718458e-002 4.85436898e-003
      4.85436898e-003 1.45631069e-002 0. 0. 4.85436898e-003
      9.70873795e-003 4.85436898e-003 3.88349518e-002 4.85436898e-003 0.
      0. 0. 0. 4.85436898e-003 0. 0.</_>
    <_>
      4.57038404e-003 5.48446085e-003 3.65630724e-003 6.39853766e-003 0.
      3.65630724e-003 2.74223043e-003 4.57038404e-003 9.14076809e-004
      6.39853766e-003 5.48446085e-003 5.48446085e-003 5.48446085e-003
      2.74223043e-003 3.65630724e-003 1.73674598e-002 9.14076809e-003
      1.09689217e-002 3.65630724e-003 1.00548454e-002 6.39853766e-003
      1.27970753e-002 8.22669081e-003 3.65630724e-003 7.31261447e-003
      1.82815362e-003 1.46252289e-002 5.48446085e-003 2.74223043e-003
      2.83363815e-002 4.57038404e-003 1.82815362e-003 1.82815362e-003
      4.57038404e-003 1.82815362e-003 2.74223043e-003 4.57038404e-003
      1.00548454e-002 6.39853766e-003 1.82815362e-003 4.57038404e-003
      6.39853766e-003 5.48446085e-003 2.28519198e-002 1.00548454e-002
      9.14076809e-004 7.31261447e-003 2.74223043e-003 8.22669081e-003
      1.82815362e-003 3.65630724e-003 1.27970753e-002 4.57038404e-003
      2.55941506e-002 1.00548454e-002 3.65630724e-003 1.37111526e-002
      1.55393053e-002 1.82815362e-003 5.48446085e-003 5.48446085e-003
      9.14076809e-004 8.22669081e-003 6.39853766e-003 9.14076809e-003
      9.14076809e-004 1.82815362e-003 7.31261447e-003 2.74223043e-003
      3.93053032e-002 4.57038404e-003 7.31261447e-003 1.82815362e-003
      6.39853766e-003 1.37111526e-002 6.39853766e-003 2.74223043e-003
      4.57038404e-003 1.82815362e-003 2.74223043e-003 0. 2.74223043e-003
      1.37111526e-002 4.57038404e-003 5.48446085e-003 4.57038404e-003
      1.82815362e-003 2.74223043e-003 9.14076809e-003 5.48446085e-003
      2.74223043e-003 8.22669081e-003 2.74223043e-003 1.37111526e-002
      6.39853766e-003 7.31261447e-003 8.22669081e-003 1.09689217e-002
      2.74223043e-003 1.91956125e-002 1.00548454e-002 1.37111526e-002
      1.82815362e-003 8.22669081e-003 4.57038404e-003 3.65630724e-003
      1.82815362e-003 2.74223043e-003 2.19378434e-002 9.14076809e-004
      6.39853766e-003 2.37659961e-002 7.31261447e-003 5.48446085e-003
      6.39853766e-003 5.48446085e-003 2.74223043e-003 7.31261447e-003
      9.14076809e-004 2.74223043e-003 4.57038404e-003 8.22669081e-003
      7.31261447e-003 9.14076809e-003 1.46252289e-002 1.09689217e-002
      1.82815362e-003 4.57038404e-003 1.00548454e-002 2.74223043e-003
      2.74223043e-003 2.10237671e-002 1.27970753e-002 4.57038404e-003
      2.74223043e-003 6.39853766e-003 4.57038404e-003 3.65630724e-003
      6.39853766e-003 4.57038404e-003 9.14076809e-004 4.57038404e-003
      9.14076809e-004 4.57038404e-003 4.57038404e-003 1.00548454e-002
      3.65630724e-003 3.65630724e-003 9.14076809e-004 6.39853766e-003</_>
    <_>
      9.99999978e-003 1.24999993e-002 4.99999989e-003 2.49999994e-003 0.
      2.49999994e-003 1.75000001e-002 1.49999997e-002 4.99999989e-003
      2.49999994e-003 2.49999994e-003 4.99999989e-003 1.24999993e-002
      4.99999989e-003 0. 2.49999994e-003 7.49999983e-003 4.99999989e-003
      1.24999993e-002 9.99999978e-003 2.49999985e-002 7.49999983e-003
      2.49999994e-003 2.49999994e-003 4.99999989e-003 7.49999983e-003
      4.99999989e-003 2.24999990e-002 0. 1.99999996e-002 4.99999989e-003
      7.49999983e-003 7.49999983e-003 7.49999983e-003 7.49999983e-003 0.
      2.49999994e-003 7.49999983e-003 4.99999989e-003 2.49999994e-003
      2.49999994e-003 4.99999989e-003 4.99999989e-003 1.24999993e-002 0.
      2.49999994e-003 1.24999993e-002 4.99999989e-003 2.49999994e-003
      7.49999983e-003 4.99999989e-003 7.49999983e-003 7.49999983e-003
      7.49999983e-003 2.49999994e-003 7.49999983e-003 7.49999983e-003
      2.49999994e-003 4.99999989e-003 1.24999993e-002 7.49999983e-003
      2.49999994e-003 1.24999993e-002 2.49999994e-003 2.49999994e-003
      7.49999983e-003 4.99999989e-003 7.49999983e-003 0. 3.24999988e-002
      0. 7.49999983e-003 4.99999989e-003 2.49999994e-003 9.99999978e-003
      2.49999985e-002 4.99999989e-003 4.99999989e-003 1.24999993e-002 0.
      2.49999994e-003 7.49999983e-003 4.99999989e-003 4.99999989e-003
      4.99999989e-003 4.99999989e-003 0. 4.99999989e-003 7.49999983e-003
      1.75000001e-002 4.99999989e-003 4.99999989e-003 2.49999994e-003
      4.99999989e-003 0. 7.49999983e-003 4.99999989e-003 2.74999999e-002
      2.49999994e-003 4.99999989e-003 9.99999978e-003 2.49999994e-003
      1.24999993e-002 2.49999994e-003 7.49999983e-003 2.49999994e-003
      7.49999983e-003 2.49999994e-003 4.99999989e-003 2.49999994e-003
      7.49999983e-003 2.99999993e-002 1.24999993e-002 2.49999994e-003
      1.24999993e-002 0. 0. 1.24999993e-002 0. 0. 0. 7.49999983e-003
      4.99999989e-003 2.49999994e-003 4.99999989e-003 7.49999983e-003
      4.99999989e-003 7.49999983e-003 1.24999993e-002 0. 2.49999994e-003
      1.24999993e-002 2.49999994e-003 0. 1.24999993e-002 9.99999978e-003
      7.49999983e-003 4.99999989e-003 2.49999994e-003 1.24999993e-002
      7.49999983e-003 2.49999994e-003 4.99999989e-003 4.99999989e-003
      1.49999997e-002 4.99999989e-003 2.49999994e-003 1.24999993e-002
      7.49999983e-003 2.49999994e-003</_>
    <_>
      3.15457419e-003 1.26182968e-002 0. 2.20820196e-002 0.
      6.30914839e-003 3.15457419e-003 9.46372282e-003 0. 3.15457419e-003
      3.15457419e-003 0. 1.26182968e-002 0. 0. 6.30914839e-003
      6.30914839e-003 1.26182968e-002 3.15457419e-003 2.20820196e-002
      3.15457419e-003 3.15457419e-003 6.30914839e-003 0. 0. 0.
      3.15457419e-003 2.83911675e-002 3.15457419e-003 2.20820196e-002
      3.15457419e-003 0. 6.30914839e-003 6.30914839e-003 0. 0.
      3.15457419e-003 1.57728717e-002 3.15457419e-003 1.57728717e-002
      1.26182968e-002 0. 3.15457419e-003 1.89274456e-002 2.52365936e-002
      0. 1.57728717e-002 6.30914839e-003 0. 2.20820196e-002
      3.15457419e-003 6.30914839e-003 0. 6.30914839e-003 3.15457419e-003
      3.15457419e-003 3.15457419e-003 6.30914839e-003 0. 1.57728717e-002
      0. 1.26182968e-002 6.30914839e-003 0. 0. 3.15457419e-003 0.
      3.15457419e-003 9.46372282e-003 3.47003154e-002 0. 1.26182968e-002
      3.15457419e-003 1.26182968e-002 9.46372282e-003 6.30914839e-003
      3.15457419e-003 0. 9.46372282e-003 3.15457419e-003 0.
      1.26182968e-002 2.20820196e-002 3.15457419e-003 6.30914839e-003
      9.46372282e-003 0. 1.57728717e-002 1.26182968e-002 9.46372282e-003
      6.30914839e-003 0. 3.15457419e-003 0. 6.30914839e-003
      2.52365936e-002 1.26182968e-002 3.15457419e-003 1.89274456e-002
      6.30914839e-003 6.30914839e-003 3.15457419e-003 3.15457419e-003
      3.15457419e-003 6.30914839e-003 0. 1.89274456e-002 0.
      3.15457419e-003 0. 3.15457419e-003 1.89274456e-002 0.
      3.15457419e-003 9.46372282e-003 3.15457419e-003 9.46372282e-003
      2.20820196e-002 3.15457419e-003 3.15457419e-003 0. 9.46372282e-003
      9.46372282e-003 1.26182968e-002 1.57728717e-002 9.46372282e-003
      3.15457419e-003 0. 1.57728717e-002 3.15457419e-003 3.15457419e-003
      9.46372282e-003 0. 0. 0. 9.46372282e-003 3.15457419e-003 0. 0.
      1.57728717e-002 0. 9.46372282e-003 0. 0. 1.57728717e-002
      1.26182968e-002 3.15457419e-003 1.57728717e-002 0. 0.</_>
    <_>
      9.94035788e-003 5.96421445e-003 5.96421445e-003 1.78926438e-002 0.
      5.96421445e-003 9.94035788e-003 7.95228593e-003 3.97614297e-003
      3.97614297e-003 1.19284289e-002 3.97614297e-003 9.94035788e-003
      3.97614297e-003 0. 3.97614297e-003 3.97614297e-003 7.95228593e-003
      5.96421445e-003 7.95228593e-003 1.98807158e-002 3.97614297e-003
      3.97614297e-003 5.96421445e-003 1.98807148e-003 5.96421445e-003
      3.97614297e-003 1.78926438e-002 5.96421445e-003 7.95228593e-003
      1.19284289e-002 1.98807148e-003 0. 1.98807148e-003 5.96421445e-003
      3.97614297e-003 1.98807148e-003 1.19284289e-002 5.96421445e-003
      1.98807148e-003 5.96421445e-003 0. 1.98807148e-003 7.95228593e-003
      3.97614297e-003 5.96421445e-003 3.97614297e-003 3.97614297e-003
      3.97614297e-003 9.94035788e-003 9.94035788e-003 0. 7.95228593e-003
      3.97614297e-003 1.98807148e-003 5.96421445e-003 7.95228593e-003
      9.94035788e-003 5.96421445e-003 9.94035788e-003 7.95228593e-003
      7.95228593e-003 5.96421445e-003 1.19284289e-002 3.97614297e-003
      1.98807148e-003 5.96421445e-003 3.97614297e-003 9.94035788e-003
      5.96421445e-003 7.95228593e-003 3.97614297e-003 1.59045719e-002
      3.97614297e-003 3.97614297e-003 1.19284289e-002 7.95228593e-003
      5.96421445e-003 9.94035788e-003 3.97614297e-003 3.97614297e-003
      5.96421445e-003 3.97614297e-003 3.97614297e-003 5.96421445e-003
      5.96421445e-003 1.39164999e-002 7.95228593e-003 5.96421445e-003
      1.59045719e-002 9.94035788e-003 7.95228593e-003 1.98807148e-003
      1.19284289e-002 7.95228593e-003 9.94035788e-003 7.95228593e-003
      1.98807148e-003 5.96421445e-003 1.59045719e-002 3.97614297e-003
      1.19284289e-002 5.96421445e-003 1.98807148e-003 5.96421445e-003 0.
      1.39164999e-002 9.94035788e-003 7.95228593e-003 7.95228593e-003
      1.98807148e-003 1.59045719e-002 7.95228593e-003 9.94035788e-003
      9.94035788e-003 1.98807148e-003 1.19284289e-002 3.97614297e-003
      5.96421445e-003 5.96421445e-003 1.98807148e-003 9.94035788e-003
      5.96421445e-003 1.39164999e-002 5.96421445e-003 9.94035788e-003
      3.97614297e-003 7.95228593e-003 9.94035788e-003 5.96421445e-003
      3.97614297e-003 1.19284289e-002 1.39164999e-002 5.96421445e-003
      1.19284289e-002 5.96421445e-003 5.96421445e-003 3.97614297e-003
      5.96421445e-003 3.97614297e-003 0. 7.95228593e-003 1.98807148e-003
      7.95228593e-003 1.19284289e-002 3.97614297e-003 1.98807148e-003 0.
      3.97614297e-003 1.98807148e-003</_>
    <_>
      9.11854114e-003 6.07902743e-003 1.51975686e-002 3.03951371e-003
      3.03951371e-002 1.51975686e-003 6.07902743e-003 1.51975686e-003
      1.51975686e-002 7.59878429e-003 1.51975686e-003 1.06382985e-002
      6.07902743e-003 6.07902743e-003 1.06382985e-002 7.59878429e-003
      1.51975686e-003 9.11854114e-003 7.59878429e-003 7.59878429e-003
      1.51975686e-003 0. 1.51975686e-003 0. 1.21580549e-002
      1.21580549e-002 6.07902743e-003 1.51975686e-003 3.03951371e-003 0.
      7.59878429e-003 2.12765969e-002 1.51975686e-003 7.59878429e-003
      1.67173259e-002 1.36778113e-002 1.21580549e-002 1.06382985e-002
      1.51975686e-003 7.59878429e-003 3.03951371e-003 9.11854114e-003 0.
      0. 1.51975686e-003 9.11854114e-003 4.55927057e-003 1.06382985e-002
      1.06382985e-002 4.55927057e-003 0. 3.03951371e-003 1.51975686e-003
      0. 6.07902743e-003 6.07902743e-003 1.21580549e-002 1.51975686e-003
      6.07902743e-003 4.55927057e-003 2.73556225e-002 1.67173259e-002
      9.11854114e-003 1.51975686e-003 1.36778113e-002 1.36778113e-002
      3.03951371e-003 3.03951371e-003 6.07902743e-003 1.51975686e-003 0.
      4.55927057e-003 9.11854114e-003 7.59878429e-003 1.51975686e-003
      6.07902743e-003 1.51975686e-003 7.59878429e-003 1.51975686e-003
      6.07902743e-003 3.03951371e-003 6.07902743e-003 4.55927057e-003
      1.21580549e-002 4.55927057e-003 4.55927057e-003 6.07902743e-003
      3.03951371e-003 4.55927057e-003 6.07902743e-003 0. 1.36778113e-002
      1.06382985e-002 0. 1.06382985e-002 0. 9.11854114e-003 0.
      7.59878429e-003 1.51975686e-003 3.03951371e-003 3.03951371e-003
      6.07902743e-003 7.59878429e-003 6.07902743e-003 4.55927057e-003
      4.55927057e-003 7.59878429e-003 4.55927057e-003 7.59878429e-003
      7.59878429e-003 1.51975686e-003 9.11854114e-003 6.07902743e-003 0.
      4.55927057e-003 1.06382985e-002 6.07902743e-003 7.59878429e-003
      2.43161097e-002 1.97568387e-002 9.11854114e-003 1.51975686e-003
      4.55927057e-003 0. 3.03951371e-003 0. 1.67173259e-002
      1.36778113e-002 3.03951371e-003 1.06382985e-002 3.03951371e-003
      4.55927057e-003 9.11854114e-003 7.59878429e-003 1.06382985e-002
      7.59878429e-003 7.59878429e-003 6.07902743e-003 3.03951371e-003
      1.51975686e-002 4.55927057e-003 3.03951371e-002 4.55927057e-003
      7.59878429e-003 3.03951371e-003 3.03951371e-003 6.07902743e-003
      3.03951371e-003 3.03951371e-003</_>
    <_>
      1.21951215e-002 2.43902430e-002 0. 1.21951215e-002 0. 0. 0.
      7.31707290e-002 0. 0. 0. 0. 0. 0. 0. 0. 0. 0. 2.43902430e-002
      1.21951215e-002 1.21951215e-002 0. 0. 0. 1.21951215e-002 0. 0.
      3.65853645e-002 0. 0. 1.21951215e-002 0. 0. 0. 1.21951215e-002 0.
      0. 1.21951215e-002 0. 0. 0. 1.21951215e-002 0. 1.21951215e-002 0.
      2.43902430e-002 0. 0. 0. 1.21951215e-002 0. 0. 3.65853645e-002
      3.65853645e-002 0. 0. 0. 0. 0. 0. 0. 0. 0. 0. 0. 0.
      1.21951215e-002 0. 0. 9.75609720e-002 0. 0. 0. 1.21951215e-002
      2.43902430e-002 2.43902430e-002 0. 0. 2.43902430e-002
      2.43902430e-002 1.21951215e-002 1.21951215e-002 0. 0.
      1.21951215e-002 0. 0. 0. 0. 0. 0. 0. 0. 0. 1.21951215e-002 0. 0.
      0. 0. 1.21951215e-002 1.21951215e-002 0. 0. 0. 0. 0. 0. 0. 0.
      2.43902430e-002 0. 3.65853645e-002 0. 0. 1.21951215e-002 0. 0.
      8.53658468e-002 1.21951215e-002 0. 2.43902430e-002 0. 0. 0.
      2.43902430e-002 0. 0. 0. 0. 1.21951215e-002 0. 3.65853645e-002 0.
      0. 0. 0. 0. 0. 0. 1.21951215e-002 0. 0. 1.21951215e-002
      1.21951215e-002 0. 0. 1.21951215e-002 0. 0. 0.</_>
    <_>
      7.06713786e-003 0. 7.06713786e-003 3.53356893e-003 3.53356893e-003
      3.53356893e-003 3.53356893e-003 1.41342757e-002 7.06713786e-003
      1.41342757e-002 7.06713786e-003 1.41342757e-002 3.53356893e-003
      2.12014131e-002 0. 1.06007066e-002 7.06713786e-003 3.53356893e-003
      1.06007066e-002 1.06007066e-002 1.06007066e-002 7.06713786e-003
      3.53356893e-003 3.53356893e-003 1.41342757e-002 1.06007066e-002
      1.06007066e-002 1.06007066e-002 3.53356893e-003 3.53356893e-003
      3.53356893e-003 7.06713786e-003 3.53356893e-003 3.53356893e-003
      7.06713786e-003 1.06007066e-002 7.06713786e-003 3.53356893e-003 0.
      1.06007066e-002 1.06007066e-002 0. 1.41342757e-002 0. 0.
      1.06007066e-002 7.06713786e-003 7.06713786e-003 0. 3.53356893e-003
      3.53356893e-003 1.06007066e-002 1.06007066e-002 1.06007066e-002
      1.76678449e-002 7.06713786e-003 3.53356893e-003 3.53356893e-003
      3.53356893e-003 1.41342757e-002 7.06713786e-003 0. 3.53356893e-003
      7.06713786e-003 0. 0. 3.53356893e-003 1.41342757e-002 0.
      1.41342757e-002 0. 3.53356893e-003 1.06007066e-002 1.76678449e-002
      3.53356893e-003 3.53356893e-003 1.76678449e-002 7.06713786e-003 0.
      1.06007066e-002 3.53356893e-003 1.41342757e-002 1.41342757e-002
      7.06713786e-003 1.06007066e-002 1.76678449e-002 1.76678449e-002 0.
      1.06007066e-002 3.53356893e-003 3.53356893e-003 7.06713786e-003
      7.06713786e-003 0. 7.06713786e-003 3.53356893e-003 3.53356893e-003
      1.06007066e-002 7.06713786e-003 3.53356893e-003 3.53356893e-003
      1.06007066e-002 7.06713786e-003 3.53356893e-003 0. 0.
      1.06007066e-002 3.53356893e-003 3.53356893e-003 3.53356893e-003
      3.53356893e-003 1.76678449e-002 0. 3.53356893e-003 1.06007066e-002
      7.06713786e-003 3.53356893e-003 1.41342757e-002 1.41342757e-002
      3.53356893e-003 1.06007066e-002 3.53356893e-003 3.53356893e-003 0.
      3.53356893e-003 0. 3.53356893e-003 0. 3.53356893e-003
      1.41342757e-002 1.06007066e-002 3.53356893e-003 2.12014131e-002
      1.06007066e-002 0. 1.41342757e-002 3.53356893e-003 0.
      3.53356893e-003 1.06007066e-002 3.53356893e-003 1.06007066e-002 0.
      0. 7.06713786e-003 1.41342757e-002 1.06007066e-002 7.06713786e-003
      3.53356893e-003 0.</_>
    <_>
      0. 4.18410031e-003 2.09205016e-003 6.27615023e-003 6.27615023e-003
      4.18410031e-003 0. 1.67364012e-002 1.46443509e-002 2.09205016e-003
      2.09205016e-003 0. 4.18410031e-003 0. 5.43933026e-002 0.
      8.36820062e-003 4.18410031e-003 0. 1.88284516e-002 2.09205016e-003
      6.27615023e-003 0. 1.67364012e-002 4.18410031e-003 2.09205016e-003
      8.36820062e-003 2.71966513e-002 1.88284516e-002 1.88284516e-002
      2.09205016e-003 4.18410031e-003 6.27615023e-003 2.51046009e-002 0.
      2.30125524e-002 4.18410031e-003 4.18410031e-003 6.27615023e-003
      8.36820062e-003 6.27615023e-003 4.18410031e-003 1.25523005e-002
      4.18410031e-003 1.04602510e-002 4.18410031e-003 6.27615023e-003 0.
      6.27615023e-003 4.18410031e-003 6.27615023e-003 1.25523005e-002 0.
      2.09205016e-003 4.18410031e-003 0. 6.27615023e-003 2.09205016e-003
      0. 2.09205016e-003 6.27615023e-003 0. 1.04602510e-002
      6.27615023e-003 4.18410031e-003 1.46443509e-002 6.27615023e-003 0.
      8.36820062e-003 2.09205016e-003 4.18410031e-003 4.18410031e-003
      4.18410031e-003 6.27615023e-003 0. 1.46443509e-002 1.67364012e-002
      3.13807540e-002 1.04602510e-002 6.27615023e-003 8.36820062e-003
      4.18410031e-003 4.18410031e-003 3.55648510e-002 1.67364012e-002
      4.18410031e-003 2.09205016e-003 2.09205016e-003 4.18410031e-003
      2.09205016e-003 4.18410031e-003 2.09205016e-003 0. 0.
      8.36820062e-003 1.67364012e-002 1.67364012e-002 6.27615023e-003
      2.09205016e-003 2.09205016e-003 4.18410031e-003 0. 4.18410031e-003
      2.09205020e-002 0. 0. 4.18410031e-003 6.27615023e-003 0.
      4.18410031e-003 4.18410031e-003 6.27615023e-003 2.09205016e-003
      6.27615023e-003 1.04602510e-002 3.34728025e-002 4.18410031e-003
      1.25523005e-002 2.09205016e-003 8.36820062e-003 4.18410031e-003
      4.18410031e-003 6.27615023e-003 0. 2.09205016e-003 0.
      4.18410031e-003 2.09205016e-003 1.46443509e-002 8.36820062e-003
      2.09205016e-003 4.18410031e-003 8.36820062e-003 2.09205016e-003 0.
      6.27615023e-003 4.18410031e-003 1.46443509e-002 2.09205016e-003
      2.09205016e-003 0. 6.27615023e-003 2.09205016e-003 4.18410031e-003
      2.09205016e-003 8.36820062e-003 2.09205016e-003 6.27615023e-003 0.
      1.25523005e-002</_>
    <_>
      1.10091744e-002 3.66972480e-003 9.17431153e-003 3.66972480e-003
      3.66972480e-003 3.66972480e-003 9.17431153e-003 1.83486240e-003
      3.66972480e-003 1.83486240e-003 9.17431153e-003 1.83486240e-003
      5.50458720e-003 1.83486240e-003 0. 7.33944960e-003 9.17431153e-003
      7.33944960e-003 3.66972480e-003 5.50458720e-003 7.33944960e-003
      1.10091744e-002 3.66972480e-003 1.83486240e-003 1.83486240e-003
      1.83486240e-003 1.10091744e-002 1.65137611e-002 1.10091744e-002
      2.56880745e-002 5.50458720e-003 0. 7.33944960e-003 1.83486240e-003
      1.83486240e-003 7.33944960e-003 1.83486240e-003 5.50458720e-003
      1.28440373e-002 7.33944960e-003 1.83486240e-003 5.50458720e-003
      1.10091744e-002 1.10091744e-002 1.28440373e-002 1.83486240e-003
      3.66972480e-003 3.66972480e-003 3.66972480e-003 7.33944960e-003 0.
      7.33944960e-003 9.17431153e-003 7.33944960e-003 7.33944960e-003
      3.66972480e-003 5.50458720e-003 9.17431153e-003 5.50458720e-003
      9.17431153e-003 7.33944960e-003 0. 5.50458720e-003 3.66972480e-003
      3.66972480e-003 3.66972480e-003 5.50458720e-003 3.66972480e-003 0.
      3.11926603e-002 1.83486240e-003 3.66972480e-003 1.46788992e-002
      9.17431153e-003 5.50458720e-003 1.10091744e-002 7.33944960e-003
      1.83486240e-003 7.33944960e-003 3.66972480e-003 5.50458720e-003
      7.33944960e-003 9.17431153e-003 1.83486231e-002 1.46788992e-002
      3.66972480e-003 5.50458720e-003 9.17431153e-003 3.66972480e-003
      1.10091744e-002 5.50458720e-003 3.66972480e-003 3.66972480e-003
      2.56880745e-002 1.83486240e-003 7.33944960e-003 3.66972480e-003
      2.75229365e-002 5.50458720e-003 1.10091744e-002 7.33944960e-003
      1.10091744e-002 1.83486240e-003 9.17431153e-003 1.83486240e-003
      1.83486240e-003 1.83486240e-003 1.46788992e-002 1.28440373e-002
      5.50458720e-003 1.46788992e-002 7.33944960e-003 5.50458720e-003
      3.66972480e-003 9.17431153e-003 1.28440373e-002 1.83486240e-003
      1.83486240e-003 1.10091744e-002 3.66972480e-003 5.50458720e-003
      1.83486240e-003 1.10091744e-002 1.10091744e-002 1.65137611e-002
      1.83486240e-003 1.83486240e-003 1.83486240e-003 7.33944960e-003
      7.33944960e-003 1.83486240e-003 1.28440373e-002 1.28440373e-002
      3.66972480e-003 1.83486240e-003 7.33944960e-003 3.66972480e-003 0.
      0. 0. 3.66972480e-003 5.50458720e-003 0. 3.66972480e-003
      5.50458720e-003 2.38532107e-002 0. 1.83486231e-002 1.83486240e-003
      1.83486240e-003</_>
    <_>
      8.94854590e-003 2.23713648e-003 4.47427295e-003 1.34228189e-002 0.
      1.78970918e-002 2.23713648e-003 0. 2.23713648e-003 2.23713648e-003
      0. 4.47427295e-003 4.47427295e-003 0. 0. 1.56599544e-002
      1.34228189e-002 8.94854590e-003 6.71140943e-003 2.23713648e-003
      8.94854590e-003 4.47427295e-003 8.94854590e-003 6.71140943e-003
      1.56599544e-002 4.47427295e-003 1.78970918e-002 4.47427295e-003 0.
      2.23713648e-002 2.23713648e-003 6.71140943e-003 0. 6.71140943e-003
      2.23713648e-003 2.23713648e-003 6.71140943e-003 1.11856824e-002
      4.47427295e-003 4.47427295e-003 4.47427295e-003 6.71140943e-003
      6.71140943e-003 2.23713648e-002 1.11856824e-002 2.23713648e-003
      2.23713648e-003 6.71140943e-003 2.23713648e-003 8.94854590e-003
      2.23713648e-003 6.71140943e-003 4.47427295e-003 2.46085003e-002
      2.23713648e-003 1.11856824e-002 2.23713648e-003 4.47427295e-003 0.
      4.47427295e-003 4.47427295e-003 0. 1.34228189e-002 0.
      2.23713648e-003 6.71140943e-003 8.94854590e-003 1.11856824e-002 0.
      2.46085003e-002 4.47427295e-003 6.71140943e-003 2.23713648e-003
      2.23713648e-003 4.47427295e-003 2.23713648e-003 0. 2.23713648e-003
      2.23713648e-003 2.23713648e-003 4.47427295e-003 1.11856824e-002
      6.71140943e-003 4.47427295e-003 4.47427295e-003 4.47427295e-003
      8.94854590e-003 8.94854590e-003 6.71140943e-003 4.47427295e-003
      8.94854590e-003 1.11856824e-002 0. 2.46085003e-002 4.47427295e-003
      8.94854590e-003 8.94854590e-003 8.94854590e-003 4.47427295e-003
      3.13199088e-002 4.47427295e-003 1.34228189e-002 6.71140943e-003 0.
      0. 4.47427295e-003 1.11856824e-002 1.56599544e-002 1.78970918e-002
      0. 8.94854590e-003 1.11856824e-002 1.11856824e-002 0. 0.
      6.71140943e-003 2.23713648e-003 0. 0. 4.47427295e-003
      2.23713648e-003 8.94854590e-003 6.71140943e-003 4.47427295e-003
      1.56599544e-002 4.47427295e-003 4.47427295e-003 4.47427295e-003
      6.71140943e-003 6.71140943e-003 2.23713648e-003 1.78970918e-002
      2.23713648e-002 0. 4.47427295e-003 1.34228189e-002 1.11856824e-002
      4.47427295e-003 2.23713648e-003 1.11856824e-002 2.23713648e-003
      1.78970918e-002 6.71140943e-003 8.94854590e-003 2.23713648e-003
      1.11856824e-002 6.71140943e-003 2.23713648e-003 0. 4.47427295e-003</_>
    <_>
      4.50450461e-003 4.50450461e-003 4.50450461e-003 9.00900923e-003 0.
      0. 0. 1.35135138e-002 9.00900923e-003 0. 9.00900923e-003 0.
      4.50450461e-003 0. 0. 4.50450461e-003 2.25225240e-002
      9.00900923e-003 1.80180185e-002 2.70270277e-002 2.25225240e-002
      1.35135138e-002 4.50450461e-003 0. 0. 0. 4.50450461e-003
      1.35135138e-002 0. 1.80180185e-002 4.50450461e-003 4.50450461e-003
      0. 0. 0. 0. 0. 9.00900923e-003 1.80180185e-002 0. 0.
      4.50450461e-003 0. 4.50450461e-003 9.00900923e-003 4.50450461e-003
      4.50450461e-003 4.50450461e-003 9.00900923e-003 4.50450461e-003
      1.80180185e-002 4.50450461e-003 9.00900923e-003 2.25225240e-002 0.
      0. 9.00900923e-003 0. 0. 4.50450461e-003 0. 0. 4.50450461e-003
      2.25225240e-002 0. 0. 0. 9.00900923e-003 9.00900923e-003
      5.85585609e-002 0. 0. 0. 9.00900923e-003 1.35135138e-002
      2.25225240e-002 4.50450461e-003 0. 4.50450461e-003 0.
      4.50450461e-003 0. 4.50450461e-003 9.00900923e-003 4.50450461e-003
      4.50450461e-003 0. 0. 0. 0. 0. 9.00900923e-003 0. 2.25225240e-002
      0. 0. 9.00900923e-003 4.50450461e-003 4.50450461e-003
      7.65765756e-002 4.50450461e-003 4.50450461e-003 2.25225240e-002
      4.50450461e-003 0. 4.50450461e-003 0. 1.35135138e-002
      2.25225240e-002 0. 0. 2.70270277e-002 4.50450461e-003
      9.00900923e-003 9.00900923e-003 4.50450461e-003 4.50450461e-003
      2.70270277e-002 0. 0. 9.00900923e-003 0. 0. 4.50450461e-003
      4.50450461e-003 9.00900923e-003 9.00900923e-003 9.00900923e-003
      4.50450461e-003 0. 0. 9.00900923e-003 2.70270277e-002
      1.35135138e-002 0. 4.50450461e-003 4.50450461e-003 0.
      4.50450461e-003 4.50450461e-003 0. 1.80180185e-002 9.00900923e-003
      9.00900923e-003 0. 4.50450461e-003 0. 0. 0. 4.50450461e-003</_>
    <_>
      6.34920644e-003 3.17460322e-003 2.22222228e-002 3.17460322e-003
      1.90476198e-002 6.34920644e-003 0. 3.49206366e-002 1.26984129e-002
      3.17460322e-003 3.17460322e-003 3.17460322e-003 0. 3.17460322e-003
      3.17460322e-003 0. 3.17460322e-003 6.34920644e-003 1.26984129e-002
      6.34920644e-003 0. 9.52380989e-003 3.17460322e-003 1.58730168e-002
      3.17460322e-003 3.17460322e-003 0. 1.26984129e-002 3.17460322e-003
      1.90476198e-002 6.34920644e-003 3.17460322e-003 0. 6.34920644e-003
      1.58730168e-002 9.52380989e-003 3.17460322e-003 1.26984129e-002
      3.17460322e-003 3.17460322e-003 3.17460322e-003 9.52380989e-003 0.
      3.17460322e-003 0. 3.17460322e-003 1.26984129e-002 1.26984129e-002
      3.17460322e-003 1.26984129e-002 3.17460322e-003 1.90476198e-002
      9.52380989e-003 6.34920644e-003 0. 0. 3.17460322e-003
      6.34920644e-003 3.17460322e-003 3.17460322e-003 3.17460322e-003 0.
      3.17460322e-003 6.34920644e-003 0. 5.07936515e-002 0.
      3.17460322e-003 3.17460336e-002 6.34920644e-003 6.34920644e-003 0.
      6.34920644e-003 0. 0. 4.12698425e-002 0. 3.17460322e-003
      2.85714287e-002 6.34920644e-003 9.52380989e-003 3.17460322e-003
      3.17460322e-003 3.17460322e-003 1.26984129e-002 6.34920644e-003 0.
      6.34920644e-003 6.34920644e-003 0. 1.26984129e-002 3.17460322e-003
      3.17460322e-003 0. 1.26984129e-002 9.52380989e-003 3.17460322e-003
      3.17460322e-003 6.34920644e-003 3.17460322e-003 3.17460322e-003 0.
      3.17460322e-003 1.26984129e-002 0. 6.34920644e-003 1.26984129e-002
      3.17460322e-003 3.17460322e-003 1.26984129e-002 0. 0.
      6.34920644e-003 3.17460322e-003 2.85714287e-002 0. 3.17460322e-003
      1.26984129e-002 3.17460322e-003 0. 6.34920644e-003 3.17460322e-003
      3.17460322e-003 6.34920644e-003 0. 0. 0. 6.34920644e-003
      9.52380989e-003 1.26984129e-002 1.58730168e-002 3.17460322e-003
      6.34920644e-003 9.52380989e-003 0. 3.17460322e-003 6.34920644e-003
      6.34920644e-003 3.17460322e-003 9.52380989e-003 3.17460322e-003
      3.17460322e-003 1.90476198e-002 6.34920644e-003 0. 9.52380989e-003
      1.26984129e-002 3.17460322e-003 9.52380989e-003 3.17460322e-003</_>
    <_>
      1.34048262e-003 1.47453090e-002 4.02144808e-003 6.70241285e-003 0.
      9.38337855e-003 5.36193047e-003 2.68096523e-003 1.60857923e-002
      4.02144808e-003 8.04289617e-003 5.36193047e-003 2.68096523e-003
      2.68096523e-003 2.68096523e-003 6.70241285e-003 5.36193047e-003
      1.07238609e-002 1.34048257e-002 4.02144808e-003 6.70241285e-003
      4.02144808e-003 1.07238609e-002 8.04289617e-003 5.36193047e-003
      6.70241285e-003 5.36193047e-003 4.02144808e-003 1.34048262e-003
      2.68096523e-003 8.04289617e-003 4.02144808e-003 1.34048262e-003
      8.04289617e-003 5.36193047e-003 0. 6.70241285e-003 1.87667571e-002
      4.02144808e-003 9.38337855e-003 1.07238609e-002 4.02144808e-003
      2.68096523e-003 5.36193047e-003 2.68096523e-003 2.68096523e-003
      9.38337855e-003 8.04289617e-003 2.68096523e-003 1.34048257e-002
      1.07238609e-002 5.36193047e-003 5.36193047e-003 9.38337855e-003
      5.36193047e-003 9.38337855e-003 4.02144808e-003 5.36193047e-003
      5.36193047e-003 1.34048262e-003 8.04289617e-003 5.36193047e-003
      9.38337855e-003 6.70241285e-003 6.70241285e-003 1.34048262e-003
      1.07238609e-002 8.04289617e-003 4.02144808e-003 1.34048262e-003
      1.07238609e-002 9.38337855e-003 6.70241285e-003 1.34048262e-003
      1.20643433e-002 1.07238609e-002 2.68096523e-003 1.20643433e-002
      4.02144808e-003 2.68096523e-003 5.36193047e-003 9.38337855e-003
      1.07238609e-002 9.38337855e-003 1.60857923e-002 5.36193047e-003
      1.20643433e-002 1.07238609e-002 1.20643433e-002 6.70241285e-003
      6.70241285e-003 1.07238609e-002 4.02144808e-003 4.02144808e-003
      6.70241285e-003 1.60857923e-002 5.36193047e-003 6.70241285e-003
      8.04289617e-003 5.36193047e-003 8.04289617e-003 6.70241285e-003
      5.36193047e-003 1.20643433e-002 2.68096523e-003 4.02144808e-003
      1.34048262e-003 2.68096523e-003 5.36193047e-003 5.36193047e-003
      5.36193047e-003 2.68096523e-003 6.70241285e-003 1.20643433e-002 0.
      1.34048262e-003 1.20643433e-002 0. 4.02144808e-003 2.68096523e-003
      2.68096523e-003 1.34048257e-002 6.70241285e-003 4.02144808e-003
      8.04289617e-003 5.36193047e-003 1.34048262e-003 1.47453090e-002
      1.60857923e-002 6.70241285e-003 5.36193047e-003 1.34048262e-003
      4.02144808e-003 5.36193047e-003 1.34048257e-002 8.04289617e-003
      6.70241285e-003 1.20643433e-002 8.04289617e-003 1.47453090e-002
      1.34048262e-003 1.20643433e-002 2.68096523e-003 9.38337855e-003
      1.74262747e-002 2.68096523e-003 9.38337855e-003 4.02144808e-003 0.
      6.70241285e-003</_>
    <_>
      2.88184430e-003 5.76368859e-003 5.76368859e-003 1.72910653e-002
      2.88184430e-003 1.00864554e-002 7.20461085e-003 2.01729108e-002
      7.20461085e-003 2.88184430e-003 1.44092217e-002 5.76368859e-003
      8.64553265e-003 7.20461085e-003 0. 4.32276633e-003 5.76368859e-003
      7.20461085e-003 4.32276633e-003 8.64553265e-003 7.20461085e-003
      4.32276633e-003 5.76368859e-003 1.44092215e-003 1.15273772e-002
      1.44092215e-003 7.20461085e-003 8.64553265e-003 1.00864554e-002
      1.00864554e-002 8.64553265e-003 0. 1.44092215e-003 1.00864554e-002
      4.32276633e-003 8.64553265e-003 4.32276633e-003 1.15273772e-002
      2.88184430e-003 4.32276633e-003 1.44092215e-003 4.32276633e-003
      4.32276633e-003 7.20461085e-003 4.32276633e-003 7.20461085e-003
      2.88184430e-003 5.76368859e-003 4.32276633e-003 8.64553265e-003
      8.64553265e-003 5.76368859e-003 1.00864554e-002 1.00864554e-002
      1.44092215e-003 1.15273772e-002 5.76368859e-003 7.20461085e-003
      2.88184430e-003 0. 1.15273772e-002 2.88184430e-003 1.00864554e-002
      5.76368859e-003 5.76368859e-003 1.72910653e-002 4.32276633e-003
      2.88184430e-003 1.44092217e-002 1.44092215e-003 5.76368859e-003
      5.76368859e-003 7.20461085e-003 1.00864554e-002 8.64553265e-003
      1.58501435e-002 1.44092215e-003 4.32276633e-003 8.64553265e-003
      7.20461085e-003 4.32276633e-003 7.20461085e-003 1.44092215e-003
      1.29682990e-002 1.15273772e-002 8.64553265e-003 4.32276633e-003
      5.76368859e-003 8.64553265e-003 8.64553265e-003 1.29682990e-002
      1.00864554e-002 5.76368859e-003 1.58501435e-002 5.76368859e-003
      4.32276633e-003 1.72910653e-002 4.32276633e-003 5.76368859e-003
      1.00864554e-002 2.88184430e-003 7.20461085e-003 4.32276633e-003
      2.88184430e-003 4.32276633e-003 2.88184430e-003 5.76368859e-003 0.
      5.76368859e-003 7.20461085e-003 2.88184430e-003 7.20461085e-003
      8.64553265e-003 4.32276633e-003 8.64553265e-003 2.88184430e-003
      2.88184430e-003 1.15273772e-002 1.44092215e-003 4.32276633e-003
      1.29682990e-002 8.64553265e-003 8.64553265e-003 1.00864554e-002
      2.88184430e-003 1.44092215e-003 0. 4.32276633e-003 1.15273772e-002
      4.32276633e-003 7.20461085e-003 1.00864554e-002 1.15273772e-002
      1.44092215e-003 1.00864554e-002 1.29682990e-002 5.76368859e-003
      7.20461085e-003 5.76368859e-003 7.20461085e-003 1.44092215e-003
      1.00864554e-002 4.32276633e-003 1.00864554e-002 1.44092217e-002
      2.88184430e-003 2.88184430e-003 2.88184430e-003 1.44092215e-003
      4.32276633e-003</_>
    <_>
      3.54609918e-003 3.54609918e-003 7.09219836e-003 1.30023640e-002 0.
      9.45626479e-003 8.27423204e-003 7.09219836e-003 8.27423204e-003
      8.27423204e-003 7.09219836e-003 1.18203312e-002 1.06382975e-002
      2.36406620e-003 5.91016561e-003 3.54609918e-003 8.27423204e-003
      7.09219836e-003 3.54609918e-003 1.18203312e-002 2.36406620e-003
      5.91016561e-003 1.06382975e-002 2.36406620e-003 1.30023640e-002
      3.54609918e-003 8.27423204e-003 8.27423204e-003 4.72813239e-003
      7.09219836e-003 7.09219836e-003 3.54609918e-003 1.18203310e-003
      1.06382975e-002 3.54609918e-003 1.18203310e-003 1.06382975e-002
      9.45626479e-003 7.09219836e-003 9.45626479e-003 3.54609918e-003
      2.36406620e-003 9.45626479e-003 8.27423204e-003 1.18203312e-002
      7.09219836e-003 1.06382975e-002 9.45626479e-003 4.72813239e-003
      9.45626479e-003 1.06382975e-002 7.09219836e-003 5.91016561e-003
      1.06382975e-002 5.91016561e-003 7.09219836e-003 3.54609918e-003
      4.72813239e-003 3.54609918e-003 8.27423204e-003 1.18203312e-002
      4.72813239e-003 8.27423204e-003 1.06382975e-002 2.36406620e-003
      2.36406620e-003 1.41843967e-002 4.72813239e-003 1.30023640e-002 0.
      7.09219836e-003 7.09219836e-003 2.36406620e-003 1.06382975e-002
      8.27423204e-003 4.72813239e-003 8.27423204e-003 3.54609918e-003
      3.54609918e-003 3.54609918e-003 3.54609918e-003 1.06382975e-002
      7.09219836e-003 3.54609918e-003 4.72813239e-003 7.09219836e-003
      4.72813239e-003 8.27423204e-003 7.09219836e-003 8.27423204e-003
      1.18203312e-002 4.72813239e-003 2.36406620e-003 1.41843967e-002
      8.27423204e-003 1.06382975e-002 4.72813239e-003 7.09219836e-003
      8.27423204e-003 1.06382975e-002 5.91016561e-003 9.45626479e-003
      3.54609918e-003 5.91016561e-003 2.36406620e-003 1.18203310e-003
      3.54609918e-003 1.65484641e-002 3.54609918e-003 2.36406620e-003
      8.27423204e-003 1.06382975e-002 4.72813239e-003 7.09219836e-003
      8.27423204e-003 5.91016561e-003 3.54609918e-003 9.45626479e-003
      3.54609918e-003 3.54609918e-003 5.91016561e-003 9.45626479e-003
      5.91016561e-003 8.27423204e-003 1.41843967e-002 4.72813239e-003
      1.18203310e-003 3.54609918e-003 7.09219836e-003 4.72813239e-003
      2.36406620e-003 5.91016561e-003 5.91016561e-003 7.09219836e-003
