<?xml version="1.0"?>
<opencv_storage>
<my_svm type_id="opencv-ml-svm">
  <svm_type>C_SVC</svm_type>
  <kernel><type>RBF</type>
    <gamma>5.0625000000000009e-001</gamma></kernel>
  <C>3.1250000000000000e+002</C>
  <term_criteria><epsilon>1.1920928955078125e-007</epsilon>
    <iterations>1000</iterations></term_criteria>
  <var_all>150</var_all>
  <var_count>150</var_count>
  <class_count>2</class_count>
  <class_labels type_id="opencv-matrix">
    <rows>1</rows>
    <cols>2</cols>
    <dt>i</dt>
    <data>
      0 1</data></class_labels>
  <sv_total>211</sv_total>
  <support_vectors>
    <_>
      0. 0. 1.33333337e-002 0. 7.19999969e-002 0. 5.33333328e-003
      1.59999989e-002 2.66666664e-003 5.33333328e-003 2.66666664e-003 0.
      0. 3.46666649e-002 0. 2.66666664e-003 1.33333337e-002
      7.99999945e-003 7.99999945e-003 7.99999945e-003 5.33333328e-003
      1.06666666e-002 5.33333328e-003 7.99999945e-003 5.33333328e-003
      5.33333328e-003 5.33333328e-003 5.33333328e-003 5.33333328e-003
      7.99999945e-003 1.06666666e-002 2.66666664e-003 2.66666664e-003
      5.33333328e-003 1.06666666e-002 5.33333328e-003 5.33333328e-003
      2.66666664e-003 5.33333328e-003 5.33333328e-003 7.99999945e-003
      5.33333328e-003 2.66666664e-003 7.99999945e-003 2.66666664e-003
      1.33333337e-002 7.99999945e-003 0. 2.66666664e-003 2.66666664e-003
      1.06666666e-002 2.66666664e-003 5.33333328e-003 1.59999989e-002
      5.33333328e-003 0. 0. 1.06666666e-002 0. 2.66666664e-003
      2.66666664e-003 7.99999945e-003 0. 2.13333331e-002 5.33333328e-003
      4.26666662e-002 2.66666664e-003 2.66666664e-003 1.59999989e-002
      1.06666666e-002 2.66666664e-003 2.66666664e-003 0. 7.99999945e-003
      0. 2.40000002e-002 5.33333328e-003 0. 7.99999945e-003
      1.59999989e-002 7.99999945e-003 7.99999945e-003 2.66666664e-003 0.
      7.99999945e-003 0. 5.33333328e-003 5.33333328e-003 1.06666666e-002
      5.33333328e-003 2.66666664e-003 5.33333328e-003 2.66666664e-003
      1.33333337e-002 0. 2.66666664e-003 5.33333328e-003 2.66666664e-003
      5.33333328e-003 1.86666660e-002 0. 2.66666664e-003 0. 0. 0.
      5.33333328e-003 7.99999945e-003 7.99999945e-003 1.06666666e-002
      2.66666664e-003 7.99999945e-003 1.06666666e-002 2.66666664e-003 0.
      1.59999989e-002 5.33333328e-003 0. 1.59999989e-002 0.
      5.33333328e-003 1.33333337e-002 2.66666664e-003 0. 2.66666664e-003
      1.06666666e-002 7.99999945e-003 7.99999945e-003 5.33333328e-003
      2.66666664e-003 0. 1.59999989e-002 5.33333328e-003 7.99999945e-003
      0. 0. 7.99999945e-003 5.33333328e-003 2.66666664e-003
      7.99999945e-003 7.99999945e-003 1.86666660e-002 1.06666666e-002
      2.40000002e-002 0. 0. 0. 7.99999945e-003 0. 1.33333337e-002 0.</_>
    <_>
      1.52671756e-002 0. 3.05343512e-002 0. 3.81679386e-002 0. 0.
      1.52671756e-002 7.63358781e-003 7.63358781e-003 0. 0.
      2.29007639e-002 2.29007639e-002 0. 7.63358781e-003 0. 0.
      7.63358781e-003 0. 7.63358781e-003 0. 7.63358781e-003
      7.63358781e-003 7.63358781e-003 1.52671756e-002 7.63358781e-003
      7.63358781e-003 0. 0. 7.63358781e-003 1.52671756e-002 0. 0.
      7.63358781e-003 0. 1.52671756e-002 0. 7.63358781e-003 0.
      2.29007639e-002 0. 0. 0. 0. 7.63358781e-003 7.63358781e-003 0. 0.
      0. 1.52671756e-002 7.63358781e-003 7.63358781e-003 0. 0. 0. 0. 0.
      7.63358781e-003 7.63358781e-003 0. 1.52671756e-002 0. 0.
      2.29007639e-002 6.10687025e-002 1.52671756e-002 7.63358781e-003
      3.05343512e-002 0. 7.63358781e-003 0. 7.63358781e-003 0. 0.
      1.52671756e-002 0. 0. 3.05343512e-002 1.52671756e-002 0.
      1.52671756e-002 1.52671756e-002 0. 3.05343512e-002 1.52671756e-002
      0. 7.63358781e-003 7.63358781e-003 2.29007639e-002 0.
      7.63358781e-003 7.63358781e-003 0. 7.63358781e-003 0. 0. 0.
      1.52671756e-002 7.63358781e-003 0. 0. 0. 7.63358781e-003
      7.63358781e-003 0. 7.63358781e-003 0. 1.52671756e-002
      3.05343512e-002 0. 0. 7.63358781e-003 0. 7.63358781e-003 0. 0.
      7.63358781e-003 2.29007639e-002 7.63358781e-003 3.05343512e-002
      7.63358781e-003 7.63358781e-003 7.63358781e-003 0. 0. 0. 0.
      7.63358781e-003 0. 0. 0. 0. 0. 0. 0. 0. 7.63358781e-003 0.
      2.29007639e-002 0. 0. 7.63358781e-003 0. 0. 0. 0. 0. 0.
      1.52671756e-002</_>
    <_>
      8.68055597e-003 6.94444450e-003 1.73611119e-002 0. 1.04166670e-002
      1.73611112e-003 6.94444450e-003 6.94444450e-003 1.21527780e-002
      6.94444450e-003 5.20833349e-003 1.21527780e-002 5.20833349e-003 0.
      5.20833349e-003 0. 1.73611112e-003 8.68055597e-003 8.68055597e-003
      0. 3.47222225e-003 5.20833349e-003 3.47222225e-003 5.20833349e-003
      6.94444450e-003 1.73611119e-002 3.47222225e-003 0. 5.20833349e-003
      1.73611112e-003 6.94444450e-003 2.08333340e-002 1.73611112e-003
      8.68055597e-003 2.08333340e-002 1.56250000e-002 1.73611112e-003
      5.20833349e-003 3.47222225e-003 1.04166670e-002 0. 5.20833349e-003
      5.20833349e-003 1.73611112e-003 1.73611112e-003 5.20833349e-003 0.
      8.68055597e-003 1.04166670e-002 3.47222225e-003 5.20833349e-003
      6.94444450e-003 3.47222225e-003 3.47222225e-003 1.21527780e-002
      5.20833349e-003 1.56250000e-002 1.38888890e-002 5.20833349e-003
      3.47222225e-003 1.04166670e-002 1.90972220e-002 3.47222225e-003
      5.20833349e-003 1.73611112e-003 1.21527780e-002 6.94444450e-003
      3.47222225e-003 8.68055597e-003 0. 5.20833349e-003 5.20833349e-003
      1.21527780e-002 1.73611112e-003 0. 1.73611112e-003 1.04166670e-002
      5.20833349e-003 1.04166670e-002 2.43055560e-002 1.04166670e-002
      5.20833349e-003 5.20833349e-003 5.20833349e-003 1.73611112e-003
      3.47222225e-003 3.47222225e-003 3.47222225e-003 5.20833349e-003
      1.73611112e-003 6.94444450e-003 1.73611119e-002 6.94444450e-003
      3.47222225e-003 1.38888890e-002 0. 8.68055597e-003 1.73611112e-003
      3.47222225e-003 1.04166670e-002 6.94444450e-003 0. 1.21527780e-002
      8.68055597e-003 1.38888890e-002 1.21527780e-002 1.73611112e-003
      6.94444450e-003 0. 2.08333340e-002 3.47222225e-003 1.73611112e-003
      3.47222225e-003 0. 0. 1.73611112e-003 1.56250000e-002
      3.47222225e-003 8.68055597e-003 6.94444450e-003 1.04166670e-002
      1.73611112e-003 6.94444450e-003 1.73611112e-003 1.73611112e-003
      6.94444450e-003 0. 3.47222225e-003 6.94444450e-003 5.20833349e-003
      8.68055597e-003 0. 2.08333340e-002 1.73611119e-002 5.20833349e-003
      6.94444450e-003 3.47222225e-003 3.47222225e-003 0. 3.47222225e-003
      8.68055597e-003 2.60416660e-002 3.12500000e-002 3.47222225e-003
      1.04166670e-002 8.68055597e-003 1.04166670e-002 1.73611112e-003
      1.73611112e-003 0.</_>
    <_>
      0. 2.23880596e-002 7.46268639e-003 2.23880596e-002 4.47761193e-002
      1.49253728e-002 1.49253728e-002 2.23880596e-002 7.46268639e-003
      7.46268639e-003 0. 0. 0. 7.46268639e-003 0. 7.46268639e-003
      1.49253728e-002 0. 7.46268639e-003 7.46268639e-003 7.46268639e-003
      2.23880596e-002 0. 0. 0. 7.46268639e-003 0. 2.23880596e-002
      7.46268639e-003 0. 0. 1.49253728e-002 2.98507456e-002
      7.46268639e-003 7.46268639e-003 0. 7.46268639e-003 7.46268639e-003
      2.98507456e-002 1.49253728e-002 7.46268639e-003 0. 0. 0.
      7.46268639e-003 0. 0. 7.46268639e-003 0. 0. 0. 0. 1.49253728e-002
      0. 0. 0. 0. 0. 7.46268639e-003 0. 0. 7.46268639e-003 0.
      7.46268639e-003 7.46268639e-003 2.98507456e-002 0. 0.
      7.46268639e-003 0. 0. 0. 7.46268639e-003 0. 7.46268639e-003 0.
      7.46268639e-003 0. 1.49253728e-002 0. 0. 0. 0. 7.46268639e-003 0.
      7.46268639e-003 0. 7.46268639e-003 7.46268639e-003 0. 0. 0.
      1.49253728e-002 7.46268639e-003 1.49253728e-002 7.46268639e-003
      7.46268639e-003 2.23880596e-002 1.49253728e-002 2.23880596e-002
      7.46268639e-003 7.46268639e-003 0. 0. 0. 2.23880596e-002
      7.46268639e-003 0. 7.46268639e-003 7.46268639e-003 7.46268639e-003
      7.46268639e-003 0. 0. 0. 0. 7.46268639e-003 7.46268639e-003
      1.49253728e-002 7.46268639e-003 4.47761193e-002 0. 7.46268639e-003
      7.46268639e-003 0. 0. 7.46268639e-003 1.49253728e-002
      1.49253728e-002 0. 1.49253728e-002 0. 1.49253728e-002 0. 0. 0.
      7.46268639e-003 0. 2.23880596e-002 7.46268639e-003 7.46268639e-003
      0. 2.23880596e-002 0. 0. 0. 7.46268639e-003 7.46268639e-003 0. 0.</_>
    <_>
      3.14465398e-003 3.14465398e-003 9.43396240e-003 6.28930796e-003
      9.43396240e-003 7.86163472e-003 6.28930796e-003 6.28930796e-003
      9.43396240e-003 0. 7.86163472e-003 1.10062892e-002 6.28930796e-003
      9.43396240e-003 1.57232699e-003 6.28930796e-003 1.57232699e-003
      1.57232699e-003 6.28930796e-003 3.14465398e-003 2.35849041e-002
      1.57232699e-003 3.14465398e-003 0. 3.14465398e-003 0.
      9.43396240e-003 4.71698120e-003 6.28930796e-003 2.04402506e-002
      1.57232699e-003 1.57232699e-003 0. 1.25786159e-002 7.86163472e-003
      2.20125783e-002 4.71698120e-003 0. 1.57232699e-003 3.14465398e-003
      3.14465398e-003 4.71698120e-003 0. 9.43396240e-003 3.14465398e-003
      1.72955971e-002 1.41509427e-002 0. 1.57232699e-003 3.14465398e-003
      6.28930796e-003 7.86163472e-003 6.28930796e-003 4.71698120e-003 0.
      7.86163472e-003 6.28930796e-003 4.71698120e-003 0. 3.14465398e-003
      0. 6.28930796e-003 1.10062892e-002 3.14465398e-003 4.71698120e-003
      3.61635201e-002 0. 1.57232699e-003 7.86163472e-003 2.04402506e-002
      1.57232699e-003 4.71698120e-003 3.14465398e-003 4.71698120e-003
      1.57232699e-003 6.28930796e-003 3.14465398e-003 9.43396240e-003
      7.86163472e-003 6.28930796e-003 3.14465398e-003 0. 0.
      6.28930796e-003 6.28930796e-003 4.71698120e-003 0. 1.57232699e-003
      0. 1.57232699e-003 1.10062892e-002 1.10062892e-002 3.14465398e-003
      1.72955971e-002 3.14465398e-003 3.14465398e-003 9.43396240e-003
      1.57232699e-003 4.71698120e-003 3.30188684e-002 0. 7.86163472e-003
      4.71698120e-003 1.57232699e-003 0. 3.14465398e-003 1.57232699e-003
      3.61635201e-002 3.14465398e-003 3.14465389e-002 3.14465398e-003
      2.67295595e-002 0. 3.14465398e-003 4.71698120e-003 1.57232699e-003
      6.28930796e-003 1.72955971e-002 1.57232699e-003 4.71698120e-003
      7.86163472e-003 7.86163472e-003 3.14465398e-003 1.57232699e-003
      3.14465398e-003 1.57232699e-003 0. 1.41509427e-002 6.28930796e-003
      3.14465398e-003 1.10062892e-002 9.43396240e-003 2.83018854e-002
      1.57232699e-003 0. 3.30188684e-002 7.86163472e-003 4.71698120e-003
      6.28930796e-003 0. 4.71698120e-003 4.40251566e-002 3.14465398e-003
      7.86163472e-003 4.71698120e-003 6.28930796e-003 6.28930796e-003 0.
      1.57232699e-003 3.14465398e-003</_>
    <_>
      8.13008100e-003 0. 2.43902430e-002 0. 3.25203240e-002 0. 0.
      8.13008100e-003 0. 1.62601620e-002 0. 0. 8.13008100e-003 0.
      8.13008100e-003 0. 0. 0. 0. 1.62601620e-002 0. 0. 8.13008100e-003
      8.13008100e-003 0. 8.13008100e-003 0. 2.43902430e-002 0. 0. 0.
      8.13008100e-003 8.13008100e-003 0. 3.25203240e-002 8.13008100e-003
      8.13008100e-003 0. 8.13008100e-003 8.13008100e-003 8.13008100e-003
      0. 0. 8.13008100e-003 0. 0. 8.13008100e-003 0. 1.62601620e-002
      8.13008100e-003 0. 0. 0. 0. 0. 2.43902430e-002 0. 0.
      8.13008100e-003 0. 0. 8.13008100e-003 8.13008100e-003 0.
      8.13008100e-003 2.43902430e-002 0. 3.25203240e-002 0. 0. 0. 0.
      2.43902430e-002 0. 0. 1.62601620e-002 0. 0. 8.13008100e-003
      2.43902430e-002 8.13008100e-003 2.43902430e-002 0. 1.62601620e-002
      4.06504050e-002 0. 4.06504050e-002 0. 8.13008100e-003
      3.25203240e-002 0. 8.13008100e-003 8.13008100e-003 0.
      1.62601620e-002 3.25203240e-002 0. 0. 0. 8.13008100e-003 0.
      8.13008100e-003 0. 0. 0. 1.62601620e-002 8.13008100e-003 0. 0.
      2.43902430e-002 0. 0. 0. 0. 8.13008100e-003 0. 8.13008100e-003
      1.62601620e-002 8.13008100e-003 8.13008100e-003 0. 0. 0. 0.
      8.13008100e-003 8.13008100e-003 0. 0. 0. 0. 3.25203240e-002 0. 0.
      0. 1.62601620e-002 0. 8.13008100e-003 1.62601620e-002
      8.13008100e-003 3.25203240e-002 8.13008100e-003 0. 1.62601620e-002
      0. 0. 0. 0. 8.13008100e-003 0. 0.</_>
    <_>
      0. 0. 1.45985400e-002 0. 7.29926974e-002 0. 0. 3.64963487e-002
      7.29927002e-003 0. 0. 0. 0. 5.83941601e-002 0. 1.45985400e-002 0.
      0. 0. 0. 1.45985400e-002 0. 0. 0. 7.29927002e-003 1.45985400e-002
      7.29927002e-003 7.29927002e-003 0. 7.29927002e-003 0. 0. 0. 0. 0.
      1.45985400e-002 0. 0. 0. 7.29927002e-003 0. 7.29927002e-003 0.
      7.29927002e-003 0. 5.83941601e-002 0. 0. 1.45985400e-002 0.
      7.29927002e-003 7.29927002e-003 1.45985400e-002 0. 0.
      7.29927002e-003 0. 0. 0. 0. 7.29927002e-003 1.45985400e-002 0.
      1.45985400e-002 7.29927002e-003 6.56934306e-002 0. 0.
      7.29927002e-003 7.29927002e-003 0. 7.29927002e-003 0. 0. 0.
      7.29927002e-003 0. 2.18978096e-002 0. 7.29927002e-003
      1.45985400e-002 1.45985400e-002 0. 0. 0. 0. 7.29927002e-003 0.
      7.29927002e-003 7.29927002e-003 2.18978096e-002 0. 0. 0.
      7.29927002e-003 0. 7.29927002e-003 0. 0. 7.29927002e-003 0.
      7.29927002e-003 0. 1.45985400e-002 0. 0. 7.29927002e-003 0. 0. 0.
      0. 7.29927002e-003 7.29927002e-003 0. 7.29927002e-003 0. 0.
      1.45985400e-002 7.29927002e-003 1.45985400e-002 2.91970801e-002 0.
      0. 0. 0. 0. 0. 0. 7.29927002e-003 0. 1.45985400e-002 0.
      2.91970801e-002 7.29927002e-003 0. 3.64963487e-002 7.29927002e-003
      7.29927002e-003 7.29927002e-003 0. 1.45985400e-002 7.29927002e-003
      4.37956192e-002 1.45985400e-002 0. 0. 0. 0. 1.45985400e-002 0.</_>
    <_>
      7.38007389e-003 5.53505542e-003 5.53505542e-003 3.69003695e-003
      5.53505542e-003 7.38007389e-003 1.84501847e-003 9.22509283e-003
      9.22509283e-003 1.10701108e-002 3.69003695e-003 0. 1.10701108e-002
      9.22509283e-003 9.22509283e-003 3.69003695e-003 3.69003695e-003
      7.38007389e-003 9.22509283e-003 0. 3.69003695e-003 1.84501847e-003
      1.84501847e-003 1.10701108e-002 5.53505542e-003 0. 5.53505542e-003
      1.84501847e-003 5.53505542e-003 1.29151288e-002 3.69003695e-003
      5.53505542e-003 1.84501847e-003 5.53505542e-003 3.69003695e-003
      5.53505542e-003 5.53505542e-003 5.53505542e-003 9.22509283e-003
      9.22509283e-003 9.22509283e-003 1.29151288e-002 2.02952027e-002
      7.38007389e-003 5.53505542e-003 0. 7.38007389e-003 7.38007389e-003
      1.84501847e-003 5.53505542e-003 7.38007389e-003 5.53505542e-003
      1.84501847e-003 1.10701108e-002 9.22509283e-003 1.84501847e-003
      7.38007389e-003 3.69003695e-003 9.22509283e-003 7.38007389e-003
      1.10701108e-002 1.84501847e-003 1.84501847e-003 0. 1.10701108e-002
      5.53505542e-003 1.10701108e-002 3.69003695e-003 0. 3.69003695e-003
      7.38007389e-003 1.10701108e-002 7.38007389e-003 3.69003695e-003
      5.53505542e-003 3.69003695e-003 1.29151288e-002 9.22509283e-003
      3.69003695e-003 9.22509283e-003 1.10701108e-002 1.84501847e-003
      1.84501847e-003 3.69003695e-003 1.84501847e-003 7.38007389e-003
      9.22509283e-003 1.84501847e-003 7.38007389e-003 3.69003695e-003
      7.38007389e-003 1.29151288e-002 5.53505542e-003 9.22509283e-003
      1.47601478e-002 3.69003695e-003 3.69003695e-003 1.66051667e-002
      1.10701108e-002 1.10701108e-002 1.47601478e-002 5.53505542e-003
      7.38007389e-003 5.53505542e-003 9.22509283e-003 5.53505542e-003
      1.84501847e-003 1.84501847e-003 0. 7.38007389e-003 3.69003695e-003
      1.10701108e-002 1.10701108e-002 1.84501847e-003 1.84501847e-003
      1.84501847e-003 7.38007389e-003 1.66051667e-002 5.53505542e-003
      7.38007389e-003 9.22509283e-003 7.38007389e-003 5.53505542e-003
      5.53505542e-003 1.84501847e-003 9.22509283e-003 0. 9.22509283e-003
      9.22509283e-003 7.38007389e-003 1.84501847e-003 9.22509283e-003
      7.38007389e-003 5.53505542e-003 1.29151288e-002 5.53505542e-003
      1.84501847e-003 1.84501847e-003 1.47601478e-002 7.38007389e-003
      1.10701108e-002 9.22509283e-003 1.29151288e-002 9.22509283e-003
      7.38007389e-003 9.22509283e-003 1.29151288e-002 7.38007389e-003
      1.29151288e-002 7.38007389e-003</_>
    <_>
      5.02512557e-003 0. 1.25628142e-002 0. 5.27638197e-002
      2.51256279e-003 0. 1.75879393e-002 2.51256279e-003 7.53768813e-003
      0. 5.02512557e-003 0. 1.75879393e-002 0. 0. 7.53768813e-003
      1.75879393e-002 0. 2.51256279e-003 5.02512557e-003 5.02512557e-003
      5.02512557e-003 5.02512557e-003 5.02512557e-003 7.53768813e-003
      2.51256279e-003 0. 2.51256279e-003 7.53768813e-003 1.00502511e-002
      5.02512557e-003 5.02512557e-003 2.51256279e-003 7.53768813e-003 0.
      7.53768813e-003 1.25628142e-002 5.02512557e-003 2.51256279e-003
      2.01005023e-002 5.02512557e-003 0. 0. 2.51256279e-003
      2.51256279e-003 1.50753763e-002 1.25628142e-002 2.51256279e-003
      5.02512557e-003 0. 5.02512557e-003 0. 0. 0. 5.02512557e-003
      7.53768813e-003 5.02512557e-003 5.02512557e-003 1.50753763e-002
      1.00502511e-002 5.02512557e-003 1.00502511e-002 5.02512557e-003
      5.02512557e-003 1.75879393e-002 1.50753763e-002 0. 1.50753763e-002
      5.02512557e-003 7.53768813e-003 1.50753763e-002 1.75879393e-002
      2.51256279e-003 7.53768813e-003 5.02512557e-003 7.53768813e-003
      5.02512557e-003 1.00502511e-002 1.50753763e-002 0. 7.53768813e-003
      1.25628142e-002 2.51256279e-003 5.02512557e-003 7.53768813e-003
      2.51256279e-003 2.51256279e-003 1.00502511e-002 5.02512557e-003 0.
      5.02512557e-003 2.01005023e-002 0. 0. 2.51256279e-003
      2.51256279e-003 2.51256279e-003 7.53768813e-003 0. 7.53768813e-003
      2.51256279e-003 7.53768813e-003 7.53768813e-003 2.51256279e-003
      1.00502511e-002 2.76381914e-002 2.51256279e-003 2.51256279e-003 0.
      7.53768813e-003 0. 5.02512557e-003 2.51256279e-003 2.26130653e-002
      2.51256279e-003 1.50753763e-002 1.75879393e-002 5.02512557e-003 0.
      7.53768813e-003 2.51256279e-003 1.25628142e-002 2.51256279e-003
      2.51256279e-003 1.00502511e-002 5.02512557e-003 7.53768813e-003 0.
      1.00502511e-002 1.75879393e-002 2.51256279e-003 1.25628142e-002 0.
      0. 5.02512557e-003 0. 2.51256279e-003 1.25628142e-002
      1.00502511e-002 1.75879393e-002 5.02512557e-003 1.00502511e-002
      5.02512557e-003 2.51256279e-003 5.02512557e-003 1.25628142e-002
      5.02512557e-003 2.01005023e-002 7.53768813e-003</_>
    <_>
      4.65116277e-003 4.65116277e-003 0. 1.86046511e-002 4.65116277e-003
      9.30232555e-003 1.39534883e-002 9.30232555e-003 0. 1.86046511e-002
      4.65116277e-003 4.65116277e-003 9.30232555e-003 4.65116277e-003 0.
      1.86046511e-002 1.39534883e-002 4.65116277e-003 9.30232555e-003
      4.65116277e-003 4.65116277e-002 4.65116277e-003 0. 0.
      4.65116277e-003 0. 9.30232555e-003 9.30232555e-003 0.
      5.11627905e-002 1.86046511e-002 0. 0. 4.65116277e-003
      9.30232555e-003 0. 0. 0. 0. 0. 9.30232555e-003 4.65116277e-003
      9.30232555e-003 2.79069766e-002 9.30232555e-003 9.30232555e-003
      4.65116277e-003 4.65116277e-003 9.30232555e-003 0. 0. 0.
      1.39534883e-002 1.39534883e-002 0. 0. 1.39534883e-002 0. 0.
      9.30232555e-003 0. 4.65116277e-003 0. 4.65116277e-003 0.
      9.30232555e-003 0. 1.39534883e-002 0. 2.79069766e-002 0.
      4.65116277e-003 4.65116277e-003 0. 0. 1.39534883e-002
      4.65116277e-003 4.65116277e-003 4.65116277e-003 4.65116277e-003 0.
      1.39534883e-002 4.65116277e-003 0. 1.39534883e-002 0. 0. 0.
      4.65116277e-003 4.65116277e-003 1.39534883e-002 4.65116277e-003
      4.65116277e-003 1.39534883e-002 4.65116277e-003 9.30232555e-003
      4.65116277e-003 4.65116277e-003 9.30232555e-003 0. 9.30232555e-003
      1.86046511e-002 4.65116277e-003 0. 4.65116277e-003 4.65116277e-003
      0. 0. 9.30232555e-003 1.86046511e-002 9.30232555e-003
      5.11627905e-002 4.65116277e-003 4.65116277e-003 4.65116277e-003 0.
      0. 5.11627905e-002 0. 0. 4.65116277e-003 0. 0. 9.30232555e-003
      4.65116277e-003 9.30232555e-003 0. 0. 0. 4.65116277e-003
      4.65116277e-003 1.86046511e-002 4.65116277e-003 1.39534883e-002
      4.65116277e-003 4.65116277e-003 4.65116277e-003 0. 0.
      9.30232555e-003 0. 1.39534883e-002 0. 9.30232555e-003
      4.65116277e-003 4.65116277e-003 0. 4.65116277e-003 0. 0.</_>
    <_>
      0. 0. 9.00900923e-003 9.00900923e-003 1.44144148e-001 0. 0. 0. 0.
      0. 9.00900923e-003 9.00900923e-003 0. 2.70270277e-002 0. 0. 0.
      9.00900923e-003 1.80180185e-002 0. 0. 0. 0. 9.00900923e-003 0. 0.
      0. 0. 2.70270277e-002 0. 0. 9.00900923e-003 0. 0. 3.60360369e-002
      9.00900923e-003 9.00900923e-003 1.80180185e-002 0. 0. 0.
      9.00900923e-003 1.80180185e-002 0. 9.00900923e-003 9.00900923e-003
      0. 0. 0. 9.00900923e-003 0. 0. 0. 0. 0. 1.80180185e-002 0. 0. 0.
      9.00900923e-003 9.00900923e-003 9.00900923e-003 0. 0.
      1.80180185e-002 1.17117122e-001 9.00900923e-003 9.00900923e-003
      9.00900923e-003 0. 0. 0. 1.80180185e-002 1.80180185e-002
      9.00900923e-003 0. 9.00900923e-003 0. 0. 2.70270277e-002 0. 0.
      9.00900923e-003 9.00900923e-003 9.00900923e-003 9.00900923e-003 0.
      0. 0. 0. 9.00900923e-003 0. 1.80180185e-002 9.00900923e-003 0.
      1.80180185e-002 0. 1.80180185e-002 0. 0. 0. 9.00900923e-003 0. 0.
      9.00900923e-003 0. 0. 0. 0. 0. 9.00900923e-003 0. 0. 0. 0. 0. 0.
      0. 0. 1.80180185e-002 9.00900923e-003 0. 0. 1.80180185e-002
      9.00900923e-003 0. 0. 1.80180185e-002 9.00900923e-003
      1.80180185e-002 9.00900923e-003 0. 0. 9.00900923e-003 0. 0.
      9.00900923e-003 0. 0. 0. 9.00900923e-003 9.00900923e-003
      9.00900923e-003 0. 0. 0. 0. 0. 1.80180185e-002 0.</_>
    <_>
      0. 0. 1.61290318e-002 8.06451589e-003 6.45161271e-002 0.
      8.06451589e-003 4.83870953e-002 0. 1.61290318e-002 0.
      1.61290318e-002 0. 0. 2.41935477e-002 0. 0. 8.06451589e-003 0. 0.
      0. 0. 0. 1.61290318e-002 0. 1.61290318e-002 0. 0. 0. 0. 0.
      8.06451589e-003 0. 1.61290318e-002 3.22580636e-002 1.61290318e-002
      1.61290318e-002 0. 0. 0. 8.06451589e-003 8.06451589e-003 0.
      8.06451589e-003 8.06451589e-003 1.61290318e-002 8.06451589e-003
      8.06451589e-003 0. 0. 8.06451589e-003 8.06451589e-003 0. 0. 0.
      8.06451589e-003 8.06451589e-003 0. 0. 8.06451589e-003
      2.41935477e-002 8.06451589e-003 0. 8.06451589e-003 8.06451589e-003
      4.03225794e-002 0. 8.06451589e-003 2.41935477e-002 0. 0. 0.
      8.06451589e-003 0. 8.06451589e-003 8.06451589e-003 0.
      8.06451589e-003 8.06451589e-003 1.61290318e-002 0. 0. 0.
      1.61290318e-002 0. 0. 8.06451589e-003 8.06451589e-003 0.
      1.61290318e-002 0. 0. 0. 8.06451589e-003 8.06451589e-003 0. 0. 0.
      0. 8.06451589e-003 8.06451589e-003 0. 8.06451589e-003 0. 0.
      8.06451589e-003 8.06451589e-003 3.22580636e-002 0. 8.06451589e-003
      0. 0. 0. 0. 1.61290318e-002 0. 2.41935477e-002 1.61290318e-002
      8.06451589e-003 8.06451589e-003 2.41935477e-002 0. 0. 0. 0. 0. 0.
      0. 0. 0. 2.41935477e-002 0. 8.06451589e-003 8.06451589e-003
      8.06451589e-003 1.61290318e-002 0. 0. 0. 8.06451589e-003 0.
      4.03225794e-002 0. 0. 8.06451589e-003 1.61290318e-002
      8.06451589e-003 0. 0. 0.</_>
    <_>
      0. 0. 4.28571440e-002 1.42857144e-002 4.28571440e-002 0. 0. 0. 0.
      0. 1.42857144e-002 4.28571440e-002 1.42857144e-002 2.85714287e-002
      0. 1.42857144e-002 0. 0. 1.42857144e-002 0. 2.85714287e-002 0. 0.
      0. 4.28571440e-002 1.42857144e-002 1.42857144e-002 0.
      1.42857144e-002 0. 0. 0. 0. 1.42857144e-002 2.85714287e-002 0. 0.
      0. 0. 0. 0. 1.42857144e-002 0. 1.42857144e-002 0. 0. 0. 0.
      1.42857144e-002 0. 1.42857144e-002 1.42857144e-002 0. 0. 0. 0. 0.
      0. 0. 1.42857144e-002 4.28571440e-002 0. 0. 0. 0. 0. 0. 0. 0. 0.
      0. 1.42857144e-002 0. 0. 0. 0. 0. 0. 0. 2.85714287e-002
      1.42857144e-002 0. 0. 1.42857144e-002 0. 0. 0. 0. 0. 0. 0. 0. 0.
      0. 0. 0. 1.42857144e-002 2.85714287e-002 0. 1.42857144e-002 0.
      2.85714287e-002 4.28571440e-002 0. 0. 0. 0. 1.42857144e-002
      1.42857144e-002 1.42857144e-002 0. 1.42857144e-002 1.42857144e-002
      0. 1.42857144e-002 0. 2.85714287e-002 0. 0. 0. 0. 0. 0. 0. 0. 0.
      0. 0. 2.85714287e-002 1.42857144e-002 1.42857144e-002 0. 0.
      1.42857144e-002 0. 1.42857144e-002 0. 0. 0. 0. 1.42857144e-002 0.
      2.85714287e-002 1.42857144e-002 0. 0. 2.85714287e-002 0. 0. 0.</_>
    <_>
      6.45161280e-003 0. 1.29032256e-002 0. 0. 3.22580640e-003
      3.22580640e-003 1.93548389e-002 0. 9.67741944e-003 6.45161280e-003
      6.45161280e-003 0. 6.45161280e-003 3.22580640e-003 1.61290318e-002
      0. 0. 2.25806441e-002 0. 0. 1.61290318e-002 3.22580640e-003
      6.45161280e-003 6.45161280e-003 9.67741944e-003 1.29032256e-002 0.
      6.45161280e-003 9.67741944e-003 1.61290318e-002 9.67741944e-003
      6.45161280e-003 1.61290318e-002 6.45161280e-003 0. 6.45161280e-003
      6.45161280e-003 0. 3.22580640e-003 6.45161280e-003 3.22580640e-003
      3.22580640e-003 1.61290318e-002 1.29032256e-002 6.45161280e-003
      3.22580640e-003 6.45161280e-003 3.22580640e-003 3.22580640e-003
      2.90322583e-002 9.67741944e-003 3.22580640e-003 3.22580640e-003
      3.22580640e-003 6.45161280e-003 9.67741944e-003 1.61290318e-002 0.
      9.67741944e-003 3.22580640e-003 9.67741944e-003 3.22580640e-003 0.
      0. 6.45161280e-003 3.22580640e-003 6.45161280e-003 6.45161280e-003
      1.93548389e-002 9.67741944e-003 3.22580640e-003 3.22580640e-003
      6.45161280e-003 3.22580640e-003 6.45161280e-003 6.45161280e-003
      6.45161280e-003 3.22580640e-003 6.45161280e-003 3.22580640e-003
      1.29032256e-002 3.22580640e-003 3.22580640e-003 9.67741944e-003
      6.45161280e-003 6.45161280e-003 0. 3.22580640e-003 6.45161280e-003
      6.45161280e-003 1.61290318e-002 3.22580640e-003 6.45161280e-003
      3.22580640e-003 6.45161280e-003 0. 1.93548389e-002 0.
      1.29032256e-002 6.45161280e-003 9.67741944e-003 3.22580640e-003
      3.22580640e-003 0. 3.22580640e-003 6.45161280e-003 3.22580640e-003
      6.45161280e-003 3.22580640e-003 9.67741944e-003 1.29032256e-002
      1.29032256e-002 0. 9.67741944e-003 0. 6.45161280e-003
      2.25806441e-002 0. 3.22580640e-003 9.67741944e-003 3.22580640e-003
      6.45161280e-003 6.45161280e-003 1.61290318e-002 0. 9.67741944e-003
      0. 6.45161280e-003 3.22580640e-003 6.45161280e-003 6.45161280e-003
      1.93548389e-002 3.22580640e-003 3.22580640e-003 2.90322583e-002 0.
      9.67741944e-003 3.22580640e-003 3.22580640e-003 9.67741944e-003
      9.67741944e-003 1.61290318e-002 3.22580640e-003 3.22580640e-003
      1.29032256e-002 6.45161280e-003 0. 6.45161280e-003 9.67741944e-003</_>
    <_>
      1.16959065e-002 0. 5.84795326e-003 0. 2.33918130e-002 0.
      5.84795326e-003 2.33918130e-002 0. 0. 5.84795326e-003 0. 0.
      5.84795326e-003 0. 0. 0. 5.84795326e-003 0. 1.75438598e-002
      5.84795326e-003 0. 1.16959065e-002 0. 5.84795326e-003
      2.33918130e-002 0. 2.33918130e-002 5.84795326e-003 0.
      2.33918130e-002 0. 0. 0. 1.16959065e-002 0. 5.84795326e-003
      1.16959065e-002 5.84795326e-003 0. 5.84795326e-003 0. 0. 0. 0.
      5.84795326e-003 5.84795326e-003 5.84795326e-003 0. 0.
      5.84795326e-003 5.84795326e-003 1.16959065e-002 0. 5.84795326e-003
      0. 0. 0. 0. 0. 0. 1.16959065e-002 0. 5.84795326e-003 0. 0. 0. 0.
      2.33918130e-002 1.16959065e-002 5.84795326e-003 5.84795326e-003
      2.33918130e-002 5.84795326e-003 0. 2.33918130e-002 5.84795326e-003
      0. 6.43274859e-002 0. 0. 2.92397663e-002 5.84795326e-003 0.
      2.92397663e-002 0. 1.16959065e-002 1.16959065e-002 1.75438598e-002
      1.16959065e-002 5.84795326e-003 5.84795326e-003 1.75438598e-002 0.
      1.75438598e-002 2.92397663e-002 0. 0. 1.16959065e-002 0.
      5.84795326e-003 1.16959065e-002 0. 0. 0. 1.16959065e-002
      1.16959065e-002 5.84795326e-003 0. 0. 0. 0. 5.84795326e-003 0.
      5.84795326e-002 0. 5.84795326e-003 1.16959065e-002 1.75438598e-002
      0. 1.75438598e-002 5.84795326e-003 5.84795326e-003 0.
      5.84795326e-003 2.33918130e-002 0. 5.84795326e-003 0. 0. 0.
      5.84795326e-003 5.84795326e-003 0. 5.84795326e-003 5.84795326e-003
      0. 0. 0. 4.67836261e-002 0. 5.84795326e-003 1.16959065e-002 0.
      5.84795326e-003 5.84795326e-003 0. 5.84795326e-003 0. 0.</_>
    <_>
      7.24637695e-003 3.62318847e-003 1.44927539e-002 0. 7.24637695e-003
      7.24637695e-003 0. 4.71014492e-002 3.62318847e-003 1.44927539e-002
      3.62318847e-003 3.62318847e-003 3.62318847e-003 1.44927539e-002 0.
      3.62318847e-003 1.81159414e-002 3.62318847e-003 3.62318847e-003
      3.26086953e-002 1.08695654e-002 1.08695654e-002 0. 1.08695654e-002
      7.24637695e-003 1.08695654e-002 7.24637695e-003 2.89855078e-002 0.
      3.98550741e-002 1.44927539e-002 0. 0. 0. 1.08695654e-002 0. 0. 0.
      7.24637695e-003 3.62318847e-003 7.24637695e-003 7.24637695e-003 0.
      1.44927539e-002 0. 3.62318847e-003 3.62318847e-003 3.62318847e-003
      2.17391308e-002 0. 7.24637695e-003 7.24637695e-003 7.24637695e-003
      1.44927539e-002 3.62318847e-003 7.24637695e-003 0. 3.62318847e-003
      0. 7.24637695e-003 0. 1.08695654e-002 3.62318847e-003
      1.08695654e-002 3.62318847e-003 3.62318847e-003 1.44927539e-002
      1.08695654e-002 3.62318847e-003 2.53623202e-002 0. 7.24637695e-003
      3.62318847e-003 1.08695654e-002 3.62318847e-003 1.81159414e-002
      7.24637695e-003 7.24637695e-003 2.53623202e-002 3.62318847e-003 0.
      0. 3.62318847e-003 3.62318847e-003 3.62318847e-003 0. 0. 0.
      3.62318847e-003 0. 7.24637695e-003 7.24637695e-003 0.
      7.24637695e-003 3.62318847e-003 0. 3.62318847e-003 7.24637695e-003
      1.08695654e-002 1.08695654e-002 7.24637695e-003 3.62318847e-003
      7.24637695e-003 3.62318847e-003 0. 1.08695654e-002 0.
      3.62318847e-003 7.24637695e-003 3.62318847e-003 0. 2.53623202e-002
      3.62318847e-003 0. 1.08695654e-002 7.24637695e-003 0.
      2.89855078e-002 1.08695654e-002 0. 0. 7.24637695e-003 0.
      7.24637695e-003 1.44927539e-002 7.24637695e-003 0. 0.
      3.62318847e-003 3.62318847e-003 7.24637695e-003 7.24637695e-003
      1.08695654e-002 0. 0. 3.62318847e-003 1.08695654e-002 0.
      3.62318847e-003 3.62318847e-003 1.08695654e-002 3.62318847e-003 0.
      1.08695654e-002 3.62318847e-003 3.62318847e-003 0. 7.24637695e-003
      1.08695654e-002 3.62318847e-003</_>
    <_>
      1.62297133e-002 7.49063678e-003 1.12359552e-002 1.24843942e-003
      1.12359552e-002 1.24843942e-003 3.74531839e-003 4.99375770e-003
      3.74531839e-003 6.24219701e-003 6.24219701e-003 7.49063678e-003
      9.98751540e-003 3.74531839e-003 8.73907562e-003 6.24219701e-003
      6.24219701e-003 9.98751540e-003 3.74531839e-003 0. 1.24843942e-003
      4.99375770e-003 7.49063678e-003 2.49687885e-003 6.24219701e-003
      1.74781512e-002 2.49687885e-003 3.74531839e-003 6.24219701e-003
      8.73907562e-003 8.73907562e-003 2.49687885e-003 2.49687885e-003
      1.74781512e-002 6.24219701e-003 1.49812736e-002 7.49063678e-003
      6.24219701e-003 1.24843940e-002 1.12359552e-002 4.99375770e-003
      3.74531839e-003 3.74531839e-003 2.49687885e-003 2.49687885e-003
      2.49687885e-003 0. 1.74781512e-002 2.49687885e-003 1.24843942e-003
      1.24843942e-003 9.98751540e-003 3.74531839e-003 7.49063678e-003
      4.99375770e-003 4.99375770e-003 9.98751540e-003 3.74531839e-003
      7.49063678e-003 3.74531839e-003 3.74531839e-003 4.99375770e-003
      4.99375770e-003 4.99375770e-003 4.99375770e-003 2.24719103e-002
      1.62297133e-002 2.12234706e-002 1.49812736e-002 4.99375770e-003
      3.74531839e-003 6.24219701e-003 7.49063678e-003 1.12359552e-002
      1.24843942e-003 3.74531839e-003 9.98751540e-003 2.49687885e-003
      8.73907562e-003 7.49063678e-003 1.99750308e-002 4.99375770e-003
      7.49063678e-003 7.49063678e-003 8.73907562e-003 1.37328338e-002
      1.87265910e-002 4.99375770e-003 4.99375770e-003 1.24843942e-003
      7.49063678e-003 1.24843942e-003 3.74531839e-003 3.74531839e-003
      7.49063678e-003 3.74531839e-003 4.99375770e-003 9.98751540e-003
      2.49687885e-003 1.24843940e-002 3.74531839e-003 3.74531839e-003
      8.73907562e-003 3.74531839e-003 3.74531839e-003 7.49063678e-003
      6.24219701e-003 6.24219701e-003 7.49063678e-003 8.73907562e-003
      3.74531839e-003 3.74531839e-003 6.24219701e-003 1.24843942e-003
      6.24219701e-003 3.74531839e-003 6.24219701e-003 2.49687885e-003
      9.98751540e-003 3.74531839e-003 6.24219701e-003 6.24219701e-003
      9.98751540e-003 4.99375770e-003 8.73907562e-003 1.49812736e-002
      4.99375770e-003 2.49687885e-003 1.24843940e-002 8.73907562e-003
      1.12359552e-002 1.24843942e-003 7.49063678e-003 1.62297133e-002
      3.74531839e-003 8.73907562e-003 7.49063678e-003 3.74531839e-003
      1.24843942e-003 6.24219701e-003 4.99375770e-003 9.98751540e-003
      1.24843942e-003 6.24219701e-003 1.12359552e-002 4.99375770e-003
      4.99375770e-003 2.49687885e-003 3.74531839e-003 0.</_>
    <_>
      0. 0. 6.38297871e-002 0. 4.25531901e-002 0. 0. 0. 0. 0. 0. 0.
      2.12765951e-002 0. 0. 0. 0. 0. 0. 0. 0. 0. 2.12765951e-002 0. 0.
      0. 0. 0. 0. 0. 0. 0. 2.12765951e-002 0. 1.06382973e-001
      2.12765951e-002 0. 0. 0. 0. 0. 4.25531901e-002 0. 0. 0. 0. 0. 0.
      0. 0. 0. 0. 0. 0. 0. 0. 0. 0. 0. 0. 0. 0. 0. 2.12765951e-002 0.
      4.25531901e-002 0. 0. 4.25531901e-002 0. 0. 0. 2.12765951e-002 0.
      0. 0. 0. 0. 2.12765951e-002 4.25531901e-002 2.12765951e-002 0. 0.
      0. 2.12765951e-002 2.12765951e-002 0. 0. 0. 0. 4.25531901e-002
      2.12765951e-002 4.25531901e-002 0. 0. 0. 0. 0. 0. 0. 0. 0. 0. 0.
      0. 2.12765951e-002 0. 0. 0. 2.12765951e-002 0. 0. 0. 0. 0. 0. 0.
      0. 0. 0. 4.25531901e-002 0. 2.12765951e-002 0. 0. 0.
      2.12765951e-002 4.25531901e-002 0. 2.12765951e-002 4.25531901e-002
      0. 0. 0. 0. 0. 0. 0. 2.12765951e-002 2.12765951e-002
      2.12765951e-002 0. 0. 0. 0. 0. 0. 0. 0. 0.</_>
    <_>
      0. 8.69565178e-003 8.69565178e-003 0. 4.34782589e-003
      4.34782589e-003 4.34782589e-003 2.17391290e-002 1.30434781e-002
      1.30434781e-002 4.34782589e-003 8.69565178e-003 1.30434781e-002
      8.69565178e-003 4.34782589e-003 0. 0. 0. 1.30434781e-002
      4.34782589e-003 4.34782589e-003 0. 0. 4.34782589e-003
      8.69565178e-003 4.34782589e-003 4.34782589e-003 8.69565178e-003 0.
      4.34782589e-003 2.17391290e-002 8.69565178e-003 0. 1.30434781e-002
      8.69565178e-003 4.34782589e-003 1.30434781e-002 0. 0. 0. 0.
      1.30434781e-002 0. 2.17391290e-002 8.69565178e-003 1.73913036e-002
      4.34782589e-003 0. 4.34782589e-003 0. 8.69565178e-003 0.
      4.34782589e-003 8.69565178e-003 0. 4.34782589e-003 4.34782589e-003
      4.34782589e-003 4.34782589e-003 8.69565178e-003 4.34782589e-003
      4.34782589e-003 2.17391290e-002 2.60869563e-002 4.34782589e-003
      8.69565178e-003 8.69565178e-003 0. 2.17391290e-002 3.91304344e-002
      4.34782589e-003 4.34782589e-003 0. 0. 4.34782589e-003
      8.69565178e-003 0. 0. 1.73913036e-002 1.30434781e-002
      4.34782589e-003 1.30434781e-002 4.34782589e-003 0. 2.17391290e-002
      4.34782589e-003 0. 0. 8.69565178e-003 1.30434781e-002
      8.69565178e-003 8.69565178e-003 8.69565178e-003 2.17391290e-002 0.
      0. 4.34782589e-003 1.30434781e-002 0. 1.73913036e-002
      4.34782589e-003 1.30434781e-002 4.34782589e-003 4.34782589e-003 0.
      4.34782589e-003 1.30434781e-002 8.69565178e-003 0. 0.
      4.34782589e-003 0. 4.34782589e-003 0. 4.34782589e-003 0.
      8.69565178e-003 8.69565178e-003 8.69565178e-003 4.34782589e-003
      2.60869563e-002 0. 0. 0. 1.30434781e-002 0. 0. 8.69565178e-003
      8.69565178e-003 0. 1.30434781e-002 0. 1.73913036e-002
      4.34782589e-003 0. 8.69565178e-003 4.34782589e-003 4.34782589e-003
      4.34782589e-003 4.34782589e-003 4.34782589e-003 4.34782580e-002
      8.69565178e-003 0. 4.34782589e-003 4.34782589e-003 4.34782589e-003
      4.34782589e-003 4.34782589e-003 4.34782589e-003</_>
    <_>
      1.02040814e-002 5.10204071e-003 3.06122452e-002 0. 1.27551015e-002
      0. 1.02040814e-002 2.29591839e-002 0. 5.10204071e-003
      5.10204071e-003 5.10204071e-003 1.02040814e-002 1.53061226e-002 0.
      5.10204071e-003 0. 5.10204071e-003 7.65306130e-003 5.10204071e-003
      1.27551015e-002 5.10204071e-003 7.65306130e-003 0. 5.10204071e-003
      1.02040814e-002 2.55102036e-003 5.10204071e-003 0. 0.
      1.02040814e-002 2.55102036e-003 0. 1.02040814e-002 2.80612241e-002
      1.02040814e-002 0. 0. 2.55102036e-003 0. 2.55102036e-003
      2.55102036e-003 2.55102036e-003 5.10204071e-003 2.55102036e-003
      1.78571418e-002 2.55102036e-003 1.27551015e-002 2.55102036e-003
      5.10204071e-003 2.04081628e-002 7.65306130e-003 2.55102036e-003
      7.65306130e-003 5.10204071e-003 1.02040814e-002 1.02040814e-002
      5.10204071e-003 5.10204071e-003 2.55102036e-003 2.55102036e-003
      5.10204071e-003 5.10204071e-003 1.78571418e-002 2.55102036e-003
      6.88775480e-002 0. 1.78571418e-002 5.10204071e-003 2.55102036e-003
      5.10204071e-003 2.55102036e-003 0. 2.55102036e-003 0.
      1.53061226e-002 2.55102036e-003 2.55102036e-003 1.02040814e-002
      1.53061226e-002 2.55102036e-003 7.65306130e-003 5.10204071e-003
      2.55102036e-003 1.53061226e-002 0. 1.27551015e-002 1.02040814e-002
      7.65306130e-003 5.10204071e-003 1.02040814e-002 5.10204071e-003
      1.02040814e-002 1.02040814e-002 5.10204071e-003 0. 2.55102036e-003
      2.55102036e-003 1.02040814e-002 5.10204071e-003 7.65306130e-003
      5.10204071e-003 7.65306130e-003 2.55102036e-003 1.02040814e-002
      2.55102036e-003 0. 1.53061226e-002 2.55102036e-003 2.55102036e-003
      2.55102036e-003 1.27551015e-002 2.55102036e-003 0. 1.27551015e-002
      2.55102036e-003 0. 1.27551015e-002 1.27551015e-002 5.10204071e-003
      2.55102036e-003 0. 0. 2.55102036e-003 5.10204071e-003
      1.78571418e-002 0. 5.10204071e-003 5.10204071e-003 0.
      1.27551015e-002 5.10204071e-003 7.65306130e-003 1.02040814e-002
      7.65306130e-003 7.65306130e-003 0. 2.55102036e-003 7.65306130e-003
      1.02040814e-002 1.02040814e-002 1.27551015e-002 1.27551015e-002 0.
      2.55102036e-003 0. 7.65306130e-003 2.55102036e-003 2.55102036e-003
      5.10204071e-003</_>
    <_>
      0. 4.06504050e-003 4.06504050e-003 8.13008100e-003 0.
      2.03252025e-002 0. 4.06504050e-003 4.06504050e-003 8.13008100e-003
      4.06504050e-003 4.06504050e-003 4.06504050e-003 8.13008100e-003 0.
      2.03252025e-002 0. 8.13008100e-003 8.13008100e-003 1.21951215e-002
      1.62601620e-002 1.62601620e-002 1.21951215e-002 2.03252025e-002
      8.13008100e-003 0. 0. 4.06504050e-003 0. 2.43902430e-002
      4.06504050e-003 8.13008100e-003 8.13008100e-003 4.06504050e-003 0.
      0. 0. 1.21951215e-002 1.21951215e-002 4.06504050e-003
      1.62601620e-002 1.62601620e-002 1.21951215e-002 4.06504050e-003 0.
      4.06504050e-003 1.62601620e-002 4.06504050e-003 4.06504050e-003
      4.06504050e-003 2.84552835e-002 4.06504050e-003 4.06504050e-003 0.
      4.06504050e-003 0. 4.06504050e-003 0. 4.06504050e-003 0. 0. 0. 0.
      8.13008100e-003 4.06504050e-003 0. 0. 8.13008100e-003
      1.62601620e-002 1.21951215e-002 1.21951215e-002 4.06504050e-003
      8.13008100e-003 4.06504050e-003 4.06504050e-003 4.06504050e-003
      1.62601620e-002 0. 4.06504050e-003 4.06504050e-003 0.
      2.03252025e-002 4.06504050e-003 8.13008100e-003 4.06504050e-003
      4.06504050e-003 8.13008100e-003 0. 4.06504050e-003 2.84552835e-002
      8.13008100e-003 4.06504050e-003 0. 1.21951215e-002 4.06504050e-003
      8.13008100e-003 1.21951215e-002 1.62601620e-002 8.13008100e-003
      8.13008100e-003 0. 2.43902430e-002 4.06504050e-003 0.
      8.13008100e-003 0. 8.13008100e-003 0. 0. 0. 0. 2.43902430e-002 0.
      4.06504050e-003 8.13008100e-003 4.06504050e-003 8.13008100e-003
      8.13008100e-003 8.13008100e-003 4.06504050e-003 4.06504050e-003
      1.62601620e-002 4.06504050e-003 4.06504050e-003 8.13008100e-003
      4.06504050e-003 0. 1.21951215e-002 0. 1.21951215e-002 0.
      4.06504050e-003 1.21951215e-002 1.21951215e-002 8.13008100e-003
      2.43902430e-002 8.13008100e-003 4.06504050e-003 8.13008100e-003 0.
      0. 8.13008100e-003 4.06504050e-003 1.21951215e-002 4.06504050e-003
      4.06504050e-003 0. 2.03252025e-002 0. 8.13008100e-003</_>
    <_>
      1.35593219e-002 0. 1.69491526e-002 0. 1.01694912e-002 0. 0.
      1.35593219e-002 6.77966094e-003 2.71186437e-002 3.38983047e-003
      3.38983047e-003 0. 1.01694912e-002 3.38983047e-003 6.77966094e-003
      1.01694912e-002 1.01694912e-002 6.77966094e-003 3.38983047e-003
      1.35593219e-002 0. 3.38983047e-003 3.38983047e-003 6.77966094e-003
      3.38983047e-003 3.38983047e-003 6.77966094e-003 3.38983047e-003 0.
      6.77966094e-003 0. 3.38983047e-003 0. 6.77966094e-003
      3.38983047e-003 0. 1.69491526e-002 1.01694912e-002 1.01694912e-002
      6.77966094e-003 0. 0. 1.69491526e-002 6.77966094e-003
      3.38983047e-003 3.38983047e-003 6.77966094e-003 3.38983047e-003
      6.77966094e-003 3.38983047e-003 3.38983047e-003 1.01694912e-002
      1.35593219e-002 0. 3.38983047e-003 6.77966094e-003 1.35593219e-002
      3.38983047e-003 3.38983047e-003 1.01694912e-002 0. 3.38983047e-003
      1.35593219e-002 3.38983047e-003 1.35593219e-002 0. 6.77966094e-003
      6.77966094e-003 3.05084735e-002 3.38983047e-003 0. 1.35593219e-002
      6.77966094e-003 6.77966094e-003 0. 6.77966094e-003 0.
      1.01694912e-002 6.77966094e-003 0. 1.35593219e-002 0.
      6.77966094e-003 1.35593219e-002 6.77966094e-003 6.77966094e-003
      3.38983047e-003 1.35593219e-002 1.35593219e-002 1.01694912e-002
      6.77966094e-003 3.38983047e-003 1.01694912e-002 0. 0. 0.
      6.77966094e-003 3.38983047e-003 1.69491526e-002 3.38983047e-003
      6.77966094e-003 6.77966094e-003 0. 3.38983047e-003 1.35593219e-002
      3.38983047e-003 2.37288140e-002 0. 6.77966094e-003 0.
      1.35593219e-002 3.38983047e-003 1.01694912e-002 2.37288140e-002 0.
      0. 1.35593219e-002 6.77966094e-003 1.69491526e-002 6.77966094e-003
      6.77966094e-003 0. 6.77966094e-003 3.38983047e-003 1.01694912e-002
      1.01694912e-002 0. 6.77966094e-003 6.77966094e-003 6.77966094e-003
      1.69491526e-002 2.03389823e-002 6.77966094e-003 3.38983047e-003
      1.01694912e-002 6.77966094e-003 0. 3.38983047e-003 1.01694912e-002
      1.01694912e-002 6.77966094e-003 1.01694912e-002 0. 3.38983047e-003
      3.38983047e-003 1.01694912e-002 1.35593219e-002 0. 3.38983047e-003</_>
    <_>
      1.52671756e-002 0. 0. 0. 7.63358772e-002 0. 0. 1.52671756e-002 0.
      0. 0. 7.63358781e-003 7.63358781e-003 0. 7.63358781e-003 0. 0. 0.
      0. 7.63358781e-003 1.52671756e-002 0. 1.52671756e-002 0.
      7.63358781e-003 0. 7.63358781e-003 7.63358781e-003 0.
      7.63358781e-003 1.52671756e-002 0. 0. 7.63358781e-003 0.
      7.63358781e-003 7.63358781e-003 0. 0. 0. 0. 7.63358781e-003
      7.63358781e-003 1.52671756e-002 0. 4.58015278e-002 0.
      7.63358781e-003 0. 2.29007639e-002 7.63358781e-003 0.
      7.63358781e-003 7.63358781e-003 7.63358781e-003 7.63358781e-003 0.
      0. 0. 0. 0. 7.63358781e-003 7.63358781e-003 1.52671756e-002 0.
      5.34351133e-002 0. 0. 1.52671756e-002 7.63358781e-003 0. 0. 0. 0.
      0. 0. 7.63358781e-003 0. 7.63358781e-003 7.63358781e-003 0.
      1.52671756e-002 0. 0. 7.63358781e-003 0. 0. 7.63358781e-003
      1.52671756e-002 7.63358781e-003 3.81679386e-002 0. 0. 0. 0.
      7.63358781e-003 7.63358781e-003 0. 0. 0. 0. 0. 0. 0. 0.
      2.29007639e-002 7.63358781e-003 1.52671756e-002 7.63358781e-003
      1.52671756e-002 7.63358781e-003 7.63358781e-003 0. 0.
      2.29007639e-002 0. 0. 1.52671756e-002 0. 7.63358781e-003
      1.52671756e-002 0. 0. 0. 0. 0. 2.29007639e-002 0. 0. 0.
      7.63358781e-003 7.63358781e-003 1.52671756e-002 0. 1.52671756e-002
      2.29007639e-002 0. 0. 7.63358781e-003 7.63358781e-003
      3.05343512e-002 3.81679386e-002 2.29007639e-002 7.63358781e-003 0.
      0. 1.52671756e-002 1.52671756e-002 0. 0.</_>
    <_>
      8.00000038e-003 0. 1.20000001e-002 1.60000008e-002 4.00000019e-003
      0. 4.00000019e-003 4.40000035e-002 0. 4.00000019e-003 0.
      4.00000019e-003 4.00000019e-003 2.00000014e-002 0. 8.00000038e-003
      4.00000019e-003 1.60000008e-002 1.20000001e-002 2.00000014e-002
      1.20000001e-002 0. 1.20000001e-002 4.00000019e-003 4.00000019e-003
      0. 0. 2.00000014e-002 0. 4.00000019e-003 1.60000008e-002 0.
      4.00000019e-003 4.00000019e-003 8.00000038e-003 0. 0.
      4.00000019e-003 0. 0. 4.00000019e-003 0. 0. 4.00000019e-003
      8.00000038e-003 1.20000001e-002 0. 8.00000038e-003 8.00000038e-003
      8.00000038e-003 0. 0. 0. 2.00000014e-002 0. 4.00000019e-003 0. 0.
      0. 0. 8.00000038e-003 8.00000038e-003 8.00000038e-003
      3.20000015e-002 4.00000019e-003 1.20000001e-002 4.00000019e-003
      1.20000001e-002 8.00000038e-003 8.00000038e-003 4.00000019e-003 0.
      0. 8.00000038e-003 8.00000038e-003 2.00000014e-002 8.00000038e-003
      4.00000019e-003 2.80000009e-002 1.20000001e-002 4.00000019e-003
      1.20000001e-002 0. 4.00000019e-003 4.00000019e-003 1.60000008e-002
      4.00000019e-003 8.00000038e-003 1.20000001e-002 4.00000019e-003
      3.20000015e-002 4.00000019e-003 4.00000019e-003 4.00000019e-003 0.
      4.00000019e-003 1.20000001e-002 4.00000019e-003 0. 1.60000008e-002
      0. 4.00000019e-003 8.00000038e-003 0. 0. 8.00000038e-003 0.
      1.20000001e-002 4.00000019e-003 8.00000038e-003 8.00000038e-003
      1.20000001e-002 4.00000019e-003 0. 1.20000001e-002 0.
      4.00000019e-003 2.40000002e-002 4.00000019e-003 4.00000019e-003
      1.20000001e-002 4.00000019e-003 0. 4.00000019e-003 4.00000019e-003
      8.00000038e-003 0. 4.00000019e-003 8.00000038e-003 4.00000019e-003
      2.00000014e-002 4.00000019e-003 0. 4.00000019e-003 0.
      1.20000001e-002 4.00000019e-003 4.00000019e-003 8.00000038e-003
      2.80000009e-002 8.00000038e-003 1.60000008e-002 8.00000038e-003
      1.20000001e-002 0. 8.00000038e-003 4.00000019e-003 0. 0.
      4.00000019e-003</_>
    <_>
      0. 0. 2.34375000e-002 3.90625000e-002 9.37500000e-002
      1.56250000e-002 0. 0. 7.81250000e-003 0. 7.81250000e-003
      7.81250000e-003 0. 0. 7.81250000e-003 7.81250000e-003 0. 0.
      7.81250000e-003 0. 0. 0. 0. 7.81250000e-003 0. 7.81250000e-003 0.
      0. 7.81250000e-003 0. 0. 7.81250000e-003 0. 7.81250000e-003
      1.56250000e-002 2.34375000e-002 0. 7.81250000e-003 7.81250000e-003
      0. 2.34375000e-002 0. 7.81250000e-003 7.81250000e-003 0. 0. 0. 0.
      0. 0. 0. 2.34375000e-002 0. 0. 0. 7.81250000e-003 7.81250000e-003
      0. 0. 0. 7.81250000e-003 1.56250000e-002 0. 0. 7.81250000e-003
      7.03125000e-002 0. 7.81250000e-003 0. 0. 7.81250000e-003
      7.81250000e-003 7.81250000e-003 0. 1.56250000e-002 0.
      7.81250000e-003 1.56250000e-002 7.81250000e-003 0. 7.81250000e-003
      0. 0. 0. 0. 0. 7.81250000e-003 0. 0. 1.56250000e-002 0. 0.
      7.81250000e-003 0. 0. 0. 1.56250000e-002 0. 0. 0. 7.81250000e-003
      1.56250000e-002 7.81250000e-003 7.81250000e-003 0. 7.81250000e-003
      2.34375000e-002 0. 1.56250000e-002 0. 7.81250000e-003 0. 0.
      1.56250000e-002 0. 0. 7.81250000e-003 0. 7.81250000e-003
      7.81250000e-003 7.81250000e-003 0. 1.56250000e-002 0.
      1.56250000e-002 0. 0. 7.81250000e-003 2.34375000e-002
      7.81250000e-003 3.90625000e-002 7.81250000e-003 0. 1.56250000e-002
      0. 0. 0. 1.56250000e-002 0. 0. 0. 7.81250000e-003 2.34375000e-002
      1.56250000e-002 0. 7.81250000e-003 7.81250000e-003 0.
      7.81250000e-003 1.56250000e-002</_>
    <_>
      6.34249486e-003 1.26849897e-002 1.05708241e-002 0. 6.34249486e-003
      6.34249486e-003 8.45665950e-003 0. 1.05708241e-002 2.11416488e-003
      4.22832975e-003 1.26849897e-002 8.45665950e-003 6.34249486e-003
      8.45665950e-003 6.34249486e-003 4.22832975e-003 6.34249486e-003
      8.45665950e-003 6.34249486e-003 2.11416488e-003 2.11416488e-003
      4.22832975e-003 2.11416488e-003 1.05708241e-002 2.11416488e-003
      4.22832975e-003 0. 2.11416488e-003 2.11416488e-003 6.34249486e-003
      1.90274846e-002 2.11416488e-003 8.45665950e-003 6.34249486e-003
      1.05708241e-002 1.26849897e-002 6.34249486e-003 2.11416488e-003
      8.45665950e-003 2.11416488e-003 8.45665950e-003 2.11416488e-003 0.
      2.11416488e-003 4.22832975e-003 8.45665950e-003 1.05708241e-002
      8.45665950e-003 1.26849897e-002 2.11416488e-003 4.22832975e-003
      4.22832975e-003 2.11416488e-003 0. 1.26849897e-002 6.34249486e-003
      6.34249486e-003 4.22832975e-003 2.11416488e-003 6.34249486e-003
      1.26849897e-002 8.45665950e-003 2.11416488e-003 1.69133190e-002
      2.11416488e-003 1.05708241e-002 4.22832975e-003 6.34249486e-003
      6.34249486e-003 1.26849897e-002 1.26849897e-002 1.26849897e-002
      2.11416488e-003 1.26849897e-002 6.34249486e-003 2.11416488e-003
      6.34249486e-003 4.22832975e-003 4.22832975e-003 4.22832975e-003
      8.45665950e-003 2.11416488e-003 6.34249486e-003 4.22832975e-003
      1.69133190e-002 2.11416488e-003 4.22832975e-003 1.05708241e-002
      4.22832975e-003 6.34249486e-003 1.47991544e-002 2.11416483e-002
      4.22832975e-003 8.45665950e-003 2.11416488e-003 4.22832975e-003
      6.34249486e-003 4.22832975e-003 2.11416488e-003 2.11416488e-003
      8.45665950e-003 4.22832975e-003 6.34249486e-003 1.26849897e-002
      6.34249486e-003 6.34249486e-003 8.45665950e-003 0. 8.45665950e-003
      4.22832975e-003 2.11416488e-003 4.22832975e-003 6.34249486e-003
      2.11416488e-003 1.05708241e-002 4.22832975e-003 2.11416488e-003
      4.22832975e-003 1.90274846e-002 8.45665950e-003 4.22832975e-003
      8.45665950e-003 4.22832975e-003 6.34249486e-003 8.45665950e-003
      4.22832975e-003 6.34249486e-003 1.05708241e-002 4.22832975e-003
      1.05708241e-002 4.22832975e-003 1.05708241e-002 1.05708241e-002
      1.69133190e-002 4.22832975e-003 1.05708241e-002 2.11416488e-003
      1.05708241e-002 4.22832975e-003 4.22832975e-003 1.26849897e-002
      1.47991544e-002 4.22832975e-003 1.05708241e-002 2.11416488e-003
      1.05708241e-002 6.34249486e-003 6.34249486e-003 1.26849897e-002</_>
    <_>
      7.34214392e-003 2.93685752e-003 7.34214392e-003 8.81057233e-003
      1.46842876e-003 1.02790017e-002 1.17474301e-002 1.46842876e-003
      4.40528616e-003 1.46842876e-003 8.81057233e-003 7.34214392e-003
      1.02790017e-002 2.93685752e-003 1.17474301e-002 2.20264308e-002
      1.32158585e-002 0. 1.46842876e-003 5.87371504e-003 1.46842876e-003
      1.46842878e-002 7.34214392e-003 5.87371504e-003 2.93685752e-003
      2.93685752e-003 5.87371504e-003 5.87371504e-003 1.02790017e-002
      4.55212928e-002 7.34214392e-003 4.40528616e-003 1.46842876e-003
      7.34214392e-003 4.40528616e-003 7.34214392e-003 5.87371504e-003
      2.93685752e-003 1.32158585e-002 8.81057233e-003 2.93685752e-003
      1.46842876e-003 5.87371504e-003 1.32158585e-002 1.46842878e-002
      5.87371504e-003 2.93685752e-003 8.81057233e-003 4.40528616e-003
      1.46842876e-003 1.46842876e-003 1.46842878e-002 1.02790017e-002
      1.32158585e-002 1.46842876e-003 5.87371504e-003 1.17474301e-002
      1.02790017e-002 5.87371504e-003 2.93685752e-003 1.46842876e-003
      2.93685752e-003 7.34214392e-003 0. 7.34214392e-003 1.46842876e-003
      5.87371504e-003 5.87371504e-003 5.87371504e-003 1.32158585e-002
      8.81057233e-003 4.40528616e-003 5.87371504e-003 8.81057233e-003
      5.87371504e-003 2.93685752e-003 1.17474301e-002 7.34214392e-003
      1.46842876e-003 5.87371504e-003 7.34214392e-003 5.87371504e-003
      1.17474301e-002 7.34214392e-003 5.87371504e-003 4.40528616e-003
      1.46842876e-003 7.34214392e-003 4.40528616e-003 4.40528616e-003
      4.40528616e-003 1.90895740e-002 1.46842876e-003 8.81057233e-003
      5.87371504e-003 5.87371504e-003 1.17474301e-002 8.81057233e-003
      4.40528616e-003 5.87371504e-003 5.87371504e-003 1.32158585e-002
      8.81057233e-003 4.40528616e-003 4.40528616e-003 2.93685752e-003
      1.46842876e-003 1.46842876e-003 2.49632895e-002 7.34214392e-003
      4.40528616e-003 8.81057233e-003 1.46842876e-003 7.34214392e-003
      4.40528616e-003 4.40528616e-003 4.40528616e-003 5.87371504e-003
      5.87371504e-003 2.93685752e-003 1.46842876e-003 1.17474301e-002
      1.02790017e-002 1.46842878e-002 1.32158585e-002 2.93685752e-003
      1.46842876e-003 1.46842876e-003 1.02790017e-002 5.87371504e-003
      7.34214392e-003 1.17474301e-002 5.87371504e-003 5.87371504e-003
      5.87371504e-003 8.81057233e-003 4.40528616e-003 2.93685752e-003
      5.87371504e-003 1.46842876e-003 1.46842876e-003 1.46842876e-003
      2.93685752e-003 1.02790017e-002 8.81057233e-003 7.34214392e-003
      8.81057233e-003 0. 1.46842876e-003 1.46842876e-003</_>
    <_>
      6.60066027e-003 3.30033014e-003 9.90099087e-003 0. 5.61056137e-002
      3.30033014e-003 0. 3.30033004e-002 0. 3.30033014e-003 0.
      6.60066027e-003 6.60066027e-003 1.32013205e-002 6.60066027e-003
      3.30033014e-003 0. 6.60066027e-003 0. 3.30033014e-003
      3.30033014e-003 3.30033014e-003 3.30033014e-003 3.30033014e-003 0.
      1.65016502e-002 0. 6.60066027e-003 3.30033014e-003 0.
      3.30033014e-003 3.30033014e-003 6.60066027e-003 0. 6.60066027e-003
      3.30033014e-003 3.30033014e-003 3.30033014e-003 3.30033014e-003 0.
      6.60066027e-003 0. 3.30033014e-003 6.60066027e-003 0. 0.
      9.90099087e-003 9.90099087e-003 0. 0. 6.60066027e-003 0.
      6.60066027e-003 0. 0. 3.30033014e-003 3.30033014e-003
      6.60066027e-003 0. 0. 9.90099087e-003 6.60066027e-003 0.
      6.60066027e-003 0. 7.59075955e-002 0. 3.30033014e-003
      3.30033014e-003 0. 6.60066027e-003 3.30033014e-003 2.31023114e-002
      3.30033014e-003 3.30033014e-003 2.97029708e-002 9.90099087e-003
      6.60066027e-003 2.31023114e-002 1.98019817e-002 3.30033014e-003
      1.98019817e-002 3.30033014e-003 0. 6.60066027e-003 6.60066027e-003
      1.65016502e-002 9.90099087e-003 0. 6.60066027e-003 1.32013205e-002
      3.30033014e-003 1.32013205e-002 0. 3.30033014e-003 9.90099087e-003
      0. 0. 1.32013205e-002 9.90099087e-003 3.30033014e-003 0. 0.
      6.60066027e-003 0. 6.60066027e-003 1.32013205e-002 6.60066027e-003
      0. 0. 0. 3.30033014e-003 9.90099087e-003 6.60066027e-003
      6.60066027e-003 0. 3.30033014e-003 3.30033004e-002 9.90099087e-003
      6.60066027e-003 1.65016502e-002 6.60066027e-003 3.30033014e-003 0.
      0. 6.60066027e-003 1.98019817e-002 1.32013205e-002 3.30033014e-003
      3.30033014e-003 2.64026411e-002 3.30033014e-003 3.30033014e-003
      3.30033014e-003 0. 3.30033014e-003 0. 3.30033014e-003
      1.65016502e-002 1.32013205e-002 1.98019817e-002 9.90099087e-003
      6.60066027e-003 0. 0. 0. 3.30033014e-003 3.30033014e-003
      2.31023114e-002 3.30033014e-003</_>
    <_>
      0. 5.60224103e-003 0. 8.40336177e-003 2.80112051e-003
      1.12044821e-002 8.40336177e-003 2.52100844e-002 0. 1.68067235e-002
      1.12044821e-002 2.80112051e-003 8.40336177e-003 1.40056023e-002 0.
      5.60224103e-003 5.60224103e-003 5.60224103e-003 1.68067235e-002
      1.12044821e-002 5.60224103e-003 1.12044821e-002 0. 5.60224103e-003
      2.80112051e-003 0. 8.40336177e-003 8.40336177e-003 0.
      1.40056023e-002 8.40336177e-003 0. 0. 0. 8.40336177e-003
      2.80112051e-003 0. 8.40336177e-003 8.40336177e-003 2.80112051e-003
      5.60224103e-003 0. 8.40336177e-003 1.12044821e-002 1.68067235e-002
      2.80112051e-003 8.40336177e-003 5.60224103e-003 0. 0.
      1.12044821e-002 2.80112051e-003 2.24089641e-002 1.40056023e-002
      2.80112051e-003 8.40336177e-003 8.40336177e-003 1.40056023e-002 0.
      2.80112051e-003 2.80112051e-003 2.80112051e-003 1.12044821e-002
      1.68067235e-002 2.80112051e-003 1.12044821e-002 5.60224103e-003
      8.40336177e-003 8.40336177e-003 2.24089641e-002 2.80112051e-003 0.
      2.80112051e-003 5.60224103e-003 8.40336177e-003 2.80112051e-003
      5.60224103e-003 2.80112051e-003 2.80112051e-003 2.80112051e-003
      2.80112051e-003 5.60224103e-003 8.40336177e-003 0. 5.60224103e-003
      0. 5.60224103e-003 1.12044821e-002 8.40336177e-003 0.
      5.60224103e-003 2.80112051e-003 2.80112051e-003 1.40056023e-002 0.
      1.12044821e-002 8.40336177e-003 1.12044821e-002 1.40056023e-002
      1.96078438e-002 1.12044821e-002 5.60224103e-003 5.60224103e-003
      2.80112051e-003 2.80112051e-003 0. 2.80112051e-003 0.
      1.96078438e-002 2.80112051e-003 5.60224103e-003 1.40056023e-002
      8.40336177e-003 2.80112051e-003 2.80112051e-003 5.60224103e-003
      5.60224103e-003 3.64145674e-002 2.80112051e-003 5.60224103e-003
      8.40336177e-003 1.12044821e-002 5.60224103e-003 8.40336177e-003 0.
      1.12044821e-002 2.80112051e-003 2.80112051e-003 2.80112051e-003 0.
      2.80112051e-003 1.12044821e-002 2.24089641e-002 0. 5.60224103e-003
      2.80112047e-002 2.80112051e-003 2.80112051e-003 2.80112051e-003
      8.40336177e-003 2.80112051e-003 5.60224103e-003 0. 0.
      1.68067235e-002 1.12044821e-002 2.80112051e-003 2.80112051e-003
      5.60224103e-003 2.80112051e-003</_>
    <_>
      0. 3.10559012e-003 3.10559012e-003 3.10559012e-003 6.21118024e-003
      6.21118024e-003 9.31677036e-003 1.86335407e-002 0. 1.24223605e-002
      3.10559012e-003 1.86335407e-002 0. 9.31677036e-003 0.
      1.86335407e-002 3.10559012e-003 9.31677036e-003 1.55279506e-002
      6.21118024e-003 1.86335407e-002 3.10559012e-003 1.24223605e-002
      6.21118024e-003 3.10559012e-003 0. 1.86335407e-002 6.21118024e-003
      1.24223605e-002 3.10559012e-003 9.31677036e-003 9.31677036e-003 0.
      3.10559012e-003 3.10559012e-003 6.21118024e-003 9.31677036e-003
      1.55279506e-002 0. 3.10559012e-003 9.31677036e-003 1.55279506e-002
      0. 1.24223605e-002 6.21118024e-003 6.21118024e-003 1.24223605e-002
      3.10559012e-003 1.55279506e-002 3.10559012e-003 1.55279506e-002
      3.10559012e-003 0. 6.21118024e-003 0. 9.31677036e-003
      3.10559012e-003 3.10559012e-003 0. 3.10559012e-003 1.24223605e-002
      0. 3.10559012e-003 1.24223605e-002 3.10559012e-003 2.79503111e-002
      3.10559012e-003 3.10559012e-003 6.21118024e-003 6.21118024e-003
      6.21118024e-003 6.21118024e-003 6.21118024e-003 6.21118024e-003
      9.31677036e-003 1.55279506e-002 3.10559012e-003 3.10559012e-003
      3.10559012e-003 3.10559012e-003 0. 9.31677036e-003 6.21118024e-003
      3.10559012e-003 6.21118024e-003 3.10559012e-003 9.31677036e-003
      6.21118024e-003 9.31677036e-003 1.24223605e-002 6.21118024e-003
      9.31677036e-003 6.21118024e-003 1.55279506e-002 0. 3.10559012e-003
      6.21118024e-003 0. 0. 9.31677036e-003 3.10559012e-003
      9.31677036e-003 3.10559012e-003 3.10559012e-003 3.10559012e-003 0.
      6.21118024e-003 9.31677036e-003 9.31677036e-003 0. 0.
      1.24223605e-002 3.10559012e-003 3.10559012e-003 3.10559012e-003
      3.10559012e-003 0. 4.03726697e-002 6.21118024e-003 6.21118024e-003
      1.24223605e-002 6.21118024e-003 3.10559012e-003 3.10559012e-003
      9.31677036e-003 6.21118024e-003 3.10559012e-003 6.21118024e-003
      9.31677036e-003 3.10559012e-003 9.31677036e-003 6.21118024e-003
      1.55279506e-002 0. 0. 9.31677036e-003 3.10559012e-003
      9.31677036e-003 6.21118024e-003 9.31677036e-003 9.31677036e-003
      1.24223605e-002 1.24223605e-002 3.10559012e-003 0. 6.21118024e-003
      6.21118024e-003 6.21118024e-003 3.10559012e-003 9.31677036e-003</_>
    <_>
      1.83486240e-003 5.50458720e-003 3.66972480e-003 2.20183488e-002
      3.66972480e-003 1.28440373e-002 9.17431153e-003 3.66972480e-003
      9.17431153e-003 0. 1.83486231e-002 1.28440373e-002 3.66972480e-003
      3.66972480e-003 1.65137611e-002 7.33944960e-003 1.83486240e-003
      5.50458720e-003 7.33944960e-003 9.17431153e-003 1.65137611e-002
      1.28440373e-002 7.33944960e-003 1.10091744e-002 9.17431153e-003
      3.66972480e-003 9.17431153e-003 0. 5.50458720e-003 4.40366976e-002
      1.83486240e-003 3.66972480e-003 0. 5.50458720e-003 7.33944960e-003
      9.17431153e-003 0. 7.33944960e-003 1.46788992e-002 7.33944960e-003
      0. 5.50458720e-003 1.65137611e-002 1.83486240e-003 7.33944960e-003
      5.50458720e-003 1.83486240e-003 5.50458720e-003 1.83486240e-003 0.
      3.66972480e-003 1.10091744e-002 7.33944960e-003 5.50458720e-003 0.
      7.33944960e-003 1.46788992e-002 1.10091744e-002 3.66972480e-003
      7.33944960e-003 3.66972480e-003 1.83486240e-003 1.28440373e-002 0.
      9.17431153e-003 5.50458720e-003 9.17431153e-003 7.33944960e-003 0.
      9.17431153e-003 0. 1.65137611e-002 1.83486240e-003 1.46788992e-002
      5.50458720e-003 5.50458720e-003 5.50458720e-003 9.17431153e-003 0.
      3.66972480e-003 5.50458720e-003 5.50458720e-003 5.50458720e-003
      9.17431153e-003 9.17431153e-003 3.66972480e-003 9.17431153e-003
      5.50458720e-003 3.66972480e-003 7.33944960e-003 0. 7.33944960e-003
      5.50458720e-003 1.28440373e-002 3.66972480e-003 0. 9.17431153e-003
      3.66972480e-003 5.50458720e-003 9.17431153e-003 3.66972480e-003
      1.28440373e-002 9.17431153e-003 7.33944960e-003 5.50458720e-003
      3.66972480e-003 3.66972480e-003 0. 5.50458720e-003 3.66972480e-003
      3.66972480e-003 7.33944960e-003 1.83486240e-003 1.28440373e-002 0.
      7.33944960e-003 9.17431153e-003 1.83486240e-003 0. 0.
      1.83486240e-003 1.65137611e-002 1.46788992e-002 1.10091744e-002
      7.33944960e-003 3.66972480e-003 0. 1.83486240e-003 1.28440373e-002
      9.17431153e-003 3.66972480e-003 7.33944960e-003 7.33944960e-003
      1.10091744e-002 3.66972480e-003 7.33944960e-003 2.01834869e-002
      5.50458720e-003 5.50458720e-003 1.83486240e-003 5.50458720e-003
      3.66972480e-003 9.17431153e-003 1.28440373e-002 1.83486240e-003
      1.83486240e-003 5.50458720e-003 5.50458720e-003 3.66972480e-003
      5.50458720e-003</_>
    <_>
      1.94174759e-002 0. 1.94174759e-002 0. 0. 0. 0. 9.70873795e-003 0.
      0. 9.70873795e-003 0. 9.70873795e-003 0. 0. 0. 0. 0. 0.
      1.94174759e-002 0. 9.70873795e-003 9.70873795e-003 9.70873795e-003
      9.70873795e-003 9.70873795e-003 0. 1.94174759e-002 0. 0.
      3.88349518e-002 1.94174759e-002 1.94174759e-002 9.70873795e-003
      3.88349518e-002 0. 3.88349518e-002 0. 0. 0. 9.70873795e-003 0. 0.
      0. 0. 0. 9.70873795e-003 0. 0. 0. 0. 0. 0. 0. 0. 0. 0. 0. 0. 0. 0.
      0. 0. 0. 9.70873795e-003 1.94174759e-002 9.70873795e-003
      9.70873795e-003 3.88349518e-002 0. 1.94174759e-002 0.
      9.70873795e-003 0. 0. 1.94174759e-002 0. 0. 3.88349518e-002
      1.94174759e-002 0. 0. 0. 0. 3.88349518e-002 9.70873795e-003
      9.70873795e-003 0. 1.94174759e-002 9.70873795e-003 0. 0.
      9.70873795e-003 9.70873795e-003 0. 1.94174759e-002 0. 0. 0. 0. 0.
      0. 0. 0. 0. 4.85436916e-002 1.94174759e-002 0. 0. 9.70873795e-003
      9.70873795e-003 0. 1.94174759e-002 0. 1.94174759e-002 0. 0.
      1.94174759e-002 9.70873795e-003 0. 0. 0. 0. 0. 0. 0.
      9.70873795e-003 0. 0. 9.70873795e-003 1.94174759e-002 0.
      1.94174759e-002 1.94174759e-002 0. 0. 9.70873795e-003 0. 0.
      2.91262139e-002 9.70873795e-003 2.91262139e-002 0. 0. 0. 0.
      9.70873795e-003 0. 1.94174759e-002 0.</_>
    <_>
      1.23456791e-002 1.23456791e-002 3.08641978e-003 3.08641978e-003
      1.54320989e-002 0. 6.17283955e-003 1.54320989e-002 9.25925933e-003
      2.46913582e-002 3.08641978e-003 3.08641978e-003 9.25925933e-003
      6.17283955e-003 1.54320989e-002 0. 3.08641978e-003 3.08641978e-003
      6.17283955e-003 6.17283955e-003 6.17283955e-003 0. 0.
      3.08641978e-003 3.08641978e-003 9.25925933e-003 9.25925933e-003
      3.08641978e-003 3.08641978e-003 0. 9.25925933e-003 0.
      3.08641978e-003 6.17283955e-003 9.25925933e-003 1.54320989e-002 0.
      6.17283955e-003 3.08641978e-003 3.08641978e-003 3.08641978e-003
      3.08641978e-003 1.23456791e-002 9.25925933e-003 0. 6.17283955e-003
      0. 6.17283955e-003 3.08641978e-003 3.08641978e-003 1.23456791e-002
      1.23456791e-002 3.08641978e-003 6.17283955e-003 9.25925933e-003 0.
      3.08641978e-003 1.54320989e-002 3.08641978e-003 3.08641978e-003
      3.08641978e-003 1.23456791e-002 6.17283955e-003 1.54320989e-002
      3.08641978e-003 9.25925933e-003 3.08641978e-003 6.17283955e-003
      6.17283955e-003 6.17283955e-003 6.17283955e-003 6.17283955e-003
      1.54320989e-002 3.08641978e-003 0. 6.17283955e-003 6.17283955e-003
      6.17283955e-003 6.17283955e-003 1.23456791e-002 9.25925933e-003
      2.16049384e-002 3.08641978e-003 6.17283955e-003 9.25925933e-003
      2.77777780e-002 1.23456791e-002 0. 6.17283955e-003 1.23456791e-002
      2.46913582e-002 9.25925933e-003 0. 6.17283955e-003 9.25925933e-003
      0. 6.17283955e-003 6.17283955e-003 6.17283955e-003 1.23456791e-002
      0. 0. 3.08641978e-003 3.08641978e-003 3.08641978e-003
      1.54320989e-002 3.08641978e-003 9.25925933e-003 0. 9.25925933e-003
      6.17283955e-003 1.23456791e-002 0. 3.08641978e-003 0. 0.
      6.17283955e-003 9.25925933e-003 9.25925933e-003 6.17283955e-003
      1.23456791e-002 3.08641978e-003 9.25925933e-003 6.17283955e-003 0.
      6.17283955e-003 0. 6.17283955e-003 6.17283955e-003 3.08641978e-003
      2.16049384e-002 1.23456791e-002 3.08641978e-003 1.54320989e-002
      9.25925933e-003 3.08641978e-003 6.17283955e-003 6.17283955e-003
      3.08641978e-003 3.08641978e-003 3.08641978e-003 3.08641978e-003
      9.25925933e-003 6.17283955e-003 3.08641978e-003 3.08641978e-003
      1.23456791e-002 9.25925933e-003 1.23456791e-002 1.23456791e-002</_>
    <_>
      5.43478271e-003 5.43478271e-003 2.17391308e-002 0. 2.17391308e-002
      0. 2.71739140e-002 5.43478271e-003 0. 2.17391308e-002
      5.43478271e-003 0. 5.43478271e-003 2.17391308e-002 0. 0.
      5.43478271e-003 0. 2.17391308e-002 0. 5.43478271e-003 0. 0.
      5.43478271e-003 0. 5.43478271e-003 5.43478271e-003 0. 0.
      5.43478271e-003 5.43478271e-003 0. 1.08695654e-002 0.
      2.17391308e-002 0. 0. 5.43478271e-003 2.71739140e-002
      5.43478271e-003 0. 5.43478271e-003 1.08695654e-002 5.43478271e-003
      0. 3.26086953e-002 0. 5.43478271e-003 0. 0. 5.43478271e-003
      5.43478271e-003 5.43478271e-003 5.43478271e-003 5.43478271e-003
      5.43478271e-003 1.08695654e-002 5.43478271e-003 0. 0.
      5.43478271e-003 1.63043477e-002 1.08695654e-002 1.08695654e-002
      5.43478271e-003 1.08695654e-002 1.63043477e-002 0. 0.
      5.43478271e-003 0. 0. 1.08695654e-002 0. 5.43478271e-003
      2.71739140e-002 1.63043477e-002 5.43478271e-003 1.08695654e-002
      5.43478271e-003 5.43478271e-003 0. 1.08695654e-002 2.71739140e-002
      1.08695654e-002 1.63043477e-002 0. 0. 5.43478271e-003
      5.43478271e-003 5.43478271e-003 0. 1.08695654e-002 0. 0.
      1.08695654e-002 0. 5.43478271e-003 0. 2.17391308e-002
      5.43478271e-003 0. 1.08695654e-002 0. 5.43478271e-003
      5.43478271e-003 5.43478271e-003 1.63043477e-002 0. 0.
      1.08695654e-002 2.17391308e-002 0. 5.43478271e-003 1.63043477e-002
      0. 0. 5.43478271e-003 1.08695654e-002 5.43478271e-003
      1.63043477e-002 0. 0. 5.43478271e-003 5.43478271e-003 0.
      5.43478271e-003 0. 0. 0. 1.08695654e-002 0. 1.63043477e-002
      5.43478271e-003 5.43478271e-003 1.63043477e-002 0. 5.43478271e-003
      5.43478271e-003 0. 0. 2.71739140e-002 1.63043477e-002 0.
      1.08695654e-002 1.08695654e-002 1.08695654e-002 2.17391308e-002 0.
      0.</_>
    <_>
      6.21546991e-003 1.03591168e-002 5.52486209e-003 8.28729291e-003
      6.90607761e-004 8.97790119e-003 6.21546991e-003 7.59668555e-003
      1.17403315e-002 4.83425427e-003 1.38121555e-002 9.66850854e-003
      5.52486209e-003 2.07182323e-003 1.03591168e-002 9.66850854e-003
      1.51933711e-002 6.90607773e-003 3.45303887e-003 6.21546991e-003
      1.10497242e-002 1.10497242e-002 5.52486209e-003 8.28729291e-003
      9.66850854e-003 8.28729291e-003 6.21546991e-003 2.76243105e-003
      9.66850854e-003 4.83425427e-003 8.97790119e-003 5.52486209e-003
      6.90607761e-004 7.59668555e-003 8.97790119e-003 6.90607773e-003
      4.14364645e-003 5.52486209e-003 7.59668555e-003 1.10497242e-002
      2.07182323e-003 4.14364645e-003 4.83425427e-003 8.28729291e-003
      4.83425427e-003 2.07182323e-003 3.45303887e-003 5.52486209e-003
      6.90607773e-003 4.83425427e-003 5.52486209e-003 8.97790119e-003
      1.10497242e-002 6.90607773e-003 5.52486209e-003 6.90607773e-003
      8.97790119e-003 8.28729291e-003 1.10497242e-002 6.21546991e-003
      8.97790119e-003 6.21546991e-003 6.90607773e-003 2.76243105e-003
      6.90607773e-003 6.21546991e-003 6.90607773e-003 8.97790119e-003
      6.90607773e-003 6.90607761e-004 6.21546991e-003 8.28729291e-003
      4.83425427e-003 1.51933711e-002 8.28729291e-003 5.52486209e-003
      7.59668555e-003 7.59668555e-003 6.21546991e-003 5.52486209e-003
      4.14364645e-003 6.21546991e-003 6.21546991e-003 1.58839785e-002
      7.59668555e-003 6.21546991e-003 4.14364645e-003 6.90607773e-003
      3.45303887e-003 2.76243105e-003 4.83425427e-003 1.03591168e-002
      2.76243105e-003 4.83425427e-003 8.28729291e-003 5.52486209e-003
      8.28729291e-003 4.83425427e-003 2.76243105e-003 8.97790119e-003
      5.52486209e-003 4.83425427e-003 6.21546991e-003 5.52486209e-003
      5.52486209e-003 4.83425427e-003 2.07182323e-003 2.07182323e-003
      8.97790119e-003 4.14364645e-003 8.28729291e-003 1.65745858e-002
      8.28729291e-003 6.90607773e-003 4.83425427e-003 7.59668555e-003
      6.90607773e-003 6.90607773e-003 3.45303887e-003 5.52486209e-003
      2.76243105e-003 8.97790119e-003 5.52486209e-003 8.28729291e-003
      1.38121555e-002 7.59668555e-003 0. 6.90607773e-003 8.28729291e-003
      1.24309398e-002 6.90607773e-003 6.21546991e-003 8.28729291e-003
      1.24309398e-002 4.83425427e-003 2.07182323e-003 6.90607773e-003
      6.90607773e-003 3.45303887e-003 4.14364645e-003 4.83425427e-003
      2.07182323e-003 3.45303887e-003 6.21546991e-003 4.83425427e-003
      4.83425427e-003 1.24309398e-002 3.45303887e-003 3.45303887e-003
      6.90607773e-003</_>
    <_>
      1.00574717e-002 8.62068962e-003 5.74712642e-003 1.43678160e-003
      1.43678160e-003 4.31034481e-003 8.62068962e-003 1.00574717e-002
      4.31034481e-003 4.31034481e-003 2.87356321e-003 2.87356321e-003
      2.87356321e-003 2.87356321e-003 7.18390802e-003 4.31034481e-003
      4.31034481e-003 1.43678160e-003 2.87356321e-003 1.00574717e-002
      2.87356321e-003 4.31034481e-003 2.87356321e-003 4.31034481e-003
      5.74712642e-003 2.01149434e-002 8.62068962e-003 5.74712642e-003
      4.31034481e-003 2.87356321e-003 5.74712642e-003 0. 0.
      1.58045981e-002 1.29310340e-002 1.58045981e-002 2.87356321e-003
      2.87356321e-003 1.14942528e-002 1.43678160e-003 4.31034481e-003
      5.74712642e-003 2.87356321e-003 4.31034481e-003 2.87356321e-003
      7.18390802e-003 1.43678160e-003 8.62068962e-003 5.74712642e-003
      2.87356321e-003 2.87356321e-003 1.29310340e-002 8.62068962e-003
      1.43678160e-003 1.43678160e-003 7.18390802e-003 7.18390802e-003
      1.14942528e-002 2.87356321e-003 1.43678160e-003 1.00574717e-002
      1.14942528e-002 4.31034481e-003 1.43678160e-003 7.18390802e-003
      2.87356321e-003 1.14942528e-002 8.62068962e-003 7.18390802e-003
      8.62068962e-003 2.87356321e-003 1.43678160e-003 8.62068962e-003
      4.31034481e-003 2.87356321e-003 1.43678160e-002 4.31034481e-003
      5.74712642e-003 8.62068962e-003 2.01149434e-002 1.72413792e-002
      1.00574717e-002 4.31034481e-003 8.62068962e-003 1.14942528e-002
      5.74712642e-003 8.62068962e-003 2.87356321e-003 1.43678160e-002
      1.14942528e-002 1.00574717e-002 1.43678160e-002 5.74712642e-003
      2.87356321e-003 7.18390802e-003 5.74712642e-003 1.29310340e-002
      4.31034481e-003 1.43678160e-003 8.62068962e-003 1.00574717e-002 0.
      7.18390802e-003 2.87356321e-003 5.74712642e-003 8.62068962e-003
      2.87356321e-003 1.43678160e-003 7.18390802e-003 1.43678160e-002
      1.00574717e-002 0. 2.87356321e-003 4.31034481e-003 1.72413792e-002
      1.43678160e-003 5.74712642e-003 1.86781604e-002 7.18390802e-003
      7.18390802e-003 4.31034481e-003 4.31034481e-003 5.74712642e-003
      1.14942528e-002 0. 4.31034481e-003 1.43678160e-003 1.29310340e-002
      1.43678160e-002 5.74712642e-003 2.15517245e-002 7.18390802e-003
      4.31034481e-003 8.62068962e-003 1.00574717e-002 5.74712642e-003
      1.29310340e-002 2.87356321e-003 4.31034481e-003 4.31034481e-003
      5.74712642e-003 4.31034481e-003 1.00574717e-002 7.18390802e-003
      5.74712642e-003 1.43678160e-002 1.58045981e-002 1.43678160e-003 0.
      4.31034481e-003</_>
    <_>
      1.71149150e-002 2.44498788e-003 2.44498793e-002 7.33496342e-003
      2.93398537e-002 0. 7.33496342e-003 4.88997577e-003 2.44498788e-003
      2.44498788e-003 0. 1.95599031e-002 2.44498788e-003 4.88997577e-003
      1.71149150e-002 4.88997577e-003 7.33496342e-003 2.44498788e-003 0.
      2.44498788e-003 2.44498788e-003 0. 0. 0. 7.33496342e-003
      9.77995154e-003 7.33496342e-003 0. 7.33496342e-003 9.77995154e-003
      2.44498788e-003 4.88997577e-003 0. 1.22249397e-002 1.95599031e-002
      1.22249397e-002 1.46699268e-002 0. 2.44498788e-003 4.88997577e-003
      4.88997577e-003 9.77995154e-003 2.44498788e-003 0. 7.33496342e-003
      7.33496342e-003 0. 4.88997577e-003 7.33496342e-003 2.44498788e-003
      2.44498788e-003 1.22249397e-002 4.88997577e-003 0. 1.22249397e-002
      2.44498788e-003 1.22249397e-002 4.88997577e-003 0. 0.
      1.46699268e-002 2.20048912e-002 4.88997577e-003 7.33496342e-003
      9.77995154e-003 1.95599031e-002 9.77995154e-003 2.44498788e-003
      1.22249397e-002 9.77995154e-003 0. 2.44498788e-003 9.77995154e-003
      4.88997577e-003 0. 2.44498788e-003 4.88997577e-003 4.88997577e-003
      2.44498788e-003 2.20048912e-002 1.46699268e-002 7.33496342e-003 0.
      4.88997577e-003 4.88997577e-003 7.33496342e-003 4.88997577e-003
      2.44498788e-003 0. 2.44498788e-003 2.44498788e-003 7.33496342e-003
      9.77995154e-003 7.33496342e-003 2.44498788e-003 0. 7.33496342e-003
      0. 9.77995154e-003 2.44498788e-003 4.88997577e-003 4.88997577e-003
      4.88997577e-003 0. 0. 1.71149150e-002 2.44498788e-003
      3.42298299e-002 4.88997577e-003 2.20048912e-002 4.88997577e-003
      9.77995154e-003 0. 0. 4.88997577e-003 2.44498788e-003
      1.22249397e-002 4.88997577e-003 7.33496342e-003 1.95599031e-002
      1.46699268e-002 0. 4.88997577e-003 0. 2.44498788e-003
      2.44498788e-003 0. 7.33496342e-003 4.88997577e-003 9.77995154e-003
      2.44498793e-002 0. 4.88997577e-003 4.88997577e-003 0.
      1.46699268e-002 9.77995154e-003 2.44498788e-003 0. 1.22249397e-002
      1.22249397e-002 2.44498793e-002 1.71149150e-002 2.44498788e-003 0.
      2.44498788e-003 4.88997577e-003 4.88997577e-003 9.77995154e-003
      2.44498788e-003</_>
    <_>
      3.60360369e-003 1.44144148e-002 3.60360369e-003 1.80180185e-003
      1.80180185e-003 5.40540554e-003 1.44144148e-002 3.60360369e-003
      7.20720738e-003 1.80180185e-003 1.62162166e-002 1.80180185e-003
      3.60360369e-003 3.60360369e-003 1.26126129e-002 7.20720738e-003
      2.16216221e-002 0. 5.40540554e-003 5.40540554e-003 2.34234240e-002
      9.00900923e-003 3.60360369e-003 3.60360369e-003 7.20720738e-003 0.
      5.40540554e-003 1.26126129e-002 9.00900923e-003 7.20720738e-003 0.
      1.80180185e-003 1.80180185e-003 1.62162166e-002 3.60360369e-003
      1.80180185e-002 1.80180185e-003 1.80180185e-003 2.16216221e-002
      3.60360369e-003 3.60360369e-003 9.00900923e-003 7.20720738e-003
      2.52252258e-002 7.20720738e-003 0. 1.80180185e-003 7.20720738e-003
      5.40540554e-003 9.00900923e-003 9.00900923e-003 9.00900923e-003
      9.00900923e-003 2.16216221e-002 3.60360369e-003 3.60360369e-003
      7.20720738e-003 1.26126129e-002 5.40540554e-003 5.40540554e-003
      5.40540554e-003 1.44144148e-002 1.44144148e-002 3.60360369e-003
      5.40540554e-003 1.80180185e-003 0. 5.40540554e-003 3.60360369e-003
      3.60360369e-003 7.20720738e-003 5.40540554e-003 3.60360369e-003
      1.80180185e-003 7.20720738e-003 0. 7.20720738e-003 1.80180185e-003
      3.60360369e-003 7.20720738e-003 1.80180185e-003 1.80180185e-003
      3.60360369e-003 3.60360369e-003 1.80180185e-003 1.80180185e-003 0.
      7.20720738e-003 0. 3.60360369e-003 3.60360369e-003 1.08108111e-002
      1.80180185e-003 7.20720738e-003 0. 5.40540554e-003 5.40540554e-003
      1.80180185e-003 3.60360369e-003 1.08108111e-002 1.80180185e-002
      1.62162166e-002 7.20720738e-003 5.40540554e-003 5.40540554e-003
      3.60360369e-003 3.60360369e-003 3.60360369e-003 1.80180185e-002
      7.20720738e-003 1.08108111e-002 1.26126129e-002 3.60360369e-003 0.
      1.80180185e-003 1.80180185e-003 5.40540554e-003 5.40540554e-003 0.
      1.80180185e-003 9.00900923e-003 3.60360369e-003 5.40540554e-003
      1.26126129e-002 1.08108111e-002 7.20720738e-003 0. 9.00900923e-003
      1.98198203e-002 3.60360369e-003 1.08108111e-002 2.16216221e-002
      1.62162166e-002 7.20720738e-003 0. 9.00900923e-003 3.60360369e-003
      5.40540554e-003 5.40540554e-003 0. 1.80180185e-003 1.80180185e-002
      9.00900923e-003 5.40540554e-003 9.00900923e-003 1.62162166e-002
      7.20720738e-003 7.20720738e-003 1.80180185e-003 5.40540554e-003</_>
    <_>
      5.12820529e-003 1.28205130e-002 5.12820529e-003 1.02564106e-002
      2.56410264e-003 7.69230817e-003 5.12820529e-003 1.53846163e-002
      7.69230817e-003 7.69230817e-003 7.69230817e-003 1.28205130e-002
      5.12820529e-003 2.56410264e-003 2.30769236e-002 7.69230817e-003 0.
      2.56410264e-003 7.69230817e-003 5.12820529e-003 1.02564106e-002
      2.56410264e-003 2.56410264e-003 1.02564106e-002 2.56410264e-003
      7.69230817e-003 0. 5.12820529e-003 1.28205130e-002 5.12820529e-003
      2.56410264e-003 5.12820529e-003 0. 2.56410264e-003 5.12820529e-003
      7.69230817e-003 5.12820529e-003 5.12820529e-003 1.02564106e-002
      1.02564106e-002 1.28205130e-002 5.12820529e-003 0. 5.12820529e-003
      2.56410264e-003 2.56410264e-003 1.28205130e-002 2.56410264e-003
      2.56410264e-003 1.02564106e-002 0. 0. 5.12820529e-003
      1.28205130e-002 5.12820529e-003 7.69230817e-003 0. 7.69230817e-003
      1.02564106e-002 0. 7.69230817e-003 2.56410264e-003 7.69230817e-003
      0. 1.28205130e-002 5.12820529e-003 1.02564106e-002 2.56410260e-002
      5.12820529e-003 5.12820529e-003 5.12820529e-003 7.69230817e-003
      2.56410264e-003 2.56410264e-003 1.02564106e-002 1.02564106e-002
      5.12820529e-003 5.12820529e-003 1.02564106e-002 2.56410264e-003 0.
      1.02564106e-002 7.69230817e-003 2.56410264e-003 1.28205130e-002
      1.02564106e-002 2.56410260e-002 5.12820529e-003 7.69230817e-003
      1.28205130e-002 2.56410264e-003 7.69230817e-003 2.56410264e-003
      1.02564106e-002 1.02564106e-002 1.79487187e-002 5.12820529e-003
      7.69230817e-003 1.28205130e-002 7.69230817e-003 0. 5.12820529e-003
      5.12820529e-003 2.05128212e-002 5.12820529e-003 2.56410264e-003
      7.69230817e-003 5.12820529e-003 1.02564106e-002 7.69230817e-003
      5.12820529e-003 2.56410264e-003 2.56410264e-003 0. 7.69230817e-003
      1.28205130e-002 2.56410264e-003 7.69230817e-003 2.56410264e-003
      1.02564106e-002 5.12820529e-003 2.56410264e-003 2.56410264e-003
      5.12820529e-003 1.02564106e-002 7.69230817e-003 0. 2.56410264e-003
      7.69230817e-003 7.69230817e-003 7.69230817e-003 0. 1.28205130e-002
      2.56410264e-003 2.56410264e-003 0. 2.56410264e-003 7.69230817e-003
      5.12820529e-003 7.69230817e-003 1.28205130e-002 0. 7.69230817e-003
      1.28205130e-002 1.28205130e-002 5.12820529e-003 5.12820529e-003
      1.02564106e-002 1.02564106e-002 5.12820529e-003</_>
    <_>
      4.46428591e-003 0. 8.92857183e-003 0. 0. 0. 0. 4.46428591e-003
      4.46428591e-003 8.92857183e-003 0. 4.46428591e-003 8.92857183e-003
      0. 0. 1.78571437e-002 8.92857183e-003 0. 8.92857183e-003
      1.33928582e-002 0. 1.78571437e-002 1.78571437e-002 0.
      4.46428591e-003 1.33928582e-002 1.33928582e-002 4.46428591e-003
      1.78571437e-002 2.23214291e-002 0. 0. 8.92857183e-003
      4.46428591e-003 0. 0. 4.46428591e-003 4.46428591e-003
      4.46428591e-003 0. 4.46428591e-003 0. 1.78571437e-002
      1.33928582e-002 0. 4.46428591e-003 0. 4.46428591e-003
      4.46428591e-003 4.46428591e-003 2.67857164e-002 1.33928582e-002
      1.33928582e-002 1.78571437e-002 4.46428591e-003 0. 1.33928582e-002
      0. 0. 8.92857183e-003 0. 4.46428591e-003 8.92857183e-003
      8.92857183e-003 0. 8.92857183e-003 8.92857183e-003 0.
      4.46428591e-003 0. 4.46428591e-003 0. 8.92857183e-003 0.
      4.46428591e-003 4.46428591e-003 1.33928582e-002 0. 1.33928582e-002
      4.46428591e-003 4.46428591e-003 1.78571437e-002 1.33928582e-002
      4.46428591e-003 0. 1.33928582e-002 4.46428591e-003 4.46428591e-003
      8.92857183e-003 4.46428591e-003 8.92857183e-003 4.46428591e-003
      4.46428591e-003 8.92857183e-003 0. 8.92857183e-003 0.
      5.80357164e-002 0. 1.78571437e-002 8.92857183e-003 1.78571437e-002
      0. 4.46428591e-003 4.46428591e-003 4.46428591e-003 4.46428591e-003
      0. 1.78571437e-002 1.33928582e-002 2.67857164e-002 8.92857183e-003
      0. 0. 0. 0. 4.46428591e-003 2.23214291e-002 4.46428591e-003
      4.46428591e-003 4.46428591e-003 0. 8.92857183e-003 8.92857183e-003
      0. 0. 4.46428591e-003 4.46428591e-003 1.33928582e-002
      4.46428591e-003 0. 1.33928582e-002 8.92857183e-003 1.33928582e-002
      0. 0. 1.78571437e-002 0. 4.46428591e-003 1.33928582e-002
      4.46428591e-003 8.92857183e-003 1.33928582e-002 0. 0.
      8.92857183e-003 4.46428591e-003 1.33928582e-002 0. 8.92857183e-003</_>
    <_>
      9.77198686e-003 3.25732888e-003 6.51465775e-003 0. 1.30293155e-002
      0. 6.51465775e-003 2.93159597e-002 3.25732888e-003 3.25732888e-003
      0. 6.51465775e-003 3.25732888e-003 1.95439737e-002 0. 0.
      6.51465775e-003 6.51465775e-003 9.77198686e-003 1.62866451e-002
      1.30293155e-002 6.51465775e-003 9.77198686e-003 6.51465775e-003
      1.30293155e-002 3.25732888e-003 9.77198686e-003 3.25732888e-003
      3.25732888e-003 2.28013024e-002 1.62866451e-002 0. 0.
      3.25732888e-003 3.25732888e-003 0. 6.51465775e-003 0.
      3.25732888e-003 3.25732888e-003 2.28013024e-002 1.30293155e-002 0.
      6.51465775e-003 3.25732888e-003 9.77198686e-003 6.51465775e-003
      1.30293155e-002 6.51465775e-003 0. 6.51465775e-003 6.51465775e-003
      3.25732888e-003 9.77198686e-003 0. 3.25732888e-003 1.30293155e-002
      9.77198686e-003 0. 0. 1.95439737e-002 3.25732888e-003
      6.51465775e-003 3.25732888e-003 1.62866451e-002 6.51465775e-003
      3.25732888e-003 3.25732888e-003 1.62866451e-002 0. 6.51465775e-003
      9.77198686e-003 0. 0. 0. 9.77198686e-003 0. 3.25732888e-003
      3.25732888e-003 3.25732888e-003 0. 3.25732888e-003 0.
      6.51465775e-003 6.51465775e-003 3.25732888e-003 6.51465775e-003
      6.51465775e-003 1.30293155e-002 9.77198686e-003 0. 9.77198686e-003
      9.77198686e-003 9.77198686e-003 9.77198686e-003 6.51465775e-003
      1.62866451e-002 6.51465775e-003 3.25732888e-003 9.77198686e-003
      3.25732888e-003 6.51465775e-003 6.51465775e-003 3.25732888e-003
      3.25732888e-003 6.51465775e-003 2.28013024e-002 2.93159597e-002 0.
      0. 0. 2.28013024e-002 3.25732888e-003 0. 1.30293155e-002 0.
      9.77198686e-003 3.90879475e-002 3.25732888e-003 3.25732888e-003
      1.30293155e-002 3.25732888e-003 0. 0. 6.51465775e-003
      1.30293155e-002 0. 9.77198686e-003 3.25732888e-003 0. 0.
      6.51465775e-003 1.62866451e-002 0. 3.25732888e-003 1.62866451e-002
      3.25732888e-003 6.51465775e-003 1.62866451e-002 3.25732888e-003 0.
      9.77198686e-003 2.28013024e-002 3.25732888e-003 0. 3.25732888e-003
      9.77198686e-003 0. 0. 0.</_>
    <_>
      1.95312500e-003 5.85937500e-003 1.75781250e-002 3.90625000e-003
      1.36718750e-002 9.76562500e-003 5.85937500e-003 3.90625000e-003
      9.76562500e-003 7.81250000e-003 5.85937500e-003 1.17187500e-002
      1.95312500e-003 0. 9.76562500e-003 3.90625000e-003 5.85937500e-003
      5.85937500e-003 1.17187500e-002 0. 9.76562500e-003 5.85937500e-003
      3.90625000e-003 5.85937500e-003 5.85937500e-003 3.90625000e-003
      9.76562500e-003 3.90625000e-003 1.95312500e-003 7.81250000e-003 0.
      0. 0. 5.85937500e-003 7.81250000e-003 1.36718750e-002
      5.85937500e-003 1.95312500e-003 3.90625000e-003 1.95312500e-003
      5.85937500e-003 5.85937500e-003 7.81250000e-003 7.81250000e-003
      1.95312500e-003 5.85937500e-003 3.90625000e-003 5.85937500e-003
      9.76562500e-003 3.90625000e-003 1.95312500e-003 7.81250000e-003
      5.85937500e-003 2.14843750e-002 3.90625000e-003 7.81250000e-003
      1.36718750e-002 1.36718750e-002 3.90625000e-003 1.95312500e-003
      9.76562500e-003 1.17187500e-002 1.36718750e-002 0. 1.95312500e-002
      1.56250000e-002 5.85937500e-003 5.85937500e-003 0. 1.95312500e-002
      5.85937500e-003 3.90625000e-003 5.85937500e-003 5.85937500e-003
      3.90625000e-003 1.95312500e-003 3.90625000e-003 5.85937500e-003 0.
      2.34375000e-002 1.95312500e-003 1.95312500e-003 1.95312500e-003
      1.17187500e-002 3.90625000e-003 7.81250000e-003 3.90625000e-003
      1.95312500e-003 0. 1.95312500e-003 5.85937500e-003 2.14843750e-002
      1.95312500e-003 1.56250000e-002 3.90625000e-003 7.81250000e-003
      1.56250000e-002 1.95312500e-003 1.95312500e-003 2.14843750e-002
      1.17187500e-002 0. 7.81250000e-003 5.85937500e-003 1.95312500e-003
      3.90625000e-003 7.81250000e-003 1.36718750e-002 7.81250000e-003
      3.90625000e-003 5.85937500e-003 1.95312500e-003 1.95312500e-003
      3.90625000e-003 0. 3.90625000e-003 1.36718750e-002 3.90625000e-003
      5.85937500e-003 9.76562500e-003 1.75781250e-002 5.85937500e-003
      1.95312500e-003 3.90625000e-003 3.90625000e-003 1.95312500e-003 0.
      0. 5.85937500e-003 0. 1.75781250e-002 7.81250000e-003
      2.14843750e-002 5.85937500e-003 5.85937500e-003 1.17187500e-002
      3.90625000e-003 9.76562500e-003 3.90625000e-003 9.76562500e-003
      7.81250000e-003 1.95312500e-002 1.36718750e-002 7.81250000e-003
      3.90625000e-003 3.90625000e-003 9.76562500e-003 0. 3.90625000e-003
      1.95312500e-003</_>
    <_>
      0. 0. 1.03092780e-002 0. 0. 5.15463902e-003 5.15463902e-003
      1.03092780e-002 1.03092780e-002 5.15463902e-003 1.03092780e-002 0.
      5.15463902e-003 5.15463902e-003 0. 1.03092780e-002 5.15463902e-003
      2.06185561e-002 1.03092780e-002 2.57731955e-002 5.15463902e-003
      1.03092780e-002 5.15463902e-003 1.54639166e-002 0. 0.
      5.15463902e-003 1.03092780e-002 5.15463902e-003 1.54639166e-002 0.
      5.15463902e-003 0. 0. 1.03092780e-002 0. 5.15463902e-003
      1.54639166e-002 1.54639166e-002 0. 5.15463902e-003 0.
      1.03092780e-002 2.06185561e-002 2.06185561e-002 1.03092780e-002
      1.03092780e-002 1.54639166e-002 2.06185561e-002 0. 5.15463902e-003
      0. 0. 5.15463902e-003 1.03092780e-002 0. 5.15463902e-003 0.
      5.15463902e-003 1.03092780e-002 5.15463902e-003 0. 5.15463902e-003
      2.06185561e-002 5.15463902e-003 1.03092780e-002 5.15463902e-003
      5.15463902e-003 2.06185561e-002 4.12371121e-002 0. 1.03092780e-002
      0. 5.15463902e-003 1.03092780e-002 0. 5.15463902e-003
      5.15463902e-003 1.54639166e-002 5.15463902e-003 5.15463902e-003
      1.03092780e-002 1.03092780e-002 0. 1.03092780e-002 0.
      5.15463902e-003 5.15463902e-003 5.15463902e-003 5.15463902e-003 0.
      0. 5.15463902e-003 0. 1.03092780e-002 0. 0. 0. 0. 0.
      5.15463902e-003 1.03092780e-002 0. 5.15463902e-003 0. 0.
      5.15463902e-003 1.03092780e-002 2.06185561e-002 0. 1.03092780e-002
      5.15463902e-003 0. 5.15463902e-003 5.15463902e-003 0. 0.
      5.15463911e-002 0. 5.15463902e-003 5.15463902e-003 0. 0. 0.
      1.54639166e-002 1.54639166e-002 5.15463902e-003 0. 0. 0.
      5.15463902e-003 5.15463902e-003 5.15463902e-003 0. 0.
      1.54639166e-002 1.54639166e-002 2.06185561e-002 5.15463902e-003
      1.03092780e-002 5.15463902e-003 1.03092780e-002 1.54639166e-002 0.
      0. 0. 1.54639166e-002 5.15463902e-003 1.54639166e-002
      5.15463902e-003</_>
    <_>
      1.04529615e-002 1.04529615e-002 3.48432059e-003 8.71080160e-003 0.
      3.48432059e-003 5.22648077e-003 8.71080160e-003 3.48432059e-003
      5.22648077e-003 3.48432059e-003 8.71080160e-003 5.22648077e-003
      5.22648077e-003 3.48432059e-003 8.71080160e-003 8.71080160e-003
      5.22648077e-003 8.71080160e-003 3.48432059e-003 8.71080160e-003
      1.74216030e-003 5.22648077e-003 8.71080160e-003 8.71080160e-003
      3.48432059e-003 8.71080160e-003 5.22648077e-003 0. 6.96864119e-003
      1.39372824e-002 3.48432059e-003 1.74216030e-003 1.21951224e-002
      1.74216030e-003 1.04529615e-002 3.48432059e-003 1.04529615e-002
      1.39372824e-002 5.22648077e-003 5.22648077e-003 1.04529615e-002
      1.39372824e-002 1.21951224e-002 5.22648077e-003 1.21951224e-002
      1.74216030e-003 8.71080160e-003 8.71080160e-003 6.96864119e-003
      3.48432059e-003 6.96864119e-003 1.21951224e-002 1.39372824e-002
      3.48432059e-003 3.48432059e-003 8.71080160e-003 1.39372824e-002
      6.96864119e-003 3.48432059e-003 8.71080160e-003 1.74216030e-003
      6.96864119e-003 5.22648077e-003 3.48432059e-003 0. 5.22648077e-003
      5.22648077e-003 5.22648077e-003 2.26480830e-002 3.48432059e-003
      6.96864119e-003 0. 6.96864119e-003 8.71080160e-003 1.74216030e-003
      6.96864119e-003 3.48432059e-003 1.04529615e-002 3.48432059e-003
      5.22648077e-003 1.74216030e-003 5.22648077e-003 1.21951224e-002
      8.71080160e-003 5.22648077e-003 1.74216030e-003 3.48432059e-003
      1.04529615e-002 1.74216030e-003 8.71080160e-003 5.22648077e-003
      5.22648077e-003 1.04529615e-002 1.74216030e-003 3.48432059e-003
      1.91637632e-002 8.71080160e-003 6.96864119e-003 1.21951224e-002
      1.21951224e-002 6.96864119e-003 8.71080160e-003 8.71080160e-003 0.
      5.22648077e-003 1.74216030e-003 5.22648077e-003 6.96864119e-003
      1.21951224e-002 6.96864119e-003 1.39372824e-002 5.22648077e-003
      1.74216030e-003 8.71080160e-003 0. 5.22648077e-003 3.48432059e-003
      0. 1.74216030e-003 3.48432059e-003 1.74216030e-003 1.21951224e-002
      3.48432059e-003 5.22648077e-003 6.96864119e-003 1.74216030e-003
      6.96864119e-003 1.04529615e-002 5.22648077e-003 5.22648077e-003
      1.56794433e-002 8.71080160e-003 1.04529615e-002 1.21951224e-002
      1.91637632e-002 1.21951224e-002 3.48432059e-003 1.74216030e-003
      3.48432059e-003 1.74216030e-003 8.71080160e-003 0. 6.96864119e-003
      1.39372824e-002 1.56794433e-002 6.96864119e-003 5.22648077e-003 0.
      5.22648077e-003</_>
    <_>
      2.63157906e-003 2.63157906e-003 0. 1.57894753e-002 7.89473765e-003
      1.05263162e-002 2.63157906e-003 2.63157906e-003 2.63157906e-003 0.
      2.63157906e-003 0. 0. 2.63157906e-003 0. 1.57894753e-002
      7.89473765e-003 1.05263162e-002 7.89473765e-003 7.89473765e-003
      2.63157906e-003 1.57894753e-002 1.05263162e-002 2.63157906e-003
      2.63157906e-003 5.26315812e-003 2.63157906e-003 7.89473765e-003
      7.89473765e-003 5.52631617e-002 7.89473765e-003 1.05263162e-002 0.
      5.26315812e-003 5.26315812e-003 0. 0. 7.89473765e-003
      7.89473765e-003 7.89473765e-003 5.26315812e-003 2.63157906e-003
      7.89473765e-003 2.36842111e-002 1.84210539e-002 7.89473765e-003
      7.89473765e-003 2.63157906e-003 2.63157906e-003 7.89473765e-003
      7.89473765e-003 5.26315812e-003 5.26315812e-003 3.94736864e-002
      5.26315812e-003 5.26315812e-003 2.63157906e-003 7.89473765e-003
      2.63157906e-003 0. 2.63157906e-003 0. 2.63157906e-003
      2.63157906e-003 5.26315812e-003 7.89473765e-003 7.89473765e-003
      2.63157906e-003 2.63157906e-003 6.31579012e-002 1.57894753e-002
      1.31578948e-002 0. 2.63157906e-003 1.05263162e-002 0.
      5.26315812e-003 5.26315812e-003 0. 0. 2.63157906e-003
      2.63157906e-003 1.31578948e-002 2.63157906e-003 1.31578948e-002
      5.26315812e-003 1.05263162e-002 5.26315812e-003 7.89473765e-003
      2.63157906e-003 2.63157906e-003 1.57894753e-002 7.89473765e-003
      1.57894753e-002 1.05263162e-002 0. 1.05263162e-002 1.05263162e-002
      0. 5.26315812e-003 7.89473765e-003 1.84210539e-002 7.89473765e-003
      5.26315812e-003 7.89473765e-003 0. 2.63157906e-003 2.63157906e-003
      1.05263162e-002 0. 2.63157906e-003 1.31578948e-002 5.26315812e-003
      5.26315812e-003 0. 5.26315812e-003 0. 5.26315812e-003
      2.63157906e-003 5.26315812e-003 2.63157906e-003 2.63157906e-003
      5.26315812e-003 1.31578948e-002 1.84210539e-002 2.63157906e-003 0.
      5.26315812e-003 0. 0. 0. 3.94736864e-002 1.05263162e-002
      1.05263162e-002 0. 5.26315812e-003 2.63157906e-003 2.63157906e-003
      2.63157906e-003 0. 0. 0. 0. 2.63157906e-003 1.05263162e-002
      5.26315812e-003 2.63157906e-003 5.26315812e-003 5.26315812e-003
      5.26315812e-003</_>
    <_>
      3.44827585e-003 3.44827585e-003 1.03448275e-002 0. 3.79310325e-002
      1.37931034e-002 3.44827585e-003 1.37931034e-002 6.89655170e-003
      3.44827585e-003 3.44827585e-003 0. 0. 6.89655170e-003
      3.44827585e-003 0. 6.89655170e-003 1.72413792e-002 0.
      3.44827585e-003 1.03448275e-002 1.03448275e-002 3.44827585e-003
      6.89655170e-003 3.44827585e-003 6.89655170e-003 1.03448275e-002
      3.10344826e-002 3.44827585e-003 0. 1.03448275e-002 0.
      6.89655170e-003 0. 0. 6.89655170e-003 0. 6.89655170e-003
      3.44827585e-003 3.44827585e-003 3.44827585e-003 6.89655170e-003
      3.44827585e-003 3.44827585e-003 3.44827585e-003 2.06896551e-002
      3.44827585e-003 1.37931034e-002 1.03448275e-002 3.44827585e-003 0.
      1.03448275e-002 3.44827585e-003 3.44827585e-003 0. 0. 0.
      3.44827585e-003 3.44827585e-003 0. 6.89655170e-003 6.89655170e-003
      3.44827585e-003 3.44827585e-003 1.37931034e-002 1.72413792e-002
      1.37931034e-002 6.89655170e-003 1.37931034e-002 0. 1.37931034e-002
      1.03448275e-002 1.03448275e-002 0. 3.44827585e-003 6.89655170e-003
      0. 1.37931034e-002 1.03448275e-002 3.44827585e-003 1.03448275e-002
      6.89655170e-003 3.44827585e-003 0. 1.37931034e-002 1.03448275e-002
      1.37931034e-002 6.89655170e-003 3.10344826e-002 1.37931034e-002
      3.44827585e-003 1.37931034e-002 6.89655170e-003 3.44827585e-003
      3.44827585e-003 6.89655170e-003 3.44827585e-003 0. 6.89655170e-003
      3.44827585e-003 3.44827585e-003 0. 1.37931034e-002 1.37931034e-002
      6.89655170e-003 3.44827585e-003 6.89655170e-003 6.89655170e-003 0.
      0. 6.89655170e-003 0. 2.06896551e-002 0. 2.06896551e-002
      3.44827585e-003 3.44827585e-003 0. 0. 3.44827585e-003
      6.89655170e-003 1.37931034e-002 0. 0. 1.03448275e-002
      1.72413792e-002 3.44827585e-003 3.44827585e-003 6.89655170e-003
      1.37931034e-002 6.89655170e-003 6.89655170e-003 6.89655170e-003
      3.44827585e-003 6.89655170e-003 3.44827585e-003 1.37931034e-002
      6.89655170e-003 3.44827585e-003 1.03448275e-002 3.44827585e-003
      6.89655170e-003 0. 1.03448275e-002 6.89655170e-003 0.
      6.89655170e-003 1.37931034e-002 3.44827585e-003 1.03448275e-002</_>
    <_>
      0. 6.84931502e-003 6.84931502e-003 0. 0. 3.42465751e-003
      6.84931502e-003 3.42465751e-003 3.42465751e-003 0. 3.42465751e-003
      2.05479451e-002 6.84931502e-003 3.42465751e-003 1.02739725e-002
      3.42465751e-003 6.84931502e-003 3.42465751e-003 1.02739725e-002
      1.36986300e-002 1.02739725e-002 1.36986300e-002 1.02739725e-002 0.
      3.42465751e-003 0. 6.84931502e-003 0. 6.84931502e-003
      3.42465751e-003 3.42465751e-003 6.84931502e-003 3.42465751e-003
      1.71232875e-002 1.36986300e-002 1.36986300e-002 0. 0.
      1.02739725e-002 3.42465751e-003 0. 1.02739725e-002 0.
      3.42465751e-003 1.02739725e-002 6.84931502e-003 0. 3.42465751e-003
      0. 0. 1.02739725e-002 1.71232875e-002 1.02739725e-002
      2.39726026e-002 6.84931502e-003 6.84931502e-003 1.71232875e-002
      6.84931502e-003 3.42465751e-003 3.42465751e-003 1.36986300e-002
      1.02739725e-002 1.36986300e-002 1.02739725e-002 0. 1.02739725e-002
      3.42465751e-003 0. 0. 6.84931502e-003 1.02739725e-002
      1.02739725e-002 3.42465751e-003 6.84931502e-003 3.42465751e-003
      3.42465751e-003 3.42465751e-003 1.02739725e-002 0. 3.42465751e-003
      0. 3.42465751e-003 6.84931502e-003 3.42465751e-003 6.84931502e-003
      3.42465751e-003 0. 0. 6.84931502e-003 3.42465751e-003
      6.84931502e-003 1.02739725e-002 1.02739725e-002 1.36986300e-002 0.
      0. 6.84931502e-003 3.42465751e-003 0. 6.16438352e-002
      6.84931502e-003 0. 1.02739725e-002 6.84931502e-003 0.
      3.42465751e-003 3.42465751e-003 1.36986300e-002 1.36986300e-002
      1.36986300e-002 3.42465751e-003 1.02739725e-002 0. 3.42465751e-003
      3.42465751e-003 0. 6.84931502e-003 1.36986300e-002 0.
      6.84931502e-003 6.84931502e-003 6.84931502e-003 0. 1.36986300e-002
      6.84931502e-003 0. 0. 3.42465751e-003 6.84931502e-003
      3.42465751e-003 1.02739725e-002 3.42465751e-003 4.10958901e-002
      6.84931502e-003 6.84931502e-003 1.71232875e-002 3.42465751e-003
      3.42465751e-003 3.42465751e-003 6.84931502e-003 1.02739725e-002
      3.76712307e-002 0. 6.84931502e-003 6.84931502e-003 1.36986300e-002
      3.42465751e-003 0. 0. 0.</_>
    <_>
      4.39560460e-003 2.19780230e-003 1.09890113e-002 0. 1.09890113e-002
      0. 0. 1.75824184e-002 1.97802205e-002 4.39560460e-003
      8.79120920e-003 1.75824184e-002 4.39560460e-003 8.79120920e-003
      1.09890113e-002 2.19780230e-003 0. 6.59340713e-003 1.09890113e-002
      2.19780230e-003 6.59340713e-003 0. 2.19780230e-003 6.59340713e-003
      1.09890113e-002 6.59340713e-003 4.39560460e-003 6.59340713e-003
      8.79120920e-003 2.19780230e-003 6.59340713e-003 8.79120920e-003
      4.39560460e-003 1.31868143e-002 1.53846163e-002 1.53846163e-002
      2.19780230e-003 4.39560460e-003 4.39560460e-003 0. 0.
      1.09890113e-002 2.19780230e-003 2.19780230e-003 2.19780230e-003
      8.79120920e-003 2.19780230e-003 1.75824184e-002 4.39560460e-003 0.
      2.19780230e-003 6.59340713e-003 4.39560460e-003 8.79120920e-003
      1.09890113e-002 6.59340713e-003 1.75824184e-002 1.97802205e-002
      2.19780230e-003 4.39560460e-003 6.59340713e-003 6.59340713e-003
      4.39560460e-003 2.19780230e-003 1.31868143e-002 1.97802205e-002
      2.19780230e-003 6.59340713e-003 2.19780230e-003 2.19780230e-003
      2.19780230e-003 6.59340713e-003 1.31868143e-002 6.59340713e-003 0.
      1.31868143e-002 2.19780230e-003 8.79120920e-003 1.31868143e-002
      1.31868143e-002 8.79120920e-003 6.59340713e-003 1.09890113e-002
      1.09890113e-002 1.09890113e-002 2.19780230e-003 1.09890113e-002
      6.59340713e-003 2.19780230e-003 6.59340713e-003 2.19780230e-003
      4.39560460e-003 1.31868143e-002 0. 4.39560460e-003 8.79120920e-003
      4.39560460e-003 6.59340713e-003 0. 0. 2.19780230e-003 0.
      8.79120920e-003 0. 4.39560460e-003 8.79120920e-003 6.59340713e-003
      1.31868143e-002 0. 8.79120920e-003 1.09890113e-002 0. 0.
      8.79120920e-003 8.79120920e-003 2.19780230e-003 1.09890113e-002
      6.59340713e-003 6.59340713e-003 6.59340713e-003 1.09890113e-002
      2.19780230e-003 6.59340713e-003 1.09890113e-002 2.19780230e-003
      4.39560460e-003 4.39560460e-003 6.59340713e-003 6.59340713e-003
      1.09890113e-002 1.75824184e-002 6.59340713e-003 4.39560460e-003
      1.53846163e-002 6.59340713e-003 4.39560460e-003 8.79120920e-003
      2.19780230e-003 4.39560460e-003 8.79120920e-003 8.79120920e-003
      1.09890113e-002 6.59340713e-003 6.59340713e-003 6.59340713e-003
      8.79120920e-003 8.79120920e-003 2.19780230e-003 4.39560460e-003
      4.39560460e-003</_>
    <_>
      1.22699384e-002 2.04498973e-003 2.04498973e-002 8.17995891e-003
      4.70347628e-002 6.13496918e-003 6.13496918e-003 1.02249486e-002
      2.04498973e-003 1.22699384e-002 6.13496918e-003 1.02249486e-002
      8.17995891e-003 1.43149281e-002 6.13496918e-003 2.04498973e-003
      4.08997945e-003 0. 6.13496918e-003 0. 2.04498973e-003
      4.08997945e-003 2.04498973e-003 2.04498973e-003 4.08997945e-003
      1.43149281e-002 2.04498973e-003 0. 6.13496918e-003 0.
      6.13496918e-003 1.22699384e-002 2.04498973e-003 8.17995891e-003
      2.45398767e-002 1.02249486e-002 1.02249486e-002 6.13496918e-003
      2.04498973e-003 2.04498973e-003 1.02249486e-002 8.17995891e-003
      2.04498973e-003 2.04498973e-003 8.17995891e-003 6.13496918e-003
      8.17995891e-003 6.13496918e-003 4.08997945e-003 2.04498973e-003
      2.04498973e-003 4.08997945e-003 6.13496918e-003 2.04498973e-003
      4.08997945e-003 6.13496918e-003 4.08997945e-003 4.08997945e-003
