<?xml version="1.0"?>
<opencv_storage>
<my_svm type_id="opencv-ml-svm">
  <svm_type>C_SVC</svm_type>
  <kernel><type>RBF</type>
    <gamma>5.0625000000000009e-001</gamma></kernel>
  <C>3.1250000000000000e+002</C>
  <term_criteria><epsilon>1.1920928955078125e-007</epsilon>
    <iterations>1000</iterations></term_criteria>
  <var_all>150</var_all>
  <var_count>150</var_count>
  <class_count>2</class_count>
  <class_labels type_id="opencv-matrix">
    <rows>1</rows>
    <cols>2</cols>
    <dt>i</dt>
    <data>
      0 1</data></class_labels>
  <sv_total>120</sv_total>
  <support_vectors>
    <_>
      1.70454551e-002 5.68181835e-003 5.68181835e-003 0. 1.13636367e-002
      5.68181835e-003 5.68181835e-003 5.68181835e-003 0. 0.
      1.13636367e-002 5.68181835e-003 5.68181835e-003 5.68181835e-003 0.
      1.13636367e-002 0. 0. 5.68181835e-003 1.70454551e-002 0.
      5.68181835e-003 0. 0. 1.13636367e-002 5.68181835e-003
      2.27272734e-002 0. 5.68181835e-003 0. 5.68181835e-003
      1.13636367e-002 1.70454551e-002 5.68181835e-003 5.68181835e-003 0.
      1.13636367e-002 5.68181835e-003 0. 1.70454551e-002 1.13636367e-002
      0. 1.13636367e-002 5.68181835e-003 5.68181835e-003 0. 0.
      5.68181835e-003 0. 5.68181835e-003 0. 1.13636367e-002
      5.68181835e-003 1.13636367e-002 5.68181835e-003 1.70454551e-002
      5.68181835e-003 5.68181835e-003 0. 5.68181835e-003 5.68181835e-003
      0. 0. 0. 0. 1.70454551e-002 1.13636367e-002 1.13636367e-002
      5.68181835e-003 0. 5.68181835e-003 5.68181835e-003 1.70454551e-002
      5.68181835e-003 1.13636367e-002 1.13636367e-002 5.68181835e-003 0.
      1.13636367e-002 1.70454551e-002 0. 1.70454551e-002 1.70454551e-002
      1.13636367e-002 0. 1.13636367e-002 5.68181835e-003 5.68181835e-003
      5.68181835e-003 5.68181835e-003 2.27272734e-002 1.70454551e-002
      1.13636367e-002 5.68181835e-003 0. 5.68181835e-003 0.
      5.68181835e-003 0. 1.70454551e-002 0. 5.68181835e-003
      1.13636367e-002 0. 5.68181835e-003 0. 0. 5.68181835e-003 0. 0.
      5.68181835e-003 5.68181835e-003 5.68181835e-003 0. 1.13636367e-002
      0. 0. 5.68181835e-003 0. 2.27272734e-002 5.68181835e-003 0. 0.
      5.68181835e-003 0. 1.13636367e-002 5.68181835e-003 5.68181835e-003
      5.68181835e-003 5.68181835e-003 1.13636367e-002 5.68181835e-003
      5.68181835e-003 5.68181835e-003 5.68181835e-003 1.70454551e-002
      5.68181835e-003 0. 5.68181835e-003 1.70454551e-002 1.70454551e-002
      2.84090918e-002 5.68181835e-003 1.13636367e-002 1.70454551e-002
      5.68181835e-003 1.13636367e-002 5.68181835e-003 5.68181835e-003
      1.13636367e-002</_>
    <_>
      0. 7.49999983e-003 4.99999989e-003 2.49999994e-003 1.49999997e-002
      4.99999989e-003 4.99999989e-003 1.24999993e-002 2.49999994e-003
      2.24999990e-002 9.99999978e-003 2.49999994e-003 2.49999994e-003
      1.24999993e-002 7.49999983e-003 1.24999993e-002 2.49999994e-003
      1.24999993e-002 4.99999989e-003 7.49999983e-003 2.49999994e-003
      4.99999989e-003 2.49999994e-003 2.49999994e-003 9.99999978e-003 0.
      7.49999983e-003 2.49999994e-003 7.49999983e-003 2.49999985e-002
      4.99999989e-003 1.24999993e-002 9.99999978e-003 9.99999978e-003
      4.99999989e-003 4.99999989e-003 4.99999989e-003 4.99999989e-003
      7.49999983e-003 9.99999978e-003 9.99999978e-003 1.49999997e-002
      1.49999997e-002 7.49999983e-003 7.49999983e-003 9.99999978e-003 0.
      7.49999983e-003 2.49999994e-003 4.99999989e-003 9.99999978e-003
      7.49999983e-003 1.75000001e-002 1.24999993e-002 0. 2.49999994e-003
      0. 9.99999978e-003 7.49999983e-003 4.99999989e-003 2.49999994e-003
      4.99999989e-003 9.99999978e-003 9.99999978e-003 9.99999978e-003
      9.99999978e-003 4.99999989e-003 4.99999989e-003 2.49999994e-003
      1.24999993e-002 2.49999994e-003 1.99999996e-002 7.49999983e-003
      1.24999993e-002 1.24999993e-002 4.99999989e-003 1.24999993e-002
      2.49999994e-003 4.99999989e-003 4.99999989e-003 4.99999989e-003
      2.49999994e-003 2.49999994e-003 0. 0. 7.49999983e-003
      7.49999983e-003 7.49999983e-003 4.99999989e-003 9.99999978e-003
      7.49999983e-003 4.99999989e-003 9.99999978e-003 2.49999994e-003
      4.99999989e-003 7.49999983e-003 0. 9.99999978e-003 2.49999994e-003
      1.75000001e-002 2.49999994e-003 2.49999994e-003 4.99999989e-003 0.
      9.99999978e-003 2.49999994e-003 1.49999997e-002 0. 4.99999989e-003
      4.99999989e-003 7.49999983e-003 7.49999983e-003 2.49999994e-003
      2.49999994e-003 9.99999978e-003 1.24999993e-002 2.49999994e-003
      1.24999993e-002 7.49999983e-003 7.49999983e-003 2.49999994e-003
      4.99999989e-003 0. 7.49999983e-003 7.49999983e-003 2.49999994e-003
      7.49999983e-003 4.99999989e-003 7.49999983e-003 2.49999994e-003
      4.99999989e-003 7.49999983e-003 4.99999989e-003 7.49999983e-003
      7.49999983e-003 4.99999989e-003 9.99999978e-003 9.99999978e-003
      7.49999983e-003 2.49999994e-003 1.24999993e-002 2.49999994e-003
      4.99999989e-003 0. 2.49999994e-003 2.49999994e-003 9.99999978e-003
      4.99999989e-003 7.49999983e-003 0.</_>
    <_>
      5.49450563e-003 0. 1.64835174e-002 0. 5.49450563e-003
      5.49450563e-003 5.49450563e-003 1.64835174e-002 0. 5.49450563e-003
      1.09890113e-002 5.49450563e-003 5.49450563e-003 2.74725277e-002
      1.09890113e-002 5.49450563e-003 0. 5.49450563e-003 0. 0.
      5.49450563e-003 1.64835174e-002 5.49450563e-003 0. 0. 0.
      1.09890113e-002 1.09890113e-002 5.49450563e-003 2.19780225e-002
      5.49450563e-003 1.09890113e-002 1.64835174e-002 0. 0.
      5.49450563e-003 0. 1.09890113e-002 0. 5.49450563e-003
      1.64835174e-002 5.49450563e-003 1.09890113e-002 2.19780225e-002
      1.09890113e-002 1.09890113e-002 1.64835174e-002 0. 0.
      2.19780225e-002 5.49450563e-003 1.09890113e-002 1.09890113e-002 0.
      0. 5.49450563e-003 1.09890113e-002 1.09890113e-002 5.49450563e-003
      5.49450563e-003 0. 5.49450563e-003 5.49450563e-003 0.
      2.19780225e-002 1.64835174e-002 1.64835174e-002 5.49450563e-003 0.
      3.84615399e-002 0. 1.09890113e-002 0. 1.09890113e-002
      2.74725277e-002 5.49450563e-003 5.49450563e-003 5.49450563e-003 0.
      0. 1.09890113e-002 0. 5.49450563e-003 0. 0. 5.49450563e-003
      1.64835174e-002 0. 0. 0. 0. 1.64835174e-002 5.49450563e-003
      5.49450563e-003 5.49450563e-003 5.49450563e-003 0. 1.64835174e-002
      0. 1.64835174e-002 0. 1.64835174e-002 1.64835174e-002
      5.49450563e-003 5.49450563e-003 0. 5.49450563e-003 0.
      5.49450563e-003 0. 5.49450563e-003 5.49450563e-003 0. 0.
      5.49450563e-003 0. 5.49450563e-003 0. 5.49450563e-003
      5.49450563e-003 5.49450563e-003 0. 1.09890113e-002 1.64835174e-002
      5.49450563e-003 5.49450563e-003 1.64835174e-002 0. 5.49450563e-003
      1.09890113e-002 0. 0. 1.09890113e-002 2.19780225e-002
      5.49450563e-003 0. 0. 1.64835174e-002 5.49450563e-003 0.
      5.49450563e-003 5.49450563e-003 1.09890113e-002 0. 5.49450563e-003
      5.49450563e-003 0. 5.49450563e-003 5.49450563e-003 0.</_>
    <_>
      4.09836043e-003 0. 2.45901626e-002 4.09836043e-003 0.
      8.19672085e-003 4.09836043e-003 1.63934417e-002 4.09836043e-003 0.
      4.09836043e-003 0. 4.09836043e-003 2.04918012e-002 0.
      8.19672085e-003 4.09836043e-003 8.19672085e-003 4.09836043e-003
      2.04918012e-002 8.19672085e-003 0. 4.09836043e-003 4.09836043e-003
      1.63934417e-002 0. 4.09836043e-003 1.22950813e-002 1.22950813e-002
      0. 0. 0. 8.19672085e-003 0. 4.09836043e-003 4.09836043e-003 0.
      8.19672085e-003 4.09836043e-003 4.09836043e-003 1.22950813e-002
      4.09836043e-003 4.09836043e-003 8.19672085e-003 1.63934417e-002
      8.19672085e-003 8.19672085e-003 4.09836043e-003 1.63934417e-002
      4.09836043e-003 8.19672085e-003 1.22950813e-002 8.19672085e-003
      4.09836043e-003 1.22950813e-002 8.19672085e-003 0. 4.09836043e-003
      4.09836043e-003 0. 4.09836043e-003 8.19672085e-003 2.04918012e-002
      1.63934417e-002 1.22950813e-002 8.19672085e-003 0. 4.09836043e-003
      4.09836043e-003 8.19672085e-003 1.22950813e-002 1.22950813e-002
      8.19672085e-003 0. 4.09836043e-003 1.22950813e-002 1.63934417e-002
      4.09836043e-003 1.22950813e-002 4.09836043e-003 4.09836043e-003
      8.19672085e-003 0. 0. 1.22950813e-002 4.09836043e-003 0.
      8.19672085e-003 4.09836043e-003 0. 8.19672085e-003 1.63934417e-002
      4.09836043e-003 8.19672085e-003 1.22950813e-002 1.63934417e-002
      4.09836043e-003 1.63934417e-002 4.09836043e-003 4.09836043e-003
      1.63934417e-002 8.19672085e-003 4.09836043e-003 8.19672085e-003
      1.22950813e-002 4.09836043e-003 8.19672085e-003 0. 8.19672085e-003
      0. 4.09836043e-003 8.19672085e-003 8.19672085e-003 4.09836043e-003
      8.19672085e-003 4.09836043e-003 1.63934417e-002 2.86885239e-002 0.
      0. 8.19672085e-003 1.22950813e-002 4.09836043e-003 8.19672085e-003
      8.19672085e-003 4.09836043e-003 8.19672085e-003 8.19672085e-003 0.
      8.19672085e-003 4.09836043e-003 4.09836043e-003 0. 0.
      4.09836043e-003 4.09836043e-003 0. 0. 4.09836043e-003
      1.22950813e-002 4.09836043e-003 8.19672085e-003 0. 8.19672085e-003
      0. 1.22950813e-002 8.19672085e-003 0. 4.09836043e-003
      1.22950813e-002</_>
    <_>
      1.29310340e-002 8.62068962e-003 8.62068962e-003 2.15517241e-003
      6.46551698e-003 2.15517241e-003 6.46551698e-003 1.72413792e-002
      4.31034481e-003 2.37068962e-002 1.07758623e-002 2.15517241e-003 0.
      1.07758623e-002 2.15517241e-003 8.62068962e-003 6.46551698e-003
      4.31034481e-003 4.31034481e-003 8.62068962e-003 6.46551698e-003
      6.46551698e-003 1.07758623e-002 2.15517241e-003 6.46551698e-003
      4.31034481e-003 4.31034481e-003 6.46551698e-003 1.50862066e-002
      1.29310340e-002 6.46551698e-003 0. 1.50862066e-002 8.62068962e-003
      1.07758623e-002 0. 4.31034481e-003 4.31034481e-003 0.
      2.15517241e-003 4.31034481e-003 8.62068962e-003 4.31034481e-003
      8.62068962e-003 4.31034481e-003 0. 4.31034481e-003 1.07758623e-002
      6.46551698e-003 6.46551698e-003 4.31034481e-003 4.31034481e-003
      8.62068962e-003 2.15517241e-003 6.46551698e-003 0. 2.15517241e-003
      4.31034481e-003 2.15517241e-003 1.29310340e-002 6.46551698e-003
      4.31034481e-003 2.15517241e-003 4.31034481e-003 4.31034481e-003
      1.07758623e-002 1.29310340e-002 1.29310340e-002 1.29310340e-002
      4.31034481e-003 8.62068962e-003 6.46551698e-003 8.62068962e-003
      8.62068962e-003 1.29310340e-002 6.46551698e-003 8.62068962e-003
      4.31034481e-003 6.46551698e-003 8.62068962e-003 1.50862066e-002
      1.07758623e-002 6.46551698e-003 6.46551698e-003 8.62068962e-003
      1.07758623e-002 8.62068962e-003 6.46551698e-003 1.07758623e-002
      1.07758623e-002 6.46551698e-003 2.15517241e-003 1.29310340e-002 0.
      4.31034481e-003 4.31034481e-003 4.31034481e-003 4.31034481e-003
      6.46551698e-003 0. 2.15517241e-003 6.46551698e-003 6.46551698e-003
      8.62068962e-003 2.15517241e-003 6.46551698e-003 2.15517241e-003 0.
      8.62068962e-003 2.15517241e-003 6.46551698e-003 1.07758623e-002
      4.31034481e-003 0. 0. 4.31034481e-003 8.62068962e-003
      2.80172415e-002 6.46551698e-003 4.31034481e-003 4.31034481e-003
      4.31034481e-003 6.46551698e-003 2.15517241e-003 6.46551698e-003
      1.07758623e-002 1.50862066e-002 6.46551698e-003 1.29310340e-002
      6.46551698e-003 4.31034481e-003 6.46551698e-003 4.31034481e-003
      8.62068962e-003 6.46551698e-003 0. 8.62068962e-003 2.15517241e-003
      2.15517241e-003 8.62068962e-003 2.15517241e-003 0. 2.15517241e-003
      1.93965510e-002 2.15517241e-003 1.29310340e-002 1.07758623e-002
      8.62068962e-003 4.31034481e-003 1.29310340e-002</_>
    <_>
      1.21951215e-002 0. 1.21951215e-002 0. 9.14634112e-003
      3.04878037e-003 3.04878037e-003 6.09756075e-003 0. 2.13414617e-002
      3.04878037e-003 1.82926822e-002 6.09756075e-003 6.09756075e-003
      6.09756075e-003 6.09756075e-003 0. 3.04878037e-003 6.09756075e-003
      0. 6.09756075e-003 0. 6.09756075e-003 9.14634112e-003
      6.09756075e-003 3.04878037e-003 1.21951215e-002 6.09756075e-003
      6.09756075e-003 0. 0. 3.04878037e-003 1.82926822e-002
      6.09756075e-003 6.09756075e-003 6.09756075e-003 1.21951215e-002
      3.04878037e-003 0. 3.04878037e-003 3.04878037e-003 9.14634112e-003
      1.21951215e-002 3.04878037e-003 0. 6.09756075e-003 0.
      9.14634112e-003 0. 6.09756075e-003 6.09756075e-003 1.52439019e-002
      3.04878037e-003 6.09756075e-003 3.04878037e-003 9.14634112e-003
      3.04878037e-003 9.14634112e-003 0. 6.09756075e-003 1.21951215e-002
      6.09756075e-003 6.09756075e-003 0. 1.21951215e-002 1.82926822e-002
      3.04878037e-003 3.04878037e-003 6.09756075e-003 0. 3.04878037e-003
      6.09756075e-003 1.21951215e-002 6.09756075e-003 3.04878037e-003
      3.04878037e-003 1.21951215e-002 0. 0. 3.04878037e-003
      1.82926822e-002 1.52439019e-002 9.14634112e-003 1.21951215e-002
      6.09756075e-003 3.04878037e-003 3.04878037e-003 0. 0.
      3.04878037e-003 3.04878037e-003 9.14634112e-003 9.14634112e-003
      3.04878037e-003 9.14634112e-003 3.04878037e-003 2.13414617e-002
      3.04878037e-003 3.04878037e-003 9.14634112e-003 3.04878037e-003
      6.09756075e-003 1.21951215e-002 9.14634112e-003 0. 1.21951215e-002
      0. 2.13414617e-002 3.04878037e-003 2.13414617e-002 9.14634112e-003
      0. 1.21951215e-002 0. 0. 3.04878037e-003 1.52439019e-002
      3.04878037e-003 1.82926822e-002 9.14634112e-003 3.04878037e-003 0.
      0. 0. 6.09756075e-003 3.04878037e-003 1.52439019e-002
      3.04878037e-003 6.09756075e-003 6.09756075e-003 1.82926822e-002 0.
      3.04878037e-003 1.21951215e-002 1.82926822e-002 2.13414617e-002
      1.21951215e-002 3.04878037e-003 6.09756075e-003 9.14634112e-003
      9.14634112e-003 1.82926822e-002 3.04878037e-003 0. 2.13414617e-002
      6.09756075e-003 6.09756075e-003 9.14634112e-003 6.09756075e-003
      1.21951215e-002</_>
    <_>
      1.25786159e-002 0. 1.25786159e-002 6.28930796e-003 6.28930796e-003
      1.88679248e-002 6.28930796e-003 0. 6.28930796e-003 6.28930796e-003
      0. 0. 0. 0. 0. 1.25786159e-002 6.28930796e-003 0. 1.25786159e-002
      2.51572318e-002 6.28930796e-003 1.25786159e-002 6.28930796e-003
      1.25786159e-002 2.51572318e-002 0. 6.28930796e-003 6.28930796e-003
      0. 2.51572318e-002 0. 1.25786159e-002 6.28930796e-003 0. 0.
      2.51572318e-002 6.28930796e-003 0. 0. 0. 1.25786159e-002
      6.28930796e-003 0. 6.28930796e-003 0. 1.88679248e-002 0.
      1.25786159e-002 1.25786159e-002 1.25786159e-002 1.88679248e-002
      6.28930796e-003 6.28930796e-003 0. 6.28930796e-003 6.28930796e-003
      6.28930796e-003 0. 6.28930796e-003 0. 0. 6.28930796e-003 0. 0.
      1.25786159e-002 0. 1.88679248e-002 6.28930796e-003 1.25786159e-002
      0. 6.28930796e-003 6.28930796e-003 6.28930796e-003 0. 0. 0.
      1.25786159e-002 0. 2.51572318e-002 1.25786159e-002 1.88679248e-002
      0. 0. 0. 1.88679248e-002 0. 1.25786159e-002 0. 6.28930796e-003
      1.25786159e-002 0. 0. 6.28930796e-003 1.88679248e-002
      6.28930796e-003 0. 1.25786159e-002 0. 0. 0. 6.28930796e-003 0. 0.
      2.51572318e-002 0. 6.28930796e-003 1.25786159e-002 6.28930796e-003
      6.28930796e-003 0. 0. 6.28930796e-003 0. 6.28930796e-003 0.
      1.25786159e-002 0. 1.25786159e-002 2.51572318e-002 6.28930796e-003
      6.28930796e-003 6.28930796e-003 0. 1.25786159e-002 1.25786159e-002
      2.51572318e-002 6.28930796e-003 6.28930796e-003 0. 1.25786159e-002
      1.25786159e-002 1.88679248e-002 0. 0. 1.25786159e-002
      6.28930796e-003 6.28930796e-003 0. 1.88679248e-002 1.25786159e-002
      0. 0. 0. 1.25786159e-002 0. 0. 6.28930796e-003 6.28930796e-003 0.
      6.28930796e-003</_>
    <_>
      1.20000001e-002 1.60000008e-002 4.00000019e-003 0. 1.20000001e-002
      0. 8.00000038e-003 4.00000019e-003 8.00000038e-003 8.00000038e-003
      0. 4.00000019e-003 8.00000038e-003 1.20000001e-002 0.
      1.60000008e-002 0. 4.00000019e-003 4.00000019e-003 4.00000019e-003
      8.00000038e-003 8.00000038e-003 8.00000038e-003 0. 8.00000038e-003
      8.00000038e-003 8.00000038e-003 1.20000001e-002 8.00000038e-003
      2.80000009e-002 4.00000019e-003 8.00000038e-003 1.20000001e-002 0.
      8.00000038e-003 0. 8.00000038e-003 1.20000001e-002 0.
      4.00000019e-003 1.20000001e-002 8.00000038e-003 1.20000001e-002
      4.00000019e-003 8.00000038e-003 8.00000038e-003 1.20000001e-002 0.
      4.00000019e-003 0. 0. 1.20000001e-002 1.20000001e-002 0. 0. 0.
      1.60000008e-002 8.00000038e-003 0. 8.00000038e-003 4.00000019e-003
      8.00000038e-003 4.00000019e-003 0. 8.00000038e-003 8.00000038e-003
      4.00000019e-003 4.00000019e-003 1.20000001e-002 3.20000015e-002
      8.00000038e-003 8.00000038e-003 0. 4.00000019e-003 1.20000001e-002
      4.00000019e-003 4.00000019e-003 0. 0. 0. 8.00000038e-003
      1.20000001e-002 4.00000019e-003 0. 0. 0. 8.00000038e-003
      4.00000019e-003 0. 2.00000014e-002 0. 8.00000038e-003
      1.60000008e-002 1.20000001e-002 8.00000038e-003 4.00000019e-003
      4.00000019e-003 8.00000038e-003 0. 1.20000001e-002 4.00000019e-003
      8.00000038e-003 1.20000001e-002 4.00000019e-003 1.20000001e-002
      4.00000019e-003 4.00000019e-003 4.00000019e-003 8.00000038e-003
      4.00000019e-003 4.00000019e-003 4.00000019e-003 1.60000008e-002
      4.00000019e-003 4.00000019e-003 1.20000001e-002 4.00000019e-003
      4.00000019e-003 2.00000014e-002 8.00000038e-003 0. 0.
      4.00000019e-003 4.00000019e-003 4.00000019e-003 0. 1.60000008e-002
      1.20000001e-002 1.20000001e-002 0. 4.00000019e-003 8.00000038e-003
      1.20000001e-002 8.00000038e-003 4.00000019e-003 2.40000002e-002 0.
      4.00000019e-003 0. 4.00000019e-003 2.00000014e-002 8.00000038e-003
      8.00000038e-003 8.00000038e-003 4.00000019e-003 8.00000038e-003
      1.20000001e-002 0. 4.00000019e-003 1.20000001e-002</_>
    <_>
      2.43902439e-003 9.75609757e-003 1.70731712e-002 2.43902439e-003
      9.75609757e-003 9.75609757e-003 0. 1.21951215e-002 4.87804879e-003
      4.87804879e-003 4.87804879e-003 9.75609757e-003 9.75609757e-003
      9.75609757e-003 7.31707318e-003 1.21951215e-002 7.31707318e-003
      7.31707318e-003 2.43902439e-003 9.75609757e-003 1.21951215e-002
      2.19512191e-002 4.87804879e-003 7.31707318e-003 7.31707318e-003 0.
      4.87804879e-003 0. 4.87804879e-003 4.87804879e-003 0.
      2.43902439e-003 4.87804879e-003 4.87804879e-003 4.87804879e-003 0.
      9.75609757e-003 7.31707318e-003 2.43902439e-003 9.75609757e-003
      4.87804879e-003 1.46341464e-002 7.31707318e-003 4.87804879e-003
      4.87804879e-003 4.87804879e-003 4.87804879e-003 2.43902439e-003
      9.75609757e-003 4.87804879e-003 1.46341464e-002 4.87804879e-003
      4.87804879e-003 1.21951215e-002 7.31707318e-003 2.43902439e-003
      7.31707318e-003 1.46341464e-002 2.43902439e-003 0. 4.87804879e-003
      2.43902439e-003 9.75609757e-003 1.70731712e-002 7.31707318e-003
      2.43902439e-003 4.87804879e-003 4.87804879e-003 1.95121951e-002
      1.46341464e-002 0. 1.21951215e-002 2.43902439e-003 4.87804879e-003
      0. 4.87804879e-003 1.70731712e-002 2.43902439e-003 2.43902439e-003
      4.87804879e-003 2.43902439e-003 7.31707318e-003 4.87804879e-003
      9.75609757e-003 4.87804879e-003 9.75609757e-003 4.87804879e-003
      1.95121951e-002 4.87804879e-003 7.31707318e-003 4.87804879e-003
      9.75609757e-003 4.87804879e-003 4.87804879e-003 2.43902439e-003
      2.43902439e-003 2.43902439e-003 1.21951215e-002 9.75609757e-003
      1.46341464e-002 7.31707318e-003 1.46341464e-002 9.75609757e-003
      4.87804879e-003 9.75609757e-003 0. 2.43902439e-003 7.31707318e-003
      1.21951215e-002 0. 4.87804879e-003 1.21951215e-002 2.43902439e-003
      7.31707318e-003 7.31707318e-003 2.43902439e-003 1.70731712e-002
      7.31707318e-003 2.43902439e-003 4.87804879e-003 2.43902439e-003
      1.46341464e-002 4.87804879e-003 1.21951215e-002 9.75609757e-003 0.
      4.87804879e-003 0. 4.87804879e-003 0. 1.21951215e-002
      4.87804879e-003 1.21951215e-002 1.46341464e-002 2.43902439e-003
      2.43902439e-003 4.87804879e-003 9.75609757e-003 7.31707318e-003
      4.87804879e-003 2.43902439e-003 1.70731712e-002 0. 2.43902439e-003
      4.87804879e-003 4.87804879e-003 2.43902439e-003 4.87804879e-003
      2.43902439e-003 7.31707318e-003</_>
    <_>
      1.99600798e-003 3.99201596e-003 1.59680638e-002 5.98802418e-003
      5.98802418e-003 9.98003967e-003 3.99201596e-003 7.98403192e-003 0.
      1.79640725e-002 0. 5.98802418e-003 3.99201596e-003 7.98403192e-003
      0. 3.99201596e-003 0. 5.98802418e-003 3.99201596e-003
      1.99600798e-003 7.98403192e-003 3.99201596e-003 5.98802418e-003
      7.98403192e-003 3.99201596e-003 3.99201596e-003 7.98403192e-003
      3.99201596e-003 9.98003967e-003 5.98802418e-003 1.59680638e-002
      1.39720561e-002 9.98003967e-003 5.98802418e-003 3.99201596e-003
      1.99600798e-003 1.39720561e-002 7.98403192e-003 1.99600798e-003
      1.99600798e-003 1.59680638e-002 1.99600798e-003 9.98003967e-003
      1.99600798e-003 3.99201596e-003 7.98403192e-003 1.99600798e-003
      1.19760484e-002 5.98802418e-003 1.59680638e-002 1.99600798e-003
      9.98003967e-003 7.98403192e-003 1.99600798e-003 1.19760484e-002
      1.99600798e-003 9.98003967e-003 3.99201596e-003 5.98802418e-003
      1.19760484e-002 1.19760484e-002 3.99201596e-003 7.98403192e-003 0.
      1.99600798e-003 1.39720561e-002 5.98802418e-003 3.99201596e-003
      1.19760484e-002 1.79640725e-002 3.99201596e-003 3.99201596e-003
      1.19760484e-002 0. 3.99201596e-003 1.99600798e-003 3.99201596e-003
      3.99201596e-003 7.98403192e-003 3.99201596e-003 9.98003967e-003
      9.98003967e-003 7.98403192e-003 1.99600798e-003 1.59680638e-002
      3.99201596e-003 7.98403192e-003 1.99600798e-003 1.59680638e-002
      1.99600798e-003 1.39720561e-002 7.98403192e-003 1.99600798e-003
      1.99600793e-002 5.98802418e-003 3.99201596e-003 5.98802418e-003
      5.98802418e-003 3.99201596e-003 7.98403192e-003 3.99201596e-003
      3.99201596e-003 0. 5.98802418e-003 5.98802418e-003 3.99201596e-003
      1.19760484e-002 1.59680638e-002 1.99600798e-003 5.98802418e-003
      1.79640725e-002 7.98403192e-003 1.99600798e-003 7.98403192e-003
      7.98403192e-003 5.98802418e-003 3.99201596e-003 1.59680638e-002
      9.98003967e-003 3.99201596e-003 3.99201596e-003 3.99201596e-003
      1.99600798e-003 1.99600798e-003 5.98802418e-003 3.99201596e-003
      1.99600798e-003 7.98403192e-003 5.98802418e-003 1.99600798e-003
      3.99201596e-003 3.99201596e-003 1.99600793e-002 9.98003967e-003
      1.99600798e-003 3.19361277e-002 1.99600798e-003 5.98802418e-003
      1.99600798e-003 5.98802418e-003 3.99201596e-003 1.19760484e-002
      3.99201596e-003 3.99201596e-003 1.99600798e-003 1.99600798e-003
      7.98403192e-003 3.99201596e-003 5.98802418e-003 7.98403192e-003</_>
    <_>
      4.95049497e-003 4.95049497e-003 0. 4.95049497e-003 0.
      9.90098994e-003 4.95049497e-003 9.90098994e-003 0. 4.95049497e-003
      4.95049497e-003 4.95049497e-003 9.90098994e-003 2.97029689e-002 0.
      1.98019799e-002 0. 4.95049497e-003 0. 1.48514844e-002 0.
      9.90098994e-003 4.95049497e-003 0. 4.95049497e-003 0. 0.
      9.90098994e-003 0. 4.95049497e-003 4.95049497e-003 0.
      2.47524753e-002 4.95049497e-003 9.90098994e-003 9.90098994e-003 0.
      1.48514844e-002 4.95049497e-003 0. 4.95049497e-003 9.90098994e-003
      1.48514844e-002 1.98019799e-002 4.95049497e-003 1.48514844e-002
      9.90098994e-003 0. 9.90098994e-003 1.48514844e-002 0. 0.
      1.98019799e-002 1.48514844e-002 0. 0. 0. 0. 4.95049497e-003
      9.90098994e-003 9.90098994e-003 0. 9.90098994e-003 0.
      4.95049497e-003 1.98019799e-002 0. 0. 0. 1.48514844e-002 0. 0. 0.
      0. 1.48514844e-002 1.48514844e-002 0. 0. 0. 0. 9.90098994e-003 0.
      4.95049497e-003 4.95049497e-003 1.98019799e-002 9.90098994e-003
      4.95049497e-003 0. 9.90098994e-003 4.95049497e-003 0.
      4.95049497e-003 4.95049497e-003 0. 1.98019799e-002 1.48514844e-002
      9.90098994e-003 4.95049497e-003 9.90098994e-003 9.90098994e-003 0.
      1.98019799e-002 1.48514844e-002 0. 0. 4.95049497e-003
      4.95049497e-003 0. 9.90098994e-003 0. 1.48514844e-002
      1.48514844e-002 0. 0. 2.47524753e-002 4.95049497e-003
      9.90098994e-003 9.90098994e-003 4.95049497e-003 4.95049497e-003
      4.95049497e-003 4.95049497e-003 4.95049497e-003 9.90098994e-003
      9.90098994e-003 1.48514844e-002 2.97029689e-002 0. 0. 0.
      9.90098994e-003 1.98019799e-002 1.48514844e-002 0. 4.95049497e-003
      4.95049497e-003 4.95049497e-003 0. 0. 1.48514844e-002 0. 0. 0.
      4.95049497e-003 4.95049497e-003 9.90098994e-003 1.98019799e-002
      1.48514844e-002 4.95049497e-003 9.90098994e-003</_>
    <_>
      1.09409187e-002 8.75273533e-003 8.75273533e-003 4.37636767e-003
      6.56455150e-003 4.37636767e-003 8.75273533e-003 2.18818383e-003
      2.18818383e-003 6.56455150e-003 8.75273533e-003 4.37636767e-003
      8.75273533e-003 8.75273533e-003 6.56455150e-003 6.56455150e-003
      6.56455150e-003 1.31291030e-002 2.18818383e-003 4.37636767e-003 0.
      4.37636767e-003 0. 4.37636767e-003 1.31291030e-002 0.
      6.56455150e-003 4.37636767e-003 4.37636767e-003 0. 6.56455150e-003
      1.31291030e-002 6.56455150e-003 8.75273533e-003 8.75273533e-003
      1.09409187e-002 0. 6.56455150e-003 6.56455150e-003 6.56455150e-003
      6.56455150e-003 8.75273533e-003 4.37636767e-003 8.75273533e-003
      4.37636767e-003 4.37636767e-003 8.75273533e-003 6.56455150e-003
      8.75273533e-003 4.37636767e-003 4.37636767e-003 8.75273533e-003
      8.75273533e-003 1.31291030e-002 2.18818383e-003 6.56455150e-003
      4.37636767e-003 1.09409187e-002 2.18818383e-003 0. 1.09409187e-002
      8.75273533e-003 1.09409187e-002 6.56455150e-003 1.09409187e-002
      1.09409187e-002 6.56455150e-003 8.75273533e-003 6.56455150e-003
      6.56455150e-003 6.56455150e-003 4.37636767e-003 2.18818383e-003
      2.18818383e-003 4.37636767e-003 1.09409187e-002 4.37636767e-003
      4.37636767e-003 8.75273533e-003 2.18818383e-003 2.18818383e-003
      8.75273533e-003 6.56455150e-003 4.37636767e-003 1.09409187e-002
      4.37636767e-003 1.09409187e-002 1.09409187e-002 1.31291030e-002
      1.53172873e-002 2.18818383e-003 6.56455150e-003 4.37636767e-003
      6.56455150e-003 6.56455150e-003 6.56455150e-003 4.37636767e-003
      1.09409187e-002 8.75273533e-003 6.56455150e-003 1.09409187e-002
      4.37636767e-003 2.18818383e-003 8.75273533e-003 8.75273533e-003 0.
      2.18818383e-003 1.96936540e-002 6.56455150e-003 0. 2.18818383e-003
      1.09409187e-002 6.56455150e-003 2.18818383e-003 6.56455150e-003
      8.75273533e-003 0. 8.75273533e-003 4.37636767e-003 2.18818383e-003
      4.37636767e-003 4.37636767e-003 4.37636767e-003 1.09409187e-002
      6.56455150e-003 2.18818383e-003 4.37636767e-003 6.56455150e-003
      2.18818383e-003 6.56455150e-003 6.56455150e-003 4.37636767e-003
      1.09409187e-002 1.53172873e-002 4.37636767e-003 6.56455150e-003
      6.56455150e-003 2.18818383e-003 4.37636767e-003 1.31291030e-002
      1.31291030e-002 1.31291030e-002 1.09409187e-002 1.75054707e-002
      2.18818383e-003 8.75273533e-003 1.09409187e-002 8.75273533e-003
      4.37636767e-003 6.56455150e-003</_>
    <_>
      3.81679391e-003 0. 7.63358781e-003 7.63358781e-003 3.81679391e-003
      7.63358781e-003 0. 1.14503819e-002 0. 1.14503819e-002 0.
      7.63358781e-003 1.14503819e-002 3.81679391e-003 0. 3.81679391e-003
      1.14503819e-002 7.63358781e-003 1.14503819e-002 3.81679391e-003
      3.81679391e-003 2.29007639e-002 0. 7.63358781e-003 3.81679391e-003
      0. 7.63358781e-003 3.81679391e-003 0. 1.52671756e-002
      3.81679391e-003 0. 1.52671756e-002 3.81679391e-003 0.
      3.81679391e-003 0. 7.63358781e-003 1.14503819e-002 3.81679391e-003
      1.52671756e-002 1.52671756e-002 2.29007639e-002 0. 3.81679391e-003
      1.14503819e-002 1.14503819e-002 0. 3.81679391e-003 7.63358781e-003
      2.29007639e-002 0. 1.14503819e-002 1.14503819e-002 1.52671756e-002
      1.52671756e-002 0. 3.81679391e-003 0. 0. 0. 7.63358781e-003
      7.63358781e-003 0. 3.81679391e-003 2.67175566e-002 7.63358781e-003
      3.81679391e-003 0. 2.67175566e-002 3.81679391e-003 0. 0.
      3.81679391e-003 1.14503819e-002 3.81679391e-003 1.14503819e-002 0.
      0. 1.14503819e-002 1.14503819e-002 7.63358781e-003 7.63358781e-003
      1.14503819e-002 7.63358781e-003 1.14503819e-002 3.81679391e-003 0.
      3.81679391e-003 7.63358781e-003 0. 0. 1.14503819e-002
      7.63358781e-003 3.81679391e-003 1.14503819e-002 0. 2.29007639e-002
      7.63358781e-003 1.90839693e-002 0. 3.81679391e-003 1.14503819e-002
      0. 3.81679391e-003 3.81679391e-003 0. 0. 1.14503819e-002 0.
      1.14503819e-002 1.90839693e-002 3.81679391e-003 3.81679391e-003
      3.81679391e-003 3.81679391e-003 0. 1.14503819e-002 0. 0.
      7.63358781e-003 0. 3.81679391e-003 0. 1.14503819e-002
      3.81679391e-003 1.14503819e-002 3.81679391e-003 7.63358781e-003
      1.14503819e-002 3.81679391e-003 3.81679391e-003 3.43511440e-002
      7.63358781e-003 0. 1.14503819e-002 7.63358781e-003 0.
      1.52671756e-002 7.63358781e-003 7.63358781e-003 1.90839693e-002 0.
      3.81679391e-003 7.63358781e-003 7.63358781e-003 0. 1.52671756e-002
      7.63358781e-003 0.</_>
    <_>
      0. 0. 3.14465398e-003 3.14465398e-003 0. 1.25786159e-002
      6.28930796e-003 0. 6.28930796e-003 9.43396240e-003 6.28930796e-003
      1.88679248e-002 1.25786159e-002 6.28930796e-003 3.14465398e-003
      1.57232694e-002 0. 3.14465398e-003 9.43396240e-003 2.20125783e-002
      3.14465398e-003 6.28930796e-003 1.57232694e-002 3.14465398e-003
      9.43396240e-003 3.14465398e-003 9.43396240e-003 0. 6.28930796e-003
      1.88679248e-002 3.14465398e-003 9.43396240e-003 2.20125783e-002
      1.25786159e-002 3.14465398e-003 6.28930796e-003 0. 6.28930796e-003
      6.28930796e-003 0. 3.14465398e-003 3.14465398e-003 6.28930796e-003
      3.14465398e-003 0. 3.14465398e-003 3.14465398e-003 3.14465398e-003
      3.14465398e-003 6.28930796e-003 1.88679248e-002 3.14465398e-003
      9.43396240e-003 6.28930796e-003 1.25786159e-002 1.25786159e-002
      3.14465398e-003 9.43396240e-003 3.14465398e-003 0. 1.57232694e-002
      6.28930796e-003 9.43396240e-003 2.20125783e-002 1.57232694e-002
      6.28930796e-003 0. 3.14465398e-003 3.14465398e-003 1.25786159e-002
      3.14465398e-003 9.43396240e-003 9.43396240e-003 0. 6.28930796e-003
      6.28930796e-003 0. 0. 3.14465398e-003 6.28930796e-003
      6.28930796e-003 3.14465398e-003 3.14465398e-003 6.28930796e-003
      9.43396240e-003 3.14465398e-003 9.43396240e-003 3.14465398e-003
      3.14465398e-003 0. 3.14465398e-003 3.14465398e-003 3.14465398e-003
      3.14465398e-003 1.25786159e-002 3.14465398e-003 0. 1.25786159e-002
      6.28930796e-003 1.88679248e-002 6.28930796e-003 2.51572318e-002 0.
      6.28930796e-003 6.28930796e-003 3.14465398e-003 6.28930796e-003
      6.28930777e-002 3.14465398e-003 3.14465398e-003 0. 6.28930796e-003
      6.28930796e-003 6.28930796e-003 9.43396240e-003 3.14465398e-003
      3.14465398e-003 2.51572318e-002 9.43396240e-003 3.14465398e-003 0.
      3.14465398e-003 9.43396240e-003 3.14465398e-003 6.28930796e-003
      6.28930796e-003 1.88679248e-002 0. 3.14465398e-003 0.
      3.14465398e-003 1.57232694e-002 1.25786159e-002 6.28930796e-003 0.
      6.28930796e-003 6.28930796e-003 3.14465398e-003 3.14465398e-003 0.
      3.14465398e-003 6.28930796e-003 3.14465398e-003 6.28930796e-003
      6.28930796e-003 3.14465398e-003 6.28930796e-003 6.28930796e-003
      3.14465398e-003 6.28930796e-003</_>
    <_>
      0. 0. 1.10294120e-002 3.67647060e-003 3.67647060e-003
      1.83823537e-002 3.67647060e-003 7.35294120e-003 3.67647060e-003
      1.83823537e-002 7.35294120e-003 7.35294120e-003 0. 1.47058824e-002
      0. 1.10294120e-002 3.67647060e-003 1.10294120e-002 3.67647060e-003
      7.35294120e-003 3.67647060e-003 7.35294120e-003 1.47058824e-002
      3.67647060e-003 1.10294120e-002 3.67647060e-003 1.83823537e-002
      7.35294120e-003 0. 1.10294120e-002 1.47058824e-002 3.67647060e-003
      1.83823537e-002 3.67647060e-003 7.35294120e-003 0. 0.
      7.35294120e-003 1.10294120e-002 1.47058824e-002 3.67647060e-003
      3.67647060e-003 1.47058824e-002 1.47058824e-002 3.67647060e-003
      3.67647060e-003 1.10294120e-002 0. 7.35294120e-003 1.10294120e-002
      2.20588241e-002 3.67647060e-003 0. 1.10294120e-002 3.67647060e-003
      1.10294120e-002 0. 7.35294120e-003 3.67647060e-003 3.67647060e-003
      1.10294120e-002 3.67647060e-003 0. 7.35294120e-003 1.47058824e-002
      7.35294120e-003 7.35294120e-003 0. 1.10294120e-002 7.35294120e-003
      0. 1.10294120e-002 1.47058824e-002 1.10294120e-002 1.83823537e-002
      0. 0. 1.10294120e-002 3.67647060e-003 0. 0. 0. 1.10294120e-002
      7.35294120e-003 3.67647060e-003 0. 7.35294120e-003 3.67647060e-003
      3.67647060e-003 0. 7.35294120e-003 3.67647060e-003 3.67647060e-003
      2.94117648e-002 1.47058824e-002 7.35294120e-003 1.10294120e-002
      2.20588241e-002 1.10294120e-002 1.10294120e-002 7.35294120e-003 0.
      3.67647060e-003 7.35294120e-003 7.35294120e-003 3.67647060e-003 0.
      0. 0. 0. 1.83823537e-002 0. 1.10294120e-002 3.67647060e-003
      1.10294120e-002 1.10294120e-002 7.35294120e-003 1.83823537e-002 0.
      2.20588241e-002 3.67647060e-003 0. 7.35294120e-003 7.35294120e-003
      1.10294120e-002 3.67647060e-003 1.10294120e-002 3.67647060e-003
      7.35294120e-003 7.35294120e-003 0. 1.10294120e-002 7.35294120e-003
      7.35294120e-003 3.67647060e-003 0. 7.35294120e-003 0. 0. 0.
      7.35294120e-003 0. 0. 0. 0. 3.67647060e-003 1.10294120e-002 0.
      7.35294120e-003 3.67647060e-003</_>
    <_>
      1.42857144e-002 2.85714283e-003 8.57142825e-003 0. 1.14285713e-002
      2.85714283e-003 8.57142825e-003 0. 0. 1.99999996e-002
      1.14285713e-002 2.85714283e-003 2.85714283e-003 8.57142825e-003
      5.71428565e-003 2.85714283e-003 5.71428565e-003 5.71428565e-003
      8.57142825e-003 8.57142825e-003 0. 5.71428565e-003 8.57142825e-003
      5.71428565e-003 5.71428565e-003 5.71428565e-003 2.85714283e-003
      2.85714283e-003 5.71428565e-003 1.14285713e-002 5.71428565e-003
      2.85714283e-003 1.71428565e-002 1.14285713e-002 1.42857144e-002
      5.71428565e-003 8.57142825e-003 1.42857144e-002 2.85714283e-003
      8.57142825e-003 2.85714283e-003 0. 2.85714283e-003 1.14285713e-002
      2.85714283e-003 5.71428565e-003 1.14285713e-002 1.14285713e-002
      5.71428565e-003 8.57142825e-003 2.28571426e-002 8.57142825e-003
      8.57142825e-003 1.71428565e-002 8.57142825e-003 1.71428565e-002
      5.71428565e-003 2.85714283e-003 1.14285713e-002 8.57142825e-003
      1.14285713e-002 5.71428565e-003 0. 1.71428565e-002 8.57142825e-003
      1.99999996e-002 2.85714283e-003 2.85714283e-003 5.71428565e-003
      5.71428565e-003 2.85714283e-003 0. 0. 0. 5.71428565e-003
      8.57142825e-003 5.71428565e-003 0. 2.85714283e-003 2.85714283e-003
      0. 8.57142825e-003 5.71428565e-003 1.14285713e-002 1.14285713e-002
      8.57142825e-003 2.85714283e-003 2.85714283e-003 0. 2.85714283e-003
      2.85714283e-003 5.71428565e-003 1.42857144e-002 0. 1.14285713e-002
      0. 5.71428565e-003 5.71428565e-003 5.71428565e-003 0.
      2.85714283e-003 2.85714283e-003 1.14285713e-002 5.71428565e-003 0.
      2.85714283e-003 0. 2.85714283e-003 0. 5.71428565e-003
      2.85714283e-003 5.71428565e-003 2.85714283e-003 1.14285713e-002
      5.71428565e-003 0. 1.71428565e-002 2.28571426e-002 1.14285713e-002
      2.85714283e-003 2.85714283e-003 0. 8.57142825e-003 1.42857144e-002
      5.71428565e-003 1.14285713e-002 1.14285713e-002 8.57142825e-003
      5.71428565e-003 1.42857144e-002 0. 1.71428565e-002 1.71428565e-002
      8.57142825e-003 8.57142825e-003 8.57142825e-003 2.85714283e-003
      1.71428565e-002 2.85714283e-003 0. 5.71428565e-003 8.57142825e-003
      2.85714283e-003 1.14285713e-002 0. 2.85714283e-003 1.14285713e-002
      0. 8.57142825e-003 0.</_>
    <_>
      4.13223123e-003 0. 1.23966932e-002 0. 8.26446246e-003
      8.26446246e-003 1.23966932e-002 2.06611566e-002 0. 2.06611566e-002
      4.13223123e-003 8.26446246e-003 4.13223123e-003 2.89256182e-002
      4.13223123e-003 4.13223123e-003 8.26446246e-003 8.26446246e-003
      4.13223123e-003 1.23966932e-002 8.26446246e-003 4.13223123e-003
      4.13223123e-003 1.23966932e-002 2.06611566e-002 4.13223123e-003 0.
      0. 4.13223123e-003 2.06611566e-002 4.13223123e-003 1.23966932e-002
      1.65289249e-002 0. 8.26446246e-003 1.23966932e-002 1.65289249e-002
      4.13223123e-003 0. 1.23966932e-002 4.13223123e-003 1.65289249e-002
      0. 0. 4.13223123e-003 4.13223123e-003 4.13223123e-003
      4.13223123e-003 8.26446246e-003 4.13223123e-003 0. 4.13223123e-003
      4.13223123e-003 1.23966932e-002 4.13223123e-003 8.26446246e-003
      8.26446246e-003 8.26446246e-003 8.26446246e-003 0. 8.26446246e-003
      4.13223123e-003 0. 4.13223123e-003 4.13223123e-003 2.06611566e-002
      8.26446246e-003 4.13223123e-003 1.23966932e-002 8.26446246e-003
      8.26446246e-003 1.23966932e-002 8.26446246e-003 0. 0.
      2.47933865e-002 8.26446246e-003 0. 4.13223123e-003 1.23966932e-002
      0. 1.23966932e-002 1.65289249e-002 0. 4.13223123e-003 0.
      8.26446246e-003 1.23966932e-002 8.26446246e-003 0. 0.
      1.23966932e-002 8.26446246e-003 0. 4.13223123e-003 4.13223123e-003
      0. 4.13223123e-003 8.26446246e-003 4.13223123e-003 8.26446246e-003
      8.26446246e-003 4.13223123e-003 4.13223123e-003 0. 8.26446246e-003
      4.13223123e-003 0. 4.13223123e-003 0. 1.65289249e-002 0. 0.
      4.13223123e-003 1.65289249e-002 4.13223123e-003 8.26446246e-003
      3.30578499e-002 4.13223123e-003 0. 0. 0. 0. 0. 8.26446246e-003
      4.13223123e-003 1.65289249e-002 4.13223123e-003 0. 4.13223123e-003
      8.26446246e-003 8.26446246e-003 1.65289249e-002 0. 8.26446246e-003
      4.13223123e-003 1.23966932e-002 0. 8.26446246e-003 8.26446246e-003
      1.23966932e-002 0. 4.13223123e-003 8.26446246e-003 0. 0. 0. 0.
      1.65289249e-002 1.23966932e-002</_>
    <_>
      4.58715577e-003 1.37614673e-002 9.17431153e-003 0. 1.37614673e-002
      0. 9.17431153e-003 1.83486231e-002 9.17431153e-003 0.
      4.58715577e-003 9.17431153e-003 1.37614673e-002 4.58715577e-003
      4.58715577e-003 1.83486231e-002 4.58715577e-003 0. 0.
      9.17431153e-003 4.58715577e-003 1.37614673e-002 0. 4.58715577e-003
      0. 9.17431153e-003 4.58715577e-003 9.17431153e-003 0.
      1.37614673e-002 4.58715577e-003 0. 2.75229346e-002 1.37614673e-002
      1.83486231e-002 4.58715577e-003 0. 4.58715577e-003 0. 0.
      9.17431153e-003 4.58715577e-003 9.17431153e-003 9.17431153e-003
      9.17431153e-003 0. 0. 1.37614673e-002 4.58715577e-003
      4.58715577e-003 4.58715577e-003 4.58715577e-003 9.17431153e-003 0.
      0. 0. 9.17431153e-003 4.58715577e-003 9.17431153e-003
      9.17431153e-003 4.58715577e-003 9.17431153e-003 4.58715577e-003
      9.17431153e-003 9.17431153e-003 0. 4.58715577e-003 0.
      4.58715577e-003 2.29357779e-002 0. 4.58715577e-003 0.
      9.17431153e-003 4.58715577e-003 0. 0. 4.58715577e-003
      1.37614673e-002 4.58715577e-003 1.37614673e-002 9.17431153e-003
      4.58715577e-003 9.17431153e-003 0. 0. 1.37614673e-002
      4.58715577e-003 9.17431153e-003 9.17431153e-003 1.37614673e-002
      9.17431153e-003 4.58715577e-003 2.29357779e-002 9.17431153e-003
      4.58715577e-003 1.83486231e-002 1.83486231e-002 4.58715577e-003
      9.17431153e-003 0. 4.58715577e-003 0. 0. 4.58715577e-003 0. 0. 0.
      4.58715577e-003 1.37614673e-002 1.83486231e-002 1.83486231e-002
      4.58715577e-003 0. 2.29357779e-002 0. 4.58715577e-003
      9.17431153e-003 9.17431153e-003 1.83486231e-002 9.17431153e-003
      4.58715577e-003 4.58715577e-003 1.37614673e-002 4.58715577e-003
      4.58715577e-003 2.29357779e-002 4.58715577e-003 4.58715577e-003 0.
      0. 0. 4.58715577e-003 0. 4.58715577e-003 4.58715577e-003 0.
      9.17431153e-003 1.83486231e-002 0. 0. 4.58715577e-003
      9.17431153e-003 4.58715577e-003 4.58715577e-003 1.37614673e-002 0.
      9.17431153e-003 4.58715577e-003 9.17431153e-003</_>
    <_>
      0. 2.57069408e-003 7.71208201e-003 5.14138816e-003 0.
      1.02827763e-002 2.57069408e-003 1.02827763e-002 0. 1.28534706e-002
      0. 7.71208201e-003 1.02827763e-002 1.79948583e-002 0.
      2.57069408e-003 5.14138816e-003 1.02827763e-002 5.14138816e-003
      1.54241640e-002 2.05655526e-002 7.71208201e-003 1.54241640e-002
      7.71208201e-003 7.71208201e-003 2.57069408e-003 0. 2.57069408e-003
      2.57069408e-003 2.57069408e-003 0. 1.28534706e-002 1.54241640e-002
      0. 2.57069408e-003 2.57069408e-003 2.57069408e-003 5.14138816e-003
      1.28534706e-002 7.71208201e-003 7.71208201e-003 7.71208201e-003
      2.57069408e-003 2.57069408e-003 5.14138816e-003 7.71208201e-003
      7.71208201e-003 2.57069408e-003 5.14138816e-003 7.71208201e-003
      2.31362469e-002 2.57069408e-003 2.57069408e-003 5.14138816e-003 0.
      5.14138816e-003 0. 0. 2.57069408e-003 1.54241640e-002
      1.02827763e-002 2.57069408e-003 2.57069408e-003 1.79948583e-002
      2.31362469e-002 2.57069408e-003 1.02827763e-002 1.28534706e-002
      1.28534706e-002 1.02827763e-002 2.57069408e-003 7.71208201e-003 0.
      2.57069408e-003 1.79948583e-002 5.14138816e-003 2.57069408e-003
      7.71208201e-003 1.02827763e-002 0. 7.71208201e-003 1.02827763e-002
      1.79948583e-002 5.14138816e-003 1.02827763e-002 1.54241640e-002
      1.28534706e-002 2.05655526e-002 5.14138816e-003 5.14138816e-003
      1.28534706e-002 5.14138816e-003 1.28534706e-002 2.57069408e-003
      2.57069408e-003 2.57069408e-003 1.02827763e-002 5.14138816e-003
      7.71208201e-003 5.14138816e-003 7.71208201e-003 2.57069408e-003
      5.14138816e-003 5.14138816e-003 2.57069408e-003 0. 1.02827763e-002
      5.14138816e-003 5.14138816e-003 0. 1.02827763e-002 7.71208201e-003
      1.02827763e-002 7.71208201e-003 7.71208201e-003 7.71208201e-003
      1.02827763e-002 1.02827763e-002 2.57069408e-003 1.79948583e-002
      2.57069408e-003 1.02827763e-002 1.02827763e-002 0. 7.71208201e-003
      5.14138816e-003 1.02827763e-002 2.57069408e-003 7.71208201e-003
      7.71208201e-003 0. 7.71208201e-003 1.28534706e-002 0. 0.
      7.71208201e-003 1.28534706e-002 2.57069408e-003 2.57069408e-003
      2.57069408e-003 2.57069408e-003 1.02827763e-002 0. 5.14138816e-003
      0. 0. 0. 1.02827763e-002 7.71208201e-003 5.14138816e-003</_>
    <_>
      6.92041544e-003 6.92041544e-003 1.38408309e-002 0. 1.73010379e-002
      0. 0. 0. 6.92041544e-003 1.03806229e-002 6.92041544e-003
      1.03806229e-002 3.46020772e-003 1.03806229e-002 1.03806229e-002
      3.46020772e-003 0. 0. 1.03806229e-002 1.73010379e-002
      6.92041544e-003 3.46020772e-003 1.38408309e-002 6.92041544e-003
      6.92041544e-003 6.92041544e-003 3.46020772e-003 3.46020772e-003
      6.92041544e-003 1.38408309e-002 1.38408309e-002 1.03806229e-002
      2.76816618e-002 3.46020772e-003 6.92041544e-003 3.46020772e-003
      6.92041544e-003 3.46020772e-003 0. 1.03806229e-002 3.46020772e-003
      6.92041544e-003 3.46020772e-003 3.46020772e-003 0. 1.03806229e-002
      6.92041544e-003 3.46020772e-003 3.46020772e-003 1.03806229e-002
      2.76816618e-002 3.46020772e-003 1.03806229e-002 3.46020772e-003
      1.03806229e-002 0. 3.46020772e-003 6.92041544e-003 3.46020772e-003
      1.03806229e-002 3.46020772e-003 0. 6.92041544e-003 2.76816618e-002
      1.38408309e-002 2.42214538e-002 6.92041544e-003 1.38408309e-002
      3.46020772e-003 3.46020772e-003 6.92041544e-003 3.46020772e-003
      3.46020772e-003 6.92041544e-003 0. 6.92041544e-003 6.92041544e-003
      6.92041544e-003 6.92041544e-003 3.46020772e-003 1.03806229e-002
      1.38408309e-002 0. 6.92041544e-003 3.46020772e-003 6.92041544e-003
      1.38408309e-002 3.46020772e-003 1.03806229e-002 1.73010379e-002
      1.03806229e-002 3.46020772e-003 6.92041544e-003 0. 1.38408309e-002
      3.46020772e-003 0. 6.92041544e-003 0. 1.03806229e-002 0. 0.
      6.92041544e-003 0. 3.46020772e-003 3.46020772e-003 1.03806229e-002
      3.46020772e-003 6.92041544e-003 6.92041544e-003 6.92041544e-003 0.
      0. 3.46020772e-003 6.92041544e-003 0. 3.46020772e-003
      2.42214538e-002 6.92041544e-003 6.92041544e-003 1.38408309e-002
      3.46020772e-003 6.92041544e-003 6.92041544e-003 3.46020772e-003 0.
      2.42214538e-002 3.46020772e-003 0. 0. 6.92041544e-003
      6.92041544e-003 1.03806229e-002 3.46020772e-003 3.46020772e-003
      3.46020772e-003 3.46020772e-003 0. 6.92041544e-003 0.
      1.38408309e-002 1.03806229e-002 1.03806229e-002 3.46020772e-003 0.
      0. 1.03806229e-002 3.46020772e-003 1.03806229e-002 6.92041544e-003</_>
    <_>
      1.68776363e-002 8.43881816e-003 4.21940908e-003 1.26582272e-002
      4.21940908e-003 8.43881816e-003 0. 1.68776363e-002 0.
      1.26582272e-002 4.21940908e-003 1.68776363e-002 8.43881816e-003
      8.43881816e-003 0. 4.21940908e-003 8.43881816e-003 2.10970454e-002
      1.68776363e-002 0. 8.43881816e-003 8.43881816e-003 1.68776363e-002
      8.43881816e-003 4.21940908e-003 0. 4.21940908e-003 0.
      4.21940908e-003 0. 1.26582272e-002 8.43881816e-003 8.43881816e-003
      4.21940908e-003 1.68776363e-002 0. 4.21940908e-003 1.26582272e-002
      4.21940908e-003 8.43881816e-003 1.68776363e-002 8.43881816e-003
      4.21940908e-003 0. 0. 4.21940908e-003 0. 8.43881816e-003
      4.21940908e-003 8.43881816e-003 8.43881816e-003 4.21940908e-003
      8.43881816e-003 4.21940908e-003 8.43881816e-003 8.43881816e-003 0.
      4.21940908e-003 1.68776363e-002 8.43881816e-003 0. 8.43881816e-003
      4.21940908e-003 0. 4.21940908e-003 1.26582272e-002 8.43881816e-003
      1.26582272e-002 2.53164545e-002 0. 4.21940908e-003 0.
      8.43881816e-003 8.43881816e-003 0. 4.21940908e-003 4.21940908e-003
      4.21940908e-003 2.10970454e-002 0. 4.21940908e-003 1.68776363e-002
      0. 4.21940908e-003 0. 8.43881816e-003 0. 1.26582272e-002
      1.68776363e-002 4.21940908e-003 0. 8.43881816e-003 8.43881816e-003
      0. 8.43881816e-003 8.43881816e-003 1.26582272e-002 4.21940908e-003
      1.26582272e-002 1.26582272e-002 0. 0. 4.21940908e-003
      1.26582272e-002 8.43881816e-003 1.26582272e-002 3.37552726e-002
      8.43881816e-003 0. 0. 4.21940908e-003 0. 0. 8.43881816e-003
      1.26582272e-002 8.43881816e-003 4.21940908e-003 1.26582272e-002
      8.43881816e-003 4.21940908e-003 0. 0. 0. 8.43881816e-003 0.
      1.26582272e-002 8.43881816e-003 4.21940908e-003 0. 4.21940908e-003
      4.21940908e-003 4.21940908e-003 1.26582272e-002 0. 4.21940908e-003
      0. 0. 1.26582272e-002 0. 4.21940908e-003 8.43881816e-003
      4.21940908e-003 1.26582272e-002 8.43881816e-003 8.43881816e-003 0.
      1.26582272e-002 4.21940908e-003 4.21940908e-003 4.21940908e-003</_>
    <_>
      7.67263398e-003 5.11508947e-003 0. 0. 0. 1.02301789e-002
      5.11508947e-003 1.27877239e-002 5.11508947e-003 1.53452680e-002
      1.27877239e-002 5.11508947e-003 0. 5.11508947e-003 2.55754474e-003
      1.02301789e-002 5.11508947e-003 2.55754474e-003 0. 1.53452680e-002
      5.11508947e-003 7.67263398e-003 1.53452680e-002 0. 2.04603579e-002
      0. 1.27877239e-002 5.11508947e-003 2.55754474e-003 3.58056277e-002
      0. 2.55754474e-003 1.27877239e-002 2.55754474e-003 0.
      2.55754474e-003 0. 1.27877239e-002 7.67263398e-003 2.55754474e-003
      5.11508947e-003 1.27877239e-002 7.67263398e-003 5.11508947e-003
      1.27877239e-002 2.55754474e-003 2.55754474e-003 2.55754474e-003
      7.67263398e-003 2.55754474e-003 7.67263398e-003 1.27877239e-002
      5.11508947e-003 1.27877239e-002 7.67263398e-003 0. 1.02301789e-002
      2.55754474e-003 2.55754474e-003 1.53452680e-002 0. 0. 0.
      2.55754474e-003 7.67263398e-003 0. 1.02301789e-002 7.67263398e-003
      0. 1.02301789e-002 5.11508947e-003 1.79028139e-002 0.
      2.55754474e-003 1.02301789e-002 2.55754474e-003 2.55754474e-003
      7.67263398e-003 0. 0. 1.02301789e-002 0. 1.02301789e-002
      2.55754474e-003 5.11508947e-003 2.55754474e-003 2.55754474e-003
      2.55754474e-003 5.11508947e-003 2.55754474e-003 0. 1.53452680e-002
      5.11508947e-003 2.30179019e-002 0. 0. 5.11508947e-003
      1.27877239e-002 1.53452680e-002 1.79028139e-002 1.02301789e-002
      1.53452680e-002 5.11508947e-003 1.02301789e-002 2.55754474e-003 0.
      5.11508947e-003 7.67263398e-003 1.02301789e-002 0. 0.
      1.79028139e-002 2.55754474e-003 7.67263398e-003 7.67263398e-003
      1.53452680e-002 7.67263398e-003 3.58056277e-002 5.11508947e-003
      2.55754474e-003 0. 1.02301789e-002 5.11508947e-003 7.67263398e-003
      1.53452680e-002 0. 5.11508947e-003 1.02301789e-002 7.67263398e-003
      2.55754474e-003 2.55754474e-003 5.11508947e-003 1.79028139e-002
      5.11508947e-003 0. 5.11508947e-003 5.11508947e-003 7.67263398e-003
      7.67263398e-003 0. 7.67263398e-003 2.55754474e-003 2.55754474e-003
      1.53452680e-002 0. 1.27877239e-002 7.67263398e-003 1.27877239e-002
      1.02301789e-002 7.67263398e-003</_>
    <_>
      0. 1.91256832e-002 2.73224036e-003 8.19672085e-003 2.73224036e-003
      1.91256832e-002 8.19672085e-003 8.19672085e-003 8.19672085e-003
      1.09289614e-002 2.73224036e-003 0. 0. 5.46448072e-003
      5.46448072e-003 2.73224036e-003 5.46448072e-003 1.09289614e-002
      5.46448072e-003 8.19672085e-003 8.19672085e-003 2.73224036e-003
      1.09289614e-002 2.73224036e-003 2.73224036e-003 2.73224036e-003
      2.73224036e-003 5.46448072e-003 8.19672085e-003 1.36612020e-002
      1.36612020e-002 5.46448072e-003 1.09289614e-002 0. 0.
      5.46448072e-003 2.73224036e-003 5.46448072e-003 2.18579229e-002
      1.36612020e-002 5.46448072e-003 8.19672085e-003 1.36612020e-002
      8.19672085e-003 1.63934417e-002 1.09289614e-002 2.73224036e-003
      1.36612020e-002 5.46448072e-003 1.36612020e-002 5.46448072e-003
      1.09289614e-002 8.19672085e-003 1.09289614e-002 2.73224036e-003
      1.09289614e-002 5.46448072e-003 5.46448072e-003 8.19672085e-003
      1.36612020e-002 8.19672085e-003 2.73224036e-003 5.46448072e-003
      2.73224036e-003 5.46448072e-003 2.73224036e-003 1.36612020e-002
      5.46448072e-003 5.46448072e-003 0. 1.63934417e-002 8.19672085e-003
      2.73224036e-003 2.73224036e-003 8.19672085e-003 2.73224036e-003
      5.46448072e-003 8.19672085e-003 2.73224036e-003 2.73224036e-003
      5.46448072e-003 2.73224036e-003 2.73224036e-003 5.46448072e-003
      1.09289614e-002 1.36612020e-002 5.46448072e-003 2.73224036e-003
      2.73224036e-003 5.46448072e-003 5.46448072e-003 1.09289614e-002
      8.19672085e-003 5.46448072e-003 5.46448072e-003 1.36612020e-002
      8.19672085e-003 5.46448072e-003 1.09289614e-002 0. 0.
      1.63934417e-002 1.09289614e-002 8.19672085e-003 0. 2.73224036e-003
      1.09289614e-002 0. 1.09289614e-002 0. 5.46448072e-003
      2.73224036e-003 1.36612020e-002 5.46448072e-003 5.46448072e-003
      5.46448072e-003 1.36612020e-002 8.19672085e-003 0. 8.19672085e-003
      5.46448072e-003 0. 0. 5.46448072e-003 1.36612020e-002
      2.73224036e-003 5.46448072e-003 5.46448072e-003 8.19672085e-003
      1.09289614e-002 5.46448072e-003 5.46448072e-003 5.46448072e-003 0.
      2.73224036e-003 5.46448072e-003 2.73224036e-003 5.46448072e-003
      5.46448072e-003 0. 5.46448072e-003 2.73224036e-003 2.73224036e-003
      8.19672085e-003 1.09289614e-002 1.09289614e-002 8.19672085e-003
      1.36612020e-002 8.19672085e-003 8.19672085e-003</_>
    <_>
      0. 0. 9.25925933e-003 0. 0. 0. 0. 1.85185187e-002 0. 0.
      9.25925933e-003 9.25925933e-003 0. 4.62962966e-003 4.62962966e-003
      0. 9.25925933e-003 4.62962966e-003 0. 4.62962966e-003
      4.62962966e-003 9.25925933e-003 0. 4.62962966e-003 0. 0.
      3.24074067e-002 9.25925933e-003 9.25925933e-003 7.40740746e-002 0.
      4.62962966e-003 1.85185187e-002 0. 0. 9.25925933e-003 0.
      4.62962966e-003 4.62962966e-003 0. 0. 4.62962966e-003
      9.25925933e-003 4.62962966e-003 1.38888890e-002 0. 4.62962966e-003
      4.62962966e-003 9.25925933e-003 9.25925933e-003 4.62962966e-003 0.
      0. 9.25925933e-003 1.85185187e-002 0. 0. 1.85185187e-002 0.
      1.85185187e-002 0. 9.25925933e-003 4.62962966e-003 4.62962966e-003
      4.62962966e-003 4.62962966e-003 0. 4.62962966e-003 0.
      8.33333358e-002 4.62962966e-003 4.62962966e-003 9.25925933e-003
      4.62962966e-003 0. 0. 4.62962966e-003 4.62962966e-003
      4.62962966e-003 0. 0. 0. 9.25925933e-003 1.38888890e-002 0.
      4.62962966e-003 4.62962966e-003 4.62962966e-003 0. 0.
      4.62962966e-003 4.62962966e-003 0. 2.31481493e-002 4.62962966e-003
      1.85185187e-002 9.25925933e-003 1.38888890e-002 0. 9.25925933e-003
      4.62962966e-003 9.25925933e-003 9.25925933e-003 4.62962966e-003 0.
      9.25925933e-003 4.62962966e-003 1.38888890e-002 9.25925933e-003 0.
      1.85185187e-002 1.38888890e-002 0. 9.25925933e-003 4.62962966e-003
      0. 9.25925933e-003 4.62962966e-003 0. 0. 0. 0. 1.85185187e-002
      4.62962966e-003 4.62962966e-003 0. 9.25925933e-003 4.62962966e-003
      2.31481493e-002 4.62962966e-003 0. 9.25925933e-003 9.25925933e-003
      9.25925933e-003 0. 4.62962966e-003 0. 0. 4.62962966e-003 0.
      1.38888890e-002 2.77777780e-002 0. 4.62962966e-003 4.62962966e-003
      1.85185187e-002 4.62962966e-003 9.25925933e-003 4.62962966e-003
      1.38888890e-002</_>
    <_>
      1.14942528e-002 8.62068962e-003 5.74712642e-003 0. 8.62068962e-003
      8.62068962e-003 8.62068962e-003 1.43678160e-002 2.87356321e-003
      5.74712642e-003 0. 5.74712642e-003 5.74712642e-003 5.74712642e-003
      8.62068962e-003 8.62068962e-003 0. 2.87356321e-003 2.87356321e-003
      2.87356321e-003 0. 5.74712642e-003 1.14942528e-002 1.14942528e-002
      2.87356321e-003 2.87356321e-003 5.74712642e-003 1.43678160e-002 0.
      2.01149434e-002 5.74712642e-003 5.74712642e-003 1.43678160e-002
      5.74712642e-003 1.14942528e-002 2.87356321e-003 2.87356321e-003 0.
      0. 1.14942528e-002 0. 1.14942528e-002 2.87356321e-003
      5.74712642e-003 5.74712642e-003 0. 2.87356321e-003 2.87356321e-003
      5.74712642e-003 2.87356321e-003 2.29885057e-002 2.87356321e-003
      8.62068962e-003 0. 2.87356321e-003 0. 5.74712642e-003
      2.87356321e-003 0. 8.62068962e-003 8.62068962e-003 5.74712642e-003
      5.74712642e-003 1.72413792e-002 2.87356321e-003 0. 8.62068962e-003
      2.87356321e-003 5.74712642e-003 0. 2.87356321e-003 5.74712642e-003
      1.14942528e-002 8.62068962e-003 2.87356321e-003 5.74712642e-003
      1.43678160e-002 2.87356321e-003 8.62068962e-003 5.74712642e-003
      2.87356321e-003 0. 8.62068962e-003 5.74712642e-003 2.29885057e-002
      2.87356321e-003 5.74712642e-003 5.74712642e-003 1.14942528e-002
      1.43678160e-002 1.14942528e-002 8.62068962e-003 0. 1.43678160e-002
      5.74712642e-003 8.62068962e-003 1.43678160e-002 5.74712642e-003
      2.87356321e-003 8.62068962e-003 2.87356321e-003 8.62068962e-003
      5.74712642e-003 1.43678160e-002 5.74712642e-003 5.74712642e-003
      1.14942528e-002 5.74712642e-003 8.62068962e-003 0. 2.87356321e-003
      1.72413792e-002 1.14942528e-002 0. 2.01149434e-002 0. 0.
      3.73563208e-002 8.62068962e-003 0. 0. 8.62068962e-003
      5.74712642e-003 5.74712642e-003 5.74712642e-003 5.74712642e-003
      2.01149434e-002 0. 1.72413792e-002 8.62068962e-003 8.62068962e-003
      8.62068962e-003 8.62068962e-003 8.62068962e-003 0. 1.14942528e-002
      5.74712642e-003 5.74712642e-003 5.74712642e-003 1.14942528e-002 0.
      1.43678160e-002 0. 2.87356321e-003 5.74712642e-003 5.74712642e-003
      2.87356321e-003 2.87356321e-003 5.74712642e-003 5.74712642e-003</_>
    <_>
      1.56985875e-003 1.56985875e-003 4.70957626e-003 1.09890113e-002
      1.56985875e-003 1.25588700e-002 4.70957626e-003 7.84929376e-003
      1.09890113e-002 4.70957626e-003 7.84929376e-003 3.13971750e-003
      7.84929376e-003 1.56985875e-002 7.84929376e-003 7.84929376e-003
      1.56985875e-003 3.13971750e-003 9.41915251e-003 3.13971750e-003
      7.84929376e-003 6.27943501e-003 4.70957626e-003 0. 6.27943501e-003
      6.27943501e-003 1.25588700e-002 1.25588700e-002 9.41915251e-003
      2.51177400e-002 1.09890113e-002 7.84929376e-003 0. 1.56985875e-003
      4.70957626e-003 1.25588700e-002 9.41915251e-003 6.27943501e-003
      7.84929376e-003 1.56985875e-003 4.70957626e-003 1.56985875e-003
      1.25588700e-002 3.13971750e-003 9.41915251e-003 4.70957626e-003
      4.70957626e-003 1.56985875e-003 6.27943501e-003 7.84929376e-003
      3.13971750e-003 3.13971750e-003 3.13971750e-003 7.84929376e-003
      1.56985875e-003 3.13971750e-003 4.70957626e-003 7.84929376e-003
      7.84929376e-003 6.27943501e-003 1.56985875e-003 1.56985875e-003
      1.09890113e-002 3.13971750e-003 7.84929376e-003 1.56985875e-003
      1.09890113e-002 3.13971750e-003 6.27943501e-003 2.98273154e-002
      3.13971750e-003 4.70957626e-003 4.70957626e-003 9.41915251e-003
      6.27943501e-003 6.27943501e-003 7.84929376e-003 1.09890113e-002
      6.27943501e-003 4.70957626e-003 1.09890113e-002 4.70957626e-003
      3.13971750e-003 6.27943501e-003 6.27943501e-003 6.27943501e-003
      1.09890113e-002 6.27943501e-003 3.13971750e-003 4.70957626e-003
      2.04081647e-002 6.27943501e-003 1.25588700e-002 1.41287288e-002
      2.04081647e-002 1.56985875e-003 1.41287288e-002 1.41287288e-002
      1.25588700e-002 3.13971750e-003 4.70957626e-003 1.25588700e-002
      3.13971750e-003 6.27943501e-003 6.27943501e-003 1.56985875e-003
      1.09890113e-002 3.13971750e-003 4.70957626e-003 3.13971750e-003 0.
      4.70957626e-003 3.13971750e-003 9.41915251e-003 3.13971750e-003
      6.27943501e-003 6.27943501e-003 1.09890113e-002 1.56985875e-003
      1.56985875e-003 3.13971750e-003 1.09890113e-002 6.27943501e-003
      9.41915251e-003 6.27943501e-003 0. 0. 6.27943501e-003
      3.13971750e-003 3.13971750e-003 6.27943501e-003 1.09890113e-002
      7.84929376e-003 3.13971750e-003 3.13971750e-003 1.56985875e-002
      9.41915251e-003 4.70957626e-003 1.09890113e-002 6.27943501e-003
      1.56985875e-003 6.27943501e-003 6.27943501e-003 3.13971750e-003
      9.41915251e-003 6.27943501e-003 9.41915251e-003 1.56985875e-003
      1.09890113e-002 3.13971750e-003</_>
    <_>
      0. 4.95049497e-003 0. 1.98019799e-002 0. 1.98019799e-002
      4.95049497e-003 0. 0. 0. 2.47524753e-002 4.95049497e-003 0. 0. 0.
      4.95049497e-003 1.98019799e-002 0. 0. 4.95049497e-003
      4.95049497e-003 4.95049497e-003 9.90098994e-003 0. 0. 0.
      2.97029689e-002 4.95049497e-003 1.98019799e-002 2.97029689e-002
      4.95049497e-003 1.48514844e-002 9.90098994e-003 0. 0.
      4.95049497e-003 1.98019799e-002 0. 9.90098994e-003 9.90098994e-003
      0. 4.95049497e-003 2.97029689e-002 0. 2.47524753e-002 0.
      9.90098994e-003 0. 9.90098994e-003 4.95049497e-003 0.
      1.98019799e-002 9.90098994e-003 4.95049497e-003 9.90098994e-003 0.
      0. 4.95049497e-003 0. 1.98019799e-002 9.90098994e-003 0.
      1.48514844e-002 0. 9.90098994e-003 0. 4.95049497e-003
      4.95049497e-003 0. 2.97029689e-002 4.95049497e-003 0. 0.
      9.90098994e-003 1.48514844e-002 0. 2.47524753e-002 9.90098994e-003
      0. 0. 0. 0. 0. 0. 0. 0. 4.95049497e-003 4.95049497e-003 0. 0. 0.
      1.48514844e-002 0. 1.98019799e-002 9.90098994e-003 1.48514844e-002
      9.90098994e-003 1.48514844e-002 9.90098994e-003 2.97029689e-002 0.
      1.98019799e-002 0. 4.95049497e-003 0. 0. 4.95049497e-003 0.
      4.95049497e-003 0. 1.98019799e-002 2.47524753e-002 9.90098994e-003
      0. 0. 9.90098994e-003 0. 1.98019799e-002 0. 0. 0. 9.90098994e-003
      4.95049497e-003 4.95049497e-003 1.48514844e-002 0. 4.95049497e-003
      4.95049497e-003 9.90098994e-003 0. 0. 1.98019799e-002
      3.46534662e-002 0. 0. 4.95049497e-003 4.95049497e-003
      9.90098994e-003 0. 0. 0. 4.95049497e-003 0. 9.90098994e-003 0.
      4.95049497e-003 4.95049497e-003 0. 4.95049497e-003 9.90098994e-003</_>
    <_>
      9.09090880e-003 4.54545440e-003 4.54545440e-003 0. 6.81818184e-003
      0. 4.54545440e-003 4.54545440e-003 4.54545440e-003 1.59090906e-002
      4.54545440e-003 6.81818184e-003 4.54545440e-003 2.27272720e-003 0.
      6.81818184e-003 0. 2.27272720e-003 6.81818184e-003 2.27272720e-003
      2.27272720e-003 1.13636358e-002 1.13636358e-002 2.27272720e-003 0.
      1.13636358e-002 1.36363637e-002 0. 6.81818184e-003 1.81818176e-002
      0. 2.27272720e-003 4.54545440e-003 0. 4.54545440e-003
      2.27272720e-003 6.81818184e-003 2.27272720e-003 6.81818184e-003
      2.27272720e-003 2.27272720e-003 6.81818184e-003 9.09090880e-003 0.
      9.09090880e-003 9.09090880e-003 6.81818184e-003 1.59090906e-002
      2.27272720e-003 4.54545440e-003 9.09090880e-003 9.09090880e-003
      6.81818184e-003 9.09090880e-003 1.13636358e-002 2.27272720e-003
      1.13636358e-002 1.36363637e-002 2.27272720e-003 2.27272720e-003
      9.09090880e-003 2.27272720e-003 4.54545440e-003 9.09090880e-003
      1.13636358e-002 2.27272720e-003 1.36363637e-002 6.81818184e-003
      4.54545440e-003 2.27272720e-003 6.81818184e-003 9.09090880e-003
      6.81818184e-003 2.27272720e-003 4.54545440e-003 0. 2.27272720e-003
      0. 2.27272720e-003 4.54545440e-003 9.09090880e-003 1.59090906e-002
      9.09090880e-003 9.09090880e-003 2.27272720e-003 9.09090880e-003
      4.54545440e-003 2.27272715e-002 6.81818184e-003 6.81818184e-003
      4.54545440e-003 9.09090880e-003 6.81818184e-003 1.36363637e-002
      6.81818184e-003 6.81818184e-003 1.36363637e-002 1.13636358e-002
      4.54545440e-003 2.27272720e-003 6.81818184e-003 4.54545440e-003
      1.36363637e-002 1.59090906e-002 4.54545440e-003 2.27272720e-003
      1.59090906e-002 1.13636358e-002 9.09090880e-003 0. 9.09090880e-003
      1.81818176e-002 0. 4.54545440e-003 2.27272720e-003 0.
      1.36363637e-002 2.27272715e-002 2.27272720e-003 4.54545440e-003
      2.27272720e-003 9.09090880e-003 1.13636358e-002 4.54545440e-003
      9.09090880e-003 0. 1.13636358e-002 1.36363637e-002 6.81818184e-003
      0. 6.81818184e-003 6.81818184e-003 1.13636358e-002 2.27272720e-003
      1.13636358e-002 1.13636358e-002 1.36363637e-002 6.81818184e-003
      9.09090880e-003 2.27272720e-003 4.54545440e-003 9.09090880e-003
      9.09090880e-003 2.27272720e-003 2.27272720e-003 1.59090906e-002
      4.54545440e-003 9.09090880e-003 0. 9.09090880e-003</_>
    <_>
      5.16795879e-003 2.58397940e-003 2.58397940e-003 2.58397940e-003
      5.16795879e-003 1.03359176e-002 5.16795879e-003 1.80878565e-002
      7.75193796e-003 2.32558139e-002 7.75193796e-003 1.03359176e-002
      2.58397940e-003 1.55038759e-002 7.75193796e-003 5.16795879e-003 0.
      0. 1.29198972e-002 2.58397940e-003 5.16795879e-003 7.75193796e-003
      1.03359176e-002 5.16795879e-003 1.03359176e-002 2.58397940e-003
      5.16795879e-003 7.75193796e-003 1.03359176e-002 5.16795879e-003
      2.58397940e-003 0. 1.03359176e-002 2.06718352e-002 5.16795879e-003
      7.75193796e-003 5.16795879e-003 0. 1.03359176e-002 7.75193796e-003
      5.16795879e-003 5.16795879e-003 1.29198972e-002 2.58397940e-003
      1.03359176e-002 5.16795879e-003 7.75193796e-003 2.58397940e-003
      1.29198972e-002 5.16795879e-003 3.10077518e-002 2.58397940e-003
      7.75193796e-003 0. 7.75193796e-003 5.16795879e-003 2.58397940e-003
      2.58397940e-003 0. 7.75193796e-003 5.16795879e-003 7.75193796e-003
      1.03359176e-002 2.32558139e-002 5.16795879e-003 7.75193796e-003
      1.03359176e-002 1.55038759e-002 0. 0. 1.29198972e-002
      1.29198972e-002 2.58397940e-003 7.75193796e-003 1.29198972e-002
      5.16795879e-003 1.55038759e-002 2.58397940e-003 2.58397940e-003 0.
      1.29198972e-002 1.29198972e-002 5.16795879e-003 1.29198972e-002
      2.58397940e-003 7.75193796e-003 7.75193796e-003 7.75193796e-003
      2.58397940e-003 5.16795879e-003 1.55038759e-002 7.75193796e-003
      5.16795879e-003 2.32558139e-002 5.16795879e-003 1.29198972e-002
      1.03359176e-002 5.16795879e-003 5.16795879e-003 0. 2.58397940e-003
      5.16795879e-003 0. 2.58397940e-003 5.16795879e-003 2.58397940e-003
      5.16795879e-003 7.75193796e-003 1.80878565e-002 0. 1.03359176e-002
      0. 5.16795879e-003 7.75193796e-003 5.16795879e-003 0.
      5.16795879e-003 1.55038759e-002 5.16795879e-003 2.58397940e-003 0.
      2.58397940e-003 5.16795879e-003 2.58397940e-003 7.75193796e-003
      2.58397940e-003 7.75193796e-003 5.16795879e-003 7.75193796e-003
      5.16795879e-003 2.58397940e-003 5.16795879e-003 7.75193796e-003 0.
      5.16795879e-003 1.03359176e-002 5.16795879e-003 7.75193796e-003 0.
      2.58397940e-003 5.16795879e-003 1.80878565e-002 0. 2.58397940e-003
      2.58397940e-003 2.58397940e-003 1.03359176e-002 5.16795879e-003 0.
      2.58397940e-003</_>
    <_>
      1.09890113e-002 7.32600736e-003 3.66300368e-003 1.09890113e-002
      3.66300368e-003 3.66300368e-003 7.32600736e-003 7.32600736e-003
      1.09890113e-002 1.09890113e-002 3.66300368e-003 0. 7.32600736e-003
      1.46520147e-002 1.46520147e-002 7.32600736e-003 3.66300368e-003
      7.32600736e-003 0. 1.09890113e-002 3.66300368e-003 0.
      1.09890113e-002 0. 3.66300368e-003 0. 7.32600736e-003 0. 0. 0.
      3.66300368e-003 7.32600736e-003 0. 7.32600736e-003 3.66300368e-003
      1.46520147e-002 1.46520147e-002 0. 7.32600736e-003 0.
      3.66300368e-003 7.32600736e-003 7.32600736e-003 0. 0. 0. 0.
      3.66300368e-003 1.46520147e-002 1.09890113e-002 1.09890113e-002
      1.09890113e-002 0. 3.66300368e-003 0. 1.46520147e-002 0. 0.
      3.66300368e-003 7.32600736e-003 7.32600736e-003 7.32600736e-003
      7.32600736e-003 3.66300368e-003 7.32600736e-003 1.83150191e-002
      7.32600736e-003 7.32600736e-003 1.09890113e-002 0. 0.
      3.66300368e-003 3.66300368e-003 3.66300368e-003 3.66300368e-003 0.
      0. 1.09890113e-002 1.83150191e-002 1.46520147e-002 3.66300368e-003
      3.66300368e-003 1.09890113e-002 7.32600736e-003 0. 1.09890113e-002
      1.09890113e-002 7.32600736e-003 3.66300368e-003 0. 3.66300368e-003
      1.09890113e-002 2.19780225e-002 1.09890113e-002 1.09890113e-002 0.
      3.66300368e-003 0. 0. 7.32600736e-003 3.66300368e-003
      3.66300368e-003 1.46520147e-002 1.09890113e-002 1.46520147e-002
      1.09890113e-002 3.66300368e-003 1.46520147e-002 7.32600736e-003
      1.09890113e-002 3.66300368e-003 0. 1.46520147e-002 3.66300368e-003
      0. 0. 3.66300368e-003 3.66300382e-002 3.66300368e-003
      1.46520147e-002 3.66300368e-003 0. 0. 3.66300368e-003 0.
      1.09890113e-002 0. 7.32600736e-003 1.46520147e-002 1.09890113e-002
      3.29670347e-002 0. 2.19780225e-002 0. 7.32600736e-003
      1.46520147e-002 3.66300368e-003 0. 0. 3.66300368e-003
      1.09890113e-002 1.46520147e-002 1.46520147e-002 1.09890113e-002
      3.66300368e-003 7.32600736e-003 1.46520147e-002 0. 1.09890113e-002
      7.32600736e-003</_>
    <_>
      9.63855442e-003 4.81927721e-003 1.44578312e-002 9.63855442e-003
      1.20481933e-002 1.44578312e-002 7.22891558e-003 7.22891558e-003 0.
      7.22891558e-003 2.40963860e-003 2.40963860e-003 9.63855442e-003
      4.81927721e-003 0. 9.63855442e-003 0. 9.63855442e-003
      2.40963860e-003 7.22891558e-003 2.40963860e-003 2.40963860e-003
      4.81927721e-003 2.40963860e-003 4.81927721e-003 7.22891558e-003
      4.81927721e-003 0. 7.22891558e-003 4.81927721e-003 1.44578312e-002
      4.81927721e-003 1.20481933e-002 2.40963860e-003 4.81927721e-003
      2.40963860e-003 7.22891558e-003 2.40963860e-003 7.22891558e-003 0.
      9.63855442e-003 9.63855442e-003 9.63855442e-003 0. 1.20481933e-002
      4.81927721e-003 2.40963860e-003 7.22891558e-003 2.40963860e-003
      1.68674700e-002 1.44578312e-002 0. 9.63855442e-003 0.
      1.44578312e-002 0. 9.63855442e-003 0. 4.81927721e-003
      1.68674700e-002 9.63855442e-003 0. 7.22891558e-003 2.40963860e-003
      4.81927721e-003 9.63855442e-003 7.22891558e-003 0. 1.68674700e-002
      0. 7.22891558e-003 0. 9.63855442e-003 0. 7.22891558e-003
      2.40963860e-003 7.22891558e-003 7.22891558e-003 1.20481933e-002 0.
      2.40963860e-003 7.22891558e-003 4.81927721e-003 4.81927721e-003
      7.22891558e-003 4.81927721e-003 7.22891558e-003 2.40963860e-003 0.
      4.81927721e-003 2.40963860e-003 7.22891558e-003 1.92771088e-002
      7.22891558e-003 2.40963860e-003 1.44578312e-002 4.81927721e-003
      1.20481933e-002 4.81927721e-003 9.63855442e-003 0. 1.44578312e-002
      4.81927721e-003 2.40963860e-003 4.81927721e-003 2.40963860e-003
      2.40963865e-002 3.13253030e-002 0. 0. 9.63855442e-003
      2.40963860e-003 7.22891558e-003 7.22891558e-003 7.22891558e-003
      2.40963860e-003 1.44578312e-002 1.68674700e-002 7.22891558e-003
      7.22891558e-003 7.22891558e-003 1.44578312e-002 2.40963860e-003
      4.81927721e-003 1.20481933e-002 0. 9.63855442e-003 1.20481933e-002
      4.81927721e-003 4.81927721e-003 2.40963860e-003 1.20481933e-002
      7.22891558e-003 7.22891558e-003 9.63855442e-003 9.63855442e-003
      2.40963860e-003 2.40963860e-003 4.81927721e-003 9.63855442e-003
      1.44578312e-002 1.92771088e-002 4.81927721e-003 4.81927721e-003 0.
      2.40963860e-003 4.81927721e-003 9.63855442e-003 2.40963860e-003
      1.20481933e-002</_>
    <_>
      1.02040814e-002 0. 5.10204071e-003 5.10204071e-003 0.
      7.65306130e-003 5.10204071e-003 7.65306130e-003 2.55102036e-003
      1.53061226e-002 5.10204071e-003 0. 2.55102036e-003 1.27551015e-002
      7.65306130e-003 5.10204071e-003 5.10204071e-003 2.55102036e-003
      5.10204071e-003 5.10204071e-003 1.53061226e-002 2.55102036e-003
      7.65306130e-003 1.27551015e-002 2.55102036e-003 7.65306130e-003
      1.53061226e-002 0. 7.65306130e-003 1.53061226e-002 7.65306130e-003
      1.02040814e-002 1.02040814e-002 5.10204071e-003 1.27551015e-002
      5.10204071e-003 1.02040814e-002 2.55102036e-003 0. 5.10204071e-003
      7.65306130e-003 7.65306130e-003 1.53061226e-002 1.02040814e-002
      7.65306130e-003 7.65306130e-003 7.65306130e-003 5.10204071e-003
      2.55102036e-003 5.10204071e-003 7.65306130e-003 1.02040814e-002 0.
      5.10204071e-003 1.27551015e-002 1.02040814e-002 0. 1.27551015e-002
      5.10204071e-003 1.53061226e-002 5.10204071e-003 7.65306130e-003
      5.10204071e-003 1.53061226e-002 7.65306130e-003 1.02040814e-002
      7.65306130e-003 2.55102036e-003 2.55102036e-003 7.65306130e-003 0.
      7.65306130e-003 1.27551015e-002 7.65306130e-003 0. 5.10204071e-003
      7.65306130e-003 7.65306130e-003 2.55102036e-003 1.02040814e-002
      1.27551015e-002 7.65306130e-003 7.65306130e-003 5.10204071e-003
      2.55102036e-003 2.55102036e-003 7.65306130e-003 7.65306130e-003 0.
      2.55102036e-003 1.02040814e-002 2.55102036e-003 7.65306130e-003
      1.53061226e-002 5.10204071e-003 1.27551015e-002 7.65306130e-003
      2.55102036e-003 2.55102036e-003 2.29591839e-002 7.65306130e-003
      7.65306130e-003 1.02040814e-002 5.10204071e-003 7.65306130e-003
      2.55102036e-003 0. 7.65306130e-003 0. 2.55102036e-003
      7.65306130e-003 5.10204071e-003 0. 2.55102036e-003 5.10204071e-003
      0. 5.10204071e-003 1.78571418e-002 1.27551015e-002 0.
      2.55102036e-003 7.65306130e-003 7.65306130e-003 2.55102036e-003
      5.10204071e-003 2.55102036e-003 1.02040814e-002 2.55102036e-003
      7.65306130e-003 2.55102036e-003 1.78571418e-002 7.65306130e-003
      7.65306130e-003 0. 5.10204071e-003 1.02040814e-002 1.02040814e-002
      7.65306130e-003 7.65306130e-003 2.55102036e-003 2.55102036e-003
      7.65306130e-003 2.55102036e-003 7.65306130e-003 5.10204071e-003
      5.10204071e-003 5.10204071e-003 1.27551015e-002 2.55102036e-003
      1.53061226e-002</_>
    <_>
      0. 0. 5.83090400e-003 0. 2.91545200e-003 2.91545200e-003 0.
      2.33236160e-002 8.74635577e-003 8.74635577e-003 0. 0.
      2.91545200e-003 5.83090400e-003 0. 1.45772602e-002 5.83090400e-003
      0. 2.91545200e-003 1.74927115e-002 0. 1.16618080e-002
      1.16618080e-002 8.74635577e-003 8.74635577e-003 2.91545200e-003
      1.16618080e-002 0. 2.91545200e-003 2.33236160e-002 2.91545200e-003
      0. 1.16618080e-002 1.16618080e-002 2.91545200e-003 5.83090400e-003
      2.91545200e-003 0. 8.74635577e-003 1.16618080e-002 8.74635577e-003
      8.74635577e-003 1.16618080e-002 5.83090400e-003 2.91545200e-003
      2.91545200e-003 8.74635577e-003 1.16618080e-002 0. 5.83090400e-003
      1.45772602e-002 0. 0. 5.83090400e-003 2.91545200e-003
      8.74635577e-003 5.83090400e-003 8.74635577e-003 5.83090400e-003
      8.74635577e-003 8.74635577e-003 2.91545200e-003 5.83090400e-003
      2.33236160e-002 8.74635577e-003 1.16618080e-002 1.16618080e-002
      5.83090400e-003 0. 1.74927115e-002 8.74635577e-003 8.74635577e-003
      8.74635577e-003 0. 2.91545200e-003 2.91545200e-003 0.
      1.16618080e-002 2.91545200e-003 2.91545200e-003 8.74635577e-003
      5.83090400e-003 2.91545200e-003 2.91545200e-003 0. 1.16618080e-002
      8.74635577e-003 5.83090400e-003 0. 2.91545200e-003 0.
      1.16618080e-002 1.16618080e-002 5.83090400e-003 8.74635577e-003 0.
      1.45772602e-002 8.74635577e-003 5.83090400e-003 2.04081647e-002
      5.83090400e-003 1.16618080e-002 5.83090400e-003 5.83090400e-003
      1.16618080e-002 2.91545200e-003 5.83090400e-003 2.91545205e-002
      5.83090400e-003 8.74635577e-003 2.91545200e-003 2.91545200e-003
      5.83090400e-003 8.74635577e-003 8.74635577e-003 2.91545200e-003
      8.74635577e-003 3.79008763e-002 0. 8.74635577e-003 5.83090400e-003
      2.91545200e-003 2.91545200e-003 8.74635577e-003 2.91545200e-003 0.
      1.45772602e-002 0. 1.16618080e-002 2.91545200e-003 5.83090400e-003
      5.83090400e-003 3.49854231e-002 2.91545200e-003 0. 2.91545200e-003
      5.83090400e-003 2.91545200e-003 2.91545200e-003 2.91545200e-003 0.
      1.16618080e-002 0. 2.91545200e-003 2.91545200e-003 8.74635577e-003
      5.83090400e-003 0. 5.83090400e-003 8.74635577e-003</_>
    <_>
      1.38888890e-002 5.20833349e-003 5.20833349e-003 5.20833349e-003
      1.73611112e-003 5.20833349e-003 8.68055597e-003 1.21527780e-002
      1.73611112e-003 2.25694440e-002 0. 5.20833349e-003 0.
      5.20833349e-003 5.20833349e-003 1.73611112e-003 3.47222225e-003
      6.94444450e-003 6.94444450e-003 2.25694440e-002 1.73611112e-003 0.
      1.04166670e-002 5.20833349e-003 1.21527780e-002 6.94444450e-003
      1.38888890e-002 1.73611112e-003 0. 8.68055597e-003 1.04166670e-002
      1.73611112e-003 1.21527780e-002 1.04166670e-002 3.47222225e-003
      3.47222225e-003 5.20833349e-003 1.73611112e-003 5.20833349e-003
      5.20833349e-003 6.94444450e-003 1.21527780e-002 8.68055597e-003
      8.68055597e-003 3.47222225e-003 0. 5.20833349e-003 8.68055597e-003
      8.68055597e-003 5.20833349e-003 8.68055597e-003 8.68055597e-003
      1.04166670e-002 3.47222225e-003 1.56250000e-002 1.21527780e-002
      1.73611119e-002 1.04166670e-002 3.47222225e-003 2.08333340e-002
      6.94444450e-003 6.94444450e-003 8.68055597e-003 6.94444450e-003
      5.20833349e-003 0. 5.20833349e-003 1.04166670e-002 0.
      8.68055597e-003 3.47222225e-003 3.47222225e-003 6.94444450e-003
      3.47222225e-003 1.73611112e-003 3.47222225e-003 5.20833349e-003 0.
      1.73611112e-003 0. 8.68055597e-003 1.73611112e-003 5.20833349e-003
      5.20833349e-003 3.47222225e-003 3.47222225e-003 3.47222225e-003
      3.47222225e-003 3.47222225e-003 5.20833349e-003 3.47222225e-003
      6.94444450e-003 3.47222225e-003 1.04166670e-002 5.20833349e-003 0.
      6.94444450e-003 1.04166670e-002 0. 1.38888890e-002 8.68055597e-003
      3.47222225e-003 3.47222225e-003 1.56250000e-002 5.20833349e-003
      1.21527780e-002 6.94444450e-003 1.56250000e-002 1.73611112e-003
      5.20833349e-003 1.04166670e-002 0. 3.47222225e-003 3.47222225e-003
      3.47222225e-003 6.94444450e-003 1.21527780e-002 3.12500000e-002
      3.47222225e-003 1.73611112e-003 3.47222225e-003 8.68055597e-003
      6.94444450e-003 8.68055597e-003 6.94444450e-003 1.73611112e-003
      1.56250000e-002 6.94444450e-003 1.21527780e-002 6.94444450e-003 0.
      3.47222225e-003 1.04166670e-002 8.68055597e-003 6.94444450e-003
      1.90972220e-002 8.68055597e-003 8.68055597e-003 5.20833349e-003
      1.73611112e-003 1.73611112e-003 1.04166670e-002 1.73611112e-003
      1.73611112e-003 1.73611112e-003 2.08333340e-002 1.21527780e-002
      3.47222225e-003 1.73611112e-003 8.68055597e-003</_>
    <_>
      0. 4.03225794e-003 6.04838692e-003 8.06451589e-003 1.00806449e-002
      8.06451589e-003 1.00806449e-002 4.03225794e-003 4.03225794e-003
      8.06451589e-003 8.06451589e-003 4.03225794e-003 1.00806449e-002
      6.04838692e-003 1.20967738e-002 8.06451589e-003 4.03225794e-003
      4.03225794e-003 1.20967738e-002 1.61290318e-002 4.03225794e-003
      6.04838692e-003 4.03225794e-003 6.04838692e-003 8.06451589e-003
      2.01612897e-003 1.00806449e-002 2.01612897e-003 2.01612897e-003
      1.61290318e-002 0. 8.06451589e-003 6.04838692e-003 4.03225794e-003
      8.06451589e-003 4.03225794e-003 4.03225794e-003 4.03225794e-003
      8.06451589e-003 1.20967738e-002 2.01612897e-003 1.00806449e-002
      1.20967738e-002 1.00806449e-002 4.03225794e-003 1.41129028e-002
      2.01612897e-003 2.01612897e-003 8.06451589e-003 1.00806449e-002
      8.06451589e-003 2.01612897e-003 4.03225794e-003 8.06451589e-003
      8.06451589e-003 2.01612897e-003 4.03225794e-003 8.06451589e-003
      4.03225794e-003 6.04838692e-003 2.01612897e-003 4.03225794e-003
      8.06451589e-003 6.04838692e-003 1.20967738e-002 1.20967738e-002
      1.61290318e-002 2.01612897e-003 0. 1.00806449e-002 6.04838692e-003
      6.04838692e-003 2.01612897e-003 6.04838692e-003 2.01612897e-003
      6.04838692e-003 8.06451589e-003 8.06451589e-003 2.01612897e-003
      4.03225794e-003 1.00806449e-002 4.03225794e-003 6.04838692e-003
      1.00806449e-002 1.20967738e-002 4.03225794e-003 8.06451589e-003
      6.04838692e-003 6.04838692e-003 2.01612897e-003 8.06451589e-003
      8.06451589e-003 4.03225794e-003 1.61290318e-002 6.04838692e-003
      8.06451589e-003 6.04838692e-003 1.41129028e-002 1.20967738e-002
      1.20967738e-002 0. 1.20967738e-002 2.01612897e-003 1.41129028e-002
      4.03225794e-003 8.06451589e-003 8.06451589e-003 2.01612897e-003
      1.41129028e-002 8.06451589e-003 1.41129028e-002 4.03225794e-003
      4.03225794e-003 2.01612897e-003 4.03225794e-003 4.03225794e-003
      6.04838692e-003 2.41935477e-002 6.04838692e-003 4.03225794e-003
      6.04838692e-003 4.03225794e-003 6.04838692e-003 4.03225794e-003
      6.04838692e-003 0. 2.01612897e-003 6.04838692e-003 2.01612897e-003
      4.03225794e-003 4.03225794e-003 4.03225794e-003 1.20967738e-002
      8.06451589e-003 2.01612897e-003 1.00806449e-002 4.03225794e-003
      8.06451589e-003 1.20967738e-002 2.01612897e-003 6.04838692e-003
      1.41129028e-002 0. 1.20967738e-002 4.03225794e-003 1.00806449e-002
      6.04838692e-003 6.04838692e-003 0. 8.06451589e-003</_>
    <_>
      0. 0. 1.67224072e-002 6.68896316e-003 1.00334445e-002
      1.00334445e-002 0. 1.33779263e-002 0. 1.33779263e-002
      3.34448158e-003 1.00334445e-002 6.68896316e-003 6.68896316e-003
      3.34448158e-003 1.00334445e-002 0. 3.34448158e-003 6.68896316e-003
      2.00668890e-002 6.68896316e-003 0. 3.34448158e-003 6.68896316e-003
      6.68896316e-003 6.68896316e-003 3.34448158e-003 6.68896316e-003 0.
      0. 1.33779263e-002 3.34448158e-003 2.34113708e-002 3.34448158e-003
      6.68896316e-003 0. 1.00334445e-002 0. 3.34448158e-003 0.
      3.34448158e-003 1.33779263e-002 3.34448158e-003 6.68896316e-003 0.
      0. 3.34448158e-003 0. 1.00334445e-002 0. 2.00668890e-002
      1.33779263e-002 3.34448158e-003 1.00334445e-002 6.68896316e-003
      3.34448158e-003 3.34448158e-003 0. 0. 3.34448158e-003
      1.67224072e-002 3.34448158e-003 1.00334445e-002 1.00334445e-002
      1.67224072e-002 3.67892981e-002 0. 0. 6.68896316e-003
      3.34448158e-003 3.34448158e-003 6.68896316e-003 3.34448158e-003 0.
      3.34448158e-003 0. 0. 1.00334445e-002 6.68896316e-003
      3.34448158e-003 1.00334445e-002 1.67224072e-002 1.00334445e-002
      1.00334445e-002 0. 1.00334445e-002 6.68896316e-003 0.
      6.68896316e-003 1.33779263e-002 1.67224072e-002 2.00668890e-002
      1.67224072e-002 6.68896316e-003 6.68896316e-003 6.68896316e-003
      6.68896316e-003 3.34448158e-003 0. 1.67224072e-002 6.68896316e-003
      6.68896316e-003 1.00334445e-002 1.33779263e-002 3.34448158e-003
      1.00334445e-002 3.34448158e-003 3.34448158e-003 0. 0.
      6.68896316e-003 3.34448158e-003 6.68896316e-003 6.68896316e-003
      3.34448158e-003 3.34448158e-003 3.34448158e-003 1.33779263e-002
      1.67224072e-002 1.67224072e-002 3.34448158e-003 6.68896316e-003
      3.34448158e-003 0. 3.34448158e-003 6.68896316e-003 2.34113708e-002
      2.00668890e-002 6.68896316e-003 3.34448158e-003 0. 1.00334445e-002
      1.00334445e-002 0. 6.68896316e-003 1.00334445e-002 6.68896316e-003
      0. 0. 3.34448158e-003 6.68896316e-003 6.68896316e-003
      1.00334445e-002 6.68896316e-003 3.34448158e-003 3.34448158e-003
      6.68896316e-003 6.68896316e-003 3.34448158e-003 1.33779263e-002</_>
    <_>
      3.31125828e-003 0. 0. 6.62251655e-003 0. 6.62251655e-003
      6.62251655e-003 1.32450331e-002 3.31125828e-003 1.32450331e-002
      3.31125828e-003 0. 6.62251655e-003 1.65562909e-002 0.
      1.65562909e-002 6.62251655e-003 1.98675506e-002 6.62251655e-003
      9.93377529e-003 1.65562909e-002 6.62251655e-003 6.62251655e-003
      9.93377529e-003 6.62251655e-003 0. 6.62251655e-003 0.
      3.31125828e-003 1.65562909e-002 3.31125828e-003 0. 6.62251655e-003
      9.93377529e-003 6.62251655e-003 0. 3.31125828e-003 9.93377529e-003
      3.31125828e-003 9.93377529e-003 1.65562909e-002 6.62251655e-003
      9.93377529e-003 6.62251655e-003 9.93377529e-003 6.62251655e-003
      1.98675506e-002 3.31125828e-003 9.93377529e-003 0. 6.62251655e-003
      0. 0. 0. 0. 1.32450331e-002 0. 3.31125828e-003 0. 9.93377529e-003
      1.32450331e-002 0. 3.31125828e-003 1.65562909e-002 0.
      1.32450331e-002 9.93377529e-003 2.31788084e-002 1.65562909e-002
      1.98675506e-002 3.31125828e-003 6.62251655e-003 0. 3.31125828e-003
      9.93377529e-003 6.62251655e-003 0. 9.93377529e-003 9.93377529e-003
      6.62251655e-003 9.93377529e-003 3.31125828e-003 3.31125828e-003
      3.31125828e-003 6.62251655e-003 3.31125828e-003 3.31125828e-003
      3.31125828e-003 1.32450331e-002 1.32450331e-002 1.32450331e-002
      9.93377529e-003 3.31125828e-003 3.31125828e-003 0. 9.93377529e-003
      0. 0. 9.93377529e-003 2.98013240e-002 0. 1.98675506e-002 0. 0.
      6.62251655e-003 3.31125828e-003 1.65562909e-002 6.62251655e-003
      1.32450331e-002 0. 6.62251655e-003 3.31125828e-003 0.
      9.93377529e-003 2.31788084e-002 0. 0. 2.64900662e-002
      3.31125828e-003 0. 0. 6.62251655e-003 6.62251655e-003 0.
      1.32450331e-002 6.62251655e-003 6.62251655e-003 6.62251655e-003 0.
      0. 3.31125828e-003 3.31125828e-003 1.98675506e-002 3.31125828e-003
      3.31125828e-003 9.93377529e-003 1.32450331e-002 0. 6.62251655e-003
      3.31125828e-003 0. 6.62251655e-003 0. 0. 3.31125828e-003
      9.93377529e-003 6.62251655e-003 3.31125828e-003 9.93377529e-003
      6.62251655e-003</_>
    <_>
      1.23762377e-002 4.95049497e-003 7.42574222e-003 4.95049497e-003
      4.95049497e-003 7.42574222e-003 1.23762377e-002 7.42574222e-003
      2.47524749e-003 1.73267331e-002 2.47524749e-003 4.95049497e-003
      9.90098994e-003 4.95049497e-003 9.90098994e-003 4.95049497e-003
      2.47524749e-003 9.90098994e-003 0. 4.95049497e-003 4.95049497e-003
      9.90098994e-003 7.42574222e-003 4.95049497e-003 4.95049497e-003
      9.90098994e-003 7.42574222e-003 7.42574222e-003 9.90098994e-003
      7.42574222e-003 4.95049497e-003 2.47524749e-003 4.95049497e-003
      9.90098994e-003 2.47524749e-003 9.90098994e-003 7.42574222e-003
      4.95049497e-003 7.42574222e-003 7.42574222e-003 0. 7.42574222e-003
      2.47524749e-003 4.95049497e-003 7.42574222e-003 2.47524749e-003 0.
      1.98019799e-002 2.47524749e-003 7.42574222e-003 0. 1.48514844e-002
      9.90098994e-003 4.95049497e-003 7.42574222e-003 9.90098994e-003
      9.90098994e-003 7.42574222e-003 1.98019799e-002 4.95049497e-003
      1.48514844e-002 9.90098994e-003 4.95049497e-003 0. 2.47524749e-003
      2.47524753e-002 7.42574222e-003 7.42574222e-003 0. 7.42574222e-003
      0. 1.73267331e-002 4.95049497e-003 7.42574222e-003 2.47524749e-003
      7.42574222e-003 7.42574222e-003 0. 2.47524749e-003 9.90098994e-003
      1.23762377e-002 0. 4.95049497e-003 1.23762377e-002 2.47524749e-003
      9.90098994e-003 2.47524749e-003 7.42574222e-003 2.47524749e-003 0.
      4.95049497e-003 1.23762377e-002 7.42574222e-003 1.23762377e-002
      2.47524749e-003 2.47524749e-003 7.42574222e-003 2.47524749e-003
      4.95049497e-003 2.22772267e-002 4.95049497e-003 7.42574222e-003 0.
      7.42574222e-003 9.90098994e-003 0. 0. 9.90098994e-003
      2.47524749e-003 2.47524749e-003 7.42574222e-003 0. 2.47524749e-003
      4.95049497e-003 2.47524749e-003 1.23762377e-002 1.23762377e-002
      1.23762377e-002 4.95049497e-003 4.95049497e-003 4.95049497e-003
      2.47524749e-003 7.42574222e-003 4.95049497e-003 0. 2.47524749e-003
      2.47524749e-003 4.95049497e-003 4.95049497e-003 1.23762377e-002
      9.90098994e-003 7.42574222e-003 2.47524753e-002 4.95049497e-003
      9.90098994e-003 1.73267331e-002 2.47524749e-003 7.42574222e-003
      2.47524749e-003 0. 7.42574222e-003 1.23762377e-002 2.47524749e-003
      7.42574222e-003 9.90098994e-003 1.23762377e-002 9.90098994e-003
      2.47524749e-003 2.47524749e-003 2.47524749e-003</_>
    <_>
      2.93255132e-003 5.86510263e-003 8.79765395e-003 1.17302053e-002
      1.46627566e-002 0. 5.86510263e-003 1.46627566e-002 5.86510263e-003
      2.63929628e-002 0. 0. 8.79765395e-003 2.34604105e-002
      2.93255132e-003 8.79765395e-003 8.79765395e-003 5.86510263e-003
      8.79765395e-003 8.79765395e-003 8.79765395e-003 2.93255132e-003
      5.86510263e-003 0. 8.79765395e-003 0. 5.86510263e-003
      2.93255132e-003 2.93255132e-003 1.17302053e-002 2.93255132e-003
      8.79765395e-003 1.17302053e-002 0. 1.17302053e-002 5.86510263e-003
      5.86510263e-003 2.93255132e-003 0. 8.79765395e-003 5.86510263e-003
      2.93255132e-003 2.93255132e-003 1.17302053e-002 2.93255132e-003
      1.17302053e-002 0. 2.93255132e-003 1.17302053e-002 1.46627566e-002
      2.93255132e-003 0. 2.93255132e-003 1.17302053e-002 8.79765395e-003
      1.17302053e-002 8.79765395e-003 5.86510263e-003 5.86510263e-003
      5.86510263e-003 2.93255132e-003 8.79765395e-003 8.79765395e-003
      1.75953079e-002 5.86510263e-003 2.93255132e-003 0. 0.
      2.93255132e-003 1.75953079e-002 2.93255132e-003 5.86510263e-003
      2.93255132e-003 2.93255132e-003 8.79765395e-003 2.93255132e-003
      5.86510263e-003 5.86510263e-003 2.93255132e-003 5.86510263e-003 0.
      5.86510263e-003 2.93255132e-003 8.79765395e-003 0. 2.93255132e-003
      8.79765395e-003 0. 0. 5.86510263e-003 0. 2.93255132e-003
      2.93255132e-003 1.46627566e-002 1.17302053e-002 1.17302053e-002
      1.17302053e-002 1.75953079e-002 0. 1.75953079e-002 8.79765395e-003
      8.79765395e-003 1.17302053e-002 8.79765395e-003 2.93255132e-003
      2.93255132e-003 2.93255132e-003 1.75953079e-002 2.93255132e-003
      8.79765395e-003 0. 1.46627566e-002 2.93255132e-003 2.93255132e-003
      2.93255132e-003 1.17302053e-002 8.79765395e-003 3.81231681e-002
      5.86510263e-003 2.05278583e-002 8.79765395e-003 1.17302053e-002
      5.86510263e-003 0. 2.93255132e-003 0. 1.17302053e-002
      8.79765395e-003 2.93255132e-003 8.79765395e-003 5.86510263e-003
      2.93255132e-003 5.86510263e-003 5.86510263e-003 2.93255132e-003 0.
      2.93255132e-003 8.79765395e-003 8.79765395e-003 5.86510263e-003
      8.79765395e-003 2.93255132e-003 2.93255132e-003 8.79765395e-003 0.
      0. 5.86510263e-003 2.93255132e-003 8.79765395e-003 8.79765395e-003</_>
    <_>
      7.01754401e-003 0. 0. 3.50877200e-003 1.05263162e-002
      1.05263162e-002 3.50877200e-003 1.40350880e-002 3.50877200e-003
      1.05263162e-002 7.01754401e-003 3.50877200e-003 3.50877200e-003
      3.50877200e-003 0. 1.05263162e-002 3.50877200e-003 3.50877200e-003
      7.01754401e-003 0. 3.50877200e-003 1.40350880e-002 3.50877200e-003
      3.50877200e-003 7.01754401e-003 7.01754401e-003 1.75438598e-002
      7.01754401e-003 3.50877200e-003 1.75438598e-002 0. 3.50877200e-003
      7.01754401e-003 7.01754401e-003 1.75438598e-002 1.40350880e-002
      7.01754401e-003 1.05263162e-002 7.01754401e-003 7.01754401e-003
      3.50877200e-003 7.01754401e-003 1.05263162e-002 3.50877200e-003
      3.50877200e-003 7.01754401e-003 0. 7.01754401e-003 0.
      1.05263162e-002 7.01754401e-003 0. 0. 3.50877200e-003
      3.50877200e-003 7.01754401e-003 1.05263162e-002 3.50877200e-003
      3.50877200e-003 7.01754401e-003 1.05263162e-002 7.01754401e-003
      3.50877200e-003 7.01754401e-003 3.50877200e-003 1.75438598e-002
      1.40350880e-002 0. 0. 3.50877200e-003 0. 7.01754401e-003
      1.05263162e-002 0. 0. 1.40350880e-002 3.50877200e-003
      3.50877200e-003 1.40350880e-002 7.01754401e-003 3.50877200e-003
      2.10526325e-002 7.01754401e-003 3.50877200e-003 1.40350880e-002 0.
      7.01754401e-003 7.01754401e-003 1.05263162e-002 3.50877200e-003
      7.01754401e-003 1.40350880e-002 7.01754401e-003 3.50877200e-003
      7.01754401e-003 1.40350880e-002 1.05263162e-002 0. 3.50877200e-003
      3.50877200e-003 2.10526325e-002 7.01754401e-003 1.05263162e-002
      3.50877200e-003 3.50877200e-003 3.50877200e-003 0. 1.05263162e-002
      3.50877200e-003 0. 1.75438598e-002 1.05263162e-002 7.01754401e-003
      0. 2.10526325e-002 0. 0. 1.40350880e-002 1.05263162e-002
      7.01754401e-003 0. 7.01754401e-003 3.50877200e-003 3.50877200e-003
      0. 3.50877200e-003 0. 7.01754401e-003 3.50877200e-003
      3.50877200e-003 1.40350880e-002 1.05263162e-002 3.50877200e-003
      7.01754401e-003 7.01754401e-003 2.10526325e-002 7.01754401e-003
      3.50877200e-003 2.10526325e-002 1.05263162e-002 3.50877200e-003
      7.01754401e-003 0. 3.50877200e-003 7.01754401e-003 7.01754401e-003
      1.40350880e-002 1.40350880e-002 1.05263162e-002 3.50877200e-003</_>
    <_>
      6.84931502e-003 1.36986300e-002 2.05479451e-002 0. 6.84931502e-003
      3.42465751e-003 1.02739725e-002 2.05479451e-002 1.02739725e-002
      3.42465751e-003 3.42465751e-003 6.84931502e-003 0. 1.36986300e-002
      3.42465751e-003 6.84931502e-003 3.42465751e-003 3.42465751e-003
      1.36986300e-002 3.42465751e-003 1.02739725e-002 3.42465751e-003
      1.02739725e-002 1.02739725e-002 3.42465751e-003 6.84931502e-003
      6.84931502e-003 3.42465751e-003 1.02739725e-002 6.84931502e-003
      3.42465751e-003 1.36986300e-002 0. 6.84931502e-003 2.39726026e-002
      6.84931502e-003 1.02739725e-002 1.02739725e-002 6.84931502e-003
      6.84931502e-003 3.42465751e-003 0. 6.84931502e-003 1.71232875e-002
      3.42465751e-003 3.42465751e-003 0. 6.84931502e-003 3.42465751e-003
      1.02739725e-002 3.42465751e-003 1.02739725e-002 6.84931502e-003
      3.42465751e-003 0. 6.84931502e-003 3.42465751e-003 3.42465751e-003
      0. 0. 0. 1.36986300e-002 3.42465751e-003 1.02739725e-002
      1.36986300e-002 2.05479451e-002 1.02739725e-002 1.36986300e-002
      6.84931502e-003 0. 6.84931502e-003 6.84931502e-003 0.
      3.42465751e-003 3.42465751e-003 6.84931502e-003 0. 1.02739725e-002
      6.84931502e-003 3.42465751e-003 1.02739725e-002 3.42465751e-003
      6.84931502e-003 3.42465751e-003 6.84931502e-003 1.02739725e-002
      1.02739725e-002 3.42465751e-003 0. 6.84931502e-003 0.
      3.42465751e-003 1.36986300e-002 0. 6.84931502e-003 6.84931502e-003
      3.42465751e-003 3.42465751e-003 3.42465751e-003 0. 6.84931502e-003
      3.42465751e-003 1.02739725e-002 6.84931502e-003 1.36986300e-002
      1.71232875e-002 0. 0. 6.84931502e-003 1.02739725e-002
      6.84931502e-003 6.84931502e-003 6.84931502e-003 0. 3.42465751e-003
      6.84931502e-003 6.84931502e-003 3.08219176e-002 3.42465751e-003
      6.84931502e-003 1.71232875e-002 6.84931502e-003 3.42465751e-003
      1.02739725e-002 6.84931502e-003 3.42465751e-003 0. 3.42465751e-003
      3.42465751e-003 1.02739725e-002 1.71232875e-002 3.42465751e-003
      1.02739725e-002 3.42465751e-003 3.42465751e-003 6.84931502e-003
      3.42465751e-003 3.42465751e-003 0. 3.42465751e-003 1.36986300e-002
      6.84931502e-003 1.02739725e-002 1.02739725e-002 6.84931502e-003
      3.42465751e-003 3.42465751e-003 3.42465751e-003 3.42465751e-003
      1.36986300e-002</_>
    <_>
      0. 4.46428591e-003 2.67857164e-002 8.92857183e-003 0.
      2.23214291e-002 4.46428591e-003 1.78571437e-002 1.78571437e-002 0.
      4.46428591e-003 4.46428591e-003 4.46428591e-003 1.33928582e-002 0.
      1.78571437e-002 1.33928582e-002 0. 8.92857183e-003 8.92857183e-003
      1.33928582e-002 4.46428591e-003 4.46428591e-003 4.46428591e-003 0.
      8.92857183e-003 0. 4.46428591e-003 4.46428591e-003 1.78571437e-002
      0. 1.33928582e-002 2.23214291e-002 0. 0. 0. 0. 0. 8.92857183e-003
      0. 0. 4.46428591e-003 4.46428591e-003 1.78571437e-002
      1.33928582e-002 0. 8.92857183e-003 4.46428591e-003 4.46428591e-003
      4.46428591e-003 8.92857183e-003 4.46428591e-003 0. 1.78571437e-002
      0. 2.23214291e-002 8.92857183e-003 1.33928582e-002 0.
      4.46428591e-003 4.46428591e-003 4.46428591e-003 8.92857183e-003
      4.46428591e-003 1.33928582e-002 4.46428591e-003 0. 0. 0.
      4.46428591e-003 4.46428591e-003 0. 0. 4.46428591e-003
      8.92857183e-003 1.78571437e-002 0. 4.46428591e-003 8.92857183e-003
      4.46428591e-003 0. 1.33928582e-002 1.33928582e-002 0. 0. 0. 0.
      4.46428591e-003 4.46428591e-003 2.67857164e-002 8.92857183e-003
      1.78571437e-002 0. 1.33928582e-002 4.46428591e-003 8.92857183e-003
      4.46428591e-003 4.46428591e-003 8.92857183e-003 0. 1.33928582e-002
      8.92857183e-003 1.33928582e-002 8.92857183e-003 4.46428591e-003
      4.46428591e-003 0. 4.46428591e-003 1.78571437e-002 1.33928582e-002
      8.92857183e-003 8.92857183e-003 8.92857183e-003 0. 0.
      4.46428591e-003 8.92857183e-003 1.33928582e-002 0. 8.92857183e-003
      4.46428591e-003 4.46428591e-003 0. 0. 1.33928582e-002 0.
      2.67857164e-002 1.33928582e-002 1.33928582e-002 4.46428591e-003 0.
      1.33928582e-002 4.46428591e-003 8.92857183e-003 4.46428591e-003
      3.12500000e-002 4.46428591e-003 0. 4.46428591e-003 0.
      8.92857183e-003 0. 4.46428591e-003 0. 4.46428591e-003
      8.92857183e-003 0. 0. 4.46428591e-003 4.46428591e-003</_>
    <_>
      0. 0. 0. 1.05263162e-002 0. 2.10526325e-002 0. 0. 5.26315812e-003
      5.26315812e-003 0. 0. 1.05263162e-002 5.26315812e-003
      5.26315812e-003 2.63157897e-002 1.57894753e-002 5.26315812e-003
      5.26315812e-003 5.26315812e-003 0. 1.57894753e-002 0.
      1.05263162e-002 1.05263162e-002 0. 1.05263162e-002 1.05263162e-002
      5.26315812e-003 2.10526325e-002 0. 5.26315812e-003 1.57894753e-002
      0. 0. 0. 5.26315812e-003 1.05263162e-002 5.26315812e-003
      2.10526325e-002 1.57894753e-002 5.26315812e-003 5.26315812e-003
      5.26315812e-003 5.26315812e-003 0. 1.05263162e-002 0.
      1.05263162e-002 1.05263162e-002 1.05263162e-002 5.26315812e-003
      2.10526325e-002 5.26315812e-003 5.26315812e-003 5.26315812e-003
      1.05263162e-002 5.26315812e-003 1.05263162e-002 1.57894753e-002
      5.26315812e-003 5.26315812e-003 0. 0. 5.26315812e-003 0. 0.
      5.26315812e-003 5.26315812e-003 3.15789506e-002 1.05263162e-002
      1.57894753e-002 5.26315812e-003 5.26315812e-003 2.10526325e-002 0.
      1.05263162e-002 2.10526325e-002 5.26315812e-003 0. 5.26315812e-003
      0. 1.05263162e-002 0. 5.26315812e-003 0. 5.26315812e-003
      5.26315812e-003 1.05263162e-002 5.26315812e-003 0. 0.
      5.26315812e-003 1.57894753e-002 0. 1.05263162e-002 5.26315812e-003
      5.26315812e-003 5.26315812e-003 0. 1.05263162e-002 1.05263162e-002
      1.05263162e-002 5.26315812e-003 5.26315812e-003 0. 5.26315812e-003
      0. 5.26315812e-003 0. 1.57894753e-002 1.57894753e-002
      1.05263162e-002 5.26315812e-003 0. 1.57894753e-002 5.26315812e-003
      2.63157897e-002 5.26315812e-003 0. 5.26315812e-003 5.26315812e-003
      2.10526325e-002 5.26315812e-003 5.26315812e-003 0. 5.26315812e-003
      1.57894753e-002 0. 1.05263162e-002 0. 0. 0. 5.26315812e-003 0.
      5.26315812e-003 1.57894753e-002 1.05263162e-002 5.26315812e-003 0.
      5.26315812e-003 0. 0. 5.26315812e-003 0. 1.05263162e-002
      1.05263162e-002 5.26315812e-003 1.05263162e-002 5.26315812e-003</_>
    <_>
      6.13496918e-003 2.04498973e-003 1.22699384e-002 0. 1.22699384e-002
      1.02249486e-002 6.13496918e-003 2.65848674e-002 2.04498973e-003
      8.17995891e-003 0. 1.63599178e-002 1.02249486e-002 1.84049085e-002
      8.17995891e-003 8.17995891e-003 4.08997945e-003 6.13496918e-003
      1.43149281e-002 2.04498973e-003 6.13496918e-003 4.08997945e-003
      6.13496918e-003 2.04498973e-003 4.08997945e-003 6.13496918e-003
      2.04498973e-003 1.02249486e-002 2.04498973e-003 1.63599178e-002
      6.13496918e-003 1.63599178e-002 6.13496918e-003 4.08997945e-003
      1.22699384e-002 2.04498973e-003 1.22699384e-002 8.17995891e-003 0.
      2.04498973e-003 8.17995891e-003 1.02249486e-002 6.13496918e-003
      6.13496918e-003 6.13496918e-003 3.27198356e-002 0. 2.04498973e-003
      2.04498973e-003 2.04498973e-003 2.04498973e-003 4.08997945e-003
      1.02249486e-002 0. 0. 6.13496918e-003 0. 4.08997945e-003
      2.04498973e-003 0. 1.02249486e-002 8.17995891e-003 2.04498973e-003
      8.17995891e-003 4.08997945e-003 3.47648263e-002 4.08997945e-003
      2.04498973e-003 6.13496918e-003 1.22699384e-002 4.08997945e-003
      8.17995891e-003 4.08997945e-003 0. 4.08997945e-003 1.02249486e-002
      4.08997945e-003 4.08997945e-003 1.43149281e-002 2.04498973e-003
      8.17995891e-003 4.08997945e-003 4.08997945e-003 2.04498973e-003
      2.04498973e-003 8.17995891e-003 0. 4.08997945e-003 0.
      6.13496918e-003 1.63599178e-002 8.17995891e-003 1.22699384e-002
      2.04498973e-003 1.22699384e-002 2.04498973e-003 1.22699384e-002
      4.08997945e-003 1.02249486e-002 6.13496918e-003 6.13496918e-003
      1.22699384e-002 4.08997945e-003 4.08997945e-003 4.08997945e-003 0.
      8.17995891e-003 2.86298562e-002 0. 4.08997945e-003 2.04498973e-003
      2.04498973e-003 6.13496918e-003 0. 4.08997945e-003 1.02249486e-002
      8.17995891e-003 3.27198356e-002 4.08997945e-003 6.13496918e-003
      4.08997945e-003 4.08997945e-003 2.04498973e-003 4.08997945e-003
      6.13496918e-003 4.08997945e-003 6.13496918e-003 1.22699384e-002
      6.13496918e-003 8.17995891e-003 8.17995891e-003 2.04498973e-003
      6.13496918e-003 4.08997945e-003 2.04498973e-003 6.13496918e-003
      2.04498973e-003 2.04498973e-003 2.04498973e-003 0. 2.04498973e-002
      1.02249486e-002 0. 4.08997945e-003 4.08997945e-003 1.22699384e-002
      0. 4.08997945e-003 2.04498973e-002 6.13496918e-003</_>
    <_>
      3.21543403e-003 6.43086806e-003 9.64630209e-003 6.43086806e-003 0.
      0. 6.43086806e-003 2.57234722e-002 0. 6.43086806e-003 0.
      6.43086806e-003 6.43086806e-003 6.43086806e-003 0. 6.43086806e-003
      6.43086806e-003 1.28617361e-002 6.43086806e-003 0. 1.28617361e-002
      3.21543403e-003 1.28617361e-002 9.64630209e-003 3.21543403e-003 0.
      3.21543403e-003 1.92926042e-002 0. 9.64630209e-003 0.
      3.21543403e-003 6.43086806e-003 3.21543403e-003 9.64630209e-003 0.
      3.21543403e-003 1.28617361e-002 6.43086806e-003 9.64630209e-003
      6.43086806e-003 1.28617361e-002 6.43086806e-003 6.43086806e-003
      9.64630209e-003 0. 0. 1.28617361e-002 3.21543403e-003
      3.21543403e-003 3.21543403e-002 3.21543403e-003 3.21543403e-003
      1.28617361e-002 6.43086806e-003 9.64630209e-003 3.21543403e-003
      3.21543403e-003 0. 9.64630209e-003 9.64630209e-003 0. 0.
      6.43086806e-003 6.43086806e-003 1.92926042e-002 3.21543403e-003
      9.64630209e-003 1.28617361e-002 6.43086806e-003 3.21543403e-003
      3.21543403e-003 1.28617361e-002 6.43086806e-003 0. 3.21543403e-003
      1.28617361e-002 6.43086806e-003 3.21543403e-003 0. 0.
      1.28617361e-002 3.21543403e-003 6.43086806e-003 6.43086806e-003
      3.21543403e-003 3.21543403e-003 1.28617361e-002 6.43086806e-003
      1.92926042e-002 0. 6.43086806e-003 6.43086806e-003 1.28617361e-002
      3.21543403e-003 3.21543403e-003 3.21543403e-003 3.21543403e-003
