<?xml version="1.0"?>
<opencv_storage>
<my_svm type_id="opencv-ml-svm">
  <svm_type>C_SVC</svm_type>
  <kernel><type>RBF</type>
    <gamma>5.0625000000000009e-001</gamma></kernel>
  <C>6.2500000000000000e+001</C>
  <term_criteria><epsilon>1.1920928955078125e-007</epsilon>
    <iterations>1000</iterations></term_criteria>
  <var_all>150</var_all>
  <var_count>150</var_count>
  <class_count>2</class_count>
  <class_labels type_id="opencv-matrix">
    <rows>1</rows>
    <cols>2</cols>
    <dt>i</dt>
    <data>
      0 1</data></class_labels>
  <sv_total>68</sv_total>
  <support_vectors>
    <_>
      0. 4.76190494e-003 4.76190494e-003 4.76190494e-003 9.52380989e-003
      4.76190494e-003 0. 9.52380989e-003 4.76190494e-003 4.76190494e-003
      2.38095243e-002 1.90476198e-002 4.76190494e-003 0. 0.
      4.76190494e-003 2.38095243e-002 0. 1.90476198e-002 0. 0.
      2.38095243e-002 4.76190494e-003 0. 9.52380989e-003 0.
      1.90476198e-002 0. 4.76190494e-003 1.90476198e-002 4.76190494e-003
      1.42857153e-002 4.76190494e-003 1.42857153e-002 4.76190494e-003 0.
      0. 0. 9.52380989e-003 4.76190494e-003 0. 4.76190494e-003
      9.52380989e-003 9.52380989e-003 4.76190494e-003 4.76190494e-003 0.
      4.76190494e-003 0. 0. 4.76190494e-003 4.76190494e-003
      2.38095243e-002 1.42857153e-002 4.76190494e-003 9.52380989e-003
      1.42857153e-002 3.33333351e-002 0. 0. 0. 4.76190494e-003 0.
      9.52380989e-003 1.90476198e-002 9.52380989e-003 0. 4.76190494e-003
      1.42857153e-002 1.90476198e-002 1.42857153e-002 0. 0.
      1.42857153e-002 0. 4.76190494e-003 0. 1.42857153e-002
      9.52380989e-003 1.42857153e-002 0. 9.52380989e-003 0.
      9.52380989e-003 4.76190494e-003 0. 0. 4.76190494e-003 0.
      4.76190494e-003 0. 4.76190494e-003 0. 0. 1.90476198e-002 0. 0.
      2.38095243e-002 0. 9.52380989e-003 2.85714306e-002 9.52380989e-003
      4.76190494e-003 4.76190494e-003 0. 1.42857153e-002 0.
      1.42857153e-002 2.85714306e-002 0. 0. 2.85714306e-002 0. 0.
      4.76190494e-003 0. 0. 4.76190494e-003 4.76190494e-003
      1.90476198e-002 0. 0. 4.76190494e-003 4.76190494e-003
      9.52380989e-003 0. 0. 0. 0. 0. 1.42857153e-002 3.33333351e-002
      1.42857153e-002 4.76190494e-003 4.76190494e-003 4.76190494e-003 0.
      4.76190494e-003 0. 4.76190494e-003 0. 1.90476198e-002
      9.52380989e-003 0. 0. 1.90476198e-002 0. 0. 4.76190494e-003
      4.76190494e-003</_>
    <_>
      0. 0. 2.27272734e-002 0. 2.27272734e-002 0. 0. 4.54545468e-002 0.
      0. 0. 0. 0. 2.27272734e-002 0. 0. 0. 0. 0. 2.27272734e-002
      4.54545468e-002 0. 0. 0. 0. 0. 0. 2.27272734e-002 0. 0. 0. 0. 0.
      0. 4.54545468e-002 2.27272734e-002 0. 2.27272734e-002 0. 0. 0. 0.
      0. 0. 0. 0. 4.54545468e-002 0. 0. 2.27272734e-002 0. 0. 0. 0. 0.
      0. 0. 0. 0. 0. 0. 0. 0. 0. 0. 0. 0. 0. 0. 0. 0. 2.27272734e-002
      2.27272734e-002 0. 0. 6.81818202e-002 0. 0. 0. 0. 0. 0. 0. 0. 0.
      0. 0. 0. 0. 0. 0. 2.27272734e-002 0. 0. 2.27272734e-002
      2.27272734e-002 0. 0. 2.27272734e-002 2.27272734e-002 0. 0. 0. 0.
      0. 0. 0. 2.27272734e-002 0. 0. 0. 0. 2.27272734e-002 0. 0. 0. 0.
      2.27272734e-001 0. 0. 0. 0. 0. 0. 0. 0. 0. 2.27272734e-002 0. 0.
      0. 0. 2.27272734e-002 0. 0. 2.27272734e-002 0. 0. 0.
      2.27272734e-002 0. 0. 2.27272734e-002 0. 0. 0. 2.27272734e-002 0.
      0. 0.</_>
    <_>
      0. 0. 2.20994484e-002 0. 3.86740342e-002 0. 5.52486209e-003
      5.52486209e-003 5.52486209e-003 5.52486209e-003 0. 2.20994484e-002
      0. 2.20994484e-002 0. 0. 0. 0. 1.10497242e-002 5.52486209e-003 0.
      0. 5.52486209e-003 0. 5.52486209e-003 0. 0. 0. 0. 0. 0.
      1.10497242e-002 0. 1.10497242e-002 4.41988967e-002 5.52486209e-003
      5.52486209e-003 0. 0. 0. 0. 0. 0. 0. 0. 8.28729346e-002 0. 0. 0.
      0. 1.10497242e-002 5.52486209e-003 0. 0. 0. 1.10497242e-002 0. 0.
      0. 0. 0. 1.65745858e-002 0. 0. 3.86740342e-002 1.04972377e-001 0.
      0. 0. 0. 0. 5.52486209e-003 0. 0. 0. 0. 0. 0. 0. 5.52486209e-003
      0. 0. 0. 0. 0. 0. 0. 1.10497242e-002 0. 0. 5.52486209e-003
      5.52486209e-003 2.76243109e-002 0. 0. 0. 0. 0. 0. 0. 0.
      5.52486209e-003 2.20994484e-002 0. 0. 0. 0. 1.38121545e-001 0. 0.
      0. 0. 1.10497242e-002 5.52486209e-003 0. 0. 1.10497242e-002
      5.52486209e-003 0. 6.07734844e-002 0. 5.52486209e-003 0. 0. 0. 0.
      0. 0. 5.52486209e-003 0. 2.20994484e-002 0. 2.20994484e-002 0. 0.
      2.20994484e-002 0. 1.10497242e-002 5.52486209e-003 0.
      3.86740342e-002 1.65745858e-002 2.20994484e-002 0. 0. 0. 0. 0.
      5.52486209e-003 0.</_>
    <_>
      0. 0. 4.42477874e-002 0. 1.59292042e-001 0. 0. 8.84955749e-003 0.
      8.84955749e-003 0. 1.76991150e-002 0. 0. 0. 0. 0. 0.
      8.84955749e-003 0. 0. 0. 0. 0. 0. 0. 0. 0. 0. 0. 0. 0. 0.
      1.76991150e-002 3.53982300e-002 8.84955749e-003 0. 0. 0. 0. 0.
      8.84955749e-003 8.84955749e-003 0. 0. 8.84955749e-002 0. 0. 0. 0.
      8.84955749e-003 0. 0. 0. 0. 8.84955749e-003 0. 0. 8.84955749e-003
      0. 8.84955749e-003 8.84955749e-003 0. 0. 8.84955749e-003
      2.03539819e-001 0. 0. 0. 0. 0. 0. 0. 0. 0. 8.84955749e-003 0. 0.
      8.84955749e-003 0. 0. 0. 0. 0. 0. 0. 0. 0. 0. 0. 0.
      8.84955749e-003 2.65486725e-002 0. 0. 0. 0. 0. 0. 8.84955749e-003
      8.84955749e-003 0. 8.84955749e-003 0. 0. 8.84955749e-003 0.
      7.96460211e-002 0. 8.84955749e-003 0. 0. 0. 0. 0. 0. 0. 0.
      1.76991150e-002 0. 1.76991150e-002 0. 8.84955749e-003 0. 0. 0. 0.
      0. 0. 0. 8.84955749e-003 0. 8.84955749e-003 0. 8.84955749e-003
      8.84955749e-003 0. 0. 0. 0. 0. 5.30973449e-002 1.76991150e-002 0.
      0. 0. 0. 0. 0. 0.</_>
    <_>
      2.30414756e-002 0. 4.14746553e-002 0. 1.84331797e-002 0. 0.
      4.60829493e-003 4.60829493e-003 0. 0. 3.22580636e-002
      1.38248848e-002 4.60829493e-003 1.38248848e-002 0. 4.60829493e-003
      4.60829493e-003 0. 0. 0. 0. 0. 0. 9.21658985e-003 4.60829493e-003
      4.60829493e-003 0. 0. 0. 0. 4.60829493e-003 0. 0. 1.38248848e-002
      9.21658985e-003 0. 4.60829493e-003 0. 0. 0. 9.21658985e-003
      1.38248848e-002 0. 0. 4.60829493e-003 0. 9.21658985e-003 0. 0.
      4.60829493e-003 1.38248848e-002 0. 0. 2.30414756e-002
      9.21658985e-003 9.21658985e-003 0. 0. 5.06912433e-002
      4.60829493e-003 0. 0. 1.84331797e-002 4.60829493e-003
      1.84331797e-002 4.60829493e-003 0. 4.60829493e-003 0. 0.
      9.21658985e-003 3.68663594e-002 4.60829493e-003 0. 9.21658985e-003
      0. 0. 4.60829493e-003 6.45161271e-002 1.84331797e-002 0.
      1.84331797e-002 9.21658985e-003 0. 4.60829493e-003 0. 0. 0.
      9.21658985e-003 0. 9.21658985e-003 2.30414756e-002 0.
      4.60829493e-003 0. 2.76497696e-002 2.30414756e-002 0. 0. 0.
      4.60829493e-003 1.38248848e-002 1.38248848e-002 0. 9.21658985e-003
      0. 9.21658985e-003 0. 0. 1.38248848e-002 0. 0. 0. 4.60829493e-003
      0. 1.84331797e-002 0. 3.22580636e-002 0. 9.21658985e-003 0.
      1.38248848e-002 0. 0. 4.60829493e-003 9.21658985e-003 0. 0.
      4.60829493e-003 4.14746553e-002 0. 0. 3.22580636e-002 0. 0.
      9.21658985e-003 4.60829493e-003 1.38248848e-002 4.60829493e-003
      4.60829493e-003 0. 9.21658985e-003 4.60829493e-003 0.
      4.60829493e-003 4.60829493e-003 4.60829493e-003 4.60829493e-003 0.</_>
    <_>
      0. 0. 1.69491526e-002 1.12994350e-002 0. 2.25988701e-002
      5.64971752e-003 1.63841814e-001 0. 5.64971752e-003 1.12994350e-002
      0. 0. 0. 0. 2.82485876e-002 2.25988701e-002 0. 0. 0. 0.
      5.64971752e-003 0. 0. 0. 0. 0. 5.64971752e-003 0. 1.12994350e-002
      0. 0. 0. 0. 0. 0. 0. 0. 3.38983051e-002 0. 1.69491526e-002 0. 0.
      2.82485876e-002 2.25988701e-002 5.64971752e-003 1.69491526e-002 0.
      0. 5.64971752e-003 5.64971752e-003 5.64971752e-003 0.
      3.38983051e-002 0. 5.64971752e-003 0. 5.64971752e-003 0. 0. 0. 0.
      5.64971752e-003 0. 0. 5.64971752e-003 0. 0. 0. 3.38983051e-002
      5.64971752e-003 5.64971752e-003 5.64971752e-003 5.64971752e-003
      1.12994350e-002 1.69491526e-002 5.64971752e-003 0. 5.64971752e-003
      0. 0. 0. 5.64971752e-003 0. 0. 0. 0. 5.64971752e-003
      5.64971752e-003 0. 0. 5.64971752e-003 0. 5.64971752e-003 0. 0.
      1.12994350e-002 5.64971752e-003 0. 5.64971752e-003 0.
      5.64971752e-003 0. 5.64971752e-003 0. 0. 1.69491526e-002 0.
      4.51977402e-002 0. 0. 2.82485876e-002 0. 0. 1.12994350e-002
      5.64971752e-003 0. 1.12994350e-001 0. 0. 0. 0. 5.64971752e-003
      1.12994350e-002 1.12994350e-002 0. 0. 0. 0. 5.64971752e-003 0.
      2.82485876e-002 5.64971752e-003 0. 0. 1.69491526e-002
      5.64971752e-003 0. 0. 0. 0. 5.64971752e-003 5.64971752e-003
      5.64971752e-003 0. 5.64971752e-003 0. 0. 0. 0.</_>
    <_>
      0. 0. 3.03030312e-002 0. 1.51515156e-002 0. 0. 1.06060609e-001 0.
      0. 0. 1.51515156e-002 0. 6.06060624e-002 1.51515156e-002 0. 0. 0.
      0. 3.03030312e-002 0. 0. 0. 0. 0. 0. 0. 4.54545468e-002 0. 0. 0.
      0. 0. 0. 0. 0. 0. 1.51515156e-002 0. 0. 0. 1.51515156e-002 0. 0.
      1.51515156e-002 1.51515156e-002 0. 0. 0. 0. 0. 0. 0. 0. 0.
      1.51515156e-002 0. 0. 0. 0. 1.51515156e-002 0. 0. 3.03030312e-002
      0. 3.03030312e-002 0. 0. 4.54545468e-002 0. 0. 0. 0. 0. 0.
      4.54545468e-002 0. 0. 4.54545468e-002 0. 3.03030312e-002 0. 0.
      1.51515156e-002 0. 0. 0. 1.51515156e-002 0. 0. 3.03030312e-002
      1.51515156e-002 1.51515156e-002 0. 0. 4.54545468e-002 0. 0. 0. 0.
      0. 0. 0. 1.51515156e-002 0. 0. 0. 1.51515156e-002 0. 0. 0. 0. 0.
      0. 3.03030312e-002 0. 0. 1.06060609e-001 1.51515156e-002 0. 0.
      1.51515156e-002 0. 0. 1.51515156e-002 0. 0. 0. 0. 0.
      1.51515156e-002 0. 0. 0. 0. 0. 0. 0. 0. 0. 0. 0. 0. 0. 0. 0. 0. 0.
      0. 0.</_>
    <_>
      1.63934417e-002 0. 1.63934417e-002 0. 2.73224026e-001 0. 0. 0.
      5.46448072e-003 0. 0. 5.46448072e-003 0. 0. 0. 0. 0. 0. 0. 0.
      5.46448072e-003 0. 0. 0. 1.63934417e-002 0. 0. 0. 0. 0. 0. 0. 0.
      1.09289614e-002 5.46448072e-003 5.46448072e-003 0. 0. 0. 0. 0.
      1.09289614e-002 1.09289614e-002 0. 0. 3.27868834e-002 0. 0. 0. 0.
      0. 1.63934417e-002 0. 0. 0. 1.09289614e-002 1.63934417e-002 0. 0.
      0. 0. 1.09289614e-002 0. 0. 1.63934417e-002 5.46448072e-003 0. 0.
      0. 0. 0. 0. 5.46448072e-003 0. 0. 0. 0. 0. 5.46448072e-003
      5.46448072e-003 5.46448072e-003 0. 0. 0. 0. 0. 0. 0.
      5.46448072e-003 0. 0. 5.46448072e-003 0. 0. 5.46448072e-003 0.
      5.46448072e-003 0. 0. 2.18579229e-002 0. 0. 5.46448072e-003 0. 0.
      1.09289614e-002 0. 1.14754096e-001 0. 0. 0. 0. 0. 0. 0. 0.
      2.73224041e-002 0. 0. 2.18579229e-002 3.82513665e-002 0. 0. 0. 0.
      0. 0. 0. 0. 5.46448072e-003 2.73224041e-002 0. 1.09289614e-002 0.
      0. 6.55737668e-002 0. 5.46448072e-003 1.09289614e-002 0. 0.
      7.65027329e-002 1.63934417e-002 0. 0. 0. 0. 0. 5.46448072e-003 0.</_>
    <_>
      6.62251655e-003 0. 1.32450331e-002 0. 2.64900662e-002 0. 0.
      7.28476793e-002 0. 0. 0. 0. 6.62251655e-003 7.94702023e-002
      2.64900662e-002 1.32450331e-002 0. 0. 4.63576168e-002
      1.98675506e-002 6.62251655e-003 0. 0. 0. 0. 0. 1.98675506e-002
      6.62251655e-003 0. 0. 0. 0. 0. 0. 6.62251655e-003 0. 0.
      6.62251655e-003 0. 0. 0. 0. 0. 0. 0. 6.62251636e-002
      6.62251655e-003 0. 6.62251655e-003 0. 6.62251655e-003 0.
      6.62251655e-003 0. 0. 6.62251655e-003 6.62251655e-003
      6.62251655e-003 0. 0. 6.62251655e-003 0. 0. 1.98675506e-002
      6.62251655e-003 1.98675506e-002 0. 0. 0. 6.62251655e-003 0.
      6.62251655e-003 0. 0. 0. 6.62251655e-003 6.62251655e-003 0.
      6.62251655e-003 6.62251655e-003 1.32450331e-002 0. 0.
      1.32450331e-002 6.62251655e-003 6.62251655e-003 0. 0. 0. 0.
      3.31125818e-002 6.62251655e-003 6.62251655e-003 0. 6.62251655e-003
      0. 0. 0. 0. 6.62251655e-003 0. 1.32450331e-002 6.62251655e-003 0.
      0. 0. 0. 5.96026480e-002 0. 0. 0. 1.32450331e-002 6.62251655e-003
      0. 0. 0. 1.98675506e-002 4.63576168e-002 6.62251655e-003
      1.98675506e-002 1.32450331e-002 0. 0. 6.62251655e-003 0. 0. 0. 0.
      6.62251655e-003 0. 0. 0. 1.98675506e-002 0. 6.62251655e-003
      6.62251655e-003 0. 0. 0. 0. 0. 3.31125818e-002 6.62251655e-003
      6.62251655e-003 0. 6.62251655e-003 1.32450331e-002 6.62251655e-003
      6.62251655e-003 6.62251655e-003</_>
    <_>
      8.87311471e-004 0. 1.77462294e-003 8.87311471e-004 3.54924588e-003
      8.87311471e-004 1.77462294e-003 5.32386871e-003 1.70363799e-001
      1.15350494e-002 2.39574090e-002 2.04081647e-002 8.87311471e-004
      6.21118024e-003 6.29991144e-002 8.87311471e-004 1.77462294e-003 0.
      2.12954748e-002 1.77462287e-002 0. 4.43655718e-003 2.66193436e-003
      1.77462294e-003 1.06477374e-002 1.77462294e-003 5.32386871e-003
      2.66193436e-003 2.30700988e-002 6.21118024e-003 5.32386871e-003
      1.77462294e-003 0. 1.15350494e-002 0. 1.24223605e-002
      1.77462294e-003 8.87311471e-004 2.66193436e-003 8.87311436e-003
      8.87311471e-004 1.77462294e-003 8.87311471e-004 8.87311471e-004
      1.77462294e-003 0. 0. 3.54924588e-003 1.77462294e-003
      8.87311471e-004 3.54924588e-003 1.41969835e-002 3.54924588e-003
      8.87311471e-004 8.87311471e-004 1.15350494e-002 3.01685892e-002
      9.76042636e-003 9.76042636e-003 4.43655718e-003 3.54924588e-003
      7.09849177e-003 4.43655718e-003 0. 3.54924588e-003 7.09849177e-003
      0. 0. 4.43655718e-003 1.77462294e-003 0. 5.32386871e-003
      8.87311471e-004 2.39574090e-002 1.77462294e-003 4.43655718e-003
      3.54924588e-003 9.76042636e-003 5.32386871e-003 1.77462294e-003
      1.77462294e-003 4.43655718e-003 4.43655718e-003 2.92812791e-002
      2.66193436e-003 1.77462294e-003 3.54924588e-003 4.43655718e-003 0.
      8.87311471e-004 3.54924588e-003 2.04081647e-002 1.77462294e-003
      1.77462294e-003 1.77462294e-003 2.66193436e-003 1.24223605e-002
      8.87311471e-004 1.77462294e-003 1.77462294e-003 5.32386871e-003
      8.87311471e-004 1.15350494e-002 3.54924588e-003 9.76042636e-003
      1.77462294e-003 0. 0. 5.32386871e-003 1.68589186e-002
      7.09849177e-003 4.43655718e-003 4.43655718e-003 1.50842946e-002
      5.32386871e-003 1.41969835e-002 6.21118024e-003 6.21118024e-003
      2.66193436e-003 1.77462294e-003 2.66193436e-003 1.41969835e-002
      5.32386871e-003 7.09849177e-003 0. 8.87311471e-004 0.
      2.66193436e-003 8.87311436e-003 3.54924588e-003 3.54924588e-003 0.
      1.77462294e-003 1.86335407e-002 5.32386871e-003 8.87311471e-004
      7.09849177e-003 0. 1.77462294e-003 0. 1.77462294e-003 0.
      2.66193436e-003 1.50842946e-002 1.06477374e-002 6.21118024e-003
      1.77462294e-003 1.77462294e-003 8.87311471e-004 3.54924588e-003</_>
    <_>
      1.07526882e-002 0. 1.07526882e-002 1.07526882e-002 7.52688199e-002
      0. 0. 2.15053763e-002 0. 0. 1.07526882e-002 0. 0. 1.07526882e-002
      0. 0. 0. 0. 0. 1.07526882e-002 0. 0. 0. 0. 1.07526882e-002 0.
      1.07526882e-002 3.22580636e-002 0. 0. 0. 0. 0. 0. 1.07526882e-002
      0. 1.07526882e-002 0. 0. 0. 0. 0. 0. 0. 0. 0. 0. 0. 0. 0. 0.
      1.07526882e-002 0. 0. 0. 1.07526882e-002 1.07526882e-002 0. 0. 0.
      0. 1.07526882e-002 1.07526882e-002 0. 0. 3.22580636e-002 0. 0.
      5.37634417e-002 0. 0. 0. 1.07526882e-002 1.07526882e-002 0. 0. 0.
      0. 0. 4.30107526e-002 0. 0. 0. 0. 1.07526882e-002 1.07526882e-002
      0. 0. 0. 0. 0. 1.07526882e-002 0. 0. 0. 1.07526882e-002 0. 0. 0.
      0. 0. 2.15053763e-002 1.07526882e-002 0. 0. 3.22580636e-002 0.
      9.67741907e-002 0. 1.07526882e-002 0. 0. 1.07526882e-002 0. 0. 0.
      0. 1.07526882e-002 1.07526882e-002 1.07526882e-002 4.30107526e-002
      0. 0. 0. 0. 0. 0. 0. 1.07526882e-002 0. 6.45161271e-002 0.
      1.07526882e-002 0. 0. 4.30107526e-002 0. 0. 1.07526882e-002 0.
      2.15053763e-002 7.52688199e-002 1.07526882e-002 0. 0. 0. 0. 0.
      1.07526882e-002 0.</_>
    <_>
      2.23880596e-002 0. 0. 0. 2.23880596e-002 0. 0. 6.71641752e-002
      1.49253728e-002 7.46268639e-003 7.46268639e-003 2.98507456e-002 0.
      2.98507456e-002 1.49253728e-002 0. 1.49253728e-002 0. 0. 0. 0.
      7.46268639e-003 0. 0. 0. 0. 0. 2.23880596e-002 7.46268639e-003 0.
      2.23880596e-002 0. 7.46268639e-003 7.46268639e-003 1.49253728e-002
      1.49253728e-002 0. 0. 0. 0. 7.46268639e-003 0. 0. 0. 0. 0. 0. 0.
      0. 0. 0. 7.46268639e-003 0. 0. 7.46268639e-003 7.46268639e-003 0.
      0. 0. 2.23880596e-002 1.49253728e-002 0. 0. 0. 1.49253728e-002
      9.70149264e-002 0. 1.49253728e-002 1.49253728e-002 0. 0.
      7.46268639e-003 0. 0. 0. 2.23880596e-002 0. 7.46268639e-003
      7.46268639e-003 4.47761193e-002 2.23880596e-002 7.46268639e-003 0.
      7.46268639e-003 7.46268639e-003 7.46268639e-003 0. 0. 0.
      1.49253728e-002 0. 7.46268639e-003 0. 0. 0. 7.46268639e-003 0.
      1.49253728e-002 0. 0. 0. 7.46268639e-003 7.46268639e-003
      1.49253728e-002 0. 1.49253728e-002 0. 0. 0. 7.46268639e-003 0. 0.
      0. 0. 0. 0. 7.46268639e-003 2.98507456e-002 7.46268639e-003
      1.49253728e-002 1.49253728e-002 0. 7.46268639e-003 0. 0. 0.
      1.49253728e-002 0. 0. 0. 2.23880596e-002 0. 7.46268639e-003
      1.49253728e-002 0. 0. 0. 7.46268639e-003 0. 1.49253728e-002
      1.49253728e-002 0. 0. 0. 0. 1.49253728e-002 0. 7.46268639e-003
      1.49253728e-002 0.</_>
    <_>
      1.81818176e-002 9.09090880e-003 1.81818176e-002 0. 9.09090862e-002
      0. 0. 1.09090909e-001 0. 0. 0. 9.09090880e-003 0. 7.27272704e-002
      0. 0. 0. 0. 9.09090880e-003 1.81818176e-002 0. 0. 0. 0. 0. 0. 0.
      1.81818176e-002 0. 0. 0. 0. 0. 9.09090880e-003 2.72727273e-002 0.
      0. 0. 0. 0. 0. 0. 0. 0. 0. 1.81818176e-002 0. 0. 9.09090880e-003
      0. 9.09090880e-003 0. 0. 0. 0. 0. 0. 0. 0. 0. 0. 0. 0.
      1.81818176e-002 9.09090880e-003 6.36363626e-002 0. 0.
      9.09090880e-003 0. 9.09090880e-003 1.81818176e-002 9.09090880e-003
      0. 0. 9.09090880e-003 0. 9.09090880e-003 0. 0. 0. 0. 0. 0.
      9.09090880e-003 0. 0. 1.81818176e-002 9.09090880e-003 0. 0. 0.
      1.81818176e-002 0. 9.09090880e-003 9.09090880e-003 0. 0. 0. 0.
      9.09090880e-003 0. 0. 0. 0. 2.72727273e-002 0. 1.81818176e-002 0.
      0. 0. 0. 0. 0. 0. 0. 1.81818176e-002 1.09090909e-001 0. 0. 0. 0.
      0. 0. 0. 0. 0. 0. 0. 0. 1.81818176e-002 0. 0. 0. 0. 0. 0. 0.
      1.81818176e-002 9.09090880e-003 4.54545431e-002 0. 1.81818176e-002
      0. 0. 0. 0. 0. 3.63636352e-002 0.</_>
    <_>
      0. 0. 1.78571437e-002 0. 3.57142873e-002 0. 0. 1.78571437e-002 0.
      0. 0. 0. 0. 0. 0. 0. 0. 0. 0. 0. 1.78571437e-002 0. 0. 0. 0.
      1.78571437e-002 0. 0. 0. 0. 0. 0. 0. 1.78571437e-002 0. 0. 0. 0.
      0. 0. 0. 3.57142873e-002 1.78571437e-002 0. 0. 0. 1.78571437e-002
      0. 0. 0. 0. 0. 0. 1.78571437e-002 0. 0. 0. 0. 0. 0.
      1.78571437e-002 1.78571437e-002 0. 0. 0. 2.32142866e-001 0.
      1.78571437e-002 5.35714328e-002 0. 0. 0. 0. 0. 0. 0. 0. 0.
      1.78571437e-002 1.78571437e-002 0. 0. 1.78571437e-002 0. 0. 0. 0.
      0. 0. 1.78571437e-002 0. 0. 0. 0. 0. 1.78571437e-002
      1.78571437e-002 0. 1.78571437e-002 0. 1.78571437e-002 0.
      3.57142873e-002 1.78571437e-002 0. 0. 0. 0. 0. 1.78571437e-002 0.
      0. 0. 0. 0. 0. 1.78571437e-002 0. 0. 3.57142873e-002
      5.35714328e-002 0. 0. 0. 0. 0. 0. 0. 0. 0. 0. 1.78571437e-002 0.
      0. 0. 1.78571437e-002 0. 0. 0. 0. 3.57142873e-002 0.
      3.57142873e-002 0. 0. 0. 1.78571437e-002 0. 0. 0.</_>
    <_>
      6.87285233e-003 3.43642617e-003 1.71821304e-002 0. 3.09278350e-002
      0. 3.43642617e-003 3.09278350e-002 0. 1.71821304e-002 0.
      1.37457047e-002 0. 6.18556701e-002 6.87285233e-003 0.
      3.43642617e-003 3.43642617e-003 1.37457047e-002 1.03092790e-002
      3.43642617e-003 0. 0. 0. 0. 0. 0. 0. 0. 0. 1.03092790e-002
      1.37457047e-002 1.03092790e-002 3.43642617e-003 1.03092790e-002
      3.43642617e-003 0. 0. 0. 0. 0. 6.87285233e-003 6.87285233e-003
      3.43642617e-003 0. 4.12371159e-002 0. 0. 6.87285233e-003 0.
      1.03092790e-002 0. 0. 0. 3.43642617e-003 1.03092790e-002
      3.43642617e-003 6.87285233e-003 0. 3.43642617e-003 3.43642617e-003
      6.87285233e-003 0. 6.87285233e-003 1.71821304e-002 8.59106556e-002
      3.43642617e-003 3.43642617e-003 1.37457047e-002 0. 6.87285233e-003
      3.43642617e-003 0. 0. 3.43642617e-003 0. 0. 0. 3.43642617e-003
      1.37457047e-002 3.43642617e-003 1.37457047e-002 3.43642617e-003 0.
      3.43642617e-003 0. 0. 6.87285233e-003 3.43642617e-003
      6.87285233e-003 0. 3.43642617e-003 6.87285233e-003 0.
      1.37457047e-002 6.87285233e-003 6.87285233e-003 0. 0. 0.
      3.43642617e-003 0. 6.87285233e-003 6.87285233e-003 0.
      3.43642617e-003 0. 0. 0. 3.43642617e-003 0. 0. 0. 0.
      1.37457047e-002 0. 1.37457047e-002 6.18556701e-002 3.43642617e-003
      4.12371159e-002 3.78006883e-002 3.43642617e-003 6.87285233e-003 0.
      0. 0. 3.43642617e-003 3.43642617e-003 3.43642617e-003 0.
      2.06185579e-002 0. 0. 3.43642617e-003 0. 1.71821304e-002
      3.43642617e-003 0. 3.43642617e-003 0. 2.40549836e-002
      2.74914093e-002 2.40549836e-002 6.87285233e-003 0. 0.
      1.37457047e-002 0. 3.43642617e-003 3.43642617e-003</_>
    <_>
      0. 9.00900923e-003 1.80180185e-002 0. 2.70270277e-002 0.
      9.00900923e-003 4.50450480e-002 0. 0. 0. 9.00900923e-003 0.
      9.00900960e-002 0. 0. 0. 0. 2.70270277e-002 9.00900923e-003 0. 0.
      0. 0. 1.80180185e-002 0. 0. 0. 0. 0. 0. 1.80180185e-002 0. 0.
      1.80180185e-002 0. 0. 0. 0. 0. 0. 9.00900923e-003 0. 0. 0.
      9.90990996e-002 0. 0. 9.00900923e-003 0. 9.00900923e-003 0. 0. 0.
      0. 9.00900923e-003 0. 0. 0. 0. 0. 0. 0. 5.40540554e-002
      9.00900923e-003 1.80180185e-002 0. 0. 1.80180185e-002 0. 0. 0.
      9.00900923e-003 0. 0. 9.00900923e-003 0. 0. 9.00900923e-003 0.
      9.00900923e-003 0. 0. 0. 0. 0. 0. 0. 0. 0. 9.00900923e-003 0.
      2.70270277e-002 9.00900923e-003 9.00900923e-003 9.00900923e-003 0.
      0. 0. 0. 0. 0. 0. 0. 0. 0. 0. 1.80180192e-001 0. 0. 0. 0. 0. 0.
      9.00900923e-003 9.00900923e-003 0. 0. 9.00900923e-003
      9.00900923e-003 2.70270277e-002 0. 9.00900923e-003 0. 0. 0. 0. 0.
      0. 0. 9.00900923e-003 0. 0. 0. 0. 1.80180185e-002 0. 0. 0. 0.
      9.00900923e-003 3.60360369e-002 9.00900923e-003 0. 0.
      9.00900923e-003 0. 9.00900923e-003 1.80180185e-002 0.</_>
    <_>
      4.62962966e-003 2.77777780e-002 0. 0. 0. 4.62962966e-003
      1.38888890e-002 3.24074067e-002 9.25925933e-003 0. 4.62962966e-003
      4.62962966e-003 9.25925933e-003 4.62962966e-003 0. 1.38888890e-002
      1.85185187e-002 4.62962966e-003 4.62962966e-003 4.62962966e-003
      2.31481493e-002 1.85185187e-002 4.62962966e-003 0. 4.62962966e-003
      0. 0. 9.25925933e-003 9.25925933e-003 3.24074067e-002
      1.38888890e-002 0. 4.62962966e-003 9.25925933e-003 4.62962966e-003
      0. 1.85185187e-002 4.62962966e-003 1.38888890e-002 4.62962966e-003
      9.25925933e-003 0. 0. 3.70370373e-002 1.38888890e-002 0.
      2.77777780e-002 4.62962966e-003 0. 9.25925933e-003 0. 0.
      3.24074067e-002 1.38888890e-002 0. 4.62962966e-003 4.62962966e-003
      2.77777780e-002 9.25925933e-003 0. 0. 4.62962966e-003
      1.38888890e-002 0. 0. 0. 0. 0. 4.62962966e-003 3.70370373e-002 0.
      9.25925933e-003 4.62962966e-003 1.38888890e-002 4.62962966e-003
      4.62962966e-003 4.62962966e-003 0. 1.38888890e-002 0. 0.
      1.38888890e-002 0. 9.25925933e-003 1.38888890e-002 4.62962966e-003
      0. 0. 4.62962966e-003 4.62962966e-003 4.62962966e-003
      4.62962966e-003 0. 0. 0. 4.62962966e-003 4.62962966e-003
      9.25925933e-003 0. 9.25925933e-003 4.62962966e-003 2.31481493e-002
      0. 0. 2.77777780e-002 0. 0. 4.62962966e-003 9.25925933e-003
      4.62962966e-003 4.62962966e-003 4.62962966e-003 0. 4.62962966e-003
      9.25925933e-003 4.62962966e-003 0. 9.25925933e-003 0.
      9.25925933e-003 0. 0. 4.62962966e-003 4.62962966e-003
      9.25925933e-003 4.62962966e-003 4.62962966e-003 0. 9.25925933e-003
      0. 0. 3.24074067e-002 0. 0. 1.85185187e-002 1.38888890e-002
      9.25925933e-003 0. 0. 0. 0. 9.25925933e-003 9.25925933e-003 0.
      4.62962966e-003 0. 0. 4.62962966e-003 0. 4.62962966e-003</_>
    <_>
      0. 0. 1.35135138e-002 0. 5.40540554e-002 0. 1.35135138e-002 0. 0.
      0. 1.35135138e-002 0. 0. 0. 0. 1.35135138e-002 0. 0. 0. 0.
      1.35135138e-002 4.05405425e-002 0. 0. 0. 0. 0. 4.05405425e-002
      1.35135138e-002 1.62162170e-001 1.35135138e-002 0. 0. 0. 0. 0. 0.
      0. 1.35135138e-002 0. 0. 0. 0. 0. 0. 0. 0. 0. 0. 0.
      2.70270277e-002 0. 1.35135138e-002 0. 0. 1.35135138e-002 0. 0. 0.
      0. 0. 0. 0. 0. 0. 5.40540554e-002 0. 0. 0. 1.35135144e-001 0.
      1.35135138e-002 0. 0. 0. 0. 0. 0. 0. 0. 0. 0. 0. 0.
      1.35135138e-002 0. 0. 0. 0. 0. 0. 0. 0. 2.70270277e-002 0. 0.
      1.35135138e-002 1.35135138e-002 0. 0. 1.35135138e-002
      1.35135138e-002 0. 0. 0. 0. 0. 1.35135138e-002 0. 0.
      1.35135138e-002 0. 0. 0. 1.35135138e-002 0. 0. 0. 0. 0. 0. 0. 0.
      0. 1.35135138e-002 0. 0. 0. 0. 0. 0. 2.70270277e-002
      5.40540554e-002 0. 0. 8.10810849e-002 0. 0. 0. 0. 0. 0. 0. 0. 0.
      1.35135138e-002 0. 1.35135138e-002 0. 0.</_>
    <_>
      1.65289249e-002 0. 8.26446246e-003 0. 3.30578499e-002 0. 0.
      3.30578499e-002 8.26446246e-003 0. 0. 8.26446246e-003 0.
      4.95867729e-002 0. 0. 0. 0. 0. 8.26446246e-003 0. 8.26446246e-003
      0. 0. 0. 0. 8.26446246e-003 2.47933865e-002 0. 0. 8.26446246e-003
      8.26446246e-003 8.26446246e-003 8.26446246e-003 1.65289249e-002
      8.26446246e-003 0. 0. 0. 0. 8.26446246e-003 1.65289249e-002 0. 0.
      0. 1.65289249e-002 0. 8.26446246e-003 1.65289249e-002 0.
      1.65289249e-002 0. 0. 0. 8.26446246e-003 8.26446246e-003
      8.26446246e-003 0. 0. 2.47933865e-002 8.26446246e-003
      8.26446246e-003 0. 0. 0. 5.78512363e-002 0. 0. 4.95867729e-002 0.
      0. 0. 8.26446246e-003 0. 1.65289249e-002 2.47933865e-002 0.
      1.65289249e-002 0. 0. 1.65289249e-002 0. 1.65289249e-002 0. 0. 0.
      0. 2.47933865e-002 0. 0. 8.26446246e-003 0. 2.47933865e-002 0.
      3.30578499e-002 2.47933865e-002 0. 0. 1.65289249e-002 0. 0. 0. 0.
      0. 0. 8.26446246e-003 1.65289249e-002 3.30578499e-002 0. 0. 0. 0.
      8.26446246e-003 0. 1.65289249e-002 0. 0. 4.13223132e-002 0.
      8.26446246e-003 1.65289249e-002 0. 0. 0. 0. 0. 0. 8.26446246e-003
      0. 0. 0. 0. 0. 0. 8.26446246e-003 0. 0. 0. 2.47933865e-002
      1.65289249e-002 1.65289249e-002 8.26446246e-003 8.26446246e-003 0.
      0. 8.26446246e-003 0. 0. 0. 0.</_>
    <_>
      0. 0. 2.59740259e-002 0. 1.29870132e-001 0. 0. 6.49350658e-002 0.
      0. 0. 0. 0. 1.29870130e-002 0. 0. 0. 0. 1.29870130e-002
      6.49350658e-002 0. 0. 0. 0. 0. 1.29870130e-002 0. 0. 0.
      1.29870130e-002 1.29870130e-002 1.29870130e-002 0. 0. 0. 0. 0. 0.
      0. 0. 0. 0. 0. 1.29870130e-002 0. 1.29870130e-002 0. 0.
      1.29870130e-002 0. 0. 0. 0. 0. 0. 0. 1.29870130e-002 0. 0.
      1.29870130e-002 0. 2.59740259e-002 0. 0. 0. 5.19480519e-002 0. 0.
      0. 0. 0. 0. 0. 0. 0. 1.29870130e-002 0. 0. 1.29870130e-002
      3.89610380e-002 0. 1.29870130e-002 0. 0. 0. 0. 0. 0. 0. 0. 0.
      1.29870130e-002 0. 0. 0. 0. 0. 0. 0. 6.49350658e-002 0. 0. 0. 0.
      0. 0. 0. 0. 0. 0. 0. 0. 0. 0. 0. 0. 0. 9.09090936e-002 0.
      2.59740259e-002 1.29870130e-002 0. 1.29870130e-002 0. 0. 0. 0.
      1.29870130e-002 0. 0. 0. 1.29870130e-002 0. 0. 0. 1.29870130e-002
      0. 0. 2.59740259e-002 0. 1.29870130e-002 3.89610380e-002
      2.59740259e-002 1.29870130e-002 0. 1.29870130e-002 1.29870130e-002
      0. 1.29870130e-002 0.</_>
    <_>
      0. 6.28930796e-003 2.51572318e-002 0. 6.28930796e-003 0. 0.
      4.40251566e-002 0. 1.88679248e-002 6.28930796e-003 1.88679248e-002
      6.28930796e-003 6.91823885e-002 0. 0. 0. 6.28930796e-003
      6.28930796e-003 2.51572318e-002 0. 0. 0. 6.28930796e-003 0. 0.
      6.28930796e-003 1.88679248e-002 0. 0. 6.28930796e-003
      6.28930796e-003 0. 6.28930796e-003 1.25786159e-002 0. 0. 0. 0. 0.
      0. 1.25786159e-002 0. 0. 0. 1.88679248e-002 0. 6.28930796e-003
      1.25786159e-002 0. 5.66037707e-002 1.88679248e-002 0.
      6.28930796e-003 0. 6.28930796e-003 0. 0. 0. 0. 1.25786159e-002
      6.28930796e-003 0. 1.06918238e-001 1.25786159e-002 3.14465389e-002
      0. 0. 3.14465389e-002 6.28930796e-003 0. 0. 0. 6.28930796e-003 0.
      2.51572318e-002 0. 6.28930796e-003 1.25786159e-002 0. 0. 0. 0.
      6.28930796e-003 6.28930796e-003 0. 0. 0. 0. 0. 5.03144637e-002
      6.28930796e-003 6.28930796e-003 0. 0. 6.28930796e-003
      6.28930796e-003 0. 0. 0. 0. 0. 1.25786159e-002 0. 0. 0. 0. 0. 0.
      0. 0. 0. 6.28930796e-003 1.25786159e-002 1.88679248e-002 0.
      1.88679248e-002 6.28930796e-003 0. 2.51572318e-002 6.28930796e-003
      6.28930796e-003 6.28930796e-003 0. 0. 6.28930796e-003 0.
      6.28930796e-003 6.28930796e-003 0. 0. 6.28930796e-003 0. 0. 0.
      6.28930796e-003 0. 0. 0. 1.25786159e-002 0. 2.51572318e-002
      1.88679248e-002 0. 0. 0. 6.28930796e-003 0. 0. 0.</_>
    <_>
      3.49650346e-003 2.44755242e-002 0. 1.04895104e-002 0. 0.
      1.04895104e-002 0. 3.49650346e-003 0. 1.39860138e-002 0.
      1.74825173e-002 0. 3.49650346e-003 0. 4.19580415e-002
      3.49650346e-003 0. 3.49650346e-003 1.39860138e-002 3.14685330e-002
      0. 0. 0. 0. 6.99300691e-003 0. 1.74825173e-002 6.99300691e-003 0.
      3.49650346e-003 0. 0. 0. 0. 3.49650346e-003 3.49650346e-003
      3.49650346e-003 7.34265745e-002 0. 0. 3.49650346e-003
      2.09790207e-002 6.99300691e-003 0. 3.49650346e-003 3.49650346e-003
      0. 1.04895104e-002 0. 1.04895104e-002 2.44755242e-002
      1.74825173e-002 0. 0. 3.49650346e-003 3.49650346e-003
      6.99300691e-003 0. 1.04895104e-002 3.49650346e-003 1.74825173e-002
      0. 3.49650346e-003 0. 0. 1.74825173e-002 3.49650346e-003
      2.44755242e-002 0. 1.04895104e-002 0. 1.39860138e-002 0. 0.
      4.54545468e-002 6.99300691e-003 0. 0. 6.99300691e-003
      1.04895104e-002 0. 2.09790207e-002 1.04895104e-002 1.39860138e-002
      1.74825173e-002 0. 1.04895104e-002 6.99300691e-003 0.
      6.99300691e-003 0. 1.74825173e-002 3.49650346e-003 0.
      1.39860138e-002 0. 6.99300691e-003 1.04895104e-002 1.04895104e-002
      3.49650346e-003 0. 0. 3.49650346e-003 3.49650346e-003 0. 0.
      1.04895104e-002 0. 1.74825173e-002 3.84615362e-002 3.49650346e-003
      0. 6.99300691e-003 4.89510484e-002 0. 0. 0. 0. 0. 3.49650346e-003
      1.39860138e-002 1.04895104e-002 3.49650346e-003 0. 0.
      1.04895104e-002 1.39860138e-002 1.04895104e-002 0. 3.49650346e-003
      0. 0. 1.04895104e-002 0. 0. 0. 0. 0. 0. 0. 3.49650346e-003
      3.49650346e-003 1.04895104e-002 3.49650346e-003 6.99300691e-003
      3.49650346e-003 6.99300691e-003 3.49650346e-003</_>
    <_>
      2.12765951e-002 0. 0. 0. 7.09219836e-003 7.09219836e-003
      7.09219836e-003 3.54609936e-002 0. 7.09219836e-003 7.09219836e-003
      7.09219836e-003 1.41843967e-002 3.54609936e-002 0. 1.41843967e-002
      0. 7.09219836e-003 4.25531901e-002 2.83687934e-002 0. 0. 0.
      7.09219836e-003 7.09219836e-003 0. 0. 1.41843967e-002
      3.54609936e-002 7.09219836e-003 0. 7.09219836e-003 0.
      1.41843967e-002 0. 7.09219836e-003 1.41843967e-002 0. 0.
      7.09219836e-003 0. 0. 0. 0. 0. 7.09219836e-003 1.41843967e-002 0.
      1.41843967e-002 0. 0. 7.09219836e-003 0. 7.09219836e-003
      1.41843967e-002 2.12765951e-002 0. 0. 0. 7.09219836e-003
      7.09219836e-003 7.09219836e-003 0. 0. 7.09219836e-003
      2.12765951e-002 0. 7.09219836e-003 7.09219836e-003 0.
      7.09219836e-003 1.41843967e-002 0. 0. 1.41843967e-002
      2.83687934e-002 7.09219836e-003 7.09219836e-003 7.09219836e-003 0.
      0. 0. 0. 0. 1.41843967e-002 0. 7.09219836e-003 7.09219836e-003 0.
      0. 0. 1.41843967e-002 0. 7.09219836e-003 1.41843967e-002
      7.09219836e-003 7.09219836e-003 0. 0. 7.09219836e-003 0.
      7.09219836e-003 7.09219836e-003 0. 0. 2.83687934e-002 0.
      1.41843967e-002 0. 7.09219836e-003 0. 0. 2.12765951e-002 0. 0.
      7.09219836e-003 0. 1.41843975e-001 0. 0. 7.09219836e-003 0.
      1.41843967e-002 7.09219836e-003 0. 0. 0. 0. 0. 0. 0. 0. 0.
      7.09219836e-003 0. 0. 0. 0. 2.12765951e-002 7.09219836e-003 0.
      1.41843967e-002 0. 0. 0. 0. 7.09219836e-003 0. 0. 0.</_>
    <_>
      0. 0. 3.33333351e-002 0. 3.33333351e-002 0. 0. 0. 0. 0. 0.
      3.33333351e-002 0. 4.44444455e-002 0. 0. 0. 0. 1.11111114e-002 0.
      2.22222228e-002 0. 1.11111114e-002 0. 0. 0. 1.11111114e-002 0. 0.
      0. 0. 0. 1.11111114e-002 0. 2.22222228e-002 0. 0. 0. 0. 0. 0.
      2.22222228e-002 0. 0. 0. 1.11111114e-002 0. 0. 0. 1.11111114e-002
      2.22222228e-002 0. 0. 0. 0. 2.22222228e-002 1.11111114e-002 0. 0.
      0. 0. 1.11111114e-002 0. 5.55555560e-002 1.11111114e-002
      1.77777782e-001 0. 0. 2.22222228e-002 0. 0. 0. 0. 0. 0.
      1.11111114e-002 0. 1.11111114e-002 1.11111114e-002 0. 0. 0. 0. 0.
      1.11111114e-002 0. 0. 0. 0. 0. 3.33333351e-002 0. 1.11111114e-002
      0. 1.11111114e-002 0. 0. 0. 0. 1.11111114e-002 1.11111114e-002 0.
      0. 0. 0. 0. 0. 2.22222228e-002 0. 1.11111114e-002 4.44444455e-002
      0. 0. 0. 1.11111114e-002 0. 1.11111114e-002 1.11111114e-002 0.
      1.11111114e-002 3.33333351e-002 0. 0. 0. 0. 0. 0. 0. 0. 0. 0. 0.
      1.11111114e-002 0. 0. 1.11111114e-002 1.11111114e-002 0.
      2.22222228e-002 0. 1.11111114e-002 1.11111114e-002 3.33333351e-002
      0. 0. 0. 0. 0. 0. 0.</_>
    <_>
      0. 0. 2.53164563e-002 0. 1.01265825e-001 0. 0. 6.32911399e-002 0.
      0. 0. 1.26582282e-002 0. 3.79746854e-002 0. 0. 0. 0.
      3.79746854e-002 5.06329127e-002 0. 0. 0. 0. 0. 0. 0. 0. 0. 0. 0.
      0. 0. 1.26582282e-002 1.26582282e-002 1.26582282e-002
      1.26582282e-002 0. 0. 0. 0. 0. 0. 0. 0. 1.13924056e-001 0. 0. 0.
      0. 0. 0. 0. 0. 0. 0. 0. 0. 0. 0. 0. 3.79746854e-002 0. 0.
      1.26582282e-002 6.32911399e-002 0. 0. 1.26582282e-002 0. 0. 0. 0.
      0. 0. 6.32911399e-002 0. 0. 1.26582282e-002 1.26582282e-002
      1.26582282e-002 0. 0. 0. 0. 0. 0. 0. 0. 0. 0. 0. 2.53164563e-002
      0. 1.26582282e-002 0. 0. 0. 0. 0. 0. 0. 0. 0. 0. 0.
      1.26582282e-002 3.79746854e-002 0. 0. 0. 0. 0. 0. 0. 0. 0. 0. 0.
      7.59493709e-002 0. 0. 0. 0. 0. 1.26582282e-002 0. 0. 0. 0. 0. 0.
      0. 0. 0. 0. 0. 0. 1.26582282e-002 1.26582282e-002 2.53164563e-002
      1.26582282e-002 2.53164563e-002 0. 0. 0. 1.26582282e-002 0. 0. 0.</_>
    <_>
      1.58730149e-002 5.29100513e-003 2.64550261e-002 0. 1.26984119e-001
      0. 0. 8.46560821e-002 0. 5.29100513e-003 0. 0. 0. 6.34920597e-002
      0. 0. 0. 5.29100513e-003 5.29100513e-003 5.29100513e-003 0. 0. 0.
      0. 0. 5.29100513e-003 0. 1.05820103e-002 0. 0. 0. 1.05820103e-002
      0. 5.29100513e-003 2.64550261e-002 0. 0. 5.29100513e-003 0. 0. 0.
      0. 5.29100513e-003 0. 0. 1.58730149e-002 0. 5.29100513e-003 0. 0.
      0. 0. 0. 0. 0. 5.29100513e-003 0. 0. 5.29100513e-003
      5.29100513e-003 5.29100513e-003 0. 0. 5.29100513e-003 0.
      9.52380896e-002 0. 5.29100513e-003 1.58730149e-002 0. 0.
      5.29100513e-003 5.29100513e-003 0. 0. 1.05820103e-002 0.
      5.29100513e-003 1.58730149e-002 3.70370373e-002 1.05820103e-002 0.
      0. 0. 1.05820103e-002 0. 0. 5.29100513e-003 0. 5.29100513e-003
      5.29100513e-003 0. 5.29100513e-003 0. 0. 0. 5.29100513e-003 0. 0.
      5.29100513e-003 0. 0. 5.29100513e-003 0. 0. 1.58730149e-002 0.
      5.29100513e-003 0. 5.29100513e-003 0. 0. 0. 0. 1.58730149e-002 0.
      5.29100513e-003 5.82010560e-002 0. 0. 1.05820103e-002
      5.29100513e-003 0. 0. 0. 0. 0. 0. 5.29100513e-003 0.
      3.17460299e-002 0. 5.29100513e-003 0. 5.29100513e-003
      5.29100513e-003 1.05820103e-002 0. 5.29100513e-003 5.29100513e-003
      3.17460299e-002 5.29100513e-003 1.58730149e-002 0. 0.
      5.29100513e-003 1.05820103e-002 5.29100513e-003 1.58730149e-002 0.</_>
    <_>
      0. 0. 1.45985400e-002 0. 7.29927002e-003 0. 0. 1.31386861e-001
      1.45985400e-002 0. 0. 0. 0. 5.10948896e-002 7.29927002e-003 0. 0.
      0. 7.29927002e-003 3.64963487e-002 0. 7.29927002e-003 0. 0. 0. 0.
      0. 8.75912383e-002 0. 2.18978096e-002 7.29927002e-003 0. 0. 0. 0.
      0. 0. 0. 0. 0. 7.29927002e-003 0. 0. 2.18978096e-002 0. 0.
      7.29927002e-003 7.29927002e-003 7.29927002e-003 0. 7.29926974e-002
      0. 0. 7.29927002e-003 0. 0. 0. 0. 0. 0. 7.29927002e-003 0. 0.
      5.83941601e-002 7.29927002e-003 1.45985400e-002 0. 0.
      7.29927002e-003 0. 7.29927002e-003 0. 7.29927002e-003 0. 0.
      3.64963487e-002 0. 7.29927002e-003 7.29927002e-003 7.29927002e-003
      7.29927002e-003 0. 0. 0. 1.45985400e-002 0. 0. 0. 7.29927002e-003
      7.29927002e-003 0. 0. 0. 0. 0. 7.29927002e-003 0. 0. 0. 0. 0. 0.
      1.45985400e-002 0. 0. 0. 0. 1.45985400e-002 0. 7.29927002e-003 0.
      7.29927002e-003 0. 0. 2.91970801e-002 0. 0. 1.45985395e-001 0.
      7.29927002e-003 0. 0. 0. 0. 0. 0. 0. 0. 0. 0. 7.29927002e-003
      7.29927002e-003 0. 0. 0. 0. 0. 0. 0. 1.45985400e-002 0. 0. 0. 0.
      0. 0. 7.29927002e-003 0. 0. 0.</_>
    <_>
      0. 4.36681230e-003 3.49344984e-002 0. 1.22270748e-001 0. 0. 0.
      4.36681230e-003 4.36681230e-003 0. 0. 0. 1.74672492e-002 0. 0. 0.
      0. 4.36681230e-003 0. 4.36681230e-003 0. 4.36681230e-003
      4.36681230e-003 4.36681230e-003 0. 8.73362459e-003 0. 0.
      8.73362459e-003 0. 4.36681230e-003 0. 0. 3.49344984e-002 0. 0. 0.
      0. 0. 4.36681230e-003 0. 0. 0. 0. 4.36681230e-003 0.
      8.73362459e-003 0. 0. 0. 0. 4.36681230e-003 0. 0. 1.31004369e-002
      0. 0. 4.36681230e-003 0. 8.73362459e-003 0. 0. 0. 8.73362459e-003
      1.52838424e-001 0. 0. 0. 8.73362459e-003 0. 0. 0. 0. 0.
      8.73362459e-003 0. 0. 8.73362459e-003 8.73362459e-003 0. 0. 0. 0.
      4.36681230e-003 0. 0. 0. 0. 0. 0. 1.31004369e-002 4.36681230e-003
      0. 8.73362459e-003 0. 0. 0. 0. 1.31004369e-002 0. 0. 0. 0. 0. 0.
      0. 3.49344984e-002 0. 4.36681230e-003 0. 0. 0. 0. 0. 0. 0. 0. 0.
      3.05676870e-002 6.11353740e-002 0. 0. 0. 0. 4.36681230e-003 0. 0.
      0. 0. 3.49344984e-002 0. 7.42358118e-002 0. 0. 6.98689967e-002
      4.36681230e-003 0. 4.36681230e-003 0. 4.36681230e-003
      4.36681211e-002 6.11353740e-002 0. 0. 8.73362459e-003 0. 0.
      4.36681230e-003 0.</_>
    <_>
      1.03448275e-002 0. 2.06896551e-002 6.89655170e-003 5.17241359e-002
      3.44827585e-003 1.03448275e-002 1.37931034e-002 3.44827585e-003
      3.44827585e-003 3.44827585e-003 1.72413792e-002 0. 1.72413792e-002
      3.44827585e-003 3.44827585e-003 3.44827585e-003 1.03448275e-002
      3.44827585e-003 0. 1.03448275e-002 3.44827585e-003 3.44827585e-003
      6.89655170e-003 1.03448275e-002 3.44827585e-003 3.44827585e-003
      3.44827585e-003 0. 0. 3.44827585e-003 6.89655170e-003
      3.44827585e-003 6.89655170e-003 6.89655170e-003 6.89655170e-003
      3.44827585e-003 3.44827585e-003 6.89655170e-003 0. 3.44827585e-003
      2.06896551e-002 3.44827585e-003 0. 0. 3.44827585e-003 0.
      3.44827585e-003 0. 3.44827585e-003 0. 6.89655170e-003
      2.41379309e-002 2.06896551e-002 0. 1.72413792e-002 6.89655170e-003
      0. 3.44827585e-003 0. 6.89655170e-003 0. 1.37931034e-002 0.
      3.44827585e-003 8.96551758e-002 3.44827585e-003 6.89655170e-003 0.
      6.89655170e-003 0. 0. 3.44827585e-003 6.89655170e-003
      3.44827585e-003 1.72413792e-002 6.89655170e-003 6.89655170e-003 0.
      1.37931034e-002 6.89655170e-003 0. 3.44827585e-003 3.44827585e-003
      0. 3.44827585e-003 0. 3.44827585e-003 0. 3.44827585e-003
      6.89655170e-003 1.03448275e-002 6.89655170e-003 6.89655170e-003
      1.03448275e-002 3.44827585e-003 6.89655170e-003 6.89655170e-003
      1.03448275e-002 1.03448275e-002 3.44827585e-003 6.89655170e-003 0.
      0. 0. 1.03448275e-002 6.89655170e-003 5.86206913e-002 0.
      1.37931034e-002 3.44827585e-003 3.44827585e-003 3.44827585e-003 0.
      3.44827585e-003 0. 3.44827585e-003 3.44827585e-003 0.
      2.06896551e-002 0. 0. 0. 6.89655170e-003 0. 0. 3.44827585e-003 0.
      3.44827585e-003 0. 1.37931034e-002 1.03448275e-002 6.89655170e-003
      3.44827585e-003 3.44827585e-003 2.41379309e-002 6.89655170e-003
      3.44827585e-003 1.03448275e-002 3.44827585e-003 1.03448275e-002
      2.06896551e-002 3.44827585e-003 3.44827585e-003 0. 6.89655170e-003
      6.89655170e-003 0. 1.37931034e-002 3.44827585e-003</_>
    <_>
      0. 4.14078683e-003 0. 4.14078683e-003 6.21118024e-003
      8.28157365e-003 2.07039341e-003 1.03519671e-002 0. 4.14078683e-003
      1.03519671e-002 2.07039341e-003 0. 2.07039341e-002 0.
      1.03519671e-002 2.07039341e-003 0. 0. 2.27743275e-002
      6.21118024e-003 1.44927539e-002 2.07039341e-003 6.21118024e-003 0.
      2.07039341e-003 0. 8.28157365e-003 8.28157365e-003 5.38302287e-002
      4.14078683e-003 0. 6.21118024e-003 0. 0. 0. 2.07039341e-003
      8.28157365e-003 4.14078683e-003 2.07039341e-003 4.14078683e-003 0.
      1.86335407e-002 1.86335407e-002 6.21118024e-003 0. 6.21118024e-003
      4.14078683e-003 2.07039341e-003 4.14078683e-003 1.03519671e-002 0.
      6.21118024e-003 2.27743275e-002 2.89855078e-002 2.07039341e-003
      4.14078683e-003 1.44927539e-002 2.07039341e-003 1.44927539e-002 0.
      2.07039341e-003 2.07039341e-003 4.14078683e-003 0. 6.21118024e-003
      6.21118024e-003 4.14078683e-003 4.14078683e-003 1.36645973e-001 0.
      4.14078683e-003 8.28157365e-003 2.07039341e-003 2.07039341e-003 0.
      0. 0. 2.07039341e-003 2.07039341e-003 0. 1.03519671e-002
      6.21118024e-003 0. 0. 0. 0. 6.21118024e-003 6.21118024e-003
      6.21118024e-003 2.07039341e-003 4.14078683e-003 0. 6.21118024e-003
      2.07039341e-003 1.03519671e-002 6.21118024e-003 2.69151144e-002
      6.21118024e-003 1.03519671e-002 1.03519671e-002 1.44927539e-002
      6.21118024e-003 2.07039341e-003 2.07039341e-003 2.07039341e-003
      2.07039341e-003 2.07039341e-003 1.24223605e-002 0. 6.21118024e-003
      3.72670814e-002 2.07039341e-003 6.21118024e-003 6.21118024e-003
      4.14078683e-003 0. 1.86335407e-002 6.21118024e-003 2.07039341e-003
      2.07039341e-003 0. 4.14078683e-003 8.28157365e-003 8.28157365e-003
      0. 2.07039341e-003 2.07039341e-003 2.07039341e-003 0.
      2.07039341e-003 2.69151144e-002 6.21118024e-003 0. 2.07039341e-003
      1.65631473e-002 8.28157365e-003 0. 6.21118024e-003 6.21118024e-003
      0. 2.48447210e-002 4.14078683e-003 0. 2.07039341e-003
      6.21118024e-003 4.14078683e-003 1.03519671e-002 0. 0.</_>
    <_>
      0. 0. 0. 0. 1.52380958e-001 0. 0. 7.61904791e-002 0.
      9.52380989e-003 0. 0. 9.52380989e-003 1.04761906e-001 0. 0. 0.
      1.90476198e-002 2.85714306e-002 0. 0. 0. 0. 0. 0. 0. 0. 0. 0. 0.
      0. 0. 9.52380989e-003 0. 0. 0. 0. 9.52380989e-003 0. 0. 0. 0. 0.
      0. 0. 6.66666701e-002 0. 0. 0. 0. 0. 0. 0. 0. 0. 0.
      9.52380989e-003 0. 0. 0. 0. 0. 0. 9.52380989e-003 9.52380989e-003
      2.85714306e-002 0. 0. 0. 0. 0. 0. 2.85714306e-002 0. 0. 0. 0. 0.
      9.52380989e-003 2.85714306e-002 0. 9.52380989e-003 0. 0.
      9.52380989e-003 0. 9.52380989e-003 0. 0. 0. 0. 0. 0.
      9.52380989e-003 0. 9.52380989e-003 0. 0. 9.52380989e-003 0. 0. 0.
      0. 0. 0. 9.52380989e-003 1.90476198e-002 8.57142881e-002 0.
      9.52380989e-003 0. 0. 0. 0. 0. 0. 0. 9.52380989e-003 0.
      9.52380989e-003 0. 0. 0. 0. 0. 0. 9.52380989e-003 0. 0. 0.
      6.66666701e-002 0. 0. 0. 0. 2.85714306e-002 0. 0. 0. 0.
      1.90476198e-002 3.80952395e-002 0. 0. 0. 0. 9.52380989e-003 0.
      9.52380989e-003 9.52380989e-003</_>
    <_>
      4.08163248e-003 0. 8.16326495e-003 4.08163248e-003 4.08163248e-003
      4.08163248e-003 0. 6.12244867e-002 0. 4.08163248e-003
      4.08163248e-003 8.16326495e-003 0. 2.44897939e-002 0.
      4.08163248e-003 0. 8.16326495e-003 0. 1.22448970e-002 0.
      8.16326495e-003 0. 4.08163248e-003 4.08163248e-003 1.63265299e-002
      0. 2.44897939e-002 0. 1.22448970e-002 8.16326495e-003 0.
      1.22448970e-002 0. 4.08163248e-003 0. 1.22448970e-002
      4.08163248e-003 4.08163248e-003 8.16326495e-003 1.63265299e-002 0.
      0. 4.08163248e-003 4.08163248e-003 4.08163248e-003 1.22448970e-002
      1.63265299e-002 0. 8.16326495e-003 4.08163248e-003 0. 0. 0.
      4.08163248e-003 4.08163248e-003 4.08163248e-003 0. 0.
      1.63265299e-002 1.22448970e-002 1.22448970e-002 4.08163248e-003
      4.08163248e-003 8.16326495e-003 2.04081628e-002 4.08163248e-003
      4.08163248e-003 2.44897939e-002 0. 4.08163248e-003 4.08163248e-003
      1.63265299e-002 0. 4.08163248e-003 2.04081628e-002 4.08163248e-003
      4.08163248e-003 8.16326495e-003 1.63265299e-002 0. 4.08163248e-003
      8.16326495e-003 0. 1.22448970e-002 0. 8.16326495e-003 0.
      8.16326495e-003 4.08163248e-003 0. 4.08163248e-003 1.63265299e-002
      0. 1.63265299e-002 1.63265299e-002 4.08163248e-003 1.63265299e-002
      2.04081628e-002 0. 0. 8.16326495e-003 4.08163248e-003
      4.08163248e-003 0. 1.22448970e-002 2.04081628e-002 8.16326495e-003
      8.16326495e-003 0. 4.08163248e-003 8.16326495e-003 4.08163248e-003
      0. 1.22448970e-002 4.08163248e-003 8.16326495e-003 8.16326514e-002
      8.16326495e-003 4.08163248e-003 4.08163248e-003 4.08163248e-003 0.
      0. 8.16326495e-003 4.08163248e-003 0. 1.63265299e-002 0.
      8.16326495e-003 1.63265299e-002 0. 4.08163248e-003 0. 0. 0. 0.
      4.08163248e-003 0. 4.08163248e-003 2.85714269e-002 4.08163248e-003
      0. 4.08163248e-003 0. 0. 0. 4.08163248e-003 0. 0.</_>
    <_>
      1.22950813e-002 4.09836043e-003 4.09836043e-003 8.19672085e-003
      4.09836043e-003 0. 0. 6.55737668e-002 2.04918012e-002
      4.09836043e-003 1.22950813e-002 4.09836043e-003 2.86885239e-002 0.
      1.63934417e-002 4.09836043e-003 4.09836043e-003 0. 4.09836043e-003
      2.04918012e-002 0. 0. 0. 4.09836043e-003 0. 0. 1.22950813e-002
      4.09836043e-003 8.19672085e-003 0. 8.19672085e-003 0.
      4.09836043e-003 8.19672085e-003 4.09836043e-003 8.19672085e-003
      4.09836043e-003 4.09836043e-003 4.09836043e-003 4.09836043e-003 0.
      0. 1.22950813e-002 0. 0. 0. 0. 4.09836043e-003 1.63934417e-002
      8.19672085e-003 4.09836043e-003 4.09836043e-003 0. 0. 0. 0.
      4.09836043e-003 0. 4.09836043e-003 8.19672085e-003 0. 0.
      8.19672085e-003 0. 1.22950813e-002 0. 0. 1.22950813e-002
      1.63934417e-002 8.19672085e-003 4.09836043e-003 8.19672085e-003 0.
      1.22950813e-002 4.09836043e-003 8.19672085e-003 1.22950813e-002
      2.04918012e-002 1.63934417e-002 8.19672085e-003 1.22950813e-002
      4.09836043e-003 2.04918012e-002 8.19672085e-003 8.19672085e-003
      8.19672085e-003 0. 4.09836043e-003 1.22950813e-002 4.09836043e-003
      4.09836043e-003 4.09836043e-003 0. 4.09836043e-003 1.22950813e-002
      4.09836043e-003 4.09836043e-003 4.09836043e-003 0. 0.
      4.09836043e-003 4.09836043e-003 0. 1.22950813e-002 8.19672085e-003
      0. 0. 4.09836043e-003 0. 4.09836043e-003 4.09836043e-003 0. 0. 0.
      9.42622870e-002 4.50819656e-002 0. 3.68852429e-002 0.
      1.22950813e-002 4.09836043e-003 0. 3.27868834e-002 0. 0.
      4.09836043e-003 4.09836043e-003 4.09836043e-003 8.19672085e-003
      8.19672085e-003 8.19672085e-003 0. 0. 4.09836043e-003
      4.09836043e-003 0. 4.09836043e-003 2.45901626e-002 4.09836043e-003
      0. 0. 4.09836043e-003 0. 8.19672085e-003 0. 0. 4.09836043e-003
      4.09836043e-003 0. 4.09836043e-003</_>
    <_>
      9.90098994e-003 9.90098994e-003 0. 9.90098994e-003 2.47524753e-002
      0. 4.95049497e-003 0. 1.98019799e-002 9.90098994e-003
      1.48514844e-002 4.95049497e-003 0. 1.48514844e-002 1.98019799e-002
      9.90098994e-003 9.90098994e-003 9.90098994e-003 4.95049497e-003
      4.95049497e-003 4.95049497e-003 9.90098994e-003 0. 0.
      4.95049497e-003 0. 1.48514844e-002 4.95049497e-003 2.97029689e-002
      0. 9.90098994e-003 9.90098994e-003 0. 1.98019799e-002
      1.48514844e-002 2.47524753e-002 0. 4.95049497e-003 1.48514844e-002
      3.46534662e-002 0. 4.95049497e-003 9.90098994e-003 0.
      9.90098994e-003 0. 0. 0. 4.95049497e-003 0. 0. 9.90098994e-003
      4.95049497e-003 0. 0. 4.95049497e-003 4.95049497e-003 0.
      4.95049497e-003 0. 0. 4.95049497e-003 4.95049497e-003 0.
      1.48514844e-002 0. 0. 9.90098994e-003 0. 4.95049497e-003
      4.95049497e-003 0. 0. 9.90098994e-003 1.98019799e-002
      9.90098994e-003 9.90098994e-003 4.95049497e-003 0. 0.
      9.90098994e-003 0. 0. 3.46534662e-002 0. 9.90098994e-003 0. 0.
      4.95049497e-003 4.95049497e-003 0. 1.48514844e-002 9.90098994e-003
      0. 1.48514844e-002 4.95049497e-003 1.48514844e-002 0. 0. 0.
      4.95049497e-003 1.48514844e-002 0. 4.95049497e-003 9.90098994e-003
      1.98019799e-002 0. 0. 9.90098994e-003 0. 4.95049497e-003
      9.90098994e-003 0. 9.90098994e-003 4.95049497e-003 3.46534662e-002
      4.95049497e-003 0. 0. 1.98019799e-002 1.98019799e-002 0. 0.
      9.90098994e-003 4.95049497e-003 0. 0. 0. 0. 2.47524753e-002
      9.90098994e-003 4.95049497e-003 4.95049497e-003 9.90098994e-003 0.
      0. 9.90098994e-003 9.90098994e-003 4.95049497e-003 0.
      9.90098994e-003 0. 1.48514844e-002 4.95049497e-003 4.95049497e-003
      9.90098994e-003 9.90098994e-003 4.95049497e-003 4.95049497e-003 0.</_>
    <_>
      0. 3.41296918e-003 1.02389073e-002 0. 3.75426598e-002
      3.41296918e-003 0. 1.02389073e-002 3.07167228e-002 6.82593836e-003
      1.70648452e-002 1.02389073e-002 0. 3.41296918e-003 1.70648452e-002
      0. 0. 3.41296918e-003 1.36518767e-002 6.82593836e-003
      3.41296918e-003 6.82593836e-003 0. 0. 6.82593836e-003
      3.41296918e-003 3.41296918e-003 0. 3.41296918e-003 0. 0. 0. 0.
      1.02389073e-002 3.41296918e-003 2.38907840e-002 6.82593836e-003 0.
      0. 3.41296918e-003 3.41296918e-003 1.36518767e-002 6.82593836e-003
      0. 0. 1.70648452e-002 3.41296918e-003 3.41296918e-003
      6.82593836e-003 0. 6.82593836e-003 1.02389073e-002 3.41296918e-003
      3.41296918e-003 3.41296918e-003 1.70648452e-002 1.70648452e-002
      3.41296918e-003 1.70648452e-002 6.82593836e-003 0. 6.82593836e-003
      3.41296918e-003 0. 6.82593836e-003 6.82593836e-003 3.41296918e-003
      0. 6.82593836e-003 0. 0. 3.41296904e-002 3.41296918e-003 0. 0.
      1.36518767e-002 0. 1.36518767e-002 3.41296918e-003 1.02389073e-002
      1.02389073e-002 0. 1.36518767e-002 1.02389073e-002 6.82593836e-003
      3.41296918e-003 3.41296918e-003 3.41296918e-003 3.41296918e-003
      6.82593836e-003 6.82593836e-003 6.82593836e-003 1.36518767e-002
      3.41296918e-003 3.41296918e-003 0. 1.36518767e-002 0. 0.
      6.82593836e-003 1.02389073e-002 6.82593836e-003 1.70648452e-002
      1.36518767e-002 0. 1.02389073e-002 3.41296918e-003 1.02389073e-002
      0. 3.41296918e-003 6.82593836e-003 0. 0. 1.36518767e-002 0. 0.
      2.04778146e-002 0. 3.41296918e-003 1.02389073e-002 2.73037534e-002
      3.41296918e-003 0. 1.36518767e-002 0. 0. 0. 3.41296918e-003 0.
      3.41296918e-003 2.38907840e-002 0. 2.38907840e-002 1.70648452e-002
      0. 3.07167228e-002 3.41296918e-003 6.82593836e-003 1.02389073e-002
      3.41296918e-003 1.02389073e-002 1.70648452e-002 1.70648452e-002
      6.82593836e-003 3.41296918e-003 3.41296918e-003 6.82593836e-003 0.
      3.41296918e-003 1.02389073e-002</_>
    <_>
      1.11111114e-002 0. 0. 1.44444451e-001 1.66666675e-002 0. 0.
      1.55555561e-001 0. 1.11111114e-002 0. 0. 0. 5.55555569e-003 0. 0.
      1.11111114e-002 5.55555569e-003 5.55555569e-003 6.11111112e-002 0.
      0. 1.66666675e-002 5.55555569e-003 5.55555569e-003 0. 0.
      5.55555569e-003 0. 0. 1.11111114e-002 0. 5.55555569e-003
      5.55555569e-003 5.55555569e-003 0. 0. 0. 0. 0. 0. 5.55555569e-003
      0. 5.55555569e-003 0. 5.55555569e-003 5.55555569e-003 0.
      5.55555569e-003 0. 0. 0. 0. 0. 0. 1.11111114e-002 0. 0. 0. 0. 0.
      0. 0. 1.11111114e-002 0. 0. 5.55555569e-003 0. 2.22222228e-002 0.
      0. 0. 0. 0. 0. 2.77777780e-002 0. 0. 1.66666675e-002 0. 0.
      1.66666675e-002 0. 0. 1.11111114e-002 0. 5.55555569e-003
      1.11111114e-002 5.55555569e-003 5.55555569e-003 5.55555569e-003 0.
      0. 0. 0. 0. 0. 0. 0. 5.55555569e-003 0. 0. 5.55555569e-003 0. 0.
      1.66666675e-002 0. 0. 0. 0. 0. 1.66666675e-002 5.55555569e-003
      5.55555569e-003 9.44444463e-002 0. 0. 1.00000001e-001 0. 0.
      5.55555569e-003 1.11111114e-002 0. 5.55555569e-003 0. 0. 0. 0. 0.
      0. 1.11111114e-002 5.55555569e-003 0. 0. 0. 0. 5.55555569e-003 0.
      0. 1.11111114e-002 0. 1.66666675e-002 5.55555569e-003 0. 0. 0. 0.
      0. 0. 0.</_>
    <_>
      5.10204071e-003 5.10204071e-003 1.02040814e-002 0. 0.
      1.02040814e-002 5.10204071e-003 0. 0. 5.10204071e-003 0. 0. 0.
      2.04081628e-002 0. 1.53061226e-002 5.10204071e-003 1.02040814e-002
      0. 1.02040814e-002 1.02040814e-002 1.53061226e-002 5.10204071e-003
      5.10204071e-003 0. 0. 5.10204071e-003 0. 0. 8.67346898e-002
      5.10204071e-003 1.02040814e-002 0. 0. 5.10204071e-003 0. 0.
      5.10204071e-003 1.02040814e-002 0. 0. 5.10204071e-003
      1.53061226e-002 2.04081628e-002 5.10204071e-003 0. 5.10204071e-003
      0. 0. 1.02040814e-002 0. 5.10204071e-003 5.10204071e-003
      2.55102031e-002 0. 0. 0. 0. 5.10204071e-003 1.02040814e-002
      1.53061226e-002 0. 0. 5.10204071e-003 1.53061226e-002
      1.53061226e-002 5.10204071e-003 5.10204071e-003 0. 6.12244904e-002
      0. 1.02040814e-002 0. 0. 1.02040814e-002 0. 0. 0. 1.02040814e-002
      0. 0. 5.10204071e-003 0. 1.02040814e-002 0. 5.10204071e-003
      1.02040814e-002 0. 1.02040814e-002 0. 0. 0. 5.10204071e-003
      3.06122452e-002 1.53061226e-002 1.02040814e-002 0. 1.02040814e-002
      5.10204071e-003 4.59183678e-002 0. 1.53061226e-002 0.
      5.10204071e-003 0. 0. 5.10204071e-003 2.04081628e-002
      1.02040814e-002 0. 0. 5.10204071e-003 5.10204071e-003 0.
      5.10204071e-003 0. 0. 1.53061226e-002 5.10204071e-003
      1.02040814e-002 1.02040814e-002 0. 0. 5.10204071e-003
      3.06122452e-002 0. 0. 5.10204071e-003 0. 0. 0. 2.04081628e-002
      3.57142836e-002 0. 0. 2.55102031e-002 1.53061226e-002 0.
      1.02040814e-002 0. 5.10204071e-003 5.10204071e-003 5.10204071e-003
      1.02040814e-002 0. 5.10204071e-003 5.10204071e-003 1.02040814e-002
      0. 0.</_>
    <_>
      7.57575780e-003 7.57575780e-003 3.78787890e-003 0. 1.62878796e-001
      0. 1.13636367e-002 3.78787890e-002 0. 0. 0. 0. 1.51515156e-002
      3.78787890e-003 0. 0. 3.78787890e-003 3.78787890e-003 0. 0.
      7.57575780e-003 3.78787890e-003 0. 0. 7.57575780e-003 0. 0.
      3.78787890e-003 0. 3.78787890e-002 0. 1.13636367e-002
      1.51515156e-002 0. 3.78787890e-003 0. 0. 0. 3.78787890e-003 0.
      3.78787890e-003 3.78787890e-003 1.89393945e-002 0. 0. 0. 0.
      7.57575780e-003 0. 7.57575780e-003 3.78787890e-003 1.51515156e-002
      7.57575780e-003 0. 7.57575780e-003 3.78787890e-003 3.78787890e-003
      3.78787890e-003 1.13636367e-002 3.78787890e-003 3.78787890e-003 0.
      0. 1.13636367e-002 0. 1.02272734e-001 3.78787890e-003 0. 0.
      3.78787890e-003 0. 0. 7.57575780e-003 0. 0. 1.89393945e-002
      1.89393945e-002 0. 1.51515156e-002 1.13636367e-002 3.78787890e-003
      7.57575780e-003 0. 3.78787890e-003 0. 0. 0. 0. 0. 7.57575780e-003
      1.13636367e-002 3.78787890e-003 0. 2.27272734e-002 0. 0.
      1.13636367e-002 3.78787890e-003 0. 0. 3.78787890e-003 0. 0. 0.
      7.57575780e-003 7.57575780e-003 7.57575780e-003 1.51515156e-002 0.
      1.89393945e-002 3.78787890e-003 0. 0. 0. 0. 0. 0. 1.51515156e-002
      1.51515156e-002 0. 1.13636367e-002 0. 0. 0. 1.13636367e-002
      1.51515156e-002 1.13636367e-002 3.78787890e-003 1.51515156e-002
      3.78787890e-003 0. 0. 1.89393945e-002 1.13636367e-002
      3.78787890e-003 2.65151523e-002 3.78787890e-003 0. 0.
      1.51515156e-002 0. 1.89393945e-002 3.78787890e-003 0. 0. 0. 0.
      3.78787890e-003 0. 0.</_>
    <_>
      3.14465398e-003 3.14465398e-003 9.43396240e-003 6.28930796e-003
      9.43396240e-003 7.86163472e-003 6.28930796e-003 6.28930796e-003
      9.43396240e-003 0. 7.86163472e-003 1.10062892e-002 6.28930796e-003
      9.43396240e-003 1.57232699e-003 6.28930796e-003 1.57232699e-003
      1.57232699e-003 6.28930796e-003 3.14465398e-003 2.35849041e-002
      1.57232699e-003 3.14465398e-003 0. 3.14465398e-003 0.
      9.43396240e-003 4.71698120e-003 6.28930796e-003 2.04402506e-002
      1.57232699e-003 1.57232699e-003 0. 1.25786159e-002 7.86163472e-003
      2.20125783e-002 4.71698120e-003 0. 1.57232699e-003 3.14465398e-003
      3.14465398e-003 4.71698120e-003 0. 9.43396240e-003 3.14465398e-003
      1.72955971e-002 1.41509427e-002 0. 1.57232699e-003 3.14465398e-003
      6.28930796e-003 7.86163472e-003 6.28930796e-003 4.71698120e-003 0.
      7.86163472e-003 6.28930796e-003 4.71698120e-003 0. 3.14465398e-003
      0. 6.28930796e-003 1.10062892e-002 3.14465398e-003 4.71698120e-003
      3.61635201e-002 0. 1.57232699e-003 7.86163472e-003 2.04402506e-002
      1.57232699e-003 4.71698120e-003 3.14465398e-003 4.71698120e-003
      1.57232699e-003 6.28930796e-003 3.14465398e-003 9.43396240e-003
      7.86163472e-003 6.28930796e-003 3.14465398e-003 0. 0.
      6.28930796e-003 6.28930796e-003 4.71698120e-003 0. 1.57232699e-003
      0. 1.57232699e-003 1.10062892e-002 1.10062892e-002 3.14465398e-003
      1.72955971e-002 3.14465398e-003 3.14465398e-003 9.43396240e-003
      1.57232699e-003 4.71698120e-003 3.30188684e-002 0. 7.86163472e-003
      4.71698120e-003 1.57232699e-003 0. 3.14465398e-003 1.57232699e-003
      3.61635201e-002 3.14465398e-003 3.14465389e-002 3.14465398e-003
      2.67295595e-002 0. 3.14465398e-003 4.71698120e-003 1.57232699e-003
      6.28930796e-003 1.72955971e-002 1.57232699e-003 4.71698120e-003
      7.86163472e-003 7.86163472e-003 3.14465398e-003 1.57232699e-003
      3.14465398e-003 1.57232699e-003 0. 1.41509427e-002 6.28930796e-003
      3.14465398e-003 1.10062892e-002 9.43396240e-003 2.83018854e-002
      1.57232699e-003 0. 3.30188684e-002 7.86163472e-003 4.71698120e-003
      6.28930796e-003 0. 4.71698120e-003 4.40251566e-002 3.14465398e-003
      7.86163472e-003 4.71698120e-003 6.28930796e-003 6.28930796e-003 0.
      1.57232699e-003 3.14465398e-003</_>
    <_>
      2.05761306e-002 0. 2.88065840e-002 0. 4.11522612e-002 0. 0.
      8.23045243e-003 0. 1.64609049e-002 0. 4.11522621e-003
      4.11522621e-003 8.23045243e-003 4.11522621e-003 0. 0. 0.
      1.64609049e-002 4.11522621e-003 4.11522621e-003 8.23045243e-003
      1.64609049e-002 1.23456791e-002 1.64609049e-002 8.23045243e-003 0.
      4.11522621e-003 0. 0. 1.23456791e-002 4.11522621e-003
      4.11522621e-003 8.23045243e-003 8.23045243e-003 8.23045243e-003
      4.11522621e-003 8.23045243e-003 0. 4.11522621e-003 8.23045243e-003
      1.64609049e-002 4.11522621e-003 1.23456791e-002 8.23045243e-003
      1.23456791e-002 4.11522621e-003 4.11522621e-003 0. 0.
      1.64609049e-002 8.23045243e-003 0. 0. 0. 8.23045243e-003
      4.11522621e-003 0. 0. 0. 4.11522621e-003 8.23045243e-003
      4.11522621e-003 2.05761306e-002 1.23456791e-002 8.23045224e-002 0.
      0. 8.23045243e-003 1.23456791e-002 0. 0. 4.11522621e-003 0.
      4.11522621e-003 2.05761306e-002 0. 0. 4.11522621e-003
      1.23456791e-002 0. 4.11522621e-003 8.23045243e-003 8.23045243e-003
      0. 0. 4.11522621e-003 0. 0. 4.11522621e-003 4.11522621e-003
      8.23045243e-003 1.64609049e-002 0. 1.23456791e-002 2.46913582e-002
      4.11522621e-003 0. 8.23045243e-003 4.11522621e-003 0. 0.
      2.05761306e-002 4.11522621e-003 4.11522621e-003 8.23045243e-003
      4.11522621e-003 4.11522612e-002 0. 4.11522621e-003 8.23045243e-003
      0. 4.11522621e-003 4.11522621e-003 0. 0. 4.11522621e-003 0.
      8.23045243e-003 8.23045243e-003 1.23456791e-002 0. 0. 0. 0.
      4.11522621e-003 4.11522621e-003 4.11522621e-003 0. 0.
      2.46913582e-002 0. 4.11522621e-003 0. 0. 2.88065840e-002 0.
      8.23045243e-003 4.11522621e-003 1.23456791e-002 0. 4.52674888e-002
      8.23045243e-003 4.11522621e-003 4.11522621e-003 0. 0. 0. 0.
      4.11522621e-003</_>
    <_>
      2.20588241e-002 0. 5.14705889e-002 0. 4.41176482e-002 0.
      7.35294120e-003 0. 0. 1.47058824e-002 0. 3.67647074e-002
      1.47058824e-002 2.20588241e-002 0. 0. 0. 0. 2.20588241e-002 0. 0.
      0. 7.35294120e-003 0. 7.35294120e-003 0. 7.35294120e-003 0. 0. 0.
      0. 7.35294120e-003 0. 0. 2.20588241e-002 2.94117648e-002 0. 0. 0.
      7.35294120e-003 0. 7.35294120e-003 0. 0. 7.35294120e-003
      1.47058824e-002 0. 1.47058824e-002 7.35294120e-003 0.
      7.35294120e-003 0. 0. 0. 7.35294120e-003 1.47058824e-002
      7.35294120e-003 0. 0. 7.35294120e-003 0. 1.47058824e-002 0.
      1.47058824e-002 7.35294120e-003 5.14705889e-002 7.35294120e-003 0.
      7.35294120e-003 0. 7.35294120e-003 0. 7.35294120e-003 0. 0.
      7.35294120e-003 0. 0. 7.35294120e-003 1.47058824e-002 0.
      7.35294120e-003 1.47058824e-002 0. 0. 0. 0. 0. 0. 7.35294120e-003
      7.35294120e-003 2.20588241e-002 0. 0. 0. 0. 2.20588241e-002 0. 0.
      7.35294120e-003 0. 0. 0. 0. 0. 7.35294120e-003 0. 6.61764741e-002
      1.47058824e-002 2.20588241e-002 0. 0. 7.35294120e-003 0.
      1.47058824e-002 0. 1.47058824e-002 0. 0. 7.35294120e-003
      1.47058824e-002 0. 0. 0. 0. 0. 0. 7.35294120e-003 7.35294120e-003
      0. 2.20588241e-002 0. 2.20588241e-002 0. 7.35294120e-003
      1.47058824e-002 7.35294120e-003 0. 1.47058824e-002 0.
      1.47058824e-002 1.47058824e-002 0. 0. 7.35294120e-003 0.
      1.47058824e-002 0. 7.35294120e-003 1.47058824e-002</_>
    <_>
      0. 0. 0. 2.04081628e-002 6.12244904e-002 0. 1.02040814e-002
      4.08163257e-002 0. 1.02040814e-002 2.04081628e-002 0.
      1.02040814e-002 0. 0. 0. 4.08163257e-002 0. 0. 1.02040814e-002 0.
      3.06122452e-002 0. 0. 0. 0. 5.10204062e-002 2.04081628e-002 0.
      7.14285672e-002 1.02040814e-002 0. 1.02040814e-002 0. 0. 0. 0. 0.
      0. 0. 0. 0. 0. 1.02040814e-002 1.02040814e-002 2.04081628e-002
      2.04081628e-002 0. 0. 0. 1.02040814e-002 1.02040814e-002
      1.02040814e-002 1.02040814e-002 0. 0. 0. 1.02040814e-002 0. 0. 0.
      0. 0. 2.04081628e-002 0. 0. 0. 0. 0. 3.06122452e-002 0.
      1.02040814e-002 0. 0. 1.02040814e-002 1.02040814e-002 0. 0. 0. 0.
      0. 1.02040814e-002 0. 1.02040814e-002 0. 0. 1.02040814e-002 0. 0.
      0. 1.02040814e-002 0. 0. 0. 0. 2.04081628e-002 0. 1.02040814e-002
      0. 0. 1.02040814e-002 1.02040814e-002 0. 0. 0. 0. 0. 0. 0. 0.
      1.02040814e-002 6.12244904e-002 0. 0. 0. 0. 0. 6.12244904e-002
      2.04081628e-002 0. 0. 0. 2.04081628e-002 0. 1.02040814e-002 0.
      1.02040814e-002 1.02040814e-002 0. 0. 0. 1.02040814e-002 0. 0. 0.
      0. 0. 0. 0. 1.02040814e-002 0. 0. 2.04081628e-002 0. 0.
      5.10204062e-002 0. 0. 0. 0.</_>
    <_>
      0. 0. 5.71428565e-003 0. 2.57142857e-002 0. 5.71428565e-003
      4.85714264e-002 2.85714283e-003 8.57142825e-003 5.71428565e-003
      8.57142825e-003 0. 2.28571426e-002 0. 0. 2.85714283e-003
      8.57142825e-003 1.42857144e-002 4.85714264e-002 2.85714283e-003
      8.57142825e-003 1.42857144e-002 1.14285713e-002 8.57142825e-003 0.
      5.71428565e-003 1.14285713e-002 2.85714283e-003 0. 2.85714283e-003
      8.57142825e-003 8.57142825e-003 0. 2.85714283e-003 5.71428565e-003
      1.42857144e-002 5.71428565e-003 5.71428565e-003 0. 8.57142825e-003
      8.57142825e-003 0. 0. 0. 2.85714283e-003 5.71428565e-003 0.
      2.85714283e-003 0. 5.14285713e-002 0. 0. 0. 5.71428565e-003
      1.42857144e-002 0. 0. 0. 1.42857144e-002 1.14285713e-002
      5.71428565e-003 0. 0. 2.85714283e-003 1.71428565e-002
      2.85714283e-003 0. 0. 0. 2.85714283e-003 2.85714283e-003
      5.71428565e-003 0. 8.57142825e-003 0. 2.85714283e-003 0.
      2.85714283e-003 1.14285713e-002 2.85714283e-003 5.71428565e-003
      5.71428565e-003 0. 1.42857144e-002 0. 2.85714283e-003
      5.71428565e-003 0. 1.14285713e-002 2.85714283e-003 1.71428565e-002
      1.71428565e-002 0. 5.71428565e-003 1.42857144e-002 2.85714283e-003
      2.85714283e-003 5.71428565e-003 0. 2.85714283e-003 2.85714283e-003
      1.14285713e-002 1.42857144e-002 0. 5.71428565e-003 8.57142825e-003
      1.99999996e-002 0. 2.85714283e-003 5.71428565e-003 0.
      8.57142825e-003 0. 1.14285713e-002 0. 1.71428565e-002
      7.42857158e-002 8.57142825e-003 2.85714283e-003 0. 8.57142825e-003
      8.57142825e-003 5.71428565e-003 0. 2.85714283e-003 1.99999996e-002
      5.71428565e-003 0. 0. 1.42857144e-002 0. 8.57142825e-003 0. 0.
      5.71428565e-003 0. 2.85714283e-003 5.71428565e-003 2.85714283e-003
      2.57142857e-002 1.14285713e-002 5.71428565e-003 2.85714283e-003 0.
      0. 5.71428565e-003 2.85714283e-003 1.71428565e-002 2.85714283e-003</_>
    <_>
      1.21951215e-002 2.43902430e-002 0. 1.21951215e-002 0. 0. 0.
      7.31707290e-002 0. 0. 0. 0. 0. 0. 0. 0. 0. 0. 2.43902430e-002
      1.21951215e-002 1.21951215e-002 0. 0. 0. 1.21951215e-002 0. 0.
      3.65853645e-002 0. 0. 1.21951215e-002 0. 0. 0. 1.21951215e-002 0.
      0. 1.21951215e-002 0. 0. 0. 1.21951215e-002 0. 1.21951215e-002 0.
      2.43902430e-002 0. 0. 0. 1.21951215e-002 0. 0. 3.65853645e-002
      3.65853645e-002 0. 0. 0. 0. 0. 0. 0. 0. 0. 0. 0. 0.
      1.21951215e-002 0. 0. 9.75609720e-002 0. 0. 0. 1.21951215e-002
      2.43902430e-002 2.43902430e-002 0. 0. 2.43902430e-002
      2.43902430e-002 1.21951215e-002 1.21951215e-002 0. 0.
      1.21951215e-002 0. 0. 0. 0. 0. 0. 0. 0. 0. 1.21951215e-002 0. 0.
      0. 0. 1.21951215e-002 1.21951215e-002 0. 0. 0. 0. 0. 0. 0. 0.
      2.43902430e-002 0. 3.65853645e-002 0. 0. 1.21951215e-002 0. 0.
      8.53658468e-002 1.21951215e-002 0. 2.43902430e-002 0. 0. 0.
      2.43902430e-002 0. 0. 0. 0. 1.21951215e-002 0. 3.65853645e-002 0.
      0. 0. 0. 0. 0. 0. 1.21951215e-002 0. 0. 1.21951215e-002
      1.21951215e-002 0. 0. 1.21951215e-002 0. 0. 0.</_>
    <_>
      1.02040814e-002 5.10204071e-003 3.06122452e-002 0. 1.27551015e-002
      0. 1.02040814e-002 2.29591839e-002 0. 5.10204071e-003
      5.10204071e-003 5.10204071e-003 1.02040814e-002 1.53061226e-002 0.
      5.10204071e-003 0. 5.10204071e-003 7.65306130e-003 5.10204071e-003
      1.27551015e-002 5.10204071e-003 7.65306130e-003 0. 5.10204071e-003
      1.02040814e-002 2.55102036e-003 5.10204071e-003 0. 0.
      1.02040814e-002 2.55102036e-003 0. 1.02040814e-002 2.80612241e-002
      1.02040814e-002 0. 0. 2.55102036e-003 0. 2.55102036e-003
      2.55102036e-003 2.55102036e-003 5.10204071e-003 2.55102036e-003
      1.78571418e-002 2.55102036e-003 1.27551015e-002 2.55102036e-003
      5.10204071e-003 2.04081628e-002 7.65306130e-003 2.55102036e-003
      7.65306130e-003 5.10204071e-003 1.02040814e-002 1.02040814e-002
      5.10204071e-003 5.10204071e-003 2.55102036e-003 2.55102036e-003
      5.10204071e-003 5.10204071e-003 1.78571418e-002 2.55102036e-003
      6.88775480e-002 0. 1.78571418e-002 5.10204071e-003 2.55102036e-003
      5.10204071e-003 2.55102036e-003 0. 2.55102036e-003 0.
      1.53061226e-002 2.55102036e-003 2.55102036e-003 1.02040814e-002
      1.53061226e-002 2.55102036e-003 7.65306130e-003 5.10204071e-003
      2.55102036e-003 1.53061226e-002 0. 1.27551015e-002 1.02040814e-002
      7.65306130e-003 5.10204071e-003 1.02040814e-002 5.10204071e-003
      1.02040814e-002 1.02040814e-002 5.10204071e-003 0. 2.55102036e-003
      2.55102036e-003 1.02040814e-002 5.10204071e-003 7.65306130e-003
      5.10204071e-003 7.65306130e-003 2.55102036e-003 1.02040814e-002
      2.55102036e-003 0. 1.53061226e-002 2.55102036e-003 2.55102036e-003
      2.55102036e-003 1.27551015e-002 2.55102036e-003 0. 1.27551015e-002
      2.55102036e-003 0. 1.27551015e-002 1.27551015e-002 5.10204071e-003
      2.55102036e-003 0. 0. 2.55102036e-003 5.10204071e-003
      1.78571418e-002 0. 5.10204071e-003 5.10204071e-003 0.
      1.27551015e-002 5.10204071e-003 7.65306130e-003 1.02040814e-002
      7.65306130e-003 7.65306130e-003 0. 2.55102036e-003 7.65306130e-003
      1.02040814e-002 1.02040814e-002 1.27551015e-002 1.27551015e-002 0.
      2.55102036e-003 0. 7.65306130e-003 2.55102036e-003 2.55102036e-003
      5.10204071e-003</_>
    <_>
      0. 0. 3.46020772e-003 0. 1.17647059e-001 1.38408309e-002 0.
      6.92041544e-003 0. 1.73010379e-002 0. 6.92041544e-003 0. 0. 0.
      1.03806229e-002 0. 6.92041544e-003 1.03806229e-002 1.73010379e-002
      0. 0. 0. 6.92041544e-003 6.92041544e-003 0. 3.46020772e-003
      3.11418697e-002 3.46020772e-003 0. 0. 3.46020772e-003 0.
      3.46020772e-003 0. 3.46020772e-003 6.92041544e-003 6.92041544e-003
      0. 3.46020772e-003 3.46020772e-003 6.92041544e-003 0. 0.
      3.46020772e-003 2.42214538e-002 1.38408309e-002 0. 3.46020772e-003
      0. 3.46020758e-002 0. 0. 0. 3.46020772e-003 1.03806229e-002
      3.46020772e-003 0. 0. 3.46020772e-003 0. 0. 0. 1.38408309e-002
      3.46020772e-003 2.42214538e-002 0. 0. 0. 0. 0. 3.46020772e-003 0.
      0. 1.38408309e-002 1.03806229e-002 0. 0. 3.46020772e-003
      3.46020772e-003 0. 1.73010379e-002 0. 0. 6.92041544e-003 0. 0. 0.
      6.92041544e-003 1.03806229e-002 0. 0. 1.03806229e-002 0.
      1.38408309e-002 1.38408309e-002 0. 0. 1.03806229e-002
      3.46020772e-003 0. 1.38408309e-002 0. 3.46020772e-003 0.
      1.03806229e-002 1.03806229e-002 7.26643652e-002 0. 0. 0. 0. 0. 0.
      3.80622856e-002 6.92041544e-003 3.46020772e-003 7.26643652e-002 0.
      1.38408309e-002 6.92041544e-003 6.92041544e-003 0. 0.
      3.46020772e-003 0. 3.46020772e-003 3.46020772e-003 0.
      3.46020772e-003 0. 0. 6.92041544e-003 0. 0. 5.19031174e-002 0. 0.
      3.46020772e-003 0. 6.92041544e-003 5.19031174e-002 1.38408309e-002
      0. 0. 0. 6.92041544e-003 0. 1.03806229e-002 3.46020772e-003</_>
    <_>
      0. 0. 9.00900923e-003 9.00900923e-003 1.44144148e-001 0. 0. 0. 0.
      0. 9.00900923e-003 9.00900923e-003 0. 2.70270277e-002 0. 0. 0.
      9.00900923e-003 1.80180185e-002 0. 0. 0. 0. 9.00900923e-003 0. 0.
      0. 0. 2.70270277e-002 0. 0. 9.00900923e-003 0. 0. 3.60360369e-002
      9.00900923e-003 9.00900923e-003 1.80180185e-002 0. 0. 0.
      9.00900923e-003 1.80180185e-002 0. 9.00900923e-003 9.00900923e-003
      0. 0. 0. 9.00900923e-003 0. 0. 0. 0. 0. 1.80180185e-002 0. 0. 0.
      9.00900923e-003 9.00900923e-003 9.00900923e-003 0. 0.
      1.80180185e-002 1.17117122e-001 9.00900923e-003 9.00900923e-003
      9.00900923e-003 0. 0. 0. 1.80180185e-002 1.80180185e-002
      9.00900923e-003 0. 9.00900923e-003 0. 0. 2.70270277e-002 0. 0.
      9.00900923e-003 9.00900923e-003 9.00900923e-003 9.00900923e-003 0.
      0. 0. 0. 9.00900923e-003 0. 1.80180185e-002 9.00900923e-003 0.
      1.80180185e-002 0. 1.80180185e-002 0. 0. 0. 9.00900923e-003 0. 0.
      9.00900923e-003 0. 0. 0. 0. 0. 9.00900923e-003 0. 0. 0. 0. 0. 0.
      0. 0. 1.80180185e-002 9.00900923e-003 0. 0. 1.80180185e-002
      9.00900923e-003 0. 0. 1.80180185e-002 9.00900923e-003
      1.80180185e-002 9.00900923e-003 0. 0. 9.00900923e-003 0. 0.
      9.00900923e-003 0. 0. 0. 9.00900923e-003 9.00900923e-003
      9.00900923e-003 0. 0. 0. 0. 0. 1.80180185e-002 0.</_>
    <_>
      0. 0. 0. 8.46023671e-003 0. 5.07614203e-003 3.38409469e-003
      1.86125208e-002 1.69204734e-003 3.38409469e-003 1.69204734e-003 0.
      1.69204734e-003 0. 5.07614203e-003 5.07614203e-003 1.01522841e-002
      1.18443314e-002 1.69204734e-003 8.46023671e-003 5.07614203e-003
      1.01522841e-002 1.69204734e-003 1.69204734e-003 1.01522841e-002
      1.69204734e-003 0. 5.07614203e-003 0. 4.06091362e-002
      5.07614203e-003 1.69204734e-003 3.38409469e-003 3.38409469e-003
      5.07614203e-003 3.38409469e-003 6.76818937e-003 6.76818937e-003
      5.07614203e-003 3.38409469e-003 6.76818937e-003 1.69204734e-003
      5.07614203e-003 1.01522841e-002 1.69204734e-003 1.69204734e-003
      1.86125208e-002 5.07614203e-003 1.69204734e-003 5.07614203e-003
      1.18443314e-002 0. 8.46023671e-003 0. 6.76818937e-003 0.
      1.69204734e-003 1.69204734e-003 1.69204734e-003 8.46023671e-003
      5.07614203e-003 0. 5.07614203e-003 1.69204734e-003 1.69204734e-003
      3.38409469e-003 1.01522841e-002 5.07614203e-003 0. 1.35363787e-002
      3.38409469e-003 5.07614203e-003 3.38409469e-003 5.07614203e-003
      1.69204734e-003 1.69204734e-003 5.07614203e-003 3.38409469e-003
      1.69204734e-003 0. 1.69204734e-003 6.76818937e-003 3.38409469e-003
      0. 5.07614203e-003 5.07614203e-003 1.69204734e-003 6.76818937e-003
      6.76818937e-003 0. 1.01522841e-002 1.69204734e-003 1.69204734e-003
      3.72250415e-002 0. 6.76818937e-003 1.69204734e-003 1.35363787e-002
      1.69204734e-002 2.03045681e-002 1.69204734e-002 1.18443314e-002
      1.69204734e-003 1.69204734e-003 0. 1.69204734e-003 1.01522841e-002
      2.50423014e-001 6.76818937e-003 0. 1.69204734e-003 1.35363787e-002
      1.18443314e-002 5.07614203e-003 8.46023671e-003 3.38409469e-003 0.
      2.36886628e-002 0. 1.69204734e-003 0. 3.38409469e-003
      5.07614203e-003 5.07614203e-003 1.69204734e-003 5.07614203e-003
      3.38409469e-003 1.69204734e-003 6.76818937e-003 1.69204734e-003
      5.07614203e-003 5.07614203e-003 8.46023671e-003 0. 1.69204734e-003
      3.38409469e-003 1.01522841e-002 0. 0. 3.38409469e-003
      1.69204734e-003 3.38409469e-003 1.69204734e-003 3.38409469e-003
      3.38409469e-003 0. 1.69204734e-003 6.76818937e-003 1.69204734e-003
      6.76818937e-003</_>
    <_>
      0. 0. 1.45985400e-002 0. 7.29926974e-002 0. 0. 3.64963487e-002
      7.29927002e-003 0. 0. 0. 0. 5.83941601e-002 0. 1.45985400e-002 0.
      0. 0. 0. 1.45985400e-002 0. 0. 0. 7.29927002e-003 1.45985400e-002
      7.29927002e-003 7.29927002e-003 0. 7.29927002e-003 0. 0. 0. 0. 0.
      1.45985400e-002 0. 0. 0. 7.29927002e-003 0. 7.29927002e-003 0.
      7.29927002e-003 0. 5.83941601e-002 0. 0. 1.45985400e-002 0.
      7.29927002e-003 7.29927002e-003 1.45985400e-002 0. 0.
      7.29927002e-003 0. 0. 0. 0. 7.29927002e-003 1.45985400e-002 0.
      1.45985400e-002 7.29927002e-003 6.56934306e-002 0. 0.
      7.29927002e-003 7.29927002e-003 0. 7.29927002e-003 0. 0. 0.
      7.29927002e-003 0. 2.18978096e-002 0. 7.29927002e-003
      1.45985400e-002 1.45985400e-002 0. 0. 0. 0. 7.29927002e-003 0.
      7.29927002e-003 7.29927002e-003 2.18978096e-002 0. 0. 0.
      7.29927002e-003 0. 7.29927002e-003 0. 0. 7.29927002e-003 0.
      7.29927002e-003 0. 1.45985400e-002 0. 0. 7.29927002e-003 0. 0. 0.
      0. 7.29927002e-003 7.29927002e-003 0. 7.29927002e-003 0. 0.
      1.45985400e-002 7.29927002e-003 1.45985400e-002 2.91970801e-002 0.
      0. 0. 0. 0. 0. 0. 7.29927002e-003 0. 1.45985400e-002 0.
      2.91970801e-002 7.29927002e-003 0. 3.64963487e-002 7.29927002e-003
      7.29927002e-003 7.29927002e-003 0. 1.45985400e-002 7.29927002e-003
      4.37956192e-002 1.45985400e-002 0. 0. 0. 0. 1.45985400e-002 0.</_>
    <_>
      2.09790207e-002 0. 2.79720277e-002 0. 6.29370660e-002 0. 0.
      1.39860138e-002 0. 0. 0. 6.99300691e-003 0. 2.09790207e-002 0. 0.
      0. 0. 6.99300691e-003 6.99300691e-003 0. 0. 0. 0. 6.99300691e-003
      2.09790207e-002 0. 6.99300691e-003 0. 0. 0. 6.99300691e-003 0. 0.
      6.29370660e-002 2.09790207e-002 6.99300691e-003 0. 0. 0. 0.
      6.99300691e-003 0. 0. 0. 2.79720277e-002 0. 0. 1.39860138e-002 0.
      6.99300691e-003 6.99300691e-003 0. 0. 0. 1.39860138e-002 0. 0. 0.
      0. 0. 0. 6.99300691e-003 0. 0. 8.39160830e-002 0. 0.
      6.99300691e-003 0. 0. 0. 1.39860138e-002 0. 0. 6.99300691e-003 0.
      0. 1.39860138e-002 4.89510484e-002 1.39860138e-002 0. 0. 0.
      6.99300691e-003 6.99300691e-003 0. 6.99300691e-003 6.99300691e-003
      0. 0. 0. 6.99300691e-003 0. 6.99300691e-003 0. 0. 0.
      1.39860138e-002 6.99300691e-003 6.99300691e-003 0. 6.99300691e-003
      0. 0. 3.49650346e-002 1.39860138e-002 2.09790207e-002 0.
      2.09790207e-002 0. 0. 0. 0. 6.99300691e-003 0. 0. 0.
      1.39860138e-002 2.09790207e-002 2.79720277e-002 6.99300691e-003 0.
      0. 0. 0. 0. 0. 6.99300691e-003 0. 3.49650346e-002 0. 0.
      6.99300691e-003 0. 1.39860138e-002 0. 0. 6.99300691e-003 0. 0.
      1.39860138e-002 3.49650346e-002 0. 6.99300691e-003 6.99300691e-003
      2.79720277e-002 0. 2.09790207e-002 0.</_>
    <_>
      5.81395347e-003 0. 5.81395347e-003 0. 1.45348832e-002
      8.72093067e-003 0. 5.81395328e-002 2.03488376e-002 1.45348832e-002
      0. 2.90697673e-003 5.81395347e-003 4.06976752e-002 2.90697673e-003
      5.81395347e-003 8.72093067e-003 5.81395347e-003 5.81395347e-003
      2.90697673e-003 5.81395347e-003 0. 8.72093067e-003 5.81395347e-003
      3.19767445e-002 5.81395347e-003 0. 5.81395347e-003 0.
      2.90697673e-003 0. 1.16279069e-002 5.81395347e-003 2.90697673e-003
      0. 1.16279069e-002 1.16279069e-002 0. 0. 5.81395347e-003
      1.16279069e-002 2.61627901e-002 2.90697673e-003 0. 0.
      8.72093067e-003 5.81395347e-003 0. 0. 0. 0. 0. 0. 0.
      5.81395347e-003 0. 0. 0. 0. 1.16279069e-002 2.90697673e-003
      8.72093067e-003 5.81395347e-003 0. 5.81395347e-003 2.32558139e-002
      0. 0. 1.16279069e-002 0. 0. 2.90697673e-003 0. 0. 0.
      1.16279069e-002 2.90697673e-003 2.90697673e-003 2.90697673e-003
      1.45348832e-002 1.16279069e-002 1.45348832e-002 0. 2.90697673e-003
      2.90697673e-003 1.45348832e-002 0. 8.72093067e-003 5.81395347e-003
      2.90697673e-003 2.90697673e-003 8.72093067e-003 4.36046496e-002
      2.90697673e-003 8.72093067e-003 0. 0. 5.81395347e-003 0.
      2.32558139e-002 0. 1.45348832e-002 5.81395347e-003 2.90697673e-003
      2.90697673e-003 0. 1.74418613e-002 3.48837227e-002 0.
      1.45348832e-002 2.90697673e-003 5.81395347e-003 0. 0.
      8.72093067e-003 1.45348832e-002 5.81395347e-003 2.61627901e-002
      8.72093067e-003 8.72093067e-003 2.90697673e-003 2.90697673e-003
      2.90697673e-003 2.90697673e-003 0. 2.90697673e-003 5.81395347e-003
      8.72093067e-003 2.90697673e-003 0. 1.16279069e-002 0.
      1.45348832e-002 0. 0. 1.45348832e-002 0. 0. 1.45348832e-002
      5.81395347e-003 3.77906971e-002 1.16279069e-002 5.81395347e-003
      5.81395347e-003 2.90697673e-003 0. 0. 0. 1.16279069e-002
      2.90697673e-003</_>
    <_>
      5.12820529e-003 5.12820529e-003 1.53846163e-002 2.56410264e-003
      1.53846163e-002 2.56410264e-003 0. 0. 5.12820529e-003
      7.69230817e-003 1.02564106e-002 2.56410264e-003 7.69230817e-003
      7.69230817e-003 7.69230817e-003 5.12820529e-003 2.05128212e-002
      2.56410264e-003 1.53846163e-002 2.56410264e-003 5.12820529e-003
      1.28205130e-002 7.69230817e-003 2.56410264e-003 2.56410264e-003
      5.12820529e-003 1.79487187e-002 5.12820529e-003 5.12820529e-003
      5.12820529e-003 2.56410264e-003 5.12820529e-003 2.56410260e-002
      5.12820529e-003 7.69230817e-003 5.12820529e-003 2.56410264e-003
      2.56410264e-003 7.69230817e-003 1.28205130e-002 2.56410264e-003
      2.56410264e-003 5.12820529e-003 7.69230817e-003 2.56410264e-003
      1.53846163e-002 0. 5.12820529e-003 5.12820529e-003 0.
      5.12820529e-003 1.02564106e-002 1.79487187e-002 2.56410264e-003
      2.56410264e-003 7.69230817e-003 0. 1.02564106e-002 2.56410264e-003
      5.12820529e-003 0. 7.69230817e-003 0. 1.53846163e-002
      1.79487187e-002 2.30769236e-002 0. 7.69230817e-003 1.28205130e-002
      2.56410264e-003 1.02564106e-002 5.12820529e-003 0. 1.02564106e-002
      0. 1.02564106e-002 7.69230817e-003 7.69230817e-003 2.56410264e-003
      0. 2.56410264e-003 5.12820529e-003 0. 7.69230817e-003
      2.56410264e-003 0. 5.12820529e-003 2.56410264e-003 2.56410264e-003
      2.56410264e-003 1.02564106e-002 0. 1.02564106e-002 7.69230817e-003
      2.56410264e-003 7.69230817e-003 5.12820529e-003 7.69230817e-003
      2.56410264e-003 2.56410264e-003 5.12820529e-003 1.02564106e-002
      2.56410264e-003 7.69230817e-003 7.69230817e-003 2.56410264e-003
      2.56410264e-003 7.69230817e-003 7.69230817e-003 2.56410264e-003
      5.12820529e-003 5.12820529e-003 5.12820529e-003 5.12820529e-003
      2.56410264e-003 0. 1.28205130e-002 7.94871822e-002 5.12820529e-003
      1.02564106e-002 7.69230817e-003 0. 2.56410264e-003 1.28205130e-002
      2.56410264e-003 5.12820529e-003 1.28205130e-002 5.12820529e-003
      7.69230817e-003 0. 0. 1.28205130e-002 7.69230817e-003
      5.12820529e-003 0. 1.79487187e-002 2.56410264e-003 2.56410264e-003
      7.69230817e-003 5.12820529e-003 5.12820529e-003 1.28205130e-002
      7.69230817e-003 2.56410264e-003 1.28205130e-002 5.12820529e-003
      1.02564106e-002 0. 2.56410264e-003 1.02564106e-002</_>
    <_>
      3.93700786e-003 7.87401572e-003 1.96850393e-002 7.87401572e-003
      3.54330689e-002 0. 1.18110236e-002 5.11811003e-002 0.
      3.93700786e-003 0. 3.93700786e-003 3.93700786e-003 1.96850393e-002
      3.93700786e-003 1.18110236e-002 7.87401572e-003 0. 1.57480314e-002
      1.57480314e-002 0. 0. 0. 3.93700786e-003 3.93700786e-003
      7.87401572e-003 0. 1.96850393e-002 0. 0. 7.87401572e-003
      1.96850393e-002 3.93700786e-003 7.87401572e-003 2.75590550e-002 0.
      7.87401572e-003 3.93700786e-003 3.93700786e-003 0. 3.93700786e-003
      3.93700786e-003 0. 7.87401572e-003 0. 3.93700786e-003
      3.93700786e-003 0. 0. 0. 7.87401572e-003 0. 1.57480314e-002
      7.87401572e-003 0. 7.87401572e-003 1.57480314e-002 3.93700786e-003
      7.87401572e-003 3.93700786e-003 7.87401572e-003 7.87401572e-003
      3.93700786e-003 1.18110236e-002 0. 5.90551198e-002 0. 0.
      7.87401572e-003 1.18110236e-002 0. 3.93700786e-003 3.93700786e-003
      0. 0. 0. 3.93700786e-003 0. 3.93700786e-003 2.36220472e-002
      3.93700786e-003 7.87401572e-003 3.93700786e-003 0. 7.87401572e-003
      0. 3.93700786e-003 0. 3.93700786e-003 3.93700786e-003
      7.87401572e-003 3.93700786e-003 7.87401572e-003 3.93700786e-003 0.
      0. 3.93700786e-003 0. 0. 1.57480314e-002 0. 0. 0. 3.93700786e-003
      0. 3.93700786e-003 0. 1.57480314e-002 1.18110236e-002
      2.36220472e-002 0. 3.93700786e-003 3.93700786e-003 3.93700786e-003
      3.93700786e-003 0. 7.87401572e-003 4.72440943e-002 0. 0.
      3.93700786e-003 0. 0. 7.87401572e-003 0. 3.93700786e-003 0. 0.
      7.87401572e-003 0. 7.87401572e-003 1.18110236e-002 4.33070883e-002
      3.93700786e-003 3.93700786e-003 1.18110236e-002 0. 3.93700786e-003
      7.87401572e-003 0. 7.87401572e-003 2.36220472e-002 2.36220472e-002
      3.93700786e-003 0. 3.93700786e-003 1.57480314e-002 0.
      7.87401572e-003 0.</_>
    <_>
      7.32600736e-003 3.66300368e-003 7.32600736e-003 0. 1.83150191e-002
      3.66300368e-003 0. 5.12820520e-002 0. 2.19780225e-002 0.
      7.32600736e-003 7.32600736e-003 2.56410260e-002 7.32600736e-003
      3.66300368e-003 3.66300368e-003 0. 3.66300368e-003 7.32600736e-003
      7.32600736e-003 0. 1.46520147e-002 7.32600736e-003 3.66300368e-003
      3.66300368e-003 0. 7.32600736e-003 0. 3.66300368e-003
      1.09890113e-002 1.09890113e-002 7.32600736e-003 3.66300368e-003
      2.93040294e-002 7.32600736e-003 3.66300368e-003 7.32600736e-003 0.
      3.66300368e-003 1.83150191e-002 3.66300368e-003 3.66300368e-003
      3.66300368e-003 3.66300368e-003 2.19780225e-002 7.32600736e-003
      1.09890113e-002 0. 0. 1.09890113e-002 7.32600736e-003
      3.66300368e-003 3.66300368e-003 0. 1.09890113e-002 0. 0. 0.
      1.09890113e-002 3.66300368e-003 3.29670347e-002 1.09890113e-002
      7.32600736e-003 3.66300368e-003 6.22710623e-002 7.32600736e-003
      1.46520147e-002 1.09890113e-002 0. 3.66300368e-003 3.66300368e-003
      3.66300368e-003 0. 0. 1.83150191e-002 0. 7.32600736e-003
      1.46520147e-002 0. 3.66300368e-003 1.09890113e-002 1.09890113e-002
      1.46520147e-002 2.19780225e-002 3.66300368e-003 7.32600736e-003
      3.66300368e-003 1.46520147e-002 7.32600736e-003 0. 7.32600736e-003
      3.66300368e-003 0. 0. 1.46520147e-002 7.32600736e-003 0. 0.
      3.66300368e-003 3.66300368e-003 0. 3.66300368e-003 0. 0.
      3.66300368e-003 3.66300368e-003 3.66300368e-003 3.66300368e-003 0.
      3.66300368e-003 0. 7.32600736e-003 0. 7.32600736e-003 0.
      3.66300368e-003 4.39560451e-002 1.09890113e-002 3.66300368e-003
      7.32600736e-003 0. 0. 0. 7.32600736e-003 0. 3.66300368e-003 0.
      7.32600736e-003 3.66300368e-003 3.66300368e-003 7.32600736e-003 0.
      7.32600736e-003 7.32600736e-003 0. 0. 3.66300368e-003
      7.32600736e-003 1.46520147e-002 1.09890113e-002 0. 1.09890113e-002
      1.09890113e-002 0. 0. 3.66300368e-003 3.66300368e-003 0.
      3.66300368e-003</_>
    <_>
      5.98802418e-003 0. 0. 0. 2.39520967e-002 0. 0. 1.19760484e-002 0.
      1.19760484e-002 5.98802418e-003 0. 0. 0. 5.98802418e-003
      1.19760484e-002 5.98802418e-003 0. 0. 1.79640725e-002
      1.79640725e-002 0. 0. 0. 0. 0. 5.98802418e-003 5.98802418e-003 0.
      7.78443143e-002 1.79640725e-002 5.98802418e-003 0. 0. 0.
      5.98802418e-003 5.98802418e-003 5.98802418e-003 5.98802418e-003 0.
      0. 0. 0. 0. 0. 0. 5.98802418e-003 5.98802418e-003 0. 0. 0. 0. 0.
      3.59281451e-002 0. 0. 1.79640725e-002 0. 0. 5.98802418e-003 0. 0.
      0. 0. 0. 1.19760484e-002 1.19760484e-002 0. 0. 2.75449097e-001
      5.98802418e-003 5.98802418e-003 0. 0. 0. 0. 0. 1.79640725e-002
      5.98802418e-003 1.79640725e-002 1.79640725e-002 1.19760484e-002 0.
      5.98802418e-003 0. 5.98802418e-003 0. 0. 1.19760484e-002 0.
      1.19760484e-002 0. 0. 0. 0. 0. 0. 1.79640725e-002 5.98802418e-003
      0. 2.39520967e-002 1.19760484e-002 5.98802418e-003 5.98802418e-003
      0. 0. 1.19760484e-002 0. 5.98802418e-003 0. 0. 0. 0. 0. 0.
      5.98802418e-003 0. 1.19760484e-002 0. 0. 0. 5.98802418e-003
      5.98802418e-003 0. 0. 0. 0. 5.98802418e-003 0. 0. 1.19760484e-002
      3.59281451e-002 1.19760484e-002 0. 0. 1.19760484e-002
      5.98802418e-003 0. 0. 0. 5.98802418e-003 0. 0. 0. 0.
      1.79640725e-002 0. 1.79640725e-002 5.98802418e-003 0.</_>
    <_>
      0. 0. 1.33333337e-002 0. 7.19999969e-002 0. 5.33333328e-003
      1.59999989e-002 2.66666664e-003 5.33333328e-003 2.66666664e-003 0.
      0. 3.46666649e-002 0. 2.66666664e-003 1.33333337e-002
      7.99999945e-003 7.99999945e-003 7.99999945e-003 5.33333328e-003
      1.06666666e-002 5.33333328e-003 7.99999945e-003 5.33333328e-003
      5.33333328e-003 5.33333328e-003 5.33333328e-003 5.33333328e-003
      7.99999945e-003 1.06666666e-002 2.66666664e-003 2.66666664e-003
      5.33333328e-003 1.06666666e-002 5.33333328e-003 5.33333328e-003
      2.66666664e-003 5.33333328e-003 5.33333328e-003 7.99999945e-003
      5.33333328e-003 2.66666664e-003 7.99999945e-003 2.66666664e-003
      1.33333337e-002 7.99999945e-003 0. 2.66666664e-003 2.66666664e-003
      1.06666666e-002 2.66666664e-003 5.33333328e-003 1.59999989e-002
      5.33333328e-003 0. 0. 1.06666666e-002 0. 2.66666664e-003
      2.66666664e-003 7.99999945e-003 0. 2.13333331e-002 5.33333328e-003
      4.26666662e-002 2.66666664e-003 2.66666664e-003 1.59999989e-002
      1.06666666e-002 2.66666664e-003 2.66666664e-003 0. 7.99999945e-003
      0. 2.40000002e-002 5.33333328e-003 0. 7.99999945e-003
      1.59999989e-002 7.99999945e-003 7.99999945e-003 2.66666664e-003 0.
      7.99999945e-003 0. 5.33333328e-003 5.33333328e-003 1.06666666e-002
      5.33333328e-003 2.66666664e-003 5.33333328e-003 2.66666664e-003
      1.33333337e-002 0. 2.66666664e-003 5.33333328e-003 2.66666664e-003
      5.33333328e-003 1.86666660e-002 0. 2.66666664e-003 0. 0. 0.
      5.33333328e-003 7.99999945e-003 7.99999945e-003 1.06666666e-002
      2.66666664e-003 7.99999945e-003 1.06666666e-002 2.66666664e-003 0.
      1.59999989e-002 5.33333328e-003 0. 1.59999989e-002 0.
      5.33333328e-003 1.33333337e-002 2.66666664e-003 0. 2.66666664e-003
      1.06666666e-002 7.99999945e-003 7.99999945e-003 5.33333328e-003
      2.66666664e-003 0. 1.59999989e-002 5.33333328e-003 7.99999945e-003
      0. 0. 7.99999945e-003 5.33333328e-003 2.66666664e-003
      7.99999945e-003 7.99999945e-003 1.86666660e-002 1.06666666e-002
      2.40000002e-002 0. 0. 0. 7.99999945e-003 0. 1.33333337e-002 0.</_>
    <_>
      6.46551698e-003 2.15517241e-003 1.07758623e-002 4.31034481e-003
      2.15517245e-002 0. 2.15517241e-003 3.23275849e-002 0.
      4.31034481e-003 8.62068962e-003 4.31034481e-003 4.31034481e-003
      8.62068962e-003 2.15517241e-003 6.46551698e-003 1.07758623e-002
      4.31034481e-003 1.72413792e-002 0. 1.07758623e-002 8.62068962e-003
      4.31034481e-003 2.15517241e-003 1.07758623e-002 2.15517241e-003
      4.31034481e-003 6.46551698e-003 0. 6.46551698e-003 6.46551698e-003
      6.46551698e-003 6.46551698e-003 0. 8.62068962e-003 0.
      8.62068962e-003 1.50862066e-002 2.15517241e-003 4.31034481e-003
      4.31034481e-003 1.29310340e-002 6.46551698e-003 6.46551698e-003
      6.46551698e-003 8.62068962e-003 1.72413792e-002 4.31034481e-003
      4.31034481e-003 6.46551698e-003 4.31034481e-003 6.46551698e-003
      8.62068962e-003 1.07758623e-002 4.31034481e-003 0. 4.31034481e-003
      2.15517241e-003 2.15517241e-003 6.46551698e-003 2.15517241e-003
      2.15517241e-003 2.15517241e-003 6.46551698e-003 0. 6.89655170e-002
      0. 2.15517241e-003 4.31034481e-003 1.29310340e-002 4.31034481e-003
      2.15517241e-003 0. 4.31034481e-003 2.15517241e-003 1.29310340e-002
      0. 2.15517241e-003 8.62068962e-003 6.46551698e-003 2.15517241e-003
      2.15517241e-003 1.07758623e-002 0. 1.29310340e-002 2.15517241e-003
      2.15517241e-003 2.15517241e-003 4.31034481e-003 0. 2.15517241e-003
      6.46551698e-003 8.62068962e-003 1.72413792e-002 0. 8.62068962e-003
      8.62068962e-003 1.07758623e-002 4.31034481e-003 6.46551698e-003
      2.15517241e-003 1.93965510e-002 4.31034481e-003 4.31034481e-003
      8.62068962e-003 8.62068962e-003 0. 6.46551698e-003 8.62068962e-003
      6.46551698e-003 1.07758623e-002 1.50862066e-002 0. 6.46551698e-003
      4.31034481e-003 4.31034481e-003 1.07758623e-002 3.87931019e-002
      4.31034481e-003 4.31034481e-003 6.46551698e-003 6.46551698e-003 0.
      0. 1.50862066e-002 4.31034481e-003 2.15517241e-003 6.46551698e-003
      0. 2.15517241e-003 2.15517241e-003 8.62068962e-003 2.15517245e-002
      2.15517241e-003 0. 2.15517245e-002 0. 2.15517241e-003 0.
      1.07758623e-002 1.07758623e-002 1.29310340e-002 1.29310340e-002
      2.15517241e-003 2.15517241e-003 6.46551698e-003 1.07758623e-002
      6.46551698e-003 6.46551698e-003 0.</_>
    <_>
      8.19672085e-003 0. 0. 8.19672085e-003 0. 0. 0. 1.47540972e-001 0.
      0. 0. 0. 8.19672085e-003 0. 0. 1.63934417e-002 0. 0.
      1.63934417e-002 0. 0. 8.19672085e-003 0. 0. 0. 0. 0.
      4.91803251e-002 0. 2.45901626e-002 8.19672085e-003 8.19672085e-003
      8.19672085e-003 0. 8.19672085e-003 0. 0. 2.45901626e-002 0. 0.
      3.27868834e-002 0. 0. 1.63934417e-002 0. 8.19672085e-003 0.
      8.19672085e-003 0. 8.19672085e-003 8.19672085e-003 0. 0. 0. 0. 0.
      8.19672085e-003 0. 0. 0. 0. 8.19672085e-003 0. 0. 0.
      8.19672085e-003 0. 8.19672085e-003 8.19672085e-003 2.45901626e-002
      0. 0. 8.19672085e-003 0. 0. 4.91803251e-002 8.19672085e-003 0.
      1.63934417e-002 8.19672085e-003 0. 1.63934417e-002 0. 0.
      8.19672085e-003 0. 0. 0. 0. 0. 1.63934417e-002 8.19672085e-003
      8.19672085e-003 0. 0. 8.19672085e-003 0. 0. 2.45901626e-002
      8.19672085e-003 0. 8.19672085e-003 0. 0. 0. 3.27868834e-002
      3.27868834e-002 8.19672085e-003 0. 0. 0. 0. 0. 0. 8.19672085e-003
      0. 0. 9.83606502e-002 8.19672085e-003 8.19672085e-003
      8.19672085e-003 0. 0. 0. 0. 0. 1.63934417e-002 0. 8.19672085e-003
      0. 0. 8.19672085e-003 1.63934417e-002 0. 0. 0. 0. 0. 0.
      1.63934417e-002 8.19672085e-003 8.19672085e-003 8.19672085e-003 0.
      0. 0. 8.19672085e-003 0. 8.19672085e-003 0.</_>
    <_>
      9.45626479e-003 0. 7.09219836e-003 0. 3.30969281e-002
      4.72813239e-003 2.36406620e-003 6.38297871e-002 2.36406620e-003
      2.36406620e-003 0. 7.09219836e-003 2.36406620e-003 4.96453904e-002
      9.45626479e-003 0. 4.72813239e-003 1.18203312e-002 1.65484641e-002
      1.18203312e-002 2.36406620e-003 0. 4.72813239e-003 4.72813239e-003
      7.09219836e-003 0. 4.72813239e-003 1.18203312e-002 2.36406620e-003
      0. 9.45626479e-003 4.72813239e-003 9.45626479e-003 0.
      2.36406620e-003 7.09219836e-003 2.36406620e-003 2.36406620e-003
      2.36406620e-003 4.72813239e-003 1.18203312e-002 1.65484641e-002 0.
      2.36406620e-003 0. 1.65484641e-002 7.09219836e-003 2.36406620e-003
      7.09219836e-003 4.72813239e-003 2.36406620e-003 2.36406620e-003
      2.36406620e-003 4.72813239e-003 2.36406620e-003 4.72813239e-003
      7.09219836e-003 4.72813239e-003 0. 2.36406620e-003 9.45626479e-003
      0. 4.72813239e-003 2.12765951e-002 4.72813239e-003 2.60047279e-002
      7.09219836e-003 0. 7.09219836e-003 2.36406620e-003 1.41843967e-002
      0. 0. 0. 9.45626479e-003 7.09219836e-003 4.72813239e-003
      7.09219836e-003 7.09219836e-003 0. 0. 0. 7.09219836e-003
      2.36406620e-003 1.89125296e-002 2.36406620e-003 0. 0. 0.
      2.36406620e-003 1.65484641e-002 9.45626479e-003 1.65484641e-002 0.
      4.72813239e-003 9.45626479e-003 2.36406620e-003 4.72813239e-003
      4.72813239e-003 1.89125296e-002 0. 2.36406620e-003 9.45626479e-003
      2.36406620e-003 2.36406620e-003 7.09219836e-003 1.65484641e-002
      1.41843967e-002 0. 0. 2.36406620e-003 0. 7.09219836e-003
      4.72813239e-003 7.09219836e-003 0. 4.72813239e-003 8.51063803e-002
      0. 7.09219836e-003 1.18203312e-002 2.36406620e-003 0.
      2.36406620e-003 0. 2.36406620e-003 9.45626479e-003 2.36406620e-003
      4.72813239e-003 0. 7.09219836e-003 2.36406620e-003 2.36406620e-003
      0. 0. 1.18203312e-002 2.36406620e-003 4.72813239e-003
      7.09219836e-003 4.72813239e-003 2.36406624e-002 7.09219836e-003
      9.45626479e-003 0. 0. 4.72813239e-003 2.36406620e-003
      7.09219836e-003 1.41843967e-002 4.72813239e-003</_>
    <_>
      4.85436898e-003 9.70873795e-003 2.91262139e-002 4.85436898e-003 0.
      9.70873795e-003 0. 3.88349518e-002 0. 9.70873795e-003
      9.70873795e-003 1.45631069e-002 4.85436898e-003 0. 0.
      1.94174759e-002 9.70873795e-003 4.85436898e-003 0. 0.
      1.45631069e-002 2.91262139e-002 9.70873795e-003 0. 3.88349518e-002
      0. 9.70873795e-003 4.85436898e-003 0. 3.88349518e-002
      9.70873795e-003 4.85436898e-003 4.85436898e-003 0. 9.70873795e-003
      0. 0. 1.45631069e-002 0. 4.85436898e-003 9.70873795e-003
      4.85436898e-003 9.70873795e-003 9.70873795e-003 4.85436898e-003
      4.85436898e-003 9.70873795e-003 0. 0. 4.85436898e-003
      4.85436898e-003 9.70873795e-003 4.85436898e-003 9.70873795e-003 0.
      0. 4.85436898e-003 9.70873795e-003 4.85436898e-003 0. 0.
      4.85436898e-003 4.85436898e-003 9.70873795e-003 0. 1.94174759e-002
      4.85436898e-003 0. 0. 2.91262139e-002 0. 0. 4.85436898e-003 0.
      9.70873795e-003 1.45631069e-002 0. 0. 0. 4.85436898e-003 0.
      9.70873795e-003 4.85436898e-003 0. 9.70873795e-003 0. 0. 0. 0.
      9.70873795e-003 4.85436898e-003 4.85436898e-003 0. 0.
      4.85436898e-003 0. 4.85436898e-003 1.45631069e-002 9.70873795e-003
      4.85436898e-003 9.70873795e-003 4.85436898e-003 0. 4.85436898e-003
      4.85436898e-003 0. 4.85436898e-003 9.70873795e-003 9.70873795e-003
      0. 0. 1.94174759e-002 0. 0. 4.85436898e-003 9.70873795e-003
      4.85436898e-003 3.88349518e-002 0. 9.70873795e-003 9.70873795e-003
      4.85436898e-003 4.85436898e-003 9.70873795e-003 1.45631069e-002
      9.70873795e-003 0. 4.85436898e-003 4.85436898e-003 0.
      9.70873795e-003 1.45631069e-002 2.42718458e-002 4.85436898e-003
      4.85436898e-003 1.45631069e-002 0. 0. 4.85436898e-003
      9.70873795e-003 4.85436898e-003 3.88349518e-002 4.85436898e-003 0.
      0. 0. 0. 4.85436898e-003 0. 0.</_>
    <_>
      7.81250000e-003 0. 2.34375000e-002 0. 7.81250000e-003
      3.90625000e-003 0. 7.42187500e-002 0. 3.90625000e-003 0.
      1.56250000e-002 3.90625000e-003 2.34375000e-002 3.90625000e-003 0.
      0. 7.81250000e-003 7.81250000e-003 7.81250000e-003 0. 0.
      3.90625000e-003 0. 3.90625000e-003 1.17187500e-002 3.90625000e-003
      1.17187500e-002 0. 0. 3.90625000e-003 7.81250000e-003
      3.90625000e-003 7.81250000e-003 2.73437500e-002 0. 7.81250000e-003
      3.90625000e-003 0. 0. 1.17187500e-002 1.56250000e-002
      3.90625000e-003 3.90625000e-003 0. 7.81250000e-003 3.90625000e-003
      1.56250000e-002 0. 3.90625000e-003 3.90625000e-003 0. 0. 0. 0.
      3.90625000e-003 0. 0. 0. 1.17187500e-002 1.17187500e-002
      1.17187500e-002 7.81250000e-003 0. 1.17187500e-002 8.59375000e-002
      3.90625000e-003 1.17187500e-002 0. 0. 7.81250000e-003 0.
      1.56250000e-002 0. 7.81250000e-003 3.90625000e-003 0.
      7.81250000e-003 3.90625000e-003 1.56250000e-002 3.90625000e-003
      1.17187500e-002 3.90625000e-003 0. 1.17187500e-002 3.90625000e-003
      0. 0. 3.90625000e-003 1.17187500e-002 3.90625000e-003
      3.90625000e-003 3.51562500e-002 0. 3.90625000e-003 7.81250000e-003
      0. 0. 3.90625000e-003 0. 0. 0. 1.56250000e-002 0. 0.
      1.17187500e-002 7.81250000e-003 3.90625000e-003 0. 0. 0. 0. 0. 0.
      7.81250000e-003 0. 1.17187500e-002 4.68750000e-002 2.73437500e-002
      7.81250000e-003 1.17187500e-002 0. 0. 0. 3.90625000e-003
      1.17187500e-002 1.17187500e-002 0. 7.81250000e-003 3.90625000e-003
      1.95312500e-002 0. 0. 0. 0. 0. 7.81250000e-003 0. 7.81250000e-003
      1.95312500e-002 1.95312500e-002 7.81250000e-003 3.90625000e-003 0.
      0. 0. 3.90625000e-003 0. 2.34375000e-002 3.90625000e-003</_>
    <_>
      7.43494416e-003 7.43494416e-003 3.71747208e-003 3.71747208e-003 0.
      0. 3.71747208e-003 5.57620823e-002 0. 0. 0. 0. 3.71747208e-003
      1.11524165e-002 0. 3.71747208e-003 7.43494416e-003 3.71747208e-003
      3.71747208e-003 1.48698883e-002 0. 2.23048329e-002 7.43494416e-003
      0. 7.43494416e-003 0. 3.71747208e-003 3.71747203e-002
      3.71747208e-003 5.20446077e-002 7.43494416e-003 0. 0. 0.
      1.85873602e-002 3.71747208e-003 0. 7.43494416e-003 1.11524165e-002
      0. 1.11524165e-002 7.43494416e-003 1.48698883e-002 1.11524165e-002
      3.71747208e-003 3.71747208e-003 3.71747208e-003 3.71747208e-003
      1.11524165e-002 0. 3.71747203e-002 3.71747208e-003 7.43494416e-003
      1.11524165e-002 0. 3.71747208e-003 3.71747208e-003 3.71747208e-003
      0. 3.71747208e-003 3.71747208e-003 3.71747208e-003 7.43494416e-003
      1.85873602e-002 0. 1.11524165e-002 0. 0. 1.85873602e-002
      5.57620823e-002 3.71747208e-003 0. 7.43494416e-003 0. 0.
      7.43494416e-003 3.71747208e-003 0. 1.85873602e-002 0.
      3.71747208e-003 3.71747208e-003 0. 0. 7.43494416e-003 0. 0.
      3.71747208e-003 1.48698883e-002 7.43494416e-003 1.48698883e-002
      1.11524165e-002 0. 7.43494416e-003 0. 1.11524165e-002
      1.11524165e-002 7.43494416e-003 3.71747208e-003 1.48698883e-002
      3.71747208e-003 0. 0. 0. 0. 0. 0. 3.71747208e-003 7.43494416e-003
      0. 3.71747208e-003 0. 0. 0. 1.11524165e-002 0. 0. 5.94795533e-002
      0. 3.71747208e-003 3.71747208e-003 3.71747208e-003 3.71747208e-003
      7.43494416e-003 3.71747208e-003 3.71747208e-003 0. 7.43494416e-003
      7.43494416e-003 3.71747208e-003 3.71747208e-003 1.85873602e-002
      1.11524165e-002 0. 1.11524165e-002 7.43494416e-003 3.71747208e-003
      0. 1.11524165e-002 7.43494416e-003 0. 1.48698883e-002
      7.43494416e-003 0. 0. 7.43494416e-003 1.11524165e-002
      7.43494416e-003 0. 0.</_>
    <_>
      0. 0. 7.57575780e-003 0. 2.27272734e-002 0. 0. 0. 1.51515156e-002
      0. 0. 9.84848514e-002 0. 0. 0. 0. 0. 0. 0. 7.57575780e-003 0. 0.
      1.51515156e-002 2.27272734e-002 1.51515156e-002 0. 0. 0. 0. 0. 0.
      0. 0. 0. 2.27272734e-002 0. 0. 0. 0. 0. 0. 2.27272734e-002 0. 0.
      0. 3.03030312e-002 0. 1.51515156e-002 0. 0. 0. 0. 0. 0. 0.
      1.51515156e-002 2.27272734e-002 0. 0. 0. 4.54545468e-002
      5.30303046e-002 0. 0. 0. 0. 7.57575780e-003 0. 7.57575780e-003 0.
      0. 1.51515156e-002 7.57575780e-003 0. 0. 7.57575780e-003 0. 0. 0.
      3.78787890e-002 7.57575780e-003 7.57575780e-003 7.57575780e-003 0.
      0. 0. 0. 1.51515156e-002 0. 0. 0. 7.57575780e-003 0. 0.
      1.51515156e-002 0. 0. 0. 0. 0. 0. 7.57575780e-003 7.57575780e-003
      7.57575780e-003 0. 0. 7.57575780e-003 2.27272734e-002 0.
      3.78787890e-002 0. 0. 7.57575780e-003 0. 0. 0. 2.27272734e-002 0.
      1.51515156e-002 1.51515156e-002 4.54545468e-002 0. 0. 0. 0. 0. 0.
      0. 0. 0. 4.54545468e-002 0. 7.57575780e-003 4.54545468e-002 0. 0.
      7.57575780e-003 7.57575780e-003 3.78787890e-002 2.27272734e-002
      7.57575780e-003 7.57575780e-003 2.27272734e-002 0. 7.57575780e-003
      0. 0. 0. 0. 7.57575780e-003</_>
    <_>
      3.92156886e-003 0. 3.92156886e-003 7.84313753e-002 3.92156886e-003
      1.56862754e-002 3.92156886e-003 9.41176564e-002 3.92156886e-003
      3.92156886e-003 0. 0. 1.96078438e-002 0. 0. 1.96078438e-002 0.
      7.84313772e-003 0. 1.96078438e-002 7.84313772e-003 0.
      3.92156886e-003 3.92156886e-003 3.92156886e-003 3.92156886e-003 0.
      1.56862754e-002 0. 3.92156886e-003 1.17647070e-002 3.92156886e-003
