<?xml version="1.0"?>
<opencv_storage>
<my_svm type_id="opencv-ml-svm">
  <svm_type>C_SVC</svm_type>
  <kernel><type>RBF</type>
    <gamma>5.0625000000000009e-001</gamma></kernel>
  <C>6.2500000000000000e+001</C>
  <term_criteria><epsilon>1.1920928955078125e-007</epsilon>
    <iterations>1000</iterations></term_criteria>
  <var_all>150</var_all>
  <var_count>150</var_count>
  <class_count>2</class_count>
  <class_labels type_id="opencv-matrix">
    <rows>1</rows>
    <cols>2</cols>
    <dt>i</dt>
    <data>
      0 1</data></class_labels>
  <sv_total>111</sv_total>
  <support_vectors>
    <_>
      2.82087456e-003 8.46262369e-003 4.23131185e-003 1.41043728e-002 0.
      2.82087456e-003 8.46262369e-003 2.82087456e-003 1.97461210e-002 0.
      1.12834983e-002 5.64174913e-003 1.12834983e-002 2.82087456e-003
      1.41043728e-002 5.64174913e-003 7.05218641e-003 4.23131185e-003
      1.41043728e-003 2.82087456e-003 1.41043728e-003 2.82087456e-003
      4.23131185e-003 9.87306051e-003 5.64174913e-003 7.05218641e-003
      1.41043728e-003 5.64174913e-003 1.83356851e-002 1.41043728e-003
      2.82087456e-003 1.41043728e-003 1.41043728e-003 1.55148096e-002
      4.23131185e-003 1.26939360e-002 1.41043728e-003 5.64174913e-003
      5.64174913e-003 5.64174913e-003 5.64174913e-003 1.41043728e-003
      4.23131185e-003 2.82087456e-003 2.82087456e-003 5.64174913e-003
      2.82087456e-003 7.05218641e-003 1.41043728e-003 8.46262369e-003
      1.41043728e-003 1.41043728e-002 9.87306051e-003 4.23131185e-003
      1.41043728e-003 7.05218641e-003 9.87306051e-003 1.41043728e-002
      4.23131185e-003 2.82087456e-003 5.64174913e-003 4.23131185e-003
      4.23131185e-003 4.23131185e-003 7.05218641e-003 8.46262369e-003
      8.46262369e-003 1.26939360e-002 5.64174913e-003 0. 5.64174913e-003
      9.87306051e-003 5.64174913e-003 8.46262369e-003 1.41043728e-002
      4.23131185e-003 5.64174913e-003 1.69252474e-002 8.46262369e-003
      2.82087456e-003 7.05218641e-003 9.87306051e-003 5.64174913e-003
      1.97461210e-002 4.23131185e-003 1.41043728e-002 1.69252474e-002
      5.64174913e-003 1.26939360e-002 4.23131185e-003 8.46262369e-003
      4.23131185e-003 0. 2.82087456e-003 7.05218641e-003 8.46262369e-003
      1.12834983e-002 5.64174913e-003 2.82087456e-003 1.41043728e-003
      2.82087456e-003 4.23131185e-003 4.23131185e-003 8.46262369e-003
      7.05218641e-003 5.64174913e-003 0. 2.82087456e-003 4.23131185e-003
      2.25669965e-002 9.87306051e-003 4.23131185e-003 1.41043728e-003
      8.46262369e-003 5.64174913e-003 1.12834983e-002 2.82087456e-003 0.
      1.41043728e-003 8.46262369e-003 2.82087456e-003 1.26939360e-002
      1.12834983e-002 1.55148096e-002 8.46262369e-003 4.23131185e-003
      1.41043728e-003 1.26939360e-002 1.12834983e-002 1.69252474e-002
      7.05218641e-003 4.23131185e-003 1.41043728e-003 5.64174913e-003
      1.69252474e-002 1.41043728e-003 1.26939360e-002 9.87306051e-003
      8.46262369e-003 5.64174913e-003 2.82087456e-003 1.41043728e-003
      2.82087456e-003 4.23131185e-003 1.55148096e-002 4.23131185e-003
      5.64174913e-003 1.41043728e-002 2.82087456e-003 9.87306051e-003</_>
    <_>
      1.94552529e-003 7.78210117e-003 3.89105058e-003 3.89105058e-003
      9.72762611e-003 5.83657576e-003 3.89105058e-003 0. 1.75097268e-002
      1.94552529e-003 2.14007776e-002 7.78210117e-003 3.89105058e-003
      1.94552529e-003 2.52918284e-002 5.83657576e-003 5.83657576e-003 0.
      0. 1.94552529e-003 0. 3.89105058e-003 3.89105058e-003
      3.89105058e-003 7.78210117e-003 1.94552529e-003 1.94552522e-002 0.
      1.36186769e-002 1.94552529e-003 1.94552529e-003 1.94552529e-003 0.
      2.91828793e-002 3.89105058e-003 2.91828793e-002 1.94552529e-003
      1.94552529e-003 5.83657576e-003 1.75097268e-002 0. 5.83657576e-003
      7.78210117e-003 7.78210117e-003 0. 7.78210117e-003 0.
      3.89105058e-003 7.78210117e-003 5.83657576e-003 1.94552529e-003
      5.83657576e-003 1.55642023e-002 2.72373538e-002 1.94552529e-003
      1.16731515e-002 2.72373538e-002 1.55642023e-002 1.94552529e-003
      3.89105058e-003 9.72762611e-003 5.83657576e-003 1.16731515e-002 0.
      1.36186769e-002 9.72762611e-003 1.94552529e-003 5.83657576e-003 0.
      9.72762611e-003 3.89105058e-003 5.83657576e-003 0. 9.72762611e-003
      5.83657576e-003 0. 5.83657576e-003 3.89105058e-003 0.
      5.83657576e-003 7.78210117e-003 1.94552529e-003 1.94552529e-003
      1.75097268e-002 1.94552529e-003 1.94552529e-003 1.94552529e-003
      3.89105058e-003 5.83657576e-003 0. 3.89105058e-003 1.16731515e-002
      0. 1.55642023e-002 1.16731515e-002 0. 1.75097268e-002
      1.55642023e-002 0. 1.94552529e-003 7.78210117e-003 5.83657576e-003
      5.83657576e-003 7.78210117e-003 0. 0. 0. 0. 1.75097268e-002
      7.78210117e-003 1.36186769e-002 1.94552529e-003 1.94552529e-003
      1.16731515e-002 1.94552529e-003 3.89105058e-003 1.55642023e-002 0.
      1.94552529e-003 1.16731515e-002 5.83657576e-003 9.72762611e-003
      5.83657576e-003 1.55642023e-002 1.94552529e-003 1.94552529e-003 0.
      1.55642023e-002 1.16731515e-002 3.89105058e-003 5.83657576e-003
      1.36186769e-002 5.83657576e-003 1.16731515e-002 3.89105058e-003
      7.78210117e-003 3.89105058e-003 5.83657576e-003 7.78210117e-003 0.
      0. 7.78210117e-003 7.78210117e-003 5.83657576e-003 1.16731515e-002
      9.72762611e-003 1.16731515e-002 5.83657576e-003 1.94552529e-003
      1.16731515e-002</_>
    <_>
      1.09890113e-002 1.92307699e-002 1.92307699e-002 1.64835174e-002
      1.37362638e-002 2.74725282e-003 1.64835174e-002 0. 2.74725282e-003
      5.49450563e-003 5.49450563e-003 2.74725282e-003 1.64835174e-002
      1.09890113e-002 2.74725282e-003 8.24175868e-003 5.49450563e-003 0.
      2.74725282e-003 0. 2.74725282e-003 5.49450563e-003 2.74725282e-003
      5.49450563e-003 1.09890113e-002 1.64835174e-002 8.24175868e-003
      5.49450563e-003 5.49450563e-003 2.74725282e-003 2.74725282e-003 0.
      2.74725282e-003 8.24175868e-003 1.92307699e-002 1.09890113e-002
      8.24175868e-003 2.74725282e-003 5.49450563e-003 5.49450563e-003 0.
      2.74725282e-003 2.74725282e-003 5.49450563e-003 5.49450563e-003
      1.37362638e-002 0. 1.64835174e-002 0. 5.49450563e-003
      2.74725282e-003 1.09890113e-002 2.74725282e-003 1.09890113e-002
      2.74725282e-003 5.49450563e-003 8.24175868e-003 1.09890113e-002
      5.49450563e-003 0. 2.74725282e-003 8.24175868e-003 5.49450563e-003
      2.74725282e-003 1.09890113e-002 8.24175868e-003 5.49450563e-003
      8.24175868e-003 8.24175868e-003 2.74725282e-003 2.74725282e-003
      8.24175868e-003 1.37362638e-002 2.74725282e-003 0. 2.74725282e-003
      8.24175868e-003 0. 5.49450563e-003 1.37362638e-002 2.74725282e-003
      5.49450563e-003 2.74725282e-003 5.49450563e-003 5.49450563e-003
      2.74725282e-003 1.64835174e-002 5.49450563e-003 1.37362638e-002
      1.09890113e-002 1.09890113e-002 1.09890113e-002 2.74725282e-003
      5.49450563e-003 2.74725282e-003 2.74725282e-003 1.92307699e-002 0.
      0. 8.24175868e-003 5.49450563e-003 0. 5.49450563e-003
      2.74725282e-003 8.24175868e-003 0. 0. 2.74725282e-003
      8.24175868e-003 1.64835174e-002 1.64835174e-002 2.74725282e-003
      8.24175868e-003 2.74725282e-003 2.74725282e-003 5.49450563e-003
      5.49450563e-003 0. 0. 2.74725282e-003 1.37362638e-002
      8.24175868e-003 0. 0. 5.49450563e-003 1.37362638e-002
      8.24175868e-003 5.49450563e-003 3.29670347e-002 0. 5.49450563e-003
      1.09890113e-002 2.19780225e-002 0. 3.02197803e-002 0.
      5.49450563e-003 0. 2.74725282e-003 1.64835174e-002 5.49450563e-003
      2.74725282e-003 1.37362638e-002 8.24175868e-003 8.24175868e-003
      2.74725282e-003 8.24175868e-003 8.24175868e-003 0. 2.74725282e-003</_>
    <_>
      2.23642178e-002 9.58466437e-003 6.38977624e-003 0. 1.59744397e-002
      3.19488812e-003 3.19488812e-003 9.58466437e-003 0. 3.19488812e-003
      1.27795525e-002 6.38977624e-003 1.91693287e-002 0. 0. 0. 0.
      3.19488812e-003 9.58466437e-003 3.19488812e-003 0. 0.
      9.58466437e-003 1.27795525e-002 1.27795525e-002 1.59744397e-002
      6.38977624e-003 9.58466437e-003 0. 0. 1.27795525e-002 0. 0. 0.
      1.27795525e-002 9.58466437e-003 3.19488812e-003 0. 6.38977624e-003
      3.19488812e-003 0. 6.38977624e-003 3.19488812e-003 0.
      6.38977624e-003 6.38977624e-003 0. 1.59744397e-002 1.27795525e-002
      0. 6.38977624e-003 6.38977624e-003 0. 1.27795525e-002
      3.19488812e-003 6.38977624e-003 0. 6.38977624e-003 9.58466437e-003
      3.19488812e-003 6.38977624e-003 1.59744397e-002 6.38977624e-003
      6.38977624e-003 0. 1.27795525e-002 1.27795525e-002 1.91693287e-002
      1.59744397e-002 1.27795525e-002 3.19488812e-003 0. 6.38977624e-003
      6.38977624e-003 0. 2.23642178e-002 3.19488812e-003 3.19488812e-003
      1.27795525e-002 1.27795525e-002 1.27795525e-002 2.23642178e-002
      6.38977624e-003 0. 6.38977624e-003 6.38977624e-003 3.19488812e-003
      9.58466437e-003 6.38977624e-003 6.38977624e-003 3.19488812e-003
      9.58466437e-003 1.27795525e-002 3.19488812e-003 3.19488812e-003 0.
      9.58466437e-003 6.38977624e-003 0. 6.38977624e-003 0. 0.
      6.38977624e-003 3.19488812e-003 3.19488812e-003 3.19488812e-003
      6.38977624e-003 0. 0. 3.19488812e-003 3.19488812e-003 0. 0.
      3.19488812e-003 1.59744397e-002 0. 9.58466437e-003 3.19488812e-003
      0. 6.38977624e-003 1.27795525e-002 6.38977624e-003 3.19488812e-003
      1.27795525e-002 0. 2.55591050e-002 6.38977624e-003 1.91693287e-002
      9.58466437e-003 9.58466437e-003 3.19488812e-003 3.19488812e-003
      1.27795525e-002 6.38977624e-003 9.58466437e-003 9.58466437e-003
      3.19488812e-003 9.58466437e-003 9.58466437e-003 9.58466437e-003
      3.19488812e-003 3.19488812e-003 6.38977624e-003 3.19488812e-003
      3.19488794e-002 1.59744397e-002 9.58466437e-003 0. 3.19488812e-003
      1.27795525e-002</_>
    <_>
      5.41516254e-003 1.62454881e-002 9.02527105e-003 5.41516254e-003
      3.61010828e-003 5.41516254e-003 7.22021656e-003 7.22021656e-003
      7.22021656e-003 5.41516254e-003 7.22021656e-003 7.22021656e-003
      9.02527105e-003 0. 9.02527105e-003 0. 3.61010828e-003 0.
      1.08303251e-002 7.22021656e-003 7.22021656e-003 3.61010828e-003
      7.22021656e-003 5.41516254e-003 5.41516254e-003 7.22021656e-003
      9.02527105e-003 7.22021656e-003 1.44404331e-002 0. 1.08303251e-002
      0. 0. 1.08303251e-002 7.22021656e-003 1.08303251e-002
      1.80505414e-003 7.22021656e-003 1.26353791e-002 3.61010828e-003 0.
      5.41516254e-003 0. 1.80505414e-003 7.22021656e-003 0.
      3.61010828e-003 3.61010828e-003 3.61010828e-003 1.26353791e-002 0.
      1.26353791e-002 1.26353791e-002 1.26353791e-002 5.41516254e-003
      5.41516254e-003 7.22021656e-003 1.80505421e-002 5.41516254e-003
      5.41516254e-003 3.61010828e-003 1.26353791e-002 5.41516254e-003
      3.61010828e-003 9.02527105e-003 0. 7.22021656e-003 1.08303251e-002
      5.41516254e-003 9.02527105e-003 5.41516254e-003 1.62454881e-002
      1.80505414e-003 1.44404331e-002 1.80505414e-003 1.26353791e-002
      9.02527105e-003 1.44404331e-002 5.41516254e-003 1.08303251e-002
      5.41516254e-003 7.22021656e-003 1.80505414e-003 3.61010828e-003
      1.08303251e-002 7.22021656e-003 3.61010828e-003 7.22021656e-003
      9.02527105e-003 5.41516254e-003 1.08303251e-002 1.80505414e-003
      3.61010828e-003 3.61010828e-003 7.22021656e-003 7.22021656e-003
      1.08303251e-002 1.08303251e-002 3.61010828e-003 1.26353791e-002
      1.26353791e-002 7.22021656e-003 3.61010828e-003 1.80505414e-003
      7.22021656e-003 1.08303251e-002 1.80505414e-003 0. 9.02527105e-003
      1.08303251e-002 1.08303251e-002 3.61010828e-003 5.41516254e-003
      5.41516254e-003 3.61010828e-003 1.80505414e-003 9.02527105e-003
      1.08303251e-002 1.80505414e-003 3.61010828e-003 3.61010828e-003
      3.61010828e-003 1.80505414e-003 1.80505421e-002 1.80505414e-003
      3.61010828e-003 1.80505414e-003 0. 1.62454881e-002 1.44404331e-002
      9.02527105e-003 7.22021656e-003 5.41516254e-003 1.08303251e-002
      3.61010828e-003 9.02527105e-003 1.26353791e-002 1.80505414e-003 0.
      1.80505414e-003 3.61010828e-003 5.41516254e-003 1.26353791e-002
      1.08303251e-002 5.41516254e-003 1.26353791e-002 1.26353791e-002
      7.22021656e-003 5.41516254e-003 3.61010828e-003</_>
    <_>
      3.65853659e-003 1.46341464e-002 8.53658561e-003 1.21951220e-003 0.
      3.65853659e-003 1.09756095e-002 1.21951220e-003 7.31707318e-003
      6.09756075e-003 4.87804879e-003 3.65853659e-003 1.09756095e-002
      4.87804879e-003 2.43902439e-003 2.43902439e-003 3.65853659e-003
      1.21951220e-003 9.75609757e-003 2.43902439e-003 9.75609757e-003
      4.87804879e-003 7.31707318e-003 9.75609757e-003 1.21951215e-002
      1.21951220e-003 2.43902439e-003 7.31707318e-003 4.87804879e-003
      1.21951220e-003 2.19512191e-002 4.87804879e-003 1.21951220e-003
      8.53658561e-003 4.87804879e-003 2.43902439e-003 1.58536583e-002
      1.21951220e-003 1.09756095e-002 3.65853659e-003 2.43902439e-003
      6.09756075e-003 3.65853659e-003 3.65853659e-003 2.43902439e-003
      2.43902439e-003 2.43902439e-003 2.43902439e-003 4.87804879e-003
      1.34146344e-002 6.09756075e-003 6.09756075e-003 7.31707318e-003
      1.58536583e-002 1.21951220e-003 6.09756075e-003 1.09756095e-002
      4.87804879e-003 1.70731712e-002 6.09756075e-003 1.09756095e-002
      2.43902439e-003 3.65853659e-003 6.09756075e-003 7.31707318e-003
      1.21951220e-003 7.31707318e-003 8.53658561e-003 7.31707318e-003
      7.31707318e-003 1.09756095e-002 8.53658561e-003 3.65853659e-003
      6.09756075e-003 1.09756095e-002 1.09756095e-002 1.21951215e-002 0.
      1.09756095e-002 7.31707318e-003 6.09756075e-003 8.53658561e-003
      7.31707318e-003 7.31707318e-003 2.56097559e-002 8.53658561e-003
      1.21951215e-002 7.31707318e-003 2.68292688e-002 4.87804879e-003
      1.46341464e-002 8.53658561e-003 6.09756075e-003 1.70731712e-002
      2.43902439e-003 8.53658561e-003 6.09756075e-003 4.87804879e-003
      3.65853659e-003 1.21951215e-002 3.65853659e-003 2.43902439e-003
      3.65853659e-003 8.53658561e-003 1.21951215e-002 4.87804879e-003
      7.31707318e-003 2.43902439e-003 2.43902439e-003 8.53658561e-003
      4.87804879e-003 0. 6.09756075e-003 6.09756075e-003 4.87804879e-003
      3.65853659e-003 8.53658561e-003 3.65853659e-003 1.21951220e-003
      6.09756075e-003 3.65853659e-003 1.09756095e-002 2.43902439e-003
      6.09756075e-003 3.65853659e-003 7.31707318e-003 0. 8.53658561e-003
      3.65853659e-003 0. 4.87804879e-003 8.53658561e-003 8.53658561e-003
      7.31707318e-003 1.58536583e-002 3.65853659e-003 4.87804879e-003
      7.31707318e-003 7.31707318e-003 8.53658561e-003 3.65853659e-003
      6.09756075e-003 2.43902439e-003 1.09756095e-002 2.07317080e-002
      1.21951220e-003 1.34146344e-002 0. 3.65853659e-003 4.87804879e-003</_>
    <_>
      1.19760484e-002 5.98802418e-003 3.99201596e-003 0. 7.98403192e-003
      0. 7.98403192e-003 5.98802418e-003 2.79441122e-002 1.99600798e-003
      5.98802418e-003 5.98802418e-003 1.19760484e-002 5.98802418e-003
      1.99600793e-002 3.99201596e-003 7.98403192e-003 1.99600798e-003
      3.99201596e-003 1.19760484e-002 9.98003967e-003 1.99600798e-003 0.
      0. 1.39720561e-002 0. 3.99201596e-003 9.98003967e-003
      7.98403192e-003 1.99600798e-003 9.98003967e-003 0. 0.
      2.19560880e-002 1.19760484e-002 2.39520967e-002 1.99600798e-003
      3.99201596e-003 9.98003967e-003 5.98802418e-003 1.99600798e-003
      1.59680638e-002 0. 7.98403192e-003 5.98802418e-003 5.98802418e-003
      3.99201596e-003 9.98003967e-003 1.99600798e-003 1.99600798e-003
      1.39720561e-002 1.19760484e-002 7.98403192e-003 7.98403192e-003 0.
      7.98403192e-003 1.19760484e-002 3.99201596e-003 5.98802418e-003 0.
      1.19760484e-002 1.19760484e-002 1.19760484e-002 1.79640725e-002
      5.98802418e-003 7.98403192e-003 1.99600798e-003 7.98403192e-003 0.
      3.99201596e-003 0. 1.99600798e-003 1.99600798e-003 1.39720561e-002
      7.98403192e-003 0. 1.99600798e-003 1.19760484e-002 3.99201596e-003
      7.98403192e-003 1.99600798e-003 3.99201596e-003 0. 1.99600793e-002
      5.98802418e-003 5.98802418e-003 1.19760484e-002 5.98802418e-003
      5.98802418e-003 0. 1.59680638e-002 1.19760484e-002 5.98802418e-003
      1.19760484e-002 3.99201596e-003 0. 7.98403192e-003 0.
      1.99600798e-003 1.39720561e-002 5.98802418e-003 5.98802418e-003
      1.99600798e-003 0. 5.98802418e-003 1.99600798e-003 0.
      7.98403192e-003 5.98802418e-003 9.98003967e-003 7.98403192e-003
      5.98802418e-003 1.99600798e-003 5.98802418e-003 1.99600798e-003
      7.98403192e-003 7.98403192e-003 7.98403192e-003 0. 0.
      1.39720561e-002 1.19760484e-002 5.98802418e-003 1.19760484e-002
      5.98802418e-003 9.98003967e-003 0. 7.98403192e-003 9.98003967e-003
      7.98403192e-003 1.99600798e-003 7.98403192e-003 1.59680638e-002
      7.98403192e-003 9.98003967e-003 1.59680638e-002 7.98403192e-003
      1.99600798e-003 1.99600798e-003 1.99600798e-003 0. 1.59680638e-002
      9.98003967e-003 5.98802418e-003 7.98403192e-003 5.98802418e-003
      3.99201596e-003 0. 1.99600798e-003 3.99201596e-003</_>
    <_>
      4.81540943e-003 1.60513644e-003 8.02568253e-003 0. 1.12359552e-002
      3.21027287e-003 9.63081885e-003 4.81540943e-003 4.81540943e-003
      4.81540943e-003 8.02568253e-003 9.63081885e-003 9.63081885e-003
      8.02568253e-003 1.60513644e-003 1.60513644e-003 1.12359552e-002
      8.02568253e-003 1.12359552e-002 3.21027287e-003 3.21027287e-003
      3.21027287e-003 1.28410915e-002 3.21027287e-003 1.60513644e-003
      9.63081885e-003 1.28410915e-002 1.60513644e-003 8.02568253e-003
      6.42054575e-003 0. 4.81540943e-003 3.21027287e-003 6.42054575e-003
      1.12359552e-002 1.28410915e-002 1.60513644e-003 3.21027287e-003
      9.63081885e-003 4.81540943e-003 6.42054575e-003 4.81540943e-003
      1.44462278e-002 4.81540943e-003 1.60513644e-003 9.63081885e-003
      1.60513644e-003 4.81540943e-003 8.02568253e-003 4.81540943e-003
      4.81540943e-003 8.02568253e-003 6.42054575e-003 1.12359552e-002
      9.63081885e-003 1.60513644e-003 6.42054575e-003 2.24719103e-002
      8.02568253e-003 6.42054575e-003 4.81540943e-003 4.81540943e-003
      1.60513644e-003 1.28410915e-002 1.60513644e-003 1.76565014e-002
      1.44462278e-002 6.42054575e-003 0. 9.63081885e-003 4.81540943e-003
      0. 3.21027287e-003 1.60513644e-003 9.63081885e-003 6.42054575e-003
      3.21027287e-003 4.81540943e-003 3.21027287e-003 4.81540943e-003
      4.81540943e-003 8.02568253e-003 1.12359552e-002 3.21027287e-003
      3.21027287e-003 8.02568253e-003 4.81540943e-003 8.02568253e-003
      4.81540943e-003 6.42054575e-003 6.42054575e-003 8.02568253e-003
      4.81540943e-003 4.81540943e-003 8.02568253e-003 6.42054575e-003
      6.42054575e-003 1.28410915e-002 4.81540943e-003 1.28410915e-002
      1.44462278e-002 4.81540943e-003 8.02568253e-003 6.42054575e-003
      4.81540943e-003 1.12359552e-002 6.42054575e-003 9.63081885e-003
      1.28410915e-002 3.21027287e-003 4.81540943e-003 8.02568253e-003 0.
      4.81540943e-003 3.21027287e-003 4.81540943e-003 1.60513644e-003
      6.42054575e-003 1.60513644e-003 6.42054575e-003 6.42054575e-003
      8.02568253e-003 8.02568253e-003 9.63081885e-003 6.42054575e-003
      1.60513644e-003 1.60513644e-003 3.21027287e-003 1.12359552e-002
      4.81540943e-003 8.02568253e-003 1.44462278e-002 1.12359552e-002
      6.42054575e-003 1.12359552e-002 6.42054575e-003 9.63081885e-003
      1.44462278e-002 1.60513644e-003 1.60513644e-003 6.42054575e-003
      4.81540943e-003 1.44462278e-002 3.21027287e-003 1.44462278e-002
      2.40770467e-002 1.28410915e-002 1.60513644e-003 0. 3.21027287e-003</_>
    <_>
      5.56328241e-003 9.73574445e-003 4.17246204e-003 1.11265648e-002
      2.78164120e-003 4.17246204e-003 1.39082056e-002 0. 2.78164120e-003
      6.95410278e-003 1.66898482e-002 2.78164120e-003 5.56328241e-003
      1.39082060e-003 4.17246204e-003 6.95410278e-003 1.66898482e-002
      1.39082060e-003 5.56328241e-003 2.78164120e-003 8.34492408e-003
      1.66898482e-002 8.34492408e-003 9.73574445e-003 9.73574445e-003
      1.39082060e-003 1.39082056e-002 2.78164120e-003 9.73574445e-003
      1.11265648e-002 2.78164120e-003 0. 1.39082060e-003 1.11265648e-002
      1.39082060e-003 1.25173852e-002 1.39082060e-003 2.78164120e-003
      1.25173852e-002 4.17246204e-003 2.78164120e-003 2.78164120e-003
      1.25173852e-002 5.56328241e-003 1.11265648e-002 4.17246204e-003
      5.56328241e-003 2.78164120e-003 2.78164120e-003 6.95410278e-003
      5.56328241e-003 9.73574445e-003 9.73574445e-003 2.78164111e-002
      5.56328241e-003 4.17246204e-003 9.73574445e-003 9.73574445e-003
      1.39082060e-003 4.17246204e-003 8.34492408e-003 1.39082060e-003
      2.08623093e-002 5.56328241e-003 1.39082056e-002 1.39082060e-003
      2.78164120e-003 8.34492408e-003 2.78164120e-003 2.22531296e-002
      1.25173852e-002 5.56328241e-003 0. 9.73574445e-003 8.34492408e-003
      0. 4.17246204e-003 5.56328241e-003 2.78164120e-003 1.39082060e-003
      9.73574445e-003 6.95410278e-003 8.34492408e-003 1.11265648e-002
      6.95410278e-003 4.17246204e-003 9.73574445e-003 6.95410278e-003
      5.56328241e-003 1.39082060e-003 2.78164120e-003 6.95410278e-003
      2.78164120e-003 3.05980537e-002 4.17246204e-003 0. 1.52990269e-002
      8.34492408e-003 0. 9.73574445e-003 9.73574445e-003 8.34492408e-003
      4.17246204e-003 4.17246204e-003 6.95410278e-003 4.17246204e-003
      1.39082060e-003 0. 1.80806685e-002 1.39082060e-003 1.11265648e-002
      2.78164120e-003 4.17246204e-003 9.73574445e-003 0. 9.73574445e-003
      2.78164120e-003 4.17246204e-003 1.39082060e-003 6.95410278e-003
      5.56328241e-003 8.34492408e-003 8.34492408e-003 9.73574445e-003
      8.34492408e-003 1.39082060e-003 0. 1.11265648e-002 1.80806685e-002
      5.56328241e-003 2.78164120e-003 9.73574445e-003 5.56328241e-003
      8.34492408e-003 4.17246204e-003 2.78164120e-003 2.78164120e-003
      6.95410278e-003 2.78164120e-003 1.39082060e-003 1.39082060e-003
      8.34492408e-003 4.17246204e-003 6.95410278e-003 6.95410278e-003
      1.94714889e-002 8.34492408e-003 2.78164120e-003 0. 5.56328241e-003</_>
    <_>
      1.09890113e-002 1.28205130e-002 0. 0. 0. 0. 1.64835174e-002 0.
      3.66300382e-002 3.66300368e-003 1.28205130e-002 1.09890113e-002
      1.09890113e-002 0. 2.93040294e-002 1.83150184e-003 5.49450563e-003
      9.15750954e-003 5.49450563e-003 7.32600736e-003 1.83150184e-003
      3.66300368e-003 3.66300368e-003 1.83150191e-002 1.83150184e-003
      7.32600736e-003 3.66300368e-003 1.83150184e-003 1.09890113e-002 0.
      1.83150184e-003 3.66300368e-003 1.83150184e-003 3.29670347e-002
      1.83150184e-003 1.46520147e-002 3.66300368e-003 0. 1.28205130e-002
      5.49450563e-003 5.49450563e-003 0. 1.28205130e-002 0.
      1.83150184e-003 1.83150184e-003 1.83150184e-003 1.64835174e-002
      1.83150184e-003 3.66300368e-003 3.66300368e-003 9.15750954e-003
      5.49450563e-003 1.46520147e-002 3.66300368e-003 5.49450563e-003
      5.49450563e-003 9.15750954e-003 9.15750954e-003 1.83150184e-003
      1.83150184e-003 7.32600736e-003 0. 5.49450563e-003 3.66300368e-003
      0. 9.15750954e-003 5.49450563e-003 0. 1.83150184e-003
      1.09890113e-002 7.32600736e-003 3.66300368e-003 1.28205130e-002
      7.32600736e-003 0. 7.32600736e-003 1.28205130e-002 7.32600736e-003
      3.66300368e-003 1.83150191e-002 9.15750954e-003 9.15750954e-003
      2.19780225e-002 5.49450563e-003 1.64835174e-002 9.15750954e-003
      5.49450563e-003 3.66300368e-003 3.66300368e-003 7.32600736e-003
      7.32600736e-003 1.83150184e-003 1.83150184e-003 9.15750954e-003
      1.83150184e-003 2.01465208e-002 5.49450563e-003 0. 1.83150184e-003
      1.83150184e-003 1.83150184e-003 1.09890113e-002 7.32600736e-003
      1.46520147e-002 3.66300368e-003 5.49450563e-003 0. 3.66300368e-003
      2.56410260e-002 9.15750954e-003 0. 1.83150184e-003 1.28205130e-002
      0. 7.32600736e-003 1.09890113e-002 0. 1.83150184e-003
      1.09890113e-002 0. 1.09890113e-002 7.32600736e-003 3.66300368e-003
      3.66300368e-003 7.32600736e-003 0. 1.83150184e-003 1.09890113e-002
      1.28205130e-002 1.83150184e-003 1.83150184e-003 1.83150184e-003
      2.19780225e-002 1.46520147e-002 0. 9.15750954e-003 5.49450563e-003
      9.15750954e-003 1.83150184e-003 1.83150184e-003 1.83150184e-003 0.
      5.49450563e-003 1.46520147e-002 7.32600736e-003 5.49450563e-003
      5.49450563e-003 3.66300368e-003 1.09890113e-002</_>
    <_>
      8.94854590e-003 1.11856824e-002 2.01342292e-002 4.47427295e-003
      2.23713648e-003 2.23713648e-003 8.94854590e-003 2.68456377e-002
      2.23713648e-003 2.23713648e-002 2.23713648e-003 0. 1.56599544e-002
      1.56599544e-002 2.23713648e-003 0. 2.23713648e-003 4.47427295e-003
      1.34228189e-002 1.34228189e-002 2.23713648e-002 2.23713648e-003
      1.34228189e-002 2.23713648e-003 6.71140943e-003 6.71140943e-003
      2.23713648e-003 4.47427295e-003 0. 4.47427295e-003 1.34228189e-002
      2.23713648e-003 2.23713648e-003 0. 2.01342292e-002 6.71140943e-003
      4.47427295e-003 6.71140943e-003 4.47427295e-003 0. 4.47427295e-003
      0. 2.23713648e-003 1.11856824e-002 2.23713648e-003 1.56599544e-002
      6.71140943e-003 0. 4.47427295e-003 0. 2.68456377e-002
      4.47427295e-003 2.23713648e-003 4.47427295e-003 2.23713648e-003
      1.11856824e-002 4.47427295e-003 2.23713648e-003 6.71140943e-003
      6.71140943e-003 8.94854590e-003 1.11856824e-002 4.47427295e-003
      2.01342292e-002 0. 1.78970918e-002 4.47427295e-003 6.71140943e-003
      1.34228189e-002 4.47427295e-003 2.23713648e-003 2.23713648e-003
      6.71140943e-003 4.47427295e-003 4.47427295e-003 6.71140943e-003 0.
      6.71140943e-003 1.56599544e-002 8.94854590e-003 6.71140943e-003
      1.34228189e-002 4.47427295e-003 0. 4.47427295e-003 1.11856824e-002
      1.11856824e-002 6.71140943e-003 1.34228189e-002 4.47427295e-003
      1.11856824e-002 2.23713648e-003 2.23713648e-003 2.23713648e-003
      4.47427295e-003 4.47427295e-003 6.71140943e-003 0. 6.71140943e-003
      1.56599544e-002 2.23713648e-003 2.23713648e-003 0. 6.71140943e-003
      6.71140943e-003 6.71140943e-003 0. 0. 1.11856824e-002
      6.71140943e-003 2.23713648e-003 1.56599544e-002 4.47427295e-003 0.
      1.11856824e-002 0. 6.71140943e-003 1.11856824e-002 0.
      4.47427295e-003 8.94854590e-003 8.94854590e-003 4.47427295e-003
      2.23713648e-003 4.47427295e-003 8.94854590e-003 2.23713648e-003
      2.23713648e-003 6.71140943e-003 6.71140943e-003 4.47427295e-003
      2.23713648e-003 4.47427295e-003 4.47427295e-003 1.56599544e-002
      4.47427295e-003 1.34228189e-002 8.94854590e-003 4.47427295e-003
      8.94854590e-003 0. 8.94854590e-003 1.56599544e-002 2.23713648e-003
      1.78970918e-002 8.94854590e-003 4.47427295e-003 2.23713648e-003
      4.47427295e-003 4.47427295e-003</_>
    <_>
      2.21238937e-003 1.10619469e-002 6.63716812e-003 2.21238937e-003 0.
      4.42477874e-003 1.76991150e-002 0. 0. 2.21238937e-003
      6.63716812e-003 6.63716812e-003 6.63716812e-003 8.84955749e-003 0.
      4.42477874e-003 6.63716812e-003 8.84955749e-003 1.54867256e-002
      1.54867256e-002 1.76991150e-002 1.54867256e-002 2.21238937e-003
      4.42477874e-003 1.10619469e-002 2.21238937e-003 2.21238937e-003
      6.63716812e-003 1.10619469e-002 6.63716812e-003 2.21238937e-003 0.
      0. 4.42477874e-003 4.42477874e-003 8.84955749e-003 2.21238937e-003
      1.10619469e-002 1.54867256e-002 6.63716812e-003 0. 2.21238937e-003
      1.10619469e-002 2.21238937e-003 8.84955749e-003 1.32743362e-002
      1.10619469e-002 2.21238937e-003 2.21238937e-003 6.63716812e-003
      8.84955749e-003 6.63716812e-003 8.84955749e-003 1.99115053e-002
      2.21238937e-003 2.21238937e-003 6.63716812e-003 1.32743362e-002
      1.32743362e-002 2.21238937e-003 4.42477874e-003 0. 6.63716812e-003
      1.10619469e-002 6.63716812e-003 0. 4.42477874e-003 4.42477874e-003
      0. 4.42477874e-003 4.42477874e-003 6.63716812e-003 0.
      6.63716812e-003 2.21238937e-003 0. 4.42477874e-003 4.42477874e-003
      2.21238937e-003 4.42477874e-003 0. 6.63716812e-003 4.42477874e-003
      4.42477874e-003 4.42477874e-003 4.42477874e-003 2.21238937e-003
      6.63716812e-003 8.84955749e-003 2.21238937e-003 1.54867256e-002
      4.42477874e-003 2.21238937e-003 1.99115053e-002 0. 2.21238937e-003
      1.10619469e-002 4.42477874e-003 6.63716812e-003 3.53982300e-002
      1.32743362e-002 1.32743362e-002 0. 2.21238937e-003 2.21238937e-003
      4.42477874e-003 4.42477874e-003 1.76991150e-002 6.63716812e-003
      2.21238937e-003 2.21238937e-003 2.21238937e-002 8.84955749e-003
      2.21238937e-003 0. 4.42477874e-003 6.63716812e-003 4.42477874e-003
      2.21238937e-003 6.63716812e-003 2.21238937e-003 8.84955749e-003
      1.10619469e-002 0. 6.63716812e-003 2.21238937e-003 0.
      1.32743362e-002 2.21238937e-003 2.21238937e-003 2.21238937e-003
      1.32743362e-002 3.09734512e-002 2.21238937e-003 4.42477874e-003
      2.21238937e-002 6.63716812e-003 2.21238937e-003 4.42477874e-003
      4.42477874e-003 2.21238937e-003 4.86725643e-002 8.84955749e-003
      1.10619469e-002 6.63716812e-003 8.84955749e-003 8.84955749e-003
      4.42477874e-003 0. 4.42477874e-003</_>
    <_>
      0. 8.60832166e-003 0. 4.30416083e-003 0. 8.60832166e-003
      8.60832166e-003 5.73888095e-003 1.72166433e-002 2.86944048e-003
      1.43472021e-002 2.86944048e-003 7.17360107e-003 1.43472024e-003
      1.86513625e-002 1.43472021e-002 1.57819223e-002 2.86944048e-003
      2.86944048e-003 8.60832166e-003 5.73888095e-003 1.57819223e-002
      1.43472024e-003 1.14777619e-002 1.14777619e-002 4.30416083e-003
      1.57819223e-002 2.86944048e-003 1.00430418e-002 2.86944048e-003
      2.86944048e-003 1.43472024e-003 0. 1.29124820e-002 1.43472024e-003
      1.57819223e-002 0. 4.30416083e-003 1.43472021e-002 5.73888095e-003
      2.86944048e-003 4.30416083e-003 5.73888095e-003 4.30416083e-003
      7.17360107e-003 7.17360107e-003 1.43472024e-003 2.86944048e-003
      1.14777619e-002 5.73888095e-003 1.43472024e-003 1.57819223e-002
      1.14777619e-002 1.00430418e-002 5.73888095e-003 5.73888095e-003
      5.73888095e-003 1.00430418e-002 4.30416083e-003 1.43472024e-003
      5.73888095e-003 1.43472024e-003 1.43472021e-002 2.86944048e-003
      1.00430418e-002 0. 4.30416083e-003 1.00430418e-002 0.
      2.86944048e-003 5.73888095e-003 7.17360107e-003 1.43472024e-003
      1.14777619e-002 1.43472021e-002 7.17360107e-003 7.17360107e-003
      1.57819223e-002 4.30416083e-003 2.86944048e-003 1.00430418e-002
      1.00430418e-002 0. 2.43902449e-002 1.57819223e-002 1.14777619e-002
      1.14777619e-002 4.30416083e-003 7.17360107e-003 8.60832166e-003
      4.30416083e-003 1.43472024e-003 0. 1.00430418e-002 8.60832166e-003
      1.43472024e-003 2.15208028e-002 1.00430418e-002 0. 1.43472024e-003
      8.60832166e-003 1.43472024e-003 4.30416083e-003 1.29124820e-002
      1.00430418e-002 2.86944048e-003 0. 1.43472024e-003 1.57819223e-002
      1.00430418e-002 4.30416083e-003 4.30416083e-003 0. 7.17360107e-003
      5.73888095e-003 7.17360107e-003 2.86944048e-003 7.17360107e-003 0.
      1.43472024e-003 1.43472024e-003 4.30416083e-003 7.17360107e-003
      7.17360107e-003 1.14777619e-002 5.73888095e-003 0. 5.73888095e-003
      4.30416083e-003 1.00430418e-002 7.17360107e-003 4.30416083e-003
      2.86944048e-003 8.60832166e-003 1.29124820e-002 2.86944048e-003
      1.43472024e-003 1.43472021e-002 2.86944048e-003 1.43472024e-003 0.
      8.60832166e-003 1.43472024e-003 8.60832166e-003 1.14777619e-002
      1.29124820e-002 1.43472021e-002 2.86944048e-003 0. 1.43472021e-002</_>
    <_>
      5.05050505e-003 8.41750856e-003 1.17845116e-002 3.36700329e-003
      6.73400657e-003 1.68350164e-003 1.34680131e-002 8.41750856e-003
      1.51515147e-002 8.41750856e-003 3.36700329e-003 1.51515147e-002
      1.01010101e-002 1.68350164e-003 5.05050505e-003 6.73400657e-003
      1.68350164e-003 1.68350164e-003 6.73400657e-003 6.73400657e-003
      6.73400657e-003 6.73400657e-003 3.36700329e-003 0. 6.73400657e-003
      1.01010101e-002 6.73400657e-003 3.36700329e-003 0. 0.
      8.41750856e-003 1.68350164e-003 0. 6.73400657e-003 1.68350171e-002
      1.01010101e-002 1.68350164e-003 8.41750856e-003 1.68350164e-003
      3.36700329e-003 1.68350164e-003 5.05050505e-003 0. 1.68350164e-003
      0. 1.68350164e-003 3.36700329e-003 1.51515147e-002 6.73400657e-003
      6.73400657e-003 1.85185187e-002 1.34680131e-002 5.05050505e-003
      8.41750856e-003 1.68350164e-003 3.36700329e-003 1.34680131e-002
      3.36700329e-003 1.34680131e-002 3.36700329e-003 5.05050505e-003
      2.35690232e-002 8.41750856e-003 1.51515147e-002 6.73400657e-003
      3.36700329e-003 5.05050505e-003 1.01010101e-002 1.68350164e-003
      3.36700329e-003 1.68350164e-003 1.51515147e-002 8.41750856e-003
      6.73400657e-003 0. 8.41750856e-003 1.68350164e-003 8.41750856e-003
      5.05050505e-003 1.01010101e-002 1.01010101e-002 8.41750856e-003
      3.36700329e-003 5.05050505e-003 8.41750856e-003 3.36700329e-003
      1.01010101e-002 6.73400657e-003 5.05050505e-003 5.05050505e-003
      3.36700343e-002 5.05050505e-003 1.01010101e-002 3.36700329e-003
      1.68350164e-003 1.68350164e-003 1.17845116e-002 0. 1.68350164e-003
      1.34680131e-002 3.36700329e-003 1.68350164e-003 8.41750856e-003
      1.68350164e-003 1.34680131e-002 6.73400657e-003 3.36700329e-003
      5.05050505e-003 3.36700329e-003 3.53535339e-002 5.05050505e-003
      3.36700329e-003 6.73400657e-003 5.05050505e-003 1.01010101e-002 0.
      5.05050505e-003 3.36700329e-003 0. 3.36700329e-003 6.73400657e-003
      6.73400657e-003 3.36700329e-003 5.05050505e-003 0. 6.73400657e-003
      0. 5.05050505e-003 8.41750856e-003 3.36700329e-003 1.51515147e-002
      3.36700329e-003 1.01010101e-002 8.41750856e-003 1.85185187e-002
      1.68350164e-003 8.41750856e-003 6.73400657e-003 5.05050505e-003
      1.68350164e-003 6.73400657e-003 2.02020202e-002 1.34680131e-002
      5.05050505e-003 1.51515147e-002 1.68350164e-003 1.01010101e-002
      1.68350164e-003 6.73400657e-003 3.36700329e-003</_>
    <_>
      1.09649124e-002 6.57894742e-003 7.67543865e-003 7.67543865e-003
      8.77192989e-003 1.31578948e-002 3.28947371e-003 3.28947371e-003
      9.86842066e-003 2.19298247e-003 6.57894742e-003 6.57894742e-003
      6.57894742e-003 2.19298247e-003 4.38596494e-003 1.09649124e-002
      6.57894742e-003 5.48245618e-003 7.67543865e-003 4.38596494e-003
      3.28947371e-003 3.28947371e-003 2.19298247e-003 3.28947371e-003
      3.28947371e-003 7.67543865e-003 6.57894742e-003 7.67543865e-003
      9.86842066e-003 0. 1.09649124e-002 4.38596494e-003 4.38596494e-003
      1.09649124e-002 4.38596494e-003 1.42543856e-002 8.77192989e-003
      6.57894742e-003 8.77192989e-003 6.57894742e-003 4.38596494e-003
      4.38596494e-003 5.48245618e-003 4.38596494e-003 8.77192989e-003
      3.28947371e-003 5.48245618e-003 7.67543865e-003 9.86842066e-003
      9.86842066e-003 0. 8.77192989e-003 8.77192989e-003 3.28947371e-003
      7.67543865e-003 1.20614041e-002 7.67543865e-003 1.20614041e-002
      1.64473690e-002 5.48245618e-003 8.77192989e-003 2.19298247e-003
      5.48245618e-003 5.48245618e-003 1.31578948e-002 1.09649124e-002
      1.09649124e-002 1.42543856e-002 4.38596494e-003 0. 5.48245618e-003
      1.20614041e-002 1.09649124e-002 1.31578948e-002 1.20614041e-002
      6.57894742e-003 9.86842066e-003 9.86842066e-003 1.09649124e-002
      5.48245618e-003 9.86842066e-003 8.77192989e-003 5.48245618e-003
      7.67543865e-003 2.19298247e-003 1.09649124e-002 8.77192989e-003
      1.09649124e-003 6.57894742e-003 6.57894742e-003 5.48245618e-003
      6.57894742e-003 6.57894742e-003 2.19298247e-003 1.20614041e-002
      3.28947371e-003 1.09649124e-002 3.28947371e-003 7.67543865e-003 0.
      7.67543865e-003 3.28947371e-003 1.53508773e-002 7.67543865e-003
      9.86842066e-003 1.09649124e-003 8.77192989e-003 4.38596494e-003
      3.28947371e-003 2.19298247e-003 2.19298247e-003 3.28947371e-003
      1.09649124e-003 6.57894742e-003 5.48245618e-003 6.57894742e-003
      1.09649124e-002 1.09649124e-003 4.38596494e-003 6.57894742e-003
      2.19298247e-003 7.67543865e-003 6.57894742e-003 9.86842066e-003
      6.57894742e-003 1.09649124e-002 2.19298247e-003 6.57894742e-003
      3.28947371e-003 8.77192989e-003 9.86842066e-003 4.38596494e-003
      5.48245618e-003 6.57894742e-003 9.86842066e-003 2.19298247e-003
      7.67543865e-003 2.19298247e-003 4.38596494e-003 6.57894742e-003
      6.57894742e-003 2.19298247e-003 6.57894742e-003 8.77192989e-003
      3.28947371e-003 5.48245618e-003 8.77192989e-003 5.48245618e-003
      4.38596494e-003 6.57894742e-003</_>
    <_>
      8.04828946e-003 6.03621732e-003 1.40845068e-002 1.60965789e-002
      2.01207236e-003 6.03621732e-003 1.00603616e-002 6.03621732e-003
      1.40845068e-002 8.04828946e-003 6.03621732e-003 1.00603616e-002
      4.02414473e-003 2.01207236e-003 6.03621732e-003 2.01207236e-003
      2.01207236e-003 2.01207236e-003 6.03621732e-003 1.40845068e-002
      4.02414473e-003 2.01207236e-003 1.00603616e-002 4.02414473e-003
      2.01207236e-003 8.04828946e-003 2.01207236e-003 8.04828946e-003
      1.81086510e-002 0. 1.81086510e-002 8.04828946e-003 0.
      1.20724346e-002 2.01207236e-003 4.02414473e-003 1.00603616e-002
      4.02414473e-003 1.40845068e-002 1.40845068e-002 8.04828946e-003
      4.02414473e-003 2.01207236e-003 0. 0. 4.02414473e-003
      6.03621732e-003 1.20724346e-002 6.03621732e-003 1.40845068e-002
      1.40845068e-002 6.03621732e-003 2.01207236e-003 2.01207236e-003 0.
      1.20724346e-002 4.02414473e-003 6.03621732e-003 1.20724346e-002 0.
      6.03621732e-003 8.04828946e-003 2.01207236e-003 4.02414473e-003
      8.04828946e-003 6.03621732e-003 2.01207236e-003 4.02414473e-003
      8.04828946e-003 0. 8.04828946e-003 8.04828946e-003 1.20724346e-002
      8.04828946e-003 6.03621732e-003 2.01207236e-003 1.40845068e-002
      8.04828946e-003 6.03621732e-003 6.03621732e-003 8.04828946e-003
      4.02414473e-003 4.02414473e-003 1.81086510e-002 8.04828946e-003
      8.04828946e-003 8.04828946e-003 6.03621732e-003 2.01207236e-003
      8.04828946e-003 1.40845068e-002 1.00603616e-002 6.03621732e-003 0.
      1.20724346e-002 1.20724346e-002 8.04828946e-003 6.03621732e-003
      2.01207236e-003 8.04828946e-003 2.01207236e-003 2.01207236e-003
      8.04828946e-003 8.04828946e-003 4.02414473e-003 4.02414473e-003
      4.02414473e-003 0. 4.02414473e-003 2.01207236e-003 1.20724346e-002
      2.01207236e-003 6.03621732e-003 1.00603616e-002 8.04828946e-003
      6.03621732e-003 1.00603616e-002 1.00603616e-002 4.02414473e-003
      8.04828946e-003 8.04828946e-003 1.20724346e-002 1.00603616e-002
      1.40845068e-002 0. 0. 2.01207236e-003 1.60965789e-002
      2.01207232e-002 4.02414473e-003 1.00603616e-002 0. 6.03621732e-003
      1.20724346e-002 8.04828946e-003 4.02414473e-003 4.02414473e-003 0.
      4.02414473e-003 6.03621732e-003 6.03621732e-003 4.02414473e-003
      8.04828946e-003 8.04828946e-003 1.40845068e-002 2.01207236e-003
      8.04828946e-003 4.02414473e-003 4.02414473e-003 2.01207236e-003</_>
    <_>
      1.58172231e-002 8.78734607e-003 1.40597541e-002 0. 1.05448160e-002
      0. 7.02987704e-003 8.78734607e-003 0. 1.05448160e-002
      1.75746926e-003 3.51493852e-003 1.23022851e-002 1.23022851e-002
      5.27240802e-003 5.27240802e-003 3.51493852e-003 1.75746926e-003
      1.58172231e-002 7.02987704e-003 5.27240802e-003 5.27240802e-003
      3.51493852e-003 1.75746926e-003 7.02987704e-003 5.27240802e-003
      1.75746926e-003 3.51493852e-003 3.51493852e-003 7.02987704e-003
      1.40597541e-002 8.78734607e-003 1.75746926e-003 7.02987704e-003
      1.75746921e-002 8.78734607e-003 1.75746926e-003 3.51493852e-003
      7.02987704e-003 5.27240802e-003 0. 7.02987704e-003 1.75746926e-003
      5.27240802e-003 0. 0. 1.75746926e-003 8.78734607e-003
      7.02987704e-003 1.75746926e-003 0. 8.78734607e-003 3.51493852e-003
      1.05448160e-002 5.27240802e-003 7.02987704e-003 1.58172231e-002
      1.58172231e-002 1.23022851e-002 3.51493852e-003 1.75746926e-003
      2.10896321e-002 1.75746926e-003 3.51493852e-003 0. 7.02987704e-003
      1.40597541e-002 7.02987704e-003 5.27240802e-003 7.02987704e-003
      8.78734607e-003 8.78734607e-003 1.05448160e-002 0. 0.
      8.78734607e-003 0. 5.27240802e-003 1.23022851e-002 3.51493852e-003
      8.78734607e-003 1.75746926e-003 1.05448160e-002 3.51493852e-003
      8.78734607e-003 5.27240802e-003 1.23022851e-002 3.51493852e-003
      7.02987704e-003 7.02987704e-003 8.78734607e-003 8.78734607e-003
      3.51493852e-003 8.78734607e-003 3.51493852e-003 1.75746926e-003
      1.05448160e-002 0. 3.51493852e-003 5.27240802e-003 7.02987704e-003
      5.27240802e-003 1.05448160e-002 3.51493852e-003 7.02987704e-003
      1.93321612e-002 1.75746926e-003 1.75746926e-003 1.75746926e-003
      7.02987704e-003 1.75746926e-003 1.05448160e-002 5.27240802e-003
      1.75746926e-003 1.23022851e-002 3.51493852e-003 1.58172231e-002
      1.23022851e-002 8.78734607e-003 5.27240802e-003 1.40597541e-002
      7.02987704e-003 3.51493852e-003 1.05448160e-002 5.27240802e-003
      7.02987704e-003 0. 1.05448160e-002 1.05448160e-002 1.58172231e-002
      1.40597541e-002 7.02987704e-003 0. 1.75746921e-002 1.40597541e-002
      0. 3.51493852e-003 3.51493852e-003 8.78734607e-003 3.51493852e-003
      5.27240802e-003 1.75746926e-003 1.40597541e-002 1.05448160e-002
      1.40597541e-002 1.75746926e-003 1.23022851e-002 7.02987704e-003 0.
      5.27240802e-003</_>
    <_>
      7.22021656e-003 7.22021656e-003 3.61010828e-003 3.24909762e-002 0.
      1.80505421e-002 1.44404331e-002 0. 0. 7.22021656e-003
      3.61010828e-003 3.61010828e-003 1.08303251e-002 1.08303251e-002 0.
      2.52707582e-002 1.80505421e-002 7.22021656e-003 7.22021656e-003
      1.08303251e-002 2.16606501e-002 1.08303251e-002 1.08303251e-002
      3.61010828e-003 1.08303251e-002 3.61010828e-003 7.22021656e-003
      3.61010828e-003 3.61010828e-003 7.22021656e-003 7.22021656e-003
      7.22021656e-003 0. 3.61010828e-003 0. 3.61010828e-003
      3.61010828e-003 3.61010828e-003 1.80505421e-002 3.61010828e-003
      7.22021656e-003 3.61010828e-003 7.22021656e-003 1.80505421e-002
      7.22021656e-003 0. 1.08303251e-002 3.61010828e-003 3.61010828e-003
      0. 0. 1.80505421e-002 7.22021656e-003 2.52707582e-002
      3.61010828e-003 0. 1.08303251e-002 7.22021656e-003 0.
      7.22021656e-003 3.61010828e-003 3.61010828e-003 3.61010828e-003 0.
      1.44404331e-002 0. 3.61010828e-003 1.08303251e-002 0.
      2.16606501e-002 3.61010828e-003 3.61010828e-003 3.61010828e-003
      1.08303251e-002 1.44404331e-002 3.61010828e-003 0. 3.61010828e-003
      3.61010828e-003 7.22021656e-003 0. 1.80505421e-002 1.08303251e-002
      0. 7.22021656e-003 0. 7.22021656e-003 7.22021656e-003
      3.61010828e-003 1.08303251e-002 3.61010828e-003 3.61010828e-003 0.
      1.08303251e-002 1.44404331e-002 3.24909762e-002 7.22021656e-003
      3.61010828e-003 7.22021656e-003 7.22021656e-003 3.61010828e-003
      1.44404331e-002 0. 0. 0. 3.61010828e-003 0. 7.22021656e-003
      2.52707582e-002 0. 3.61010828e-003 3.61010842e-002 7.22021656e-003
      0. 7.22021656e-003 3.61010828e-003 0. 0. 3.61010828e-003 0. 0.
      7.22021656e-003 7.22021656e-003 7.22021656e-003 2.88808662e-002
      3.61010828e-003 0. 3.61010828e-003 3.61010828e-003 1.44404331e-002
      0. 1.80505421e-002 3.61010828e-003 0. 0. 2.16606501e-002
      3.61010828e-003 3.61010828e-003 7.22021656e-003 7.22021656e-003 0.
      0. 0. 0. 3.61010828e-003 3.61010828e-003 3.61010828e-003 0. 0. 0.</_>
    <_>
      5.06329117e-003 2.53164559e-003 7.59493653e-003 7.59493653e-003 0.
      2.53164559e-003 5.06329117e-003 2.27848105e-002 1.26582282e-002
      1.01265823e-002 5.06329117e-003 2.53164559e-003 5.06329117e-003
      5.06329117e-003 2.27848105e-002 7.59493653e-003 5.06329117e-003
      7.59493653e-003 1.01265823e-002 0. 2.53164559e-003 7.59493653e-003
      5.06329117e-003 1.01265823e-002 2.53164559e-003 7.59493653e-003
      2.53164559e-003 0. 1.26582282e-002 0. 1.26582282e-002
      7.59493653e-003 0. 1.77215189e-002 5.06329117e-003 2.02531647e-002
      0. 7.59493653e-003 7.59493653e-003 2.02531647e-002 7.59493653e-003
      7.59493653e-003 2.53164559e-003 0. 5.06329117e-003 2.53164559e-003
      2.53164559e-003 1.51898731e-002 1.01265823e-002 5.06329117e-003
      2.53164559e-003 1.01265823e-002 5.06329117e-003 2.53164559e-003
      7.59493653e-003 2.53164559e-003 5.06329117e-003 1.01265823e-002
      2.53164559e-003 5.06329117e-003 5.06329117e-003 5.06329117e-003
      5.06329117e-003 2.53164559e-003 5.06329117e-003 0. 5.06329117e-003
      2.02531647e-002 1.26582282e-002 2.53164559e-003 7.59493653e-003
      1.01265823e-002 0. 2.02531647e-002 0. 5.06329117e-003
      1.26582282e-002 5.06329117e-003 2.53164559e-003 7.59493653e-003
      1.26582282e-002 7.59493653e-003 7.59493653e-003 1.77215189e-002
      5.06329117e-003 2.53164559e-003 1.26582282e-002 5.06329117e-003
      5.06329117e-003 2.53164559e-003 1.01265823e-002 5.06329117e-003
      2.53164559e-003 0. 7.59493653e-003 2.53164559e-003 7.59493653e-003
      0. 2.53164559e-003 0. 2.53164559e-003 5.06329117e-003
      2.53164559e-003 5.06329117e-003 1.01265823e-002 1.26582282e-002
      2.53164559e-003 2.53164559e-003 1.51898731e-002 3.03797461e-002
      7.59493653e-003 0. 2.53164559e-003 1.01265823e-002 5.06329117e-003
      7.59493653e-003 5.06329117e-003 1.26582282e-002 5.06329117e-003
      1.26582282e-002 7.59493653e-003 1.01265823e-002 2.53164559e-003
      1.26582282e-002 5.06329117e-003 1.26582282e-002 0. 7.59493653e-003
      7.59493653e-003 1.01265823e-002 1.26582282e-002 5.06329117e-003 0.
      7.59493653e-003 5.06329117e-003 2.53164559e-003 1.01265823e-002
      2.53164559e-003 2.53164559e-003 5.06329117e-003 5.06329117e-003
      1.01265823e-002 1.01265823e-002 5.06329117e-003 2.53164559e-003 0.
      7.59493653e-003 5.06329117e-003 0. 1.01265823e-002</_>
    <_>
      6.82335114e-003 1.06141018e-002 6.06520101e-003 1.51630025e-003
      3.79075063e-003 3.03260051e-003 1.06141018e-002 5.30705089e-003
      2.95678545e-002 3.79075063e-003 1.13722514e-002 1.81956030e-002
      9.09780152e-003 3.79075063e-003 1.74374525e-002 4.54890076e-003
      2.27445038e-003 6.82335114e-003 9.09780152e-003 3.03260051e-003
      7.58150127e-004 5.30705089e-003 1.51630025e-003 1.51630025e-003
      7.58150127e-003 9.09780152e-003 6.82335114e-003 2.27445038e-003
      5.30705089e-003 0. 2.27445038e-003 3.03260051e-003 0.
      1.28885526e-002 1.44048519e-002 1.44048519e-002 5.30705089e-003
      4.54890076e-003 6.82335114e-003 7.58150127e-003 3.03260051e-003
      6.06520101e-003 3.03260051e-003 7.58150127e-004 1.51630025e-003
      1.51630025e-003 1.51630025e-003 3.79075063e-003 6.06520101e-003
      5.30705089e-003 1.51630025e-003 1.06141018e-002 8.33965093e-003
      6.06520101e-003 3.79075063e-003 7.58150127e-003 1.51630025e-002
      1.28885526e-002 7.58150127e-003 4.54890076e-003 5.30705089e-003
      1.28885526e-002 5.30705089e-003 3.79075063e-003 1.21304020e-002
      5.30705089e-003 5.30705089e-003 4.54890076e-003 2.27445038e-003
      3.03260051e-003 3.03260051e-003 9.85595211e-003 6.06520101e-003
      1.97119042e-002 6.82335114e-003 1.51630025e-003 8.33965093e-003
      8.33965093e-003 5.30705089e-003 9.85595211e-003 1.06141018e-002
      3.03260051e-003 6.06520101e-003 1.36467023e-002 2.27445038e-003
      8.33965093e-003 2.27445038e-003 3.79075063e-003 2.27445038e-003
      6.06520101e-003 3.03260051e-003 2.27445029e-002 4.54890076e-003
      3.79075063e-003 1.36467023e-002 2.27445038e-003 7.58150127e-003
      3.03260051e-003 1.51630025e-003 4.54890076e-003 8.33965093e-003
      2.27445038e-003 1.06141018e-002 4.54890076e-003 6.82335114e-003
      3.03260051e-003 0. 4.54890076e-003 4.54890076e-003 2.80515552e-002
      5.30705089e-003 1.51630025e-003 3.03260051e-003 1.06141018e-002 0.
      6.82335114e-003 1.28885526e-002 1.51630025e-003 7.58150127e-003
      6.06520101e-003 1.21304020e-002 1.36467023e-002 6.06520101e-003
      1.21304020e-002 3.03260051e-003 3.03260051e-003 2.27445038e-003
      5.30705089e-003 8.33965093e-003 5.30705089e-003 1.06141018e-002
      2.27445038e-003 4.54890076e-003 1.28885526e-002 6.06520101e-003
      4.54890076e-003 9.85595211e-003 3.03260051e-003 3.79075063e-003
      3.03260051e-003 1.36467023e-002 6.82335114e-003 9.85595211e-003
      2.19863541e-002 6.06520101e-003 4.54890076e-003 6.82335114e-003
      3.03260051e-003 7.58150127e-003 6.82335114e-003</_>
    <_>
      1.41843967e-002 0. 7.09219836e-003 0. 7.80141801e-002 0. 0. 0.
      7.09219836e-003 2.12765951e-002 7.09219836e-003 7.09219836e-003 0.
      7.09219836e-003 2.12765951e-002 0. 0. 0. 3.54609936e-002
      7.09219836e-003 0. 0. 0. 1.41843967e-002 0. 7.09219836e-003 0. 0.
      0. 0. 0. 0. 0. 2.12765951e-002 2.83687934e-002 2.12765951e-002 0.
      0. 0. 0. 0. 0. 0. 0. 0. 7.09219836e-003 0. 0. 0. 0. 0.
      2.12765951e-002 0. 7.09219836e-003 0. 0. 1.41843967e-002
      7.09219836e-003 0. 7.09219836e-003 0. 2.12765951e-002
      1.41843967e-002 0. 0. 0. 0. 0. 0. 7.09219836e-003 0. 0. 0.
      7.09219836e-003 0. 1.41843967e-002 0. 0. 7.09219836e-003
      5.67375869e-002 0. 0. 0. 0. 0. 7.09219836e-003 0. 0. 0.
      7.09219836e-003 0. 7.09219836e-003 1.41843967e-002 0.
      7.09219836e-003 0. 1.41843967e-002 0. 0. 7.09219836e-003 0. 0. 0.
      0. 0. 7.09219836e-003 0. 0. 0. 4.96453866e-002 7.09219836e-003 0.
      0. 0. 0. 2.12765951e-002 0. 0. 0. 7.09219836e-003 4.25531901e-002
      7.09219836e-003 0. 0. 0. 1.41843967e-002 0. 1.41843967e-002
      1.41843967e-002 2.12765951e-002 3.54609936e-002 0. 7.09219836e-003
      2.12765951e-002 0. 7.09219836e-003 7.09219836e-003 0. 0. 0. 0.
      1.41843967e-002 7.80141801e-002 1.41843967e-002 7.09219836e-003
      2.12765951e-002 7.09219836e-003 0. 1.41843967e-002 0.</_>
    <_>
      1.12044821e-002 5.60224103e-003 5.60224103e-003 2.80112051e-003
      8.40336177e-003 5.60224103e-003 5.60224103e-003 8.40336177e-003
      3.08123250e-002 2.80112051e-003 8.40336177e-003 1.96078438e-002 0.
      0. 1.68067235e-002 8.40336177e-003 5.60224103e-003 0.
      5.60224103e-003 8.40336177e-003 8.40336177e-003 0. 0.
      2.80112051e-003 8.40336177e-003 1.12044821e-002 8.40336177e-003
      5.60224103e-003 1.12044821e-002 0. 5.60224103e-003 5.60224103e-003
      0. 1.96078438e-002 1.68067235e-002 1.40056023e-002 2.80112051e-003
      0. 2.80112051e-003 0. 5.60224103e-003 1.68067235e-002
      5.60224103e-003 0. 0. 2.80112051e-003 0. 8.40336177e-003
      5.60224103e-003 5.60224103e-003 1.12044821e-002 2.80112051e-003
      1.40056023e-002 5.60224103e-003 0. 1.12044821e-002 2.80112047e-002
      5.60224103e-003 1.12044821e-002 5.60224103e-003 1.12044821e-002
      1.40056023e-002 8.40336177e-003 0. 5.60224103e-003 5.60224103e-003
      2.80112051e-003 2.80112051e-003 2.80112051e-003 0. 1.40056023e-002
      5.60224103e-003 2.80112051e-003 2.80112051e-003 2.80112051e-003
      8.40336177e-003 5.60224103e-003 5.60224103e-003 5.60224103e-003
      5.60224103e-003 8.40336177e-003 8.40336177e-003 0. 1.12044821e-002
      5.60224103e-003 2.80112051e-003 2.80112051e-003 0. 2.80112051e-003
      2.80112051e-003 8.40336177e-003 1.68067235e-002 2.80112051e-003
      8.40336177e-003 1.68067235e-002 2.80112051e-003 2.80112051e-003
      2.80112051e-003 8.40336177e-003 1.12044821e-002 1.40056023e-002 0.
      1.12044821e-002 2.80112051e-003 1.12044821e-002 2.80112051e-003
      2.80112051e-003 5.60224103e-003 5.60224103e-003 2.52100844e-002 0.
      0. 2.80112051e-003 8.40336177e-003 5.60224103e-003 8.40336177e-003
      2.80112051e-003 2.80112051e-003 2.80112051e-003 0. 5.60224103e-003
      1.12044821e-002 1.12044821e-002 2.52100844e-002 2.80112051e-003
      2.80112051e-003 0. 5.60224103e-003 8.40336177e-003 0.
      5.60224103e-003 5.60224103e-003 3.08123250e-002 1.12044821e-002
      8.40336177e-003 1.12044821e-002 1.12044821e-002 0. 2.80112051e-003
      5.60224103e-003 2.80112051e-003 0. 5.60224103e-003 1.12044821e-002
      1.40056023e-002 8.40336177e-003 5.60224103e-003 5.60224103e-003 0.
      0.</_>
    <_>
      1.92678231e-003 7.70712923e-003 1.15606934e-002 0. 3.85356462e-003
      0. 7.70712923e-003 1.34874759e-002 3.27553004e-002 9.63391177e-003
      2.11946052e-002 5.78034669e-003 1.15606934e-002 0. 1.92678235e-002
      1.92678231e-003 0. 1.92678231e-003 9.63391177e-003 3.85356462e-003
      5.78034669e-003 0. 1.92678231e-003 3.85356462e-003 3.85356462e-003
      3.85356462e-003 5.78034669e-003 9.63391177e-003 1.15606934e-002 0.
      1.34874759e-002 3.85356462e-003 0. 1.73410401e-002 2.31213868e-002
      2.50481702e-002 7.70712923e-003 1.92678231e-003 3.85356462e-003
      1.15606934e-002 1.92678231e-003 3.85356462e-003 0. 0.
      3.85356462e-003 1.15606934e-002 5.78034669e-003 5.78034669e-003
      1.15606934e-002 3.85356462e-003 0. 7.70712923e-003 1.92678231e-003
      3.85356462e-003 0. 9.63391177e-003 3.85356462e-003 9.63391177e-003
      1.15606934e-002 0. 3.85356462e-003 1.54142585e-002 7.70712923e-003
      3.85356462e-003 1.92678231e-003 5.78034669e-003 7.70712923e-003
      9.63391177e-003 3.85356462e-003 1.92678231e-003 1.92678231e-003
      1.92678231e-003 5.78034669e-003 2.50481702e-002 3.85356462e-003
      1.34874759e-002 1.92678231e-003 1.15606934e-002 1.73410401e-002
      9.63391177e-003 0. 7.70712923e-003 9.63391177e-003 5.78034669e-003
      7.70712923e-003 9.63391177e-003 5.78034669e-003 9.63391177e-003
      5.78034669e-003 0. 1.15606934e-002 1.15606934e-002 1.92678231e-003
      1.92678231e-003 3.85356462e-003 0. 5.78034669e-003 0.
      3.85356462e-003 1.92678231e-003 1.92678231e-003 3.85356462e-003
      1.54142585e-002 1.92678231e-003 1.34874759e-002 1.15606934e-002
      1.92678231e-003 3.85356462e-003 7.70712923e-003 1.92678235e-002
      7.70712923e-003 0. 7.70712923e-003 5.78034669e-003 3.85356462e-003
      9.63391177e-003 5.78034669e-003 5.78034669e-003 0. 1.15606934e-002
      1.15606934e-002 5.78034669e-003 1.92678231e-003 3.85356462e-003 0.
      5.78034669e-003 0. 7.70712923e-003 1.73410401e-002 1.92678231e-003
      5.78034669e-003 1.92678231e-003 1.92678231e-003 1.54142585e-002
      1.92678235e-002 0. 3.85356462e-003 5.78034669e-003 1.92678231e-003
      7.70712923e-003 3.85356462e-003 5.78034669e-003 9.63391177e-003
      1.73410401e-002 1.15606934e-002 3.85356462e-003 5.78034669e-003
      3.85356462e-003 3.85356462e-003 3.85356462e-003</_>
    <_>
      3.74531839e-003 9.36329551e-003 1.12359552e-002 0. 3.18352059e-002
      0. 7.49063678e-003 9.36329551e-003 1.68539323e-002 2.05992516e-002
      0. 1.12359552e-002 9.36329551e-003 1.87265920e-003 5.61797759e-003
      1.87265920e-003 5.61797759e-003 1.87265920e-003 9.36329551e-003
      1.87265920e-003 5.61797759e-003 1.87265920e-003 9.36329551e-003
      9.36329551e-003 0. 3.74531839e-003 5.61797759e-003 1.87265920e-003
      1.87265920e-003 1.87265920e-003 1.87265920e-003 5.61797759e-003 0.
      1.31086148e-002 3.55805233e-002 9.36329551e-003 0. 1.31086148e-002
      5.61797759e-003 0. 5.61797759e-003 1.12359552e-002 0.
      1.87265920e-003 1.87265920e-003 7.49063678e-003 0. 1.68539323e-002
      1.31086148e-002 7.49063678e-003 1.87265920e-003 1.87265920e-003
      1.87265920e-003 1.87265920e-003 0. 1.68539323e-002 1.49812736e-002
      3.74531839e-003 1.49812736e-002 0. 1.49812736e-002 9.36329551e-003
      1.87265920e-003 1.87265920e-003 1.87265920e-003 2.80898884e-002
      3.74531839e-003 7.49063678e-003 7.49063678e-003 0. 0.
      3.74531839e-003 5.61797759e-003 0. 3.74531839e-003 1.87265920e-003
      1.87265920e-003 1.87265920e-003 1.68539323e-002 1.12359552e-002
      7.49063678e-003 5.61797759e-003 1.87265920e-003 3.74531839e-003
      7.49063678e-003 7.49063678e-003 5.61797759e-003 3.74531839e-003
      1.87265920e-003 7.49063678e-003 1.87265920e-003 9.36329551e-003
      1.12359552e-002 3.74531839e-003 5.61797759e-003 0. 5.61797759e-003
      1.87265920e-003 1.87265920e-003 7.49063678e-003 0. 0.
      7.49063678e-003 5.61797759e-003 3.74531839e-003 1.31086148e-002 0.
      2.05992516e-002 0. 1.87265910e-002 0. 0. 9.36329551e-003 0.
      1.87265920e-003 0. 1.31086148e-002 7.49063678e-003 7.49063678e-003
      9.36329551e-003 2.80898884e-002 5.61797759e-003 3.74531839e-003 0.
      0. 9.36329551e-003 5.61797759e-003 1.87265920e-003 3.74531839e-003
      5.61797759e-003 1.87265910e-002 0. 2.05992516e-002 1.49812736e-002
      9.36329551e-003 7.49063678e-003 1.87265920e-003 5.61797759e-003 0.
      1.12359552e-002 1.87265920e-003 1.87265910e-002 2.99625471e-002
      5.61797759e-003 1.49812736e-002 7.49063678e-003 7.49063678e-003
      1.87265920e-003 1.87265920e-003 5.61797759e-003</_>
    <_>
      3.87596898e-003 3.87596898e-003 3.87596898e-003 1.55038759e-002 0.
      0. 3.87596898e-003 1.93798449e-002 0. 1.16279069e-002
      7.75193796e-003 3.87596898e-003 1.93798449e-002 3.87596898e-003
      7.75193796e-003 0. 1.16279069e-002 1.55038759e-002 0.
      3.87596898e-003 2.32558139e-002 3.87596898e-003 0. 3.87596898e-003
      0. 0. 7.75193796e-003 1.93798449e-002 2.32558139e-002 0.
      2.32558139e-002 7.75193796e-003 0. 3.87596898e-003 7.75193796e-003
      1.16279069e-002 7.75193796e-003 3.87596898e-003 3.87596898e-003
      3.87596898e-003 0. 0. 3.87596898e-003 0. 7.75193796e-003
      3.87596898e-003 7.75193796e-003 0. 0. 3.87596898e-003
      3.87596898e-003 1.16279069e-002 0. 1.16279069e-002 0. 0.
      7.75193796e-003 7.75193796e-003 3.87596898e-003 1.55038759e-002
      3.87596898e-003 7.75193796e-003 3.87596898e-003 0. 1.55038759e-002
      0. 7.75193796e-003 7.75193796e-003 0. 0. 3.87596898e-003
      1.16279069e-002 0. 7.75193796e-003 7.75193796e-003 1.16279069e-002
      7.75193796e-003 1.16279069e-002 2.32558139e-002 1.16279069e-002
      1.16279069e-002 1.55038759e-002 0. 0. 1.16279069e-002
      7.75193796e-003 3.87596898e-003 1.16279069e-002 2.32558139e-002
      3.87596898e-003 1.16279069e-002 3.87596898e-003 0. 0.
      1.55038759e-002 3.87596898e-003 7.75193796e-003 1.16279069e-002
      1.55038759e-002 3.87596898e-003 3.87596898e-003 7.75193796e-003
      3.87596898e-003 0. 7.75193796e-003 1.16279069e-002 3.87596898e-003
      0. 3.87596898e-003 3.87596898e-003 3.87596898e-003 0. 0.
      3.87596898e-003 2.32558139e-002 2.32558139e-002 3.87596898e-003
      3.87596898e-003 0. 3.87596898e-003 3.87596898e-003 0.
      3.87596898e-003 1.16279069e-002 7.75193796e-003 7.75193796e-003 0.
      7.75193796e-003 3.87596898e-003 7.75193796e-003 3.87596898e-003
      2.32558139e-002 0. 1.55038759e-002 3.87596898e-003 0.
      1.16279069e-002 3.87596898e-003 3.87596898e-003 7.75193796e-003
      1.55038759e-002 7.75193796e-003 3.87596898e-003 1.55038759e-002
      7.75193796e-003 1.16279069e-002 0. 1.16279069e-002 0. 0.</_>
    <_>
      5.98802418e-003 2.99401209e-003 8.98203626e-003 2.99401209e-003 0.
      8.98203626e-003 0. 2.09580846e-002 0. 1.19760484e-002
      2.99401209e-003 2.99401209e-003 8.98203626e-003 5.98802418e-003 0.
      2.09580846e-002 5.98802418e-003 8.98203626e-003 5.98802418e-003
      5.08982055e-002 8.98203626e-003 2.99401209e-003 2.99401209e-003
      2.99401209e-003 0. 5.98802418e-003 0. 2.99401209e-003 0.
      2.99401209e-003 1.19760484e-002 2.99401209e-003 2.99401209e-003
      5.98802418e-003 2.09580846e-002 2.99401209e-003 2.99401209e-003 0.
      0. 0. 1.19760484e-002 5.98802418e-003 2.99401209e-003
      8.98203626e-003 0. 1.49700604e-002 1.19760484e-002 1.79640725e-002
      5.98802418e-003 1.19760484e-002 1.49700604e-002 2.99401209e-003
      1.19760484e-002 0. 2.99401209e-003 8.98203626e-003 2.99401209e-003
      2.99401209e-003 0. 1.19760484e-002 1.19760484e-002 5.98802418e-003
      1.19760484e-002 1.49700604e-002 2.99401209e-003 1.49700604e-002
      1.19760484e-002 1.19760484e-002 5.98802418e-003 2.99401209e-003
      5.98802418e-003 8.98203626e-003 1.19760484e-002 1.19760484e-002
      2.99401209e-003 8.98203626e-003 2.99401209e-003 0. 8.98203626e-003
      0. 8.98203626e-003 0. 5.98802418e-003 2.99401209e-003
      8.98203626e-003 5.98802418e-003 1.79640725e-002 5.98802418e-003
      8.98203626e-003 1.19760484e-002 5.98802418e-003 0. 8.98203626e-003
      0. 2.99401209e-003 1.49700604e-002 1.49700604e-002 8.98203626e-003
      0. 1.19760484e-002 0. 1.19760484e-002 5.98802418e-003
      8.98203626e-003 2.99401209e-003 2.99401209e-003 0. 0.
      5.98802418e-003 5.98802418e-003 0. 5.98802418e-003 5.98802418e-003
      5.98802418e-003 0. 5.98802418e-003 5.98802418e-003 2.99401209e-002
      1.79640725e-002 5.98802418e-003 5.98802418e-003 2.99401209e-003
      1.49700604e-002 0. 2.99401209e-003 5.98802418e-003 1.19760484e-002
      2.99401209e-003 5.98802418e-003 1.49700604e-002 5.98802418e-003
      5.98802418e-003 5.98802418e-003 2.99401209e-003 0. 8.98203626e-003
      5.98802418e-003 0. 0. 8.98203626e-003 0. 5.98802418e-003
      5.98802418e-003 5.98802418e-003 2.99401209e-003 5.98802418e-003
      2.99401209e-003 2.99401209e-003 0. 8.98203626e-003</_>
    <_>
      1.00286538e-002 1.00286538e-002 5.73065924e-003 1.28939832e-002 0.
      7.16332393e-003 1.71919782e-002 0. 2.14899722e-002 7.16332393e-003
      2.14899722e-002 4.29799454e-003 1.00286538e-002 0. 1.00286538e-002
      7.16332393e-003 7.16332393e-003 5.73065924e-003 4.29799454e-003
      1.43266481e-003 1.43266481e-003 0. 1.28939832e-002 7.16332393e-003
      1.28939832e-002 5.73065924e-003 1.14613185e-002 0. 1.14613185e-002
      0. 7.16332393e-003 5.73065924e-003 0. 8.59598909e-003
      7.16332393e-003 8.59598909e-003 8.59598909e-003 1.14613185e-002
      1.43266479e-002 8.59598909e-003 2.86532962e-003 1.00286538e-002
      5.73065924e-003 1.43266481e-003 2.86532962e-003 0. 8.59598909e-003
      1.14613185e-002 4.29799454e-003 7.16332393e-003 0. 1.71919782e-002
      1.00286538e-002 2.86532962e-003 5.73065924e-003 7.16332393e-003
      1.00286538e-002 1.57593135e-002 1.00286538e-002 4.29799454e-003
      2.86532962e-003 5.73065924e-003 5.73065924e-003 0. 2.86532962e-003
      0. 1.57593135e-002 7.16332393e-003 2.86532962e-003 0.
      1.00286538e-002 1.57593135e-002 0. 1.28939832e-002 7.16332393e-003
      1.43266481e-003 1.28939832e-002 1.57593135e-002 2.86532962e-003
      7.16332393e-003 2.86532962e-003 2.86532962e-003 8.59598909e-003
      1.14613185e-002 7.16332393e-003 5.73065924e-003 1.43266479e-002
      5.73065924e-003 7.16332393e-003 2.86532962e-003 7.16332393e-003
      8.59598909e-003 5.73065924e-003 1.43266481e-003 1.00286538e-002
      5.73065924e-003 8.59598909e-003 7.16332393e-003 2.86532962e-003
      2.86532962e-003 1.14613185e-002 4.29799454e-003 2.86532962e-003
      1.14613185e-002 8.59598909e-003 7.16332393e-003 1.43266481e-003 0.
      1.43266481e-003 2.86532962e-003 7.16332393e-003 2.86532962e-003
      1.14613185e-002 5.73065924e-003 0. 8.59598909e-003 1.14613185e-002
      0. 2.86532962e-003 5.73065924e-003 1.43266481e-003 2.86532962e-003
      5.73065924e-003 8.59598909e-003 2.86532962e-003 4.29799454e-003 0.
      4.29799454e-003 8.59598909e-003 1.00286538e-002 1.28939832e-002
      1.43266481e-003 1.43266481e-003 1.14613185e-002 8.59598909e-003
      2.86532962e-003 7.16332393e-003 4.29799454e-003 5.73065924e-003
      2.86532962e-003 5.73065924e-003 1.43266481e-003 4.29799454e-003
      1.71919782e-002 1.14613185e-002 5.73065924e-003 1.28939832e-002
      8.59598909e-003 4.29799454e-003 1.14613185e-002</_>
    <_>
      5.22193220e-003 1.30548310e-002 7.83289783e-003 2.61096610e-003
      2.61096610e-003 1.04438644e-002 2.08877288e-002 2.34986953e-002 0.
      7.83289783e-003 2.61096610e-003 1.04438644e-002 7.83289783e-003
      1.04438644e-002 0. 5.22193220e-003 0. 2.61096610e-003
      5.22193220e-003 1.04438644e-002 7.83289783e-003 5.22193220e-003
      1.30548310e-002 1.04438644e-002 7.83289783e-003 2.61096610e-003
      1.30548310e-002 1.30548310e-002 0. 2.61096610e-003 1.04438644e-002
      0. 0. 5.22193220e-003 1.04438644e-002 2.61096610e-003
      2.61096610e-003 7.83289783e-003 0. 2.61096610e-003 0. 0. 0.
      7.83289783e-003 5.22193220e-003 5.22193220e-003 1.04438644e-002
      2.61096610e-003 2.61096610e-003 2.61096610e-003 2.08877288e-002
      5.22193220e-003 1.04438644e-002 1.56657957e-002 0. 1.04438644e-002
      2.08877288e-002 7.83289783e-003 2.61096610e-003 0. 5.22193220e-003
      5.22193220e-003 1.04438644e-002 2.61096610e-003 5.22193220e-003
      1.04438644e-002 5.22193220e-003 0. 0. 0. 1.04438644e-002
      2.61096610e-003 2.61096610e-003 2.61096610e-003 1.04438644e-002
      2.61096610e-003 5.22193220e-003 0. 5.22193220e-003 2.34986953e-002
      7.83289783e-003 2.61096610e-003 7.83289783e-003 5.22193220e-003
      2.61096610e-003 2.61096610e-003 5.22193220e-003 7.83289783e-003
      7.83289783e-003 0. 2.08877288e-002 1.04438644e-002 2.61096610e-003
      1.56657957e-002 5.22193220e-003 7.83289783e-003 7.83289783e-003 0.
      7.83289783e-003 1.82767622e-002 1.30548310e-002 0. 0.
      2.61096610e-003 0. 5.22193220e-003 2.61096610e-003 7.83289783e-003
      0. 1.56657957e-002 5.22193220e-003 1.82767622e-002 7.83289783e-003
      5.22193220e-003 2.61096610e-003 2.61096610e-003 0. 3.13315913e-002
      0. 0. 1.30548310e-002 0. 2.61096610e-003 1.04438644e-002
      2.61096610e-003 7.83289783e-003 0. 1.04438644e-002 2.61096610e-003
      7.83289783e-003 1.56657957e-002 2.61096610e-003 2.08877288e-002
      7.83289783e-003 5.22193220e-003 5.22193220e-003 5.22193220e-003 0.
      2.61096610e-003 1.04438644e-002 1.30548310e-002 1.56657957e-002
      5.22193220e-003 7.83289783e-003 1.82767622e-002 1.56657957e-002
      7.83289783e-003 0. 2.61096610e-003 7.83289783e-003</_>
    <_>
      8.40336177e-003 1.26050431e-002 8.40336177e-003 4.20168089e-003 0.
      8.40336177e-003 8.40336177e-003 0. 4.20168089e-003 8.40336177e-003
      0. 0. 1.68067235e-002 4.20168089e-003 1.26050431e-002 0.
      8.40336177e-003 8.40336177e-003 8.40336177e-003 0. 0. 0. 0.
      8.40336177e-003 0. 1.26050431e-002 4.20168089e-003 0.
      2.52100863e-002 0. 8.40336177e-003 2.10084040e-002 0.
      8.40336177e-003 1.68067235e-002 1.26050431e-002 4.20168089e-003
      2.10084040e-002 8.40336177e-003 0. 8.40336177e-003 4.20168089e-003
      8.40336177e-003 0. 4.20168089e-003 0. 8.40336177e-003
      1.26050431e-002 4.20168089e-003 1.26050431e-002 0. 0.
      4.20168089e-003 4.20168089e-003 0. 8.40336177e-003 0.
      2.10084040e-002 4.20168089e-003 0. 4.20168089e-003 4.20168089e-003
      8.40336177e-003 0. 8.40336177e-003 4.20168089e-003 4.20168089e-003
      0. 8.40336177e-003 0. 0. 1.26050431e-002 1.26050431e-002
      4.20168089e-003 4.20168089e-003 4.20168089e-003 4.20168089e-003 0.
      0. 3.78151275e-002 1.68067235e-002 0. 0. 8.40336177e-003 0.
      4.20168089e-003 0. 0. 8.40336177e-003 0. 0. 4.20168089e-003
      1.68067235e-002 0. 1.26050431e-002 1.26050431e-002 0. 0.
      1.68067235e-002 0. 8.40336177e-003 8.40336177e-003 4.20168089e-003
      4.20168089e-003 2.10084040e-002 1.26050431e-002 8.40336177e-003
      8.40336177e-003 8.40336177e-003 3.36134471e-002 0. 4.20168089e-003
      4.20168089e-003 0. 4.20168089e-003 4.20168089e-003 4.20168089e-003
      0. 1.68067235e-002 0. 2.10084040e-002 8.40336177e-003
      4.20168089e-003 1.26050431e-002 0. 8.40336177e-003 4.20168089e-003
      0. 1.68067235e-002 4.20168089e-003 2.52100863e-002 8.40336177e-003
      1.26050431e-002 1.26050431e-002 1.26050431e-002 4.20168089e-003
      8.40336177e-003 4.20168089e-003 4.20168089e-003 0. 4.20168089e-003
      4.20168089e-003 1.26050431e-002 4.20168089e-003 0. 1.26050431e-002
      1.68067235e-002 0. 8.40336177e-003 8.40336177e-003</_>
    <_>
      1.14942528e-002 1.47783253e-002 6.56814454e-003 4.92610829e-003
      3.28407227e-003 9.85221658e-003 8.21018033e-003 4.92610829e-003
      8.21018033e-003 6.56814454e-003 9.85221658e-003 6.56814454e-003
      6.56814454e-003 8.21018033e-003 1.14942528e-002 6.56814454e-003
      4.92610829e-003 4.92610829e-003 1.14942528e-002 4.92610829e-003
      3.28407227e-003 1.64203614e-003 6.56814454e-003 8.21018033e-003
      3.28407227e-003 9.85221658e-003 4.92610829e-003 1.64203614e-003
      3.28407227e-003 1.64203614e-003 1.31362891e-002 3.28407227e-003
      1.64203614e-003 1.14942528e-002 4.92610829e-003 6.56814454e-003
      8.21018033e-003 8.21018033e-003 3.28407227e-003 8.21018033e-003
      6.56814454e-003 6.56814454e-003 3.28407227e-003 0. 8.21018033e-003
      1.80623978e-002 4.92610829e-003 4.92610829e-003 6.56814454e-003
      6.56814454e-003 6.56814454e-003 1.31362891e-002 1.14942528e-002
      6.56814454e-003 9.85221658e-003 9.85221658e-003 1.14942528e-002
      1.31362891e-002 6.56814454e-003 3.28407227e-003 4.92610829e-003
      4.92610829e-003 4.92610829e-003 4.92610829e-003 1.80623978e-002
      8.21018033e-003 1.64203614e-003 1.14942528e-002 9.85221658e-003 0.
      6.56814454e-003 9.85221658e-003 9.85221658e-003 1.80623978e-002
      9.85221658e-003 4.92610829e-003 4.92610829e-003 4.92610829e-003
      6.56814454e-003 0. 3.28407227e-003 3.28407227e-003 6.56814454e-003
      9.85221658e-003 3.28407227e-003 6.56814454e-003 1.14942528e-002 0.
      1.14942528e-002 0. 1.47783253e-002 3.28407227e-003 8.21018033e-003
      1.64203614e-003 4.92610829e-003 1.14942528e-002 1.14942528e-002
      3.28407227e-003 4.92610829e-003 3.28407227e-003 6.56814454e-003
      1.14942528e-002 4.92610829e-003 1.64203614e-003 2.62725782e-002
      4.92610829e-003 3.28407227e-003 3.28407227e-003 1.64203614e-003
      3.28407227e-003 3.28407227e-003 3.28407227e-003 8.21018033e-003
      6.56814454e-003 1.64203614e-003 8.21018033e-003 1.64203614e-003
      4.92610829e-003 4.92610829e-003 6.56814454e-003 6.56814454e-003
      6.56814454e-003 3.28407227e-003 1.14942528e-002 6.56814454e-003
      3.28407227e-003 1.64203614e-003 8.21018033e-003 1.64203614e-003
      8.21018033e-003 1.14942528e-002 8.21018033e-003 8.21018033e-003
      4.92610829e-003 2.29885057e-002 1.64203614e-003 9.85221658e-003
      3.28407227e-003 3.28407227e-003 3.28407227e-003 3.28407227e-003
      3.28407227e-003 4.92610829e-003 9.85221658e-003 9.85221658e-003
      3.28407227e-003 3.28407227e-003 6.56814454e-003 3.28407227e-003
      8.21018033e-003</_>
    <_>
      1.03567317e-002 1.03567317e-002 5.75373974e-003 3.45224398e-003 0.
      1.15074799e-003 6.90448796e-003 0. 3.33716907e-002 2.30149599e-003
      5.75373974e-003 1.49597237e-002 1.15074799e-003 3.45224398e-003
      2.18642112e-002 3.45224398e-003 4.60299198e-003 4.60299198e-003
      4.60299198e-003 4.60299198e-003 0. 2.30149599e-003 1.15074799e-003
      2.30149599e-003 6.90448796e-003 3.45224398e-003 1.72612201e-002 0.
      9.20598395e-003 1.15074799e-003 0. 3.45224398e-003 0.
      2.30149589e-002 1.15074795e-002 2.30149589e-002 3.45224398e-003
      4.60299198e-003 5.75373974e-003 6.90448796e-003 0. 4.60299198e-003
      1.15074799e-003 2.30149599e-003 4.60299198e-003 3.45224398e-003
      1.15074799e-003 5.75373974e-003 3.45224398e-003 6.90448796e-003 0.
      1.72612201e-002 1.26582282e-002 9.20598395e-003 4.60299198e-003
      5.75373974e-003 3.79746854e-002 1.38089759e-002 1.61104724e-002
      3.45224398e-003 5.75373974e-003 1.15074795e-002 1.72612201e-002 0.
      1.03567317e-002 0. 2.30149599e-003 5.75373974e-003 2.30149599e-003
      2.30149599e-003 4.60299198e-003 1.61104724e-002 2.30149599e-003
      2.18642112e-002 4.60299198e-003 0. 2.30149599e-003 5.75373974e-003
      2.30149599e-003 5.75373974e-003 1.15074799e-003 3.45224398e-003
      2.30149599e-003 1.38089759e-002 0. 1.15074795e-002 6.90448796e-003
      2.30149599e-003 1.15074799e-003 2.30149599e-003 0. 2.76179519e-002
      5.75373974e-003 1.15074799e-003 3.45224398e-003 1.15074799e-003
      1.38089759e-002 1.15074799e-003 1.15074799e-003 5.75373974e-003
      1.03567317e-002 8.05523619e-003 4.60299198e-003 9.20598395e-003
      1.03567317e-002 5.75373974e-003 1.15074799e-003 0. 5.75373974e-003
      2.53164563e-002 9.20598395e-003 4.60299198e-003 6.90448796e-003
      1.38089759e-002 0. 5.75373974e-003 5.75373974e-003 0. 0.
      4.60299198e-003 8.05523619e-003 9.20598395e-003 4.60299198e-003
      6.90448796e-003 2.30149599e-003 5.75373974e-003 1.15074799e-003
      5.75373974e-003 1.49597237e-002 3.45224398e-003 1.49597237e-002
      1.15074799e-003 1.38089759e-002 2.64672041e-002 6.90448796e-003
      5.75373974e-003 1.15074795e-002 1.15074799e-003 5.75373974e-003
      2.30149599e-003 1.15074799e-003 2.30149599e-003 6.90448796e-003
      1.95627157e-002 5.75373974e-003 1.49597237e-002 5.75373974e-003
      2.30149599e-003 1.15074799e-003 5.75373974e-003</_>
    <_>
      1.19047621e-002 1.19047621e-002 5.95238097e-002 0. 3.57142873e-002
      1.19047621e-002 0. 0. 0. 0. 0. 0. 3.57142873e-002 0. 0.
      1.19047621e-002 0. 0. 0. 0. 0. 0. 1.19047621e-002 0. 0. 0. 0. 0.
      0. 0. 1.19047621e-002 0. 0. 3.57142873e-002 7.14285746e-002 0. 0.
      0. 0. 1.19047621e-002 0. 0. 0. 0. 0. 4.76190485e-002 0.
      1.19047621e-002 0. 0. 0. 0. 3.57142873e-002 1.19047621e-002 0. 0.
      0. 1.19047621e-002 0. 0. 0. 3.57142873e-002 0. 0. 1.19047621e-002
      4.76190485e-002 0. 0. 0. 2.38095243e-002 1.19047621e-002 0. 0. 0.
      2.38095243e-002 0. 0. 0. 0. 1.19047621e-002 0. 0. 0. 0. 0. 0.
      1.19047621e-002 0. 0. 1.19047621e-002 4.76190485e-002
      1.19047621e-002 0. 0. 0. 0. 0. 0. 0. 0. 0. 0. 1.19047621e-002 0.
      0. 1.19047621e-002 0. 0. 0. 1.19047621e-002 0. 1.19047621e-002 0.
      0. 0. 0. 0. 0. 0. 0. 4.76190485e-002 0. 0. 1.19047621e-002 0. 0.
      0. 0. 0. 2.38095243e-002 2.38095243e-002 0. 3.57142873e-002 0.
      1.19047621e-002 2.38095243e-002 0. 0. 0. 0. 0. 0. 7.14285746e-002
      0. 1.19047621e-002 0. 0. 0. 0. 0.</_>
    <_>
      3.37837846e-003 5.06756781e-003 0. 1.35135138e-002 0.
      6.75675692e-003 3.37837846e-003 3.37837846e-003 1.18243247e-002
      5.06756781e-003 1.68918930e-002 6.75675692e-003 5.06756781e-003
      3.37837846e-003 8.44594650e-003 1.52027030e-002 1.35135138e-002
      5.06756781e-003 3.37837846e-003 5.06756781e-003 8.44594650e-003
      3.37837846e-003 0. 8.44594650e-003 6.75675692e-003 3.37837846e-003
      3.37837846e-003 3.37837846e-003 1.52027030e-002 3.37837846e-003
      1.18243247e-002 1.68918923e-003 0. 1.68918923e-003 3.37837846e-003
      0. 3.37837846e-003 3.37837846e-003 1.35135138e-002 1.52027030e-002
      1.68918923e-003 5.06756781e-003 1.01351356e-002 1.35135138e-002
      1.18243247e-002 1.68918923e-003 1.68918923e-003 3.37837846e-003
      1.35135138e-002 2.02702712e-002 0. 1.18243247e-002 1.01351356e-002
      3.37837846e-003 6.75675692e-003 5.06756781e-003 1.35135138e-002
      6.75675692e-003 1.68918930e-002 6.75675692e-003 6.75675692e-003
      5.06756781e-003 8.44594650e-003 1.68918923e-003 8.44594650e-003 0.
      1.35135138e-002 1.01351356e-002 0. 8.44594650e-003 1.68918923e-003
      8.44594650e-003 0. 1.68918923e-003 8.44594650e-003 0.
      1.18243247e-002 1.85810812e-002 3.37837846e-003 0. 3.37837846e-003
      8.44594650e-003 6.75675692e-003 1.01351356e-002 1.52027030e-002
      1.01351356e-002 8.44594650e-003 3.37837846e-003 1.01351356e-002
      1.68918923e-003 5.06756781e-003 1.52027030e-002 0. 5.06756781e-003
      5.06756781e-003 3.37837846e-003 8.44594650e-003 1.01351356e-002
      6.75675692e-003 3.37837846e-003 8.44594650e-003 1.01351356e-002
      1.18243247e-002 8.44594650e-003 8.44594650e-003 5.06756781e-003
      5.06756781e-003 0. 1.85810812e-002 0. 8.44594650e-003
      1.68918923e-003 0. 1.01351356e-002 5.06756781e-003 1.68918930e-002
      1.01351356e-002 8.44594650e-003 0. 8.44594650e-003 3.37837846e-003
      8.44594650e-003 1.35135138e-002 3.37837846e-003 1.52027030e-002
      5.06756781e-003 0. 1.68918923e-003 1.35135138e-002 1.52027030e-002
      1.68918923e-003 5.06756781e-003 1.68918923e-003 1.01351356e-002
      1.01351356e-002 3.37837846e-003 1.01351356e-002 6.75675692e-003
      1.68918923e-003 3.37837846e-003 1.68918923e-003 1.68918923e-003
      1.68918923e-003 6.75675692e-003 6.75675692e-003 1.52027030e-002
      1.01351356e-002 5.06756781e-003 1.68918923e-003 5.06756781e-003</_>
    <_>
      3.53773590e-003 5.89622650e-003 1.53301889e-002 0. 1.17924530e-003
      1.17924530e-003 8.25471710e-003 8.25471710e-003 3.30188684e-002
      1.06132077e-002 4.71698120e-003 1.65094342e-002 8.25471710e-003 0.
      9.43396240e-003 1.17924530e-003 4.71698120e-003 2.35849060e-003
      1.17924530e-002 1.17924530e-003 2.35849060e-003 1.17924530e-003
      4.71698120e-003 2.35849060e-003 4.71698120e-003 2.83018872e-002
      2.35849060e-003 7.07547180e-003 7.07547180e-003 2.35849060e-003
      9.43396240e-003 2.35849060e-003 8.25471710e-003 9.43396240e-003
      2.12264154e-002 1.17924530e-002 5.89622650e-003 2.35849060e-003
      2.35849060e-003 4.71698120e-003 1.06132077e-002 8.25471710e-003
      2.35849060e-003 1.17924530e-003 1.17924530e-003 2.35849060e-003
      1.17924530e-003 1.17924530e-002 2.35849060e-003 0. 1.17924530e-003
      8.25471710e-003 0. 4.71698120e-003 5.89622650e-003 2.00471692e-002
      1.29716983e-002 2.35849060e-003 1.65094342e-002 2.35849060e-003
      8.25471710e-003 1.88679248e-002 1.17924530e-003 3.53773590e-003
      5.89622650e-003 3.53773590e-003 4.71698120e-003 7.07547180e-003
      8.25471710e-003 0. 2.35849060e-003 4.71698120e-003 3.06603778e-002
      9.43396240e-003 1.17924530e-003 2.35849060e-003 3.53773590e-003
      4.71698120e-003 1.06132077e-002 1.76886804e-002 9.43396240e-003
      9.43396240e-003 5.89622650e-003 3.53773590e-003 3.53773590e-003
      5.89622650e-003 8.25471710e-003 1.17924530e-003 7.07547180e-003
      4.71698120e-003 3.53773590e-003 5.89622650e-003 1.17924530e-002 0.
      3.53773590e-003 4.71698120e-003 4.71698120e-003 3.53773590e-003
      3.53773590e-003 3.53773590e-003 7.07547180e-003 1.17924530e-003
      2.00471692e-002 4.71698120e-003 1.65094342e-002 3.53773590e-003
      5.89622650e-003 1.17924530e-003 1.17924530e-003 2.24056616e-002
      2.35849060e-003 2.35849060e-003 5.89622650e-003 2.35849060e-003
      2.35849060e-003 3.53773590e-003 1.41509436e-002 3.53773590e-003
      8.25471710e-003 7.07547180e-003 8.25471710e-003 3.53773590e-003
      3.53773590e-003 8.25471710e-003 0. 5.89622650e-003 2.35849060e-003
      7.07547180e-003 1.17924530e-002 3.53773590e-003 2.12264154e-002
      1.17924530e-003 2.35849060e-003 2.35849060e-002 1.53301889e-002
      8.25471710e-003 2.12264154e-002 1.17924530e-003 2.35849060e-003
      2.35849060e-003 5.89622650e-003 2.35849060e-003 4.71698120e-003
      1.17924530e-002 1.29716983e-002 0. 2.35849060e-003 3.53773590e-003
      3.53773590e-003 8.25471710e-003</_>
    <_>
      8.36820062e-003 0. 0. 1.04602510e-002 0. 4.18410031e-003
      6.27615023e-003 0. 1.67364012e-002 8.36820062e-003 1.46443509e-002
      2.09205016e-003 1.04602510e-002 2.09205016e-003 1.67364012e-002
      1.67364012e-002 1.25523005e-002 4.18410031e-003 4.18410031e-003
      2.09205016e-003 0. 1.04602510e-002 0. 1.04602510e-002 0.
      2.09205016e-003 1.88284516e-002 2.09205016e-003 1.67364012e-002
      6.27615023e-003 2.09205016e-003 6.27615023e-003 0. 1.88284516e-002
      4.18410031e-003 2.30125524e-002 2.09205016e-003 4.18410031e-003
      8.36820062e-003 6.27615023e-003 2.09205016e-003 0. 1.25523005e-002
      2.09205016e-003 6.27615023e-003 4.18410031e-003 1.25523005e-002
      2.09205016e-003 8.36820062e-003 0. 0. 2.30125524e-002
      6.27615023e-003 2.09205016e-003 0. 0. 2.09205016e-003
      6.27615023e-003 2.09205016e-003 0. 0. 4.18410031e-003
      1.25523005e-002 0. 1.46443509e-002 0. 2.09205016e-003
      1.25523005e-002 2.09205016e-003 2.09205016e-003 6.27615023e-003
      1.04602510e-002 0. 1.88284516e-002 1.67364012e-002 4.18410031e-003
      8.36820062e-003 2.09205020e-002 6.27615023e-003 4.18410031e-003
      2.09205020e-002 1.25523005e-002 4.18410031e-003 2.51046009e-002
      4.18410031e-003 1.67364012e-002 2.09205016e-003 2.09205016e-003
      6.27615023e-003 0. 2.09205016e-003 2.09205016e-003 2.09205016e-003
      2.30125524e-002 8.36820062e-003 2.09205016e-003 2.92887017e-002
      1.04602510e-002 0. 4.18410031e-003 4.18410031e-003 4.18410031e-003
      2.09205016e-003 1.46443509e-002 6.27615023e-003 4.18410031e-003 0.
      2.09205016e-003 8.36820062e-003 2.51046009e-002 1.67364012e-002
      8.36820062e-003 0. 4.18410031e-003 0. 1.67364012e-002
      2.09205016e-003 0. 0. 4.18410031e-003 0. 8.36820062e-003
      1.25523005e-002 1.04602510e-002 4.18410031e-003 2.09205016e-003 0.
      4.18410031e-003 6.27615023e-003 2.30125524e-002 8.36820062e-003
      2.09205016e-003 0. 1.04602510e-002 8.36820062e-003 0.
      2.09205016e-003 1.25523005e-002 0. 2.09205016e-003 0.
      2.09205016e-003 6.27615023e-003 2.09205016e-003 0. 2.71966513e-002
      4.18410031e-003 2.09205016e-003 0. 1.67364012e-002</_>
    <_>
      1.94805190e-002 4.32900432e-003 1.94805190e-002 1.29870130e-002
      4.32900432e-003 8.65800865e-003 6.49350649e-003 1.29870130e-002
      8.65800865e-003 6.49350649e-003 0. 2.16450216e-003 1.73160173e-002
      2.16450216e-003 2.16450207e-002 6.49350649e-003 4.32900432e-003
      2.16450216e-003 1.94805190e-002 2.16450216e-003 0. 0.
      6.49350649e-003 2.16450216e-003 2.16450216e-003 8.65800865e-003 0.
      2.16450216e-003 8.65800865e-003 0. 6.49350649e-003 2.16450216e-003
      0. 2.59740259e-002 1.51515156e-002 1.73160173e-002 6.49350649e-003
      4.32900432e-003 2.16450216e-003 1.08225103e-002 6.49350649e-003
      2.16450216e-003 2.16450216e-003 0. 2.16450216e-003 0. 0.
      1.51515156e-002 6.49350649e-003 8.65800865e-003 4.32900432e-003
      1.51515156e-002 4.32900432e-003 0. 4.32900432e-003 8.65800865e-003
      4.32900432e-003 2.16450216e-003 1.08225103e-002 4.32900432e-003
      2.16450216e-003 1.08225103e-002 6.49350649e-003 0. 4.32900432e-003
      0. 8.65800865e-003 2.16450216e-003 4.32900432e-003 0.
      6.49350649e-003 1.29870130e-002 1.08225103e-002 4.32900432e-003
      6.49350649e-003 0. 6.49350649e-003 1.29870130e-002 6.49350649e-003
      1.51515156e-002 8.65800865e-003 4.32900432e-003 6.49350649e-003
      1.29870130e-002 4.32900432e-003 2.16450207e-002 8.65800865e-003
      1.08225103e-002 4.32900432e-003 4.32900432e-003 8.65800865e-003
      4.32900432e-003 2.16450216e-003 2.16450216e-003 1.08225103e-002
      2.16450216e-003 1.08225103e-002 2.16450216e-003 0. 0.
      2.16450216e-003 6.49350649e-003 1.08225103e-002 4.32900432e-003
      6.49350649e-003 2.16450216e-003 0. 0. 6.49350649e-003
      3.89610380e-002 4.32900432e-003 0. 2.16450216e-003 8.65800865e-003
      8.65800865e-003 8.65800865e-003 1.29870130e-002 2.16450216e-003
      6.49350649e-003 1.08225103e-002 4.32900432e-003 0. 2.16450216e-003
      1.51515156e-002 2.16450216e-003 4.32900432e-003 2.16450216e-003
      1.08225103e-002 1.29870130e-002 1.51515156e-002 1.94805190e-002 0.
      2.16450216e-003 8.65800865e-003 1.08225103e-002 2.16450216e-003
      1.29870130e-002 4.32900432e-003 4.32900432e-003 0. 1.29870130e-002
      4.32900432e-003 8.65800865e-003 8.65800865e-003 6.49350649e-003
      2.16450216e-003 4.32900432e-003 6.49350649e-003 6.49350649e-003
      6.49350649e-003</_>
    <_>
      5.82241639e-003 8.73362459e-003 8.73362459e-003 2.91120820e-003
      1.45560410e-003 5.82241639e-003 8.73362459e-003 0. 1.16448328e-002
      5.82241639e-003 1.74672492e-002 2.91120820e-003 8.73362459e-003
      1.45560410e-003 8.73362459e-003 1.01892287e-002 2.91120820e-003
      2.91120820e-003 1.60116442e-002 5.82241639e-003 4.36681230e-003
      4.36681230e-003 8.73362459e-003 4.36681230e-003 1.16448328e-002
      5.82241639e-003 4.36681230e-003 2.91120820e-003 7.27802049e-003 0.
      5.82241639e-003 4.36681230e-003 1.45560410e-003 1.16448328e-002
      1.16448328e-002 7.27802049e-003 4.36681230e-003 8.73362459e-003
      1.16448328e-002 1.45560410e-002 2.91120820e-003 7.27802049e-003
      4.36681230e-003 2.91120820e-003 5.82241639e-003 4.36681230e-003 0.
      1.01892287e-002 7.27802049e-003 1.45560410e-002 7.27802049e-003
      1.45560410e-002 1.16448328e-002 5.82241639e-003 5.82241639e-003
      4.36681230e-003 1.01892287e-002 1.01892287e-002 1.01892287e-002
      5.82241639e-003 8.73362459e-003 8.73362459e-003 1.31004369e-002 0.
      4.36681230e-003 5.82241639e-003 1.45560410e-002 2.91120820e-003
      2.91120820e-003 0. 1.01892287e-002 8.73362459e-003 4.36681230e-003
      1.01892287e-002 5.82241639e-003 1.45560410e-003 1.31004369e-002
      2.91120820e-003 4.36681230e-003 4.36681230e-003 1.01892287e-002
      8.73362459e-003 0. 1.31004369e-002 1.45560410e-003 7.27802049e-003
      2.91120820e-003 4.36681230e-003 4.36681230e-003 5.82241639e-003
      2.91120820e-003 1.16448328e-002 2.91120820e-003 1.45560410e-003
      8.73362459e-003 2.91120820e-003 8.73362459e-003 4.36681230e-003 0.
      1.45560410e-003 8.73362459e-003 4.36681230e-003 1.60116442e-002
      1.45560410e-002 7.27802049e-003 4.36681230e-003 2.91120820e-003 0.
      1.45560410e-002 1.74672492e-002 8.73362459e-003 2.91120820e-003
      2.91120820e-003 7.27802049e-003 1.45560410e-003 1.45560410e-003
      1.01892287e-002 0. 1.45560410e-003 1.45560410e-003 1.16448328e-002
      2.91120820e-003 7.27802049e-003 1.01892287e-002 4.36681230e-003
      8.73362459e-003 1.45560410e-003 5.82241639e-003 7.27802049e-003
      7.27802049e-003 2.91120820e-003 5.82241639e-003 8.73362459e-003
      1.45560410e-002 2.32896656e-002 2.91120820e-003 1.89228542e-002
      5.82241639e-003 4.36681230e-003 4.36681230e-003 5.82241639e-003 0.
      5.82241639e-003 1.16448328e-002 1.16448328e-002 4.36681230e-003
      1.16448328e-002 2.91120820e-003 5.82241639e-003 5.82241639e-003</_>
    <_>
      3.57142859e-003 3.57142859e-003 0. 1.42857144e-002 0. 0.
      2.85714287e-002 3.57142859e-003 7.14285718e-003 0. 7.14285718e-003
      0. 7.14285718e-003 3.57142859e-003 1.07142860e-002 0.
      2.14285720e-002 3.57142859e-003 3.57142859e-003 0. 2.14285720e-002
      1.07142860e-002 3.57142859e-003 3.57142859e-003 3.57142859e-003
      3.57142859e-003 1.78571437e-002 1.07142860e-002 1.07142860e-002
      1.42857144e-002 1.07142860e-002 0. 0. 1.42857144e-002
      1.42857144e-002 1.78571437e-002 0. 0. 7.14285718e-003
      1.07142860e-002 3.57142859e-003 1.07142860e-002 0. 3.21428590e-002
      7.14285718e-003 3.57142859e-003 3.57142859e-003 7.14285718e-003
      7.14285718e-003 3.57142859e-003 3.57142859e-003 1.42857144e-002
      3.21428590e-002 3.21428590e-002 0. 0. 7.14285718e-003
      1.07142860e-002 0. 0. 7.14285718e-003 1.78571437e-002
      3.57142859e-003 3.57142859e-003 1.07142860e-002 7.14285718e-003 0.
      7.14285718e-003 0. 2.85714287e-002 7.14285718e-003 1.07142860e-002
      3.57142859e-003 7.14285718e-003 3.57142859e-003 3.57142859e-003
      3.57142859e-003 3.57142859e-003 3.57142859e-003 2.14285720e-002
      3.57142859e-003 1.07142860e-002 3.57142859e-003 0. 1.42857144e-002
      3.57142859e-003 7.14285718e-003 3.57142859e-003 3.57142859e-003 0.
      0. 1.42857144e-002 0. 1.07142860e-002 1.07142860e-002 0.
      1.42857144e-002 3.57142859e-003 3.57142859e-003 0. 3.57142859e-003
      3.57142859e-003 3.57142859e-003 0. 7.14285718e-003 0. 0. 0.
      1.78571437e-002 2.50000004e-002 1.07142860e-002 1.78571437e-002 0.
      0. 0. 3.57142859e-003 7.14285718e-003 3.57142859e-003
      3.57142859e-003 0. 3.57142859e-003 0. 7.14285718e-003
      1.07142860e-002 1.07142860e-002 0. 0. 3.57142859e-003
      1.07142860e-002 3.57142859e-003 7.14285718e-003 1.78571437e-002
      1.42857144e-002 1.07142860e-002 0. 1.42857144e-002 7.14285718e-003
      0. 3.57142859e-003 0. 0. 3.57142859e-003 0. 3.57142859e-003
      7.14285718e-003 7.14285718e-003 3.57142859e-003 0. 0.
      1.07142860e-002</_>
    <_>
      9.25925933e-003 6.17283955e-003 2.46913582e-002 9.25925933e-003 0.
      3.08641978e-003 6.17283955e-003 9.25925933e-003 3.08641978e-003
      1.23456791e-002 0. 1.54320989e-002 9.25925933e-003 1.23456791e-002
      0. 3.08641978e-003 6.17283955e-003 0. 1.23456791e-002
      1.54320989e-002 2.46913582e-002 3.08641978e-003 9.25925933e-003
      3.08641978e-003 3.08641978e-003 6.17283955e-003 9.25925933e-003
      9.25925933e-003 0. 9.25925933e-003 1.23456791e-002 0.
      3.08641978e-003 9.25925933e-003 6.17283955e-003 6.17283955e-003
      3.08641978e-003 0. 3.08641978e-003 0. 0. 1.54320989e-002 0.
      1.23456791e-002 0. 1.54320989e-002 0. 6.17283955e-003
      3.08641978e-003 3.08641978e-003 1.54320989e-002 1.54320989e-002
      6.17283955e-003 3.08641978e-003 0. 3.08641978e-003 0.
      3.08641978e-003 0. 0. 9.25925933e-003 1.54320989e-002
      1.54320989e-002 1.54320989e-002 0. 3.08641978e-003 3.08641978e-003
      6.17283955e-003 1.54320989e-002 6.17283955e-003 3.08641978e-003
      6.17283955e-003 6.17283955e-003 0. 0. 2.16049384e-002
      3.08641978e-003 3.08641978e-003 1.85185187e-002 1.23456791e-002
      3.08641978e-003 2.46913582e-002 0. 9.25925933e-003 1.23456791e-002
      6.17283955e-003 9.25925933e-003 0. 1.23456791e-002 1.54320989e-002
      1.54320989e-002 0. 3.08641978e-003 9.25925933e-003 0.
      3.08641978e-003 1.54320989e-002 3.08641978e-003 0. 3.39506194e-002
      9.25925933e-003 3.08641978e-003 3.08641978e-003 3.08641978e-003 0.
      3.08641978e-003 6.17283955e-003 3.08641978e-003 0. 2.46913582e-002
      0. 2.77777780e-002 0. 0. 1.54320989e-002 0. 6.17283955e-003 0.
      1.23456791e-002 0. 9.25925933e-003 3.08641978e-003 0. 0. 0.
      1.23456791e-002 9.25925933e-003 6.17283955e-003 1.54320989e-002
      6.17283955e-003 6.17283955e-003 0. 3.08641978e-003 0.
      9.25925933e-003 3.08641978e-003 0. 0. 0. 6.17283955e-003
      3.08641978e-003 2.46913582e-002 6.17283955e-003 3.08641978e-003
      9.25925933e-003 6.17283955e-003 6.17283955e-003 6.17283955e-003
      6.17283955e-003 3.08641978e-003</_>
    <_>
      4.48430516e-003 8.96861032e-003 0. 8.96861032e-003 0.
      1.34529155e-002 0. 0. 1.79372206e-002 0. 1.34529155e-002 0.
      2.69058309e-002 0. 0. 0. 4.48430516e-003 4.48430516e-003
      1.34529155e-002 4.48430516e-003 4.48430516e-003 4.48430516e-003
      8.96861032e-003 0. 4.48430516e-003 0. 8.96861032e-003 0.
      1.34529155e-002 4.48430516e-003 2.69058309e-002 4.48430516e-003
      4.48430516e-003 8.96861032e-003 4.48430516e-003 4.48430516e-003
      8.96861032e-003 0. 2.24215258e-002 0. 4.48430516e-003 0.
      1.34529155e-002 8.96861032e-003 4.48430516e-003 1.34529155e-002
      8.96861032e-003 8.96861032e-003 4.48430516e-003 8.96861032e-003 0.
      8.96861032e-003 8.96861032e-003 4.48430516e-003 0. 0.
      1.34529155e-002 1.79372206e-002 1.79372206e-002 0. 4.48430516e-003
      1.34529155e-002 8.96861032e-003 8.96861032e-003 1.79372206e-002
      1.79372206e-002 1.79372206e-002 2.24215258e-002 0. 8.96861032e-003
      1.34529155e-002 8.96861032e-003 0. 8.96861032e-003 8.96861032e-003
      0. 8.96861032e-003 8.96861032e-003 4.48430516e-003 8.96861032e-003
      0. 4.48430516e-003 0. 4.48430516e-003 1.34529155e-002
      1.34529155e-002 4.48430516e-003 0. 1.79372206e-002 4.48430516e-003
      4.48430516e-003 0. 4.48430516e-003 8.96861032e-003 1.34529155e-002
      4.48430516e-003 8.96861032e-003 0. 8.96861032e-003 0.
      8.96861032e-003 4.48430516e-003 0. 8.96861032e-003 8.96861032e-003
      0. 4.48430516e-003 1.34529155e-002 1.34529155e-002 0.
      4.48430516e-003 1.34529155e-002 8.96861032e-003 0. 0. 0. 0. 0.
      4.48430516e-003 8.96861032e-003 0. 1.79372206e-002 8.96861032e-003
      1.34529155e-002 4.48430516e-003 1.79372206e-002 0. 4.48430516e-003
      4.48430516e-003 1.34529155e-002 0. 1.79372206e-002 0.
      4.48430516e-003 1.79372206e-002 4.48430516e-003 0. 0. 0.
      8.96861032e-003 0. 4.48430516e-003 4.48430516e-003 1.79372206e-002
      8.96861032e-003 0. 4.48430516e-003 0. 4.48430516e-003 0.</_>
    <_>
      8.38926155e-003 1.34228189e-002 5.03355730e-003 0. 0.
      3.35570471e-003 5.03355730e-003 1.67785236e-003 2.34899335e-002
      6.71140943e-003 1.67785231e-002 3.35570471e-003 3.35570471e-003
      1.67785236e-003 1.67785231e-002 0. 1.67785236e-003 5.03355730e-003
      8.38926155e-003 1.67785236e-003 5.03355730e-003 3.35570471e-003
      5.03355730e-003 1.34228189e-002 6.71140943e-003 1.34228189e-002
      3.35570471e-003 5.03355730e-003 1.00671146e-002 0. 1.00671146e-002
      5.03355730e-003 0. 1.51006710e-002 6.71140943e-003 1.34228189e-002
      6.71140943e-003 0. 6.71140943e-003 1.67785236e-003 5.03355730e-003
      8.38926155e-003 3.35570471e-003 0. 1.67785236e-003 3.35570471e-003
      0. 1.17449667e-002 3.35570471e-003 1.67785231e-002 0.
      1.34228189e-002 1.67785236e-003 1.67785236e-003 5.03355730e-003
      1.67785236e-003 1.84563752e-002 5.03355730e-003 1.51006710e-002
      5.03355730e-003 1.00671146e-002 1.00671146e-002 6.71140943e-003 0.
      1.17449667e-002 0. 1.00671146e-002 8.38926155e-003 6.71140943e-003
      0. 1.17449667e-002 8.38926155e-003 1.17449667e-002 6.71140943e-003
      3.35570471e-003 3.35570471e-003 3.35570471e-003 5.03355730e-003
      3.35570471e-003 1.17449667e-002 1.00671146e-002 8.38926155e-003
      2.18120813e-002 3.35570471e-003 5.03355730e-003 6.71140943e-003
      1.34228189e-002 3.35570471e-003 5.03355730e-003 8.38926155e-003
      1.67785236e-003 1.00671146e-002 3.35570471e-003 0. 8.38926155e-003
      5.03355730e-003 6.71140943e-003 1.67785236e-003 3.35570471e-003
      5.03355730e-003 6.71140943e-003 1.67785236e-003 1.00671146e-002
      1.17449667e-002 1.00671146e-002 1.00671146e-002 1.67785236e-003 0.
      5.03355730e-003 1.84563752e-002 1.67785236e-003 5.03355730e-003
      5.03355730e-003 5.03355730e-003 3.35570471e-003 3.35570471e-003
      5.03355730e-003 0. 1.00671146e-002 5.03355730e-003 1.67785231e-002
      5.03355730e-003 5.03355730e-003 1.17449667e-002 5.03355730e-003
      1.00671146e-002 1.67785236e-003 1.67785236e-003 6.71140943e-003
      6.71140943e-003 1.34228189e-002 1.67785236e-003 1.67785236e-003
      1.34228189e-002 2.68456377e-002 5.03355730e-003 1.00671146e-002
      1.00671146e-002 0. 3.35570471e-003 8.38926155e-003 3.35570471e-003
      8.38926155e-003 1.34228189e-002 2.01342292e-002 5.03355730e-003
      1.00671146e-002 1.67785236e-003 5.03355730e-003 8.38926155e-003</_>
    <_>
      1.25523005e-002 6.27615023e-003 2.09205020e-002 4.18410031e-003 0.
      0. 4.18410031e-003 8.36820062e-003 8.36820062e-003 1.67364012e-002
      8.36820062e-003 4.18410031e-003 2.09205020e-002 8.36820062e-003
      1.67364012e-002 0. 0. 2.09205016e-003 2.30125524e-002
      1.46443509e-002 8.36820062e-003 0. 8.36820062e-003 6.27615023e-003
      8.36820062e-003 2.09205016e-003 2.09205016e-003 4.18410031e-003
      6.27615023e-003 2.09205016e-003 8.36820062e-003 4.18410031e-003
      4.18410031e-003 8.36820062e-003 1.67364012e-002 1.04602510e-002 0.
      2.09205016e-003 0. 4.18410031e-003 6.27615023e-003 0.
      4.18410031e-003 6.27615023e-003 2.09205016e-003 2.09205016e-003
      4.18410031e-003 1.25523005e-002 4.18410031e-003 2.09205016e-003
      1.04602510e-002 6.27615023e-003 2.09205016e-003 6.27615023e-003
      2.09205016e-003 2.09205016e-003 1.25523005e-002 2.09205016e-003
      6.27615023e-003 4.18410031e-003 2.09205016e-003 1.25523005e-002
      6.27615023e-003 1.46443509e-002 8.36820062e-003 6.27615023e-003
      8.36820062e-003 6.27615023e-003 6.27615023e-003 0. 1.04602510e-002
      4.18410031e-003 2.09205020e-002 6.27615023e-003 4.18410031e-003
      1.46443509e-002 4.18410031e-003 6.27615023e-003 2.09205020e-002
      1.04602510e-002 6.27615023e-003 8.36820062e-003 6.27615023e-003
      1.04602510e-002 8.36820062e-003 8.36820062e-003 4.18410031e-003
      2.09205016e-003 4.18410031e-003 8.36820062e-003 1.25523005e-002
      1.04602510e-002 2.09205016e-003 0. 6.27615023e-003 6.27615023e-003
      6.27615023e-003 4.18410031e-003 2.09205016e-003 2.09205016e-003
      6.27615023e-003 4.18410031e-003 1.46443509e-002 1.88284516e-002
      8.36820062e-003 1.67364012e-002 0. 0. 6.27615023e-003
      1.67364012e-002 2.09205016e-003 0. 1.04602510e-002 4.18410031e-003
      2.09205016e-003 2.09205016e-003 2.09205016e-003 1.46443509e-002
      1.46443509e-002 2.09205016e-003 1.04602510e-002 4.18410031e-003
      4.18410031e-003 8.36820062e-003 0. 2.09205016e-003 4.18410031e-003
      2.09205016e-003 2.09205016e-003 8.36820062e-003 6.27615023e-003 0.
      2.09205016e-003 1.46443509e-002 8.36820062e-003 0. 1.25523005e-002
      0. 6.27615023e-003 1.46443509e-002 4.18410031e-003 2.09205016e-003
      1.46443509e-002 8.36820062e-003 4.18410031e-003 4.18410031e-003
      1.25523005e-002 2.09205016e-003 2.09205016e-003 1.04602510e-002</_>
    <_>
      4.37317789e-003 5.83090400e-003 5.83090400e-003 1.74927115e-002 0.
      4.37317789e-003 8.74635577e-003 1.45772600e-003 1.60349868e-002
      7.28863012e-003 1.02040824e-002 4.37317789e-003 5.83090400e-003
      8.74635577e-003 1.31195337e-002 4.37317789e-003 7.28863012e-003
      2.91545200e-003 4.37317789e-003 2.91545200e-003 1.45772600e-003
      4.37317789e-003 4.37317789e-003 7.28863012e-003 7.28863012e-003 0.
      8.74635577e-003 8.74635577e-003 1.45772602e-002 0. 1.02040824e-002
      7.28863012e-003 0. 2.04081647e-002 5.83090400e-003 2.18658894e-002
      5.83090400e-003 4.37317789e-003 8.74635577e-003 1.31195337e-002
      4.37317789e-003 1.45772600e-003 8.74635577e-003 7.28863012e-003
      5.83090400e-003 8.74635577e-003 1.45772600e-003 8.74635577e-003
      5.83090400e-003 1.31195337e-002 7.28863012e-003 7.28863012e-003
      1.31195337e-002 1.16618080e-002 4.37317789e-003 7.28863012e-003
      4.37317789e-003 4.37317789e-003 1.45772600e-003 5.83090400e-003
      5.83090400e-003 7.28863012e-003 2.04081647e-002 4.37317789e-003
      1.16618080e-002 1.45772600e-003 8.74635577e-003 4.37317789e-003
      2.91545200e-003 5.83090400e-003 1.45772602e-002 8.74635577e-003
      4.37317789e-003 1.16618080e-002 1.45772602e-002 7.28863012e-003
      4.37317789e-003 1.16618080e-002 1.45772600e-003 2.91545200e-003
      4.37317789e-003 2.91545200e-003 1.45772600e-003 1.16618080e-002
      5.83090400e-003 1.31195337e-002 5.83090400e-003 1.45772600e-003
      8.74635577e-003 1.45772600e-003 1.45772600e-003 4.37317789e-003
      4.37317789e-003 4.37317789e-003 1.02040824e-002 1.02040824e-002
      1.02040824e-002 2.91545200e-003 4.37317789e-003 2.91545200e-003
      8.74635577e-003 7.28863012e-003 1.45772600e-003 8.74635577e-003
      7.28863012e-003 4.37317789e-003 7.28863012e-003 0. 1.31195337e-002
      2.91545200e-003 7.28863012e-003 0. 2.91545200e-003 4.37317789e-003
      1.45772600e-003 7.28863012e-003 2.91545200e-003 0. 4.37317789e-003
      1.16618080e-002 5.83090400e-003 1.60349868e-002 8.74635577e-003
      8.74635577e-003 2.91545200e-003 7.28863012e-003 0. 1.31195337e-002
      1.74927115e-002 8.74635577e-003 2.91545200e-003 1.16618080e-002
      1.45772600e-003 4.37317789e-003 5.83090400e-003 0. 8.74635577e-003
      5.83090400e-003 4.37317789e-003 8.74635577e-003 7.28863012e-003
      4.37317789e-003 7.28863012e-003 7.28863012e-003 7.28863012e-003
      1.16618080e-002 7.28863012e-003 1.45772600e-003 1.45772600e-003
      8.74635577e-003</_>
    <_>
      1.25523005e-002 4.18410031e-003 1.25523005e-002 0. 4.18410031e-003
      0. 1.04602510e-002 6.27615023e-003 6.27615023e-003 1.46443509e-002
      6.27615023e-003 2.09205016e-003 2.09205020e-002 6.27615023e-003
      6.27615023e-003 2.09205016e-003 4.18410031e-003 8.36820062e-003
      1.25523005e-002 1.04602510e-002 2.09205016e-003 2.09205016e-003
      8.36820062e-003 8.36820062e-003 4.18410031e-003 6.27615023e-003 0.
      2.09205016e-003 4.18410031e-003 0. 8.36820062e-003 6.27615023e-003
      4.18410031e-003 8.36820062e-003 1.67364012e-002 1.46443509e-002
      1.04602510e-002 6.27615023e-003 2.09205016e-003 2.09205016e-003
      1.04602510e-002 4.18410031e-003 6.27615023e-003 6.27615023e-003
      4.18410031e-003 8.36820062e-003 4.18410031e-003 8.36820062e-003
      4.18410031e-003 6.27615023e-003 8.36820062e-003 1.46443509e-002
      8.36820062e-003 4.18410031e-003 4.18410031e-003 4.18410031e-003
