<?xml version="1.0"?>
<opencv_storage>
<my_svm type_id="opencv-ml-svm">
  <svm_type>C_SVC</svm_type>
  <kernel><type>RBF</type>
    <gamma>5.0625000000000009e-001</gamma></kernel>
  <C>6.2500000000000000e+001</C>
  <term_criteria><epsilon>1.1920928955078125e-007</epsilon>
    <iterations>1000</iterations></term_criteria>
  <var_all>150</var_all>
  <var_count>150</var_count>
  <class_count>2</class_count>
  <class_labels type_id="opencv-matrix">
    <rows>1</rows>
    <cols>2</cols>
    <dt>i</dt>
    <data>
      0 1</data></class_labels>
  <sv_total>51</sv_total>
  <support_vectors>
    <_>
      6.17283955e-003 1.54320989e-003 3.08641978e-003 3.54938284e-002
      1.54320989e-003 9.25925933e-003 0. 3.39506194e-002 2.62345672e-002
      1.69753097e-002 7.71604944e-003 1.08024692e-002 4.62962966e-003 0.
      4.62962966e-003 6.17283955e-003 0. 7.71604944e-003 4.62962966e-003
      1.23456791e-002 3.08641978e-003 0. 1.23456791e-002 3.08641978e-003
      9.25925933e-003 0. 4.62962966e-003 6.17283955e-003 7.71604944e-003
      4.62962966e-003 7.71604944e-003 6.17283955e-003 6.17283955e-003
      6.17283955e-003 3.08641978e-003 9.25925933e-003 1.54320989e-003
      4.62962966e-003 7.71604944e-003 3.08641978e-003 1.54320989e-003
      1.54320989e-003 7.71604944e-003 3.08641978e-003 4.62962966e-003
      3.08641978e-003 4.62962966e-003 3.08641978e-003 1.08024692e-002 0.
      6.17283955e-003 6.17283955e-003 0. 1.54320989e-003 6.17283955e-003
      7.71604944e-003 1.69753097e-002 4.62962966e-003 4.62962966e-003
      1.08024692e-002 0. 1.54320989e-003 7.71604944e-003 6.17283955e-003
      1.54320989e-003 2.31481493e-002 6.17283955e-003 4.62962966e-003
      3.39506194e-002 0. 1.08024692e-002 1.38888890e-002 1.08024692e-002
      4.62962966e-003 9.25925933e-003 3.08641978e-003 3.08641978e-003
      1.85185187e-002 1.38888890e-002 3.08641978e-003 1.54320989e-003
      6.17283955e-003 6.17283955e-003 7.71604944e-003 6.17283955e-003
      4.62962966e-003 1.54320989e-003 9.25925933e-003 7.71604944e-003
      3.08641978e-003 3.08641978e-003 1.38888890e-002 3.08641978e-003
      1.54320989e-003 1.54320989e-003 3.08641978e-003 1.08024692e-002
      3.08641978e-003 4.62962966e-003 6.17283955e-003 1.23456791e-002
      7.71604944e-003 1.08024692e-002 6.17283955e-003 7.71604944e-003
      7.71604944e-003 1.54320989e-003 4.62962966e-003 6.17283955e-003
      3.08641978e-003 4.62962966e-003 1.54320989e-003 1.54320989e-003
      1.85185187e-002 3.08641978e-002 2.77777780e-002 6.17283955e-003
      2.16049384e-002 6.17283955e-003 6.17283955e-003 1.54320989e-003
      2.00617276e-002 4.62962966e-003 3.08641978e-003 3.08641978e-003
      1.54320989e-003 1.54320989e-003 0. 7.71604944e-003 7.71604944e-003
      0. 1.54320989e-003 1.08024692e-002 1.08024692e-002 0. 0.
      4.62962966e-003 3.08641978e-003 4.62962966e-003 6.17283955e-003
      4.62962966e-003 4.62962966e-003 3.08641978e-003 4.62962966e-003
      1.54320989e-003 0. 3.08641978e-003 3.08641978e-003 3.08641978e-003
      1.54320989e-003</_>
    <_>
      8.88888910e-003 4.44444455e-003 0. 7.77777806e-002 0.
      1.77777782e-002 4.44444455e-003 2.22222228e-003 2.44444460e-002
      4.44444455e-003 2.44444460e-002 2.22222228e-003 6.66666683e-003 0.
      1.33333337e-002 6.66666683e-003 2.22222228e-003 1.55555559e-002
      6.66666683e-003 8.88888910e-003 2.22222228e-003 4.44444455e-003
      8.88888910e-003 2.22222228e-003 0. 8.88888910e-003 4.44444455e-003
      1.11111114e-002 8.88888910e-003 4.44444455e-003 1.55555559e-002
      2.22222228e-003 2.22222228e-003 2.22222228e-003 2.22222228e-003 0.
      0. 1.33333337e-002 6.66666683e-003 6.66666683e-003 2.22222228e-003
      0. 2.22222228e-003 6.66666683e-003 1.33333337e-002 0.
      1.55555559e-002 1.33333337e-002 0. 1.77777782e-002 2.22222228e-003
      4.44444455e-003 6.66666683e-003 4.44444455e-003 2.22222228e-003 0.
      6.66666683e-003 4.44444455e-003 8.88888910e-003 0. 2.22222228e-003
      4.44444455e-003 2.22222228e-003 2.22222228e-003 0. 0.
      1.11111114e-002 6.66666683e-003 0. 2.22222228e-003 4.44444455e-003
      0. 1.33333337e-002 1.33333337e-002 8.88888910e-003 1.11111114e-002
      4.44444455e-003 1.11111114e-002 8.88888910e-003 2.22222228e-003
      2.22222228e-003 8.88888910e-003 2.22222228e-003 1.11111114e-002
      1.11111114e-002 6.66666683e-003 4.44444455e-003 6.66666683e-003
      1.55555559e-002 4.44444455e-003 4.44444455e-003 4.44444455e-003 0.
      2.22222228e-003 4.44444455e-003 1.11111114e-002 2.22222228e-003 0.
      4.44444455e-003 6.66666683e-003 1.11111114e-002 6.66666683e-003
      2.22222228e-003 2.22222228e-003 1.55555559e-002 2.22222228e-003
      2.22222228e-003 2.22222228e-003 1.11111114e-002 1.55555559e-002
      4.44444455e-003 6.66666683e-003 2.22222228e-003 2.22222228e-002
      2.22222228e-003 1.11111114e-002 4.44444455e-003 4.44444455e-003
      8.88888910e-003 4.44444455e-003 2.22222228e-003 8.88888910e-003
      6.66666683e-003 8.88888910e-003 2.22222228e-002 4.44444455e-003
      2.22222228e-003 1.11111114e-002 1.11111114e-002 6.66666683e-003
      4.44444455e-003 2.22222228e-003 0. 1.11111114e-002 1.55555559e-002
      0. 4.44444455e-003 2.22222228e-003 0. 8.88888910e-003
      2.22222228e-003 0. 0. 1.55555559e-002 1.11111114e-002
      4.44444455e-003 6.66666683e-003 4.44444455e-003 4.44444455e-003
      4.44444455e-003</_>
    <_>
      0. 1.75953079e-002 2.93255132e-003 8.21114331e-002 0.
      2.34604105e-002 2.93255132e-003 0. 0. 0. 8.79765395e-003
      5.86510263e-003 0. 0. 2.93255132e-003 1.75953079e-002
      8.79765395e-003 2.05278583e-002 0. 5.86510263e-003 2.93255132e-003
      0. 5.86510263e-003 2.93255132e-003 1.17302053e-002 0.
      2.05278583e-002 1.17302053e-002 2.34604105e-002 2.93255132e-003
      8.79765395e-003 2.93255132e-003 0. 0. 0. 0. 0. 1.46627566e-002
      8.79765395e-003 1.46627566e-002 5.86510263e-003 5.86510263e-003
      5.86510263e-003 1.17302053e-002 1.46627566e-002 0. 8.79765395e-003
      2.93255132e-003 2.93255132e-003 2.93255132e-003 5.86510263e-003
      2.93255132e-003 5.86510263e-003 1.17302053e-002 2.93255132e-003
      2.93255132e-003 8.79765395e-003 1.17302053e-002 0. 0.
      8.79765395e-003 0. 1.75953079e-002 1.17302053e-002 0. 0.
      2.93255132e-003 0. 0. 1.17302053e-002 0. 5.86510263e-003 0.
      2.93255132e-003 2.93255132e-003 1.17302053e-002 1.75953079e-002
      1.17302053e-002 1.17302053e-002 0. 2.93255132e-003 2.93255132e-003
      0. 8.79765395e-003 1.46627566e-002 1.75953079e-002 0. 0.
      1.17302053e-002 8.79765395e-003 2.05278583e-002 5.86510263e-003 0.
      2.93255132e-003 0. 0. 1.75953079e-002 8.79765395e-003
      1.17302053e-002 5.86510263e-003 1.75953079e-002 1.46627566e-002
      2.93255132e-003 0. 8.79765395e-003 2.93255132e-003 0. 0.
      2.05278583e-002 0. 8.79765395e-003 0. 0. 8.79765395e-003
      8.79765395e-003 3.81231681e-002 2.93255132e-003 2.93255132e-003 0.
      2.93255132e-003 0. 1.17302053e-002 0. 1.46627566e-002
      1.46627566e-002 0. 0. 8.79765395e-003 1.17302053e-002
      8.79765395e-003 0. 1.75953079e-002 1.17302053e-002 8.79765395e-003
      8.79765395e-003 0. 5.86510263e-003 5.86510263e-003 0.
      5.86510263e-003 0. 2.93255132e-003 2.93255132e-003 2.93255132e-003
      2.93255132e-003 5.86510263e-003 2.93255132e-003 0. 0. 0.</_>
    <_>
      6.50759228e-003 0. 0. 3.25379595e-002 2.16919743e-003
      1.51843820e-002 2.16919743e-003 6.50759228e-003 3.47071588e-002
      6.50759228e-003 3.47071588e-002 8.67678970e-003 0. 0.
      1.73535794e-002 0. 2.16919743e-003 4.33839485e-003 4.33839485e-003
      1.51843820e-002 6.50759228e-003 0. 8.67678970e-003 1.51843820e-002
      4.33839485e-003 0. 2.16919743e-003 2.16919743e-003 1.73535794e-002
      3.47071588e-002 2.16919743e-003 0. 0. 4.33839485e-003 0.
      1.08459871e-002 6.50759228e-003 4.33839485e-003 0. 8.67678970e-003
      2.16919743e-003 4.33839485e-003 8.67678970e-003 0. 6.50759228e-003
      0. 2.16919743e-003 4.33839485e-003 2.16919743e-003 6.50759228e-003
      1.30151846e-002 6.50759228e-003 4.33839485e-003 0. 6.50759228e-003
      1.08459871e-002 1.08459871e-002 0. 8.67678970e-003 4.33839485e-003
      2.16919743e-003 6.50759228e-003 4.33839485e-003 2.16919743e-003
      8.67678970e-003 2.16919743e-003 6.50759228e-003 4.33839485e-003
      1.30151846e-002 2.16919743e-003 1.51843820e-002 1.51843820e-002 0.
      1.51843820e-002 2.16919743e-003 4.33839485e-003 2.16919743e-003
      2.16919743e-002 4.33839485e-003 4.33839485e-003 4.33839485e-003
      1.08459871e-002 8.67678970e-003 4.33839485e-003 6.50759228e-003
      2.16919743e-003 8.67678970e-003 1.51843820e-002 6.50759228e-003
      8.67678970e-003 2.16919743e-003 4.33839485e-003 2.16919743e-003
      8.67678970e-003 8.67678970e-003 4.33839485e-003 1.08459871e-002
      4.33839485e-003 2.16919743e-003 1.30151846e-002 0. 4.33839485e-003
      1.08459871e-002 6.50759228e-003 2.16919743e-003 2.16919743e-003
      8.67678970e-003 8.67678970e-003 4.33839485e-003 6.50759228e-003
      6.50759228e-003 1.51843820e-002 4.33839485e-003 8.67678970e-003
      1.30151846e-002 1.73535794e-002 0. 4.33839485e-003 0. 0. 0.
      1.73535794e-002 0. 2.16919743e-002 0. 0. 0. 2.16919743e-003
      6.50759228e-003 4.33839485e-003 0. 4.33839485e-003 1.08459871e-002
      2.16919743e-003 4.33839485e-003 1.95227768e-002 6.50759228e-003
      6.50759228e-003 0. 4.33839485e-003 2.16919743e-003 2.38611717e-002
      4.33839485e-003 1.51843820e-002 4.33839485e-003 2.16919743e-003
      6.50759228e-003 2.16919743e-003 2.16919743e-003 6.50759228e-003</_>
    <_>
      2.99401209e-003 5.98802418e-003 1.49700604e-002 2.39520967e-002
      8.98203626e-003 1.19760484e-002 0. 9.28143710e-002 0.
      5.98802418e-003 1.19760484e-002 2.99401209e-003 2.99401209e-003
      2.99401209e-003 2.99401209e-003 2.69461088e-002 0. 8.98203626e-003
      5.98802418e-003 2.99401209e-003 2.99401209e-003 5.98802418e-003
      8.98203626e-003 2.99401209e-003 8.98203626e-003 0. 5.98802418e-003
      8.98203626e-003 5.98802418e-003 5.98802418e-003 5.98802418e-003 0.
      0. 8.98203626e-003 2.99401209e-003 0. 0. 5.98802418e-003 0. 0.
      2.99401209e-003 2.99401209e-003 8.98203626e-003 8.98203626e-003
      5.98802418e-003 8.98203626e-003 0. 2.99401209e-003 1.49700604e-002
      2.99401209e-003 2.99401209e-003 5.98802418e-003 5.98802418e-003
      8.98203626e-003 0. 2.99401209e-003 2.99401209e-003 0.
      5.98802418e-003 2.99401209e-003 5.98802418e-003 0. 2.99401209e-003
      1.79640725e-002 2.99401209e-003 1.79640725e-002 5.98802418e-003 0.
      2.99401209e-003 1.49700604e-002 8.98203626e-003 5.98802418e-003 0.
      8.98203626e-003 5.98802418e-003 2.39520967e-002 2.99401209e-003
      1.49700604e-002 0. 0. 2.99401209e-003 2.99401209e-003
      5.98802418e-003 2.99401209e-003 2.99401209e-003 2.99401209e-003
      2.99401209e-003 0. 1.49700604e-002 5.98802418e-003 0.
      2.99401209e-003 5.98802418e-003 5.98802418e-003 2.99401209e-003
      2.99401209e-003 1.19760484e-002 2.99401209e-003 1.19760484e-002
      1.19760484e-002 2.99401209e-003 2.39520967e-002 2.99401209e-003 0.
      5.98802418e-003 2.99401209e-003 0. 2.39520967e-002 2.99401209e-003
      5.98802418e-003 0. 2.99401209e-003 2.99401209e-003 2.99401209e-003
      5.38922176e-002 0. 1.19760484e-002 5.08982055e-002 2.99401209e-003
      5.98802418e-003 2.99401209e-003 0. 5.98802418e-003 1.19760484e-002
      5.98802418e-003 0. 0. 5.98802418e-003 2.99401209e-003 0. 0.
      2.99401209e-003 5.98802418e-003 2.99401209e-003 5.98802418e-003
      5.98802418e-003 0. 0. 2.99401209e-003 5.98802418e-003
      2.99401209e-003 2.99401209e-003 8.98203626e-003 8.98203626e-003
      5.98802418e-003 1.19760484e-002 8.98203626e-003 2.99401209e-003 0.
      5.98802418e-003</_>
    <_>
      1.22950813e-002 4.09836043e-003 4.09836043e-003 8.19672085e-003
      4.09836043e-003 0. 0. 6.55737668e-002 2.04918012e-002
      4.09836043e-003 1.22950813e-002 4.09836043e-003 2.86885239e-002 0.
      1.63934417e-002 4.09836043e-003 4.09836043e-003 0. 4.09836043e-003
      2.04918012e-002 0. 0. 0. 4.09836043e-003 0. 0. 1.22950813e-002
      4.09836043e-003 8.19672085e-003 0. 8.19672085e-003 0.
      4.09836043e-003 8.19672085e-003 4.09836043e-003 8.19672085e-003
      4.09836043e-003 4.09836043e-003 4.09836043e-003 4.09836043e-003 0.
      0. 1.22950813e-002 0. 0. 0. 0. 4.09836043e-003 1.63934417e-002
      8.19672085e-003 4.09836043e-003 4.09836043e-003 0. 0. 0. 0.
      4.09836043e-003 0. 4.09836043e-003 8.19672085e-003 0. 0.
      8.19672085e-003 0. 1.22950813e-002 0. 0. 1.22950813e-002
      1.63934417e-002 8.19672085e-003 4.09836043e-003 8.19672085e-003 0.
      1.22950813e-002 4.09836043e-003 8.19672085e-003 1.22950813e-002
      2.04918012e-002 1.63934417e-002 8.19672085e-003 1.22950813e-002
      4.09836043e-003 2.04918012e-002 8.19672085e-003 8.19672085e-003
      8.19672085e-003 0. 4.09836043e-003 1.22950813e-002 4.09836043e-003
      4.09836043e-003 4.09836043e-003 0. 4.09836043e-003 1.22950813e-002
      4.09836043e-003 4.09836043e-003 4.09836043e-003 0. 0.
      4.09836043e-003 4.09836043e-003 0. 1.22950813e-002 8.19672085e-003
      0. 0. 4.09836043e-003 0. 4.09836043e-003 4.09836043e-003 0. 0. 0.
      9.42622870e-002 4.50819656e-002 0. 3.68852429e-002 0.
      1.22950813e-002 4.09836043e-003 0. 3.27868834e-002 0. 0.
      4.09836043e-003 4.09836043e-003 4.09836043e-003 8.19672085e-003
      8.19672085e-003 8.19672085e-003 0. 0. 4.09836043e-003
      4.09836043e-003 0. 4.09836043e-003 2.45901626e-002 4.09836043e-003
      0. 0. 4.09836043e-003 0. 8.19672085e-003 0. 0. 4.09836043e-003
      4.09836043e-003 0. 4.09836043e-003</_>
    <_>
      2.33100238e-003 4.66200477e-003 0. 1.39860138e-002 0.
      1.16550121e-002 0. 4.66200477e-003 2.09790207e-002 4.66200477e-003
      1.63170174e-002 9.32400953e-003 9.32400953e-003 0. 2.33100243e-002
      9.32400953e-003 4.66200477e-003 9.32400953e-003 1.16550121e-002
      2.09790207e-002 9.32400953e-003 0. 1.39860138e-002 1.39860138e-002
      1.16550121e-002 9.32400953e-003 6.99300691e-003 0. 6.99300691e-003
      2.33100238e-003 6.99300691e-003 6.99300691e-003 6.99300691e-003
      4.66200477e-003 4.66200477e-003 2.33100238e-003 4.66200477e-003
      4.66200477e-003 4.66200477e-003 4.66200477e-003 4.66200477e-003
      2.33100238e-003 2.33100238e-003 9.32400953e-003 4.66200477e-003
      2.33100238e-003 2.33100238e-003 1.39860138e-002 6.99300691e-003
      6.99300691e-003 6.99300691e-003 1.86480191e-002 1.63170174e-002
      1.39860138e-002 4.66200477e-003 4.66200477e-003 1.39860138e-002
      1.63170174e-002 2.33100238e-003 6.99300691e-003 6.99300691e-003 0.
      2.33100238e-003 2.33100243e-002 4.66200477e-003 0. 0.
      4.66200477e-003 1.86480191e-002 1.16550121e-002 6.99300691e-003
      6.99300691e-003 0. 4.66200477e-003 4.66200477e-003 0.
      1.16550121e-002 1.16550121e-002 9.32400953e-003 4.66200477e-003
      6.99300691e-003 4.66200477e-003 9.32400953e-003 1.63170174e-002
      2.33100238e-003 4.66200477e-003 4.66200477e-003 1.16550121e-002
      9.32400953e-003 4.66200477e-003 2.33100238e-003 4.66200477e-003 0.
      6.99300691e-003 2.33100238e-003 0. 2.33100243e-002 2.33100238e-003
      0. 1.16550121e-002 1.39860138e-002 1.39860138e-002 6.99300691e-003
      4.66200477e-003 4.66200477e-003 6.99300691e-003 2.33100238e-003
      2.33100238e-003 2.09790207e-002 2.33100238e-003 4.66200477e-003 0.
      2.33100238e-003 9.32400953e-003 9.32400953e-003 1.16550121e-002
      4.66200477e-003 2.33100238e-003 2.33100238e-003 2.33100238e-003 0.
      4.66200477e-003 2.33100238e-003 9.32400953e-003 6.99300691e-003
      6.99300691e-003 0. 2.33100238e-003 2.33100238e-003 6.99300691e-003
      4.66200477e-003 1.63170174e-002 2.09790207e-002 1.16550121e-002 0.
      0. 2.33100238e-003 4.66200477e-003 2.33100238e-003 4.66200477e-003
      2.33100238e-003 2.33100238e-003 2.33100238e-003 1.16550121e-002 0.
      2.33100238e-003 0. 2.33100238e-003 4.66200477e-003 9.32400953e-003</_>
    <_>
      8.40336177e-003 6.11153571e-003 1.52788393e-003 4.20168079e-002 0.
      9.16730333e-003 1.52788393e-003 2.29182583e-003 9.93124582e-003
      6.11153571e-003 1.60427820e-002 4.58365167e-003 6.11153571e-003
      2.29182583e-003 1.14591299e-002 6.87547773e-003 6.87547773e-003
      4.58365167e-003 1.52788393e-003 3.81970988e-003 2.29182583e-003
      8.40336177e-003 3.81970988e-003 3.05576785e-003 5.34759369e-003
      5.34759369e-003 9.93124582e-003 4.58365167e-003 1.98624916e-002
      1.22230714e-002 8.40336177e-003 5.34759369e-003 1.52788393e-003
      1.14591299e-002 3.81970988e-003 7.63941975e-003 5.34759369e-003
      8.40336177e-003 6.11153571e-003 9.16730333e-003 1.52788393e-003
      2.29182583e-003 6.11153571e-003 6.11153571e-003 6.11153571e-003
      1.52788393e-003 5.34759369e-003 3.81970988e-003 3.05576785e-003
      3.05576785e-003 7.63941964e-004 8.40336177e-003 1.06951874e-002
      1.22230714e-002 6.11153571e-003 6.11153571e-003 6.11153571e-003
      1.37509555e-002 4.58365167e-003 6.11153571e-003 3.81970988e-003
      5.34759369e-003 6.11153571e-003 1.52788393e-003 6.11153571e-003 0.
      2.29182583e-003 6.11153571e-003 3.81970988e-003 3.05576785e-003
      6.11153571e-003 1.45148970e-002 6.87547773e-003 1.52788395e-002
      1.14591299e-002 1.22230714e-002 9.16730333e-003 2.06264332e-002
      5.34759369e-003 3.05576785e-003 5.34759369e-003 4.58365167e-003
      6.87547773e-003 9.93124582e-003 9.16730333e-003 9.93124582e-003
      4.58365167e-003 3.05576785e-003 1.22230714e-002 1.52788393e-003
      5.34759369e-003 9.93124582e-003 2.29182583e-003 2.29182583e-003
      9.16730333e-003 1.06951874e-002 1.14591299e-002 4.58365167e-003
      6.87547773e-003 1.52788393e-003 6.11153571e-003 5.34759369e-003
      9.93124582e-003 6.87547773e-003 6.11153571e-003 6.87547773e-003
      3.81970988e-003 7.63941964e-004 1.06951874e-002 1.14591299e-002
      1.14591299e-002 1.06951874e-002 4.58365167e-003 1.45148970e-002
      6.87547773e-003 1.52788395e-002 7.63941975e-003 7.63941964e-004
      5.34759369e-003 4.58365167e-003 2.29182583e-003 1.52788395e-002
      4.58365167e-003 1.29870130e-002 3.81970988e-003 6.11153571e-003
      1.52788393e-003 3.81970988e-003 9.93124582e-003 7.63941975e-003
      1.52788393e-003 6.87547773e-003 4.58365167e-003 9.93124582e-003
      5.34759369e-003 2.29182583e-003 4.58365167e-003 5.34759369e-003
      4.58365167e-003 2.29182583e-003 1.52788393e-003 0. 3.05576785e-003
      7.63941975e-003 1.14591299e-002 9.16730333e-003 3.81970988e-003
      7.63941975e-003 1.52788393e-003 7.63941975e-003</_>
    <_>
      6.10287720e-003 4.35919780e-003 6.10287720e-003 2.00523101e-002
      1.04620755e-002 9.59023554e-003 2.61551887e-003 3.48735834e-003
      1.39494333e-002 7.84655660e-003 6.97471667e-003 6.10287720e-003
      4.35919780e-003 2.61551887e-003 2.09241509e-002 1.30775934e-002
      3.48735834e-003 1.04620755e-002 2.61551887e-003 5.23103774e-003
      1.65649522e-002 6.97471667e-003 2.61551887e-003 6.97471667e-003
      1.04620755e-002 5.23103774e-003 6.97471667e-003 0. 1.56931132e-002
      2.61551887e-003 8.71839584e-004 6.97471667e-003 2.61551887e-003
      5.23103774e-003 5.23103774e-003 3.48735834e-003 7.84655660e-003
      3.48735834e-003 6.10287720e-003 1.48212733e-002 6.97471667e-003
      8.71839584e-004 8.71839561e-003 2.61551887e-003 6.97471667e-003
      2.61551887e-003 3.48735834e-003 2.61551887e-003 6.97471667e-003
      5.23103774e-003 5.23103774e-003 1.22057544e-002 7.84655660e-003
      8.71839584e-004 5.23103774e-003 5.23103774e-003 3.48735834e-003
      4.35919780e-003 4.35919780e-003 5.23103774e-003 2.61551887e-003
      3.48735834e-003 1.13339145e-002 8.71839584e-004 1.04620755e-002
      1.13339145e-002 3.48735834e-003 4.35919780e-003 1.74367917e-003
      8.71839584e-004 6.10287720e-003 1.13339145e-002 5.23103774e-003
      1.04620755e-002 8.71839561e-003 2.61551887e-003 1.48212733e-002
      2.78988667e-002 3.48735834e-003 2.61551887e-003 6.10287720e-003
      6.10287720e-003 5.23103774e-003 1.39494333e-002 6.10287720e-003
      4.35919780e-003 4.35919780e-003 8.71839584e-004 7.84655660e-003
      1.74367917e-003 1.74367917e-003 6.97471667e-003 2.61551887e-003
      3.48735834e-003 1.83086321e-002 1.74367917e-003 8.71839561e-003
      4.35919780e-003 1.74367917e-003 6.97471667e-003 6.97471667e-003
      1.56931132e-002 3.48735834e-003 8.71839561e-003 3.48735834e-003
      8.71839584e-004 7.84655660e-003 3.48735834e-003 6.10287720e-003
      4.35919780e-003 6.97471667e-003 3.48735834e-003 7.84655660e-003
      1.65649522e-002 1.74367917e-003 5.23103736e-002 4.35919780e-003
      2.61551887e-003 4.35919780e-003 5.23103774e-003 8.71839584e-004
      3.57454233e-002 3.48735834e-003 1.04620755e-002 6.10287720e-003
      4.35919780e-003 4.35919780e-003 5.23103774e-003 1.04620755e-002
      6.97471667e-003 8.71839584e-004 8.71839584e-004 5.23103774e-003
      2.61551887e-003 4.35919780e-003 2.61551887e-003 4.35919780e-003
      6.97471667e-003 1.74367917e-003 5.23103774e-003 6.10287720e-003
      4.35919780e-003 2.61551887e-003 8.71839561e-003 7.84655660e-003
      3.48735834e-003 7.84655660e-003 2.61551887e-003 6.97471667e-003
      1.04620755e-002</_>
    <_>
      3.05810408e-003 0. 0. 5.81039786e-002 0. 3.05810408e-003
      6.11620815e-003 2.75229365e-002 6.11620815e-003 0. 1.83486249e-002
      6.11620815e-003 3.05810408e-003 3.05810408e-003 3.05810408e-003 0.
      3.05810408e-003 1.22324163e-002 3.05810408e-003 0. 0. 0. 0. 0.
      3.05810408e-003 0. 9.17431246e-003 6.11620815e-003 1.83486249e-002
      0. 6.11620815e-003 3.05810408e-003 1.22324163e-002 3.05810408e-003
      0. 6.11620815e-003 0. 3.05810408e-003 3.05810408e-003 0.
      4.58715595e-002 3.05810408e-003 3.05810408e-003 0. 0.
      6.11620815e-003 1.22324163e-002 3.05810403e-002 0. 0. 0.
      6.11620815e-003 0. 6.11620815e-003 3.05810408e-003 6.11620815e-003
      9.17431246e-003 0. 0. 0. 0. 3.05810408e-003 9.17431246e-003
      3.05810408e-003 0. 0. 6.11620815e-003 2.14067288e-002
      1.83486249e-002 0. 0. 9.17431246e-003 0. 1.52905202e-002 0.
      3.05810408e-003 0. 1.52905202e-002 1.22324163e-002 6.11620815e-003
      0. 4.58715595e-002 3.05810408e-003 6.11620815e-003 2.14067288e-002
      6.11620815e-003 2.75229365e-002 6.11620815e-003 2.44648326e-002
      3.66972499e-002 6.11620815e-003 6.11620815e-003 0. 3.05810408e-003
      0. 6.11620815e-003 0. 0. 3.05810408e-003 3.05810408e-003 0.
      6.11620815e-003 0. 0. 0. 3.05810408e-003 2.75229365e-002 0.
      3.05810408e-003 3.05810408e-003 3.05810408e-003 0. 0.
      9.17431246e-003 4.28134575e-002 2.44648326e-002 6.11620815e-003
      2.75229365e-002 3.05810408e-003 0. 3.05810408e-003 2.75229365e-002
      0. 1.22324163e-002 0. 1.83486249e-002 6.11620815e-003 0.
      3.05810408e-003 3.05810408e-003 0. 3.05810408e-003 3.05810408e-003
      6.11620815e-003 0. 0. 0. 3.05810408e-003 6.11620815e-003
      2.44648326e-002 0. 3.05810408e-003 3.05810408e-003 6.11620815e-003
      9.17431246e-003 3.05810408e-003 0. 0. 3.05810408e-003
      6.11620815e-003</_>
    <_>
      2.94985250e-003 0. 0. 6.19469024e-002 2.94985250e-003
      2.94985250e-003 0. 2.06489675e-002 8.84955749e-003 5.89970499e-003
      0. 0. 2.94985250e-003 2.35988200e-002 2.94985250e-003
      7.37463087e-002 0. 2.65486725e-002 0. 5.89970499e-003
      5.89970499e-003 0. 2.94985250e-003 8.84955749e-003 1.17994100e-002
      0. 0. 2.94985250e-002 1.76991150e-002 2.94985250e-003 0. 0.
      2.94985250e-003 0. 0. 0. 0. 2.35988200e-002 0. 0. 5.89970499e-003
      5.89970499e-003 0. 1.76991150e-002 1.76991150e-002 0.
      5.89970499e-003 2.94985250e-003 2.94985250e-003 2.94985250e-003 0.
      5.89970499e-003 0. 0. 0. 5.89970499e-003 0. 0. 0. 0. 0.
      2.94985250e-003 0. 0. 2.94985250e-003 1.17994100e-002
      2.94985250e-003 2.94985250e-003 0. 5.89970499e-003 0. 0. 0. 0.
      8.84955749e-003 2.94985250e-003 2.94985250e-003 1.17994100e-002
      2.94985250e-003 2.94985250e-003 0. 2.94985250e-003 2.94985250e-003
      8.84955749e-003 1.76991150e-002 5.89970499e-003 5.89970499e-003 0.
      5.89970499e-003 5.89970499e-003 0. 8.84955749e-003 2.94985250e-003
      0. 0. 2.94985250e-003 2.94985250e-003 0. 8.84955749e-003 0. 0.
      7.66961649e-002 2.94985250e-003 5.89970499e-003 0. 2.94985250e-003
      8.84955749e-003 8.84955749e-003 1.17994100e-002 0. 2.94985250e-003
      3.24483775e-002 2.94985250e-003 0. 3.24483775e-002 4.42477874e-002
      2.94985250e-003 8.84955749e-002 0. 0. 0. 4.12979349e-002 0.
      2.94985250e-003 2.06489675e-002 0. 2.94985250e-003 0. 0.
      2.94985250e-003 5.89970499e-003 0. 5.89970499e-003 0. 0. 0. 0.
      5.89970499e-003 0. 2.94985250e-003 0. 2.94985250e-003 0. 0. 0. 0.
      2.94985250e-003 0. 2.94985250e-003 8.84955749e-003</_>
    <_>
      1.92307699e-002 0. 0. 7.69230798e-002 3.84615399e-002 0. 0. 0.
      1.92307699e-002 3.84615399e-002 1.92307699e-002 0. 0. 0. 0. 0.
      1.92307699e-002 0. 0. 0. 0. 1.92307699e-002 0. 0. 1.92307699e-002
      0. 0. 0. 0. 0. 1.92307699e-002 0. 0. 0. 1.92307699e-002 0.
      1.92307699e-002 0. 0. 1.92307699e-002 0. 0. 0. 0. 0.
      1.92307699e-002 0. 1.92307699e-002 0. 1.92307699e-002
      1.92307699e-002 0. 0. 0. 0. 0. 0. 0. 0. 1.92307699e-002 0. 0.
      1.92307699e-002 0. 0. 0. 0. 0. 0. 0. 0. 1.92307699e-002 0. 0. 0.
      0. 1.92307699e-002 3.84615399e-002 0. 3.84615399e-002 0. 0.
      1.92307699e-002 0. 0. 0. 1.92307699e-002 0. 0. 1.92307699e-002 0.
      0. 0. 0. 0. 0. 0. 0. 0. 0. 0. 1.92307699e-002 0. 0. 0. 0. 0. 0. 0.
      3.84615399e-002 1.92307699e-002 0. 0. 0. 0. 1.92307699e-002 0. 0.
      0. 0. 5.76923117e-002 3.84615399e-002 0. 0. 0. 1.92307699e-002 0.
      0. 0. 0. 0. 0. 0. 1.92307699e-002 0. 1.92307699e-002 0. 0. 0. 0.
      1.92307699e-002 3.84615399e-002 1.92307699e-002 1.92307699e-002 0.
      0. 1.92307699e-002 0. 0. 0.</_>
    <_>
      9.99999978e-003 0. 0. 4.99999989e-003 0. 1.49999997e-002
      9.99999978e-003 5.99999987e-002 0. 4.99999989e-003 9.99999978e-003
      0. 9.99999978e-003 4.99999989e-003 0. 4.99999989e-003
      4.99999989e-003 0. 0. 4.99999989e-003 0. 9.99999978e-003
      4.99999989e-003 9.99999978e-003 4.99999989e-003 0. 4.99999989e-003
      0. 0. 0. 9.99999978e-003 0. 0. 0. 0. 0. 0. 4.99999989e-003
      1.49999997e-002 4.99999989e-003 4.99999989e-003 4.99999989e-003 0.
      1.49999997e-002 4.99999989e-003 0. 1.49999997e-002 9.99999978e-003
      0. 4.99999989e-003 4.99999989e-003 4.99999989e-003 4.99999989e-003
      9.99999978e-003 0. 0. 9.99999978e-003 9.99999978e-003 0.
      4.99999989e-003 4.99999989e-003 0. 0. 4.99999989e-003 0. 0.
      4.99999989e-003 1.49999997e-002 2.49999985e-002 1.99999996e-002
      4.99999989e-003 4.99999989e-003 0. 4.99999989e-003 9.99999978e-003
      1.49999997e-002 0. 4.99999989e-003 1.49999997e-002 0.
      4.99999989e-003 1.99999996e-002 1.49999997e-002 4.99999989e-003
      1.49999997e-002 2.99999993e-002 4.99999989e-003 1.99999996e-002
      9.99999978e-003 1.49999997e-002 0. 4.99999989e-003 4.99999989e-003
      4.99999989e-003 0. 4.99999989e-003 4.99999989e-003 1.99999996e-002
      1.49999997e-002 4.99999989e-003 4.99999989e-003 0. 9.99999978e-003
      0. 0. 0. 9.99999978e-003 4.99999989e-003 1.49999997e-002 0.
      4.99999989e-003 4.99999989e-003 0. 9.99999978e-003 3.50000001e-002
      4.99999989e-003 0. 2.99999993e-002 0. 0. 4.99999989e-003
      9.99999978e-003 0. 4.99999989e-003 1.49999997e-002 2.49999985e-002
      0. 9.99999978e-003 0. 0. 4.99999989e-003 0. 4.99999989e-003
      1.49999997e-002 4.99999989e-003 4.99999989e-003 1.49999997e-002
      4.99999989e-003 4.99999989e-003 4.99999989e-003 0. 0. 0.
      4.99999989e-003 4.99999989e-003 0. 4.99999989e-003 1.49999997e-002
      9.99999978e-003 2.49999985e-002</_>
    <_>
      3.92156886e-003 0. 3.92156886e-003 7.84313753e-002 3.92156886e-003
      1.56862754e-002 3.92156886e-003 9.41176564e-002 3.92156886e-003
      3.92156886e-003 0. 0. 1.96078438e-002 0. 0. 1.96078438e-002 0.
      7.84313772e-003 0. 1.96078438e-002 7.84313772e-003 0.
      3.92156886e-003 3.92156886e-003 3.92156886e-003 3.92156886e-003 0.
      1.56862754e-002 0. 3.92156886e-003 1.17647070e-002 3.92156886e-003
      0. 1.17647070e-002 3.92156886e-003 0. 3.92156886e-003
      3.92156886e-003 0. 0. 3.92156886e-003 0. 0. 0. 3.92156886e-003 0.
      3.92156886e-003 0. 0. 0. 7.84313772e-003 0. 1.56862754e-002 0. 0.
      3.92156886e-003 3.92156886e-003 0. 3.92156886e-003 0.
      3.92156886e-003 0. 7.84313772e-003 0. 7.84313772e-003
      3.92156886e-003 0. 0. 0. 3.92156886e-003 3.92156886e-003 0. 0.
      7.84313772e-003 1.56862754e-002 3.52941193e-002 0. 3.92156886e-003
      3.92156886e-003 7.84313772e-003 3.92156886e-003 7.84313772e-003 0.
      0. 7.84313772e-003 3.92156886e-003 3.92156886e-003 0. 0. 0.
      1.56862754e-002 7.84313772e-003 3.92156886e-003 1.56862754e-002 0.
      7.84313772e-003 7.84313772e-003 0. 3.92156886e-003 0.
      3.92156886e-003 1.17647070e-002 3.92156886e-003 3.92156886e-003
      3.92156886e-003 1.17647070e-002 0. 0. 1.96078438e-002
      1.17647070e-002 0. 1.17647070e-002 0. 3.92156886e-003
      7.84313772e-003 7.84313772e-003 0. 1.29411772e-001 0.
      1.17647070e-002 2.35294141e-002 1.56862754e-002 3.92156886e-003 0.
      7.84313772e-003 3.92156886e-003 0. 3.92156886e-003 3.92156886e-003
      3.92156886e-003 4.31372561e-002 3.92156886e-003 3.92156886e-003 0.
      3.92156886e-003 3.92156886e-003 0. 0. 0. 3.92156886e-003 0. 0.
      3.92156886e-003 0. 0. 3.92156886e-003 7.84313772e-003 0.
      3.92156886e-003 3.92156886e-003</_>
    <_>
      0. 0. 0. 7.03125000e-002 0. 3.90625000e-002 0. 0. 0. 0.
      1.56250000e-002 0. 1.56250000e-002 0. 1.56250000e-002
      7.81250000e-003 7.81250000e-003 1.56250000e-002 0. 0.
      1.56250000e-002 7.81250000e-003 0. 1.56250000e-002 0. 0. 0.
      2.34375000e-002 3.90625000e-002 0. 1.56250000e-002 0. 0. 0. 0. 0.
      1.56250000e-002 1.56250000e-002 2.34375000e-002 7.81250000e-003
      7.81250000e-003 0. 0. 0. 2.34375000e-002 7.81250000e-003
      7.81250000e-003 0. 0. 3.90625000e-002 0. 0. 7.81250000e-003 0. 0.
      0. 7.81250000e-003 0. 0. 7.81250000e-003 0. 0. 0. 0. 0. 0. 0. 0.
      0. 0. 0. 2.34375000e-002 0. 1.56250000e-002 1.56250000e-002
      2.34375000e-002 0. 2.34375000e-002 7.81250000e-003 0.
      7.81250000e-003 0. 0. 3.90625000e-002 3.12500000e-002
      3.12500000e-002 0. 0. 0. 0. 7.81250000e-003 0. 0. 7.81250000e-003
      7.81250000e-003 0. 7.81250000e-003 0. 3.12500000e-002 0.
      7.81250000e-003 7.81250000e-003 0. 7.81250000e-003 0. 0.
      7.81250000e-003 0. 0. 7.81250000e-003 0. 7.81250000e-003 0. 0.
      1.56250000e-002 3.12500000e-002 0. 3.90625000e-002 0.
      7.81250000e-003 0. 0. 2.34375000e-002 0. 7.81250000e-003 0. 0.
      7.81250000e-003 1.56250000e-002 0. 0. 7.81250000e-003 0. 0. 0. 0.
      0. 7.81250000e-003 0. 0. 0. 0. 0. 1.56250000e-002 0. 0.
      7.81250000e-003 7.81250000e-003 0. 0.</_>
    <_>
      4.58715577e-003 0. 0. 4.58715577e-003 9.17431153e-003
      3.21100913e-002 0. 1.37614673e-002 4.58715577e-003 0.
      1.37614673e-002 0. 9.17431153e-003 0. 1.83486231e-002 0. 0.
      1.37614673e-002 0. 1.83486231e-002 0. 0. 4.58715577e-003
      1.37614673e-002 2.29357779e-002 0. 4.58715577e-003 0.
      2.29357779e-002 4.58715577e-003 9.17431153e-003 4.58715577e-003
      9.17431153e-003 4.58715577e-003 0. 4.58715577e-003 4.58715577e-003
      4.58715577e-003 0. 9.17431153e-003 0. 4.58715577e-003
      4.58715577e-003 9.17431153e-003 4.58715577e-003 4.58715577e-003
      1.83486231e-002 4.58715577e-003 4.58715577e-003 0. 9.17431153e-003
      0. 1.37614673e-002 9.17431153e-003 0. 0. 9.17431153e-003
      9.17431153e-003 0. 0. 4.58715577e-003 0. 0. 4.58715577e-003
      4.58715577e-003 1.83486231e-002 0. 1.37614673e-002 3.66972461e-002
      0. 1.37614673e-002 4.58715577e-003 4.58715577e-003 0.
      1.83486231e-002 0. 0. 2.75229346e-002 9.17431153e-003
      9.17431153e-003 0. 0. 0. 2.29357779e-002 0. 4.58715577e-003
      9.17431153e-003 9.17431153e-003 1.37614673e-002 0. 4.58715577e-003
      4.58715577e-003 0. 0. 1.37614673e-002 1.37614673e-002
      1.83486231e-002 0. 1.83486231e-002 0. 4.58715577e-003
      9.17431153e-003 0. 9.17431153e-003 4.58715577e-003 1.83486231e-002
      0. 0. 0. 0. 4.58715577e-003 4.58715577e-003 1.83486231e-002 0.
      3.21100913e-002 4.58715558e-002 0. 1.83486231e-002 0. 0. 0. 0. 0.
      1.83486231e-002 1.37614673e-002 0. 1.37614673e-002 0.
      4.58715577e-003 4.58715577e-003 4.58715577e-003 9.17431153e-003
      4.58715577e-003 4.58715577e-003 0. 4.58715577e-003 9.17431153e-003
      4.58715577e-003 9.17431153e-003 9.17431153e-003 0. 9.17431153e-003
      0. 4.58715577e-003 0. 4.58715577e-003 4.58715577e-003
      4.58715577e-003 4.58715577e-003 9.17431153e-003</_>
    <_>
      3.77833750e-003 3.77833750e-003 1.00755664e-002 4.15617116e-002 0.
      1.25944579e-003 1.25944579e-003 2.51889159e-003 3.90428193e-002
      3.77833750e-003 2.26700250e-002 6.29722886e-003 1.25944579e-003
      3.77833750e-003 3.02267000e-002 1.25944579e-003 2.51889159e-003 0.
      2.51889159e-003 0. 1.25944579e-003 5.03778318e-003 1.25944579e-003
      2.51889159e-003 3.77833750e-003 1.25944579e-003 3.77833750e-003
      1.25944579e-003 1.38539039e-002 0. 0. 3.77833750e-003 0.
      2.14105789e-002 1.25944579e-003 2.26700250e-002 6.29722886e-003
      3.77833750e-003 1.13350125e-002 1.63727961e-002 1.25944579e-003
      5.03778318e-003 7.55667500e-003 1.25944579e-003 1.25944579e-003
      6.29722886e-003 1.25944579e-003 6.29722886e-003 0. 1.25944579e-003
      1.25944579e-003 1.63727961e-002 3.77833750e-003 1.25944579e-003
      2.51889159e-003 2.51889159e-003 1.13350125e-002 5.03778318e-003
      5.03778318e-003 2.51889159e-003 8.81612021e-003 6.29722886e-003
      7.55667500e-003 0. 8.81612021e-003 1.25944579e-003 3.77833750e-003
      6.29722886e-003 3.77833750e-003 1.25944579e-003 6.29722886e-003
      1.00755664e-002 5.03778318e-003 1.00755664e-002 5.03778318e-003
      2.51889159e-003 1.13350125e-002 2.77078077e-002 2.51889159e-003
      6.29722886e-003 2.51889159e-003 2.51889159e-003 1.25944579e-003
      2.26700250e-002 2.51889159e-003 6.29722886e-003 5.03778318e-003
      3.77833750e-003 3.77833750e-003 2.51889159e-003 3.77833750e-003
      8.81612021e-003 6.29722886e-003 1.13350125e-002 7.55667500e-003 0.
      1.51133500e-002 1.25944579e-003 0. 1.25944579e-003 6.29722886e-003
      5.03778318e-003 1.00755664e-002 1.25944579e-003 5.03778318e-003
      3.77833750e-003 1.25944579e-003 0. 3.77833750e-003 5.79345077e-002
      1.00755664e-002 0. 1.25944579e-003 1.76322404e-002 0.
      4.78589386e-002 6.29722886e-003 0. 1.25944579e-003 8.81612021e-003
      5.03778318e-003 3.77833731e-002 1.00755664e-002 1.51133500e-002
      1.25944579e-003 1.25944579e-003 0. 1.00755664e-002 1.00755664e-002
      5.03778318e-003 1.00755664e-002 1.25944579e-003 1.25944579e-003
      7.55667500e-003 2.51889159e-003 2.51889159e-003 6.29722886e-003
      6.29722886e-003 1.25944579e-003 0. 6.29722886e-003 3.77833750e-003
      1.00755664e-002 1.13350125e-002 6.29722886e-003 3.77833750e-003
      1.25944579e-003 0. 5.03778318e-003 5.03778318e-003</_>
    <_>
      9.90098994e-003 9.90098994e-003 0. 9.90098994e-003 2.47524753e-002
      0. 4.95049497e-003 0. 1.98019799e-002 9.90098994e-003
      1.48514844e-002 4.95049497e-003 0. 1.48514844e-002 1.98019799e-002
      9.90098994e-003 9.90098994e-003 9.90098994e-003 4.95049497e-003
      4.95049497e-003 4.95049497e-003 9.90098994e-003 0. 0.
      4.95049497e-003 0. 1.48514844e-002 4.95049497e-003 2.97029689e-002
      0. 9.90098994e-003 9.90098994e-003 0. 1.98019799e-002
      1.48514844e-002 2.47524753e-002 0. 4.95049497e-003 1.48514844e-002
      3.46534662e-002 0. 4.95049497e-003 9.90098994e-003 0.
      9.90098994e-003 0. 0. 0. 4.95049497e-003 0. 0. 9.90098994e-003
      4.95049497e-003 0. 0. 4.95049497e-003 4.95049497e-003 0.
      4.95049497e-003 0. 0. 4.95049497e-003 4.95049497e-003 0.
      1.48514844e-002 0. 0. 9.90098994e-003 0. 4.95049497e-003
      4.95049497e-003 0. 0. 9.90098994e-003 1.98019799e-002
      9.90098994e-003 9.90098994e-003 4.95049497e-003 0. 0.
      9.90098994e-003 0. 0. 3.46534662e-002 0. 9.90098994e-003 0. 0.
      4.95049497e-003 4.95049497e-003 0. 1.48514844e-002 9.90098994e-003
      0. 1.48514844e-002 4.95049497e-003 1.48514844e-002 0. 0. 0.
      4.95049497e-003 1.48514844e-002 0. 4.95049497e-003 9.90098994e-003
      1.98019799e-002 0. 0. 9.90098994e-003 0. 4.95049497e-003
      9.90098994e-003 0. 9.90098994e-003 4.95049497e-003 3.46534662e-002
      4.95049497e-003 0. 0. 1.98019799e-002 1.98019799e-002 0. 0.
      9.90098994e-003 4.95049497e-003 0. 0. 0. 0. 2.47524753e-002
      9.90098994e-003 4.95049497e-003 4.95049497e-003 9.90098994e-003 0.
      0. 9.90098994e-003 9.90098994e-003 4.95049497e-003 0.
      9.90098994e-003 0. 1.48514844e-002 4.95049497e-003 4.95049497e-003
      9.90098994e-003 9.90098994e-003 4.95049497e-003 4.95049497e-003 0.</_>
    <_>
      6.46551698e-003 2.15517241e-003 0. 2.37068962e-002 8.62068962e-003
      1.93965510e-002 4.31034481e-003 2.58620679e-002 0. 8.62068962e-003
      2.37068962e-002 2.15517241e-003 8.62068962e-003 0. 1.93965510e-002
      4.31034481e-003 1.29310340e-002 8.62068962e-003 6.46551698e-003
      2.15517245e-002 2.15517241e-003 8.62068962e-003 1.72413792e-002
      2.15517245e-002 2.15517241e-003 0. 2.15517241e-003 0.
      1.93965510e-002 0. 2.15517241e-003 2.15517241e-003 4.31034481e-003
      2.15517241e-003 0. 8.62068962e-003 2.15517241e-003 8.62068962e-003
      8.62068962e-003 4.31034481e-003 4.31034481e-003 2.15517241e-003
      8.62068962e-003 2.15517241e-003 8.62068962e-003 0. 6.46551698e-003
      4.31034481e-003 4.31034481e-003 2.15517241e-003 2.15517241e-003
      2.15517241e-003 1.29310340e-002 8.62068962e-003 4.31034481e-003
      6.46551698e-003 8.62068962e-003 8.62068962e-003 0. 0.
      4.31034481e-003 0. 6.46551698e-003 4.31034481e-003 2.15517241e-003
      6.46551698e-003 2.15517241e-003 4.31034481e-003 1.93965510e-002
      2.15517241e-003 2.80172415e-002 6.46551698e-003 0. 6.46551698e-003
      1.07758623e-002 2.15517241e-003 8.62068962e-003 2.58620679e-002
      1.07758623e-002 2.15517241e-003 6.46551698e-003 8.62068962e-003
      2.15517241e-003 8.62068962e-003 6.46551698e-003 4.31034481e-003
      6.46551698e-003 1.50862066e-002 1.07758623e-002 6.46551698e-003
      6.46551698e-003 2.15517241e-003 0. 1.07758623e-002 8.62068962e-003
      1.07758623e-002 6.46551698e-003 4.31034481e-003 1.29310340e-002
      2.15517241e-003 1.07758623e-002 4.31034481e-003 6.46551698e-003
      4.31034481e-003 0. 4.31034481e-003 0. 0. 4.31034481e-003 0.
      1.93965510e-002 6.46551698e-003 8.62068962e-003 0. 3.66379321e-002
      4.95689660e-002 2.15517241e-003 6.46551698e-003 0. 4.31034481e-003
      2.15517241e-003 1.07758623e-002 4.31034481e-003 1.07758623e-002
      8.62068962e-003 4.31034481e-003 4.31034481e-003 0. 2.15517241e-003
      0. 6.46551698e-003 8.62068962e-003 2.15517241e-003 6.46551698e-003
      0. 2.15517241e-003 8.62068962e-003 8.62068962e-003 0.
      2.15517241e-003 0. 2.15517241e-003 0. 4.31034481e-003 0.
      8.62068962e-003 2.15517241e-003 0. 2.15517241e-003 6.46551698e-003</_>
    <_>
      0. 0. 0. 6.09137043e-002 0. 1.52284261e-002 5.07614203e-003
      5.07614203e-003 2.03045681e-002 0. 3.55329961e-002 0.
      1.01522841e-002 0. 0. 5.07614203e-003 1.01522841e-002
      5.07614203e-003 5.07614203e-003 2.53807101e-002 0. 0.
      1.52284261e-002 1.52284261e-002 5.07614203e-003 2.03045681e-002 0.
      5.07614203e-003 3.55329961e-002 0. 1.01522841e-002 0.
      1.01522841e-002 0. 0. 5.07614203e-003 0. 0. 1.52284261e-002
      1.01522841e-002 1.01522841e-002 1.01522841e-002 5.07614203e-003 0.
      0. 0. 1.52284261e-002 5.07614203e-003 0. 0. 2.03045681e-002
      5.07614203e-003 1.52284261e-002 2.03045681e-002 1.01522841e-002
      5.07614203e-003 5.07614203e-003 1.01522841e-002 0. 1.01522841e-002
      0. 1.01522841e-002 0. 5.07614203e-003 0. 0. 5.07614203e-003 0.
      1.01522841e-002 1.01522841e-002 5.07614203e-003 1.01522841e-002
      5.07614203e-003 0. 0. 1.01522841e-002 1.01522841e-002
      5.07614203e-003 1.52284261e-002 0. 5.07614203e-003 1.01522841e-002
      1.01522841e-002 0. 2.53807101e-002 1.01522841e-002 1.01522841e-002
      4.06091362e-002 0. 0. 5.07614203e-003 5.07614203e-003 0. 0.
      5.07614203e-003 0. 5.07614203e-003 5.07614203e-003 0. 0.
      2.53807101e-002 0. 5.07614203e-003 1.01522841e-002 0.
      1.01522841e-002 1.01522841e-002 0. 1.01522841e-002 0.
      5.07614203e-003 0. 0. 1.01522841e-002 1.52284261e-002
      5.07614203e-003 0. 5.07614203e-003 0. 1.01522841e-002 0.
      2.53807101e-002 0. 1.01522841e-002 5.07614203e-003 1.01522841e-002
      5.07614203e-003 0. 2.03045681e-002 0. 5.07614203e-003 0. 0.
      1.01522841e-002 0. 0. 2.03045681e-002 0. 5.07614203e-003
      5.07614203e-003 0. 0. 0. 0. 5.07614203e-003 0. 5.07614203e-003
      5.07614203e-003 0. 5.07614203e-003</_>
    <_>
      2.38726791e-002 2.65251985e-003 7.95755908e-003 2.65251985e-003
      5.30503970e-003 5.30503970e-003 0. 1.32625997e-002 2.65251985e-003
      1.59151182e-002 5.30503970e-003 2.65251985e-003 7.95755908e-003 0.
      2.65251985e-003 1.32625997e-002 0. 1.32625997e-002 5.30503970e-003
      2.65251985e-003 1.06100794e-002 2.65251985e-003 7.95755908e-003
      2.65251985e-003 2.65251985e-003 2.12201588e-002 5.30503970e-003
      7.95755908e-003 2.65251985e-003 0. 1.06100794e-002 7.95755908e-003
      5.30503970e-003 5.30503970e-003 5.30503970e-003 2.65251985e-003
      1.32625997e-002 2.65251985e-003 5.30503970e-003 7.95755908e-003
      7.95755908e-003 0. 2.65251985e-003 0. 5.30503970e-003
      7.95755908e-003 1.06100794e-002 2.91777179e-002 2.65251985e-003
      2.65251985e-003 5.30503970e-003 5.30503970e-003 2.65251985e-003 0.
      2.65251985e-003 2.65251985e-003 5.30503970e-003 0. 1.06100794e-002
      7.95755908e-003 5.30503970e-003 0. 5.30503970e-003 2.65251985e-003
      5.30503970e-003 2.65251985e-003 1.32625997e-002 7.95755908e-003
      1.85676385e-002 0. 1.32625997e-002 7.95755908e-003 1.06100794e-002
      1.06100794e-002 2.65251985e-003 2.65251994e-002 2.65251985e-003
      7.95755908e-003 7.95755908e-003 5.30503970e-003 0. 5.30503970e-003
      5.30503970e-003 7.95755908e-003 2.65251985e-003 1.06100794e-002
      1.06100794e-002 5.30503970e-003 1.59151182e-002 1.59151182e-002
      5.30503970e-003 0. 0. 3.97877991e-002 2.65251985e-003
      1.32625997e-002 7.95755908e-003 0. 0. 1.59151182e-002 0.
      1.06100794e-002 2.65251985e-003 0. 5.30503970e-003 1.85676385e-002
      1.32625997e-002 0. 5.30503970e-003 0. 2.65251985e-003
      2.65251985e-003 2.65251985e-003 5.30503970e-003 7.95755908e-003
      1.59151182e-002 7.95755908e-003 1.85676385e-002 5.30503970e-003
      5.30503970e-003 1.32625997e-002 5.30503970e-003 0. 5.30503970e-003
      5.30503970e-003 1.59151182e-002 2.65251985e-003 1.06100794e-002
      2.65251985e-003 0. 0. 2.65251985e-003 1.85676385e-002
      5.30503970e-003 5.30503970e-003 0. 5.30503970e-003 5.30503970e-003
      5.30503970e-003 1.32625997e-002 2.65251985e-003 2.38726791e-002
      5.30503970e-003 5.30503970e-003 2.65251985e-003 2.65251985e-003
      2.65251985e-003 5.30503970e-003 0. 2.65251985e-003</_>
    <_>
      1.83486240e-003 5.50458720e-003 3.66972480e-003 2.20183488e-002
      3.66972480e-003 1.28440373e-002 9.17431153e-003 3.66972480e-003
      9.17431153e-003 0. 1.83486231e-002 1.28440373e-002 3.66972480e-003
      3.66972480e-003 1.65137611e-002 7.33944960e-003 1.83486240e-003
      5.50458720e-003 7.33944960e-003 9.17431153e-003 1.65137611e-002
      1.28440373e-002 7.33944960e-003 1.10091744e-002 9.17431153e-003
      3.66972480e-003 9.17431153e-003 0. 5.50458720e-003 4.40366976e-002
      1.83486240e-003 3.66972480e-003 0. 5.50458720e-003 7.33944960e-003
      9.17431153e-003 0. 7.33944960e-003 1.46788992e-002 7.33944960e-003
      0. 5.50458720e-003 1.65137611e-002 1.83486240e-003 7.33944960e-003
      5.50458720e-003 1.83486240e-003 5.50458720e-003 1.83486240e-003 0.
      3.66972480e-003 1.10091744e-002 7.33944960e-003 5.50458720e-003 0.
      7.33944960e-003 1.46788992e-002 1.10091744e-002 3.66972480e-003
      7.33944960e-003 3.66972480e-003 1.83486240e-003 1.28440373e-002 0.
      9.17431153e-003 5.50458720e-003 9.17431153e-003 7.33944960e-003 0.
      9.17431153e-003 0. 1.65137611e-002 1.83486240e-003 1.46788992e-002
      5.50458720e-003 5.50458720e-003 5.50458720e-003 9.17431153e-003 0.
      3.66972480e-003 5.50458720e-003 5.50458720e-003 5.50458720e-003
      9.17431153e-003 9.17431153e-003 3.66972480e-003 9.17431153e-003
      5.50458720e-003 3.66972480e-003 7.33944960e-003 0. 7.33944960e-003
      5.50458720e-003 1.28440373e-002 3.66972480e-003 0. 9.17431153e-003
      3.66972480e-003 5.50458720e-003 9.17431153e-003 3.66972480e-003
      1.28440373e-002 9.17431153e-003 7.33944960e-003 5.50458720e-003
      3.66972480e-003 3.66972480e-003 0. 5.50458720e-003 3.66972480e-003
      3.66972480e-003 7.33944960e-003 1.83486240e-003 1.28440373e-002 0.
      7.33944960e-003 9.17431153e-003 1.83486240e-003 0. 0.
      1.83486240e-003 1.65137611e-002 1.46788992e-002 1.10091744e-002
      7.33944960e-003 3.66972480e-003 0. 1.83486240e-003 1.28440373e-002
      9.17431153e-003 3.66972480e-003 7.33944960e-003 7.33944960e-003
      1.10091744e-002 3.66972480e-003 7.33944960e-003 2.01834869e-002
      5.50458720e-003 5.50458720e-003 1.83486240e-003 5.50458720e-003
      3.66972480e-003 9.17431153e-003 1.28440373e-002 1.83486240e-003
      1.83486240e-003 5.50458720e-003 5.50458720e-003 3.66972480e-003
      5.50458720e-003</_>
    <_>
      8.87311471e-004 0. 1.77462294e-003 8.87311471e-004 3.54924588e-003
      8.87311471e-004 1.77462294e-003 5.32386871e-003 1.70363799e-001
      1.15350494e-002 2.39574090e-002 2.04081647e-002 8.87311471e-004
      6.21118024e-003 6.29991144e-002 8.87311471e-004 1.77462294e-003 0.
      2.12954748e-002 1.77462287e-002 0. 4.43655718e-003 2.66193436e-003
      1.77462294e-003 1.06477374e-002 1.77462294e-003 5.32386871e-003
      2.66193436e-003 2.30700988e-002 6.21118024e-003 5.32386871e-003
      1.77462294e-003 0. 1.15350494e-002 0. 1.24223605e-002
      1.77462294e-003 8.87311471e-004 2.66193436e-003 8.87311436e-003
      8.87311471e-004 1.77462294e-003 8.87311471e-004 8.87311471e-004
      1.77462294e-003 0. 0. 3.54924588e-003 1.77462294e-003
      8.87311471e-004 3.54924588e-003 1.41969835e-002 3.54924588e-003
      8.87311471e-004 8.87311471e-004 1.15350494e-002 3.01685892e-002
      9.76042636e-003 9.76042636e-003 4.43655718e-003 3.54924588e-003
      7.09849177e-003 4.43655718e-003 0. 3.54924588e-003 7.09849177e-003
      0. 0. 4.43655718e-003 1.77462294e-003 0. 5.32386871e-003
      8.87311471e-004 2.39574090e-002 1.77462294e-003 4.43655718e-003
      3.54924588e-003 9.76042636e-003 5.32386871e-003 1.77462294e-003
      1.77462294e-003 4.43655718e-003 4.43655718e-003 2.92812791e-002
      2.66193436e-003 1.77462294e-003 3.54924588e-003 4.43655718e-003 0.
      8.87311471e-004 3.54924588e-003 2.04081647e-002 1.77462294e-003
      1.77462294e-003 1.77462294e-003 2.66193436e-003 1.24223605e-002
      8.87311471e-004 1.77462294e-003 1.77462294e-003 5.32386871e-003
      8.87311471e-004 1.15350494e-002 3.54924588e-003 9.76042636e-003
      1.77462294e-003 0. 0. 5.32386871e-003 1.68589186e-002
      7.09849177e-003 4.43655718e-003 4.43655718e-003 1.50842946e-002
      5.32386871e-003 1.41969835e-002 6.21118024e-003 6.21118024e-003
      2.66193436e-003 1.77462294e-003 2.66193436e-003 1.41969835e-002
      5.32386871e-003 7.09849177e-003 0. 8.87311471e-004 0.
      2.66193436e-003 8.87311436e-003 3.54924588e-003 3.54924588e-003 0.
      1.77462294e-003 1.86335407e-002 5.32386871e-003 8.87311471e-004
      7.09849177e-003 0. 1.77462294e-003 0. 1.77462294e-003 0.
      2.66193436e-003 1.50842946e-002 1.06477374e-002 6.21118024e-003
      1.77462294e-003 1.77462294e-003 8.87311471e-004 3.54924588e-003</_>
    <_>
      0. 0. 0. 4.92610829e-003 0. 1.97044332e-002 4.92610829e-003 0.
      1.47783253e-002 1.47783253e-002 1.47783253e-002 1.47783253e-002 0.
      0. 0. 1.97044332e-002 9.85221658e-003 4.92610829e-003 0.
      4.92610829e-003 0. 4.92610829e-003 4.92610829e-003 0. 0. 0.
      1.97044332e-002 0. 4.92610829e-003 3.94088663e-002 0.
      4.92610829e-003 9.85221658e-003 0. 0. 4.92610829e-003 0.
      4.92610829e-003 9.85221658e-003 9.85221658e-003 0. 4.92610829e-003
      1.47783253e-002 1.97044332e-002 1.97044332e-002 0. 4.92610829e-003
      0. 1.47783253e-002 1.47783253e-002 0. 4.92610829e-003
      2.95566507e-002 4.92610829e-003 0. 4.92610829e-003 2.46305410e-002
      9.85221658e-003 4.92610829e-003 0. 4.92610829e-003 4.92610829e-003
      0. 0. 4.92610829e-003 4.92610829e-003 0. 0. 0. 2.95566507e-002
      4.92610829e-003 4.92610829e-003 0. 9.85221658e-003 9.85221658e-003
      0. 4.92610829e-003 0. 0. 0. 0. 9.85221658e-003 4.92610829e-003
      4.92610829e-003 4.92610829e-003 0. 1.97044332e-002 4.92610829e-003
      0. 0. 9.85221658e-003 4.92610829e-003 4.92610829e-003
      1.47783253e-002 0. 0. 1.97044332e-002 4.92610829e-003 0.
      9.85221658e-003 1.47783253e-002 3.44827585e-002 9.85221658e-003
      1.47783253e-002 4.92610829e-003 0. 0. 9.85221658e-003
      2.95566507e-002 0. 0. 9.85221658e-003 0. 4.92610829e-003
      9.85221658e-003 2.95566507e-002 0. 9.85221658e-003 0.
      4.92610829e-003 0. 4.92610829e-003 1.47783253e-002 1.47783253e-002
      2.95566507e-002 0. 1.47783253e-002 0. 0. 0. 0. 4.92610829e-003
      2.46305410e-002 0. 4.92610829e-003 9.85221658e-003 0.
      1.97044332e-002 0. 0. 0. 0. 0. 1.47783253e-002 0. 9.85221658e-003
      9.85221658e-003 4.92610829e-003 0. 4.92610829e-003</_>
    <_>
      3.92156886e-003 6.53594779e-003 1.30718958e-003 1.17647061e-002
      5.22875832e-003 1.17647061e-002 1.04575166e-002 2.48366017e-002
      1.56862754e-002 9.15032718e-003 1.43790850e-002 0. 3.92156886e-003
      0. 1.69934649e-002 7.84313772e-003 1.30718958e-003 2.61437916e-003
      1.30718958e-003 2.09150333e-002 3.92156886e-003 3.92156886e-003
      5.22875832e-003 5.22875832e-003 2.61437916e-003 6.53594779e-003
      9.15032718e-003 9.15032718e-003 2.09150333e-002 6.53594779e-003
      6.53594779e-003 3.92156886e-003 6.53594779e-003 1.43790850e-002
      1.30718958e-003 1.69934649e-002 3.92156886e-003 5.22875832e-003
      2.61437916e-003 3.92156886e-003 0. 2.61437916e-003 5.22875832e-003
      3.92156886e-003 1.30718958e-003 2.61437916e-003 2.61437916e-003
      2.61437916e-003 1.17647061e-002 1.30718958e-003 3.92156886e-003
      1.30718956e-002 5.22875832e-003 2.61437916e-003 7.84313772e-003
      2.61437916e-003 7.84313772e-003 5.22875832e-003 5.22875832e-003
      5.22875832e-003 3.92156886e-003 2.61437916e-003 1.30718958e-003
      2.61437916e-003 5.22875832e-003 5.22875832e-003 2.61437916e-003
      9.15032718e-003 2.61437916e-003 6.53594779e-003 5.22875832e-003
      2.61437916e-003 3.92156886e-003 1.43790850e-002 6.53594779e-003
      6.53594779e-003 7.84313772e-003 6.53594779e-003 7.84313772e-003
      5.22875832e-003 1.43790850e-002 1.04575166e-002 2.61437916e-003
      2.09150333e-002 2.61437916e-003 1.17647061e-002 6.53594779e-003
      3.92156886e-003 5.22875832e-003 7.84313772e-003 1.30718958e-003
      6.53594779e-003 0. 1.30718958e-003 1.17647061e-002 2.61437916e-003
      1.30718956e-002 1.96078438e-002 2.61437916e-003 3.92156886e-003
      1.30718958e-003 6.53594779e-003 3.92156886e-003 9.15032718e-003
      6.53594779e-003 6.53594779e-003 0. 6.53594779e-003 6.53594779e-003
      2.61437916e-003 1.04575166e-002 3.92156886e-003 1.30718958e-003
      1.69934649e-002 1.69934649e-002 1.30718956e-002 1.17647061e-002
      3.26797403e-002 1.30718958e-003 5.22875832e-003 1.30718958e-003
      6.53594779e-003 9.15032718e-003 1.04575166e-002 3.92156886e-003
      6.53594779e-003 3.92156886e-003 9.15032718e-003 1.17647061e-002
      5.22875832e-003 3.92156886e-003 1.30718958e-003 6.53594779e-003
      9.15032718e-003 3.92156886e-003 2.61437916e-003 3.92156886e-003
      1.43790850e-002 1.30718958e-003 6.53594779e-003 1.30718958e-003
      2.61437916e-003 3.92156886e-003 7.84313772e-003 3.92156886e-003
      5.22875832e-003 7.84313772e-003 9.15032718e-003 3.92156886e-003
      1.04575166e-002</_>
    <_>
      1.08024692e-002 3.08641978e-003 1.08024692e-002 7.71604944e-003
      7.71604944e-003 3.08641978e-003 1.54320989e-003 6.17283955e-003
      3.08641978e-002 4.62962966e-003 1.69753097e-002 7.71604944e-003
      3.08641978e-003 3.08641978e-003 2.46913582e-002 3.08641978e-003
      1.54320989e-003 6.17283955e-003 1.08024692e-002 1.54320989e-003
      1.54320989e-003 1.54320989e-003 3.08641978e-003 1.08024692e-002
      4.62962966e-003 6.17283955e-003 1.54320989e-003 4.62962966e-003
      1.38888890e-002 0. 6.17283955e-003 2.31481493e-002 0.
      1.08024692e-002 3.08641978e-003 6.17283955e-003 1.08024692e-002
      9.25925933e-003 6.17283955e-003 1.08024692e-002 4.62962966e-003
      4.62962966e-003 4.62962966e-003 3.08641978e-003 4.62962966e-003
      7.71604944e-003 9.25925933e-003 1.54320989e-003 4.62962966e-003
      4.62962966e-003 3.08641978e-003 1.08024692e-002 6.17283955e-003
      1.54320989e-003 1.54320989e-003 6.17283955e-003 1.38888890e-002
      6.17283955e-003 1.85185187e-002 1.54320989e-003 7.71604944e-003
      6.17283955e-003 6.17283955e-003 4.62962966e-003 1.08024692e-002
      3.08641978e-003 1.54320989e-003 1.54320989e-003 9.25925933e-003
      1.54320989e-003 0. 1.23456791e-002 6.17283955e-003 1.08024692e-002
      7.71604944e-003 6.17283955e-003 3.08641978e-003 1.69753097e-002
      1.54320989e-003 1.54320989e-003 1.08024692e-002 4.62962966e-003 0.
      2.93209888e-002 9.25925933e-003 3.08641978e-003 4.62962966e-003
      1.54320989e-003 6.17283955e-003 3.08641978e-003 1.08024692e-002
      7.71604944e-003 6.17283955e-003 1.54320989e-003 9.25925933e-003
      3.08641978e-003 1.38888890e-002 3.08641978e-003 1.54320989e-003 0.
      1.54320989e-003 7.71604944e-003 4.62962966e-003 1.38888890e-002
      7.71604944e-003 7.71604944e-003 4.62962966e-003 1.54320989e-003
      9.25925933e-003 1.08024692e-002 6.17283955e-003 3.08641978e-003
      1.54320989e-003 1.38888890e-002 6.17283955e-003 1.85185187e-002 0.
      1.85185187e-002 3.08641978e-003 7.71604944e-003 1.08024692e-002
      9.25925933e-003 4.62962966e-003 1.69753097e-002 4.62962966e-003
      1.54320989e-003 0. 4.62962966e-003 7.71604944e-003 3.08641978e-003
      3.08641978e-003 0. 3.08641978e-003 3.08641978e-003 9.25925933e-003
      1.54320989e-003 7.71604944e-003 1.08024692e-002 3.08641978e-003
      4.62962966e-003 7.71604944e-003 6.17283955e-003 9.25925933e-003
      1.85185187e-002 4.62962966e-003 4.62962966e-003 6.17283955e-003 0.
      7.71604944e-003 1.08024692e-002</_>
    <_>
      3.49650346e-003 2.44755242e-002 0. 1.04895104e-002 0. 0.
      1.04895104e-002 0. 3.49650346e-003 0. 1.39860138e-002 0.
      1.74825173e-002 0. 3.49650346e-003 0. 4.19580415e-002
      3.49650346e-003 0. 3.49650346e-003 1.39860138e-002 3.14685330e-002
      0. 0. 0. 0. 6.99300691e-003 0. 1.74825173e-002 6.99300691e-003 0.
      3.49650346e-003 0. 0. 0. 0. 3.49650346e-003 3.49650346e-003
      3.49650346e-003 7.34265745e-002 0. 0. 3.49650346e-003
      2.09790207e-002 6.99300691e-003 0. 3.49650346e-003 3.49650346e-003
      0. 1.04895104e-002 0. 1.04895104e-002 2.44755242e-002
      1.74825173e-002 0. 0. 3.49650346e-003 3.49650346e-003
      6.99300691e-003 0. 1.04895104e-002 3.49650346e-003 1.74825173e-002
      0. 3.49650346e-003 0. 0. 1.74825173e-002 3.49650346e-003
      2.44755242e-002 0. 1.04895104e-002 0. 1.39860138e-002 0. 0.
      4.54545468e-002 6.99300691e-003 0. 0. 6.99300691e-003
      1.04895104e-002 0. 2.09790207e-002 1.04895104e-002 1.39860138e-002
      1.74825173e-002 0. 1.04895104e-002 6.99300691e-003 0.
      6.99300691e-003 0. 1.74825173e-002 3.49650346e-003 0.
      1.39860138e-002 0. 6.99300691e-003 1.04895104e-002 1.04895104e-002
      3.49650346e-003 0. 0. 3.49650346e-003 3.49650346e-003 0. 0.
      1.04895104e-002 0. 1.74825173e-002 3.84615362e-002 3.49650346e-003
      0. 6.99300691e-003 4.89510484e-002 0. 0. 0. 0. 0. 3.49650346e-003
      1.39860138e-002 1.04895104e-002 3.49650346e-003 0. 0.
      1.04895104e-002 1.39860138e-002 1.04895104e-002 0. 3.49650346e-003
      0. 0. 1.04895104e-002 0. 0. 0. 0. 0. 0. 0. 3.49650346e-003
      3.49650346e-003 1.04895104e-002 3.49650346e-003 6.99300691e-003
      3.49650346e-003 6.99300691e-003 3.49650346e-003</_>
    <_>
      2.82087456e-003 8.46262369e-003 4.23131185e-003 1.41043728e-002 0.
      2.82087456e-003 8.46262369e-003 2.82087456e-003 1.97461210e-002 0.
      1.12834983e-002 5.64174913e-003 1.12834983e-002 2.82087456e-003
      1.41043728e-002 5.64174913e-003 7.05218641e-003 4.23131185e-003
      1.41043728e-003 2.82087456e-003 1.41043728e-003 2.82087456e-003
      4.23131185e-003 9.87306051e-003 5.64174913e-003 7.05218641e-003
      1.41043728e-003 5.64174913e-003 1.83356851e-002 1.41043728e-003
      2.82087456e-003 1.41043728e-003 1.41043728e-003 1.55148096e-002
      4.23131185e-003 1.26939360e-002 1.41043728e-003 5.64174913e-003
      5.64174913e-003 5.64174913e-003 5.64174913e-003 1.41043728e-003
      4.23131185e-003 2.82087456e-003 2.82087456e-003 5.64174913e-003
      2.82087456e-003 7.05218641e-003 1.41043728e-003 8.46262369e-003
      1.41043728e-003 1.41043728e-002 9.87306051e-003 4.23131185e-003
      1.41043728e-003 7.05218641e-003 9.87306051e-003 1.41043728e-002
      4.23131185e-003 2.82087456e-003 5.64174913e-003 4.23131185e-003
      4.23131185e-003 4.23131185e-003 7.05218641e-003 8.46262369e-003
      8.46262369e-003 1.26939360e-002 5.64174913e-003 0. 5.64174913e-003
      9.87306051e-003 5.64174913e-003 8.46262369e-003 1.41043728e-002
      4.23131185e-003 5.64174913e-003 1.69252474e-002 8.46262369e-003
      2.82087456e-003 7.05218641e-003 9.87306051e-003 5.64174913e-003
      1.97461210e-002 4.23131185e-003 1.41043728e-002 1.69252474e-002
      5.64174913e-003 1.26939360e-002 4.23131185e-003 8.46262369e-003
      4.23131185e-003 0. 2.82087456e-003 7.05218641e-003 8.46262369e-003
      1.12834983e-002 5.64174913e-003 2.82087456e-003 1.41043728e-003
      2.82087456e-003 4.23131185e-003 4.23131185e-003 8.46262369e-003
      7.05218641e-003 5.64174913e-003 0. 2.82087456e-003 4.23131185e-003
      2.25669965e-002 9.87306051e-003 4.23131185e-003 1.41043728e-003
      8.46262369e-003 5.64174913e-003 1.12834983e-002 2.82087456e-003 0.
      1.41043728e-003 8.46262369e-003 2.82087456e-003 1.26939360e-002
      1.12834983e-002 1.55148096e-002 8.46262369e-003 4.23131185e-003
      1.41043728e-003 1.26939360e-002 1.12834983e-002 1.69252474e-002
      7.05218641e-003 4.23131185e-003 1.41043728e-003 5.64174913e-003
      1.69252474e-002 1.41043728e-003 1.26939360e-002 9.87306051e-003
      8.46262369e-003 5.64174913e-003 2.82087456e-003 1.41043728e-003
      2.82087456e-003 4.23131185e-003 1.55148096e-002 4.23131185e-003
      5.64174913e-003 1.41043728e-002 2.82087456e-003 9.87306051e-003</_>
    <_>
      8.36820062e-003 0. 0. 1.04602510e-002 0. 4.18410031e-003
      6.27615023e-003 0. 1.67364012e-002 8.36820062e-003 1.46443509e-002
      2.09205016e-003 1.04602510e-002 2.09205016e-003 1.67364012e-002
      1.67364012e-002 1.25523005e-002 4.18410031e-003 4.18410031e-003
      2.09205016e-003 0. 1.04602510e-002 0. 1.04602510e-002 0.
      2.09205016e-003 1.88284516e-002 2.09205016e-003 1.67364012e-002
      6.27615023e-003 2.09205016e-003 6.27615023e-003 0. 1.88284516e-002
      4.18410031e-003 2.30125524e-002 2.09205016e-003 4.18410031e-003
      8.36820062e-003 6.27615023e-003 2.09205016e-003 0. 1.25523005e-002
      2.09205016e-003 6.27615023e-003 4.18410031e-003 1.25523005e-002
      2.09205016e-003 8.36820062e-003 0. 0. 2.30125524e-002
      6.27615023e-003 2.09205016e-003 0. 0. 2.09205016e-003
      6.27615023e-003 2.09205016e-003 0. 0. 4.18410031e-003
      1.25523005e-002 0. 1.46443509e-002 0. 2.09205016e-003
      1.25523005e-002 2.09205016e-003 2.09205016e-003 6.27615023e-003
      1.04602510e-002 0. 1.88284516e-002 1.67364012e-002 4.18410031e-003
      8.36820062e-003 2.09205020e-002 6.27615023e-003 4.18410031e-003
      2.09205020e-002 1.25523005e-002 4.18410031e-003 2.51046009e-002
      4.18410031e-003 1.67364012e-002 2.09205016e-003 2.09205016e-003
      6.27615023e-003 0. 2.09205016e-003 2.09205016e-003 2.09205016e-003
      2.30125524e-002 8.36820062e-003 2.09205016e-003 2.92887017e-002
      1.04602510e-002 0. 4.18410031e-003 4.18410031e-003 4.18410031e-003
      2.09205016e-003 1.46443509e-002 6.27615023e-003 4.18410031e-003 0.
      2.09205016e-003 8.36820062e-003 2.51046009e-002 1.67364012e-002
      8.36820062e-003 0. 4.18410031e-003 0. 1.67364012e-002
      2.09205016e-003 0. 0. 4.18410031e-003 0. 8.36820062e-003
      1.25523005e-002 1.04602510e-002 4.18410031e-003 2.09205016e-003 0.
      4.18410031e-003 6.27615023e-003 2.30125524e-002 8.36820062e-003
      2.09205016e-003 0. 1.04602510e-002 8.36820062e-003 0.
      2.09205016e-003 1.25523005e-002 0. 2.09205016e-003 0.
      2.09205016e-003 6.27615023e-003 2.09205016e-003 0. 2.71966513e-002
      4.18410031e-003 2.09205016e-003 0. 1.67364012e-002</_>
    <_>
      3.87596898e-003 3.87596898e-003 3.87596898e-003 1.55038759e-002 0.
      0. 3.87596898e-003 1.93798449e-002 0. 1.16279069e-002
      7.75193796e-003 3.87596898e-003 1.93798449e-002 3.87596898e-003
      7.75193796e-003 0. 1.16279069e-002 1.55038759e-002 0.
      3.87596898e-003 2.32558139e-002 3.87596898e-003 0. 3.87596898e-003
      0. 0. 7.75193796e-003 1.93798449e-002 2.32558139e-002 0.
      2.32558139e-002 7.75193796e-003 0. 3.87596898e-003 7.75193796e-003
      1.16279069e-002 7.75193796e-003 3.87596898e-003 3.87596898e-003
      3.87596898e-003 0. 0. 3.87596898e-003 0. 7.75193796e-003
      3.87596898e-003 7.75193796e-003 0. 0. 3.87596898e-003
      3.87596898e-003 1.16279069e-002 0. 1.16279069e-002 0. 0.
      7.75193796e-003 7.75193796e-003 3.87596898e-003 1.55038759e-002
      3.87596898e-003 7.75193796e-003 3.87596898e-003 0. 1.55038759e-002
      0. 7.75193796e-003 7.75193796e-003 0. 0. 3.87596898e-003
      1.16279069e-002 0. 7.75193796e-003 7.75193796e-003 1.16279069e-002
      7.75193796e-003 1.16279069e-002 2.32558139e-002 1.16279069e-002
      1.16279069e-002 1.55038759e-002 0. 0. 1.16279069e-002
      7.75193796e-003 3.87596898e-003 1.16279069e-002 2.32558139e-002
      3.87596898e-003 1.16279069e-002 3.87596898e-003 0. 0.
      1.55038759e-002 3.87596898e-003 7.75193796e-003 1.16279069e-002
      1.55038759e-002 3.87596898e-003 3.87596898e-003 7.75193796e-003
      3.87596898e-003 0. 7.75193796e-003 1.16279069e-002 3.87596898e-003
      0. 3.87596898e-003 3.87596898e-003 3.87596898e-003 0. 0.
      3.87596898e-003 2.32558139e-002 2.32558139e-002 3.87596898e-003
      3.87596898e-003 0. 3.87596898e-003 3.87596898e-003 0.
      3.87596898e-003 1.16279069e-002 7.75193796e-003 7.75193796e-003 0.
      7.75193796e-003 3.87596898e-003 7.75193796e-003 3.87596898e-003
      2.32558139e-002 0. 1.55038759e-002 3.87596898e-003 0.
      1.16279069e-002 3.87596898e-003 3.87596898e-003 7.75193796e-003
      1.55038759e-002 7.75193796e-003 3.87596898e-003 1.55038759e-002
      7.75193796e-003 1.16279069e-002 0. 1.16279069e-002 0. 0.</_>
    <_>
      2.82485876e-003 2.82485876e-003 8.47457629e-003 1.41242938e-002
      2.82485876e-003 1.12994350e-002 5.64971752e-003 6.77966103e-002 0.
      2.82485876e-003 8.47457629e-003 2.82485876e-003 8.47457629e-003 0.
      2.82485876e-003 8.47457629e-003 0. 8.47457629e-003 0.
      1.41242938e-002 0. 2.82485876e-003 0. 0. 2.82485876e-003 0. 0.
      3.95480245e-002 0. 0. 1.69491526e-002 2.82485876e-003 0.
      2.82485876e-003 2.82485876e-003 2.82485876e-003 0. 2.82485876e-003
      1.12994350e-002 2.82485876e-003 2.25988701e-002 2.82485876e-003 0.
      0. 8.47457629e-003 0. 2.25988701e-002 5.64971752e-003 0.
      1.69491526e-002 2.82485876e-002 0. 0. 2.82485876e-003
      2.82485876e-003 0. 5.64971752e-003 0. 2.82485876e-003
      5.64971752e-003 2.82485876e-003 0. 2.82485876e-003 8.47457629e-003
      0. 5.64971752e-003 5.64971752e-003 0. 4.80225980e-002 0.
      2.82485876e-003 2.82485876e-003 0. 5.64971752e-003 5.64971752e-003
      1.97740123e-002 2.82485876e-003 0. 3.38983051e-002 1.12994350e-002
      0. 5.64971752e-003 8.47457629e-003 5.64971752e-003 3.95480245e-002
      0. 2.82485876e-003 2.82485876e-003 1.41242938e-002 2.82485876e-003
      5.64971752e-003 5.64971752e-003 2.82485876e-003 0. 2.82485876e-003
      2.25988701e-002 2.82485876e-003 0. 1.41242938e-002 0. 0.
      1.69491526e-002 0. 0. 2.82485876e-003 2.82485876e-003
      1.41242938e-002 0. 1.12994350e-002 5.64971752e-003 2.82485876e-003
      8.47457629e-003 0. 2.82485876e-003 9.03954804e-002 0.
      5.64971752e-003 5.36723174e-002 2.82485876e-003 0. 5.64971752e-003
      5.64971752e-003 2.82485876e-003 8.47457629e-003 5.64971752e-003
      5.64971752e-003 5.64971752e-003 5.64971752e-003 2.82485876e-003 0.
      5.64971752e-003 2.82485876e-003 0. 0. 5.64971752e-003 0. 0. 0. 0.
      1.12994350e-002 2.82485876e-003 0. 2.82485876e-003 8.47457629e-003
      0. 0. 2.82485876e-003 0. 2.82485876e-003 0.</_>
    <_>
      4.51127812e-003 7.51879718e-003 4.51127812e-003 6.76691718e-003
      7.51879707e-004 7.51879718e-003 1.12781953e-002 4.51127812e-003
      2.93233078e-002 6.01503765e-003 1.72932334e-002 1.50375944e-002
      4.51127812e-003 1.50375941e-003 2.03007516e-002 7.51879718e-003
      9.02255625e-003 3.00751883e-003 4.51127812e-003 3.00751883e-003
      6.76691718e-003 3.75939859e-003 3.75939859e-003 5.26315812e-003
      1.12781953e-002 4.51127812e-003 1.20300753e-002 8.27067718e-003
      2.85714287e-002 1.50375941e-003 4.51127812e-003 3.00751883e-003
      2.25563906e-003 1.27819553e-002 1.50375941e-003 1.05263162e-002
      6.01503765e-003 5.26315812e-003 6.01503765e-003 5.26315812e-003
      1.50375941e-003 4.51127812e-003 9.02255625e-003 2.25563906e-003
      2.25563906e-003 3.75939859e-003 3.75939859e-003 1.12781953e-002
      5.26315812e-003 6.01503765e-003 7.51879707e-004 1.42857144e-002
      8.27067718e-003 3.00751883e-003 6.01503765e-003 7.51879718e-003
      1.57894734e-002 6.76691718e-003 6.01503765e-003 4.51127812e-003
      7.51879718e-003 7.51879718e-003 8.27067718e-003 1.50375941e-003
      1.12781953e-002 7.51879707e-004 8.27067718e-003 1.72932334e-002
      3.00751883e-003 4.51127812e-003 5.26315812e-003 1.35338344e-002
      2.25563906e-003 1.50375944e-002 1.05263162e-002 6.76691718e-003
      9.02255625e-003 1.05263162e-002 2.25563906e-003 3.00751883e-003
      7.51879718e-003 7.51879718e-003 7.51879718e-003 1.80451125e-002
      8.27067718e-003 9.77443624e-003 1.05263162e-002 4.51127812e-003
      4.51127812e-003 3.75939859e-003 1.50375941e-003 9.02255625e-003
      3.00751883e-003 5.26315812e-003 6.76691718e-003 2.25563906e-003
      1.20300753e-002 4.51127812e-003 7.51879707e-004 3.00751883e-003
      6.01503765e-003 3.75939859e-003 7.51879718e-003 6.01503765e-003
      6.01503765e-003 5.26315812e-003 1.50375941e-003 0. 4.51127812e-003
      9.77443624e-003 9.02255625e-003 5.26315812e-003 5.26315812e-003
      9.77443624e-003 7.51879707e-004 1.80451125e-002 6.01503765e-003
      4.51127812e-003 3.75939859e-003 2.25563906e-003 3.00751883e-003
      1.72932334e-002 8.27067718e-003 1.87969934e-002 3.00751883e-003
      6.01503765e-003 7.51879707e-004 4.51127812e-003 6.76691718e-003
      4.51127812e-003 7.51879707e-004 3.75939859e-003 2.25563906e-003
      1.35338344e-002 6.01503765e-003 1.50375941e-003 7.51879718e-003
      6.76691718e-003 3.00751883e-003 7.51879707e-004 2.25563906e-003
      7.51879707e-004 2.25563906e-003 1.20300753e-002 9.77443624e-003
      8.27067718e-003 4.51127812e-003 3.75939859e-003 1.50375941e-003
      9.02255625e-003</_>
    <_>
      2.14843750e-002 5.85937500e-003 3.90625000e-003 6.05468750e-002 0.
      9.76562500e-003 0. 1.75781250e-002 5.85937500e-003 9.76562500e-003
      5.85937500e-003 0. 0. 0. 1.36718750e-002 1.95312500e-003
      5.85937500e-003 1.95312500e-003 0. 9.76562500e-003 1.95312500e-003
      1.95312500e-003 7.81250000e-003 1.36718750e-002 3.90625000e-003
      5.85937500e-003 1.95312500e-003 1.17187500e-002 3.90625000e-002 0.
      1.56250000e-002 0. 5.85937500e-003 9.76562500e-003 5.85937500e-003
      3.90625000e-003 1.95312500e-003 0. 5.85937500e-003 1.36718750e-002
      5.85937500e-003 3.90625000e-003 1.95312500e-003 1.95312500e-003 0.
      1.95312500e-003 7.81250000e-003 3.90625000e-003 5.85937500e-003
      3.90625000e-003 0. 7.81250000e-003 0. 0. 0. 0. 0. 0.
      1.95312500e-003 1.95312500e-003 1.95312500e-003 0. 0.
      1.95312500e-003 1.95312500e-003 0. 7.81250000e-003 1.36718750e-002
      1.36718750e-002 0. 5.85937500e-003 1.95312500e-003 1.17187500e-002
      1.36718750e-002 1.95312500e-003 7.81250000e-003 1.75781250e-002
      2.73437500e-002 3.32031250e-002 3.90625000e-003 0. 1.56250000e-002
      7.81250000e-003 1.36718750e-002 1.75781250e-002 1.75781250e-002
      1.17187500e-002 7.81250000e-003 1.36718750e-002 1.36718750e-002 0.
      0. 1.95312500e-003 0. 9.76562500e-003 3.90625000e-003
      9.76562500e-003 5.85937500e-003 7.81250000e-003 0. 1.95312500e-003
      1.95312500e-003 3.90625000e-003 3.90625000e-003 0. 1.36718750e-002
      5.85937500e-003 0. 0. 3.90625000e-003 0. 1.95312500e-003
      1.95312500e-003 1.56250000e-002 2.92968750e-002 4.49218750e-002
      1.95312500e-003 7.81250000e-003 3.90625000e-003 3.90625000e-003
      1.95312500e-003 7.81250000e-003 3.90625000e-003 9.76562500e-003
      1.95312500e-003 1.17187500e-002 3.90625000e-003 3.90625000e-003
      7.81250000e-003 1.36718750e-002 5.85937500e-003 3.90625000e-003 0.
      5.85937500e-003 0. 1.95312500e-003 7.81250000e-003 7.81250000e-003
      1.95312500e-003 9.76562500e-003 0. 3.90625000e-003 3.90625000e-003
      5.85937500e-003 5.85937500e-003 7.81250000e-003 7.81250000e-003 0.
      0. 9.76562500e-003</_>
    <_>
      4.08830727e-003 7.35895336e-003 0. 8.17661453e-003 0.
      1.39002446e-002 4.90596890e-003 4.08830727e-003 1.71708912e-002 0.
      1.96238756e-002 8.99427570e-003 4.90596890e-003 8.17661465e-004
      8.99427570e-003 8.17661453e-003 8.99427570e-003 3.27064586e-003
      8.17661465e-004 4.08830727e-003 4.08830727e-003 8.17661453e-003
      8.99427570e-003 4.08830727e-003 1.06295990e-002 8.17661465e-004
      8.99427570e-003 7.35895336e-003 1.14472602e-002 1.14472602e-002
      2.45298445e-003 6.54129172e-003 1.63532293e-003 1.06295990e-002
      4.08830727e-003 1.30825834e-002 4.90596890e-003 8.17661453e-003
      1.06295990e-002 6.54129172e-003 2.45298445e-003 4.90596890e-003
      1.14472602e-002 9.81193781e-003 1.06295990e-002 0. 8.99427570e-003
      7.35895336e-003 4.08830727e-003 6.54129172e-003 3.27064586e-003
      9.81193781e-003 7.35895336e-003 5.72363008e-003 7.35895336e-003
      4.90596890e-003 9.81193781e-003 9.81193781e-003 4.08830727e-003
      6.54129172e-003 5.72363008e-003 4.90596890e-003 4.90596890e-003
      8.17661465e-004 1.39002446e-002 0. 1.30825834e-002 1.06295990e-002
      8.17661465e-004 7.35895336e-003 6.54129172e-003 2.04415359e-002
      3.27064586e-003 1.22649223e-002 1.47179067e-002 1.63532293e-003
      1.30825834e-002 1.63532291e-002 3.27064586e-003 8.17661465e-004
      7.35895336e-003 4.08830727e-003 1.06295990e-002 6.54129172e-003
      3.27064586e-003 1.30825834e-002 5.72363008e-003 1.14472602e-002
      2.45298445e-003 1.63532293e-003 0. 6.54129172e-003 2.45298445e-003
      8.17661453e-003 1.14472602e-002 6.54129172e-003 4.90596890e-003
      5.72363008e-003 2.45298445e-003 4.08830727e-003 5.72363008e-003
      1.39002446e-002 9.81193781e-003 1.39002446e-002 3.27064586e-003
      4.90596890e-003 8.17661465e-004 8.17661465e-004 3.27064586e-003
      8.17661465e-004 8.17661453e-003 4.08830727e-003 4.08830727e-003
      1.88062135e-002 8.17661465e-004 1.30825834e-002 1.22649223e-002
      4.08830727e-003 1.63532293e-003 4.90596890e-003 8.17661465e-004
      2.12591980e-002 1.14472602e-002 1.88062135e-002 9.81193781e-003
      3.27064586e-003 0. 2.45298445e-003 8.99427570e-003 6.54129172e-003
      2.45298445e-003 2.45298445e-003 6.54129172e-003 9.81193781e-003
      1.63532293e-003 2.45298445e-003 8.99427570e-003 5.72363008e-003
      4.90596890e-003 8.17661465e-004 8.17661465e-004 1.63532293e-003
      8.17661465e-004 1.79885514e-002 8.17661465e-004 6.54129172e-003
      8.99427570e-003 1.14472602e-002 3.27064586e-003 8.17661453e-003</_>
    <_>
      5.49450563e-003 9.61538497e-003 1.37362641e-003 4.67032976e-002 0.
      2.60989014e-002 5.49450563e-003 9.61538497e-003 1.37362641e-003
      4.12087934e-003 8.24175868e-003 2.74725282e-003 4.12087934e-003 0.
      0. 2.33516488e-002 1.78571437e-002 8.24175868e-003 2.74725282e-003
      1.37362641e-003 1.09890113e-002 8.24175868e-003 8.24175868e-003
      4.12087934e-003 9.61538497e-003 4.12087934e-003 2.74725282e-003
      5.49450563e-003 4.12087934e-003 8.24175868e-003 4.12087934e-003
      2.74725282e-003 1.37362641e-003 0. 1.37362641e-003 1.37362641e-003
      1.37362641e-003 9.61538497e-003 2.47252751e-002 8.24175868e-003
      6.86813192e-003 1.37362641e-003 2.74725282e-003 1.09890113e-002
      1.64835174e-002 0. 1.23626376e-002 8.24175868e-003 5.49450563e-003
      5.49450563e-003 6.86813192e-003 2.74725282e-003 9.61538497e-003
      1.51098901e-002 6.86813192e-003 0. 8.24175868e-003 1.37362638e-002
      5.49450563e-003 2.74725282e-003 5.49450563e-003 2.74725282e-003
      1.37362641e-003 9.61538497e-003 2.74725282e-003 1.37362641e-003
      1.37362638e-002 1.09890113e-002 4.12087934e-003 9.61538497e-003
      5.49450563e-003 5.49450563e-003 2.74725282e-003 1.51098901e-002
      2.06043962e-002 2.74725282e-003 5.49450563e-003 4.12087934e-003 0.
      0. 4.12087934e-003 4.12087934e-003 8.24175868e-003 5.49450563e-003
      5.49450563e-003 9.61538497e-003 6.86813192e-003 8.24175868e-003
      5.49450563e-003 6.86813192e-003 2.74725282e-003 9.61538497e-003
      1.37362641e-003 9.61538497e-003 1.37362641e-003 5.49450563e-003
      2.74725282e-003 1.78571437e-002 5.49450563e-003 9.61538497e-003
      6.86813192e-003 1.09890113e-002 6.86813192e-003 6.86813192e-003
      2.74725282e-003 4.12087934e-003 8.24175868e-003 1.37362641e-003
      1.64835174e-002 0. 4.12087934e-003 2.19780225e-002 8.24175868e-003
      8.24175868e-003 8.24175868e-003 1.37362638e-002 5.49450563e-003
      8.24175868e-003 8.24175868e-003 2.74725282e-003 1.37362641e-003
      1.37362638e-002 8.24175868e-003 6.86813192e-003 2.47252751e-002
      2.74725282e-003 4.12087934e-003 0. 2.74725282e-003 5.49450563e-003
      1.37362641e-003 6.86813192e-003 4.12087934e-003 5.49450563e-003 0.
      2.74725282e-003 1.51098901e-002 6.86813192e-003 1.37362641e-003
      6.86813192e-003 1.37362641e-003 5.49450563e-003 2.74725282e-003
      5.49450563e-003 0. 4.12087934e-003 0. 5.49450563e-003
      4.12087934e-003 1.37362641e-003</_>
    <_>
      2.12765951e-002 0. 0. 0. 7.09219836e-003 7.09219836e-003
      7.09219836e-003 3.54609936e-002 0. 7.09219836e-003 7.09219836e-003
      7.09219836e-003 1.41843967e-002 3.54609936e-002 0. 1.41843967e-002
      0. 7.09219836e-003 4.25531901e-002 2.83687934e-002 0. 0. 0.
      7.09219836e-003 7.09219836e-003 0. 0. 1.41843967e-002
      3.54609936e-002 7.09219836e-003 0. 7.09219836e-003 0.
      1.41843967e-002 0. 7.09219836e-003 1.41843967e-002 0. 0.
      7.09219836e-003 0. 0. 0. 0. 0. 7.09219836e-003 1.41843967e-002 0.
      1.41843967e-002 0. 0. 7.09219836e-003 0. 7.09219836e-003
      1.41843967e-002 2.12765951e-002 0. 0. 0. 7.09219836e-003
      7.09219836e-003 7.09219836e-003 0. 0. 7.09219836e-003
      2.12765951e-002 0. 7.09219836e-003 7.09219836e-003 0.
      7.09219836e-003 1.41843967e-002 0. 0. 1.41843967e-002
      2.83687934e-002 7.09219836e-003 7.09219836e-003 7.09219836e-003 0.
      0. 0. 0. 0. 1.41843967e-002 0. 7.09219836e-003 7.09219836e-003 0.
      0. 0. 1.41843967e-002 0. 7.09219836e-003 1.41843967e-002
      7.09219836e-003 7.09219836e-003 0. 0. 7.09219836e-003 0.
      7.09219836e-003 7.09219836e-003 0. 0. 2.83687934e-002 0.
      1.41843967e-002 0. 7.09219836e-003 0. 0. 2.12765951e-002 0. 0.
      7.09219836e-003 0. 1.41843975e-001 0. 0. 7.09219836e-003 0.
      1.41843967e-002 7.09219836e-003 0. 0. 0. 0. 0. 0. 0. 0. 0.
      7.09219836e-003 0. 0. 0. 0. 2.12765951e-002 7.09219836e-003 0.
      1.41843967e-002 0. 0. 0. 0. 7.09219836e-003 0. 0. 0.</_>
    <_>
      6.57894742e-003 0. 1.31578948e-002 3.61842103e-002 1.31578948e-002
      6.57894742e-003 0. 1.64473690e-002 3.28947371e-003 1.31578948e-002
      1.64473690e-002 0. 3.28947371e-003 6.57894742e-003 3.28947371e-003
      1.31578948e-002 3.28947371e-003 0. 0. 3.28947371e-003 0.
      3.28947371e-003 6.57894742e-003 0. 9.86842066e-003 1.97368413e-002
      3.28947371e-003 0. 6.57894742e-003 0. 1.31578948e-002
      3.28947371e-003 0. 6.57894742e-003 6.57894742e-003 9.86842066e-003
      0. 3.28947371e-003 6.57894742e-003 6.57894742e-003 0.
      3.28947371e-003 0. 3.28947371e-003 6.57894742e-003 1.97368413e-002
      3.28947371e-003 9.86842066e-003 0. 9.86842066e-003 0.
      6.57894742e-003 9.86842066e-003 3.28947371e-003 3.28947371e-003
      1.31578948e-002 6.57894742e-003 6.57894742e-003 6.57894742e-003 0.
      3.28947371e-003 9.86842066e-003 9.86842066e-003 3.28947371e-003
      9.86842066e-003 2.30263155e-002 3.28947371e-003 6.57894742e-003 0.
      3.28947371e-003 0. 1.97368413e-002 2.30263155e-002 1.64473690e-002
      1.64473690e-002 1.31578948e-002 3.28947371e-003 2.63157897e-002
      1.64473690e-002 1.31578948e-002 3.28947371e-003 0. 0.
      1.64473690e-002 6.57894742e-003 1.31578948e-002 6.57894742e-003
      3.28947371e-003 3.28947371e-003 3.28947371e-003 1.31578948e-002
      6.57894742e-003 1.31578948e-002 3.28947371e-003 9.86842066e-003 0.
      6.57894742e-003 3.28947371e-003 0. 0. 0. 0. 0. 3.28947371e-003
      3.28947371e-003 6.57894742e-003 0. 0. 1.31578948e-002
      4.93421070e-002 6.57894742e-003 0. 6.57894742e-003 3.28947371e-003
      3.28947371e-003 1.31578948e-002 6.57894742e-003 1.31578948e-002
      3.28947371e-003 6.57894742e-003 9.86842066e-003 3.28947371e-003 0.
      6.57894742e-003 3.28947371e-003 1.31578948e-002 0. 6.57894742e-003
      0. 3.28947371e-003 1.97368413e-002 6.57894742e-003 0.
      6.57894742e-003 1.31578948e-002 3.28947371e-003 3.28947371e-003
      3.28947371e-003 0. 3.28947371e-003 3.28947371e-003 0.
      1.64473690e-002 6.57894742e-003 0. 3.28947371e-003 3.28947371e-003
      0. 3.28947371e-003 1.31578948e-002</_>
    <_>
      6.13496918e-003 0. 1.22699384e-002 0. 0. 0. 0. 6.74846619e-002 0.
      0. 0. 0. 6.13496918e-003 1.84049085e-002 0. 0. 0. 6.13496918e-003
      0. 0. 0. 0. 1.22699384e-002 6.13496918e-003 0. 1.22699384e-002 0.
      1.84049085e-002 0. 0. 1.84049085e-002 6.13496918e-003 0.
      6.13496918e-003 6.13496918e-003 1.22699384e-002 6.13496918e-003 0.
      0. 0. 4.90797535e-002 6.13496918e-003 0. 0. 0. 1.22699384e-002
      6.13496918e-003 1.84049085e-002 0. 0. 6.13496918e-003 0. 0. 0.
      6.13496918e-003 6.13496918e-003 0. 6.13496918e-003 0.
      6.13496918e-003 0. 6.13496918e-003 0. 1.22699384e-002 0.
      1.22699384e-002 6.13496918e-003 1.84049085e-002 4.29447852e-002 0.
      0. 0. 2.45398767e-002 0. 0. 1.84049085e-002 0. 0. 0.
      2.45398767e-002 1.84049085e-002 3.68098170e-002 0. 0. 0.
      6.13496918e-003 1.84049085e-002 0. 6.13496918e-003 6.13496918e-003
      0. 0. 0. 0. 1.22699384e-002 6.13496918e-003 0. 0. 1.22699384e-002
      6.13496918e-003 0. 0. 1.22699384e-002 0. 0. 1.22699384e-002
      2.45398767e-002 0. 0. 6.13496918e-003 0. 0. 0. 0. 4.90797535e-002
      0. 1.84049085e-002 1.04294479e-001 2.45398767e-002 6.13496918e-003
      0. 0. 6.13496918e-003 0. 0. 1.84049085e-002 6.13496918e-003
      6.13496918e-003 0. 0. 1.22699384e-002 1.22699384e-002 0.
      6.13496918e-003 0. 0. 0. 0. 0. 1.84049085e-002 6.13496918e-003 0.
      0. 0. 0. 0. 6.13496918e-003 0. 6.13496918e-003 0.</_>
    <_>
      3.37837846e-003 5.06756781e-003 0. 1.35135138e-002 0.
      6.75675692e-003 3.37837846e-003 3.37837846e-003 1.18243247e-002
      5.06756781e-003 1.68918930e-002 6.75675692e-003 5.06756781e-003
      3.37837846e-003 8.44594650e-003 1.52027030e-002 1.35135138e-002
      5.06756781e-003 3.37837846e-003 5.06756781e-003 8.44594650e-003
      3.37837846e-003 0. 8.44594650e-003 6.75675692e-003 3.37837846e-003
      3.37837846e-003 3.37837846e-003 1.52027030e-002 3.37837846e-003
      1.18243247e-002 1.68918923e-003 0. 1.68918923e-003 3.37837846e-003
      0. 3.37837846e-003 3.37837846e-003 1.35135138e-002 1.52027030e-002
      1.68918923e-003 5.06756781e-003 1.01351356e-002 1.35135138e-002
      1.18243247e-002 1.68918923e-003 1.68918923e-003 3.37837846e-003
      1.35135138e-002 2.02702712e-002 0. 1.18243247e-002 1.01351356e-002
      3.37837846e-003 6.75675692e-003 5.06756781e-003 1.35135138e-002
      6.75675692e-003 1.68918930e-002 6.75675692e-003 6.75675692e-003
      5.06756781e-003 8.44594650e-003 1.68918923e-003 8.44594650e-003 0.
      1.35135138e-002 1.01351356e-002 0. 8.44594650e-003 1.68918923e-003
      8.44594650e-003 0. 1.68918923e-003 8.44594650e-003 0.
      1.18243247e-002 1.85810812e-002 3.37837846e-003 0. 3.37837846e-003
      8.44594650e-003 6.75675692e-003 1.01351356e-002 1.52027030e-002
      1.01351356e-002 8.44594650e-003 3.37837846e-003 1.01351356e-002
      1.68918923e-003 5.06756781e-003 1.52027030e-002 0. 5.06756781e-003
      5.06756781e-003 3.37837846e-003 8.44594650e-003 1.01351356e-002
      6.75675692e-003 3.37837846e-003 8.44594650e-003 1.01351356e-002
      1.18243247e-002 8.44594650e-003 8.44594650e-003 5.06756781e-003
      5.06756781e-003 0. 1.85810812e-002 0. 8.44594650e-003
      1.68918923e-003 0. 1.01351356e-002 5.06756781e-003 1.68918930e-002
      1.01351356e-002 8.44594650e-003 0. 8.44594650e-003 3.37837846e-003
      8.44594650e-003 1.35135138e-002 3.37837846e-003 1.52027030e-002
      5.06756781e-003 0. 1.68918923e-003 1.35135138e-002 1.52027030e-002
      1.68918923e-003 5.06756781e-003 1.68918923e-003 1.01351356e-002
      1.01351356e-002 3.37837846e-003 1.01351356e-002 6.75675692e-003
      1.68918923e-003 3.37837846e-003 1.68918923e-003 1.68918923e-003
      1.68918923e-003 6.75675692e-003 6.75675692e-003 1.52027030e-002
      1.01351356e-002 5.06756781e-003 1.68918923e-003 5.06756781e-003</_>
    <_>
      0. 0. 2.34375000e-002 3.90625000e-002 9.37500000e-002
      1.56250000e-002 0. 0. 7.81250000e-003 0. 7.81250000e-003
      7.81250000e-003 0. 0. 7.81250000e-003 7.81250000e-003 0. 0.
      7.81250000e-003 0. 0. 0. 0. 7.81250000e-003 0. 7.81250000e-003 0.
      0. 7.81250000e-003 0. 0. 7.81250000e-003 0. 7.81250000e-003
      1.56250000e-002 2.34375000e-002 0. 7.81250000e-003 7.81250000e-003
      0. 2.34375000e-002 0. 7.81250000e-003 7.81250000e-003 0. 0. 0. 0.
      0. 0. 0. 2.34375000e-002 0. 0. 0. 7.81250000e-003 7.81250000e-003
      0. 0. 0. 7.81250000e-003 1.56250000e-002 0. 0. 7.81250000e-003
      7.03125000e-002 0. 7.81250000e-003 0. 0. 7.81250000e-003
      7.81250000e-003 7.81250000e-003 0. 1.56250000e-002 0.
      7.81250000e-003 1.56250000e-002 7.81250000e-003 0. 7.81250000e-003
      0. 0. 0. 0. 0. 7.81250000e-003 0. 0. 1.56250000e-002 0. 0.
      7.81250000e-003 0. 0. 0. 1.56250000e-002 0. 0. 0. 7.81250000e-003
      1.56250000e-002 7.81250000e-003 7.81250000e-003 0. 7.81250000e-003
      2.34375000e-002 0. 1.56250000e-002 0. 7.81250000e-003 0. 0.
      1.56250000e-002 0. 0. 7.81250000e-003 0. 7.81250000e-003
      7.81250000e-003 7.81250000e-003 0. 1.56250000e-002 0.
      1.56250000e-002 0. 0. 7.81250000e-003 2.34375000e-002
      7.81250000e-003 3.90625000e-002 7.81250000e-003 0. 1.56250000e-002
      0. 0. 0. 1.56250000e-002 0. 0. 0. 7.81250000e-003 2.34375000e-002
      1.56250000e-002 0. 7.81250000e-003 7.81250000e-003 0.
      7.81250000e-003 1.56250000e-002</_>
    <_>
      1.96078438e-002 0. 9.80392192e-003 4.90196096e-003 0.
      9.80392192e-003 4.90196096e-003 1.22549027e-001 4.90196096e-003 0.
      9.80392192e-003 0. 0. 0. 0. 4.90196096e-003 0. 9.80392192e-003 0.
      4.90196096e-003 9.80392192e-003 0. 0. 0. 0. 4.90196096e-003
      9.80392192e-003 9.80392192e-003 0. 2.45098043e-002 1.47058833e-002
      4.90196096e-003 0. 0. 9.80392192e-003 0. 9.80392192e-003
      4.90196096e-003 0. 1.96078438e-002 9.80392192e-003 4.90196096e-003
      0. 4.90196096e-003 4.90196096e-003 0. 0. 0. 0. 3.43137272e-002 0.
      0. 0. 0. 4.90196096e-003 4.90196096e-003 0. 0. 9.80392192e-003
      4.90196096e-003 0. 4.90196096e-003 0. 0. 4.90196096e-003 0.
      4.90196096e-003 1.47058833e-002 1.47058833e-002 1.47058833e-002 0.
      1.96078438e-002 9.80392192e-003 4.90196096e-003 0. 2.45098043e-002
      9.80392192e-003 0. 1.47058833e-002 9.80392192e-003 0. 0. 0. 0.
      1.47058833e-002 1.96078438e-002 0. 0. 1.47058833e-002 0.
      2.94117667e-002 4.90196096e-003 9.80392192e-003 9.80392192e-003
      4.90196096e-003 1.47058833e-002 0. 4.90196096e-003 1.47058833e-002
      0. 9.80392192e-003 9.80392192e-003 4.90196096e-003 0.
      1.47058833e-002 1.47058833e-002 1.47058833e-002 0. 0.
      4.90196096e-003 0. 9.80392192e-003 4.90196096e-003 0.
      1.96078438e-002 9.80392192e-003 4.90196096e-003 5.39215691e-002
      9.80392192e-003 0. 4.90196096e-003 0. 4.90196096e-003
      4.90196096e-003 1.47058833e-002 0. 0. 0. 0. 4.90196096e-003
      4.90196096e-003 4.90196096e-003 4.90196096e-003 0. 9.80392192e-003
      0. 9.80392192e-003 0. 0. 4.90196096e-003 4.90196096e-003 0. 0.
      9.80392192e-003 0. 0. 4.90196096e-003 4.90196096e-003
      9.80392192e-003 0.</_>
    <_>
      0. 0. 1.69491526e-002 1.12994350e-002 0. 2.25988701e-002
      5.64971752e-003 1.63841814e-001 0. 5.64971752e-003 1.12994350e-002
      0. 0. 0. 0. 2.82485876e-002 2.25988701e-002 0. 0. 0. 0.
      5.64971752e-003 0. 0. 0. 0. 0. 5.64971752e-003 0. 1.12994350e-002
      0. 0. 0. 0. 0. 0. 0. 0. 3.38983051e-002 0. 1.69491526e-002 0. 0.
      2.82485876e-002 2.25988701e-002 5.64971752e-003 1.69491526e-002 0.
      0. 5.64971752e-003 5.64971752e-003 5.64971752e-003 0.
      3.38983051e-002 0. 5.64971752e-003 0. 5.64971752e-003 0. 0. 0. 0.
      5.64971752e-003 0. 0. 5.64971752e-003 0. 0. 0. 3.38983051e-002
      5.64971752e-003 5.64971752e-003 5.64971752e-003 5.64971752e-003
      1.12994350e-002 1.69491526e-002 5.64971752e-003 0. 5.64971752e-003
      0. 0. 0. 5.64971752e-003 0. 0. 0. 0. 5.64971752e-003
      5.64971752e-003 0. 0. 5.64971752e-003 0. 5.64971752e-003 0. 0.
      1.12994350e-002 5.64971752e-003 0. 5.64971752e-003 0.
      5.64971752e-003 0. 5.64971752e-003 0. 0. 1.69491526e-002 0.
      4.51977402e-002 0. 0. 2.82485876e-002 0. 0. 1.12994350e-002
      5.64971752e-003 0. 1.12994350e-001 0. 0. 0. 0. 5.64971752e-003
      1.12994350e-002 1.12994350e-002 0. 0. 0. 0. 5.64971752e-003 0.
      2.82485876e-002 5.64971752e-003 0. 0. 1.69491526e-002
      5.64971752e-003 0. 0. 0. 0. 5.64971752e-003 5.64971752e-003
      5.64971752e-003 0. 5.64971752e-003 0. 0. 0. 0.</_>
    <_>
      2.88184430e-003 5.76368859e-003 5.76368859e-003 1.72910653e-002
      2.88184430e-003 1.00864554e-002 7.20461085e-003 2.01729108e-002
      7.20461085e-003 2.88184430e-003 1.44092217e-002 5.76368859e-003
      8.64553265e-003 7.20461085e-003 0. 4.32276633e-003 5.76368859e-003
      7.20461085e-003 4.32276633e-003 8.64553265e-003 7.20461085e-003
      4.32276633e-003 5.76368859e-003 1.44092215e-003 1.15273772e-002
      1.44092215e-003 7.20461085e-003 8.64553265e-003 1.00864554e-002
      1.00864554e-002 8.64553265e-003 0. 1.44092215e-003 1.00864554e-002
      4.32276633e-003 8.64553265e-003 4.32276633e-003 1.15273772e-002
      2.88184430e-003 4.32276633e-003 1.44092215e-003 4.32276633e-003
      4.32276633e-003 7.20461085e-003 4.32276633e-003 7.20461085e-003
      2.88184430e-003 5.76368859e-003 4.32276633e-003 8.64553265e-003
      8.64553265e-003 5.76368859e-003 1.00864554e-002 1.00864554e-002
      1.44092215e-003 1.15273772e-002 5.76368859e-003 7.20461085e-003
      2.88184430e-003 0. 1.15273772e-002 2.88184430e-003 1.00864554e-002
      5.76368859e-003 5.76368859e-003 1.72910653e-002 4.32276633e-003
      2.88184430e-003 1.44092217e-002 1.44092215e-003 5.76368859e-003
      5.76368859e-003 7.20461085e-003 1.00864554e-002 8.64553265e-003
      1.58501435e-002 1.44092215e-003 4.32276633e-003 8.64553265e-003
      7.20461085e-003 4.32276633e-003 7.20461085e-003 1.44092215e-003
      1.29682990e-002 1.15273772e-002 8.64553265e-003 4.32276633e-003
      5.76368859e-003 8.64553265e-003 8.64553265e-003 1.29682990e-002
      1.00864554e-002 5.76368859e-003 1.58501435e-002 5.76368859e-003
      4.32276633e-003 1.72910653e-002 4.32276633e-003 5.76368859e-003
      1.00864554e-002 2.88184430e-003 7.20461085e-003 4.32276633e-003
      2.88184430e-003 4.32276633e-003 2.88184430e-003 5.76368859e-003 0.
      5.76368859e-003 7.20461085e-003 2.88184430e-003 7.20461085e-003
      8.64553265e-003 4.32276633e-003 8.64553265e-003 2.88184430e-003
      2.88184430e-003 1.15273772e-002 1.44092215e-003 4.32276633e-003
      1.29682990e-002 8.64553265e-003 8.64553265e-003 1.00864554e-002
      2.88184430e-003 1.44092215e-003 0. 4.32276633e-003 1.15273772e-002
      4.32276633e-003 7.20461085e-003 1.00864554e-002 1.15273772e-002
      1.44092215e-003 1.00864554e-002 1.29682990e-002 5.76368859e-003
      7.20461085e-003 5.76368859e-003 7.20461085e-003 1.44092215e-003
      1.00864554e-002 4.32276633e-003 1.00864554e-002 1.44092217e-002
      2.88184430e-003 2.88184430e-003 2.88184430e-003 1.44092215e-003
      4.32276633e-003</_>
    <_>
      0. 0. 4.25531901e-003 2.55319141e-002 0. 3.40425521e-002 0.
      2.12765951e-002 4.25531901e-003 4.25531901e-003 1.27659570e-002 0.
      4.25531901e-003 1.27659570e-002 1.27659570e-002 0. 0.
      4.25531901e-003 0. 2.12765951e-002 0. 4.25531901e-003 0.
      1.70212761e-002 4.25531901e-003 4.25531901e-003 0. 4.25531901e-003
      1.27659570e-002 8.51063803e-003 1.70212761e-002 4.25531901e-003
      2.97872331e-002 8.51063803e-003 4.25531901e-003 4.25531901e-003
      8.51063803e-003 4.25531901e-003 0. 0. 0. 4.25531901e-003
      4.25531901e-003 0. 1.70212761e-002 0. 4.25531901e-003
      8.51063803e-003 4.25531901e-003 0. 1.27659570e-002 4.25531901e-003
      1.27659570e-002 8.51063803e-003 8.51063803e-003 0. 4.25531901e-003
      8.51063803e-003 4.25531901e-003 4.25531901e-003 1.27659570e-002 0.
      8.51063803e-003 1.27659570e-002 1.70212761e-002 8.51063803e-003
      8.51063803e-003 0. 4.25531901e-003 0. 1.27659570e-002
      1.27659570e-002 0. 4.25531901e-003 4.25531901e-003 0.
      1.27659570e-002 4.25531901e-003 1.27659570e-002 0. 4.25531901e-003
      8.51063803e-003 8.51063803e-003 0. 1.27659570e-002 4.25531901e-003
      4.25531901e-003 4.25531901e-003 4.25531901e-003 2.12765951e-002
      4.25531901e-003 8.51063803e-003 8.51063803e-003 0. 8.51063803e-003
      4.25531901e-003 0. 0. 1.70212761e-002 4.25531901e-003
      4.25531901e-003 4.25531901e-003 0. 4.25531901e-003 0.
      8.51063803e-003 8.51063803e-003 0. 8.51063803e-003 0.
      1.27659570e-002 0. 4.25531901e-003 1.27659570e-002 2.97872331e-002
      4.25531901e-003 0. 2.97872331e-002 8.51063803e-003 4.25531901e-003
      0. 4.25531901e-003 0. 2.12765951e-002 1.70212761e-002
      4.25531901e-003 3.40425521e-002 8.51063803e-003 1.27659570e-002
      4.25531901e-003 0. 0. 0. 4.25531901e-003 4.25531901e-003
      4.25531901e-003 8.51063803e-003 4.25531901e-003 4.25531901e-003
      4.25531901e-003 4.25531901e-003 4.25531901e-003 0. 1.27659570e-002
      0. 0. 8.51063803e-003 4.25531901e-003 0. 8.51063803e-003</_>
    <_>
      3.70370364e-003 5.55555522e-003 7.40740728e-003 3.51851843e-002
      3.70370364e-003 7.40740728e-003 7.40740728e-003 1.29629625e-002
      1.85185182e-003 0. 1.66666657e-002 1.85185182e-003 1.85185182e-003
      1.29629625e-002 5.55555522e-003 1.11111104e-002 1.66666657e-002
      1.11111104e-002 0. 5.55555522e-003 1.66666657e-002 7.40740728e-003
      1.85185182e-003 5.55555522e-003 5.55555522e-003 5.55555522e-003
      1.85185182e-003 1.48148146e-002 9.25925933e-003 1.29629625e-002
      1.11111104e-002 3.70370364e-003 3.70370364e-003 0. 7.40740728e-003
      7.40740728e-003 1.11111104e-002 7.40740728e-003 1.48148146e-002 0.
      1.29629625e-002 3.70370364e-003 1.85185182e-003 7.40740728e-003
      1.11111104e-002 3.70370364e-003 9.25925933e-003 7.40740728e-003 0.
      9.25925933e-003 7.40740728e-003 5.55555522e-003 9.25925933e-003
      5.55555522e-003 3.70370364e-003 1.85185182e-003 3.70370364e-003 0.
      9.25925933e-003 3.70370364e-003 5.55555522e-003 7.40740728e-003
      5.55555522e-003 0. 3.70370364e-003 0. 5.55555522e-003
      1.29629625e-002 0. 1.11111104e-002 1.85185182e-003 7.40740728e-003
      3.70370364e-003 1.11111104e-002 5.55555522e-003 9.25925933e-003
      3.70370364e-003 1.85185182e-003 1.66666657e-002 0. 1.85185182e-003
      3.70370364e-003 9.25925933e-003 5.55555522e-003 1.85185187e-002
      9.25925933e-003 1.85185182e-003 1.11111104e-002 3.70370364e-003
      1.85185182e-003 1.85185182e-003 1.11111104e-002 7.40740728e-003
      1.11111104e-002 1.85185182e-003 9.25925933e-003 7.40740728e-003
      5.55555522e-003 2.03703698e-002 9.25925933e-003 1.85185182e-003
      1.66666657e-002 7.40740728e-003 3.70370364e-003 3.70370364e-003
      1.85185182e-003 5.55555522e-003 0. 1.11111104e-002 0.
      1.85185182e-003 1.85185187e-002 1.85185182e-003 3.70370364e-003
      1.11111104e-002 7.40740728e-003 7.40740728e-003 1.11111104e-002
      1.85185182e-003 1.85185182e-003 5.55555522e-003 1.48148146e-002
      5.55555522e-003 3.70370364e-003 1.85185182e-003 5.55555522e-003
      3.70370364e-003 5.55555522e-003 7.40740728e-003 0. 1.85185182e-003
      7.40740728e-003 5.55555522e-003 1.85185182e-003 1.85185182e-003
      3.70370364e-003 9.25925933e-003 1.85185182e-003 1.85185182e-003
      1.11111104e-002 5.55555522e-003 1.11111104e-002 7.40740728e-003
      1.29629625e-002 1.29629625e-002 9.25925933e-003 3.70370364e-003
      1.11111104e-002 5.55555522e-003 3.70370364e-003</_>
    <_>
      0. 6.35930058e-003 6.35930058e-003 2.38473769e-002 9.53895040e-003
      2.38473769e-002 4.76947520e-003 9.53895040e-003 0. 1.58982514e-003
      6.35930058e-003 0. 7.94912595e-003 7.94912595e-003 3.17965029e-003
      1.74880773e-002 9.53895040e-003 6.35930058e-003 3.17965029e-003
      4.76947520e-003 1.11287758e-002 1.58982514e-003 0. 4.76947520e-003
      3.17965029e-003 0. 1.27186012e-002 1.43084265e-002 1.58982519e-002
      4.76947520e-003 1.11287758e-002 6.35930058e-003 1.58982514e-003
      1.58982514e-003 3.17965029e-003 3.17965029e-003 1.11287758e-002
      9.53895040e-003 1.43084265e-002 4.76947520e-003 1.11287758e-002
      7.94912595e-003 4.76947520e-003 1.43084265e-002 9.53895040e-003
      1.11287758e-002 2.54372023e-002 6.35930058e-003 1.58982514e-003
      7.94912595e-003 3.17965029e-003 1.58982514e-003 7.94912595e-003
      1.58982519e-002 1.58982514e-003 1.58982514e-003 3.17965029e-003
      4.76947520e-003 3.17965029e-003 3.17965029e-003 3.17965029e-003 0.
      6.35930058e-003 1.11287758e-002 6.35930058e-003 4.76947520e-003 0.
      1.58982514e-003 6.35930058e-003 9.53895040e-003 3.17965029e-003
      6.35930058e-003 1.58982514e-003 4.76947520e-003 1.74880773e-002
      7.94912595e-003 3.17965029e-003 6.35930058e-003 7.94912595e-003
      1.58982514e-003 0. 3.17965029e-003 4.76947520e-003 7.94912595e-003
      4.76947520e-003 3.17965029e-003 3.17965029e-003 9.53895040e-003
      9.53895040e-003 1.58982514e-003 7.94912595e-003 1.27186012e-002
      4.76947520e-003 1.11287758e-002 7.94912595e-003 7.94912595e-003
      1.27186012e-002 6.35930058e-003 6.35930058e-003 7.94912595e-003
      6.35930058e-003 1.43084265e-002 4.76947520e-003 0. 4.76947520e-003
      3.17965029e-003 1.90779008e-002 0. 9.53895040e-003 0.
      6.35930058e-003 1.74880773e-002 7.94912595e-003 3.17965029e-003
      7.94912595e-003 2.06677262e-002 1.58982514e-003 4.76947520e-003
      1.58982514e-003 3.17965029e-003 1.11287758e-002 3.17965029e-003
      9.53895040e-003 4.76947520e-003 2.54372023e-002 0. 0.
      7.94912595e-003 3.17965029e-003 3.17965029e-003 1.58982514e-003
      1.58982519e-002 6.35930058e-003 6.35930058e-003 3.17965029e-003
      6.35930058e-003 7.94912595e-003 1.58982514e-003 6.35930058e-003
      3.17965029e-003 6.35930058e-003 6.35930058e-003 1.11287758e-002
      6.35930058e-003 9.53895040e-003 1.58982514e-003 4.76947520e-003
      1.58982514e-003 6.35930058e-003 4.76947520e-003</_>
    <_>
      0. 0. 6.80272095e-003 3.40136066e-002 0. 0. 0. 1.36054419e-002 0.
      0. 0. 0. 6.80272095e-003 0. 0. 0. 6.80272095e-003 6.80272095e-003
      1.36054419e-002 1.36054419e-002 0. 0. 2.04081628e-002
      6.80272095e-003 0. 0. 0. 6.80272095e-003 0. 1.36054419e-002
      6.80272095e-003 0. 5.44217676e-002 2.04081628e-002 6.80272095e-003
      6.80272095e-003 0. 0. 1.36054419e-002 6.80272095e-003
      1.36054419e-002 6.80272095e-003 0. 0. 0. 6.80272095e-003
      6.80272095e-003 6.80272095e-003 6.80272095e-003 6.80272095e-003
      2.04081628e-002 0. 6.80272095e-003 6.80272095e-003 0.
      4.08163257e-002 0. 0. 0. 4.08163257e-002 0. 0. 0. 2.04081628e-002
      6.80272095e-003 1.36054419e-002 0. 0. 1.36054419e-002 0. 0. 0.
      6.80272095e-003 6.80272095e-003 1.36054419e-002 6.80272095e-003 0.
      0. 0. 0. 1.36054419e-002 0. 6.80272095e-003 0. 2.04081628e-002
      6.80272095e-003 0. 6.80272095e-003 0. 1.36054419e-002
      6.80272095e-003 6.80272095e-003 6.80272095e-003 0. 0. 0. 0.
      6.80272095e-003 6.80272095e-003 0. 6.80272095e-003 6.80272095e-003
      0. 0. 0. 6.80272095e-003 0. 6.80272095e-003 0. 0. 0. 0.
      3.40136066e-002 0. 1.36054419e-002 6.80272095e-003 0.
      4.08163257e-002 6.80272095e-003 6.80272095e-003 0. 0. 0. 0.
      6.80272095e-003 1.36054419e-002 4.76190448e-002 2.04081628e-002
      6.80272095e-003 0. 1.36054419e-002 6.80272095e-003 2.04081628e-002
      0. 0. 6.80272095e-003 0. 6.80272095e-003 6.80272095e-003
      6.80272095e-003 0. 3.40136066e-002 0. 2.04081628e-002 0. 0.
      6.80272095e-003 0. 6.80272095e-003 6.80272095e-003</_>
    <_>
      1.90476198e-002 0. 9.52380989e-003 2.85714306e-002 9.52380989e-003
      0. 0. 4.76190485e-002 0. 0. 0. 0. 1.90476198e-002 9.52380989e-003
      0. 0. 0. 0. 9.52380989e-003 9.52380989e-003 9.52380989e-003 0. 0.
      0. 0. 9.52380989e-003 1.90476198e-002 2.85714306e-002
      9.52380989e-003 0. 3.80952395e-002 0. 9.52380989e-003
      9.52380989e-003 4.76190485e-002 0. 9.52380989e-003 1.90476198e-002
      0. 0. 9.52380989e-003 0. 0. 0. 0. 1.90476198e-002 0. 0. 0. 0. 0.
      9.52380989e-003 0. 0. 0. 1.90476198e-002 0. 0. 9.52380989e-003 0.
      0. 9.52380989e-003 1.90476198e-002 0. 0. 9.52380989e-003 0. 0.
      2.85714306e-002 0. 9.52380989e-003 0. 9.52380989e-003 0. 0.
      3.80952395e-002 0. 0. 3.80952395e-002 5.71428612e-002 0.
      2.85714306e-002 0. 0. 1.90476198e-002 0. 9.52380989e-003
      9.52380989e-003 0. 9.52380989e-003 9.52380989e-003 0.
      1.90476198e-002 0. 0. 9.52380989e-003 0. 0. 0. 0. 0. 0. 0. 0.
      9.52380989e-003 9.52380989e-003 9.52380989e-003 0. 0.
      3.80952395e-002 0. 0. 0. 0. 9.52380989e-003 0. 0. 1.90476198e-002
      2.85714306e-002 0. 9.52380989e-003 0. 0. 0. 0. 0. 9.52380989e-003
      9.52380989e-003 0. 0. 4.76190485e-002 0. 0. 0. 9.52380989e-003 0.
      0. 0. 0. 9.52380989e-003 0. 0. 9.52380989e-003 0. 0. 0. 0. 0. 0.
      0.</_>
    <_>
      0. 0. 0. 8.46023671e-003 0. 5.07614203e-003 3.38409469e-003
      1.86125208e-002 1.69204734e-003 3.38409469e-003 1.69204734e-003 0.
      1.69204734e-003 0. 5.07614203e-003 5.07614203e-003 1.01522841e-002
      1.18443314e-002 1.69204734e-003 8.46023671e-003 5.07614203e-003
      1.01522841e-002 1.69204734e-003 1.69204734e-003 1.01522841e-002
