<?xml version="1.0"?>
<opencv_storage>
<my_svm type_id="opencv-ml-svm">
  <svm_type>C_SVC</svm_type>
  <kernel><type>RBF</type>
    <gamma>1.0000000000000001e-005</gamma></kernel>
  <C>1.0000000000000001e-001</C>
  <term_criteria><epsilon>1.1920928955078125e-007</epsilon>
    <iterations>1000</iterations></term_criteria>
  <var_all>150</var_all>
  <var_count>150</var_count>
  <class_count>2</class_count>
  <class_labels type_id="opencv-matrix">
    <rows>1</rows>
    <cols>2</cols>
    <dt>i</dt>
    <data>
      0 1</data></class_labels>
  <sv_total>11</sv_total>
  <support_vectors>
    <_>
      1.74757279e-002 1.94174761e-003 2.33009718e-002 0. 1.35922330e-002
      0. 0. 1.94174761e-003 1.35922330e-002 1.94174761e-003
      1.94174761e-003 3.88349523e-003 1.16504859e-002 5.82524296e-003
      1.94174759e-002 0. 0. 1.94174761e-003 1.94174761e-003 0.
      9.70873795e-003 3.88349523e-003 3.88349523e-003 1.16504859e-002
      7.76699046e-003 1.16504859e-002 0. 3.88349523e-003 1.94174761e-003
      1.94174761e-003 1.94174761e-003 3.88349523e-003 3.88349523e-003
      1.16504859e-002 2.71844659e-002 5.82524296e-003 7.76699046e-003
      3.88349523e-003 0. 3.88349523e-003 5.82524296e-003 1.55339809e-002
      1.94174761e-003 3.88349523e-003 0. 3.88349523e-003 1.94174761e-003
      1.35922330e-002 3.88349523e-003 5.82524296e-003 1.94174761e-003
      1.35922330e-002 1.94174761e-003 0. 0. 1.16504859e-002
      9.70873795e-003 1.94174761e-003 7.76699046e-003 0. 3.88349523e-003
      1.55339809e-002 1.94174761e-003 3.88349523e-003 0. 2.91262139e-002
      1.74757279e-002 7.76699046e-003 1.35922330e-002 0. 3.88349523e-003
      0. 9.70873795e-003 7.76699046e-003 1.94174761e-003 5.82524296e-003
      1.94174761e-003 7.76699046e-003 3.88349523e-003 1.16504859e-002
      9.70873795e-003 1.35922330e-002 7.76699046e-003 1.35922330e-002
      9.70873795e-003 1.16504859e-002 5.82524296e-003 7.76699046e-003
      3.88349523e-003 5.82524296e-003 0. 7.76699046e-003 7.76699046e-003
      3.88349523e-003 3.88349523e-003 1.94174761e-003 5.82524296e-003
      5.82524296e-003 0. 5.82524296e-003 7.76699046e-003 1.94174761e-003
      5.82524296e-003 7.76699046e-003 9.70873795e-003 1.35922330e-002
      1.16504859e-002 7.76699046e-003 1.94174761e-003 9.70873795e-003
      7.76699046e-003 0. 7.76699046e-003 3.88349523e-003 1.94174761e-003
      0. 3.88349523e-003 1.94174761e-003 9.70873795e-003 3.88349523e-003
      2.33009718e-002 1.94174761e-003 0. 0. 3.88349523e-003
      1.35922330e-002 3.88349523e-003 1.94174761e-003 1.35922330e-002
      7.76699046e-003 1.55339809e-002 0. 9.70873795e-003 9.70873795e-003
      9.70873795e-003 1.74757279e-002 1.55339809e-002 1.94174761e-003
      3.88349523e-003 5.82524296e-003 5.82524296e-003 1.74757279e-002
      2.52427198e-002 5.82524296e-003 1.35922330e-002 9.70873795e-003
      1.94174761e-003 1.94174761e-003 3.88349523e-003 5.82524296e-003</_>
    <_>
      2.38726791e-002 2.65251985e-003 7.95755908e-003 2.65251985e-003
      5.30503970e-003 5.30503970e-003 0. 1.32625997e-002 2.65251985e-003
      1.59151182e-002 5.30503970e-003 2.65251985e-003 7.95755908e-003 0.
      2.65251985e-003 1.32625997e-002 0. 1.32625997e-002 5.30503970e-003
      2.65251985e-003 1.06100794e-002 2.65251985e-003 7.95755908e-003
      2.65251985e-003 2.65251985e-003 2.12201588e-002 5.30503970e-003
      7.95755908e-003 2.65251985e-003 0. 1.06100794e-002 7.95755908e-003
      5.30503970e-003 5.30503970e-003 5.30503970e-003 2.65251985e-003
      1.32625997e-002 2.65251985e-003 5.30503970e-003 7.95755908e-003
      7.95755908e-003 0. 2.65251985e-003 0. 5.30503970e-003
      7.95755908e-003 1.06100794e-002 2.91777179e-002 2.65251985e-003
      2.65251985e-003 5.30503970e-003 5.30503970e-003 2.65251985e-003 0.
      2.65251985e-003 2.65251985e-003 5.30503970e-003 0. 1.06100794e-002
      7.95755908e-003 5.30503970e-003 0. 5.30503970e-003 2.65251985e-003
      5.30503970e-003 2.65251985e-003 1.32625997e-002 7.95755908e-003
      1.85676385e-002 0. 1.32625997e-002 7.95755908e-003 1.06100794e-002
      1.06100794e-002 2.65251985e-003 2.65251994e-002 2.65251985e-003
      7.95755908e-003 7.95755908e-003 5.30503970e-003 0. 5.30503970e-003
      5.30503970e-003 7.95755908e-003 2.65251985e-003 1.06100794e-002
      1.06100794e-002 5.30503970e-003 1.59151182e-002 1.59151182e-002
      5.30503970e-003 0. 0. 3.97877991e-002 2.65251985e-003
      1.32625997e-002 7.95755908e-003 0. 0. 1.59151182e-002 0.
      1.06100794e-002 2.65251985e-003 0. 5.30503970e-003 1.85676385e-002
      1.32625997e-002 0. 5.30503970e-003 0. 2.65251985e-003
      2.65251985e-003 2.65251985e-003 5.30503970e-003 7.95755908e-003
      1.59151182e-002 7.95755908e-003 1.85676385e-002 5.30503970e-003
      5.30503970e-003 1.32625997e-002 5.30503970e-003 0. 5.30503970e-003
      5.30503970e-003 1.59151182e-002 2.65251985e-003 1.06100794e-002
      2.65251985e-003 0. 0. 2.65251985e-003 1.85676385e-002
      5.30503970e-003 5.30503970e-003 0. 5.30503970e-003 5.30503970e-003
      5.30503970e-003 1.32625997e-002 2.65251985e-003 2.38726791e-002
      5.30503970e-003 5.30503970e-003 2.65251985e-003 2.65251985e-003
      2.65251985e-003 5.30503970e-003 0. 2.65251985e-003</_>
    <_>
      2.34482773e-002 6.89655170e-003 2.75862077e-003 1.37931039e-003
      2.75862077e-003 0. 4.13793139e-003 8.27586278e-003 6.89655170e-003
      2.75862068e-002 9.65517294e-003 8.27586278e-003 6.89655170e-003
      2.75862077e-003 5.51724155e-003 5.51724155e-003 8.27586278e-003
      5.51724155e-003 2.75862077e-003 6.89655170e-003 1.37931034e-002
      6.89655170e-003 6.89655170e-003 2.75862077e-003 6.89655170e-003
      2.75862077e-003 2.75862077e-003 8.27586278e-003 5.51724155e-003
      1.10344831e-002 1.37931034e-002 1.37931039e-003 5.51724155e-003
      6.89655170e-003 6.89655170e-003 5.51724155e-003 2.75862077e-003
      1.10344831e-002 9.65517294e-003 6.89655170e-003 9.65517294e-003
      1.37931039e-003 8.27586278e-003 5.51724155e-003 1.37931039e-003
      2.75862077e-003 2.75862077e-003 9.65517294e-003 8.27586278e-003
      4.13793139e-003 2.75862077e-003 5.51724155e-003 1.10344831e-002
      5.51724155e-003 6.89655170e-003 5.51724155e-003 1.10344831e-002
      4.13793139e-003 5.51724155e-003 5.51724155e-003 2.75862077e-003
      4.13793139e-003 1.37931039e-003 2.75862077e-003 2.75862077e-003 0.
      1.37931034e-002 1.79310348e-002 1.10344831e-002 6.89655170e-003
      8.27586278e-003 5.51724155e-003 1.24137932e-002 5.51724155e-003
      6.89655170e-003 6.89655170e-003 5.51724155e-003 2.75862077e-003
      1.37931034e-002 2.75862077e-003 8.27586278e-003 8.27586278e-003
      9.65517294e-003 1.24137932e-002 1.65517256e-002 1.37931034e-002
      5.51724155e-003 4.13793139e-003 1.10344831e-002 2.75862077e-003
      6.89655170e-003 4.13793139e-003 1.37931039e-003 2.75862077e-003
      4.13793139e-003 4.13793139e-003 5.51724155e-003 6.89655170e-003
      5.51724155e-003 5.51724155e-003 4.13793139e-003 4.13793139e-003
      9.65517294e-003 9.65517294e-003 1.37931039e-003 1.93103459e-002
      1.10344831e-002 9.65517294e-003 6.89655170e-003 9.65517294e-003
      8.27586278e-003 6.89655170e-003 1.37931039e-003 8.27586278e-003
      6.89655170e-003 4.13793139e-003 4.13793139e-003 6.89655170e-003
      6.89655170e-003 5.51724155e-003 4.13793139e-003 0. 5.51724155e-003
      4.13793139e-003 8.27586278e-003 5.51724155e-003 5.51724155e-003
      8.27586278e-003 6.89655170e-003 9.65517294e-003 6.89655170e-003
      5.51724155e-003 4.13793139e-003 1.10344831e-002 8.27586278e-003
      2.75862077e-003 1.24137932e-002 1.10344831e-002 2.75862077e-003
      6.89655170e-003 1.37931039e-003 2.75862077e-003 9.65517294e-003
      2.75862077e-003 1.37931039e-003 5.51724155e-003 6.89655170e-003
      2.75862077e-003 2.75862077e-003 1.51724145e-002</_>
    <_>
      2.14843750e-002 5.85937500e-003 3.90625000e-003 6.05468750e-002 0.
      9.76562500e-003 0. 1.75781250e-002 5.85937500e-003 9.76562500e-003
      5.85937500e-003 0. 0. 0. 1.36718750e-002 1.95312500e-003
      5.85937500e-003 1.95312500e-003 0. 9.76562500e-003 1.95312500e-003
      1.95312500e-003 7.81250000e-003 1.36718750e-002 3.90625000e-003
      5.85937500e-003 1.95312500e-003 1.17187500e-002 3.90625000e-002 0.
      1.56250000e-002 0. 5.85937500e-003 9.76562500e-003 5.85937500e-003
      3.90625000e-003 1.95312500e-003 0. 5.85937500e-003 1.36718750e-002
      5.85937500e-003 3.90625000e-003 1.95312500e-003 1.95312500e-003 0.
      1.95312500e-003 7.81250000e-003 3.90625000e-003 5.85937500e-003
      3.90625000e-003 0. 7.81250000e-003 0. 0. 0. 0. 0. 0.
      1.95312500e-003 1.95312500e-003 1.95312500e-003 0. 0.
      1.95312500e-003 1.95312500e-003 0. 7.81250000e-003 1.36718750e-002
      1.36718750e-002 0. 5.85937500e-003 1.95312500e-003 1.17187500e-002
      1.36718750e-002 1.95312500e-003 7.81250000e-003 1.75781250e-002
      2.73437500e-002 3.32031250e-002 3.90625000e-003 0. 1.56250000e-002
      7.81250000e-003 1.36718750e-002 1.75781250e-002 1.75781250e-002
      1.17187500e-002 7.81250000e-003 1.36718750e-002 1.36718750e-002 0.
      0. 1.95312500e-003 0. 9.76562500e-003 3.90625000e-003
      9.76562500e-003 5.85937500e-003 7.81250000e-003 0. 1.95312500e-003
      1.95312500e-003 3.90625000e-003 3.90625000e-003 0. 1.36718750e-002
      5.85937500e-003 0. 0. 3.90625000e-003 0. 1.95312500e-003
      1.95312500e-003 1.56250000e-002 2.92968750e-002 4.49218750e-002
      1.95312500e-003 7.81250000e-003 3.90625000e-003 3.90625000e-003
      1.95312500e-003 7.81250000e-003 3.90625000e-003 9.76562500e-003
      1.95312500e-003 1.17187500e-002 3.90625000e-003 3.90625000e-003
      7.81250000e-003 1.36718750e-002 5.85937500e-003 3.90625000e-003 0.
      5.85937500e-003 0. 1.95312500e-003 7.81250000e-003 7.81250000e-003
      1.95312500e-003 9.76562500e-003 0. 3.90625000e-003 3.90625000e-003
      5.85937500e-003 5.85937500e-003 7.81250000e-003 7.81250000e-003 0.
      0. 9.76562500e-003</_>
    <_>
      1.79104470e-002 0. 2.98507465e-003 5.97014930e-003 2.38805972e-002
      8.95522349e-003 8.95522349e-003 1.49253737e-002 0. 2.98507465e-003
      8.95522349e-003 0. 2.98507465e-003 0. 0. 1.79104470e-002
      1.49253737e-002 1.49253737e-002 2.98507465e-003 0. 8.95522349e-003
      8.95522349e-003 8.95522349e-003 2.98507465e-003 0. 8.95522349e-003
      2.98507465e-003 1.19402986e-002 5.97014930e-003 1.49253737e-002
      1.79104470e-002 0. 8.95522349e-003 0. 8.95522349e-003 0.
      2.98507465e-003 1.79104470e-002 8.95522349e-003 0. 1.49253737e-002
      8.95522349e-003 2.98507465e-003 2.98507465e-003 5.97014930e-003
      2.98507465e-003 1.79104470e-002 1.19402986e-002 5.97014930e-003
      2.98507465e-003 0. 0. 8.95522349e-003 1.19402986e-002 0.
      2.98507465e-003 2.98507465e-003 1.79104470e-002 0. 0.
      8.95522349e-003 2.98507465e-003 2.98507465e-003 0. 0.
      5.97014930e-003 5.97014930e-003 1.49253737e-002 2.98507465e-003
      1.79104470e-002 5.97014930e-003 2.98507465e-003 5.97014930e-003
      2.98507465e-003 0. 1.49253737e-002 2.98507465e-003 0.
      2.98507465e-003 0. 0. 1.49253737e-002 0. 0. 8.95522349e-003
      8.95522349e-003 1.19402986e-002 0. 5.97014930e-003 5.97014930e-003
      2.98507465e-003 5.97014930e-003 0. 1.49253737e-002 2.98507465e-003
      1.49253737e-002 1.19402986e-002 2.98507465e-003 8.95522349e-003
      1.79104470e-002 0. 1.49253737e-002 0. 0. 0. 1.49253737e-002
      5.97014930e-003 2.98507465e-003 1.79104470e-002 0. 2.98507465e-003
      1.49253737e-002 2.98507465e-003 2.98507465e-003 2.98507465e-003
      1.19402986e-002 0. 1.19402986e-002 1.19402986e-002 0.
      2.68656723e-002 5.97014930e-003 8.95522349e-003 5.97014930e-003
      1.49253737e-002 2.98507465e-003 1.79104470e-002 8.95522349e-003 0.
      2.98507465e-003 1.19402986e-002 3.28358226e-002 1.49253737e-002 0.
      5.97014930e-003 2.98507465e-003 5.97014930e-003 2.98507465e-003
      5.97014930e-003 8.95522349e-003 2.98507465e-003 2.98507465e-003
      1.49253737e-002 2.98507465e-003 2.98507465e-003 2.98507465e-003 0.
      0. 8.95522349e-003 0.</_>
    <_>
      0. 0. 5.71428565e-003 0. 2.57142857e-002 0. 5.71428565e-003
      4.85714264e-002 2.85714283e-003 8.57142825e-003 5.71428565e-003
      8.57142825e-003 0. 2.28571426e-002 0. 0. 2.85714283e-003
      8.57142825e-003 1.42857144e-002 4.85714264e-002 2.85714283e-003
      8.57142825e-003 1.42857144e-002 1.14285713e-002 8.57142825e-003 0.
      5.71428565e-003 1.14285713e-002 2.85714283e-003 0. 2.85714283e-003
      8.57142825e-003 8.57142825e-003 0. 2.85714283e-003 5.71428565e-003
      1.42857144e-002 5.71428565e-003 5.71428565e-003 0. 8.57142825e-003
      8.57142825e-003 0. 0. 0. 2.85714283e-003 5.71428565e-003 0.
      2.85714283e-003 0. 5.14285713e-002 0. 0. 0. 5.71428565e-003
      1.42857144e-002 0. 0. 0. 1.42857144e-002 1.14285713e-002
      5.71428565e-003 0. 0. 2.85714283e-003 1.71428565e-002
      2.85714283e-003 0. 0. 0. 2.85714283e-003 2.85714283e-003
      5.71428565e-003 0. 8.57142825e-003 0. 2.85714283e-003 0.
      2.85714283e-003 1.14285713e-002 2.85714283e-003 5.71428565e-003
      5.71428565e-003 0. 1.42857144e-002 0. 2.85714283e-003
      5.71428565e-003 0. 1.14285713e-002 2.85714283e-003 1.71428565e-002
      1.71428565e-002 0. 5.71428565e-003 1.42857144e-002 2.85714283e-003
      2.85714283e-003 5.71428565e-003 0. 2.85714283e-003 2.85714283e-003
      1.14285713e-002 1.42857144e-002 0. 5.71428565e-003 8.57142825e-003
      1.99999996e-002 0. 2.85714283e-003 5.71428565e-003 0.
      8.57142825e-003 0. 1.14285713e-002 0. 1.71428565e-002
      7.42857158e-002 8.57142825e-003 2.85714283e-003 0. 8.57142825e-003
      8.57142825e-003 5.71428565e-003 0. 2.85714283e-003 1.99999996e-002
      5.71428565e-003 0. 0. 1.42857144e-002 0. 8.57142825e-003 0. 0.
      5.71428565e-003 0. 2.85714283e-003 5.71428565e-003 2.85714283e-003
      2.57142857e-002 1.14285713e-002 5.71428565e-003 2.85714283e-003 0.
      0. 5.71428565e-003 2.85714283e-003 1.71428565e-002 2.85714283e-003</_>
    <_>
      9.94035788e-003 5.96421445e-003 5.96421445e-003 1.78926438e-002 0.
      5.96421445e-003 9.94035788e-003 7.95228593e-003 3.97614297e-003
      3.97614297e-003 1.19284289e-002 3.97614297e-003 9.94035788e-003
      3.97614297e-003 0. 3.97614297e-003 3.97614297e-003 7.95228593e-003
      5.96421445e-003 7.95228593e-003 1.98807158e-002 3.97614297e-003
      3.97614297e-003 5.96421445e-003 1.98807148e-003 5.96421445e-003
      3.97614297e-003 1.78926438e-002 5.96421445e-003 7.95228593e-003
      1.19284289e-002 1.98807148e-003 0. 1.98807148e-003 5.96421445e-003
      3.97614297e-003 1.98807148e-003 1.19284289e-002 5.96421445e-003
      1.98807148e-003 5.96421445e-003 0. 1.98807148e-003 7.95228593e-003
      3.97614297e-003 5.96421445e-003 3.97614297e-003 3.97614297e-003
      3.97614297e-003 9.94035788e-003 9.94035788e-003 0. 7.95228593e-003
      3.97614297e-003 1.98807148e-003 5.96421445e-003 7.95228593e-003
      9.94035788e-003 5.96421445e-003 9.94035788e-003 7.95228593e-003
      7.95228593e-003 5.96421445e-003 1.19284289e-002 3.97614297e-003
      1.98807148e-003 5.96421445e-003 3.97614297e-003 9.94035788e-003
      5.96421445e-003 7.95228593e-003 3.97614297e-003 1.59045719e-002
      3.97614297e-003 3.97614297e-003 1.19284289e-002 7.95228593e-003
      5.96421445e-003 9.94035788e-003 3.97614297e-003 3.97614297e-003
      5.96421445e-003 3.97614297e-003 3.97614297e-003 5.96421445e-003
      5.96421445e-003 1.39164999e-002 7.95228593e-003 5.96421445e-003
      1.59045719e-002 9.94035788e-003 7.95228593e-003 1.98807148e-003
      1.19284289e-002 7.95228593e-003 9.94035788e-003 7.95228593e-003
      1.98807148e-003 5.96421445e-003 1.59045719e-002 3.97614297e-003
      1.19284289e-002 5.96421445e-003 1.98807148e-003 5.96421445e-003 0.
      1.39164999e-002 9.94035788e-003 7.95228593e-003 7.95228593e-003
      1.98807148e-003 1.59045719e-002 7.95228593e-003 9.94035788e-003
      9.94035788e-003 1.98807148e-003 1.19284289e-002 3.97614297e-003
      5.96421445e-003 5.96421445e-003 1.98807148e-003 9.94035788e-003
      5.96421445e-003 1.39164999e-002 5.96421445e-003 9.94035788e-003
      3.97614297e-003 7.95228593e-003 9.94035788e-003 5.96421445e-003
      3.97614297e-003 1.19284289e-002 1.39164999e-002 5.96421445e-003
      1.19284289e-002 5.96421445e-003 5.96421445e-003 3.97614297e-003
      5.96421445e-003 3.97614297e-003 0. 7.95228593e-003 1.98807148e-003
      7.95228593e-003 1.19284289e-002 3.97614297e-003 1.98807148e-003 0.
      3.97614297e-003 1.98807148e-003</_>
    <_>
      6.26959233e-003 0. 3.13479616e-003 0. 0. 6.26959233e-003
      3.13479616e-003 9.40438826e-003 0. 6.26959233e-003 9.40438826e-003
      6.26959233e-003 1.25391847e-002 0. 9.40438826e-003 1.88087765e-002
      9.40438826e-003 1.88087765e-002 9.40438826e-003 3.13479616e-003 0.
      1.56739801e-002 1.25391847e-002 6.26959233e-003 9.40438826e-003
      1.56739801e-002 1.88087765e-002 0. 3.13479616e-003 0.
      9.40438826e-003 6.26959233e-003 0. 3.13479616e-003 0.
      9.40438826e-003 6.26959233e-003 9.40438826e-003 3.13479616e-003
      3.13479616e-003 9.40438826e-003 9.40438826e-003 6.26959233e-003
      3.13479616e-003 9.40438826e-003 3.13479616e-003 9.40438826e-003
      1.88087765e-002 0. 1.25391847e-002 1.56739801e-002 3.13479616e-003
      3.13479616e-003 1.88087765e-002 6.26959233e-003 3.13479616e-003 0.
      9.40438826e-003 9.40438826e-003 9.40438826e-003 3.13479616e-003
      6.26959233e-003 3.13479616e-003 9.40438826e-003 6.26959233e-003 0.
      9.40438826e-003 9.40438826e-003 6.26959233e-003 3.13479616e-003
      3.13479616e-003 6.26959233e-003 3.13479616e-003 1.25391847e-002
      3.13479616e-003 1.25391847e-002 0. 3.13479616e-003 3.13479616e-003
      0. 3.13479616e-003 6.26959233e-003 2.82131657e-002 1.88087765e-002
      1.56739801e-002 9.40438826e-003 1.56739801e-002 6.26959233e-003
      3.13479616e-003 1.56739801e-002 1.56739801e-002 3.13479616e-003
      3.13479616e-003 6.26959233e-003 3.13479616e-003 1.25391847e-002 0.
      1.25391847e-002 3.13479616e-003 1.25391847e-002 6.26959233e-003
      1.25391847e-002 6.26959233e-003 3.13479616e-003 1.25391847e-002
      3.13479616e-003 0. 3.13479616e-003 9.40438826e-003 3.13479616e-003
      0. 3.13479616e-003 0. 3.13479616e-003 0. 3.13479616e-003
      3.13479616e-003 3.13479616e-003 3.13479616e-003 3.13479616e-003
      3.13479616e-003 6.26959233e-003 9.40438826e-003 6.26959233e-003
      3.13479616e-003 1.56739801e-002 1.56739801e-002 0. 3.13479616e-003
      6.26959233e-003 0. 3.13479616e-003 0. 1.25391847e-002 0.
      3.13479616e-003 2.19435729e-002 6.26959233e-003 0. 1.25391847e-002
      0. 1.25391847e-002 0. 9.40438826e-003 9.40438826e-003
      1.25391847e-002 6.26959233e-003 9.40438826e-003 3.13479616e-003
      6.26959233e-003</_>
    <_>
      5.95238060e-003 9.35374107e-003 3.40136047e-003 0. 0.
      2.55102036e-003 7.65306130e-003 2.55102036e-003 2.55102036e-003
      4.25170083e-003 8.50340165e-003 7.65306130e-003 1.19047612e-002
      3.40136047e-003 4.25170083e-003 3.40136047e-003 5.10204071e-003
      8.50340165e-003 5.95238060e-003 4.25170083e-003 2.55102036e-003
      5.95238060e-003 1.19047612e-002 9.35374107e-003 1.02040814e-002
      1.27551015e-002 5.10204071e-003 8.50340165e-003 1.70068024e-003 0.
      7.65306130e-003 5.95238060e-003 8.50340119e-004 1.10544218e-002
      1.70068024e-003 6.80272095e-003 7.65306130e-003 9.35374107e-003
      7.65306130e-003 5.95238060e-003 4.25170083e-003 4.25170083e-003
      4.25170083e-003 2.55102036e-003 2.55102036e-003 4.25170083e-003
      5.95238060e-003 1.19047612e-002 2.55102036e-003 1.53061226e-002
      5.10204071e-003 9.35374107e-003 5.95238060e-003 1.27551015e-002
      6.80272095e-003 1.70068024e-003 7.65306130e-003 4.25170083e-003
      4.25170083e-003 7.65306130e-003 5.10204071e-003 6.80272095e-003
      5.10204071e-003 5.10204071e-003 1.27551015e-002 8.50340119e-004
      1.78571418e-002 1.78571418e-002 4.25170083e-003 8.50340119e-004
      1.19047612e-002 5.10204071e-003 6.80272095e-003 8.50340165e-003
      5.10204071e-003 5.10204071e-003 8.50340165e-003 3.40136047e-003
      8.50340165e-003 2.55102036e-003 1.02040814e-002 1.02040814e-002
      8.50340165e-003 7.65306130e-003 1.10544218e-002 1.19047612e-002
      1.44557822e-002 1.44557822e-002 1.70068033e-002 1.19047612e-002
      1.02040814e-002 1.02040814e-002 6.80272095e-003 3.40136047e-003
      8.50340165e-003 9.35374107e-003 1.10544218e-002 3.40136047e-003
      8.50340165e-003 7.65306130e-003 7.65306130e-003 4.25170083e-003
      9.35374107e-003 1.10544218e-002 9.35374107e-003 7.65306130e-003
      8.50340165e-003 1.70068024e-003 1.70068024e-003 3.40136047e-003
      4.25170083e-003 1.70068024e-003 6.80272095e-003 5.10204071e-003
      4.25170083e-003 6.80272095e-003 5.95238060e-003 1.70068024e-003
      5.95238060e-003 3.40136047e-003 2.55102036e-003 5.10204071e-003
      9.35374107e-003 2.55102036e-003 2.55102036e-003 8.50340165e-003
      2.55102036e-003 5.10204071e-003 1.78571418e-002 5.10204071e-003
      2.55102036e-003 3.40136047e-003 8.50340119e-004 1.61564630e-002
      1.19047612e-002 3.40136047e-003 1.36054419e-002 5.95238060e-003
      5.10204071e-003 4.25170083e-003 6.80272095e-003 7.65306130e-003
      4.25170083e-003 7.65306130e-003 8.50340165e-003 6.80272095e-003
      4.25170083e-003 8.50340165e-003 5.10204071e-003 5.95238060e-003</_>
    <_>
      0. 0. 0. 4.83443707e-001 0. 0. 0. 7.94702023e-002 0. 0. 0. 0. 0.
      0. 0. 1.32450331e-002 0. 0. 0. 2.64900662e-002 0. 0. 0. 0.
      6.62251655e-003 0. 0. 1.98675506e-002 0. 6.62251655e-003
      6.62251655e-003 0. 1.98675506e-002 0. 0. 0. 0. 0. 0. 0. 0. 0. 0.
      0. 0. 0. 0. 0. 6.62251655e-003 0. 6.62251655e-003 0. 0.
      1.32450331e-002 0. 0. 0. 0. 0. 0. 0. 0. 0. 0. 0. 0. 0. 0. 0.
      1.32450331e-002 0. 0. 0. 0. 6.62251655e-003 4.63576168e-002 0. 0.
      1.32450331e-002 0. 0. 1.98675506e-002 0. 0. 6.62251655e-003 0. 0.
      0. 6.62251655e-003 0. 0. 6.62251655e-003 0. 0. 0. 0. 0. 0. 0.
      6.62251655e-003 0. 0. 0. 0. 0. 6.62251655e-003 0. 0.
      6.62251655e-003 0. 0. 0. 6.62251655e-003 0. 2.64900662e-002 0. 0.
      7.28476793e-002 6.62251655e-003 0. 0. 0. 0. 0. 0. 0. 0. 0. 0.
      6.62251655e-003 6.62251655e-003 0. 0. 0. 0. 0. 0. 6.62251655e-003
      0. 3.31125818e-002 6.62251655e-003 0. 0. 0. 0. 0. 0. 0. 0. 0.</_>
    <_>
      1.19047621e-002 1.19047621e-002 5.95238097e-002 0. 3.57142873e-002
      1.19047621e-002 0. 0. 0. 0. 0. 0. 3.57142873e-002 0. 0.
      1.19047621e-002 0. 0. 0. 0. 0. 0. 1.19047621e-002 0. 0. 0. 0. 0.
      0. 0. 1.19047621e-002 0. 0. 3.57142873e-002 7.14285746e-002 0. 0.
      0. 0. 1.19047621e-002 0. 0. 0. 0. 0. 4.76190485e-002 0.
      1.19047621e-002 0. 0. 0. 0. 3.57142873e-002 1.19047621e-002 0. 0.
      0. 1.19047621e-002 0. 0. 0. 3.57142873e-002 0. 0. 1.19047621e-002
      4.76190485e-002 0. 0. 0. 2.38095243e-002 1.19047621e-002 0. 0. 0.
      2.38095243e-002 0. 0. 0. 0. 1.19047621e-002 0. 0. 0. 0. 0. 0.
      1.19047621e-002 0. 0. 1.19047621e-002 4.76190485e-002
      1.19047621e-002 0. 0. 0. 0. 0. 0. 0. 0. 0. 0. 1.19047621e-002 0.
      0. 1.19047621e-002 0. 0. 0. 1.19047621e-002 0. 1.19047621e-002 0.
      0. 0. 0. 0. 0. 0. 0. 4.76190485e-002 0. 0. 1.19047621e-002 0. 0.
      0. 0. 0. 2.38095243e-002 2.38095243e-002 0. 3.57142873e-002 0.
      1.19047621e-002 2.38095243e-002 0. 0. 0. 0. 0. 0. 7.14285746e-002
      0. 1.19047621e-002 0. 0. 0. 0. 0.</_></support_vectors>
  <decision_functions>
    <_>
      <sv_count>11</sv_count>
      <rho>1.0000000566244127e+000</rho>
      <alpha>
        1.0000000000000001e-001 1.0000000000000001e-001
        1.0000000000000001e-001 1.0000000000000001e-001
        1.0000000000000001e-001 -1.0000000000000001e-001
        -1.0000000000000001e-001 -1.0000000000000001e-001
        -8.9772727255794132e-002 -1.0227272744205873e-002
        -1.0000000000000001e-001</alpha>
      <index>
        0 1 2 3 4 5 6 7 8 9 10</index></_></decision_functions></my_svm>
</opencv_storage>
